word,0,1,2,3,4,5,6,7,8,9,10,11,12,13,14,15,16,17,18,19,20,21,22,23,24,25,26,27,28,29,30,31,32,33,34,35,36,37,38,39,40,41,42,43,44,45,46,47,48,49,50,51,52,53,54,55,56,57,58,59,60,61,62,63,64,65,66,67,68,69,70,71,72,73,74,75,76,77,78,79,80,81,82,83,84,85,86,87,88,89,90,91,92,93,94,95,96,97,98,99,100,101,102,103,104,105,106,107,108,109,110,111,112,113,114,115,116,117,118,119,120,121,122,123,124,125,126,127,128,129,130,131,132,133,134,135,136,137,138,139,140,141,142,143,144,145,146,147,148,149,150,151,152,153,154,155,156,157,158,159,160,161,162,163,164,165,166,167,168,169,170,171,172,173,174,175,176,177,178,179,180,181,182,183,184,185,186,187,188,189,190,191,192,193,194,195,196,197,198,199,200,201,202,203,204,205,206,207,208,209,210,211,212,213,214,215,216,217,218,219,220,221,222,223,224,225,226,227,228,229,230,231,232,233,234,235,236,237,238,239,240,241,242,243,244,245,246,247,248,249,250,251,252,253,254,255,256,257,258,259,260,261,262,263,264,265,266,267,268,269,270,271,272,273,274,275,276,277,278,279,280,281,282,283,284,285,286,287,288,289,290,291,292,293,294,295,296,297,298,299
情怀,-0.29026687145233154,-0.856194019317627,1.145011067390442,-1.625783085823059,0.4592428505420685,1.487892508506775,0.4279700815677643,-0.8071169853210449,-0.9872925877571106,0.5312832593917847,-0.3461599349975586,0.72989821434021,-0.4122156798839569,0.78248131275177,0.5350846648216248,0.47485050559043884,0.26866719126701355,-0.5994279980659485,1.308656930923462,-0.7145185470581055,0.04013993963599205,1.0254006385803223,-0.4705471694469452,-0.10248850286006927,0.5712465643882751,0.45072656869888306,-0.7926509976387024,0.8728307485580444,-1.3468507528305054,0.4113644063472748,0.45057374238967896,0.2046995609998703,-1.427115559577942,0.6593668460845947,1.3412227630615234,-1.2653238773345947,0.05411636084318161,-0.9023008346557617,-1.2185378074645996,0.08671393245458603,-0.4500609338283539,-0.2651585042476654,-0.06317559629678726,-0.4130524694919586,0.6162397265434265,-0.8887383937835693,-0.12616194784641266,-1.386281132698059,1.923174500465393,1.161309003829956,-0.002122729318216443,0.07929209619760513,-0.44377243518829346,0.020314279943704605,1.575148105621338,-0.16603945195674896,-1.2600443363189697,-2.4410717487335205,0.6521499156951904,-0.14774608612060547,0.04878830537199974,0.12417850643396378,0.15170085430145264,-0.19554026424884796,-1.3445268869400024,-0.5462818145751953,1.4343668222427368,0.06622568517923355,-1.1352639198303223,0.7555831670761108,0.4066912531852722,-0.7755993604660034,0.6018179059028625,-0.37237685918807983,1.0075340270996094,-0.7990185618400574,1.4296540021896362,-0.1790454089641571,0.6549052000045776,0.5048094391822815,0.07911409437656403,0.44055455923080444,-0.24396362900733948,-0.6760259866714478,-1.4868484735488892,1.1234019994735718,0.8057239651679993,0.10124080628156662,0.005805916618555784,-0.9963964819908142,1.480760097503662,-1.3640923500061035,0.1921255737543106,-0.5746327042579651,-0.22226056456565857,1.582318902015686,0.8764699697494507,0.1389305144548416,0.43933722376823425,-0.9446982741355896,-1.2381947040557861,0.013416784815490246,-0.492601215839386,0.009193241596221924,-1.060507893562317,-0.21325454115867615,-0.1087825670838356,1.6213648319244385,0.808256983757019,-0.23383043706417084,1.1495811939239502,0.9360818266868591,-0.6348013281822205,-0.20933057367801666,1.5988463163375854,0.6485694050788879,-0.4577051103115082,0.8230960965156555,0.2672489881515503,-0.6590957045555115,-0.28734490275382996,-0.54830402135849,0.057210080325603485,0.06221237778663635,0.025577226653695107,-0.5322372317314148,-0.006921979133039713,1.670203447341919,1.000097632408142,-0.6506652235984802,0.09593847393989563,-0.5226941108703613,-0.9489917159080505,0.7408705353736877,-0.5341644883155823,0.8130183219909668,0.31314411759376526,0.7738479971885681,-2.067410945892334,-0.05909939110279083,0.49201422929763794,1.0242841243743896,0.44799578189849854,0.4253355860710144,0.4933876395225525,-0.5896072387695312,-0.1918126940727234,-1.2936385869979858,-1.5741254091262817,-1.2354044914245605,1.4097152948379517,-0.7867467403411865,0.9726043343544006,0.7260011434555054,0.27332472801208496,1.1632628440856934,-0.36958426237106323,-0.12451440840959549,0.7619147896766663,-0.5434213280677795,0.9484925866127014,-1.0974074602127075,-0.3152770698070526,1.3103855848312378,-0.029305744916200638,0.22420789301395416,0.2157316505908966,0.1474793404340744,0.3939947187900543,0.03497006371617317,-3.1007049083709717,0.6648330092430115,-1.7722454071044922,0.40786415338516235,1.4391899108886719,0.7603257298469543,-1.3172168731689453,-0.3543221652507782,-0.5892152786254883,0.34773239493370056,-0.21258240938186646,-0.4090569019317627,-0.23445600271224976,-0.8132074475288391,0.12328225374221802,0.20640654861927032,1.6296260356903076,-0.7323796153068542,-1.8549219369888306,0.40833380818367004,-0.818597674369812,0.9816869497299194,-1.1237837076187134,1.3388489484786987,-1.3503092527389526,1.4780062437057495,0.6424309015274048,0.3708503842353821,-0.16307957470417023,-1.3337754011154175,-0.24364368617534637,0.9809419512748718,0.3691791594028473,-1.3457000255584717,-0.3348160982131958,1.305094838142395,0.7996853590011597,0.1893959641456604,-0.04650291055440903,-0.1252104640007019,0.07840463519096375,0.5418680310249329,0.3292756676673889,0.663539469242096,0.10606751590967178,-1.4992178678512573,0.04213159531354904,0.6971672177314758,0.44617176055908203,-0.37666651606559753,0.17473170161247253,0.5031164288520813,-0.2597019672393799,-1.0090432167053223,-0.9476996064186096,0.13627265393733978,-0.4080888032913208,0.6220911145210266,-0.41249120235443115,1.7623639106750488,-0.18319623172283173,-0.3784307539463043,1.0578856468200684,-0.8964774012565613,0.2575385868549347,0.11227139085531235,0.5632990598678589,0.037821296602487564,-0.23082512617111206,0.4792197644710541,-0.1631997525691986,-0.2947021424770355,0.24026253819465637,0.6777306199073792,0.028744174167513847,1.1429228782653809,-0.3120403587818146,0.09787154197692871,-0.2582891285419464,0.6227158904075623,1.2605130672454834,1.0162415504455566,0.0429481603205204,1.2221118211746216,0.1788019984960556,-1.8725124597549438,-0.37318551540374756,0.161733478307724,2.0036141872406006,-0.6683977842330933,0.5734981298446655,-0.47009098529815674,-0.260322242975235,-0.9099976420402527,0.32610923051834106,0.22885145246982574,-1.6164194345474243,1.1658612489700317,0.0687103122472763,1.3146358728408813,-1.1498652696609497,-0.5917289853096008,-0.31205683946609497,0.19192782044410706,-0.7318512797355652,0.9308468103408813,-1.6207634210586548,0.980957567691803,0.023269375786185265,-0.44490712881088257,-1.1224864721298218,1.3686628341674805,0.8526903390884399,-0.3264007270336151,0.1806478053331375,-0.5479446053504944,0.2592995762825012,0.4915989637374878,-0.4102986454963684,-1.1760190725326538,0.1498003751039505,-1.8807841539382935,-0.058509379625320435,-0.11717365682125092,0.12861809134483337,-0.7124283909797668,-0.2678380310535431,0.2472352385520935,-0.5257368087768555,-0.4427191913127899
远远,0.5748387575149536,0.5929577946662903,-0.40235278010368347,0.047057539224624634,-0.30961111187934875,-0.3115417957305908,0.026553208008408546,-1.3532698154449463,-0.7647114992141724,-1.103515863418579,-0.8992224931716919,-0.6163249611854553,-0.8189197182655334,0.4384562373161316,1.482154130935669,-1.0735934972763062,-0.4041443467140198,-0.4214544892311096,-0.24148321151733398,0.18382491171360016,-0.03685503080487251,-0.4462963342666626,0.2816878855228424,-0.9200728535652161,2.854581594467163,0.3534742295742035,1.5635122060775757,-1.8518517017364502,-0.8274246454238892,1.9739352464675903,0.17555689811706543,-1.5619537830352783,-1.6519378423690796,-0.6930063962936401,-0.7830765843391418,-0.14790122210979462,-0.6784875988960266,-1.4108198881149292,-1.137624740600586,-0.2672570049762726,1.3109766244888306,1.8546984195709229,-0.29982608556747437,-0.11947976052761078,0.45055222511291504,1.1527117490768433,-1.0865229368209839,0.2742767333984375,-1.5870426893234253,-1.2357840538024902,-0.18260490894317627,-0.19035862386226654,-1.2542399168014526,1.1329057216644287,1.2695415019989014,-0.06479363888502121,-1.9128957986831665,1.0912811756134033,2.08182954788208,-0.35037097334861755,0.4525391757488251,0.6636061072349548,0.5865287184715271,-0.9854902029037476,-1.3488707542419434,1.9486258029937744,-0.03681643679738045,0.7829951047897339,0.5651623606681824,0.6901649832725525,-1.129685640335083,-0.5578879714012146,-0.42297202348709106,0.7050321698188782,0.882520318031311,-0.9179502725601196,0.5848497748374939,0.7272179126739502,0.2583812475204468,-0.38120123744010925,1.819148063659668,-1.0308263301849365,-0.2166105955839157,-0.27343496680259705,0.25887298583984375,-0.055012527853250504,-1.5893018245697021,1.6143628358840942,0.36573565006256104,0.6966196894645691,-0.715498149394989,0.31142163276672363,-0.9123287796974182,0.6623321175575256,-0.9192599654197693,0.6269216537475586,2.4645423889160156,-1.3151150941848755,0.98680180311203,-0.074981689453125,-0.41612592339515686,0.46083569526672363,-0.09417373687028885,-0.8099308013916016,0.4375103712081909,0.30090436339378357,1.14971923828125,-0.9395073652267456,-1.0668092966079712,-1.0073169469833374,0.6261350512504578,-0.1207699403166771,-0.7261268496513367,-0.39583560824394226,-0.1628098338842392,-0.2780252695083618,0.8697170615196228,0.7250558137893677,-0.6416515707969666,0.7194210886955261,-1.0635130405426025,-1.6770124435424805,-1.5331125259399414,0.7197612524032593,-1.3207203149795532,0.2146673947572708,1.4636837244033813,0.3675135672092438,-1.1120524406433105,0.07946372032165527,0.27027544379234314,-1.2678431272506714,-1.9311256408691406,-0.45558884739875793,-1.0147936344146729,0.3169776499271393,1.513962984085083,0.6492183208465576,-0.1614244133234024,-0.9135795831680298,0.5244167447090149,0.977690577507019,1.0107109546661377,0.37890323996543884,0.06571632623672485,0.7477545142173767,-1.9562089443206787,-0.13849861919879913,-0.03744060546159744,-2.238429546356201,-0.6663879752159119,0.6119323372840881,-1.0303553342819214,1.4972223043441772,0.5755921006202698,-0.0007850544061511755,1.0235155820846558,-1.2690049409866333,-1.0834479331970215,-0.006829111371189356,-1.6448558568954468,0.5386192202568054,0.17360974848270416,-1.5816504955291748,0.7269219756126404,1.116269588470459,0.6229574680328369,1.346115231513977,-0.680802047252655,0.7139153480529785,-0.9008614420890808,-1.1490342617034912,1.0455896854400635,-0.11482303589582443,1.123646855354309,-0.45248115062713623,-0.3699628710746765,-2.118300676345825,-0.9958480000495911,-0.6421654224395752,-0.0577121302485466,-0.467937171459198,-1.4694132804870605,1.0855568647384644,0.07072962075471878,0.354932963848114,-1.6213202476501465,-0.5449098944664001,0.6048155426979065,0.654463529586792,-1.5054620504379272,0.26586437225341797,0.02850227802991867,0.7885525822639465,0.07393836230039597,-0.2890878915786743,-1.5514392852783203,-1.365031123161316,0.32400259375572205,1.0294469594955444,-0.6198069453239441,-0.49820899963378906,2.330990791320801,-0.0016584652476012707,0.11534973233938217,0.3258008062839508,-0.49956968426704407,0.3040730953216553,0.4011958837509155,1.868177056312561,-1.8676472902297974,-1.7353224754333496,0.7664526104927063,-0.20083589851856232,-1.3914809226989746,-1.3218358755111694,0.11977113783359528,-0.854225754737854,-0.9816060662269592,0.7972214221954346,0.5305517911911011,0.11611445248126984,0.1343686729669571,0.6043298244476318,-1.4975978136062622,0.6816428899765015,-0.2817310690879822,0.5919532179832458,-1.5413273572921753,0.16725100576877594,-0.27614107728004456,0.1260964572429657,0.9334829449653625,0.605512261390686,-1.3046658039093018,0.10082849860191345,-0.6466773748397827,-0.22829243540763855,0.341048002243042,-1.3585857152938843,0.6671285629272461,0.46717482805252075,0.7043086886405945,0.10679619014263153,-1.3324227333068848,0.0873260423541069,-0.6650515794754028,-0.6356472373008728,-1.6132920980453491,-0.4966714084148407,-0.9493162631988525,1.6239173412322998,0.09752445667982101,1.272328495979309,-1.555492877960205,-0.3853777050971985,0.16691836714744568,-2.1016948223114014,0.4420613944530487,-0.0972968190908432,-1.477800726890564,0.2343008816242218,0.7889341711997986,1.4356024265289307,2.560389757156372,0.7500364780426025,-0.6460853815078735,2.4380269050598145,-0.7662411332130432,0.3025478422641754,0.8598770499229431,0.14346976578235626,-1.1897870302200317,0.9304011464118958,-0.32931727170944214,0.4582716226577759,-0.317429780960083,0.5692642331123352,0.8840340375900269,-0.16454392671585083,0.7450411915779114,1.2372374534606934,0.5783440470695496,-0.12113057076931,-0.6962907910346985,1.1063846349716187,-1.0904561281204224,0.5577370524406433,-0.5449575185775757,0.8694734573364258,-1.4467339515686035,-0.3298178017139435,0.8470130562782288,-0.3477843105792999,-0.12067150324583054,0.4019600450992584,1.1767892837524414,-0.8834207057952881,0.13721811771392822,-1.1115188598632812
导致,1.0273585319519043,-1.339281439781189,0.6075925827026367,-2.0668606758117676,-0.25995826721191406,0.691798210144043,2.2420477867126465,-0.4683316946029663,-1.9656963348388672,0.4120542109012604,-0.2058396339416504,-0.10570413619279861,-1.5914427042007446,0.04801202565431595,-1.8230502605438232,-0.3785313367843628,2.655038595199585,0.6178696155548096,-1.1740050315856934,-0.12584374845027924,0.4873322546482086,-2.4748644828796387,0.6420186758041382,-0.8752054572105408,1.2588887214660645,-2.1751904487609863,0.5909527540206909,-3.5613343715667725,-1.360427975654602,0.44839707016944885,0.3809569478034973,-2.112130641937256,0.34805041551589966,-1.4429936408996582,-1.667864441871643,-1.5761168003082275,0.1759859323501587,-2.3336641788482666,-1.178202748298645,-1.8605639934539795,0.3969423770904541,-0.6408625245094299,-1.1756978034973145,-0.7231195569038391,-0.35641565918922424,3.013866901397705,-0.2536121904850006,0.7267183065414429,-2.035001516342163,-0.5224347114562988,2.571002244949341,1.7087489366531372,1.5430625677108765,-1.0401289463043213,-0.8481253981590271,1.6231786012649536,2.491072654724121,1.5421515703201294,0.6999051570892334,-2.0313520431518555,-0.4787532687187195,0.18021392822265625,1.3344879150390625,-0.66266930103302,1.2635401487350464,1.1316224336624146,1.0533638000488281,0.7348406910896301,0.3719550371170044,-0.20865866541862488,-1.9464815855026245,0.16486994922161102,-1.2537319660186768,-3.269026279449463,1.3875600099563599,0.21254166960716248,-0.0975809395313263,-1.8854280710220337,0.4982798993587494,-0.29916912317276,2.980997323989868,-1.1345293521881104,0.15364012122154236,-0.9255163073539734,1.2604767084121704,-2.5878233909606934,1.0665615797042847,1.3357728719711304,-1.0484623908996582,-2.184220314025879,0.3686029613018036,-0.3954283893108368,-0.8556034564971924,0.5216365456581116,-0.9592751264572144,-2.262267827987671,-0.003199233440682292,1.705313801765442,-2.2222564220428467,0.48019176721572876,2.7587203979492188,-0.33198457956314087,1.845988392829895,-1.4445024728775024,0.7074189186096191,1.0093655586242676,2.573939561843872,0.8187089562416077,-0.78268963098526,-2.0963902473449707,-0.6850739121437073,-0.9255315065383911,0.21837672591209412,-1.3308414220809937,0.6782737970352173,-2.2814550399780273,1.2246907949447632,0.6418344974517822,-1.8189042806625366,0.7358859777450562,-1.10506272315979,0.13609647750854492,-1.4308682680130005,1.085139274597168,1.189150094985962,0.22262129187583923,0.5429168939590454,-0.04347270354628563,-1.023112416267395,1.1030787229537964,-0.23902523517608643,0.8329097628593445,-0.8824436664581299,-0.5322971343994141,-0.10996951162815094,0.376213014125824,1.0314185619354248,-0.010351242497563362,-0.9733356833457947,-0.24539148807525635,-0.6987630724906921,-0.29409539699554443,-1.4255962371826172,0.5834747552871704,-0.04258689656853676,1.8088620901107788,-3.2857751846313477,0.17469140887260437,0.6598174571990967,0.7360275983810425,-0.1324670910835266,-1.0660172700881958,-0.7486851811408997,1.7264258861541748,1.2948602437973022,-0.7020758390426636,-0.3501906394958496,2.6953396797180176,-1.896037220954895,1.0569891929626465,-0.40891456604003906,-0.15658067166805267,-0.4415982663631439,0.6167364716529846,2.1919896602630615,-0.08283904939889908,0.16424134373664856,0.7535295486450195,0.6140521168708801,0.3528470993041992,-0.4765584468841553,-2.028140068054199,-0.014429624192416668,0.09511831402778625,1.6345237493515015,1.9423058032989502,2.0112838745117188,1.5280897617340088,0.005407842807471752,0.0205384474247694,0.8612732887268066,-0.2000460922718048,-0.746393084526062,0.6012174487113953,0.22184531390666962,1.2767783403396606,-0.9162719249725342,-0.03389795869588852,-0.09239932894706726,-2.4242870807647705,2.620164155960083,0.3712191581726074,0.4592546820640564,-0.6000251173973083,0.25697875022888184,-0.7317783832550049,-0.5512951612472534,0.8245476484298706,2.004356622695923,0.25930464267730713,0.7154806852340698,-0.90018630027771,-0.4828512370586395,0.0016787848435342312,0.42634183168411255,1.5576670169830322,0.5956482887268066,-1.344232439994812,-0.5565322637557983,-1.0128973722457886,-0.7703482508659363,-0.29962873458862305,-1.644402265548706,0.04541623964905739,-1.0810201168060303,0.44237247109413147,2.6851024627685547,-0.3103788495063782,-2.1322507858276367,0.7349073886871338,-0.38931599259376526,0.4117294251918793,0.09261902421712875,-0.05722071975469589,0.09300116449594498,-0.8993908762931824,0.20074431598186493,1.5963454246520996,-2.7170071601867676,0.21699640154838562,1.337294340133667,-1.1395596265792847,-0.5633270740509033,1.7035576105117798,-1.6602634191513062,-0.058748506009578705,1.4495630264282227,0.6328375339508057,-0.39522162079811096,-0.02436256781220436,1.4178380966186523,2.823380947113037,-0.0641971230506897,0.903074324131012,-2.0603439807891846,0.8659138679504395,-1.2274597883224487,-0.6699355244636536,-0.5885124206542969,-0.23215214908123016,-2.4970953464508057,1.0652910470962524,0.4685526490211487,0.14465373754501343,-0.366209477186203,-1.5079059600830078,-2.870335340499878,-2.94832706451416,0.6839607954025269,0.8010879755020142,0.7565468549728394,-1.4180240631103516,0.4991297125816345,0.7387201189994812,-0.2834278345108032,0.04020138457417488,-1.349038004875183,-0.016909796744585037,-3.6845200061798096,0.17369328439235687,1.1740463972091675,-0.8734578490257263,-0.2569802403450012,0.7357397079467773,-0.010575189255177975,-0.659195601940155,-0.832263708114624,2.4531288146972656,1.6455518007278442,-0.6854965686798096,1.8228340148925781,0.12723968923091888,-1.9400724172592163,1.4743125438690186,0.12107758224010468,3.7107155323028564,2.3761134147644043,-1.2087106704711914,-0.6385839581489563,-2.588038921356201,-1.3824076652526855,0.4963209927082062,0.754771888256073,-0.400771826505661,0.4678724706172943,0.3269357681274414,-0.6407342553138733,-0.19251428544521332,0.1875310242176056,-1.017103910446167
人文精神,0.1286807656288147,-0.24671660363674164,0.4699077904224396,-0.03244514763355255,-0.3419650197029114,0.4114113450050354,-0.2939926087856293,-0.21426737308502197,-0.12987548112869263,0.007236404810100794,0.10966050624847412,-0.03279881924390793,-0.05444411560893059,0.25483646988868713,-0.043901823461055756,-0.17903932929039001,-0.16531148552894592,0.08835705369710922,-0.018115801736712456,-0.43895697593688965,0.16571378707885742,0.11970759928226471,-0.34520119428634644,-0.20684179663658142,-0.1026584804058075,-0.4112125337123871,-0.16327741742134094,0.008321108296513557,-0.304364413022995,0.06046028062701225,0.30919867753982544,-0.13983659446239471,-0.4978976547718048,0.27928268909454346,0.10387934744358063,-0.3909134864807129,-0.12644359469413757,0.008455389179289341,-0.055957261472940445,0.0010294195963069797,-0.060900814831256866,-0.07667392492294312,-0.4073796570301056,0.19516026973724365,0.1192738264799118,-0.055470243096351624,0.4283517897129059,-0.1083962470293045,0.3278772532939911,0.1367572396993637,-0.0902969241142273,0.20687063038349152,-0.008346214890480042,-0.023622727021574974,0.15513432025909424,-0.32737597823143005,-0.23390717804431915,-0.12430663406848907,0.23595064878463745,-0.08346795290708542,0.10715921223163605,0.1286965161561966,0.0024770013988018036,0.15249308943748474,-0.4984215795993805,0.07418034970760345,0.34965980052948,-0.08839529752731323,-0.3407747745513916,-0.469001829624176,-0.16340067982673645,-0.40408024191856384,0.021007712930440903,0.0179335568100214,0.2888558804988861,-0.19581185281276703,0.3882598876953125,-0.03230328857898712,0.06105862185359001,-0.23881115019321442,-0.26575949788093567,0.010398088954389095,-0.14983069896697998,-0.07012321054935455,-0.17535744607448578,0.11166220158338547,0.059404581785202026,-0.13921503722667694,0.3771103322505951,0.13287697732448578,0.31666621565818787,0.03181474283337593,0.05119971185922623,-0.3295605480670929,-0.14890557527542114,0.2717722952365875,0.29381731152534485,0.06351809948682785,-0.01796683855354786,0.0070204539224505424,-0.39297014474868774,-0.20316462218761444,-0.25196194648742676,0.09240434318780899,0.09829510003328323,0.26098257303237915,0.009181656874716282,0.17829327285289764,0.008995509706437588,0.153566375374794,0.06366057693958282,0.06003029644489288,-0.00071909703547135,0.22115619480609894,0.17713403701782227,0.421371191740036,-0.30007728934288025,-0.025169825181365013,0.02887457050383091,0.02842426300048828,0.0753544270992279,-0.13288386166095734,0.16241274774074554,-0.03725765272974968,0.2972816526889801,0.22240684926509857,0.20606301724910736,0.49991485476493835,0.03328222036361694,-0.6372886896133423,0.4082007110118866,0.016012616455554962,-0.2838202714920044,0.3716398775577545,-0.37224432826042175,-0.029575452208518982,-0.1280224472284317,-0.0045834188349545,-0.03747112676501274,-0.019109688699245453,-0.029325347393751144,0.05011427775025368,0.020302116870880127,-0.13585656881332397,-0.05694074183702469,-0.07251051813364029,-0.3832448422908783,-0.12641993165016174,-0.12309619784355164,-0.26108798384666443,0.3891429603099823,0.04535781219601631,0.03762991726398468,0.3478611707687378,0.1090114563703537,0.01828167960047722,-0.021376872435212135,0.11861122399568558,-0.2338065654039383,-0.2969253957271576,0.2602716386318207,-0.23251663148403168,0.09844568371772766,-0.01995920017361641,0.20548000931739807,-0.003896761918440461,0.040363483130931854,0.17225874960422516,0.10988784581422806,-0.0442168153822422,-0.2602720558643341,0.15175674855709076,-0.04698176309466362,0.10618680715560913,0.3845483064651489,0.17196105420589447,-0.5746229887008667,-0.40840810537338257,0.08595284074544907,-0.0635380744934082,-0.2141861766576767,-0.1335832178592682,-0.22827625274658203,-0.01166821550577879,0.08970266580581665,0.26391562819480896,0.10537420958280563,-0.26680418848991394,-0.15371489524841309,0.03125886991620064,-0.38211730122566223,-0.21672040224075317,0.053918417543172836,0.38512781262397766,-0.1313575655221939,0.05830470845103264,0.09134779125452042,0.3718813359737396,-0.23491737246513367,-0.040184322744607925,-0.12778785824775696,0.13945576548576355,-0.09947676211595535,-0.39218124747276306,0.11601340025663376,0.07376960664987564,0.028064385056495667,0.19036832451820374,0.028275012969970703,-0.18996569514274597,-0.014439486898481846,-0.022190626710653305,-0.17461258172988892,-0.013785594142973423,0.18663226068019867,-0.20963752269744873,0.0064372592605650425,-0.08368990570306778,-0.07718983292579651,0.012157423421740532,0.2810508608818054,-0.055805206298828125,0.1829376071691513,-0.2465222328901291,-0.21862880885601044,-0.37190040946006775,-0.16008059680461884,0.16658464074134827,-0.2249526083469391,0.4425942897796631,-0.03965863585472107,0.02100459858775139,0.42803651094436646,-0.1818879246711731,-0.054714176803827286,-0.2265859842300415,0.42378348112106323,0.17565388977527618,-0.10988699644804001,0.035748329013586044,0.22456249594688416,0.5564078092575073,-0.26109766960144043,-0.1853761374950409,-0.4406174123287201,0.026585230603814125,-0.02510504052042961,-0.009325317107141018,-0.07477382570505142,0.28637757897377014,-0.15186388790607452,0.38827499747276306,-0.0034596866462379694,-0.08914662152528763,0.07017640769481659,-0.2803542912006378,-0.29829439520835876,0.05592760443687439,0.3888530433177948,-0.35560575127601624,-0.06683258712291718,-0.1479947715997696,-0.36877262592315674,0.09120489656925201,-0.0157626885920763,-0.0812656581401825,0.2362288385629654,-0.15593717992305756,-0.13019472360610962,0.09267779439687729,-0.14352785050868988,-0.11212483048439026,0.21417996287345886,0.025547076016664505,-0.1710348129272461,0.25895339250564575,-0.10368621349334717,0.11848653107881546,-0.2729864716529846,-0.01390085183084011,0.023116739466786385,0.27323710918426514,0.023372652009129524,0.1941828727722168,-0.13806259632110596,-0.1850612908601761,0.025487838312983513,0.0886971727013588,-0.20647385716438293,-0.19616539776325226,-0.30774298310279846,-0.057747721672058105,0.014548239298164845,-0.26171430945396423,-0.09499114006757736,-0.02333480305969715,-0.10206048935651779,-0.06397411972284317,-0.265821635723114,-0.3548325002193451
人才,1.1257904767990112,0.09502076357603073,1.4276220798492432,0.10323376953601837,-0.7873865365982056,1.0152803659439087,-0.7818961143493652,1.31869637966156,1.1055606603622437,-0.13665685057640076,-1.3002893924713135,0.0710764154791832,1.8592629432678223,2.08215594291687,-1.0054200887680054,-1.1620103120803833,0.3924058675765991,-0.6438522934913635,-1.3023667335510254,-4.547520637512207,-0.5310069918632507,-1.334945559501648,0.275331050157547,-0.6263490319252014,-0.9917008280754089,-3.100226879119873,1.9834004640579224,0.4339304268360138,0.36105987429618835,1.9172083139419556,-0.0044112480245530605,-2.246253728866577,-3.969270944595337,1.27992844581604,0.22147227823734283,0.4584178626537323,-2.568253755569458,-0.34805646538734436,-0.6566339731216431,-0.7504816651344299,-1.7835668325424194,-0.6067437529563904,-1.2220665216445923,-1.1933419704437256,-0.6897560954093933,1.7718076705932617,0.6305093169212341,-0.7567977905273438,-1.199388027191162,0.6859475374221802,-0.3185063600540161,-1.332552194595337,1.4576222896575928,0.653605580329895,-1.2881907224655151,0.6553370356559753,-2.070908784866333,-0.13189299404621124,-0.02195350080728531,0.7848610281944275,1.882260799407959,0.751233696937561,0.5940764546394348,-0.8446725606918335,-1.2205764055252075,2.1168360710144043,0.8304085731506348,-0.8413739800453186,0.23043830692768097,-0.6658815741539001,-0.31213894486427307,-0.43814417719841003,-0.5575093030929565,-1.3788527250289917,0.2425866276025772,-0.6358148455619812,-0.09050080180168152,-0.786082923412323,-0.6154780387878418,1.027727484703064,0.5667777061462402,-1.1724870204925537,-2.8985326290130615,0.538128137588501,-0.7395230531692505,1.071074366569519,0.05269273743033409,-3.1596732139587402,0.5194368958473206,-0.39675360918045044,-0.5942566394805908,0.7558797001838684,0.21808527410030365,-0.36580169200897217,-0.2843431830406189,0.09003464132547379,1.8352203369140625,0.19685876369476318,-2.5608043670654297,-2.2709484100341797,-1.3809945583343506,1.3214350938796997,-0.8968461751937866,-0.13802528381347656,0.06881754100322723,-0.5668078660964966,-0.04680446907877922,0.844651997089386,1.1444246768951416,0.4280133545398712,0.8036105632781982,-0.6897461414337158,1.353652834892273,-0.6231898665428162,0.04463515430688858,-2.0550103187561035,0.4453364908695221,-0.5406035780906677,-0.06336293369531631,-0.23594702780246735,-1.2314287424087524,-1.22239089012146,-0.3101619780063629,-0.06915171444416046,0.19400523602962494,1.1397498846054077,0.8459752202033997,1.2515875101089478,-0.3439600169658661,-3.576046943664551,1.8347511291503906,-1.5408706665039062,0.23326483368873596,1.552371621131897,-0.1948108971118927,-2.1787877082824707,-2.366724729537964,0.3972133696079254,0.17610348761081696,-1.5341176986694336,-1.9988937377929688,-1.6604267358779907,0.28909948468208313,-0.9951711297035217,0.2048397809267044,-1.0752944946289062,-1.667694091796875,1.702479362487793,-0.20631107687950134,-1.2350282669067383,0.9184850454330444,0.06032742187380791,0.16246099770069122,0.32300472259521484,-0.7047439813613892,-0.8983272314071655,-0.10243058949708939,1.524642825126648,1.593870759010315,0.6877779364585876,-0.9609630703926086,0.8365793228149414,0.5777736306190491,0.13868241012096405,-1.4010740518569946,-0.1402740776538849,0.07665818184614182,0.24561330676078796,0.7416114807128906,1.714229702949524,-0.5916314125061035,-1.5178167819976807,-1.2980881929397583,-0.38026100397109985,2.5321996212005615,3.428867816925049,-0.18345755338668823,-3.160996675491333,0.05378611013293266,-1.6532435417175293,-0.38552069664001465,0.1000509038567543,0.4255563020706177,-2.275912284851074,-2.2404658794403076,2.775251865386963,0.023654574528336525,0.7679584622383118,-2.0098438262939453,-0.38083571195602417,-0.03747394308447838,3.1883931159973145,1.636736512184143,0.771950364112854,0.22160306572914124,-1.120502233505249,-1.0618022680282593,-0.6523488759994507,-0.3470401465892792,0.12040947377681732,-2.7537477016448975,-1.0849238634109497,0.5931023955345154,-1.1547987461090088,1.2955329418182373,-1.1047691106796265,-0.14408087730407715,0.10891083627939224,0.13779877126216888,-0.39461562037467957,-0.5416980981826782,-1.419845700263977,-0.21031317114830017,-0.34050241112709045,-0.3080868124961853,-0.8534659743309021,1.6316919326782227,0.007120453752577305,-0.7605406641960144,1.3311396837234497,1.7678464651107788,1.1415265798568726,0.8391894102096558,-0.42402052879333496,-0.3565531373023987,-0.3622097671031952,0.17569464445114136,-0.9231120347976685,-0.5997291803359985,1.6810978651046753,-1.5980665683746338,-0.45893746614456177,1.8665436506271362,1.0623748302459717,-0.17055349051952362,-0.8602634072303772,2.7995238304138184,0.4429008960723877,0.8444047570228577,-1.312447190284729,2.6023213863372803,1.429110050201416,-0.6170843839645386,0.0906909704208374,-1.7894243001937866,-0.6573808193206787,0.7673940658569336,-0.44902122020721436,0.13323961198329926,1.0828609466552734,-1.5137571096420288,0.9823750257492065,-0.2290794402360916,-0.795129120349884,-0.17889679968357086,-0.542076826095581,-1.4447543621063232,-0.3836815655231476,0.7798318266868591,-1.7571725845336914,1.522625207901001,-0.3940087556838989,-0.05924640968441963,0.0887347087264061,-0.4581149220466614,-1.655795693397522,-2.2137064933776855,0.20958466827869415,-0.2556151747703552,1.2310885190963745,0.6882374286651611,-0.58965665102005,0.5909541249275208,-0.6011495590209961,1.2134743928909302,-1.456642985343933,1.1283538341522217,-1.45806086063385,0.3373720645904541,0.5506331324577332,0.3591545820236206,0.26107561588287354,-1.4621267318725586,0.7021372318267822,0.08728794753551483,-0.2866803705692291,-0.4541972577571869,0.6271677017211914,0.5783802270889282,-1.4847512245178223,-1.7310171127319336,-0.47649306058883667,0.716791033744812,1.9007574319839478,-1.1007170677185059,-2.571321964263916,1.3086504936218262,-0.09990647435188293,-0.8645554780960083,0.8889622092247009
改变,2.766991138458252,-3.5410447120666504,1.2461888790130615,0.10317625105381012,-1.3167741298675537,0.2954866588115692,-0.4731453061103821,0.8843005299568176,-0.7810684442520142,-0.5700213313102722,-1.0254873037338257,0.35059088468551636,0.3148268461227417,-2.088414192199707,-1.392322063446045,0.6539676785469055,0.5233442187309265,0.7001988291740417,-2.3453195095062256,-0.2383778989315033,-0.055905185639858246,-2.7249155044555664,-0.8330524563789368,-0.47190871834754944,0.4684981405735016,-3.1884326934814453,1.092955231666565,-0.5865417718887329,-1.4739866256713867,0.5584688782691956,0.5404917597770691,1.5462555885314941,0.0071243103593587875,1.1569784879684448,-0.7471328973770142,0.18198758363723755,0.6288027763366699,-0.9842533469200134,-1.159006118774414,-0.4425475597381592,-1.0323766469955444,0.16035549342632294,-1.1614243984222412,-0.12426825612783432,-0.03126871585845947,-0.3280956447124481,0.9545968174934387,-0.09401167184114456,-0.28628528118133545,0.35546955466270447,1.1051220893859863,0.685785174369812,0.7078203558921814,-1.6454344987869263,1.4186794757843018,-1.1244410276412964,1.661786675453186,0.7684259414672852,-0.21717259287834167,0.8556508421897888,0.13784784078598022,0.8674883246421814,-0.16313910484313965,0.5428706407546997,-0.8883224129676819,0.03216564282774925,-0.6770873069763184,1.7954604625701904,0.22854259610176086,-0.6972145438194275,0.6645212173461914,0.4847643971443176,-0.0013051959685981274,-0.16003789007663727,-0.015133407898247242,0.13274487853050232,0.5251778960227966,-1.6385715007781982,0.467355340719223,0.8389972448348999,-0.040953703224658966,0.8504853248596191,-1.0216134786605835,0.9107770323753357,0.7086487412452698,-0.21344250440597534,3.0140044689178467,1.792622685432434,-0.045944537967443466,-0.545131504535675,0.7191750407218933,1.5654383897781372,0.16525913774967194,-1.654242753982544,0.2545003890991211,-1.7012927532196045,0.5291573405265808,2.6622798442840576,1.6473510265350342,-3.887453556060791,0.6143696308135986,-0.4496432840824127,1.2427457571029663,1.0036046504974365,-0.7861584424972534,1.4818657636642456,-1.211513876914978,-1.5705825090408325,-1.6091893911361694,-0.6698327660560608,-1.7034821510314941,-2.1307430267333984,-1.6123418807983398,-0.7369782328605652,1.9729686975479126,-0.8738961815834045,-0.19195780158042908,0.9452973008155823,0.5251054167747498,1.4809647798538208,2.089383840560913,-1.4179151058197021,0.2513013780117035,1.1397104263305664,-1.9801952838897705,-1.494343876838684,0.9577857255935669,2.2284321784973145,0.6315421462059021,0.25684091448783875,1.8301013708114624,0.6674571633338928,-1.2235748767852783,2.550265312194824,-0.31677570939064026,-0.5112171769142151,1.1200517416000366,2.151459217071533,-0.3961803913116455,-1.3071788549423218,-1.9720772504806519,1.5875624418258667,3.9052138328552246,-1.2097927331924438,-0.4623080790042877,-0.7189739942550659,-1.738145351409912,-1.7217106819152832,1.6245954036712646,-0.348011314868927,-0.48694440722465515,0.11542664468288422,0.5196954011917114,1.2460278272628784,1.4612431526184082,-2.255446672439575,-0.21849367022514343,1.2990080118179321,-1.5055831670761108,-1.0882865190505981,-1.6870700120925903,-0.5216455459594727,-0.6324970126152039,0.29403889179229736,-0.10262811183929443,-0.7345274686813354,1.6172173023223877,-0.07878629863262177,1.688480257987976,-0.17683753371238708,-0.4117790758609772,-0.5473505854606628,-0.624351978302002,1.0551271438598633,1.70014488697052,0.37476569414138794,0.5304118394851685,2.4945263862609863,0.5674300193786621,1.4652652740478516,0.1538240611553192,1.0483473539352417,0.7007030844688416,1.1776463985443115,0.9382045865058899,1.7689954042434692,-1.0001041889190674,0.9968830943107605,0.4698311984539032,1.2894163131713867,0.6580989360809326,-0.8192817568778992,-0.30221739411354065,-0.20774878561496735,-1.5129328966140747,-0.493009090423584,1.8350732326507568,-0.028050536289811134,1.643120288848877,-0.5679095387458801,-1.3845995664596558,-2.0499093532562256,0.8290854692459106,1.5942456722259521,1.2314292192459106,0.2504943013191223,0.3789069354534149,0.2932322323322296,0.7893412709236145,1.803004264831543,1.3326036930084229,-0.6083692908287048,-0.05821014940738678,-0.11691939830780029,-1.4236197471618652,-1.142525553703308,1.1454315185546875,1.431649923324585,-1.688153624534607,1.674545168876648,-0.6657314300537109,0.9326730370521545,2.9269940853118896,1.6249260902404785,-0.9637534618377686,-1.8107494115829468,0.06064261496067047,-1.2316701412200928,-2.805987596511841,0.6570296287536621,3.246915102005005,0.2086634337902069,2.4336965084075928,-0.6658464670181274,-0.03423813357949257,-2.4614431858062744,2.856104850769043,0.856647253036499,0.6204227805137634,0.8113716840744019,0.8505573868751526,2.681058168411255,1.5142261981964111,-0.44017452001571655,-0.14400973916053772,-0.11801071465015411,0.16186457872390747,-1.5375341176986694,0.2929993271827698,-0.9113311171531677,-0.6094425320625305,-0.7711168527603149,-1.951687216758728,-1.475380301475525,1.530360221862793,0.43141159415245056,-2.4067533016204834,0.42126789689064026,0.778990626335144,0.518535852432251,0.22003252804279327,-0.41876256465911865,-0.051874760538339615,0.522088348865509,-0.42996618151664734,1.3810241222381592,-1.3246458768844604,-0.5572503209114075,0.05016442760825157,-2.804469585418701,-1.1019127368927002,-1.3544325828552246,1.258409023284912,1.8311560153961182,-1.2147936820983887,-0.034683942794799805,-0.5074806809425354,3.4600749015808105,1.4450081586837769,-0.287272185087204,1.326087474822998,2.6136507987976074,0.046193044632673264,0.8791704773902893,0.4938194155693054,1.7225452661514282,1.5385900735855103,0.6836287379264832,-1.3897587060928345,-0.9688913226127625,-1.5633918046951294,-1.2729341983795166,0.707635223865509,1.5599594116210938,-0.06116047501564026,2.1168935298919678,0.8532187342643738,0.6200910210609436,-1.1122758388519287,-1.003064751625061
渗透,0.34866300225257874,0.13607624173164368,1.3112902641296387,-1.5301593542099,0.7844957113265991,-0.7813693284988403,0.10066153854131699,1.069718360900879,-0.06751924753189087,0.5236875414848328,-1.8155027627944946,1.3838880062103271,-0.8334907293319702,0.05701644346117973,-1.1955273151397705,-0.05906105414032936,-0.7320838570594788,-0.30262818932533264,-0.8154459595680237,-2.005357265472412,-0.8327212929725647,-1.2414584159851074,-1.3708583116531372,0.1729448139667511,-0.5338059663772583,0.29481977224349976,0.574815034866333,-0.25144150853157043,-1.0429553985595703,0.4678404629230499,-0.2235463559627533,-1.2817555665969849,0.1505395770072937,0.8377584218978882,-0.720069944858551,0.3983081579208374,-0.20727403461933136,-0.32802411913871765,-0.9729066491127014,-1.4852217435836792,-0.04708919674158096,-0.7592470049858093,-1.3749269247055054,0.14808039367198944,0.44849735498428345,0.6513388156890869,-0.5311617255210876,-0.3166925013065338,-2.2762458324432373,-0.6988686323165894,-0.05884447321295738,1.0887888669967651,-0.529586136341095,-0.1730908453464508,0.3019590973854065,-0.9331013560295105,1.5768003463745117,1.139635682106018,0.7321619987487793,-0.11790692806243896,0.2724927067756653,1.1831310987472534,0.13108789920806885,-0.004625604022294283,-0.9182858467102051,1.3909879922866821,0.4261632561683655,1.7194390296936035,-0.11927337944507599,-0.7508114576339722,-1.501931071281433,0.23759113252162933,-1.094267725944519,-0.33965495228767395,0.15796473622322083,0.07590911537408829,1.563496470451355,0.8335176110267639,2.144225597381592,-1.3644145727157593,0.39624786376953125,-0.36299681663513184,-0.7812177538871765,-1.20307457447052,-0.7702059745788574,0.9067635536193848,0.16239231824874878,0.7221266031265259,0.11407960206270218,-1.0330779552459717,-0.5076748132705688,0.36848023533821106,-0.8439726829528809,-0.7553979158401489,-0.8986454606056213,-2.4236268997192383,1.532227635383606,0.07644110172986984,-0.5378085374832153,-0.5781747698783875,2.135239362716675,-0.4595876634120941,0.1977914720773697,0.453860878944397,-0.9770636558532715,0.27500224113464355,-1.5344936847686768,0.3539377748966217,-0.04318740963935852,1.0354039669036865,-0.39177781343460083,0.06369663774967194,-0.8378092050552368,-1.0519145727157593,-0.260824978351593,-0.3898380696773529,-0.7148440480232239,-0.310413658618927,-0.10543765127658844,1.9677003622055054,0.6673626899719238,-0.4804886281490326,1.3546913862228394,2.1386947631835938,-0.44225266575813293,0.8449366688728333,0.1819041520357132,-0.5846640467643738,0.8568465709686279,-0.9851120710372925,0.36476218700408936,0.35697248578071594,0.6791175007820129,0.910396933555603,-0.3232615888118744,0.7414509654045105,0.4023875594139099,-0.4768880009651184,-0.30121099948883057,-0.2423158884048462,-2.7159500122070312,0.5718962550163269,-0.7670412063598633,-0.14637552201747894,-0.5453081727027893,1.7049472332000732,-1.5895706415176392,-0.4342396557331085,0.9489362835884094,-0.6904430389404297,0.6298954486846924,-0.9961197376251221,-0.23864828050136566,-0.2971906363964081,-0.929189145565033,-0.8448673486709595,-0.6820881366729736,1.6222116947174072,0.019306132569909096,-1.0928363800048828,1.3222695589065552,0.6817908883094788,-0.9285574555397034,-0.7045841813087463,0.23309075832366943,-1.1348183155059814,-0.2609961926937103,1.7269961833953857,-0.015615549869835377,0.30014267563819885,-0.7102696895599365,-0.4629167914390564,0.5453960299491882,-0.6602235436439514,1.4869704246520996,0.5309818387031555,1.0713411569595337,-0.4856443405151367,-0.7790687084197998,1.3572758436203003,-1.428605079650879,-0.6826065182685852,-0.7315752506256104,-0.3895799517631531,-0.10214239358901978,1.8492720127105713,-1.2411662340164185,0.7322791218757629,-0.6733207702636719,-1.03263258934021,-1.0255147218704224,0.5889966487884521,0.42189767956733704,0.8213313221931458,0.26254743337631226,0.8261439204216003,0.7352005243301392,0.9023942947387695,-0.37795698642730713,-0.5248128771781921,-1.5158711671829224,0.1765758991241455,-0.8362084627151489,0.8593987822532654,2.162662982940674,-1.5126254558563232,0.4614412486553192,-1.0894043445587158,-1.558066725730896,-1.527616024017334,0.5809632539749146,-0.10647515207529068,-1.015787959098816,-1.058304786682129,0.8357880711555481,-0.2271011918783188,1.3163597583770752,0.01979539915919304,-0.28528016805648804,-0.7203102707862854,0.9937484860420227,0.7468618750572205,-0.20973028242588043,-0.18950416147708893,-0.12745748460292816,-0.42580318450927734,-0.556929886341095,1.1149535179138184,-0.28315216302871704,-0.20723889768123627,0.5644367933273315,0.6626673340797424,0.057372450828552246,0.20486284792423248,-0.3993382453918457,0.3374955356121063,0.7884637117385864,0.19714072346687317,0.7089642286300659,0.9429965019226074,1.4153281450271606,1.4689319133758545,1.4235893487930298,-0.4560876190662384,-0.2834848165512085,0.8864089250564575,-1.2096949815750122,-0.11315035074949265,-0.6828877925872803,-0.07954281568527222,-1.0569188594818115,0.9514049887657166,-0.6439806222915649,-0.9743376970291138,1.1408874988555908,-1.1012742519378662,-0.6251941919326782,-0.4463038742542267,-0.3477950692176819,-0.6486021876335144,-0.6841497421264648,-2.0822641849517822,0.6075097918510437,0.28431108593940735,-0.4084959626197815,0.340758740901947,-1.265865683555603,-1.1283118724822998,-0.5472084283828735,-0.3839496970176697,1.336698293685913,-0.8880863785743713,0.6643152236938477,1.7987356185913086,-0.3968566358089447,-0.10360343009233475,-0.5132660269737244,1.0695598125457764,-0.8135607838630676,-0.5724704265594482,0.8086205124855042,0.1339384764432907,-1.581441879272461,-0.004266536794602871,0.019735949113965034,1.3498345613479614,0.341423362493515,-1.6783051490783691,0.5542248487472534,-1.1137129068374634,0.2688494622707367,-0.911279559135437,0.03218233957886696,-0.15552492439746857,-0.7832044363021851,-1.7712069749832153,0.5063706636428833,2.307795763015747,-0.9576841592788696,-0.5513523817062378
需求,0.4061540961265564,-1.5827056169509888,0.015547826886177063,-0.9855161905288696,-1.6134308576583862,-0.10378090292215347,-0.5000770688056946,3.555105686187744,-0.22745800018310547,0.22108155488967896,-1.275408148765564,0.9853074550628662,-0.7946664094924927,0.5107454061508179,-2.48870849609375,-0.41966789960861206,0.1627080887556076,0.44297775626182556,-3.981395959854126,-1.3293851613998413,-0.4456833302974701,0.7274349927902222,1.490060806274414,-1.0365891456604004,-2.3649420738220215,-1.4423778057098389,1.116377592086792,-0.6434136033058167,0.6184348464012146,0.8126141428947449,0.15656054019927979,-1.699598789215088,-0.6667570471763611,0.3122463524341583,-1.576967716217041,-2.016751289367676,-1.1249133348464966,-2.9111757278442383,-0.9854674935340881,-0.4793306291103363,0.1298501044511795,0.5225306153297424,0.1011415645480156,-1.8055620193481445,-1.771591067314148,2.0581367015838623,0.12129174172878265,0.38539478182792664,-2.894163131713867,0.8987935781478882,0.19042879343032837,-0.22952984273433685,0.6032370924949646,-0.3847291171550751,-1.6730774641036987,1.1167452335357666,-1.9419848918914795,-0.4629521667957306,0.3200443387031555,-0.5915710926055908,0.09406812489032745,-1.0352874994277954,-0.2962087392807007,-1.2195786237716675,-1.690076470375061,-0.8033257722854614,0.6969936490058899,1.0924516916275024,1.0591342449188232,-1.3510581254959106,-2.123399019241333,-1.282853603363037,-0.02423769235610962,-0.9048861265182495,-0.0945785790681839,-1.4117457866668701,0.33750537037849426,0.23367902636528015,-1.0456806421279907,-0.7832110524177551,1.313729166984558,-0.223985493183136,-1.0197772979736328,-0.9525161385536194,-2.350741386413574,1.2835638523101807,1.5340592861175537,1.0031203031539917,-1.5062707662582397,1.18913996219635,-0.48207950592041016,-0.15077227354049683,-0.7770649194717407,-0.3333132565021515,0.2793337404727936,0.10889285802841187,1.1029053926467896,2.983508825302124,0.07084625959396362,-0.9865627288818359,-0.12260918319225311,-0.22300152480602264,1.1201945543289185,0.7442535161972046,-0.7311927080154419,0.8302860856056213,0.7796779274940491,-0.2682841122150421,-1.2517030239105225,-1.7933021783828735,0.43022894859313965,-2.0880770683288574,-2.1151211261749268,-0.06935633718967438,-0.31463417410850525,-1.383777141571045,1.2816659212112427,-0.5022062063217163,-2.2900352478027344,1.4089548587799072,2.010040760040283,-0.262784481048584,-1.0366392135620117,1.7079085111618042,-1.0579652786254883,-1.9911857843399048,-0.1811825931072235,2.152592182159424,-0.49137499928474426,-2.3331425189971924,0.5078750848770142,-0.9847673773765564,-0.8360812664031982,2.2695038318634033,-0.4743054211139679,-0.4641619622707367,0.4775441288948059,1.8595865964889526,-0.4682368338108063,-0.7159452438354492,0.6254112720489502,1.3139747381210327,-2.238306999206543,1.1426217555999756,1.9234243631362915,-2.1601293087005615,-3.3418095111846924,0.3888733386993408,0.1790037751197815,-1.0111680030822754,-1.187547206878662,0.5159682631492615,1.3225265741348267,3.2202155590057373,1.114319920539856,-1.5693479776382446,0.08148379623889923,1.2054736614227295,-1.562626600265503,-0.0011867680586874485,-0.3667687773704529,-1.2327710390090942,1.6900430917739868,0.07649870216846466,2.346365451812744,0.8988029956817627,2.1774086952209473,-1.0269818305969238,0.4469221830368042,0.9856154918670654,0.7492309212684631,-0.19606150686740875,-0.5668171048164368,-1.5066543817520142,-0.17712847888469696,4.342355728149414,0.39897194504737854,-0.6291335821151733,0.7807250022888184,0.6150155663490295,-1.262300729751587,-1.1073250770568848,0.4542454481124878,0.8682581782341003,0.564232587814331,1.8008354902267456,-0.3898641765117645,1.2874109745025635,-1.8049256801605225,0.16031402349472046,-0.7906897068023682,0.4221514165401459,-1.4300974607467651,1.1438980102539062,-0.33013203740119934,-0.9987668991088867,0.501139223575592,-1.3567185401916504,0.7969945073127747,0.4220244884490967,-1.094298243522644,-0.6384506225585938,0.09101517498493195,-1.2700449228286743,0.18178358674049377,-0.6484190225601196,-0.26744943857192993,-1.1973260641098022,2.185213327407837,-0.46910619735717773,0.2654324471950531,0.894034743309021,-2.058239698410034,-0.8967491984367371,-0.4201926290988922,1.0880157947540283,0.5180189609527588,0.2787737548351288,-0.49986231327056885,-0.03892872482538223,0.5832455158233643,-0.2690838873386383,-1.286893606185913,0.7536988258361816,-0.6013876795768738,1.1785686016082764,2.0531938076019287,-0.316148579120636,0.051562219858169556,0.28617194294929504,0.8913397192955017,-0.2881013751029968,0.6811030507087708,-0.28575599193573,-2.069643497467041,-0.5078983306884766,0.9348796010017395,1.095139503479004,-1.7424982786178589,0.2961459457874298,2.5214192867279053,1.350195288658142,0.0879637748003006,0.383511483669281,-3.3628950119018555,-0.13915519416332245,1.7348687648773193,0.6557527184486389,-2.196265697479248,0.6341246366500854,-2.328345537185669,-0.4047773480415344,-0.8101648092269897,1.1434504985809326,-0.654270350933075,-1.1029117107391357,-1.2873952388763428,-0.2577129006385803,1.5197219848632812,-2.6214184761047363,0.12063393741846085,-1.6248629093170166,-0.39841365814208984,0.5592358708381653,-0.5275432467460632,0.38372090458869934,-1.5356488227844238,0.2120269238948822,-0.5423018932342529,0.3289671540260315,-0.13596782088279724,-1.4755804538726807,0.18275059759616852,0.6335201263427734,-1.5188558101654053,3.132559299468994,2.3537380695343018,2.046433210372925,-0.7762564420700073,-1.4826093912124634,2.1509180068969727,1.7589240074157715,-0.9236642122268677,2.5646755695343018,1.2429783344268799,1.2785241603851318,-0.9974819421768188,-0.9458380937576294,-1.1460551023483276,-2.2900092601776123,-0.253900945186615,-0.6884625554084778,-0.610965371131897,-1.6904267072677612,0.2591618597507477,1.5608781576156616,0.06318853795528412,-0.007976330816745758,1.3248393535614014,-2.1160125732421875
高中生物,0.016902942210435867,-0.04318614676594734,0.11281127482652664,-0.018084876239299774,0.0044082454405725,0.06706437468528748,-0.06778820604085922,-0.007825345732271671,-0.03554066643118858,-0.0006852532387711108,-0.029117120429873466,0.048230260610580444,-0.03277667239308357,0.05576694756746292,0.043037865310907364,-0.006490381900221109,0.001795841963030398,0.027309542521834373,0.015120010823011398,-0.0169657152146101,0.04903111979365349,0.1050398051738739,0.014606175012886524,0.03730868920683861,-0.04538992419838905,-0.02053646929562092,-0.0387117974460125,0.09795744717121124,0.03660149127244949,-0.06943228840827942,0.04861908778548241,0.06570719182491302,-0.096305713057518,-0.04467537999153137,-0.02578643523156643,-0.03134681284427643,-0.031023571267724037,0.033771928399801254,-0.0009947150247171521,-0.028577305376529694,0.02027432806789875,0.032198622822761536,0.02688351459801197,0.012657602317631245,0.007130385842174292,-1.3191893231123686e-06,-0.01463078148663044,-0.016834991052746773,0.01942363940179348,0.012472555972635746,-0.04526297375559807,-0.008038588799536228,-0.02369770221412182,-0.04635230451822281,0.022796472534537315,0.025325046852231026,-0.037817053496837616,-0.00213839253410697,0.02668473869562149,0.029601920396089554,0.04594234377145767,-0.030096005648374557,-0.0053593977354466915,-0.09380084276199341,-0.0008966230088844895,0.0033298193011432886,-0.0395246259868145,0.029899466782808304,-0.014889844693243504,-0.003264149185270071,0.015572618693113327,-0.04553694650530815,0.018002111464738846,0.0194838996976614,-0.010502620600163937,0.04695756733417511,-0.06061343103647232,-0.030086997896432877,-0.015592931769788265,-0.08095519989728928,-0.06452997773885727,0.04514947533607483,-0.007050726562738419,-0.051079146564006805,-0.0038624037988483906,0.015557088889181614,-0.022261949256062508,0.009101330302655697,-0.014274106360971928,0.06655462831258774,0.005942549090832472,-0.029208529740571976,0.011142450384795666,-0.015869205817580223,-0.0982094407081604,0.030155979096889496,-0.03217633068561554,0.07216445356607437,-0.028538106009364128,-0.020637279376387596,0.05413636192679405,0.05814249813556671,-0.06797098368406296,-0.02852027490735054,-0.02735345996916294,-0.024639103561639786,-0.09957611560821533,0.021443061530590057,0.033426422625780106,-0.012074919417500496,0.04905975982546806,-0.03690018132328987,0.023228678852319717,-0.04022323340177536,0.0008678761660121381,0.09601446986198425,-0.013945900835096836,-0.07586333900690079,0.022388670593500137,0.028025737032294273,0.017239589244127274,-0.01719263754785061,0.00195734272710979,-0.06154700368642807,0.09972423315048218,0.04347287863492966,-0.004990675486624241,-0.07003965228796005,0.049813684076070786,0.022760888561606407,0.001205415348522365,0.0967857614159584,-0.016897857189178467,-0.06525208801031113,-0.0054317619651556015,-0.025408683344721794,0.04086277261376381,0.05422406271100044,0.0023992969654500484,0.0364857017993927,0.016961069777607918,-0.02737690508365631,0.07536205649375916,0.01634596288204193,-0.04000214859843254,0.022257961332798004,-0.006026343908160925,-0.030398761853575706,0.05104149132966995,0.0189242921769619,0.017553051933646202,0.00028054002905264497,-0.052486009895801544,-0.02492111176252365,0.0026607317849993706,-0.008981687016785145,-0.032313667237758636,0.026413733139634132,0.00010964980174321681,0.03450625017285347,-0.03456374257802963,-0.04831095039844513,-0.03738579526543617,-0.0008715078583918512,-0.06068756431341171,0.035615451633930206,0.05276027321815491,0.0650775134563446,0.10809936374425888,0.011464913375675678,-0.049765609204769135,-0.021554304286837578,0.020579542964696884,-0.009843665175139904,-0.012937214225530624,-0.03885631263256073,0.04797013849020004,-0.10538969188928604,0.06686665117740631,0.0375368557870388,0.010116489604115486,-0.02207528054714203,0.035913873463869095,0.038711316883563995,-0.026444699615240097,-0.014927580021321774,-0.04116545245051384,-0.03113805502653122,-0.0252398531883955,0.011828843504190445,-0.005863492842763662,0.013843007385730743,-0.07358131557703018,-0.05426540970802307,-0.0016880978364497423,0.027720456942915916,-0.045783426612615585,0.01772920973598957,-0.02892528660595417,0.011028372682631016,0.09876832365989685,0.015015078708529472,-0.024098368361592293,0.011914901435375214,-0.025300053879618645,0.07952486723661423,-0.02253415435552597,0.026594901457428932,0.013315863907337189,0.017474772408604622,-0.004399296827614307,-0.06268421560525894,0.02934473566710949,0.02985238842666149,0.037512362003326416,0.011798706836998463,0.022336984053254128,-0.009986041113734245,0.009274778887629509,-0.005962804891169071,-0.003090855898335576,-0.03729965537786484,-0.0064082071185112,-0.02009790949523449,-0.011569216847419739,-0.0660104751586914,-0.0412198007106781,0.04902796447277069,0.024787116795778275,0.010114944539964199,-0.08221390098333359,-0.04711166396737099,0.04870625585317612,0.00044661847641691566,0.009443797171115875,-0.1259632259607315,0.04281403869390488,-0.017634272575378418,0.02159879542887211,0.0012628661934286356,-0.03787560760974884,-0.023587021976709366,-0.01131836324930191,-0.023559682071208954,0.017186835408210754,0.041414618492126465,0.022790607064962387,-0.0043732477352023125,-0.04238443449139595,0.004204596392810345,0.03675880655646324,0.019673511385917664,-0.012259252369403839,0.045565154403448105,-0.00416503706946969,0.032721322029829025,-0.0033000314142555,0.05894191563129425,-0.03912801295518875,-0.0028960604686290026,-0.020914699882268906,-0.0102882394567132,-0.032499972730875015,0.02043977566063404,-0.05161833018064499,0.01085028238594532,0.11018061637878418,0.009301488287746906,-0.0102734649553895,0.013366893865168095,0.04122770205140114,0.06705857068300247,0.05716676265001297,-0.048670023679733276,-0.013258188031613827,0.0023502358235418797,-0.02118408866226673,-0.05128934606909752,-0.07528673857450485,0.040627893060445786,0.005020287819206715,-0.10881470888853073,0.04437582567334175,0.0997549295425415,-0.025871876627206802,-0.08430647104978561,0.11636187881231308,-0.03703521192073822,0.004247633274644613,0.042147934436798096,0.027658915147185326,0.029680676758289337,-0.08395781368017197,-0.0036106312181800604,0.029390912503004074,-0.02978222258388996,-0.0022847854997962713,0.022949911653995514,0.03255916386842728,0.027701523154973984
教育,1.2290029525756836,-1.0421777963638306,1.524677038192749,0.9678640365600586,-1.2903164625167847,0.40927618741989136,-3.1856913566589355,0.8967418074607849,0.057681452482938766,-0.04028299078345299,-0.4638088345527649,1.4667683839797974,-0.15928424894809723,2.4578280448913574,-0.36131036281585693,0.02594914473593235,1.6434623003005981,0.22707407176494598,-3.7023541927337646,-3.9671826362609863,1.524871587753296,-0.7620856761932373,-0.375405877828598,0.39697492122650146,-1.8184090852737427,0.7763015031814575,1.9575021266937256,0.008855783380568027,-2.050281286239624,0.2557646930217743,-0.6461760401725769,1.8994646072387695,-0.8606988787651062,-0.5219516158103943,-0.908668041229248,-0.49717074632644653,-1.875699520111084,-1.1481409072875977,-0.6820595860481262,-0.028207337483763695,1.0890507698059082,0.7448192238807678,-1.485691785812378,-0.7794157266616821,-0.5092668533325195,1.3134469985961914,2.470720052719116,-1.267560362815857,-1.2847744226455688,-1.7433931827545166,-0.6296206712722778,-0.7255814671516418,0.5372092723846436,0.13366062939167023,0.2480258047580719,0.1620669662952423,0.3281347155570984,-0.15057648718357086,1.5284907817840576,2.512040138244629,1.4129877090454102,1.0737864971160889,1.8526660203933716,-1.334985375404358,-1.2201285362243652,1.5434253215789795,1.857253909111023,2.7777786254882812,-0.6115458607673645,0.21823346614837646,-0.5762423276901245,1.1939365863800049,0.08864523470401764,-0.699586808681488,0.4382777810096741,-0.09425631165504456,1.5430721044540405,0.08689133077859879,0.8245767951011658,-1.5201586484909058,-1.612810492515564,0.32676082849502563,0.8119071125984192,-1.37123703956604,-2.9111247062683105,1.8649590015411377,-0.18951280415058136,-1.7247247695922852,2.5895323753356934,-0.5923810601234436,-0.496449738740921,0.03449682146310806,1.4174063205718994,-0.08884764462709427,0.18816450238227844,0.24891413748264313,2.890285015106201,0.17518478631973267,-2.2157576084136963,-0.4234147369861603,1.7997382879257202,-1.3967490196228027,1.3375108242034912,0.3514590859413147,0.977320671081543,-0.3296702206134796,-0.6693397164344788,0.5900147557258606,1.2736951112747192,-1.634872317314148,0.9126852750778198,1.1393918991088867,1.1076432466506958,-0.18800672888755798,-0.5392910242080688,0.02347315102815628,3.3535678386688232,-0.6556601524353027,0.18504193425178528,-0.20338106155395508,1.1114457845687866,-0.005914993118494749,-0.5997759699821472,0.9791130423545837,1.1715987920761108,1.3931370973587036,0.909440279006958,1.0957043170928955,1.773253083229065,-1.7499299049377441,1.0759137868881226,0.11927114427089691,2.085860252380371,-0.06831319630146027,-0.5251258015632629,-0.4603208005428314,-1.0123597383499146,-0.4761148691177368,-0.2457287609577179,-1.8117679357528687,-0.37552303075790405,-0.5665051341056824,0.9371434450149536,0.5566248297691345,-0.183331698179245,1.2401816844940186,-2.3995845317840576,-1.7116912603378296,0.9223542809486389,-0.574577808380127,1.791557788848877,0.2868451178073883,-0.1315387487411499,-0.3986893892288208,-1.2176263332366943,1.0673658847808838,-0.5598381161689758,0.5449498891830444,-1.1183241605758667,-0.13622130453586578,-0.6620373129844666,-0.1508067399263382,0.7323406934738159,-0.2736051380634308,0.8921546936035156,1.895668864250183,1.3936609029769897,-0.44685614109039307,1.8569458723068237,0.7095023989677429,0.8955673575401306,1.1175415515899658,0.15083715319633484,0.2297036349773407,1.979529857635498,1.6648640632629395,-2.0162618160247803,-2.971916913986206,0.9519834518432617,-1.8444160223007202,-0.21974268555641174,-0.4701702892780304,-1.4999780654907227,-0.0753951147198677,1.2446075677871704,-0.07083715498447418,-2.307875156402588,-0.8906574845314026,-3.1769540309906006,0.9022351503372192,-1.87114417552948,0.27631115913391113,-0.4274328052997589,0.43111956119537354,-1.4315117597579956,-0.08799999207258224,0.5724851489067078,-0.009707045741379261,-1.7552961111068726,0.041520312428474426,0.2595694959163666,0.030270246788859367,0.5423070192337036,-1.3013477325439453,0.98003751039505,-0.015516869723796844,1.644645094871521,2.4301955699920654,0.1707802712917328,1.02599036693573,0.47177788615226746,-1.1647253036499023,-1.9167299270629883,-0.7175418138504028,-0.3044746220111847,-0.3823665380477905,-1.194663643836975,1.4057629108428955,-1.3386303186416626,0.5857467651367188,-1.1152949333190918,1.0797332525253296,1.7087711095809937,-0.41365817189216614,-0.6482292413711548,-0.5490225553512573,0.12632079422473907,-1.3598949909210205,-0.14615046977996826,1.6292283535003662,-0.8092619180679321,-1.7717841863632202,1.0533361434936523,0.3277819752693176,-0.3679678440093994,-1.0681430101394653,0.31963396072387695,0.40556588768959045,0.9070451855659485,0.11026683449745178,0.6717988848686218,1.805032730102539,-0.6487352252006531,-0.44845256209373474,-0.8333364725112915,-1.546450138092041,0.8887513875961304,1.0843594074249268,-0.16823714971542358,0.6972410082817078,-0.9388701319694519,1.255991816520691,0.6036911606788635,1.6561607122421265,0.9941968321800232,-1.022290825843811,-0.6039595603942871,0.30251285433769226,1.1257213354110718,-2.1074349880218506,-0.24093222618103027,-1.0936124324798584,0.46862179040908813,-0.7069380879402161,-1.062656044960022,-1.1092771291732788,-0.2869802713394165,-0.8179787397384644,0.3335041403770447,1.8978735208511353,-1.2602492570877075,0.2572108805179596,0.9695168137550354,2.4151296615600586,0.6999708414077759,1.1171875,0.6750321984291077,1.7784837484359741,-0.8303758502006531,1.768585205078125,-0.9039510488510132,2.491562843322754,-2.258007287979126,1.1412651538848877,0.0012605334632098675,-0.7510086297988892,-1.017396330833435,2.005941152572632,-0.3601453900337219,-1.0089319944381714,0.37172627449035645,-2.560368537902832,1.2490233182907104,0.23775477707386017,0.4350510239601135,-0.2754991352558136,0.32071006298065186,-1.6063493490219116,-1.3019275665283203,1.1646513938903809
理科,0.3701811134815216,1.763697624206543,1.6455159187316895,1.8838988542556763,0.6156808733940125,-0.8571977615356445,-2.6476640701293945,0.6916561126708984,0.10256445407867432,-1.0911380052566528,-1.0762503147125244,-0.7802444100379944,-0.3778148293495178,1.6861149072647095,0.5440546870231628,-0.5158074498176575,1.746140480041504,-0.1730501502752304,-0.9748088717460632,-0.7995564341545105,-0.36521250009536743,-0.16977950930595398,0.6760397553443909,-0.593621015548706,-0.41446059942245483,-0.10648923367261887,0.4154897630214691,-0.5444268584251404,1.7590923309326172,-0.310141921043396,-0.1050570011138916,1.6847174167633057,0.04068022221326828,-1.5331480503082275,0.7405127286911011,-1.2035819292068481,0.2550852596759796,-1.4460175037384033,0.32643938064575195,-0.7515199780464172,0.043952442705631256,0.4599182903766632,-0.8311789631843567,1.2879102230072021,-0.08939559757709503,-0.8250849843025208,0.07210651785135269,-0.2855217754840851,-0.24472253024578094,0.6989078521728516,-0.28162238001823425,0.4635319709777832,-1.6575756072998047,0.4913983941078186,0.4551440477371216,-1.1099175214767456,-2.7281579971313477,1.551740288734436,0.7403370141983032,1.143985390663147,0.09882550686597824,-0.2020786553621292,1.6267160177230835,-0.09838955104351044,-2.2327187061309814,1.3465487957000732,0.6376598477363586,0.9429634809494019,-0.922903299331665,-0.08625077456235886,-0.3129294812679291,0.9584800004959106,0.39447885751724243,0.48303139209747314,-0.08087781071662903,-0.17415717244148254,-0.8491883873939514,-0.04155620187520981,-0.1833391785621643,1.047891616821289,-1.70921790599823,0.21867753565311432,0.16400673985481262,1.4381859302520752,0.41896453499794006,-0.19765804708003998,0.7316874265670776,-1.9686143398284912,-0.16777677834033966,0.9157965183258057,-1.389240026473999,-0.10494349896907806,1.6665934324264526,0.13895699381828308,1.0977295637130737,0.3618888556957245,0.8757750391960144,0.32756543159484863,-0.9994641542434692,0.20780140161514282,1.123494267463684,-0.8743361234664917,-0.7406670451164246,0.7504037022590637,0.6444735527038574,-0.19264985620975494,0.2649574875831604,0.6845842599868774,0.1279269903898239,0.282209187746048,1.0401955842971802,-0.6395476460456848,1.9328473806381226,-0.5081719160079956,-0.0016111304285004735,1.0270414352416992,0.7504495978355408,-0.9894276261329651,0.7304502129554749,1.1551181077957153,1.7477827072143555,0.5053465962409973,-0.23097482323646545,0.6777198314666748,0.9832663536071777,0.7334977388381958,-0.7564128041267395,0.22613520920276642,1.2648717164993286,0.6333358883857727,1.1490839719772339,0.7821698784828186,0.8596170544624329,0.037440281361341476,-0.526799201965332,-1.1911289691925049,-0.6230939030647278,1.303442358970642,1.367194414138794,-1.502485990524292,-1.3463654518127441,-1.1262379884719849,1.8176627159118652,-1.7821334600448608,1.6453723907470703,-0.7433319687843323,-0.7517118453979492,1.5049285888671875,0.1682232916355133,0.5211108326911926,-0.4173228442668915,-0.16097308695316315,-0.00041358161251991987,0.03709692507982254,0.8563030958175659,-1.353730320930481,1.4668009281158447,0.8507497310638428,-0.6016489267349243,-0.16721931099891663,-0.6481947898864746,1.908301830291748,0.46432575583457947,-0.6459906697273254,-0.5761762857437134,0.6376808285713196,0.8595080971717834,0.14491698145866394,0.19258691370487213,-0.26669758558273315,0.5493049621582031,1.5882676839828491,1.9651763439178467,0.27177733182907104,-0.15893319249153137,1.1450085639953613,0.22960476577281952,-2.227640390396118,0.20236054062843323,-1.084729552268982,-0.03888246789574623,0.6257925629615784,0.12809813022613525,-1.4843237400054932,-1.410394310951233,-0.24326840043067932,-1.0041139125823975,-0.6610915660858154,-0.49436888098716736,0.33725038170814514,-0.5151485204696655,0.17548410594463348,-0.5219305753707886,-0.33370062708854675,0.6737539768218994,-1.1094704866409302,0.05589486286044121,-1.062131404876709,0.766410231590271,0.47251415252685547,-0.030320191755890846,0.5444143414497375,-0.6256411671638489,-0.5131672620773315,0.5847358107566833,0.03288530558347702,-0.7870612740516663,1.1455684900283813,-0.22408492863178253,-0.1207842230796814,-0.9027416706085205,-0.3314770758152008,-0.32663998007774353,1.71140456199646,-0.5344864130020142,-0.18407659232616425,0.4763023853302002,0.9142794609069824,-0.1762857437133789,-0.09040574729442596,0.32565346360206604,-0.680375337600708,0.9062010049819946,-1.044442892074585,0.5273979902267456,-0.685614824295044,-0.7160748243331909,-0.016457995399832726,0.0035739748273044825,1.4737863540649414,-2.186060905456543,-1.1787970066070557,0.8511657118797302,0.5547369122505188,1.4198051691055298,0.3648316264152527,1.5947762727737427,-1.0261057615280151,0.7074836492538452,-0.8805001378059387,-0.972905158996582,0.5254186391830444,-0.4243728816509247,0.4600513279438019,-0.16537722945213318,-2.1692330837249756,0.937935471534729,-0.21379002928733826,-0.17392900586128235,1.6425095796585083,-1.512691617012024,-0.673072874546051,0.9671468138694763,1.0161616802215576,-0.6419493556022644,0.5800934433937073,-0.67188560962677,0.4898753762245178,0.16455401480197906,0.49831679463386536,0.30665674805641174,-0.5205942392349243,1.1424497365951538,-1.0469660758972168,-1.4301133155822754,0.7747616767883301,-0.16869191825389862,-0.07516973465681076,0.35119280219078064,-0.4031159281730652,0.6056704521179199,-1.5769801139831543,1.0222634077072144,0.2724995017051697,0.21292857825756073,1.0591098070144653,0.14276531338691711,1.868799090385437,-1.540451169013977,1.1025890111923218,-0.729759931564331,1.0926796197891235,-0.03873138129711151,0.958540678024292,-1.0710777044296265,-0.042000047862529755,0.36760830879211426,0.7593832015991211,0.18915973603725433,1.243775725364685,-1.825143575668335,-0.04399186745285988,-1.786648154258728,-1.0941935777664185,0.8307139277458191,-0.312194287776947,0.30937662720680237,-0.8139885663986206,0.13608784973621368,-0.7344503402709961
已经,0.6858915686607361,0.4050759971141815,0.6119616627693176,-1.8066726922988892,-1.1245390176773071,-0.7746526598930359,1.344009280204773,-1.017136573791504,1.26644766330719,-0.4787643253803253,-0.6238064169883728,0.726762056350708,0.09396601468324661,-0.003249116474762559,-0.5502345561981201,-0.7377215623855591,1.6373971700668335,0.00025166652631014585,-3.475554943084717,-0.8550313711166382,-0.33333873748779297,-2.919679641723633,1.1192522048950195,-0.4860304296016693,2.4398865699768066,-0.5572366118431091,2.5246949195861816,-0.8136143088340759,-2.2134389877319336,2.4437479972839355,1.635877251625061,-0.8737056255340576,-1.2774156332015991,-2.517416000366211,-1.3595538139343262,0.299309104681015,-2.6272451877593994,-1.8992953300476074,0.7560092806816101,-0.47187456488609314,0.26936960220336914,1.6566777229309082,0.27827540040016174,-0.2368386834859848,0.6900402307510376,1.5021247863769531,1.1643073558807373,1.3726547956466675,-1.2396214008331299,-1.0340389013290405,1.0950865745544434,2.2690072059631348,-1.191394329071045,2.3455193042755127,0.7935549020767212,3.009378433227539,0.06005414202809334,-1.0070831775665283,2.803739070892334,0.5131551623344421,1.0855435132980347,1.6125438213348389,-0.42974352836608887,0.28620845079421997,-0.10912732779979706,0.10021005570888519,0.47627052664756775,0.35419514775276184,-1.554598093032837,-1.741869330406189,2.4925649166107178,0.28211307525634766,-1.1710416078567505,-1.6462905406951904,2.6954917907714844,2.15883207321167,0.22486913204193115,0.015709569677710533,0.6009682416915894,1.3647733926773071,3.615440845489502,-0.07304778695106506,1.624030590057373,-1.2041406631469727,-0.6147587895393372,-0.01647399179637432,4.790093898773193,-0.4087110161781311,-1.1280945539474487,0.2989714443683624,-1.6565642356872559,0.18605948984622955,-0.1396450400352478,0.5016717314720154,-2.140711545944214,-1.0905770063400269,1.1625034809112549,1.1563258171081543,-0.2500561475753784,-0.04652061685919762,-1.3006501197814941,0.13870804011821747,-2.7186391353607178,-0.24119625985622406,-0.9000242948532104,1.1579817533493042,3.9367008209228516,-1.1585350036621094,-1.3322257995605469,-1.6981920003890991,-1.4022464752197266,-0.9811326861381531,0.22281360626220703,0.5655370950698853,-1.1337662935256958,-1.2862460613250732,0.3060375154018402,0.255511611700058,-0.21181951463222504,0.6802106499671936,-0.0544784814119339,-0.974932849407196,-1.166977882385254,1.1539987325668335,-0.4290018081665039,-2.353782892227173,1.6847654581069946,0.2409144937992096,0.3182612359523773,0.18429633975028992,0.002574602607637644,-0.8237053751945496,-1.0306825637817383,-0.17157097160816193,-0.7338335514068604,0.22973543405532837,-0.746306300163269,1.1161912679672241,-2.0354623794555664,-0.6731952428817749,0.8142542243003845,0.2681138813495636,-0.6263144612312317,0.9451740384101868,-1.3204436302185059,0.7941308617591858,-1.2552275657653809,0.5535212159156799,-0.9736703038215637,-0.5341576933860779,-0.20661620795726776,0.5690411329269409,-0.1929328441619873,2.8804140090942383,-1.3892238140106201,-0.21103785932064056,-0.12406797707080841,1.988227128982544,-0.0749027207493782,0.4164218008518219,-0.4857749342918396,-0.06695772707462311,1.6483858823776245,0.07187405973672867,0.19122742116451263,-2.6988017559051514,0.017274359241127968,1.4197701215744019,-0.08572351932525635,0.47670498490333557,-0.1866043210029602,-1.2971075773239136,1.9624825716018677,-0.35415107011795044,1.8425542116165161,-0.157742440700531,0.868811845779419,-1.1806819438934326,0.28040874004364014,-0.7895109057426453,1.36382257938385,-0.7657720446586609,0.8908234238624573,1.2382608652114868,-0.40473249554634094,2.086843967437744,-1.5723265409469604,0.6447404026985168,1.124367594718933,-1.3141065835952759,0.9414509534835815,-0.7998290657997131,1.7453597784042358,0.72613924741745,0.948876142501831,-0.4911985993385315,-0.16872403025627136,-2.7208409309387207,-2.173485517501831,1.0227984189987183,-0.12180109322071075,-2.182587146759033,0.4321945607662201,-0.6921001076698303,-1.484364628791809,1.104337215423584,-0.30872297286987305,-0.102922722697258,-2.009368896484375,1.5780516862869263,-0.2636275589466095,-2.757366180419922,2.357225179672241,-1.3359205722808838,-1.3842579126358032,-2.3741116523742676,-0.2533988058567047,-1.1302490234375,0.22177326679229736,1.552270770072937,2.4263713359832764,0.07698521018028259,0.5689390897750854,1.4996058940887451,0.5514398217201233,-1.0160784721374512,-0.4170466661453247,2.3795228004455566,-1.19854736328125,-0.48931369185447693,1.990336537361145,1.4267916679382324,-0.7877508997917175,1.773674726486206,0.7756034731864929,-0.9718904495239258,-0.3536960184574127,0.3754766881465912,1.8463984727859497,0.22338107228279114,0.7832544445991516,2.732316493988037,1.2764253616333008,0.550088107585907,-0.7174481749534607,-0.3034678101539612,1.4183059930801392,1.0881590843200684,1.0713629722595215,0.1508428305387497,-1.6609867811203003,-1.2098623514175415,1.5566540956497192,-1.3129427433013916,0.22410668432712555,-2.2122106552124023,-3.646885395050049,-0.8114215731620789,2.454190492630005,-0.47351396083831787,-1.7090409994125366,-0.7109388113021851,0.20962250232696533,1.0658726692199707,2.0057272911071777,1.5375784635543823,-1.9530092477798462,0.3017595112323761,-1.4829460382461548,-0.63712078332901,2.1810460090637207,-2.0759341716766357,-0.45910540223121643,0.8317939639091492,1.3720241785049438,0.1508215367794037,2.1165661811828613,0.7779958248138428,0.8386276960372925,0.9525848031044006,2.1538872718811035,2.6766762733459473,0.34499382972717285,1.5150595903396606,-0.04014711454510689,0.24070480465888977,-1.5202536582946777,-0.5369442105293274,1.2035707235336304,-2.2088685035705566,-1.546584129333496,-0.6157761812210083,2.3675241470336914,0.6431067585945129,-0.9384849667549133,1.1189500093460083,1.2220486402511597,0.10896474868059158,0.9671382904052734,-1.0776489973068237
传统,-0.6218141913414001,-0.43833649158477783,0.5058102011680603,-0.4338659942150116,-1.7811790704727173,-0.19443941116333008,0.30726194381713867,-0.00847462099045515,-0.2869643568992615,-0.9006218910217285,-0.5868441462516785,-0.7080434560775757,-0.37689509987831116,2.341392993927002,-1.0533090829849243,0.7862756252288818,1.0593253374099731,1.7953389883041382,-1.679318904876709,-2.19087815284729,0.9475025534629822,1.5438851118087769,-0.7559604644775391,-1.0313369035720825,0.1701527237892151,-0.45674458146095276,0.8323620557785034,-1.015593409538269,-2.1235921382904053,0.6091232895851135,1.3231216669082642,1.2643275260925293,-1.770678997039795,0.45341843366622925,0.031222425401210785,1.898932695388794,1.0233951807022095,-1.6744349002838135,-1.6086188554763794,0.11856748163700104,0.5237737894058228,-1.8518917560577393,-0.8851995468139648,0.06890060007572174,0.5572533011436462,0.018432114273309708,0.8903533816337585,-0.22555045783519745,-1.0178276300430298,-0.3745953142642975,-0.6877660751342773,1.4807506799697876,1.9357885122299194,1.0751385688781738,-0.6106226444244385,-0.163934588432312,-0.8844085335731506,0.19442923367023468,1.839378833770752,0.3913435935974121,0.2680409848690033,0.5845419764518738,-0.559353768825531,-0.10230979323387146,-0.5393295884132385,1.0084751844406128,1.0781970024108887,2.3614156246185303,-0.6662591695785522,-0.18308669328689575,-0.05750669911503792,-0.9368863701820374,0.07695478200912476,-1.5447781085968018,2.124112129211426,-1.7080159187316895,0.5249704122543335,0.3605904281139374,-1.5065706968307495,-0.28614866733551025,1.029775619506836,-1.0099833011627197,-0.9683848023414612,-2.048253059387207,-0.7850183844566345,1.0763664245605469,0.0385378934442997,0.7808100581169128,1.1990011930465698,-1.8996373414993286,-0.6706632375717163,0.09042197465896606,-0.7075311541557312,-0.5035440325737,0.6495488286018372,1.282588005065918,0.1728212833404541,1.8749361038208008,0.5526134371757507,-0.1611059308052063,-1.7551579475402832,-0.6106050610542297,0.7055991291999817,1.619064450263977,-1.8820443153381348,1.2864466905593872,0.15364480018615723,1.0403046607971191,-2.039458751678467,-0.031018679961562157,1.4172075986862183,-0.522572934627533,-0.23389692604541779,1.7572067975997925,-1.3466066122055054,0.2849811017513275,2.063718557357788,1.4661643505096436,0.17291611433029175,2.4053966999053955,0.31790411472320557,0.16334925591945648,2.1181130409240723,2.1859402656555176,1.741992473602295,1.3019260168075562,1.553979754447937,1.5480693578720093,1.9360580444335938,1.0978991985321045,1.1609419584274292,-0.7095666527748108,-0.5854537487030029,1.3611847162246704,-2.26261830329895,-0.10551748424768448,0.329034686088562,0.6873714327812195,0.19098302721977234,0.007459165528416634,-1.1348421573638916,2.2709836959838867,1.8263095617294312,-0.0764475017786026,-0.543933093547821,-0.3909061551094055,0.2414112091064453,-0.3316804766654968,0.2587384283542633,0.09467586874961853,0.7160271406173706,-0.25943535566329956,-0.25411877036094666,2.4945011138916016,1.6256990432739258,-2.5331649780273438,-2.7205970287323,-0.5637239217758179,-0.9516853094100952,-1.3231157064437866,-0.03591669350862503,1.3052105903625488,-1.0258275270462036,-0.7963966727256775,0.7894529104232788,-0.048633869737386703,0.9130203127861023,1.137892484664917,1.759717583656311,1.5297869443893433,1.2997040748596191,-1.042879343032837,0.1784198135137558,-0.048574067652225494,1.2568583488464355,-0.6905623078346252,-1.1704853773117065,0.5624077916145325,0.9504907131195068,-1.1876349449157715,0.9555578827857971,-1.7507497072219849,-1.0277059078216553,0.8617404699325562,0.0847296267747879,2.2466228008270264,-1.5171358585357666,0.5279215574264526,-0.8447962403297424,0.3490268886089325,-1.8719902038574219,-1.3022323846817017,-1.1159862279891968,1.4178361892700195,0.24370412528514862,1.5342243909835815,0.9898895621299744,1.301067590713501,0.683890700340271,-0.840927243232727,-1.67628812789917,-0.8956334590911865,-0.9154556393623352,-2.3533504009246826,1.8966087102890015,-1.1253600120544434,0.453248530626297,0.14551609754562378,-1.1025121212005615,-0.25858888030052185,-0.6684870719909668,0.46815288066864014,1.6706582307815552,-1.1480381488800049,-0.6263286471366882,-2.5979881286621094,-0.8718875050544739,0.8495150804519653,-0.113762766122818,1.329766869544983,1.0443090200424194,-1.5041004419326782,-0.5157930254936218,-1.336361050605774,-0.1815985143184662,0.4932549297809601,0.6821104884147644,0.7074441313743591,0.4688045382499695,-0.9417765140533447,-0.07453329861164093,-1.0534964799880981,-0.4771462082862854,0.17895051836967468,-0.8037428855895996,-0.20556402206420898,1.905423879623413,0.6257493495941162,-1.3661251068115234,-0.6922279596328735,1.4805042743682861,1.0705479383468628,-0.2940140664577484,0.42844662070274353,-0.5488125085830688,1.2149158716201782,1.0550637245178223,-0.9794551134109497,-0.8980875015258789,0.8346396088600159,-1.1426315307617188,1.8152048587799072,-1.4171663522720337,1.8531279563903809,0.016201753169298172,-1.1709752082824707,-0.4531750977039337,0.07235811650753021,2.6908557415008545,-2.5631864070892334,0.33549433946609497,-1.1435332298278809,1.3123294115066528,-0.36718207597732544,1.0223758220672607,0.32743391394615173,-1.3082455396652222,0.18466494977474213,-0.3745209872722626,0.6821870803833008,-1.7444844245910645,0.1502574235200882,1.1882312297821045,1.5861423015594482,0.5641760230064392,2.1826231479644775,0.013772789388895035,2.4083540439605713,-0.04850625991821289,0.12961924076080322,2.6054177284240723,0.4436459541320801,-0.3689520061016083,1.1791073083877563,0.4238720238208771,0.4195571839809418,0.30244532227516174,0.16696937382221222,-0.2019384652376175,-2.2366888523101807,-1.0111427307128906,-0.5101528763771057,0.003329416736960411,-0.19550937414169312,-1.0948809385299683,3.1267402172088623,0.2329261600971222,-1.041518211364746,-3.028468132019043,-2.33074688911438
做好,1.3124672174453735,-2.725938558578491,-0.12458030879497528,-0.36056292057037354,0.4344184100627899,0.3277807831764221,-2.2391862869262695,1.9229410886764526,-0.5956860184669495,-1.5874392986297607,-1.751808524131775,0.3235638737678528,1.0973238945007324,-1.6136832237243652,-1.4428982734680176,-0.6546618342399597,0.6361526846885681,-0.1034216657280922,-0.7285093069076538,-0.7717546224594116,-0.9841535091400146,-1.5298444032669067,1.250525712966919,0.31332120299339294,-0.6562243103981018,-1.3218516111373901,-0.5760591626167297,-0.14833344519138336,-2.00482439994812,1.022303819656372,-0.3593205511569977,-0.9035492539405823,0.30735787749290466,1.5465781688690186,-0.9475057125091553,-0.25217321515083313,-0.32057705521583557,0.510287880897522,-0.4709821045398712,-1.6975940465927124,-0.25037360191345215,-0.979286789894104,1.7190979719161987,-0.7483019828796387,-0.7282871007919312,-0.25062093138694763,-0.05396388843655586,0.1521093100309372,-1.4130935668945312,-0.5539463758468628,-1.4638439416885376,-1.2286838293075562,1.4894418716430664,1.6911277770996094,-0.6190823316574097,0.7711239457130432,-0.7632681131362915,2.0365583896636963,-1.3460646867752075,0.28628095984458923,0.6493034362792969,0.23140265047550201,0.7404536008834839,0.4460301995277405,1.1348302364349365,0.7717605233192444,-0.2081109583377838,1.5576692819595337,0.08117789030075073,-1.5821837186813354,0.5866077542304993,1.271378993988037,0.19926925003528595,-0.2648020386695862,1.6586531400680542,-1.2778851985931396,0.2960786521434784,1.9960850477218628,-1.1421865224838257,0.1717105209827423,1.3149244785308838,2.0004189014434814,-0.29974496364593506,0.6086181998252869,0.4780975878238678,1.4507325887680054,0.47653934359550476,-0.61506587266922,-0.7252019643783569,0.682975709438324,-0.5874451398849487,0.5402037501335144,0.7919025421142578,2.076871633529663,0.20812033116817474,-1.920248031616211,1.0157194137573242,1.6020716428756714,-1.9286859035491943,-1.0758030414581299,0.15746040642261505,-0.18645848333835602,-0.7711980938911438,0.15375842154026031,1.1157711744308472,-0.4120950698852539,0.32914999127388,1.718032956123352,1.0289695262908936,0.2641407549381256,0.7642328143119812,0.11533775925636292,-0.5287081599235535,-0.8492065072059631,-0.4408515989780426,0.40199416875839233,-1.0979442596435547,-1.8654124736785889,-0.9457651972770691,-1.062380075454712,0.7889019846916199,-2.3342065811157227,2.6518356800079346,2.526094675064087,-0.9812945127487183,-0.8496510982513428,0.08675568550825119,2.976397752761841,1.2637004852294922,-1.6801549196243286,-0.1637284755706787,-0.6501222252845764,0.09639651328325272,1.495285987854004,0.3508676588535309,2.330657958984375,0.9515175223350525,0.5668951869010925,-0.7079551815986633,-0.3452315926551819,-0.6487857699394226,-1.1805369853973389,0.8797286152839661,-0.0051215835846960545,0.2986292243003845,0.2837018668651581,-0.11701817065477371,-1.3091576099395752,-0.9111391305923462,-2.3365135192871094,0.4999622106552124,-1.6929941177368164,0.8654029965400696,-1.1018518209457397,0.4525415897369385,0.15310730040073395,-0.17286038398742676,1.248034119606018,-2.1120457649230957,-2.190843343734741,-0.014078612439334393,-0.12954896688461304,2.8455491065979004,-1.1498078107833862,2.120337724685669,0.09201118350028992,0.042346250265836716,0.7842698693275452,1.271364450454712,0.919951319694519,-0.04429872706532478,-1.6359144449234009,-1.1506965160369873,-1.6003895998001099,-0.12203419208526611,0.23689313232898712,0.6574623584747314,-1.1048301458358765,-0.7200866341590881,-0.8849996328353882,-1.1515012979507446,-0.6352575421333313,-0.09797423332929611,-0.06963971257209778,-2.5649898052215576,-0.10274855047464371,-1.576019048690796,2.110119342803955,-0.8225668668746948,-1.0852457284927368,-0.511255145072937,-1.767378330230713,-1.4343194961547852,0.05964699760079384,1.3773267269134521,-1.3047221899032593,-1.9929258823394775,-0.17954270541667938,-0.40360206365585327,1.6208243370056152,-0.4959985315799713,-0.4091510474681854,1.879738450050354,-0.45692357420921326,0.3888614773750305,0.2818441092967987,1.4647724628448486,-0.5448097586631775,0.6720535755157471,2.330798387527466,0.3940967619419098,0.8494088053703308,-0.04725131019949913,1.3841187953948975,0.7656047940254211,-0.6780712604522705,0.37928733229637146,2.631460189819336,1.8504709005355835,0.15035340189933777,0.3741428852081299,1.0434948205947876,0.07804831862449646,1.784577488899231,0.5841594934463501,-1.6713424921035767,-0.6917388439178467,-1.2370771169662476,-1.0604383945465088,1.3601645231246948,0.8390335440635681,0.31529709696769714,1.5902431011199951,-1.3147097826004028,0.44401708245277405,0.5203397870063782,-0.4520508646965027,-0.31564509868621826,0.3916943669319153,1.2261552810668945,0.3429454565048218,0.5923599600791931,-0.9058847427368164,0.3226016163825989,-1.3977680206298828,1.0835174322128296,0.6765755414962769,0.40648147463798523,-0.5492540597915649,1.2727410793304443,-1.2822999954223633,-0.5756816267967224,-2.187563896179199,-1.0210121870040894,-1.1073787212371826,-0.3007116913795471,-1.3091979026794434,-0.8003040552139282,-1.0318241119384766,-0.14373813569545746,-0.2978382110595703,-2.0704121589660645,-1.143850326538086,0.09082135558128357,0.05764443054795265,-1.1475247144699097,-0.9863331913948059,-1.2275078296661377,-0.9177897572517395,-0.5124544501304626,-0.7364909052848816,-1.2729328870773315,0.9719853401184082,2.3297905921936035,0.3710440695285797,-0.02924586832523346,-0.024132000282406807,0.4175184667110443,0.9101327657699585,0.9487373232841492,1.467215657234192,1.1209540367126465,0.2587154507637024,-1.0861217975616455,-0.1821504682302475,0.9712022542953491,0.9482752084732056,-0.5471643209457397,-0.40844348073005676,-1.3338056802749634,-0.4044434130191803,0.9166523218154907,1.4174609184265137,0.760638415813446,-1.614709496498108,-0.06710731983184814,0.886756420135498,0.43996503949165344,0.03836023062467575,0.05674382299184799
社会,1.2831685543060303,-0.48189204931259155,0.6019983887672424,0.25193071365356445,-2.07991623878479,2.3671743869781494,0.6813336610794067,-0.01964799501001835,0.007961679250001907,1.4140005111694336,-0.2707982063293457,-0.48526397347450256,-0.3869396448135376,0.3454838991165161,-2.171020030975342,0.7059140205383301,-0.3065159022808075,-0.6784960031509399,-2.1855673789978027,-3.398174285888672,0.8690151572227478,-0.7885527610778809,-0.899894654750824,-1.1242377758026123,-1.3221460580825806,-2.188462972640991,1.7224127054214478,0.005397501401603222,-1.0879144668579102,0.8164560794830322,-2.029219150543213,-0.9554087519645691,-1.6777596473693848,-0.23386524617671967,-1.9658738374710083,-0.4361707270145416,-0.6008875370025635,-1.9354431629180908,-0.14314331114292145,1.1353309154510498,-1.0176187753677368,1.0695031881332397,-2.206956148147583,-0.7873145341873169,-0.068181611597538,-0.7847565412521362,-1.110677719116211,0.24526803195476532,0.06356415152549744,-0.4700613021850586,-0.45538094639778137,-1.4740186929702759,0.5293440222740173,-0.591417133808136,-0.3428574502468109,0.8434472680091858,0.6398987174034119,0.9078276753425598,1.8719611167907715,0.17210008203983307,1.2345552444458008,0.496664434671402,2.0097100734710693,0.0801573097705841,-1.059491515159607,1.6113661527633667,2.9990015029907227,2.5366899967193604,-0.23004773259162903,-1.107964277267456,2.1791064739227295,-1.2238775491714478,1.0678311586380005,-0.9835458993911743,0.42352813482284546,0.5419042110443115,0.649021327495575,-0.5964478850364685,1.1025829315185547,-0.782777726650238,0.32994043827056885,0.27342692017555237,-0.7310768961906433,-1.0719836950302124,-2.6207804679870605,0.7487124800682068,-0.2733270525932312,0.008532227948307991,1.620804786682129,0.7092554569244385,1.6220756769180298,0.7444187998771667,2.1671142578125,-1.1928082704544067,-1.28342866897583,-0.7358630299568176,1.33152174949646,-0.05738489702343941,-1.135427713394165,-0.9847908020019531,0.40062904357910156,-0.3452901244163513,-0.7274125218391418,-0.3159046173095703,-0.6849952340126038,-1.1761866807937622,-0.3867018222808838,1.9910333156585693,-1.672261357307434,-1.656593680381775,2.6825246810913086,-0.5363184213638306,0.28291431069374084,-0.1617564857006073,0.27227339148521423,-1.6600607633590698,-0.4498613774776459,0.8557387590408325,-0.7858468890190125,-0.49751609563827515,2.3833158016204834,-0.7868123650550842,1.0028480291366577,-0.4689536988735199,0.941919207572937,-1.797314167022705,0.17847906053066254,-1.2405457496643066,0.44598087668418884,-1.77876877784729,1.7986103296279907,0.29818907380104065,1.4524561166763306,3.0102813243865967,-1.656090497970581,0.41819697618484497,0.06461583822965622,-0.4923882484436035,-0.6768128871917725,-2.0571398735046387,-1.1823447942733765,0.3607451319694519,1.2833194732666016,0.5137985348701477,-0.8682762384414673,0.7553460001945496,-2.9766712188720703,0.4175640940666199,1.1066160202026367,-1.1353038549423218,2.6973795890808105,-1.2453174591064453,-1.7586588859558105,1.1723860502243042,-0.8895072340965271,-1.160946011543274,-1.766722321510315,2.274603843688965,-0.3574851155281067,-0.48606157302856445,0.24201518297195435,0.966060221195221,-0.7061029672622681,0.04248817637562752,2.0109684467315674,-1.0171141624450684,2.273642063140869,0.1415567696094513,0.9868855476379395,0.6661528944969177,-0.9484846591949463,-0.5178484320640564,0.5741785168647766,-0.37032240629196167,1.2700780630111694,2.481066942214966,-0.6800109148025513,-1.2656264305114746,0.5020450949668884,1.1958167552947998,-0.09781153500080109,-0.7813794612884521,-2.1329314708709717,0.5706411600112915,2.093531847000122,1.301670789718628,-2.4084632396698,-0.5077659487724304,-1.6297446489334106,1.6223970651626587,-1.2849068641662598,0.5938971042633057,-1.1812843084335327,-0.3717261850833893,2.2793495655059814,0.8491581082344055,-0.1853390336036682,1.166629672050476,-1.2818589210510254,-2.6687164306640625,-0.548102617263794,-0.032634079456329346,-0.31070947647094727,-0.20635943114757538,-0.3277747631072998,0.6609926223754883,1.1666672229766846,-1.135315179824829,0.44779881834983826,-0.7648168802261353,-0.6419393420219421,-2.4854660034179688,-3.2050037384033203,-0.7537135481834412,-1.439969539642334,-1.705436110496521,0.7217048406600952,2.302309274673462,0.36572664976119995,2.9963231086730957,1.1641699075698853,1.1009328365325928,1.9362095594406128,-0.9496502876281738,0.1124674528837204,0.03984152898192406,1.6907292604446411,0.19661693274974823,-1.461118459701538,2.814542293548584,0.37331217527389526,-1.1433998346328735,0.01886570267379284,0.21775178611278534,0.9018151164054871,-1.1245733499526978,-0.45502710342407227,1.6774163246154785,-0.7238624691963196,1.3854005336761475,2.327913284301758,1.8131046295166016,-0.4706624448299408,-0.34452855587005615,-3.0597758293151855,-0.7335748672485352,0.05731259658932686,0.3226579427719116,-1.331354022026062,0.6967483162879944,-0.9196361899375916,0.602445662021637,-0.7572407126426697,1.394178867340088,-0.044822148978710175,-2.3750298023223877,-0.8361328840255737,-0.1858544498682022,3.6489665508270264,-3.46696138381958,-0.4060713052749634,-0.9767509698867798,-0.6658722162246704,0.8640028834342957,-0.2696208655834198,-0.12761087715625763,0.8880703449249268,-0.18399019539356232,-1.5539329051971436,-0.639862060546875,0.4336039423942566,0.8864699006080627,-1.0149552822113037,0.6763641238212585,-0.689129650592804,1.8303165435791016,-0.5954445600509644,2.2257285118103027,-1.3175876140594482,0.8858091831207275,-0.7589985132217407,2.126572847366333,0.2253129482269287,2.1286442279815674,-0.2110442966222763,-0.26767221093177795,1.1632314920425415,2.37540864944458,0.18094632029533386,-2.1647746562957764,-0.5669211149215698,-0.8611147403717041,1.1027932167053223,-1.091908574104309,1.0989018678665161,-0.3496948480606079,-1.092247724533081,-0.3504232168197632,-0.3739945590496063,-1.4899863004684448
课堂,0.7646090388298035,-0.43022826313972473,1.0229694843292236,0.562730073928833,0.4199729859828949,-0.3230554163455963,-1.9559882879257202,0.6308385133743286,1.5525950193405151,-0.8409245014190674,-1.6258766651153564,0.24808360636234283,-0.5493046045303345,0.30040332674980164,-0.6714184284210205,0.9296700954437256,1.545805811882019,0.0880475640296936,-0.5391760468482971,-0.4509626030921936,-0.9870710372924805,0.607423722743988,0.4708501994609833,-0.6010082960128784,0.43924370408058167,-0.3985925614833832,-0.47983160614967346,0.2993282377719879,-0.09063404053449631,-0.6483548879623413,0.8155252933502197,0.3761325478553772,-0.8481374979019165,-1.3351309299468994,-0.34774643182754517,-0.5576837062835693,-0.3179212212562561,0.1716083586215973,-0.07623045146465302,-0.14514805376529694,-0.21170096099376678,-0.579096257686615,-1.1394600868225098,0.43751710653305054,0.6109412312507629,0.23671390116214752,-0.128657728433609,-0.8326491713523865,0.027923928573727608,-0.0855710431933403,-2.4561989307403564,-0.3404896557331085,0.28400537371635437,0.06610815227031708,1.0299780368804932,-0.8384455442428589,-0.07062537223100662,-0.5217986702919006,1.5886080265045166,1.7761143445968628,0.20712797343730927,0.42809081077575684,0.008862019516527653,-0.8472180366516113,-1.9424664974212646,1.8899492025375366,0.3088456392288208,3.018588066101074,0.41606032848358154,0.4791257679462433,-0.44020530581474304,0.6881939768791199,-0.728130578994751,-0.38721734285354614,0.3533785343170166,0.6284523606300354,-0.35261139273643494,-0.7093976140022278,0.10042951256036758,-1.2899789810180664,-1.4982659816741943,-0.8634544610977173,-0.5723866820335388,0.3389512002468109,-0.34944623708724976,-0.15225113928318024,-1.2414908409118652,-0.5990941524505615,0.8745887875556946,0.5032744407653809,-0.7314692735671997,-0.5974512696266174,0.3784659504890442,-0.12334074079990387,-2.136920690536499,0.096157006919384,1.1341021060943604,1.3809796571731567,-1.4290224313735962,-0.6829849481582642,1.0462908744812012,-0.319000780582428,0.5555210113525391,0.6607826352119446,-1.150115728378296,-0.675131618976593,-0.0056437114253640175,0.9968576431274414,0.8260098099708557,0.9424638748168945,1.1289235353469849,-0.12431616336107254,0.33626657724380493,-0.1477002203464508,0.5746687650680542,-0.1453683078289032,0.9295987486839294,-0.648179292678833,-1.788408875465393,0.43515583872795105,1.2801483869552612,0.5289456844329834,1.9602916240692139,0.763525128364563,0.40768253803253174,-0.2707679271697998,0.03893719241023064,1.2456375360488892,2.3165555000305176,-0.3906118869781494,-0.6082279682159424,0.06308098137378693,0.17603860795497894,-0.550150990486145,-2.069443702697754,-0.036783814430236816,-1.1058080196380615,-1.400816559791565,0.7088748216629028,-3.0925960540771484,-1.0484856367111206,-0.3765419125556946,0.47463127970695496,-0.42065882682800293,1.1473827362060547,0.04404802247881889,-0.2773938477039337,1.2820967435836792,-0.42547163367271423,1.0010204315185547,1.2623807191848755,-0.015310815535485744,-1.1641868352890015,1.3286316394805908,-0.04639866575598717,-1.6276687383651733,1.4229109287261963,-0.4435266852378845,-0.5389140844345093,-0.29641738533973694,-1.2520393133163452,-0.10327161103487015,-0.24468417465686798,-1.056671380996704,1.2675578594207764,-0.7480854988098145,1.1806716918945312,1.0002787113189697,0.36376523971557617,0.04307623952627182,-0.7363847494125366,-0.4323730766773224,0.3129022419452667,-0.05479889735579491,0.8697769045829773,0.7511988282203674,-1.0182818174362183,-2.3214006423950195,0.6326246857643127,-0.16304907202720642,-0.04805177077651024,0.3167489171028137,-1.0985350608825684,-0.8721094727516174,-0.3758919835090637,0.30526044964790344,-1.0530295372009277,-0.6783444285392761,0.10119282454252243,0.42064228653907776,-0.6279762387275696,1.2251856327056885,0.00744586018845439,-0.3514224886894226,0.6436792612075806,-0.3329344689846039,1.4689769744873047,-0.5457637310028076,-1.3888131380081177,-0.942689836025238,-0.46761631965637207,1.1835358142852783,0.7932714819908142,-2.3956708908081055,-0.023540182039141655,1.1611669063568115,0.6251707077026367,2.1956894397735596,0.6610251069068909,1.9218229055404663,-1.3209208250045776,0.6694579124450684,-0.12864214181900024,0.9621842503547668,-0.6650753021240234,-0.9494437575340271,0.7910540103912354,1.0855664014816284,-0.7883355617523193,0.9296329617500305,-0.12729842960834503,-0.11058592796325684,0.8766931891441345,-0.8231287002563477,0.6027392745018005,-0.7910577058792114,-0.11592438071966171,1.4722479581832886,0.01814611814916134,0.4315371513366699,-0.3585282862186432,-1.8106694221496582,0.8733537197113037,-0.5921927690505981,1.171675682067871,1.1245917081832886,1.6506083011627197,0.9177178740501404,1.4336479902267456,-0.4602431058883667,0.5366837382316589,1.414507269859314,-1.147970199584961,-0.27164018154144287,0.3477088212966919,-1.840076208114624,0.24204428493976593,0.41392016410827637,-0.13213558495044708,0.041389063000679016,-0.262147456407547,-3.3875958919525146,0.30398687720298767,1.9036563634872437,-0.5566197633743286,0.7475969195365906,-0.9980165362358093,1.205557107925415,2.6498751640319824,0.6360704302787781,1.0541051626205444,-0.08489476889371872,-0.7427952289581299,-0.5748353600502014,-0.6077753305435181,-0.017947576940059662,0.4902973771095276,-1.398977279663086,-0.7767729759216309,0.21742290258407593,-0.21565474569797516,-0.3189629912376404,1.2826792001724243,2.3927721977233887,-0.25483325123786926,1.3341091871261597,1.3386753797531128,-0.000141458775033243,0.22363637387752533,1.578154444694519,1.770669937133789,1.3393579721450806,0.10339530557394028,0.6338048577308655,-0.8985977172851562,0.3901599943637848,0.6463049650192261,-0.4081614017486572,-0.6464551091194153,-0.3575209677219391,-0.4285036325454712,-0.6383799910545349,-1.5903805494308472,-1.0673869848251343,1.7740658521652222,-0.2147427797317505,-1.012037754058838,-1.030371069908142,-0.18255849182605743,-1.2156482934951782
