word,0,1,2,3,4,5,6,7,8,9,10,11,12,13,14,15,16,17,18,19,20,21,22,23,24,25,26,27,28,29,30,31,32,33,34,35,36,37,38,39,40,41,42,43,44,45,46,47,48,49,50,51,52,53,54,55,56,57,58,59,60,61,62,63,64,65,66,67,68,69,70,71,72,73,74,75,76,77,78,79,80,81,82,83,84,85,86,87,88,89,90,91,92,93,94,95,96,97,98,99,100,101,102,103,104,105,106,107,108,109,110,111,112,113,114,115,116,117,118,119,120,121,122,123,124,125,126,127,128,129,130,131,132,133,134,135,136,137,138,139,140,141,142,143,144,145,146,147,148,149,150,151,152,153,154,155,156,157,158,159,160,161,162,163,164,165,166,167,168,169,170,171,172,173,174,175,176,177,178,179,180,181,182,183,184,185,186,187,188,189,190,191,192,193,194,195,196,197,198,199,200,201,202,203,204,205,206,207,208,209,210,211,212,213,214,215,216,217,218,219,220,221,222,223,224,225,226,227,228,229,230,231,232,233,234,235,236,237,238,239,240,241,242,243,244,245,246,247,248,249,250,251,252,253,254,255,256,257,258,259,260,261,262,263,264,265,266,267,268,269,270,271,272,273,274,275,276,277,278,279,280,281,282,283,284,285,286,287,288,289,290,291,292,293,294,295,296,297,298,299
阶段,0.641762912273407,-0.24161511659622192,2.484583854675293,-2.421685218811035,-2.2881250381469727,-1.4452952146530151,-1.6768274307250977,0.8454040884971619,-1.1038086414337158,0.6657983064651489,-2.052647829055786,-1.6268682479858398,0.19527342915534973,0.02404533512890339,-1.791021466255188,0.20989489555358887,1.5266618728637695,1.2821904420852661,-0.5650184750556946,-1.6094433069229126,-0.033723946660757065,-3.931379795074463,0.16590094566345215,-1.553173542022705,1.253523588180542,-0.7782427072525024,-0.5800997018814087,-2.031796455383301,1.397412657737732,3.5318193435668945,-0.03228279575705528,0.0017869430594146252,-0.5955991744995117,0.7026999592781067,-0.009624478407204151,-1.2451156377792358,-2.9890129566192627,0.7622290253639221,-0.9342722296714783,-0.07501137256622314,-0.09998974949121475,3.031789541244507,0.6233936548233032,-0.8833299279212952,1.6983191967010498,2.718231201171875,0.6707858443260193,0.3590407967567444,-2.3403890132904053,0.1959964632987976,-1.4898629188537598,-0.13338829576969147,1.6779311895370483,2.0275678634643555,-0.3745028078556061,1.7831391096115112,0.42844510078430176,1.260705828666687,0.7360763549804688,0.6499000191688538,1.4302644729614258,0.3653741478919983,-0.02695305086672306,0.9215072393417358,0.05771167576313019,-1.3561656475067139,1.1553289890289307,1.3555539846420288,-1.5142244100570679,-1.577427864074707,0.024154601618647575,1.141847014427185,-2.1042723655700684,-1.5957361459732056,2.5284271240234375,0.29930737614631653,0.6473970413208008,-0.7836352586746216,-1.827355146408081,-0.9867594838142395,0.4574129581451416,-2.07566237449646,-0.666887640953064,0.2092157006263733,-0.018330475315451622,1.2068231105804443,0.9599601030349731,0.07798227667808533,2.8001410961151123,-1.2846899032592773,0.20934925973415375,1.5153394937515259,1.1356183290481567,1.1437119245529175,0.6701644659042358,0.06317009776830673,-1.1898136138916016,1.2233601808547974,1.192800521850586,0.16201220452785492,2.1324939727783203,-1.5647096633911133,-1.016916036605835,0.5557927489280701,-0.33509957790374756,0.5799038410186768,-0.25073370337486267,-0.4529505968093872,-2.489636182785034,-0.3721792995929718,0.0882137194275856,-1.4453531503677368,1.7638185024261475,2.2521517276763916,1.61760675907135,0.4182981252670288,2.4671554565429688,-1.031583547592163,0.4531098008155823,-1.0254517793655396,1.209397315979004,-0.7057635188102722,1.471510410308838,0.28781065344810486,1.8634380102157593,0.1623488962650299,-0.8777905106544495,0.5380886793136597,-1.3629800081253052,-3.9038479328155518,0.0015913979150354862,-0.14009806513786316,4.216989040374756,2.0591044425964355,-1.057517409324646,-1.0649524927139282,0.11922162026166916,1.4595022201538086,0.2671111822128296,0.45743328332901,0.5350366234779358,0.4715608060359955,-1.3810911178588867,-0.501145601272583,0.4300680458545685,0.22962985932826996,-3.1991961002349854,0.7233004570007324,-1.6444441080093384,-0.10785049945116043,-1.0604956150054932,-1.2353875637054443,-0.30055099725723267,-1.1973161697387695,0.764636218547821,-1.563138484954834,1.140592336654663,1.845942497253418,0.26769891381263733,1.39619779586792,-1.1413204669952393,1.3543365001678467,2.6290628910064697,0.6210985779762268,-0.04922659322619438,-1.8826484680175781,-0.8331156969070435,2.3021631240844727,0.3846457898616791,-0.9064056873321533,-1.9753422737121582,-1.2174614667892456,0.9548956751823425,0.7480775117874146,0.27072733640670776,1.964892029762268,0.17407669126987457,1.0521100759506226,-0.2412836253643036,1.3457869291305542,-0.15394915640354156,2.0048935413360596,0.9215173721313477,-0.98954176902771,0.33417779207229614,1.4735291004180908,0.8511360287666321,0.9584004878997803,-1.7219818830490112,-2.3065340518951416,-1.5424643754959106,0.3288474678993225,0.5403491854667664,1.3418866395950317,0.9748474359512329,-1.4349496364593506,1.3594022989273071,1.1511183977127075,-1.1964521408081055,2.5677330493927,-0.709153950214386,-1.0427979230880737,-0.3233898878097534,-0.21867385506629944,1.586063027381897,0.7138442397117615,-0.5723572969436646,1.5500565767288208,0.09304259717464447,1.3087388277053833,-1.8503514528274536,-0.5585227012634277,-0.760556697845459,-0.9823440313339233,-0.42133745551109314,-0.9166818857192993,-0.0038545443676412106,-1.0275349617004395,-1.843034267425537,-0.7984757423400879,1.2461332082748413,2.2559664249420166,-1.6227182149887085,-0.5522859692573547,1.4843571186065674,-0.20473645627498627,-0.921524167060852,0.2925265431404114,-1.3742308616638184,-0.3870309591293335,0.35360458493232727,-1.0566846132278442,1.0469616651535034,-0.002624072600156069,0.8794901967048645,2.784111976623535,-1.8883800506591797,-0.44122764468193054,-0.26539888978004456,0.6258456707000732,1.2392545938491821,1.6428310871124268,-0.4433152973651886,1.6995211839675903,-2.175553560256958,-1.4124881029129028,1.7509472370147705,0.11861182004213333,2.9035379886627197,0.6454811096191406,-0.5100128650665283,-0.0498962476849556,-0.24027247726917267,-0.26724761724472046,-1.103485107421875,-0.3020818829536438,-0.40935343503952026,-1.1831220388412476,0.4164818227291107,-2.0001957416534424,-0.7670139670372009,-0.5384740829467773,-0.350495308637619,-1.3304550647735596,1.1658859252929688,0.3105388879776001,-0.4347687065601349,-0.4744018316268921,-2.407984733581543,-0.19019469618797302,1.3007551431655884,-0.4439772367477417,2.4606363773345947,1.3306361436843872,-0.6578958034515381,1.5979032516479492,1.426835060119629,1.7220098972320557,0.9599294662475586,1.7336541414260864,2.2793188095092773,0.37083375453948975,-2.408200979232788,-0.5396538972854614,0.8805475831031799,0.8601202368736267,-0.7888645529747009,-1.841365933418274,0.5257986783981323,-1.5504951477050781,-0.2727137506008148,-1.3731606006622314,1.3371573686599731,-1.5235817432403564,0.936342716217041,0.9680643677711487,-0.6928393840789795,-1.7075629234313965,1.6628957986831665,-3.0967495441436768
解决问题,0.9820185303688049,-0.8115501999855042,1.6503715515136719,0.09890538454055786,-0.7221826910972595,1.5247844457626343,-0.0030956706032156944,1.4809257984161377,1.1497374773025513,-0.8478808403015137,-0.8715760707855225,0.6547967195510864,-0.5503426194190979,-0.41205352544784546,-1.8063313961029053,-0.23163385689258575,0.698346734046936,0.03451799228787422,-2.2604591846466064,0.3476842939853668,-0.7149187922477722,0.16918978095054626,0.21611957252025604,-0.12515495717525482,-1.1552244424819946,-0.5400712490081787,-0.6921265125274658,-0.11990392208099365,0.02475295402109623,0.21901419758796692,-0.4433576166629791,-1.3280640840530396,-0.14178375899791718,0.8596038222312927,-0.6787594556808472,0.5614919662475586,-0.757819414138794,-0.7800227403640747,-0.4763275682926178,-0.19646689295768738,0.6924818754196167,-0.8902818560600281,-0.36402496695518494,-2.149394989013672,-1.0524019002914429,0.7847015857696533,0.27182960510253906,0.8255323767662048,-1.6397075653076172,0.09459302574396133,-0.10704255104064941,0.22380338609218597,1.8276069164276123,-0.08304048329591751,-0.11796821653842926,-0.41717004776000977,0.5296730399131775,0.22033238410949707,-1.701399564743042,0.6733934283256531,1.9569977521896362,0.11423584073781967,0.33635780215263367,0.6708521246910095,-0.12423928827047348,0.8350688815116882,-0.21516987681388855,1.1333688497543335,0.48124629259109497,0.015380343422293663,-0.5717065334320068,0.812420666217804,-0.9343398213386536,-0.876421332359314,-0.5746481418609619,-0.01842302270233631,1.2331595420837402,-0.3524951934814453,-0.14245955646038055,-0.04163340851664543,-0.40353548526763916,-0.10450903326272964,-0.3494204580783844,-0.2543240189552307,-0.7494019269943237,-0.7502087950706482,0.9719857573509216,-0.255047470331192,0.30105745792388916,0.14090496301651,0.6350177526473999,0.7460493445396423,0.059126563370227814,0.1489863097667694,0.1218162551522255,-1.4854170083999634,-0.29385870695114136,0.6771008372306824,-1.5260015726089478,-1.0528804063796997,-0.45354965329170227,-0.44196000695228577,0.9055426120758057,0.6933530569076538,-0.06694605946540833,1.3382856845855713,0.8935967087745667,1.1889941692352295,-0.0536094605922699,0.670214056968689,-0.6073994040489197,0.4394151568412781,0.4050390422344208,0.0663071870803833,-0.29399481415748596,-0.8239136338233948,0.3055551052093506,0.006939765531569719,-0.6218574643135071,-0.28564077615737915,1.5875825881958008,-1.868534803390503,1.7002938985824585,0.42332255840301514,0.44078898429870605,-0.19365277886390686,0.626709520816803,0.4439767301082611,0.9387118220329285,-0.08927715569734573,0.9608730673789978,0.17100021243095398,-0.8923815488815308,1.805938482284546,-0.2903360426425934,0.13797584176063538,0.13130414485931396,0.20272983610630035,0.17373177409172058,-0.7902328968048096,0.9188586473464966,0.9251744747161865,0.9184291362762451,-1.093214988708496,0.918544590473175,1.225340485572815,-1.0617880821228027,0.21899013221263885,-0.30296236276626587,-0.6783191561698914,0.213051900267601,-0.7695586681365967,-0.2554281949996948,0.28174346685409546,0.013578740879893303,-0.7160741090774536,-0.05018240958452225,-0.02670508250594139,-0.09157586842775345,-1.397997498512268,0.024485532194375992,-0.9322808980941772,0.010907527059316635,0.28208139538764954,-0.5867053270339966,-2.330284595489502,2.2813527584075928,0.03062569350004196,1.709289789199829,1.2793433666229248,0.44637131690979004,0.09207261353731155,0.27963370084762573,-0.2164381891489029,1.3311518430709839,1.1192139387130737,1.197374701499939,-1.019708275794983,-0.9525620937347412,0.2574571669101715,-1.5402418375015259,-1.169014573097229,-0.694900393486023,-1.3268200159072876,-0.7366395592689514,1.6271286010742188,-0.3189454674720764,1.9326233863830566,-0.3360101580619812,-0.5537706613540649,0.008494134061038494,-0.9143752455711365,-0.5462073087692261,-0.6654305458068848,0.4337347447872162,-0.5576700568199158,0.7497246265411377,-0.4166753888130188,0.1846185177564621,-0.32376331090927124,-0.5556676983833313,-0.3435857892036438,2.05566143989563,-1.2358347177505493,0.6726328134536743,0.15830695629119873,0.09594500809907913,0.39531683921813965,0.3021303713321686,0.1291670948266983,0.1606302708387375,0.3263237178325653,-1.2366869449615479,2.020826578140259,0.2567649483680725,-0.7073097825050354,-0.02202916331589222,2.3937935829162598,-0.15192344784736633,-0.10907848924398422,0.0824480727314949,0.8250324726104736,1.0488582849502563,1.267590880393982,-0.5452335476875305,-1.1720030307769775,-0.2178521752357483,0.47734755277633667,-0.40790021419525146,-0.07886552065610886,-0.1296006441116333,-1.0531411170959473,0.12383846193552017,-0.2031114101409912,-1.0626825094223022,-0.5446390509605408,1.120485782623291,-0.375898540019989,0.8918887972831726,1.0318595170974731,0.3524003028869629,1.069901704788208,0.37018492817878723,-0.8025925755500793,-0.8003274202346802,-1.1519078016281128,0.20662175118923187,-0.008553155697882175,-0.8348947167396545,-0.843720555305481,0.13339553773403168,-0.43805646896362305,-0.2823120057582855,-1.0336647033691406,-0.4770035743713379,0.5980821847915649,-2.5116031169891357,-0.003825663821771741,0.7988582849502563,-0.15760208666324615,-0.9541563391685486,-0.7376328110694885,-0.6289324164390564,0.8140835165977478,0.49503186345100403,-0.801007866859436,-0.29659637808799744,-1.5890114307403564,-1.322299838066101,-0.32391276955604553,-0.19150561094284058,-1.035370945930481,0.6099831461906433,0.9140435457229614,-1.0386137962341309,-1.3285406827926636,0.3853043019771576,0.03525175899267197,0.720008373260498,0.6977430582046509,1.0640488862991333,1.6360528469085693,-0.6221524477005005,1.6378062963485718,-0.41294610500335693,2.0096168518066406,0.7870551943778992,0.6650200486183167,-0.9548658728599548,-0.26167288422584534,-1.5323413610458374,-0.7891861796379089,-0.6091794967651367,1.0270600318908691,0.07720210403203964,-0.3475167751312256,0.07200557738542557,-0.029208697378635406,-0.5031155347824097,0.8400410413742065
独立,-1.3889484405517578,1.2365809679031372,-0.5945717692375183,2.716789722442627,-0.26980894804000854,0.9728639125823975,0.3197841942310333,0.9134181141853333,0.38305172324180603,0.4657360017299652,1.1546518802642822,-1.462752103805542,-0.37362542748451233,0.15659038722515106,-0.46916380524635315,-0.6796544790267944,-0.12625455856323242,-0.2035188376903534,-2.2347207069396973,-1.4303045272827148,-2.962247610092163,-1.1205134391784668,-0.17929697036743164,0.5252230763435364,-0.9967930316925049,1.038334846496582,0.03575459495186806,-0.61185222864151,0.7292760610580444,1.0730376243591309,-1.7969598770141602,0.18428149819374084,-2.0080015659332275,0.10549949109554291,-0.45580723881721497,0.7030283212661743,-2.294161319732666,0.7004107236862183,-1.6334713697433472,-1.4182788133621216,-1.344106912612915,1.5170845985412598,-2.039320707321167,0.16997714340686798,-0.6869774460792542,-0.22649219632148743,-0.8898674845695496,-0.6462536454200745,-0.8959623575210571,-1.1080085039138794,0.8266922235488892,0.23056866228580475,-1.3919190168380737,2.0873069763183594,0.5956264734268188,-1.3605875968933105,0.39467015862464905,2.074504852294922,0.16649790108203888,1.4921413660049438,-0.2559734284877777,-0.462360680103302,0.2946608066558838,-0.4296956956386566,0.7682456970214844,0.243777334690094,-0.7107520699501038,-0.32790639996528625,-0.9336638450622559,1.0168379545211792,2.1431620121002197,0.5688140988349915,-0.3615790605545044,-2.5614559650421143,3.2334370613098145,1.774152159690857,0.40649816393852234,-0.134820356965065,1.3431919813156128,2.234727382659912,-0.44258126616477966,0.8268177509307861,0.3228450417518616,-1.493859052658081,0.1812250167131424,-0.8138828873634338,2.0570907592773438,1.0059062242507935,1.0389238595962524,-1.0440253019332886,-0.6596636176109314,-0.14180654287338257,1.8381251096725464,-0.25691744685173035,1.7735974788665771,-0.3952721655368805,0.19296599924564362,-1.332154631614685,1.1917986869812012,-1.2679721117019653,0.07887206226587296,-2.949118137359619,0.9771813750267029,1.8691636323928833,0.9557130336761475,0.7338530421257019,1.494602084159851,1.2733908891677856,-0.7399791479110718,0.5311388969421387,-0.6668735146522522,-0.8100694417953491,-0.3525945842266083,1.496156096458435,-0.9895654320716858,-0.31354600191116333,2.072435140609741,1.0092016458511353,0.5249013900756836,0.6551079154014587,1.0932037830352783,-0.49899178743362427,0.37746405601501465,0.4419744908809662,0.9814119338989258,-1.4254266023635864,0.8731430172920227,0.8975598812103271,1.0221614837646484,-1.1737534999847412,-0.7008389830589294,-1.7180436849594116,1.3573923110961914,2.843745470046997,-0.977880597114563,-0.4664137065410614,0.7102963924407959,-0.1945253163576126,-0.1529516875743866,0.681876540184021,0.411406010389328,0.7659727334976196,0.5677863359451294,-0.5182997584342957,-0.1633792370557785,-1.0256668329238892,0.3150828778743744,1.1870638132095337,1.6652039289474487,1.0586719512939453,0.011564256623387337,0.5233069658279419,1.441562294960022,1.4378174543380737,-0.849094808101654,-2.93379282951355,-1.7440688610076904,1.8376586437225342,0.12276239693164825,1.0803594589233398,2.0652403831481934,0.7435203194618225,0.48321178555488586,-0.19715668261051178,0.6457091569900513,-0.3242553472518921,0.2923052906990051,-0.31968024373054504,-0.7177499532699585,-0.15888744592666626,1.8848236799240112,0.8957045674324036,1.8474208116531372,-0.14166216552257538,2.478545665740967,-0.025178445503115654,-1.0372581481933594,0.5925357937812805,0.14709067344665527,-0.5534433126449585,-0.267137736082077,-0.5009062886238098,-2.194601058959961,-0.6556268334388733,0.18635869026184082,2.248063802719116,-3.2543389797210693,0.7511242628097534,-2.269882917404175,1.02764892578125,-0.28841453790664673,0.09934870153665543,0.8725565075874329,0.2780036926269531,0.141594797372818,-0.05259878560900688,2.4516327381134033,-0.768815279006958,-0.1537056863307953,-1.7624143362045288,2.87678599357605,0.31043344736099243,1.1364104747772217,2.0582034587860107,-0.8933060169219971,-1.5580679178237915,0.2570525109767914,1.0018168687820435,-0.08555273711681366,-0.6237537860870361,-0.6208126544952393,0.3920283019542694,0.35597607493400574,-0.7080509662628174,-1.0353264808654785,-1.996646761894226,-2.5705575942993164,2.6679134368896484,0.023266425356268883,-2.1787497997283936,0.3075501322746277,0.8575421571731567,-1.2924373149871826,0.4244694411754608,0.46950381994247437,0.3896087408065796,0.006967666558921337,0.19965429604053497,-0.8937097191810608,0.2098391056060791,0.9835322499275208,0.0232913326472044,0.9791672825813293,1.1794161796569824,1.0267921686172485,-0.7821455001831055,-0.7525491118431091,-0.40181413292884827,0.958240270614624,-0.5836204886436462,1.9053943157196045,-0.010287253186106682,0.5428653955459595,-0.36411672830581665,-0.8400795459747314,-1.610735535621643,0.4210048019886017,-0.6616280674934387,-1.4890344142913818,1.1761493682861328,-0.9439172744750977,2.0151798725128174,-0.6695036888122559,-1.0888416767120361,-0.11465850472450256,0.5943455100059509,-2.2959835529327393,0.8110108971595764,2.843350887298584,-0.48913347721099854,-1.3677394390106201,-1.0687001943588257,0.08291914314031601,-0.034723713994026184,-0.5742703080177307,-1.4320017099380493,-0.9052395820617676,-0.5550844073295593,0.5592203140258789,-0.918962299823761,-0.7259529232978821,1.299560546875,0.6190344095230103,1.6715096235275269,-2.90024471282959,-1.522289752960205,-0.013572006486356258,0.4688458740711212,-0.3305375277996063,-1.4804383516311646,-3.245468854904175,2.073866367340088,-1.8819681406021118,0.506259024143219,2.356613874435425,0.3046399652957916,-0.033899106085300446,0.17678441107273102,-0.08017755299806595,-2.509143352508545,-2.0760228633880615,-1.087267279624939,0.8386881947517395,-1.017117977142334,-1.23115873336792,1.0081967115402222,0.1452673226594925,2.1167845726013184,0.24682068824768066,-0.8576657772064209
效率,0.01760520040988922,1.2654454708099365,-0.12291564047336578,-1.7866989374160767,0.7294635772705078,0.12496097385883331,1.1781107187271118,0.6519434452056885,-0.45369359850883484,-1.4584484100341797,-1.4618523120880127,-0.019813241437077522,-0.616045355796814,0.18518070876598358,-2.385225296020508,-2.120347499847412,0.8287595510482788,-0.5993742346763611,-2.907390594482422,-0.5928217768669128,-0.9332152009010315,-0.7390553951263428,0.13740494847297668,-1.5559370517730713,-0.12139275670051575,-1.1281658411026,-0.3587969243526459,-2.366605758666992,0.20720155537128448,2.096127986907959,-0.3913010060787201,-0.7593857049942017,-1.3205232620239258,0.3616640567779541,-1.4174662828445435,-0.14843010902404785,-0.9586917757987976,-2.7901875972747803,-2.1925604343414307,-0.024448009207844734,0.5062844157218933,-0.7677361369132996,0.35446104407310486,-0.9304838180541992,0.9570691585540771,2.022372245788574,1.484233021736145,2.561906099319458,-2.683549404144287,0.38400423526763916,-0.9815458059310913,0.671303927898407,1.6667050123214722,-0.10849999636411667,0.7258254289627075,0.8891393542289734,0.08381950855255127,2.3350069522857666,1.7979332208633423,-0.4267731308937073,-0.5818643569946289,-0.22628523409366608,1.0120383501052856,1.4327737092971802,-2.750437021255493,1.789668321609497,0.4720013439655304,0.8194772005081177,1.7324880361557007,-1.969879388809204,-3.2995715141296387,-1.1031972169876099,-0.985779881477356,0.9143506288528442,1.3042610883712769,-1.199377179145813,2.0427186489105225,-0.0872064158320427,0.5908141136169434,0.06755895167589188,0.9447634816169739,0.1724645495414734,-1.056957483291626,0.3471156060695648,-0.6417298316955566,-0.358481228351593,0.3155551254749298,0.5601357817649841,-0.7791374325752258,-0.8848787546157837,-0.6562483310699463,0.11081022769212723,0.5860006213188171,0.941757321357727,-1.4192167520523071,-0.04339452087879181,0.781400740146637,0.9743033647537231,0.7721152305603027,-0.4422134757041931,0.5585498809814453,-0.5992019772529602,-1.200103759765625,-0.8972957730293274,1.9511655569076538,2.271979808807373,-0.6302670836448669,0.22599484026432037,0.4972439706325531,-2.621424674987793,1.2372089624404907,-1.0900135040283203,-1.9098752737045288,-0.6148476600646973,0.2381312996149063,0.456773579120636,1.8039709329605103,-0.7566958665847778,-1.5528734922409058,0.6310257911682129,-0.7776498198509216,-1.2053366899490356,0.1824243813753128,0.4728802740573883,0.25818270444869995,-0.606848418712616,1.1436508893966675,1.892695665359497,-0.29470446705818176,-2.541275978088379,-0.268032968044281,0.026412250474095345,1.5642441511154175,2.349104881286621,0.18134936690330505,-2.1399335861206055,-0.34594759345054626,0.21331670880317688,-1.6403722763061523,-0.047886330634355545,-0.8393825888633728,0.03450831398367882,-3.1179380416870117,1.793206810951233,2.8629281520843506,1.1350696086883545,-1.4123378992080688,0.092710942029953,1.7683051824569702,-0.3772299289703369,-1.1475061178207397,0.18715043365955353,-2.7798824310302734,2.5734899044036865,-0.32269448041915894,-1.9599497318267822,0.4441929757595062,0.10789204388856888,-1.8252475261688232,-0.008519366383552551,-1.5245981216430664,0.2934478521347046,1.3656715154647827,-3.1540894508361816,1.9155770540237427,-0.28670376539230347,1.877311110496521,-0.2650468945503235,2.1589176654815674,1.0718342065811157,0.7133240103721619,-0.40192288160324097,-1.12913978099823,0.36071687936782837,1.4655258655548096,1.1857410669326782,0.012879191897809505,-1.231094479560852,-0.9544367790222168,1.2217433452606201,-0.5792409181594849,-2.826016902923584,-1.7626105546951294,-0.5397824645042419,1.7897039651870728,0.8691670298576355,-1.3588316440582275,1.4583766460418701,-1.0932117700576782,-0.7217388153076172,0.023604819551110268,-0.32486385107040405,0.32418292760849,0.22513189911842346,0.8720016479492188,-0.5117189884185791,-0.7340162992477417,-0.4125744700431824,0.9583596587181091,1.8705756664276123,-1.7663750648498535,0.6719387769699097,3.0558691024780273,0.8902780413627625,-0.5681807994842529,-0.4175463914871216,0.2713160514831543,-0.4136289954185486,2.2903482913970947,-0.42527836561203003,0.002446178114041686,0.9832022786140442,-1.550829529762268,-0.05638011544942856,1.0795718431472778,-0.5729603171348572,0.9048677086830139,-1.1773040294647217,-0.1263151615858078,-1.1278918981552124,0.9454323053359985,1.6493932008743286,-1.4300991296768188,1.8883002996444702,-0.48382633924484253,0.6338972449302673,1.6696358919143677,0.2425723373889923,-0.289843887090683,0.6436441540718079,0.1030428558588028,-0.949366569519043,0.8883889317512512,1.5874667167663574,-1.2499384880065918,-0.650188148021698,0.7556004524230957,-0.558701753616333,-2.171013832092285,-0.7497342824935913,1.5004231929779053,-0.4172842502593994,0.24531617760658264,-1.302270531654358,-1.7512168884277344,-0.7733128070831299,-0.27196887135505676,-0.9085531830787659,-2.118100881576538,-0.7283241152763367,-1.5334967374801636,0.24668756127357483,0.7456135749816895,-0.6912474632263184,0.019367722794413567,0.6038236618041992,-3.2508628368377686,-0.8601176738739014,1.290418267250061,-2.093879222869873,-0.930456280708313,0.9412881135940552,0.9366400837898254,1.647850513458252,1.0486022233963013,-0.20875371992588043,-0.7324487566947937,-0.9378325343132019,-0.9348711967468262,0.04417642205953598,-0.1652543842792511,-0.6354278326034546,-0.7653812766075134,-1.3317350149154663,-2.3274166584014893,0.09263822436332703,3.082542657852173,-0.23619240522384644,-0.2528020143508911,0.17592541873455048,2.9942867755889893,1.3849048614501953,-0.6151266694068909,2.3873090744018555,-0.35432010889053345,0.872462809085846,0.5510185360908508,1.902079701423645,-0.49416887760162354,-0.004319698084145784,-1.6885005235671997,-1.071297526359558,-0.9216358065605164,-0.42103156447410583,-1.0117467641830444,1.5868194103240967,0.3024085462093353,-1.9876375198364258,-0.41183745861053467,-2.841761827468872
抓起,0.12655167281627655,-0.2613481283187866,0.1692408323287964,0.16451618075370789,-0.06511262059211731,-0.08930156379938126,-0.11662901937961578,-0.18299677968025208,0.14564482867717743,-0.2678367495536804,0.3560781180858612,0.23676365613937378,-0.0901174321770668,-0.5894396901130676,-0.10302016139030457,-0.24563387036323547,0.31526312232017517,-0.04168432205915451,0.39642348885536194,0.236871138215065,-0.35314279794692993,0.015459828078746796,0.41563141345977783,-0.24897296726703644,-0.14894649386405945,-0.5070028901100159,0.09681880474090576,0.09360413998365402,-0.18598675727844238,-0.785912275314331,0.1738053858280182,0.04136316850781441,0.30538931488990784,-0.5766335725784302,-0.29033809900283813,0.1969490498304367,0.07590478658676147,0.28947287797927856,0.3337896466255188,-0.1402704119682312,0.30662691593170166,-0.28191179037094116,-0.287850558757782,-0.24275997281074524,0.1231006607413292,0.13948401808738708,0.037267621606588364,0.4315757155418396,-0.07123634219169617,-0.2796252965927124,0.19518928229808807,0.6531375050544739,-0.2373715341091156,0.03235974535346031,0.0624033585190773,-0.37455233931541443,-0.4201938211917877,0.37624144554138184,0.07647284120321274,0.08972238004207611,0.42200782895088196,-0.07222757488489151,-0.1966274082660675,-0.017920933663845062,-0.21898968517780304,0.06288688629865646,-0.4831539988517761,-0.39963898062705994,-0.051765598356723785,0.08647580444812775,0.1202775239944458,-0.04229247570037842,-0.3592948019504547,-0.22605907917022705,0.20599761605262756,0.0034253099001944065,-0.2626318037509918,-0.31790977716445923,-0.10286065191030502,-0.16628658771514893,0.21447768807411194,-0.13979211449623108,-0.022470688447356224,-0.04224006086587906,0.12877780199050903,0.08580967783927917,-0.06564528495073318,0.3536127507686615,-0.07899967581033707,0.12865202128887177,0.20932549238204956,0.18550774455070496,-0.15209724009037018,0.13725793361663818,-0.2998945713043213,0.03843473270535469,-0.13617786765098572,0.10706216096878052,0.3214806020259857,0.16337497532367706,0.2805342376232147,0.16884256899356842,-0.3344414234161377,0.06269390136003494,-0.19399355351924896,0.05519421026110649,-0.34267929196357727,0.2755344808101654,0.36435866355895996,-0.11374211311340332,-0.362643301486969,-0.09056294709444046,-0.15389063954353333,-0.6308972835540771,0.010255498811602592,-0.08370931446552277,-0.09937499463558197,-0.20561599731445312,0.003819539910182357,-0.027226712554693222,-0.0036192103289067745,-0.396019846200943,0.1248369887471199,0.041744764894247055,0.025006553158164024,0.3142364025115967,0.17141035199165344,0.3340640962123871,0.42566901445388794,0.5593404769897461,-0.03707117959856987,0.2798125147819519,-0.40341779589653015,-0.13196228444576263,0.1523527354001999,-0.11161842197179794,0.33289220929145813,0.10948775708675385,-0.12344981729984283,0.20868197083473206,0.1028280258178711,0.355764776468277,0.004835064988583326,-0.09978191554546356,-0.05682133138179779,0.02072405070066452,0.06839561462402344,-0.14768992364406586,0.07301347702741623,0.1897663176059723,-0.28092440962791443,-0.6534278988838196,-0.09101495891809464,0.004279726650565863,0.13380472362041473,0.34847068786621094,-0.3639822006225586,-0.02726057358086109,-0.33922314643859863,0.1321193426847458,-0.1390736699104309,0.3562658429145813,0.21160754561424255,0.015876900404691696,0.026442626491189003,0.09048070758581161,-0.40158483386039734,0.16936591267585754,-0.06970959901809692,0.22227056324481964,-0.188867449760437,-0.004312488716095686,0.1505746692419052,-0.28668084740638733,-0.10835087299346924,-0.5795267820358276,0.2077421396970749,-0.1695421189069748,0.4008888900279999,0.4233922064304352,-0.3012550175189972,0.03121647611260414,0.07923917472362518,-0.25450634956359863,-0.34000325202941895,-0.06270524859428406,-0.15503060817718506,-0.23859050869941711,0.39211758971214294,0.10620955377817154,0.00572132458910346,-0.01977739855647087,0.10910441726446152,0.15940554440021515,-0.004462560638785362,0.47115573287010193,-0.15636113286018372,-0.11619167774915695,0.005981103051453829,0.021124007180333138,0.14664773643016815,-0.14944235980510712,-0.12479328364133835,0.16428130865097046,0.06340032070875168,-0.24965305626392365,-0.013919223099946976,0.1449032574892044,-0.08857343345880508,0.02555985003709793,0.01252380944788456,0.1924763023853302,0.4490346312522888,0.31001016497612,-0.20608364045619965,0.27572518587112427,0.12986451387405396,-0.01604527048766613,0.0816730260848999,-0.09037231653928757,-0.02137911319732666,0.03955280780792236,0.02154274843633175,0.2838035523891449,-0.15397556126117706,-0.1370459794998169,-0.39796245098114014,0.12965327501296997,-0.17049776017665863,0.12423103302717209,0.1827581375837326,0.047049108892679214,-0.24950382113456726,-0.25442102551460266,0.10751958191394806,0.08510676771402359,0.31715908646583557,-0.4447701573371887,0.15966938436031342,1.0148776769638062,0.07277771830558777,-0.44952014088630676,0.15866908431053162,0.0880357101559639,-0.41475775837898254,-0.4671570956707001,0.21226932108402252,0.14267830550670624,0.35259416699409485,-0.04795320704579353,0.14526480436325073,0.2684515118598938,-0.1356768161058426,0.2805071175098419,0.07533474266529083,0.038223542273044586,-0.3114157021045685,-0.07887587696313858,-0.37142112851142883,0.19147413969039917,-0.0015671633882448077,0.2377910017967224,0.021877553313970566,-0.08994007110595703,-0.06325607001781464,-0.13795317709445953,-0.3127850294113159,-0.013897634111344814,-0.3048030436038971,0.09980633109807968,0.2694687247276306,-0.06421485543251038,-0.3396880328655243,0.05362537503242493,0.06937303394079208,-0.31768864393234253,-0.16011792421340942,0.3224707543849945,0.328871488571167,0.02606266178190708,0.43219706416130066,0.2991775870323181,0.45742326974868774,0.17220866680145264,-0.029101558029651642,0.05742421746253967,0.1360594928264618,0.026210568845272064,0.34148675203323364,0.04308311268687248,0.4108365774154663,0.22608745098114014,-0.4053876996040344,0.24796228110790253,0.1310282051563263,-0.032620709389448166,-0.053398337215185165,0.03363911807537079,0.0536140576004982,0.25448790192604065
基础教育,0.016186514869332314,0.11988318711519241,0.9086043834686279,0.9183029532432556,-0.0595589205622673,0.507945716381073,-1.5939658880233765,0.5527682900428772,0.06650599092245102,-0.018173374235630035,-1.2950631380081177,0.5124258399009705,-0.10366298258304596,1.8838728666305542,-0.2955251932144165,0.012331030331552029,0.38989755511283875,-0.02059873566031456,-1.8449152708053589,-2.101006269454956,0.4042733609676361,-0.5374000668525696,0.014949414879083633,-0.021669449284672737,-0.17540910840034485,-0.353259414434433,0.3507089614868164,0.6578042507171631,-0.1597553938627243,0.5690358281135559,0.18823274970054626,-0.035440973937511444,-0.47035449743270874,-0.5162933468818665,-0.2796565294265747,-0.567923903465271,-0.7651704549789429,-0.9709680676460266,0.028178676962852478,0.24492813646793365,0.5723085999488831,-0.3005642592906952,-0.12101738899946213,0.10467932373285294,-0.2550141215324402,0.06559565663337708,0.925013542175293,-0.13352330029010773,-0.446867972612381,-0.5281514525413513,-0.21505828201770782,-0.22035004198551178,-0.5642217993736267,0.6256375312805176,-0.11525553464889526,-0.3720909059047699,-0.7854440212249756,0.8076328039169312,0.9251105785369873,0.311262845993042,0.48022377490997314,0.011264516972005367,0.9308608174324036,-0.024503931403160095,-0.5805242657661438,-0.08297131210565567,0.6715538501739502,1.1122894287109375,0.1369921714067459,0.36112135648727417,-0.18579228222370148,0.6134616136550903,0.26523807644844055,0.06525978446006775,1.007888674736023,0.12630097568035126,0.2103971540927887,-0.17532624304294586,0.2478502243757248,-0.4814348816871643,-0.5139370560646057,-0.4344924986362457,0.3161011040210724,-0.18469999730587006,-0.6759123206138611,0.467617928981781,0.1868140697479248,-1.3122509717941284,0.9791623950004578,-0.3650766909122467,-0.39375537633895874,-0.6132539510726929,0.5953708291053772,0.411237895488739,0.14922766387462616,-0.018640480935573578,0.9106428623199463,0.14444322884082794,-0.7781355977058411,-0.1328686773777008,0.1222957894206047,-0.2669931948184967,-0.14467741549015045,0.1307779848575592,0.32924047112464905,0.2006523460149765,-0.6063598394393921,0.13737761974334717,0.18338972330093384,-0.35863834619522095,-0.2667674720287323,-0.0003790050686802715,0.2481750100851059,-0.3373219072818756,-0.5557011961936951,0.16631251573562622,1.3577064275741577,-1.0998928546905518,0.05195024982094765,-0.6701679825782776,0.7622016668319702,0.23152704536914825,-0.34810343384742737,0.7690104842185974,1.3570435047149658,0.6846895217895508,-0.1378428041934967,-0.08347909897565842,0.35393795371055603,-1.1678794622421265,0.08623257279396057,-0.31410086154937744,0.81563401222229,0.06476616859436035,-0.12143716961145401,-0.6688262224197388,-0.29480117559432983,-0.16596606373786926,-0.10527019947767258,-0.6666589379310608,-0.8183524012565613,-0.6632788181304932,0.4484408497810364,-0.11452357470989227,-0.40801072120666504,-0.8044701814651489,-0.6931967735290527,0.7092207670211792,0.222052201628685,-0.0068501816131174564,0.20788592100143433,0.19701430201530457,-0.39490610361099243,0.4556483030319214,0.037851493805646896,-0.4476061761379242,0.1639818251132965,0.8666372895240784,-0.5992663502693176,-0.1205313503742218,-0.2932526767253876,0.039219558238983154,0.21843312680721283,0.007286277133971453,0.5420039892196655,0.7122645378112793,0.6272960901260376,-0.07295995205640793,0.136943057179451,-0.3005872070789337,0.1338215470314026,0.051770132035017014,0.5542656183242798,0.07217182964086533,0.18033209443092346,1.4832786321640015,-0.7322584986686707,-1.2355828285217285,1.069616436958313,-0.8294360637664795,-0.042477015405893326,0.11587995290756226,-0.9525852203369141,-0.4108547270298004,0.7331491112709045,0.24711687862873077,-1.637804627418518,-0.20218780636787415,-1.2627383470535278,0.07732973247766495,-0.7711086869239807,0.028318025171756744,-0.2828685939311981,-0.2614695727825165,-1.0752207040786743,-0.5133164525032043,-0.17097069323062897,-0.7660780549049377,-0.6895402073860168,0.5867918133735657,-0.0378694012761116,0.660467803478241,0.5120553970336914,-0.3335547149181366,0.6762834787368774,0.5206429958343506,0.5288156867027283,1.3467060327529907,0.1894768476486206,0.14597395062446594,0.5470252633094788,-0.5611190795898438,-0.5300995111465454,-0.7472888231277466,-0.06835176050662994,0.07327061146497726,0.08138372749090195,0.3999673128128052,-0.8885931968688965,-0.12487785518169403,0.2602185308933258,0.46378079056739807,0.7335320711135864,-0.35533809661865234,0.09811937063932419,0.35844916105270386,0.5339332818984985,-0.8442827463150024,0.4693606197834015,0.540482223033905,-0.8280487656593323,-1.3969132900238037,0.5446823239326477,0.24404391646385193,-0.2696436941623688,-0.0922585278749466,0.5084257125854492,-0.17802952229976654,0.5073388814926147,0.48606425523757935,-0.12483420968055725,1.1131620407104492,-0.8279246091842651,0.20338670909404755,-0.4791847765445709,-0.770720362663269,0.5990918278694153,0.04186715930700302,-0.4542196989059448,0.1536681056022644,-1.4973602294921875,0.17786069214344025,0.4590921700000763,0.0876433327794075,0.17938238382339478,-0.20412680506706238,-0.2605271339416504,-0.530802845954895,0.1401018500328064,-0.6315195560455322,-0.31129950284957886,-0.25258898735046387,0.19314292073249817,0.09302341938018799,-0.6265491843223572,0.42491209506988525,0.003890266874805093,0.30638107657432556,-0.33050113916397095,0.564513087272644,0.253384530544281,0.519204318523407,0.9887750744819641,0.5183941125869751,-0.4826965630054474,1.2542963027954102,0.908973217010498,0.5779179930686951,-0.5486350059509277,0.3088526725769043,-0.2876875698566437,0.8687256574630737,-0.3201642632484436,0.07882823050022125,0.0956760123372078,-0.12444567680358887,-0.01268831267952919,1.0464909076690674,-0.45461928844451904,-0.0974876806139946,-0.3198936879634857,0.05378594622015953,0.4641879200935364,-0.5805590748786926,0.12700973451137543,-0.46634045243263245,0.8764503598213196,-0.7311116456985474,0.10743825137615204,-0.2556205987930298
掌握,-0.43893322348594666,-0.27158790826797485,-0.038671527057886124,-0.8902046084403992,-0.2131001204252243,0.11769168823957443,-0.8250459432601929,-0.2437124103307724,0.5866929292678833,-0.4352901577949524,-1.0545581579208374,0.5525867938995361,-2.043931484222412,-0.43984267115592957,-1.593467354774475,-1.4656375646591187,-1.4155445098876953,0.7253250479698181,-1.782414436340332,-0.8768884539604187,-0.3085305094718933,-0.3684629201889038,0.44937780499458313,0.17289210855960846,-0.7193491458892822,-1.9333785772323608,0.7335740327835083,-0.059096597135066986,-0.2860236167907715,0.5745931267738342,0.4588828384876251,0.43415841460227966,-0.6162086129188538,1.0199676752090454,-2.4006760120391846,-1.2025227546691895,0.7895879745483398,-1.220056176185608,-0.09747033566236496,-2.3189890384674072,-0.5510877966880798,-0.2704773247241974,0.4509401321411133,-1.508923888206482,-2.904435396194458,0.4853571951389313,1.4046376943588257,0.6477681994438171,-0.8025763034820557,-0.9226903915405273,1.7098976373672485,0.7890287637710571,0.04347634315490723,0.4311520755290985,-2.0808236598968506,-1.719092845916748,1.8710063695907593,-0.053360458463430405,0.15875600278377533,1.6758286952972412,-0.690610945224762,1.5534217357635498,1.3223199844360352,-1.1142573356628418,-0.38317349553108215,-0.6503903865814209,-1.062987208366394,1.1290842294692993,-0.9551364779472351,-0.5321133732795715,0.7056929469108582,-0.44984710216522217,0.028867142274975777,-1.6669949293136597,-0.9827645421028137,-1.069593906402588,2.048708915710449,1.4331350326538086,-0.36303308606147766,1.7291123867034912,-1.050290822982788,-1.183061122894287,-0.17763786017894745,-0.3809065520763397,0.5975040197372437,2.5939629077911377,0.6919904351234436,1.205277442932129,-0.3239630162715912,-0.02359556406736374,-0.8692144751548767,1.017714500427246,-2.3603076934814453,0.4428856670856476,-0.3977385461330414,-3.292318344116211,3.0949859619140625,-0.7748287320137024,1.2933627367019653,-0.28445541858673096,0.5897761583328247,0.8834785223007202,1.0382080078125,0.3770349323749542,1.1153128147125244,1.7872159481048584,-1.4461441040039062,1.1384341716766357,-0.9627826809883118,1.5736764669418335,1.4508299827575684,0.5691477060317993,0.27585265040397644,-1.9312725067138672,0.6103376746177673,-2.9105451107025146,-1.3725250959396362,0.9446426033973694,0.05295603349804878,0.0280147772282362,0.743792712688446,-2.142930507659912,1.0989700555801392,2.5378060340881348,1.111591100692749,1.535509705543518,1.588010311126709,0.27584317326545715,-1.1761378049850464,-1.3581780195236206,2.475473403930664,-0.7270689010620117,0.32369062304496765,2.9481959342956543,-0.6316850185394287,1.977278232574463,0.05604683607816696,1.3281816244125366,-1.0046145915985107,-0.17248721420764923,-0.19691704213619232,0.8731973767280579,1.9944361448287964,-1.4509170055389404,-1.6877162456512451,-0.18465541303157806,-0.7861971259117126,-0.6753333210945129,0.8190668821334839,-0.9398682713508606,0.0798608660697937,0.18938292562961578,-1.953943133354187,0.17646938562393188,-0.9996479153633118,0.09215579181909561,0.39773812890052795,0.7516735792160034,0.6578624248504639,-0.8228800892829895,-0.5602474808692932,1.7683629989624023,0.6097389459609985,-2.149057626724243,0.04581708088517189,-0.43943101167678833,0.6576933264732361,1.39415442943573,-1.6610143184661865,2.6947524547576904,-0.4658064842224121,0.6829701662063599,-1.1565219163894653,-0.27999377250671387,2.592186450958252,1.4242786169052124,1.316603422164917,-1.4711675643920898,-0.12139543890953064,1.1989535093307495,-1.2165699005126953,0.38271206617355347,1.4786055088043213,-1.1641873121261597,-0.20393294095993042,0.0630028024315834,-2.295034408569336,2.725836753845215,-0.32585039734840393,-1.8352131843566895,-1.1130270957946777,1.6747335195541382,-0.29268980026245117,0.8096036314964294,-0.14889587461948395,-0.9029871821403503,0.4871445298194885,-0.04306270182132721,0.14405511319637299,0.49905967712402344,0.8215014934539795,-2.256962299346924,1.4023351669311523,-0.27151188254356384,-0.6950064301490784,0.8690540194511414,0.9245862364768982,-0.16636285185813904,-0.3243913948535919,0.9075941443443298,-0.5415626168251038,-0.4700596332550049,-0.8547708988189697,1.2328569889068604,1.1078613996505737,-1.1731913089752197,1.3231524229049683,1.4296560287475586,-1.6163954734802246,-1.0863828659057617,2.082581043243408,-0.02828233689069748,2.204413414001465,0.6047013998031616,-1.9583746194839478,-1.3418371677398682,-0.12444731593132019,-1.3010847568511963,0.8640092015266418,-0.777382493019104,1.6932650804519653,1.139808177947998,0.8761314153671265,-0.28742364048957825,0.8216840028762817,0.12712210416793823,2.4360921382904053,-0.6002516150474548,-0.6335271000862122,1.5375572443008423,0.41648995876312256,0.5643435120582581,-0.7399498224258423,-0.9925976991653442,-1.0293381214141846,-1.8088855743408203,-1.1346089839935303,-0.516181468963623,0.5327476263046265,0.610530436038971,-2.556767225265503,0.5276517868041992,-0.09661845117807388,-1.9033710956573486,-1.6887280941009521,-1.7251789569854736,-2.59999418258667,-1.6019831895828247,-1.2306010723114014,-1.406585931777954,-1.6564714908599854,-0.7430886626243591,-0.7610155344009399,0.7502623796463013,-0.9564816951751709,-1.3639289140701294,-0.3285062611103058,-0.32166579365730286,0.6133900284767151,-1.8994594812393188,0.8825735449790955,-2.4156570434570312,0.4723304510116577,2.0487122535705566,0.8512577414512634,-0.2553764283657074,-0.40923166275024414,2.144749164581299,1.4586901664733887,-0.03587853163480759,2.020199775695801,3.1180877685546875,-0.8899036049842834,1.8319966793060303,-1.1550101041793823,1.7991516590118408,1.1977261304855347,0.5389299392700195,-2.0107133388519287,0.29309526085853577,0.775433361530304,-1.0391854047775269,1.2448976039886475,-0.7075815200805664,0.11619707942008972,-0.935904860496521,1.6751341819763184,2.132493257522583,-0.5930365920066833,0.1342976689338684
学好,0.3133375644683838,-0.6582527160644531,0.2953639328479767,-0.3311304748058319,-0.14004947245121002,0.17294566333293915,-0.6071004271507263,-0.3026442229747772,0.6898888349533081,-1.0420787334442139,-0.8005744218826294,0.19196881353855133,-0.2397667020559311,0.17642498016357422,0.16304126381874084,-0.2565332055091858,0.9633905291557312,-0.4479217827320099,-0.25760629773139954,0.08054570108652115,-0.4359751343727112,-0.10875121504068375,0.5239714980125427,-0.031372010707855225,-0.5687964558601379,0.4194810092449188,-0.14123257994651794,0.03148382157087326,-0.2770249545574188,-0.038323838263750076,-0.2310369312763214,-0.1712309867143631,-0.37465381622314453,-0.08830445259809494,-0.33684277534484863,-0.09531176090240479,-0.48319703340530396,-0.40284159779548645,0.3685314655303955,-0.3974595069885254,-0.40470582246780396,-0.03158969059586525,0.2983861565589905,-0.6263103485107422,-0.33245670795440674,-0.24330852925777435,0.18959929049015045,0.3559206426143646,-0.12456851452589035,-0.1936519294977188,-0.3551954925060272,0.13026535511016846,-0.24904493987560272,-0.08165385574102402,0.06393695622682571,-0.35803601145744324,-0.2182438224554062,0.09741377830505371,-0.03660278767347336,0.2434166669845581,0.558037519454956,-0.4105186462402344,-0.2299303263425827,-0.4317035675048828,-0.1891508847475052,0.4595925211906433,-0.3081985116004944,0.2626400589942932,-0.08845414966344833,0.12109655886888504,-0.6894192099571228,0.17796489596366882,0.07361256331205368,0.4160850942134857,-0.10415482521057129,-0.13851498067378998,0.1718331128358841,-0.026904020458459854,-0.9745663404464722,-0.0454581081867218,-0.631288468837738,0.0309450700879097,-0.026440443471074104,0.22534726560115814,-0.1356358528137207,0.26241183280944824,-0.06009281426668167,0.0037078240420669317,-0.21938331425189972,-0.044050730764865875,0.21578702330589294,-0.21996523439884186,0.073051817715168,0.08580750226974487,0.36855366826057434,-0.2846584618091583,0.27235472202301025,-0.35731393098831177,-0.2604263722896576,-0.3990129232406616,0.32242563366889954,0.501001238822937,-0.11323421448469162,0.29041236639022827,0.11424816399812698,0.036488477140665054,-0.8531157374382019,0.39724045991897583,-0.041173938661813736,0.6176625490188599,0.24182935059070587,0.2523476183414459,0.40919584035873413,0.04921627789735794,0.35373741388320923,-0.010083094239234924,-0.3443690538406372,0.14529669284820557,-0.12383618950843811,0.04693732410669327,0.4781535267829895,-0.14284111559391022,0.6086656451225281,0.21213020384311676,0.5881044268608093,0.24192596971988678,-0.24786518514156342,0.33294957876205444,1.0085415840148926,-0.3290797472000122,0.06764481961727142,4.988925866200589e-06,0.2348886877298355,0.6157011985778809,-0.11622963100671768,0.3883429169654846,0.36395755410194397,-0.38735231757164,0.5409388542175293,-0.09518031030893326,0.09667184948921204,-0.27831846475601196,0.8066835403442383,-0.06947973370552063,0.0295680183917284,0.07081881165504456,-0.05078301578760147,0.32376593351364136,-0.2783740758895874,-0.18999294936656952,-0.24641548097133636,-0.2908739447593689,-0.1557343304157257,-0.4526107609272003,0.2920830547809601,0.46231597661972046,0.5063153505325317,-0.03731882572174072,0.29530420899391174,-0.7402951121330261,-0.35319188237190247,0.054870035499334335,-0.28003817796707153,-0.7808893322944641,-0.36070406436920166,0.5050870180130005,0.14429859817028046,0.3172402083873749,0.6817339658737183,0.39346447587013245,-0.6747939586639404,-0.04469160735607147,-0.009067357517778873,0.04200325906276703,0.4641863703727722,0.601909339427948,-0.3199819326400757,-0.3927333652973175,-0.2846480906009674,-0.6189526319503784,-0.4758297801017761,-0.14069710671901703,0.08280255645513535,0.5293594002723694,-0.5109872221946716,0.39374926686286926,-0.12589818239212036,-0.19089975953102112,-0.5249139070510864,0.20166507363319397,-0.03775739669799805,0.17069454491138458,-0.6962541341781616,0.21237723529338837,-0.20512214303016663,0.7667875289916992,-0.44222748279571533,-0.37761834263801575,-0.35766905546188354,0.008628974668681622,-0.2054523527622223,0.13920681178569794,0.40447601675987244,0.29564517736434937,-0.15536190569400787,0.29038307070732117,-0.03589041158556938,0.45262834429740906,0.01846008375287056,0.2348306030035019,-0.0034385870676487684,-0.017148524522781372,-0.19176088273525238,0.433763325214386,0.1013551726937294,-0.5077520608901978,0.45799893140792847,0.16091874241828918,0.1487533301115036,0.13945285975933075,0.09776737540960312,0.08107253909111023,0.5787586569786072,-0.41985753178596497,-0.16814148426055908,-0.3844694495201111,-0.46502378582954407,-0.11052482575178146,-0.16145654022693634,0.24126842617988586,-0.4237021207809448,0.18433302640914917,0.1695898175239563,-0.18407094478607178,0.5243939757347107,-0.06381955742835999,0.406751424074173,-0.2062937468290329,0.48684635758399963,0.08965466916561127,-0.12190720438957214,0.01766941323876381,-0.21280470490455627,-0.31271985173225403,0.048186153173446655,-0.8106366395950317,0.05781332030892372,0.5222793221473694,-1.0095336437225342,0.47419634461402893,0.06425599753856659,-0.38421210646629333,-0.275940865278244,0.090335413813591,-0.07400092482566833,-0.16310462355613708,-0.9812895655632019,-0.32522109150886536,-0.00045246121590025723,-0.2720775306224823,0.12484444677829742,-0.34190890192985535,-0.3037082552909851,-0.14227956533432007,-0.453055739402771,-0.3124297559261322,-0.4832193851470947,-0.26556596159935,-0.06284032016992569,0.46964719891548157,0.30671119689941406,-0.42516934871673584,0.20435842871665955,0.15785855054855347,-0.1607550084590912,0.219129741191864,-0.10520018637180328,0.3093380331993103,-0.2475251704454422,0.5792912244796753,-0.09429244697093964,0.29438668489456177,0.6479828357696533,-0.0570668987929821,-0.5012039542198181,-0.220853790640831,0.27943456172943115,0.3612093925476074,-0.15670879185199738,0.02408883348107338,-0.0065730563364923,0.07068565487861633,0.08628793805837631,0.29247021675109863,-0.23408862948417664,-0.18415693938732147,0.08810295909643173,-0.34272709488868713,-0.24678021669387817,-0.12901034951210022
学生,2.4274003505706787,0.6676017642021179,-0.3195067048072815,-1.5146596431732178,0.1727207750082016,1.452633261680603,-0.35073041915893555,1.008644461631775,0.4949832856655121,-0.45167276263237,-2.1444039344787598,-0.3783314526081085,-1.0853773355484009,2.07775616645813,0.0663750022649765,0.747175395488739,1.621368408203125,-2.252326488494873,-1.6297706365585327,-1.0349071025848389,-1.1834450960159302,-1.431551218032837,0.8203704953193665,-0.759503960609436,0.02453678846359253,0.3526619076728821,0.5756027698516846,0.6613054871559143,-0.07520250976085663,-0.32644376158714294,0.2907957434654236,-0.30388325452804565,0.27436545491218567,-0.359199583530426,-1.6898772716522217,0.6419627070426941,-2.4325668811798096,0.2887516915798187,2.1714417934417725,0.37906402349472046,-0.06127474829554558,0.21229419112205505,-3.430680751800537,0.33024197816848755,-0.14084962010383606,-0.8149098753929138,-0.8671942353248596,-0.8729926347732544,-0.03621916100382805,0.48681217432022095,0.09763206541538239,1.2205392122268677,-1.3339409828186035,0.7441984415054321,1.9624731540679932,-0.03607267886400223,-2.8759710788726807,1.9408135414123535,0.7206252217292786,-0.08380004018545151,0.40922555327415466,-0.15805502235889435,1.662166714668274,-0.3993189334869385,-2.2350826263427734,1.5327835083007812,-0.7549910545349121,0.9190800786018372,0.5022585391998291,-0.784062385559082,1.8431390523910522,1.435198187828064,0.9197763800621033,-0.42131611704826355,0.5060980916023254,1.5308856964111328,-0.534180760383606,-0.5038022994995117,-0.6170633435249329,0.14356011152267456,-2.041274070739746,-2.362490653991699,-1.5808595418930054,0.40731558203697205,-0.48636549711227417,-2.901843547821045,1.0781446695327759,-3.164966344833374,0.15329208970069885,-0.8078912496566772,0.38397035002708435,1.126283049583435,-0.01586245745420456,1.209523320198059,-0.37848588824272156,0.34678420424461365,1.6899408102035522,1.578308343887329,-1.876854658126831,0.055889204144477844,-0.8843470215797424,-0.668521523475647,0.7638744115829468,0.26817798614501953,-0.597614049911499,0.576040506362915,1.2288093566894531,2.9573206901550293,-0.6444916725158691,0.23549355566501617,1.538079857826233,-0.43627241253852844,0.6693174839019775,-2.284198522567749,0.13448697328567505,0.042224910110235214,1.3706817626953125,-1.169102668762207,-1.757171630859375,-0.07263399660587311,0.7780779600143433,0.5140701532363892,1.2674745321273804,0.4085436463356018,0.6037304997444153,-0.7883595824241638,2.3954904079437256,-0.23707064986228943,1.6373783349990845,1.0001896619796753,0.562788188457489,-0.9742347002029419,-0.4481993317604065,-0.056182801723480225,-2.136502742767334,-1.689730167388916,-2.1730844974517822,1.7363947629928589,0.44511017203330994,-1.7508620023727417,-2.797074794769287,-0.41656434535980225,0.39672765135765076,-2.286910057067871,1.9879189729690552,0.7612072229385376,0.13437700271606445,0.7754893898963928,0.9057824015617371,0.15532590448856354,0.5692418217658997,-1.5033637285232544,-0.5601193904876709,1.043440818786621,-0.20962855219841003,-1.0436861515045166,0.8785082697868347,2.7797374725341797,-1.032585859298706,2.1887001991271973,0.053801167756319046,0.2131766825914383,1.0246094465255737,0.20933963358402252,1.0006133317947388,-1.6735584735870361,-0.5782981514930725,1.5535640716552734,0.4844690263271332,0.018608365207910538,-1.0935451984405518,-0.11559233069419861,0.5918384194374084,0.003208573441952467,1.8467546701431274,2.1782267093658447,1.046303629875183,-6.0106377601623535,1.7313392162322998,-1.45237398147583,1.4665285348892212,1.3203774690628052,-0.2340497523546219,-1.4136765003204346,-0.548393189907074,-0.14942961931228638,-0.1644551306962967,1.0239700078964233,-1.2754729986190796,2.4089441299438477,-0.7169970870018005,2.4723644256591797,1.0431336164474487,0.24461878836154938,0.5014877915382385,-1.0546668767929077,-0.04700472205877304,-1.1307295560836792,1.4590728282928467,-1.9943195581436157,-0.029042458161711693,0.5150038003921509,0.6397930383682251,-1.71165931224823,0.8678264617919922,1.2070603370666504,0.54615318775177,2.854515552520752,0.13450992107391357,1.2517393827438354,0.48469531536102295,-1.6997957229614258,-2.0805094242095947,2.1596953868865967,-0.7763893008232117,0.36947229504585266,-1.145639181137085,2.305556058883667,-0.8955638408660889,1.0909830331802368,-1.2235560417175293,-0.5925915837287903,2.172325611114502,-1.4448062181472778,0.09258417785167694,0.36956629157066345,2.0883936882019043,0.05072967708110809,-0.5531234741210938,1.7853845357894897,-0.6914584636688232,-0.9332666397094727,0.7428682446479797,-0.1969345510005951,-0.19437727332115173,-0.978522539138794,1.9119282960891724,0.1945313662290573,1.8002924919128418,0.5811038017272949,-0.24054478108882904,1.4589593410491943,1.428706169128418,1.3905218839645386,-0.6275588274002075,-3.0655319690704346,-1.1372313499450684,0.22898542881011963,-0.9583989977836609,-0.08162616193294525,-1.8892325162887573,-0.5206745266914368,0.7584895491600037,2.5110411643981934,-1.2498198747634888,0.3903631865978241,-0.8482473492622375,1.1543269157409668,2.2539784908294678,-0.36745941638946533,0.8714079260826111,-0.3045040965080261,0.47036129236221313,-1.4577643871307373,-1.7240896224975586,0.10622632503509521,-0.9472326636314392,-1.2032448053359985,-0.026650166139006615,0.7330891489982605,0.48073920607566833,-1.0590051412582397,0.15348748862743378,2.988537311553955,0.7248193025588989,-0.26987937092781067,1.5153173208236694,0.04614045470952988,-0.08234784752130508,0.4004153609275818,0.453748494386673,0.05732385069131851,-0.44591447710990906,0.9957892298698425,0.22552943229675293,0.6784207820892334,1.3375217914581299,0.3143123686313629,-0.250425785779953,-0.6646475195884705,-1.6895644664764404,0.5086709260940552,-0.5711305141448975,-1.5816891193389893,2.4419519901275635,-1.3175716400146484,1.0456279516220093,-0.2966093122959137,0.38108667731285095,-0.7530199289321899
极易,0.626547634601593,-0.61902916431427,-0.031029127538204193,-0.9130138754844666,0.15683551132678986,-0.6436408758163452,0.6563228964805603,-1.056288719177246,-0.216605544090271,-0.632691502571106,-0.4129519760608673,0.1324450671672821,-0.7404802441596985,0.2667459547519684,-0.23490463197231293,-0.18659815192222595,0.6650246977806091,0.23857508599758148,0.7260444164276123,0.021742600947618484,-0.8496614098548889,0.1069006472826004,-0.3800496757030487,-0.33003371953964233,-0.7269437313079834,-0.0956820696592331,-0.31221210956573486,-0.32556432485580444,-0.59749835729599,-0.4269587993621826,0.49556177854537964,-0.775180459022522,-0.19266779720783234,-1.207543134689331,0.1708076000213623,-0.3921157717704773,-0.0028361710719764233,-0.6009489297866821,-0.42810067534446716,-0.77219557762146,-0.6389685273170471,0.06174116209149361,-0.061131738126277924,0.010179861448705196,0.4638199806213379,0.9845240116119385,0.04854464530944824,0.06046487018465996,-0.8090351223945618,0.9767950177192688,0.22533556818962097,0.7887706160545349,0.555111825466156,-0.7421113848686218,-0.7587445974349976,0.9348901510238647,0.18101854622364044,1.1041486263275146,0.7309881448745728,-0.5433064103126526,-0.3840886354446411,0.8526320457458496,-0.17581669986248016,0.3814801871776581,-0.6550883054733276,0.4942380487918854,0.33048346638679504,0.2983260154724121,0.5308842658996582,0.24663224816322327,-0.686044454574585,-0.32986846566200256,0.4646661877632141,-0.6280695796012878,0.8181092143058777,0.2755281627178192,0.7614278197288513,0.24842309951782227,-0.06548816710710526,0.016789063811302185,1.1802037954330444,-0.427270770072937,-0.06385529041290283,-0.17473331093788147,-0.47805508971214294,-0.3549168109893799,0.24363358318805695,0.32277676463127136,-0.5966931581497192,-0.3971215784549713,-0.10602428019046783,-0.3158916234970093,-0.015594856813549995,0.16755665838718414,-0.19675494730472565,0.11676085740327835,0.45360031723976135,0.03042864426970482,-0.05624701455235481,0.6505136489868164,0.9689055681228638,0.23235906660556793,0.08426286280155182,-0.800888180732727,-0.07285753637552261,0.23643092811107635,0.3312539756298065,-0.28461331129074097,0.5903151035308838,-0.4407512843608856,-0.5263497233390808,0.07563728094100952,-0.46133965253829956,-0.538779616355896,0.6914874315261841,-0.4148501455783844,0.09846089780330658,-0.09506251662969589,-0.5669837594032288,0.5695104002952576,-0.5374641418457031,-0.14375203847885132,-1.1952483654022217,0.5986883640289307,-0.8928459882736206,-0.0011473309714347124,-0.13176356256008148,-0.19725768268108368,-0.17781007289886475,0.9629103541374207,0.08197600394487381,0.8175007104873657,0.36988404393196106,-1.1732430458068848,0.7996760010719299,-0.5533090233802795,0.006325321272015572,0.12502740323543549,-0.40839555859565735,0.10133760422468185,-0.6342498660087585,0.5810169577598572,-1.6338382959365845,0.7967020273208618,0.46403542160987854,1.0541224479675293,-0.6777925491333008,-0.5716569423675537,-0.5646575093269348,0.8703922033309937,-0.3605695962905884,-0.03661990165710449,-0.26902833580970764,1.1273791790008545,0.2236766517162323,-0.25139474868774414,-0.27100053429603577,0.581630527973175,-0.7789638042449951,0.517158031463623,0.34312936663627625,-0.06398101896047592,-0.5123196244239807,0.12021858245134354,1.1103614568710327,-0.020543256774544716,-0.41328898072242737,0.6294323205947876,0.3066810369491577,0.07710308581590652,-0.5165742039680481,0.3403511643409729,0.5868733525276184,0.6951459050178528,0.08576234430074692,0.2270171195268631,0.661099374294281,0.5422156453132629,0.5364291667938232,0.8707374334335327,-0.22595134377479553,-0.7244216203689575,-0.472567081451416,0.48687562346458435,0.28450173139572144,0.24098189175128937,-0.15185363590717316,0.3337250053882599,0.26268470287323,-0.10271770507097244,0.3137829601764679,-0.29536426067352295,0.12143104523420334,-0.26692530512809753,0.3555636703968048,1.2975469827651978,-0.49237149953842163,-0.042044129222631454,-0.8324719071388245,0.7858894467353821,-0.6006813645362854,-0.598320722579956,-1.0171867609024048,0.10432356595993042,0.14668011665344238,0.30750587582588196,-0.22702528536319733,-0.7623050212860107,-0.5087174773216248,-0.8393484950065613,-0.3083381950855255,0.351314902305603,-0.3690391778945923,0.4435060918331146,-0.5431816577911377,-0.394822359085083,0.8063292503356934,0.6904556751251221,-0.021429765969514847,0.19926758110523224,-0.004016181919723749,0.04661191999912262,-0.3732964098453522,-0.4584444761276245,-0.1254115104675293,-0.37051504850387573,-0.5568367838859558,1.0779930353164673,-0.7946842908859253,0.9085069298744202,0.7591021656990051,-0.5505460500717163,0.3550201952457428,-0.1714320033788681,0.17736239731311798,-0.6009075045585632,0.7836952805519104,0.1668814867734909,-0.3310648500919342,-0.39859724044799805,0.7053537368774414,0.14983052015304565,-0.13910318911075592,0.23095588386058807,-0.5249946117401123,0.9626765251159668,-0.5984578728675842,-0.35190072655677795,-0.1752697080373764,-0.26805439591407776,-0.8856856822967529,0.5144786834716797,0.06955143064260483,-0.034581709653139114,0.44591572880744934,-0.011583305895328522,-0.7463955283164978,-1.0430550575256348,0.2751392722129822,0.28879278898239136,-0.12356434762477875,0.18941321969032288,0.19339418411254883,0.6095740795135498,0.30289000272750854,0.21819955110549927,-0.8961540460586548,0.3743881285190582,-0.8213455677032471,0.2701919376850128,0.8261128067970276,-0.019120993092656136,-0.6978391408920288,0.5613101720809937,-0.6456425189971924,0.5036277770996094,0.16044507920742035,0.2715896666049957,0.1526946872472763,0.027940522879362106,0.7071295976638794,-0.2282932847738266,-0.585124671459198,0.40007448196411133,-0.3365762531757355,0.43322908878326416,0.4537354111671448,-0.5293844938278198,0.3163502812385559,-0.05814702808856964,0.24724973738193512,0.22969989478588104,0.24255292117595673,-0.4429135024547577,-0.2555641829967499,0.6443989872932434,0.32066747546195984,-0.11782575398683548,-0.4643683135509491,0.42397069931030273
开发,0.6749052405357361,2.180025815963745,-2.151245355606079,-0.8760192394256592,-0.5973656177520752,0.7122692465782166,-0.9528591632843018,0.5694971084594727,-0.7719945311546326,0.7348897457122803,-0.9450111389160156,2.3473424911499023,-1.335746169090271,1.307254672050476,-0.05373461917042732,-1.7729452848434448,-0.045949049293994904,1.8136602640151978,-2.3455374240875244,-1.3726117610931396,-0.8232635855674744,0.319269061088562,-0.41451236605644226,0.6690699458122253,0.7719516158103943,0.5255773663520813,1.079055666923523,-1.8383126258850098,-0.11460815370082855,0.6291815042495728,-0.6926039457321167,0.48819252848625183,0.9515928030014038,-0.6063538193702698,0.5973924398422241,0.7512856125831604,1.9351109266281128,-1.1092318296432495,-1.0566697120666504,-0.10554758459329605,-1.279143214225769,0.7736703157424927,-1.0431430339813232,-0.6690912246704102,-0.8772997260093689,0.9603480100631714,2.171279191970825,1.834791898727417,-3.186671018600464,-0.28988882899284363,-1.4774125814437866,-2.6957666873931885,-0.2778595983982086,-0.7240177392959595,-1.4616737365722656,-0.3559529781341553,1.3377190828323364,0.19820669293403625,2.394763231277466,0.2972045838832855,1.5402464866638184,0.9832468628883362,0.1817447692155838,-0.9996396899223328,1.4443025588989258,-1.4553245306015015,-0.8147632479667664,0.6055346131324768,1.463893175125122,-0.46876275539398193,-2.2708005905151367,1.3168177604675293,0.29292747378349304,0.12550108134746552,-0.5189748406410217,-1.3309170007705688,1.6841795444488525,1.4047223329544067,1.8353278636932373,-0.5824992656707764,0.15727946162223816,-0.13136820495128632,0.6388527750968933,-0.6157706379890442,-0.7742735147476196,1.3641924858093262,1.6070210933685303,-0.3689021170139313,1.092641830444336,-0.9346584677696228,-0.8866440653800964,-0.14103935658931732,2.6042940616607666,0.04628177732229233,0.47975173592567444,-0.2784222364425659,-0.36396926641464233,-0.21776340901851654,-1.657500147819519,-2.1879162788391113,1.4428067207336426,-1.0577548742294312,1.2963684797286987,1.0891839265823364,1.0107808113098145,1.7292512655258179,-0.6809443235397339,-0.4998617470264435,0.2912929058074951,-1.8874199390411377,-1.0020029544830322,-1.472062587738037,-0.6155592203140259,-0.5261195302009583,-0.3721311092376709,0.03975280746817589,0.45950740575790405,-0.2742196321487427,0.08842289447784424,-0.10798317939043045,1.4766076803207397,-1.7193818092346191,-0.4703349173069,2.7712409496307373,-1.6169154644012451,-1.4810988903045654,-2.929760456085205,0.012084193527698517,-0.20987913012504578,0.40475913882255554,0.22670778632164001,-0.3223257064819336,-0.553932785987854,1.56434166431427,-2.7174010276794434,-1.5468617677688599,0.024267926812171936,1.986767292022705,-0.07321023941040039,-1.0930343866348267,-0.3957812190055847,1.1338906288146973,0.04537782073020935,-0.08037380874156952,0.6674280166625977,-1.0909494161605835,-1.0209892988204956,0.11328358948230743,-1.4055659770965576,0.19185397028923035,-1.2107354402542114,2.5822837352752686,-0.41189271211624146,0.010640716180205345,-0.3475742042064667,-1.6038752794265747,0.38018327951431274,0.2813449501991272,-0.7128767371177673,-0.5318681597709656,0.08806607872247696,-0.7365627884864807,1.258242130279541,-1.451296091079712,-0.7086290717124939,-1.1199136972427368,0.18523451685905457,-1.7263126373291016,1.2812309265136719,0.5952320098876953,0.42238858342170715,0.11327873170375824,-0.2665087878704071,0.5985729694366455,-0.452280193567276,0.671692430973053,1.6687657833099365,-0.7261487245559692,-0.30799028277397156,-0.9873589277267456,-2.873075008392334,-2.70915150642395,-1.4659219980239868,-0.550930917263031,-3.5282304286956787,1.753343939781189,-1.3391578197479248,-0.9783345460891724,1.1170762777328491,-1.348694920539856,-1.6683082580566406,-1.7372972965240479,0.1186731606721878,-0.05640144646167755,-0.7391547560691833,-3.734391212463379,1.1184839010238647,-1.0528099536895752,-2.7644705772399902,-2.4741592407226562,0.8755455017089844,-1.1608843803405762,-2.878643274307251,0.6740484833717346,-1.279090404510498,-0.6822343468666077,-0.48957017064094543,1.3195775747299194,-0.44907358288764954,-2.2692599296569824,1.1827603578567505,0.34032756090164185,-0.4930937588214874,-2.805142641067505,0.6927069425582886,1.2806246280670166,0.9282330274581909,1.074846625328064,-0.022411026060581207,-2.1352434158325195,1.2786129713058472,0.41826969385147095,0.22146791219711304,1.3100258111953735,-1.2338842153549194,1.3940554857254028,-0.0384540930390358,-1.2234764099121094,0.540553629398346,-0.5732550024986267,1.6035784482955933,0.030449163168668747,1.3612940311431885,0.31149062514305115,0.4305477440357208,1.0116788148880005,0.049738023430109024,-2.1709797382354736,-0.9824451804161072,1.725803256034851,1.596449375152588,0.6020315289497375,0.01715858466923237,-1.102460503578186,-2.0805506706237793,-1.1936694383621216,1.0353658199310303,1.9751756191253662,-0.4632650911808014,-1.660962462425232,-1.8360930681228638,0.48361292481422424,0.11790275573730469,-4.4808030128479,-1.529247522354126,-1.6246588230133057,-0.3232877850532532,0.9604390859603882,1.2675285339355469,0.6603509187698364,-2.1084721088409424,-0.35549646615982056,1.1110734939575195,0.8843948841094971,0.6638795733451843,1.5330449342727661,-0.10053480416536331,-2.1288533210754395,-1.0141240358352661,1.4315146207809448,-0.9298461675643921,-0.5704537630081177,0.9925743341445923,0.8966275453567505,-2.170039653778076,-1.1896116733551025,1.453836441040039,2.3247251510620117,0.4970991611480713,-1.1621109247207642,0.4319934546947479,-0.08613216876983643,-2.0195207595825195,2.936763286590576,0.12331461161375046,1.0853430032730103,-1.0742158889770508,-1.974969744682312,-1.4371836185455322,-2.7257003784179688,-2.4303274154663086,-1.4254776239395142,-0.05039898678660393,-0.2296028584241867,1.6601486206054688,1.2213650941848755,0.7787994146347046,2.2819087505340576,-1.1878591775894165,0.12387118488550186
内容,-0.5491161942481995,-0.09919115900993347,2.630500555038452,1.0744850635528564,1.0158010721206665,0.6901936531066895,-2.4442453384399414,1.9817782640457153,-1.784225344657898,-1.0284068584442139,-0.3865547776222229,-0.7640345096588135,0.838716447353363,0.0950421392917633,-1.676837682723999,0.4797780513763428,2.768672227859497,0.08846026659011841,-0.9311440587043762,-0.9433454871177673,-0.7426550388336182,-1.505221962928772,-2.1243410110473633,-0.04898590222001076,0.9802189469337463,-1.5254555940628052,-0.027448240667581558,-2.200005054473877,-2.4732065200805664,1.6382484436035156,0.1687079817056656,1.0375462770462036,-0.660111129283905,-0.8538318276405334,0.7343457341194153,-1.5533623695373535,-1.6533204317092896,-0.9918529391288757,0.6313572525978088,1.0407212972640991,-1.4691898822784424,0.6704586148262024,-1.9944055080413818,-0.05184246599674225,0.8789350986480713,-0.5806528329849243,1.6749151945114136,-0.42620849609375,0.13483157753944397,0.004229738377034664,0.056882768869400024,0.6876601576805115,0.3202289044857025,-0.39540642499923706,0.7348541617393494,2.586522340774536,0.9293219447135925,-1.6432065963745117,1.1628929376602173,-0.547201931476593,-0.13564111292362213,1.5849072933197021,-0.325617253780365,0.3571128845214844,-0.10627304762601852,1.4676603078842163,1.2059980630874634,1.2793776988983154,-1.2937343120574951,-0.8177646398544312,-0.8021507263183594,-0.15972699224948883,-0.4608108401298523,-0.645581066608429,-0.31264162063598633,1.384761095046997,-0.11763738095760345,-0.0021496866829693317,-0.060204751789569855,-0.1699041724205017,0.20837882161140442,-0.16486267745494843,-1.2801015377044678,2.251023054122925,-1.3801873922348022,0.7036154270172119,0.13421747088432312,1.0929208993911743,-0.4743833541870117,-0.393830269575119,-0.2708797752857208,1.3266983032226562,1.3293406963348389,-0.0966208279132843,-2.437657117843628,0.24336300790309906,2.3880505561828613,3.927879571914673,0.32605209946632385,-0.44496408104896545,1.3735357522964478,-2.5032927989959717,0.53872150182724,1.096129059791565,-1.7443830966949463,-1.0708177089691162,-0.08326323330402374,-0.12157592922449112,-2.4453835487365723,0.47789931297302246,2.7454206943511963,0.8049328327178955,-2.1473701000213623,0.9176700115203857,1.0838555097579956,-0.9241957664489746,0.4634229838848114,-0.05427089333534241,1.1059340238571167,0.2865445911884308,0.9232513904571533,0.1604226976633072,0.16660965979099274,1.1226119995117188,-1.4770081043243408,-2.3067586421966553,1.6195518970489502,0.6961472630500793,3.288905382156372,-0.5621375441551208,-0.6379361748695374,-1.766466736793518,1.4919334650039673,1.5880749225616455,-0.5436432361602783,0.5885288715362549,1.7126621007919312,0.95964515209198,0.5035021901130676,-2.8752291202545166,-0.1674320548772812,1.7555994987487793,-0.16780908405780792,-0.7702996730804443,0.6039929986000061,-0.31600600481033325,-0.48665961623191833,1.4488224983215332,-0.9668089151382446,-1.328701376914978,0.30892544984817505,0.14433184266090393,-2.2609314918518066,-0.6875697374343872,0.2870323061943054,-1.8456552028656006,-1.6025264263153076,0.22104504704475403,-0.33347761631011963,-0.9567473530769348,-0.9699820876121521,-0.35884028673171997,1.8616371154785156,-0.7816144227981567,0.6255933046340942,-1.7155112028121948,-0.059499289840459824,0.9140929579734802,-1.572321891784668,2.1613879203796387,-0.713537871837616,-0.36298641562461853,0.5949546098709106,1.2316974401474,0.8014684319496155,1.0199617147445679,-0.6674948930740356,2.5849952697753906,-0.93300461769104,-0.06843240559101105,-1.6723873615264893,-0.5461203455924988,-0.09895475208759308,-0.6195261478424072,-0.7076753377914429,0.6443610787391663,0.36487069725990295,-0.116104356944561,-0.4381096363067627,0.20595112442970276,-1.7526832818984985,-0.09993935376405716,0.8424708247184753,0.678912341594696,-0.43245476484298706,-1.2947388887405396,1.558733344078064,0.35772383213043213,-2.5181612968444824,-0.37679794430732727,1.9762544631958008,0.5879042148590088,0.5805193185806274,-1.0093660354614258,-0.7523341774940491,1.0679725408554077,0.4219202399253845,1.4706792831420898,0.20774586498737335,0.9272675514221191,-1.7322049140930176,-0.13965488970279694,-0.742068350315094,-1.290125846862793,-0.1490221470594406,-3.3298492431640625,-0.2015182077884674,0.06956634670495987,-1.6613476276397705,1.2827911376953125,-0.3056124150753021,-1.9179664850234985,-1.6033445596694946,0.617900550365448,1.7375417947769165,-1.3666033744812012,0.7478477358818054,-1.1632943153381348,-0.6254417896270752,1.3948450088500977,-1.1986653804779053,-0.17369702458381653,2.2274765968322754,0.03482948988676071,-0.5913059115409851,-0.05792338773608208,0.8102045059204102,0.13052934408187866,1.480185627937317,-0.3334473669528961,1.6316988468170166,1.3478739261627197,0.8779373168945312,1.7878791093826294,-1.2564468383789062,-0.5390886664390564,-0.13446268439292908,0.20289911329746246,-0.026721179485321045,-0.13548414409160614,-0.896896243095398,-1.6534775495529175,0.5063432455062866,0.6751080751419067,-0.1837044656276703,-2.320070743560791,-2.750744104385376,0.7793132662773132,2.271862506866455,-0.5520874857902527,-0.7674265503883362,-0.8306812644004822,-0.797161877155304,1.153506875038147,0.2751682996749878,0.49916329979896545,-0.4302199184894562,-1.2109085321426392,0.24446582794189453,0.06240340694785118,0.4577975869178772,-0.48380908370018005,-0.22531239688396454,1.3349167108535767,0.15575431287288666,-0.13146968185901642,-0.11127139627933502,-1.2378153800964355,-0.2744032144546509,-0.3691290318965912,0.6635055541992188,-1.325028419494629,-2.093871831893921,0.989725649356842,2.4315505027770996,-0.24879473447799683,1.7568378448486328,0.17260277271270752,0.5882506370544434,-1.7684434652328491,0.5397059321403503,-1.032293677330017,0.3004331886768341,-1.8880300521850586,-0.4827299118041992,-0.4573593735694885,-0.8171741366386414,-1.7306153774261475,-1.2625759840011597,-1.547824740409851
兴趣,-0.9993754625320435,1.4681143760681152,1.232184886932373,-0.31276193261146545,0.30607545375823975,2.280142307281494,-0.39970704913139343,1.726763129234314,1.3938343524932861,-1.8632079362869263,-1.9937368631362915,-0.2829999327659607,-1.6398125886917114,-1.6960506439208984,-2.3067002296447754,1.4417418241500854,1.7701685428619385,0.10969620198011398,2.2608933448791504,0.5789960622787476,0.9592654705047607,-3.338555097579956,-0.0838015154004097,0.7102439999580383,-1.3496356010437012,-0.1586344689130783,1.3853020668029785,-0.3436095714569092,-0.07860518991947174,-0.04728810861706734,0.5914096236228943,2.788137912750244,-2.7248873710632324,-1.1283169984817505,-0.590970516204834,-0.07205376774072647,0.056931231170892715,-1.5347981452941895,-0.9830317497253418,-1.213633418083191,0.46872082352638245,-0.15463460981845856,0.693351149559021,-0.05338774994015694,0.9789739847183228,1.5621349811553955,5.043284893035889,-1.080735683441162,0.6606212854385376,2.0426321029663086,1.9925206899642944,-0.8395993709564209,-2.168318510055542,-1.2917437553405762,1.35493803024292,-0.2390158474445343,-2.9528632164001465,-1.392333984375,-1.1120226383209229,-0.865325927734375,1.041516900062561,0.8494320511817932,-2.1501879692077637,0.2149961143732071,-0.98079913854599,3.416807174682617,-2.1822283267974854,2.12727427482605,-0.38916730880737305,-2.2172322273254395,0.8140746355056763,-0.44418057799339294,-0.08381987363100052,1.2918540239334106,1.647100567817688,1.7466633319854736,-0.3849633038043976,-0.31609272956848145,-0.4273240268230438,-2.385850429534912,-0.9883226156234741,-1.531516432762146,-3.694797992706299,0.6843990683555603,0.0210359338670969,0.06482698023319244,2.7207136154174805,-0.27523064613342285,-2.480909585952759,1.7503246068954468,1.373594880104065,-0.3542364537715912,1.899054765701294,-1.4879634380340576,-0.6312584280967712,0.10942738503217697,1.5328693389892578,-1.1275832653045654,-0.9042688608169556,0.9928455352783203,3.1164119243621826,0.720526933670044,0.2562786042690277,-1.9169868230819702,-0.3372429609298706,-1.888511300086975,1.2803393602371216,1.3699191808700562,1.3258243799209595,-0.341785728931427,-1.6475894451141357,-2.086057424545288,0.4926674962043762,-1.4838882684707642,0.8042858839035034,0.5128613114356995,1.4923652410507202,1.184752345085144,-0.6315724849700928,4.33484411239624,3.6558804512023926,1.0607984066009521,1.512631893157959,3.991058111190796,-1.6397005319595337,-0.8128429651260376,2.3582606315612793,3.633380174636841,1.5796847343444824,-4.239910125732422,1.1348565816879272,1.8333165645599365,-0.766929030418396,-0.6176273226737976,-2.1924338340759277,-0.18911196291446686,-2.4297337532043457,1.9941741228103638,0.3023729920387268,-1.4850356578826904,0.657167375087738,0.6181830763816833,2.311223268508911,-1.6332714557647705,0.47440218925476074,-1.2447160482406616,-1.3384315967559814,-1.591685175895691,-0.3129942715167999,-0.8785041570663452,-1.030401349067688,0.13000105321407318,2.4423463344573975,1.573055386543274,2.778862476348877,-0.4465480446815491,-0.9564359188079834,2.220864772796631,-0.7467658519744873,-2.0266270637512207,0.6733044385910034,0.6480173468589783,-0.568381130695343,0.2396060824394226,0.39509275555610657,0.5177484750747681,-0.9835116267204285,-1.2288395166397095,0.722945511341095,2.990169048309326,0.3810974955558777,-1.5139119625091553,-0.21168221533298492,-0.8778984546661377,-1.2122198343276978,0.9605847001075745,0.7278687357902527,-0.18466438353061676,0.02869284525513649,-0.7882118225097656,0.11342136561870575,0.4017314910888672,0.374477744102478,-0.08056775480508804,-2.0789642333984375,0.5018870830535889,1.228755235671997,1.119612216949463,-3.831860065460205,3.109158754348755,-2.8988449573516846,0.30573320388793945,0.7681068181991577,2.430262565612793,1.3249081373214722,-1.3458805084228516,1.28001070022583,-0.10385945439338684,1.4997199773788452,-1.2529116868972778,-0.3387998938560486,-1.0902934074401855,-0.3369794487953186,-1.38752019405365,-3.1680908203125,-0.7980963587760925,0.7096832394599915,-0.44152936339378357,-0.5843772888183594,-2.36279559135437,-0.7737103700637817,-1.206670880317688,-0.5050708651542664,1.019553780555725,-0.8389230370521545,-2.5161361694335938,-1.407475233078003,1.3444077968597412,0.7979166507720947,1.488614797592163,1.2971594333648682,-0.30228134989738464,-1.511589527130127,-1.346671223640442,1.2052606344223022,-0.29776468873023987,-0.10277348756790161,1.1528347730636597,1.2503304481506348,1.0754196643829346,1.0211292505264282,0.11103488504886627,1.0739006996154785,-1.1336331367492676,0.042228054255247116,-1.0632996559143066,0.9274357557296753,0.2555866241455078,1.0007247924804688,-0.3972260653972626,1.5775686502456665,-0.9475567936897278,0.5668042302131653,3.393237829208374,-1.8845045566558838,-3.6303210258483887,1.417360782623291,0.5481263399124146,-0.3737667202949524,1.5725454092025757,-1.3439570665359497,0.8302865028381348,-0.11349733918905258,1.1182876825332642,0.8802180290222168,1.9970152378082275,-1.8614588975906372,0.7898433804512024,-0.7568109035491943,-2.198280096054077,1.651017189025879,0.09343790262937546,0.32636114954948425,0.2679738402366638,1.2857621908187866,1.0649092197418213,-1.5909572839736938,-0.8072790503501892,1.5572278499603271,0.6554510593414307,1.398819088935852,0.06761442124843597,-0.8523259162902832,0.12918458878993988,-0.608055830001831,3.327378749847412,3.8409922122955322,1.421910047531128,1.1332509517669678,-1.7107192277908325,1.6816229820251465,1.412689447402954,-1.1338988542556763,0.19036097824573517,-1.2571879625320435,1.350189447402954,-0.6471161246299744,-0.2879795730113983,-1.3741354942321777,-2.6119496822357178,-0.5455070734024048,-0.9957946538925171,0.7807259559631348,0.7338944673538208,1.3589084148406982,1.6986726522445679,-0.24619264900684357,1.2836763858795166,0.7450745701789856,0.27359867095947266
提高,0.5606556534767151,-3.8423032760620117,2.646167039871216,0.5571926236152649,-2.93207049369812,1.8675655126571655,-2.468663215637207,0.7133327126502991,-2.4225215911865234,0.17215031385421753,-2.326094150543213,-1.7603542804718018,0.13229034841060638,-1.9087367057800293,-2.8063840866088867,-2.6333160400390625,-0.493896484375,-2.0834367275238037,-3.4860610961914062,-0.3491751551628113,-1.8337202072143555,-2.000544548034668,0.658098042011261,-1.776750087738037,-0.2613579332828522,-0.7237526774406433,0.9133966565132141,-0.650476336479187,-1.6854684352874756,0.3403210937976837,1.23580002784729,-0.398922860622406,-1.489201307296753,0.9266443252563477,-3.1920528411865234,-0.6724451780319214,-1.7120482921600342,-1.806052327156067,-3.575352668762207,-1.2657564878463745,-1.550844669342041,-1.0172743797302246,-0.8865270614624023,0.05092872679233551,0.9215686917304993,0.024820687249302864,-0.6176455020904541,1.120654821395874,-0.9853105545043945,0.535047709941864,-0.1742202341556549,1.4653288125991821,1.9855891466140747,-0.8725595474243164,-0.9553295373916626,-0.8985418677330017,0.9132726192474365,3.0358102321624756,0.5134258270263672,-1.896718144416809,-0.8669496178627014,-0.6715514659881592,-1.0257108211517334,-0.2432149350643158,-1.8936275243759155,0.3569481670856476,0.43458667397499084,2.555804967880249,-0.029155632480978966,-2.4744973182678223,-0.4765731990337372,-0.665471613407135,-2.23565673828125,1.4705311059951782,0.43023914098739624,-3.0801138877868652,1.6143293380737305,1.839492917060852,0.5523695945739746,-1.607509732246399,-0.2572251558303833,2.0583395957946777,-1.167301893234253,-0.7804476022720337,-0.3263819217681885,1.613863468170166,1.3634337186813354,1.6944162845611572,0.8442609310150146,-0.47110429406166077,-1.6480830907821655,0.670939028263092,-0.34485557675361633,0.12329095602035522,0.17171725630760193,-0.5123591423034668,1.6210722923278809,3.1543452739715576,1.6620211601257324,-0.2701992988586426,2.656383991241455,-0.98921138048172,1.9436239004135132,0.3842603862285614,1.0701301097869873,2.8199799060821533,-0.3268417418003082,1.74504554271698,-2.4250035285949707,-0.7657578587532043,-1.6985708475112915,0.05871438607573509,-0.7779207229614258,-2.6447482109069824,-0.18838165700435638,-0.8674865365028381,0.6750345230102539,-0.10629133880138397,-2.2119510173797607,0.08581123501062393,-0.021234620362520218,-3.2639362812042236,-0.1821189671754837,1.7297002077102661,1.0597141981124878,0.13364112377166748,0.03411339223384857,0.9468415379524231,1.714611291885376,0.7487707734107971,1.941394567489624,1.0794942378997803,-0.4679584801197052,0.7717195153236389,0.842863142490387,-1.5323446989059448,-0.42457401752471924,2.0529580116271973,0.5887556672096252,-0.7778292298316956,-1.2793852090835571,0.1590348333120346,-1.2559146881103516,-1.2174460887908936,1.0023702383041382,-1.3335423469543457,-3.6097030639648438,0.6782743334770203,0.6995067596435547,1.4069691896438599,1.1806937456130981,0.8991587162017822,0.7133851647377014,1.8337738513946533,0.06706937402486801,-1.2391858100891113,0.07600733637809753,1.708310604095459,0.4980587661266327,-1.0014833211898804,-1.853518009185791,-0.06305715441703796,1.6974833011627197,-0.9675912261009216,2.3446457386016846,1.7485285997390747,1.385730504989624,-1.0755594968795776,0.09928259998559952,1.3423314094543457,-0.7293445467948914,-0.039705146104097366,0.6732938885688782,0.4874765872955322,1.8732781410217285,0.7169540524482727,-0.318717896938324,-0.28564751148223877,0.7084599733352661,0.5296096205711365,-0.8556824326515198,0.9803396463394165,-0.33256858587265015,-0.661716639995575,0.09558995068073273,2.0784072875976562,-2.528015375137329,0.8554151654243469,1.5266422033309937,-2.2321181297302246,-3.0321576595306396,-1.9717552661895752,-0.7141837477684021,0.26094862818717957,1.2615069150924683,-0.3671703338623047,-0.9535911679267883,0.28522735834121704,1.1283397674560547,0.3052200376987457,-0.3271511197090149,-2.132906913757324,2.650571346282959,0.12671568989753723,1.2683464288711548,-0.17856474220752716,0.2107793241739273,0.18800503015518188,0.6099237203598022,-1.5259029865264893,-0.7864339351654053,-0.6386075019836426,-2.439749240875244,-0.6619229316711426,-0.600509524345398,0.9822744727134705,0.2565871775150299,2.150404214859009,-1.1477800607681274,0.25080475211143494,-0.4307665526866913,0.36036691069602966,2.6147348880767822,1.6892811059951782,-1.3457205295562744,-2.3895275592803955,3.2035040855407715,-1.1382988691329956,-2.2017760276794434,-0.012637513689696789,2.218618631362915,0.13037090003490448,1.645514726638794,0.11511816084384918,-1.7224876880645752,-0.19215236604213715,0.11089018732309341,0.14611203968524933,0.34519514441490173,-0.18738193809986115,-0.8783003091812134,-0.4734368920326233,-1.7257139682769775,-1.4360071420669556,-2.214264154434204,-2.122243642807007,-0.5300177335739136,-0.818202018737793,-0.20248255133628845,-1.5253331661224365,-4.377539157867432,-0.5168567895889282,1.3652607202529907,-0.4543938636779785,-0.007869256660342216,1.141274333000183,-1.5297139883041382,-0.8435379266738892,-0.8788678050041199,-1.0518643856048584,0.6097812056541443,-2.6963388919830322,-0.5682778358459473,-0.17113156616687775,1.0258153676986694,2.917158603668213,-1.9312864542007446,-1.004889965057373,-1.607143759727478,0.15141595900058746,-0.12288995087146759,-1.5432008504867554,-1.7074025869369507,0.9425843954086304,-0.7953763604164124,0.6108826398849487,-0.5572659373283386,2.0888586044311523,1.6839882135391235,1.2109514474868774,-0.3794712424278259,1.841335654258728,-0.3871568441390991,1.302799105644226,-0.546737790107727,0.38661670684814453,-2.0502986907958984,0.469356894493103,-1.5958398580551147,-1.1266672611236572,-0.5992687344551086,-1.8618872165679932,0.07868561893701553,2.205375909805298,-1.1818008422851562,-0.537799596786499,0.002890166360884905,0.12279266119003296,-0.20967048406600952,-2.1227869987487793
化学,1.5274834632873535,0.894515335559845,0.4467897117137909,0.05876239016652107,0.9091575741767883,-2.3523776531219482,-1.1692458391189575,1.7924792766571045,-0.27081650495529175,1.031227469444275,-1.513386607170105,1.807594656944275,-0.510200023651123,-0.008890056051313877,-2.694336175918579,0.3740555942058563,1.6281065940856934,-0.7222245931625366,0.32083651423454285,-1.1873233318328857,-1.1291979551315308,-0.34468361735343933,-1.5825326442718506,0.0770311951637268,-1.328097939491272,-0.5776235461235046,1.110070824623108,-0.8406417965888977,0.8353860378265381,0.8003014326095581,-2.4279613494873047,1.3071287870407104,0.17478486895561218,-1.6795246601104736,-0.9018397927284241,-0.1818155199289322,-0.26692068576812744,0.18669220805168152,-0.35332629084587097,0.46696704626083374,-0.1782161146402359,-0.415950208902359,-1.074434757232666,1.392188549041748,0.5827601552009583,-0.3168043792247772,-0.10601122677326202,-1.5602846145629883,-1.150913119316101,0.8071542382240295,-0.4140003025531769,2.5654003620147705,0.17930534482002258,-0.2340496927499771,0.14502674341201782,-0.7373754978179932,-0.5774093866348267,1.4772580862045288,1.5021724700927734,0.9414687752723694,-0.6355563998222351,0.5011870265007019,0.7331669926643372,-0.9003376364707947,-0.8531923294067383,3.697571039199829,1.9499945640563965,2.3627541065216064,0.045609939843416214,-0.8339405059814453,-1.3475432395935059,0.8332701921463013,-0.571923553943634,2.7718093395233154,0.13099190592765808,-0.7775816321372986,0.42342013120651245,1.3722875118255615,1.7979652881622314,-0.862182080745697,-1.2330236434936523,0.41488558053970337,2.398458480834961,-0.7825380563735962,0.28538718819618225,0.660161018371582,0.4449921250343323,-1.5281212329864502,-1.1859573125839233,-0.12887397408485413,0.5819554328918457,0.31673598289489746,0.7368378639221191,0.10179544985294342,2.1688878536224365,0.38305890560150146,-0.2893969714641571,1.2843575477600098,-0.4938361346721649,0.18019220232963562,1.3695857524871826,0.6340011954307556,-0.3018720746040344,1.3201982975006104,0.8201338052749634,-0.014365475624799728,0.2513201832771301,0.9144183993339539,0.43061327934265137,-0.5438145399093628,1.8183510303497314,-0.864398717880249,0.9461425542831421,1.0446221828460693,-0.5940030813217163,0.6175391674041748,-1.1701911687850952,0.28628748655319214,0.4408646523952484,0.7232844829559326,2.567089557647705,1.0095274448394775,-0.5812827944755554,-0.10956155508756638,1.7965766191482544,2.238640308380127,-0.048700831830501556,0.3608831465244293,-0.6357308030128479,-0.465798020362854,0.24500246345996857,0.7504957914352417,1.2264353036880493,-1.6831302642822266,-1.0043646097183228,-1.3977001905441284,0.4819318652153015,-0.4981124997138977,2.694528341293335,-1.7268480062484741,-3.129714012145996,1.2201242446899414,1.1771836280822754,0.22391831874847412,-0.682407796382904,-0.12568697333335876,-0.1500759720802307,0.9403541684150696,1.389416217803955,2.1058506965637207,-1.7820305824279785,0.09539304673671722,-0.4049200117588043,-0.05091170221567154,-0.035783011466264725,-2.726465940475464,0.326165109872818,1.5065380334854126,-1.9874944686889648,2.0100340843200684,-0.3410342037677765,-0.33199575543403625,-0.7016719579696655,0.4159724712371826,-1.196433424949646,-1.203518033027649,0.5456331372261047,0.2904900312423706,1.3607949018478394,1.8866158723831177,-0.7514957189559937,1.345341682434082,0.3030881881713867,0.6619341969490051,-0.4146670699119568,0.7094348669052124,-1.3893485069274902,0.8554793000221252,-0.7317887544631958,-0.15573254227638245,0.07531968504190445,-0.16433757543563843,1.0497379302978516,0.1736103892326355,-0.34616798162460327,0.8938763737678528,-1.519791603088379,-0.25083795189857483,0.6594980955123901,-0.2104947865009308,-0.3183757960796356,1.1927807331085205,-2.0873301029205322,-0.13436824083328247,0.6896671056747437,-1.537706971168518,0.5822409391403198,0.5983405709266663,-0.03787864372134209,0.6505749225616455,-2.385040521621704,-0.37479448318481445,-2.09084415435791,1.094636082649231,-0.9935172200202942,0.15262217819690704,0.591002881526947,1.0925999879837036,-0.9467642903327942,-0.21841110289096832,-0.40481701493263245,-0.19208304584026337,-1.3686312437057495,-0.719887912273407,-0.025986412540078163,-0.9141028523445129,1.367348313331604,0.14929130673408508,1.1320703029632568,1.5418920516967773,1.1716176271438599,0.5764977931976318,-0.21082764863967896,-1.303632378578186,-0.750751793384552,-0.6071106791496277,-0.3366427421569824,0.6339325308799744,1.1881117820739746,0.882868766784668,-0.04814865440130234,-0.5923416614532471,1.857797384262085,0.6635289788246155,0.7405321598052979,-2.575413465499878,0.8040541410446167,-1.9247572422027588,0.42692339420318604,-1.4743919372558594,0.7542088627815247,1.3729912042617798,-0.41327157616615295,-0.029810909181833267,-1.3176945447921753,-0.6714465618133545,-0.1414467841386795,-0.7170953154563904,-0.13851438462734222,1.6642931699752808,-1.1893105506896973,3.458491325378418,-0.5198328495025635,1.3232510089874268,0.31083595752716064,1.6627968549728394,-2.5005526542663574,1.376720666885376,0.02612370066344738,-0.32708218693733215,0.027062933892011642,0.1835957169532776,-0.09701425582170486,1.0555156469345093,-0.20846660435199738,2.129404306411743,1.048107624053955,-0.42031222581863403,-0.6754405498504639,0.0044379509054124355,-0.35148218274116516,-1.349552035331726,0.5284615159034729,-1.6148537397384644,-1.34017813205719,-0.6831240057945251,2.0912766456604004,0.7381905317306519,-1.0875204801559448,0.4452389180660248,-0.26019367575645447,0.9141278266906738,-0.9659090638160706,0.2669008672237396,-0.8856269717216492,-0.8495503664016724,1.342558741569519,-0.0494719035923481,1.4718509912490845,0.49815696477890015,-1.5312124490737915,-1.1042921543121338,0.8590111136436462,-2.3152430057525635,0.00815957598388195,-0.5638062953948975,0.8269585967063904,-1.3534151315689087,-0.9331765174865723,0.1230553388595581
使,-1.018930196762085,-2.9545342922210693,2.067601442337036,0.8145624399185181,-0.6904426217079163,-0.8909497857093811,0.5147008299827576,-0.43954843282699585,0.5772721767425537,1.4967758655548096,0.1627371609210968,0.762126624584198,-0.2444734275341034,-1.257914662361145,-1.1337122917175293,0.8220164775848389,0.009188498370349407,-1.9262244701385498,-0.8722594976425171,-0.002044504741206765,-0.7297656536102295,-0.9370843768119812,0.9547975659370422,-1.023080825805664,-0.02565823495388031,-0.8845227956771851,0.7366213202476501,-1.4365246295928955,-2.0618255138397217,1.3402440547943115,1.1168686151504517,-0.46675077080726624,0.5790268182754517,1.0486862659454346,-2.409292459487915,-0.7311848402023315,-0.047669414430856705,-2.7168309688568115,-0.647113561630249,0.08561843633651733,0.036863844841718674,-0.662147581577301,-1.780806303024292,-0.6850852966308594,-0.25831276178359985,2.9094462394714355,1.2068734169006348,1.2768410444259644,-2.4832711219787598,0.6233574151992798,2.200190305709839,0.793213963508606,0.44139236211776733,-2.2501683235168457,0.11269532889127731,0.04353506863117218,2.077308416366577,3.066211462020874,-0.5457471609115601,-1.9703587293624878,1.2744331359863281,1.7909574508666992,-0.315721720457077,-0.46141958236694336,-0.7696300148963928,1.097087025642395,1.551050066947937,-0.3654029965400696,-1.7202956676483154,-0.14158675074577332,-0.188796266913414,-0.21441435813903809,-0.5341786742210388,-1.6439629793167114,1.8688368797302246,0.6392827033996582,0.3212844133377075,-0.9170429706573486,0.38018909096717834,-0.395858496427536,4.942596435546875,-0.7731435298919678,0.13764749467372894,-0.11970382928848267,1.6159229278564453,-1.292181372642517,0.9630247354507446,-0.512407660484314,-1.1651172637939453,-2.5008087158203125,-2.0415449142456055,-1.9155213832855225,-0.26743608713150024,-1.2536213397979736,-0.9590266346931458,-0.847594678401947,1.3321318626403809,0.4735282063484192,0.6320549845695496,-0.219689279794693,1.4785667657852173,0.034496113657951355,2.2516281604766846,0.26206380128860474,0.6102320551872253,0.6114537119865417,0.6756999492645264,0.07049551606178284,-0.027567481622099876,-0.6535681486129761,0.11361074447631836,-0.19612586498260498,-1.0039910078048706,-0.9496905207633972,0.4057060182094574,-2.208972215652466,-0.618412971496582,-0.017331309616565704,1.1231902837753296,-0.892053484916687,-1.0147305727005005,0.2518884539604187,-1.941286325454712,-0.025842389091849327,0.2680133879184723,0.03834649175405502,2.361466407775879,2.2301294803619385,-0.27845025062561035,-1.460348129272461,-0.23770292103290558,-0.45969823002815247,-1.8670260906219482,-0.10754883289337158,0.2630057632923126,-0.5037360787391663,0.8487809300422668,-1.911427617073059,-0.11650018393993378,-1.061193823814392,0.46758562326431274,0.7721605896949768,-1.3360590934753418,-0.09974761307239532,-0.41329118609428406,2.326014995574951,-1.4108030796051025,-0.027028163895010948,0.7978555560112,1.6641013622283936,0.7815085649490356,0.18960227072238922,1.3306435346603394,1.4726759195327759,1.0719711780548096,-0.7207963466644287,-0.021651670336723328,2.319225788116455,-0.006227499805390835,-0.8304053544998169,0.2639862596988678,-1.7834141254425049,0.9118124842643738,-0.48021599650382996,1.2913793325424194,-0.7744659781455994,1.5280123949050903,0.2571864128112793,-0.2674046456813812,0.5727026462554932,-1.8173627853393555,-2.4916129112243652,-0.6517059206962585,-0.43915992975234985,1.4670114517211914,0.6249868273735046,0.27522730827331543,-1.0826224088668823,0.7760260701179504,0.8421141505241394,0.1984713226556778,0.45851999521255493,-0.6016840934753418,0.3568049669265747,0.09919857978820801,3.273501396179199,-1.1764180660247803,0.7341126203536987,-0.18170803785324097,-0.6677888631820679,-0.59247225522995,0.09786011278629303,1.5181241035461426,3.0639877319335938,-0.15686598420143127,-0.10779225081205368,0.4620401859283447,0.7377160787582397,0.7227031588554382,0.8717244863510132,-1.1077932119369507,-0.24023401737213135,0.47679033875465393,2.2829084396362305,2.202516794204712,0.9387180805206299,0.9332876205444336,-1.0290650129318237,0.9597562551498413,-1.2118566036224365,-0.5363095998764038,0.20317284762859344,-3.1629366874694824,0.9154525995254517,-1.6363890171051025,-0.21580290794372559,2.5144755840301514,0.7352542877197266,0.41433456540107727,0.9366143941879272,-0.039829790592193604,0.5082207918167114,-0.47641775012016296,0.1800004094839096,-0.4579372704029083,-0.21023453772068024,-0.7681614756584167,2.322964668273926,-2.1996896266937256,0.07104469835758209,1.0978697538375854,1.3689637184143066,-1.0025476217269897,2.5714340209960938,-1.284184455871582,-0.3546229600906372,1.1437406539916992,0.5740019679069519,1.0471795797348022,0.4640825390815735,0.9543300271034241,1.4970934391021729,0.6415004134178162,-1.4506312608718872,-1.5896135568618774,-0.017068341374397278,-1.3481355905532837,0.052494361996650696,0.6932199001312256,-1.0959362983703613,-3.2795960903167725,1.503525733947754,1.4118471145629883,1.2959414720535278,-0.12403856962919235,-2.1270694732666016,-3.9661123752593994,-2.148530960083008,2.4386560916900635,-1.8501031398773193,-0.492843359708786,-2.2131848335266113,0.8403727412223816,-1.0001099109649658,0.6556398272514343,-0.9949952363967896,-0.7003771662712097,-0.4162362515926361,-4.464846134185791,0.5549412369728088,0.5570967197418213,-0.3512914180755615,1.0474916696548462,1.4664403200149536,-0.5934635996818542,-1.0458862781524658,-0.7756272554397583,0.8897907137870789,2.533432722091675,-0.16266293823719025,1.9999158382415771,2.007349967956543,-0.07496639341115952,0.18052345514297485,0.17962199449539185,1.5586042404174805,2.5565967559814453,-0.20377881824970245,0.40136104822158813,-1.0884350538253784,-0.6095623970031738,-1.4784867763519287,-0.18398532271385193,-0.20769384503364563,0.2786840498447418,-1.6875211000442505,0.4382588565349579,0.44624045491218567,-1.7393611669540405,-2.1344707012176514
