word,0,1,2,3,4,5,6,7,8,9,10,11,12,13,14,15,16,17,18,19,20,21,22,23,24,25,26,27,28,29,30,31,32,33,34,35,36,37,38,39,40,41,42,43,44,45,46,47,48,49,50,51,52,53,54,55,56,57,58,59,60,61,62,63,64,65,66,67,68,69,70,71,72,73,74,75,76,77,78,79,80,81,82,83,84,85,86,87,88,89,90,91,92,93,94,95,96,97,98,99,100,101,102,103,104,105,106,107,108,109,110,111,112,113,114,115,116,117,118,119,120,121,122,123,124,125,126,127,128,129,130,131,132,133,134,135,136,137,138,139,140,141,142,143,144,145,146,147,148,149,150,151,152,153,154,155,156,157,158,159,160,161,162,163,164,165,166,167,168,169,170,171,172,173,174,175,176,177,178,179,180,181,182,183,184,185,186,187,188,189,190,191,192,193,194,195,196,197,198,199,200,201,202,203,204,205,206,207,208,209,210,211,212,213,214,215,216,217,218,219,220,221,222,223,224,225,226,227,228,229,230,231,232,233,234,235,236,237,238,239,240,241,242,243,244,245,246,247,248,249,250,251,252,253,254,255,256,257,258,259,260,261,262,263,264,265,266,267,268,269,270,271,272,273,274,275,276,277,278,279,280,281,282,283,284,285,286,287,288,289,290,291,292,293,294,295,296,297,298,299
创新能力,0.2269061803817749,0.027244634926319122,0.011957970447838306,0.18822430074214935,-0.0994996652007103,0.48168694972991943,-0.7095390558242798,0.07806456089019775,0.013118398375809193,-0.34154635667800903,-0.5334698557853699,0.38361042737960815,-0.03506571054458618,0.5505034327507019,-0.09368276596069336,0.08619314432144165,-0.1143779531121254,-0.04494476318359375,-0.2701404094696045,-0.7509564161300659,-0.002836193423718214,-0.06145504489541054,0.015166757628321648,-0.11059384047985077,-0.22822612524032593,-0.19027312099933624,-0.09071678668260574,0.23835332691669464,0.04905146360397339,0.43768587708473206,0.06308984756469727,-0.19366157054901123,-0.39972826838493347,0.1277015060186386,0.29198333621025085,0.04693456366658211,0.17944930493831635,-0.45907533168792725,-0.5509661436080933,-0.28158998489379883,-0.3191395103931427,0.10680851340293884,-0.1318967044353485,0.048237115144729614,0.04729549586772919,0.1790522038936615,0.10745099186897278,0.08524515479803085,-0.08148732036352158,-0.00016279223200399429,-0.32830461859703064,-0.3536125123500824,0.22818505764007568,-0.2544751465320587,-0.18787719309329987,-0.26167458295822144,-0.23810870945453644,0.38847869634628296,0.33918941020965576,-0.19178469479084015,0.21600046753883362,-0.28415820002555847,0.29766443371772766,-0.21505804359912872,-0.19377674162387848,0.17904028296470642,0.02163427509367466,-0.006440883968025446,-0.21424546837806702,-0.1478482335805893,-0.31487491726875305,-0.27737608551979065,0.147060364484787,0.04602621868252754,0.31801411509513855,-0.18477687239646912,0.15713955461978912,0.24872440099716187,0.2704581618309021,-0.004152751062065363,-0.3381671607494354,-0.09960564970970154,-0.0956679955124855,0.20703507959842682,-0.7909918427467346,0.1060897558927536,-0.04030474275350571,-0.2989935874938965,-0.21924497187137604,-0.08782631158828735,-0.19886939227581024,-0.03820127993822098,0.25007420778274536,0.16628874838352203,0.08477851748466492,0.10243251174688339,0.15770159661769867,-0.1988428235054016,-0.056722491979599,-0.21379052102565765,0.2330145537853241,0.18093253672122955,-0.35272273421287537,0.11818843334913254,-0.06076112017035484,0.05179692059755325,-0.34349700808525085,0.1473485827445984,0.14987871050834656,-0.2011825144290924,-0.4487815797328949,-0.0607723742723465,-0.03338422253727913,-0.44167885184288025,-0.10081564635038376,0.17743559181690216,0.05016963556408882,-0.17144306004047394,-0.3901212215423584,-0.38678643107414246,0.04331650957465172,-0.20383217930793762,0.15642158687114716,0.137765035033226,0.33164307475090027,-0.020194562152028084,-0.23097625374794006,0.1884118616580963,-0.11395636200904846,-0.48987892270088196,0.47454142570495605,0.12380827963352203,0.28127971291542053,0.2604404389858246,-0.27721521258354187,-0.6549238562583923,-0.16156044602394104,0.09605442732572556,0.22319652140140533,-0.008848641067743301,-0.4042850136756897,-0.29953277111053467,-0.06777919083833694,-0.02531266026198864,-0.004795845132321119,0.2046375423669815,-0.19685405492782593,0.26928776502609253,0.39422541856765747,0.05521692708134651,0.2503992021083832,0.003663236740976572,0.00878035556524992,0.0007148007280193269,-0.0004676183743868023,-0.2182011753320694,0.3286953568458557,0.19288107752799988,0.2027510404586792,-0.09055459499359131,0.03214715048670769,-0.19487576186656952,0.22689753770828247,0.015203887596726418,-0.08726281672716141,0.4411318302154541,0.5094493627548218,-0.2823807895183563,0.30062705278396606,0.1104610413312912,0.07923534512519836,-0.06368474662303925,-0.03712932765483856,0.05317056179046631,0.3448162376880646,0.07141350954771042,-0.09779447317123413,-0.6638985872268677,0.2993278205394745,-0.39126792550086975,-0.5342668294906616,0.05282493680715561,-0.4589517116546631,-0.5158557295799255,0.21264414489269257,0.48091861605644226,-0.05997541546821594,0.11700127273797989,0.13356426358222961,-0.08242502063512802,-0.18425226211547852,0.14705458283424377,-0.16195406019687653,0.2699282467365265,-0.04484016075730324,-0.09501039981842041,-0.2005404680967331,-0.01912114955484867,-0.2932855188846588,0.11678098887205124,-0.1680227369070053,0.14042341709136963,0.23568537831306458,-0.06582382321357727,-0.06051589176058769,0.07197952270507812,-0.0224700178951025,-0.018435638397932053,0.13710707426071167,-0.14921177923679352,0.14610928297042847,-0.2998583912849426,-0.4536297023296356,-0.1595587581396103,-0.31993478536605835,0.1528334617614746,0.15606041252613068,-0.25868913531303406,-0.0913984477519989,-0.4964698255062103,0.4286595284938812,-0.16610223054885864,-0.023481039330363274,-0.19694334268569946,0.34648093581199646,-0.17268823087215424,-0.06449537724256516,-0.10604388266801834,0.06027265265583992,0.2812919318675995,-0.48859405517578125,-0.4981220066547394,0.49299895763397217,0.3186742663383484,-0.1277155578136444,-0.18097752332687378,0.18220852315425873,-0.05544145405292511,-0.21579653024673462,0.06934764981269836,0.10345867276191711,0.25578591227531433,-0.1998111456632614,-0.04876997321844101,-0.5110786557197571,-0.2618856728076935,-0.008864672854542732,-0.4152502417564392,-0.24132683873176575,0.2806767225265503,-0.41064947843551636,0.02632598578929901,0.20426702499389648,-0.20089469850063324,0.21347732841968536,0.032333582639694214,0.03308919444680214,0.18489672243595123,0.5223616361618042,0.06586282700300217,0.17455518245697021,0.017299368977546692,-0.27320781350135803,-0.07585689425468445,-0.40917396545410156,0.3458653390407562,-0.08857885748147964,0.12629485130310059,-0.24745789170265198,0.19286136329174042,-0.12741732597351074,-0.21542534232139587,-0.03623177856206894,-0.2117289900779724,-0.3250867426395416,0.5419250726699829,0.014257772825658321,0.1557469367980957,-0.188883975148201,0.12290575355291367,0.0003268949221819639,0.028570327907800674,-0.33021795749664307,0.17834636569023132,-0.09307366609573364,-0.40291765332221985,-0.0045501310378313065,0.13092873990535736,0.01241705659776926,-0.047189805656671524,-0.15419915318489075,-0.2824363708496094,0.36401620507240295,-0.6649792790412903,-0.16163231432437897,-0.05079539120197296,0.14225547015666962,-0.2588145136833191,-0.1120130866765976,-0.14647457003593445
实现,0.5551396608352661,-0.8804975152015686,0.6044899821281433,-0.01921490579843521,-0.046288274228572845,1.0322710275650024,-1.0620450973510742,1.0550557374954224,-1.509097933769226,-0.9524046182632446,-1.0618352890014648,-0.235684335231781,-1.720482349395752,-1.7224938869476318,-2.4796578884124756,-1.950964331626892,-0.22143816947937012,0.2263391762971878,-2.212343454360962,0.43846428394317627,-0.13976529240608215,0.6768694519996643,1.018008828163147,0.7009941935539246,2.0212481021881104,-1.0925301313400269,0.601258397102356,-0.209716796875,-0.8589752912521362,1.1654105186462402,0.9902629852294922,-1.2568730115890503,-0.4510587453842163,1.131783127784729,-1.2191781997680664,0.09258702397346497,-1.0656232833862305,-1.3483017683029175,-1.5665292739868164,0.017934618517756462,0.7931814789772034,-0.38968467712402344,-0.7005403637886047,-1.690803050994873,-1.2393385171890259,1.37173593044281,0.7244397401809692,1.4821603298187256,-1.2122141122817993,-0.8430168628692627,-0.5192746520042419,0.7142978310585022,0.6246457099914551,-0.07689274102449417,-1.0148422718048096,-1.2148674726486206,1.25443696975708,-0.621665894985199,1.5408430099487305,0.1893235445022583,0.9866126775741577,-0.2362622171640396,1.4295703172683716,2.1486918926239014,-1.2049580812454224,1.692543625831604,1.2791943550109863,1.0533090829849243,0.33622488379478455,-2.000683069229126,-2.22438383102417,-1.6116523742675781,-1.0711241960525513,-1.3616406917572021,0.6281946301460266,-1.47675359249115,1.3043348789215088,-0.5082381367683411,-1.6718419790267944,2.2175052165985107,-1.111021637916565,1.352550983428955,0.6406086087226868,-0.06284177303314209,0.011701102368533611,0.7378530502319336,1.5817832946777344,0.9488372206687927,-0.3815375864505768,-0.9954085946083069,-0.6183232069015503,-0.9756507277488708,-0.3852924406528473,-0.0892956554889679,1.44218111038208,-2.342799425125122,-0.06679996848106384,1.7263859510421753,-1.7291417121887207,-1.5563360452651978,0.07725995033979416,-1.4729169607162476,0.10296502709388733,0.7811061143875122,0.3009434938430786,2.0496292114257812,0.29868367314338684,0.2071579247713089,-2.634883403778076,0.340969055891037,0.1523090898990631,-1.109022617340088,-0.4769606590270996,0.3084504306316376,0.3518458306789398,0.11944369971752167,0.2768126428127289,2.304356575012207,-0.29125797748565674,-0.4623495042324066,0.9558490514755249,-2.6515932083129883,-0.11431874334812164,-0.12598590552806854,1.4041728973388672,0.06752803176641464,-0.470373272895813,1.9761277437210083,1.0116218328475952,-1.9613077640533447,1.0378763675689697,-1.7189785242080688,0.4484947621822357,1.8212878704071045,-0.5703697800636292,0.4309821128845215,1.812153697013855,0.42758533358573914,-0.7727715969085693,-1.8576104640960693,-0.3575652837753296,-0.1264311671257019,-0.676228404045105,-2.4589061737060547,-0.5079748034477234,0.0666639506816864,-3.4425463676452637,1.3120932579040527,1.4908926486968994,-1.258518934249878,0.50582355260849,-0.10774020850658417,-0.17651069164276123,0.49355605244636536,0.3896447718143463,-1.1996524333953857,-0.1724442094564438,1.1070311069488525,0.6979014277458191,-1.2364026308059692,1.593661904335022,-0.007954037748277187,0.06417708843946457,-0.5779377222061157,0.7724655866622925,-1.7822985649108887,2.0978939533233643,-0.8311236500740051,1.2321839332580566,1.8817405700683594,-0.1353483647108078,-0.5479294061660767,-0.18284526467323303,0.7118992209434509,0.3836732804775238,-1.852077841758728,2.1838219165802,-0.8681450486183167,-1.495739459991455,0.6282085180282593,-1.9668364524841309,-1.2033721208572388,-0.8570106625556946,-2.2554187774658203,-1.2996686697006226,1.3529818058013916,-0.9269528985023499,1.1232386827468872,0.4122137129306793,-1.1758273839950562,-1.508603811264038,-1.18766450881958,0.4515573978424072,1.1553813219070435,-1.0242341756820679,-1.4860997200012207,0.9947593212127686,0.6413185596466064,0.9611298441886902,0.934622049331665,-0.18697293102741241,-2.418081760406494,1.5131886005401611,-0.014200245030224323,-0.49715402722358704,0.12951669096946716,0.962466299533844,1.2768853902816772,1.8036736249923706,1.9251896142959595,-0.005754733458161354,1.521537184715271,-0.2472902536392212,1.6443883180618286,-0.5707328915596008,-0.657278835773468,1.6960188150405884,1.4710582494735718,1.2024787664413452,-0.16729508340358734,2.2831547260284424,1.2636312246322632,0.4930257797241211,2.093064069747925,-2.151787757873535,-0.5431060791015625,-0.10025724023580551,-3.2344045639038086,-2.0952327251434326,1.2210443019866943,1.31174898147583,-0.5099309682846069,0.3947056233882904,-0.0730278491973877,-1.3181235790252686,0.46653738617897034,1.1504817008972168,-0.19267457723617554,2.1925363540649414,0.5417991876602173,0.9571182727813721,0.3316861391067505,-0.18085673451423645,-1.4137212038040161,-1.497534155845642,-1.283983826637268,-0.14315690100193024,-1.1854029893875122,1.6516590118408203,-0.648975133895874,-2.7460453510284424,-0.993586540222168,0.2709634304046631,-2.1604926586151123,-2.354551315307617,-0.1711161732673645,-0.9825235605239868,-2.1333842277526855,1.90491783618927,-0.5843165516853333,-0.7724144458770752,-1.4386783838272095,0.120659738779068,1.4415069818496704,-0.6715927720069885,-0.4609164297580719,0.9280557632446289,0.3592979907989502,0.45924609899520874,0.2550687789916992,-1.3623987436294556,-1.1096333265304565,2.0946943759918213,1.329685091972351,-0.4689529240131378,0.19212980568408966,1.1204724311828613,3.17389178276062,0.10136796534061432,0.6407265067100525,0.3851873278617859,-0.3200053870677948,-0.009298743680119514,2.794018268585205,0.008091677911579609,2.5910804271698,-0.9332835674285889,0.5262113213539124,-0.9154622554779053,-1.1646015644073486,-1.7831237316131592,-1.192431092262268,-0.3362942039966583,0.2670041620731354,-0.27458086609840393,0.09473136812448502,0.8289657235145569,0.8641073703765869,1.1102277040481567,-0.9127066731452942
小学,-1.6216340065002441,1.1357026100158691,-0.04681162163615227,2.8688762187957764,1.2553642988204956,0.6939217448234558,-2.417482614517212,-0.28666776418685913,1.0223898887634277,0.7708308696746826,-0.3879251480102539,-0.9643115997314453,-2.380167245864868,-0.13681833446025848,-0.09251314401626587,0.8424403667449951,1.5324572324752808,-2.3263659477233887,-1.1366279125213623,-2.659470796585083,-1.3148753643035889,-1.7865444421768188,-1.4503825902938843,1.377656102180481,-1.327974796295166,0.16010335087776184,1.9102147817611694,1.0760340690612793,0.2189980149269104,-1.1661617755889893,1.5768736600875854,0.12534992396831512,0.8282188773155212,-0.3144223093986511,2.114445924758911,-1.5774675607681274,0.12412268668413162,-0.9996811151504517,-0.5777499079704285,1.83510160446167,3.0457699298858643,-0.25759822130203247,-1.6575905084609985,0.6617844104766846,0.1849772185087204,0.3303895592689514,0.8170790672302246,-0.0822136253118515,-0.2785817086696625,1.209273338317871,-0.3111008107662201,-0.38441795110702515,-0.6309140920639038,-1.1225857734680176,0.8046176433563232,-0.017372366040945053,-1.3544998168945312,0.29828158020973206,1.5134425163269043,1.4794567823410034,0.2795448303222656,0.024490779265761375,3.248558282852173,-1.5311046838760376,0.04946017637848854,1.9148396253585815,0.11752539128065109,-0.4526384472846985,0.5340813398361206,-0.6073797345161438,0.21998029947280884,1.638465404510498,-0.21908394992351532,-1.2145038843154907,0.6363247632980347,1.4720332622528076,-0.16872374713420868,-1.0839154720306396,-2.0340800285339355,1.4898332357406616,-2.2436094284057617,-1.2973426580429077,1.8683663606643677,1.3878750801086426,0.7893360257148743,-0.9020224809646606,0.6323698163032532,-0.9597191214561462,1.0790314674377441,0.15855321288108826,1.4845527410507202,0.08614303916692734,1.6138983964920044,1.1953173875808716,1.1459263563156128,-0.705970048904419,0.7056026458740234,1.2749578952789307,-1.1777287721633911,1.0843220949172974,2.1987526416778564,-0.6979203820228577,0.4766201674938202,1.119295358657837,0.42374861240386963,0.4662126898765564,0.475527286529541,-0.8749179840087891,0.7610214352607727,0.660737931728363,-0.8249874114990234,-0.7753494381904602,3.0468318462371826,-1.9026814699172974,1.255098581314087,1.6971938610076904,1.3639169931411743,-0.5982299447059631,1.7756670713424683,0.4577108919620514,0.3294254541397095,-0.3556719124317169,-0.11975356936454773,0.7255721688270569,-0.6094000339508057,2.67698335647583,1.272377848625183,-0.38234639167785645,0.9285531044006348,-0.6615758538246155,-0.24969293177127838,1.3372784852981567,0.8157811164855957,-0.7369764447212219,0.7849587202072144,-0.09824664145708084,0.04381299763917923,-0.2675771117210388,-1.4849402904510498,1.3843072652816772,0.31650063395500183,-0.753783106803894,0.7341223359107971,0.9192666411399841,-0.4784870743751526,-1.4947086572647095,-0.13397400081157684,-0.39170774817466736,-1.6191109418869019,0.06904713809490204,-0.2781752347946167,-0.2187948226928711,0.2199772298336029,3.119455099105835,1.693495273590088,-0.2486954778432846,2.150082588195801,-0.14201508462429047,-2.1375503540039062,0.031020427122712135,-1.7430075407028198,1.214918613433838,-0.8551561236381531,-0.5377565622329712,0.8244405388832092,-2.0496251583099365,0.3598114848136902,0.5867802500724792,0.5143492221832275,-0.0679054707288742,0.33282336592674255,-0.9310827255249023,1.7148100137710571,-0.7936213612556458,0.6688328385353088,1.9605004787445068,-1.9385801553726196,-2.164860725402832,2.1524205207824707,0.049972593784332275,1.368304967880249,0.9973586797714233,-0.4827171564102173,-2.553523063659668,-0.46478134393692017,-1.350441336631775,-1.3197654485702515,-1.8706663846969604,-1.1206759214401245,-0.06274355202913284,1.2779992818832397,0.08140125125646591,1.5261304378509521,-1.9490835666656494,-3.6883511543273926,-1.3696080446243286,1.3611160516738892,-0.837051272392273,-1.9367038011550903,0.6664106249809265,-0.41979414224624634,2.454688787460327,0.565639853477478,-1.0216096639633179,1.369736909866333,1.575979232788086,0.038056958466768265,3.7224507331848145,-2.349987745285034,0.03290275111794472,1.5061604976654053,1.2337350845336914,0.6520226001739502,-0.21291959285736084,0.9812041521072388,-0.24853651225566864,-1.5367498397827148,0.15573826432228088,-1.8050670623779297,1.4133429527282715,-0.16324825584888458,1.2088314294815063,1.2574139833450317,-1.248779296875,0.4167070984840393,0.9124965071678162,1.410232424736023,-0.29996442794799805,3.0426950454711914,1.1413582563400269,0.4613613784313202,-0.9589375257492065,0.2975350618362427,-3.2279136180877686,2.422248601913452,-0.2215680330991745,1.2207008600234985,-0.8670366406440735,2.048548460006714,-0.6075751781463623,-3.3610641956329346,-0.41273072361946106,2.924490451812744,1.0267307758331299,1.6141414642333984,-1.8703899383544922,0.992874026298523,0.08825647085905075,-0.4736205041408539,3.4255118370056152,-1.9763988256454468,0.2743445634841919,-1.2571855783462524,1.3377493619918823,-0.1270361840724945,1.5519437789916992,-1.26780366897583,0.4622149169445038,2.6206912994384766,0.31334489583969116,-0.13731372356414795,0.46903032064437866,0.8157709240913391,-4.210059642791748,-2.235557794570923,-2.0058541297912598,0.002138392301276326,0.7146074175834656,-0.2376265674829483,1.8945833444595337,-0.2006099671125412,-0.04763912409543991,0.9568342566490173,0.40382248163223267,2.1438052654266357,0.7987940907478333,4.491050720214844,2.9684746265411377,-1.0504964590072632,1.9549355506896973,-0.9422651529312134,0.4360027611255646,1.384230613708496,-1.2230710983276367,-0.926332950592041,-3.0073137283325195,-1.4922393560409546,-2.802224636077881,1.0011215209960938,-0.9039714336395264,-2.902865171432495,-1.2329537868499756,-0.3752037584781647,-2.4600019454956055,2.2203426361083984,-1.1675045490264893,2.24383544921875,0.37303125858306885,2.266130208969116,-1.2718377113342285
阶段,0.641762912273407,-0.24161511659622192,2.484583854675293,-2.421685218811035,-2.2881250381469727,-1.4452952146530151,-1.6768274307250977,0.8454040884971619,-1.1038086414337158,0.6657983064651489,-2.052647829055786,-1.6268682479858398,0.19527342915534973,0.02404533512890339,-1.791021466255188,0.20989489555358887,1.5266618728637695,1.2821904420852661,-0.5650184750556946,-1.6094433069229126,-0.033723946660757065,-3.931379795074463,0.16590094566345215,-1.553173542022705,1.253523588180542,-0.7782427072525024,-0.5800997018814087,-2.031796455383301,1.397412657737732,3.5318193435668945,-0.03228279575705528,0.0017869430594146252,-0.5955991744995117,0.7026999592781067,-0.009624478407204151,-1.2451156377792358,-2.9890129566192627,0.7622290253639221,-0.9342722296714783,-0.07501137256622314,-0.09998974949121475,3.031789541244507,0.6233936548233032,-0.8833299279212952,1.6983191967010498,2.718231201171875,0.6707858443260193,0.3590407967567444,-2.3403890132904053,0.1959964632987976,-1.4898629188537598,-0.13338829576969147,1.6779311895370483,2.0275678634643555,-0.3745028078556061,1.7831391096115112,0.42844510078430176,1.260705828666687,0.7360763549804688,0.6499000191688538,1.4302644729614258,0.3653741478919983,-0.02695305086672306,0.9215072393417358,0.05771167576313019,-1.3561656475067139,1.1553289890289307,1.3555539846420288,-1.5142244100570679,-1.577427864074707,0.024154601618647575,1.141847014427185,-2.1042723655700684,-1.5957361459732056,2.5284271240234375,0.29930737614631653,0.6473970413208008,-0.7836352586746216,-1.827355146408081,-0.9867594838142395,0.4574129581451416,-2.07566237449646,-0.666887640953064,0.2092157006263733,-0.018330475315451622,1.2068231105804443,0.9599601030349731,0.07798227667808533,2.8001410961151123,-1.2846899032592773,0.20934925973415375,1.5153394937515259,1.1356183290481567,1.1437119245529175,0.6701644659042358,0.06317009776830673,-1.1898136138916016,1.2233601808547974,1.192800521850586,0.16201220452785492,2.1324939727783203,-1.5647096633911133,-1.016916036605835,0.5557927489280701,-0.33509957790374756,0.5799038410186768,-0.25073370337486267,-0.4529505968093872,-2.489636182785034,-0.3721792995929718,0.0882137194275856,-1.4453531503677368,1.7638185024261475,2.2521517276763916,1.61760675907135,0.4182981252670288,2.4671554565429688,-1.031583547592163,0.4531098008155823,-1.0254517793655396,1.209397315979004,-0.7057635188102722,1.471510410308838,0.28781065344810486,1.8634380102157593,0.1623488962650299,-0.8777905106544495,0.5380886793136597,-1.3629800081253052,-3.9038479328155518,0.0015913979150354862,-0.14009806513786316,4.216989040374756,2.0591044425964355,-1.057517409324646,-1.0649524927139282,0.11922162026166916,1.4595022201538086,0.2671111822128296,0.45743328332901,0.5350366234779358,0.4715608060359955,-1.3810911178588867,-0.501145601272583,0.4300680458545685,0.22962985932826996,-3.1991961002349854,0.7233004570007324,-1.6444441080093384,-0.10785049945116043,-1.0604956150054932,-1.2353875637054443,-0.30055099725723267,-1.1973161697387695,0.764636218547821,-1.563138484954834,1.140592336654663,1.845942497253418,0.26769891381263733,1.39619779586792,-1.1413204669952393,1.3543365001678467,2.6290628910064697,0.6210985779762268,-0.04922659322619438,-1.8826484680175781,-0.8331156969070435,2.3021631240844727,0.3846457898616791,-0.9064056873321533,-1.9753422737121582,-1.2174614667892456,0.9548956751823425,0.7480775117874146,0.27072733640670776,1.964892029762268,0.17407669126987457,1.0521100759506226,-0.2412836253643036,1.3457869291305542,-0.15394915640354156,2.0048935413360596,0.9215173721313477,-0.98954176902771,0.33417779207229614,1.4735291004180908,0.8511360287666321,0.9584004878997803,-1.7219818830490112,-2.3065340518951416,-1.5424643754959106,0.3288474678993225,0.5403491854667664,1.3418866395950317,0.9748474359512329,-1.4349496364593506,1.3594022989273071,1.1511183977127075,-1.1964521408081055,2.5677330493927,-0.709153950214386,-1.0427979230880737,-0.3233898878097534,-0.21867385506629944,1.586063027381897,0.7138442397117615,-0.5723572969436646,1.5500565767288208,0.09304259717464447,1.3087388277053833,-1.8503514528274536,-0.5585227012634277,-0.760556697845459,-0.9823440313339233,-0.42133745551109314,-0.9166818857192993,-0.0038545443676412106,-1.0275349617004395,-1.843034267425537,-0.7984757423400879,1.2461332082748413,2.2559664249420166,-1.6227182149887085,-0.5522859692573547,1.4843571186065674,-0.20473645627498627,-0.921524167060852,0.2925265431404114,-1.3742308616638184,-0.3870309591293335,0.35360458493232727,-1.0566846132278442,1.0469616651535034,-0.002624072600156069,0.8794901967048645,2.784111976623535,-1.8883800506591797,-0.44122764468193054,-0.26539888978004456,0.6258456707000732,1.2392545938491821,1.6428310871124268,-0.4433152973651886,1.6995211839675903,-2.175553560256958,-1.4124881029129028,1.7509472370147705,0.11861182004213333,2.9035379886627197,0.6454811096191406,-0.5100128650665283,-0.0498962476849556,-0.24027247726917267,-0.26724761724472046,-1.103485107421875,-0.3020818829536438,-0.40935343503952026,-1.1831220388412476,0.4164818227291107,-2.0001957416534424,-0.7670139670372009,-0.5384740829467773,-0.350495308637619,-1.3304550647735596,1.1658859252929688,0.3105388879776001,-0.4347687065601349,-0.4744018316268921,-2.407984733581543,-0.19019469618797302,1.3007551431655884,-0.4439772367477417,2.4606363773345947,1.3306361436843872,-0.6578958034515381,1.5979032516479492,1.426835060119629,1.7220098972320557,0.9599294662475586,1.7336541414260864,2.2793188095092773,0.37083375453948975,-2.408200979232788,-0.5396538972854614,0.8805475831031799,0.8601202368736267,-0.7888645529747009,-1.841365933418274,0.5257986783981323,-1.5504951477050781,-0.2727137506008148,-1.3731606006622314,1.3371573686599731,-1.5235817432403564,0.936342716217041,0.9680643677711487,-0.6928393840789795,-1.7075629234313965,1.6628957986831665,-3.0967495441436768
形成,0.8914200067520142,-0.8686602115631104,-1.6513913869857788,-3.000105857849121,-1.3333733081817627,2.069230318069458,0.5144816637039185,-0.9860796928405762,-1.7920273542404175,-0.4234567880630493,2.33427095413208,0.22966089844703674,-1.6119146347045898,0.44391536712646484,-3.0970888137817383,-0.409864217042923,0.2403775155544281,1.4648886919021606,-2.45410418510437,0.1863022744655609,-0.8014757633209229,-0.7783045768737793,-0.06346481293439865,-1.3656407594680786,1.142553687095642,-1.4804552793502808,0.2538256049156189,-4.166547775268555,-0.6307573914527893,-0.504752516746521,0.33395683765411377,-1.0088887214660645,0.8011618256568909,-0.5251234173774719,-0.473537802696228,-0.6692044734954834,1.7572152614593506,-2.0064949989318848,-2.0956828594207764,-1.1286342144012451,-0.5820720791816711,-0.5388318300247192,0.7756645679473877,-0.861149787902832,-1.7760828733444214,1.2438403367996216,0.33981189131736755,0.9948655962944031,-1.6514711380004883,0.7998291254043579,0.9295064210891724,1.937796950340271,0.31228774785995483,1.4042162895202637,-1.86323881149292,-1.6836825609207153,1.7101945877075195,1.4914995431900024,-0.5990644693374634,-0.9651971459388733,-1.3512846231460571,-0.5299081206321716,0.8199136257171631,-0.3501943051815033,1.3686048984527588,-1.212833046913147,1.040339708328247,0.6016746163368225,-1.9457011222839355,-0.7446442246437073,-0.2868312895298004,-2.419360399246216,-0.5838481783866882,-0.7461998462677002,3.2792394161224365,1.2336312532424927,2.588139772415161,0.023182345554232597,-0.3417609632015228,1.3355224132537842,1.2143360376358032,-1.2584803104400635,-0.18798522651195526,-1.9790983200073242,-1.2415153980255127,1.0294992923736572,1.8400089740753174,0.7266631126403809,0.40488559007644653,-2.3447513580322266,-0.2294815331697464,-0.25954851508140564,-1.4064226150512695,1.0559381246566772,0.6790064573287964,-1.3537802696228027,-1.1568785905838013,0.522754967212677,0.9946926236152649,-0.7885911464691162,0.5570078492164612,-1.1513547897338867,-0.7739473581314087,-0.24198086559772491,-0.05854582041501999,2.5262959003448486,-0.9778441786766052,2.4819438457489014,-0.4896409213542938,-1.1454272270202637,-0.7531673908233643,-0.24963539838790894,0.4358578622341156,0.22256211936473846,0.9717295169830322,1.1127955913543701,-0.46411293745040894,0.9957566857337952,-0.5333651900291443,1.576643943786621,0.40830227732658386,-1.9535250663757324,0.15290603041648865,1.9890902042388916,0.37339210510253906,-0.00913739949464798,0.9802945256233215,-0.5591416358947754,-0.642920732498169,0.3736194372177124,0.562397837638855,-1.9774316549301147,1.390177845954895,-0.058415964245796204,-1.3433977365493774,-1.2207794189453125,0.9785665273666382,-0.4699784517288208,-1.8407516479492188,-0.39708688855171204,-1.3185800313949585,2.2838714122772217,0.5505670309066772,-2.2518951892852783,-0.8462241291999817,0.16365554928779602,-3.519170045852661,-0.32836011052131653,2.3760571479797363,1.9754419326782227,0.2748669683933258,-1.0569969415664673,-1.0723497867584229,0.13977518677711487,0.8388525247573853,-2.3448729515075684,-1.896994948387146,0.9277204871177673,-2.2480926513671875,0.16029100120067596,-0.9957311749458313,0.8717696070671082,1.0967283248901367,-1.53300142288208,-0.584832489490509,-0.22790037095546722,0.28781867027282715,0.20806828141212463,-0.1737285703420639,0.0952228382229805,-2.282456398010254,-0.0787365585565567,-0.455093115568161,-1.8125554323196411,0.4586593508720398,-0.8512770533561707,1.1634093523025513,1.4159194231033325,-2.1920101642608643,1.3669997453689575,-3.12302303314209,-1.0528895854949951,-0.47901082038879395,-3.0112011432647705,0.31393253803253174,1.1450672149658203,-0.967128574848175,-3.5615248680114746,-0.023760467767715454,-2.822192430496216,2.286289691925049,0.7917159199714661,-0.7373820543289185,0.4145320951938629,-0.5116800665855408,-1.6403201818466187,-0.27087903022766113,2.604785919189453,1.5393285751342773,-2.4115653038024902,-0.7722392082214355,-1.4677516222000122,-2.7919962406158447,-0.5340947508811951,-0.1543014943599701,-0.1929410845041275,1.6239200830459595,0.4039648473262787,-0.6808900237083435,2.246690511703491,0.1821335107088089,-0.7400246262550354,-1.1329712867736816,-1.134929895401001,-0.5647755265235901,0.13827215135097504,0.1486935317516327,0.6395788788795471,-1.9088633060455322,2.036184787750244,2.7246739864349365,1.7548621892929077,0.8336984515190125,1.0645065307617188,-1.3518261909484863,1.07020103931427,0.9181941747665405,-1.3457821607589722,-1.9177130460739136,-1.8295650482177734,2.3573520183563232,-0.5815578103065491,1.99741530418396,1.1733654737472534,-2.0755178928375244,-1.6513727903366089,2.266432046890259,-0.437544584274292,-0.3732038736343384,0.012299674563109875,-0.09784433245658875,1.79459810256958,0.5053467750549316,-0.38958755135536194,-1.7713980674743652,2.3690848350524902,-0.430057555437088,-1.9239813089370728,1.7361247539520264,1.1973960399627686,-1.656163215637207,-0.15095630288124084,-1.7603065967559814,-0.5219092965126038,-0.5452142953872681,-0.8306065201759338,0.30272477865219116,-0.7858449816703796,0.5518430471420288,-0.5305983424186707,0.10242205113172531,-1.7356243133544922,0.7636257410049438,1.4027694463729858,0.19965383410453796,-1.1028611660003662,-1.345039963722229,0.49502256512641907,0.5755751132965088,-1.2582058906555176,0.16962480545043945,-0.3136354684829712,3.1170859336853027,1.9001504182815552,-0.5489059686660767,1.53520929813385,-2.072740077972412,3.4628024101257324,-2.102353811264038,1.3168516159057617,0.2358524352312088,-0.2728438377380371,-2.7975971698760986,0.3956149220466614,-1.0569089651107788,1.1291277408599854,-0.1842300295829773,-0.8676214218139648,-1.741016149520874,-0.3533663749694824,-1.8784736394882202,-2.2489588260650635,-0.8720554113388062,-1.123707890510559,-0.3217230439186096,-1.8521732091903687,0.8260248899459839,0.21226325631141663,-0.02797427400946617,0.06510323286056519
意义,0.8767188787460327,-1.3273330926895142,1.1471291780471802,0.10480114817619324,0.49840718507766724,0.5505115389823914,0.4385651648044586,0.1767701506614685,0.9208016991615295,-1.0067799091339111,-0.9622129201889038,-0.00044829508988186717,-0.4819260835647583,0.4106476604938507,-3.725320816040039,1.2724087238311768,0.8625937700271606,1.8706713914871216,-1.1550263166427612,0.041372738778591156,2.487666606903076,0.3709251582622528,0.4118807911872864,-1.1605829000473022,1.0378814935684204,0.7904296517372131,1.2395573854446411,-0.3706623315811157,-1.1737245321273804,2.019655227661133,-0.7524554133415222,1.7653217315673828,-2.078552007675171,0.9058259129524231,-0.8842645287513733,-0.4718557298183441,-0.823699951171875,-0.9591644406318665,-1.5809361934661865,1.4412354230880737,1.1551989316940308,-1.0909518003463745,-0.9319937229156494,-0.21569415926933289,-0.15852747857570648,0.4388319253921509,2.3522281646728516,0.07905656099319458,0.05658332630991936,0.2292523980140686,-0.07617766410112381,0.4037836492061615,1.685059905052185,-0.5841132402420044,0.9987193942070007,0.09115605056285858,-1.7781829833984375,-1.2850980758666992,1.0628613233566284,-1.228445291519165,0.5661213397979736,0.38510578870773315,-1.5416356325149536,-0.6501646637916565,-1.6911554336547852,1.2470450401306152,-0.1318730264902115,0.9384827017784119,-0.6698215007781982,-1.7806763648986816,-1.1117300987243652,0.6157048940658569,0.15646809339523315,0.02770252898335457,3.227165460586548,0.8829001784324646,2.025970697402954,-0.21065391600131989,0.8455089926719666,2.3742282390594482,-0.3719283938407898,0.6365035772323608,-0.6795113682746887,-0.41994503140449524,0.24802885949611664,1.6284794807434082,1.4869236946105957,1.2985069751739502,0.9198129773139954,0.5236016511917114,0.13380010426044464,0.17972376942634583,-0.26714256405830383,0.679449737071991,-1.024509072303772,0.2589561641216278,0.8638290762901306,1.7309778928756714,0.5433287024497986,-1.213212490081787,0.045626699924468994,0.35762861371040344,-0.6144303679466248,0.8473688364028931,-1.605926752090454,-1.69753098487854,-0.8246614336967468,2.391639471054077,-2.4568862915039062,0.12879900634288788,2.227038621902466,-0.6360642313957214,-0.3625418543815613,3.739010810852051,1.4740632772445679,1.2042990922927856,0.7753782868385315,-0.7410371899604797,-0.9917329549789429,2.7182905673980713,0.01786600984632969,-0.9421877264976501,-0.247529074549675,1.2696657180786133,-1.081366777420044,0.4495563507080078,0.1391957551240921,2.4491217136383057,0.8168454766273499,-1.4242676496505737,-0.9356473684310913,-0.7391866445541382,-0.270515501499176,1.1734859943389893,0.8794510960578918,-0.3170091509819031,1.2546720504760742,1.1823195219039917,-0.07183808088302612,-2.4184670448303223,-0.4294038712978363,0.8906014561653137,1.9497064352035522,0.18569619953632355,-0.47279682755470276,0.07546093314886093,-0.8137640357017517,-1.3729661703109741,0.6870309710502625,-1.685822606086731,0.27962955832481384,-0.7921105027198792,-0.3486381769180298,1.3020070791244507,-1.417515516281128,-2.9828596115112305,0.3017350435256958,-0.37232834100723267,-2.1692118644714355,-0.8221130967140198,0.034958649426698685,0.5946692824363708,0.6531569957733154,1.0460447072982788,0.2837226092815399,-2.1790523529052734,0.11036653071641922,-0.20194847881793976,1.102841854095459,1.3425339460372925,-1.438492774963379,-0.8850314617156982,-0.13475295901298523,0.3654978573322296,0.007264047861099243,1.5510822534561157,-1.15598464012146,0.17982855439186096,-1.844547986984253,0.5578692555427551,-2.180450439453125,-0.8696646690368652,-0.6272369623184204,0.330706387758255,1.1203782558441162,-0.5362098813056946,-0.6582648158073425,0.3811717927455902,-1.4740527868270874,0.8361453413963318,-0.6352189779281616,-0.8339589834213257,0.4791100025177002,1.492960810661316,-1.5527805089950562,1.1735090017318726,1.6660594940185547,0.02674081362783909,0.5867916345596313,1.5929999351501465,-0.6156570911407471,-0.23478668928146362,-0.6943463087081909,0.5082908868789673,-1.0568866729736328,0.9534541368484497,1.8866788148880005,-0.058949731290340424,0.04031578451395035,-0.9648563861846924,-1.5054553747177124,-0.4646624028682709,-0.6086306571960449,1.0766550302505493,-1.2012453079223633,-2.4890997409820557,0.8302884101867676,-1.5168235301971436,-0.8213124871253967,3.74340558052063,2.381087303161621,-0.30256715416908264,-0.7055265307426453,-0.09485775232315063,-0.15909846127033234,-0.13305598497390747,-0.7035855650901794,1.065658688545227,-2.641899585723877,1.3680049180984497,-0.019410833716392517,-0.0939873456954956,-0.23377497494220734,-0.8432716727256775,0.1664484590291977,-2.6392011642456055,2.520627737045288,-1.2162108421325684,-0.14326724410057068,-0.24494445323944092,1.5695046186447144,1.0394166707992554,-0.17341816425323486,0.44533008337020874,-1.4409193992614746,-0.14102338254451752,0.8225969672203064,0.5613383650779724,-1.2367326021194458,1.1283260583877563,1.1773314476013184,1.2072207927703857,0.3658447563648224,2.2321360111236572,-0.046576127409935,-1.6969246864318848,-2.572202205657959,0.281200647354126,4.220191955566406,0.7353578209877014,-0.4020269513130188,-0.5170329809188843,-1.6890051364898682,-0.03893721476197243,1.8855777978897095,-0.6537438035011292,0.44858071208000183,0.2674802243709564,-0.37747296690940857,0.06868021935224533,-2.335806131362915,0.025184066966176033,0.020360441878437996,0.38776636123657227,-1.1589832305908203,0.3717326819896698,-0.44731828570365906,0.2728952169418335,0.03028404340147972,-1.1126198768615723,0.13839104771614075,0.3384932577610016,-1.032808780670166,2.734750747680664,0.5355120301246643,0.19173985719680786,0.27433836460113525,0.37643513083457947,-0.1320822536945343,-1.9678012132644653,-1.6187851428985596,-0.8757240772247314,2.4413843154907227,-0.4012075662612915,0.4467788338661194,1.2665272951126099,0.00856244657188654,-0.49496349692344666,-2.0348892211914062,-1.7861192226409912
抓起,0.12655167281627655,-0.2613481283187866,0.1692408323287964,0.16451618075370789,-0.06511262059211731,-0.08930156379938126,-0.11662901937961578,-0.18299677968025208,0.14564482867717743,-0.2678367495536804,0.3560781180858612,0.23676365613937378,-0.0901174321770668,-0.5894396901130676,-0.10302016139030457,-0.24563387036323547,0.31526312232017517,-0.04168432205915451,0.39642348885536194,0.236871138215065,-0.35314279794692993,0.015459828078746796,0.41563141345977783,-0.24897296726703644,-0.14894649386405945,-0.5070028901100159,0.09681880474090576,0.09360413998365402,-0.18598675727844238,-0.785912275314331,0.1738053858280182,0.04136316850781441,0.30538931488990784,-0.5766335725784302,-0.29033809900283813,0.1969490498304367,0.07590478658676147,0.28947287797927856,0.3337896466255188,-0.1402704119682312,0.30662691593170166,-0.28191179037094116,-0.287850558757782,-0.24275997281074524,0.1231006607413292,0.13948401808738708,0.037267621606588364,0.4315757155418396,-0.07123634219169617,-0.2796252965927124,0.19518928229808807,0.6531375050544739,-0.2373715341091156,0.03235974535346031,0.0624033585190773,-0.37455233931541443,-0.4201938211917877,0.37624144554138184,0.07647284120321274,0.08972238004207611,0.42200782895088196,-0.07222757488489151,-0.1966274082660675,-0.017920933663845062,-0.21898968517780304,0.06288688629865646,-0.4831539988517761,-0.39963898062705994,-0.051765598356723785,0.08647580444812775,0.1202775239944458,-0.04229247570037842,-0.3592948019504547,-0.22605907917022705,0.20599761605262756,0.0034253099001944065,-0.2626318037509918,-0.31790977716445923,-0.10286065191030502,-0.16628658771514893,0.21447768807411194,-0.13979211449623108,-0.022470688447356224,-0.04224006086587906,0.12877780199050903,0.08580967783927917,-0.06564528495073318,0.3536127507686615,-0.07899967581033707,0.12865202128887177,0.20932549238204956,0.18550774455070496,-0.15209724009037018,0.13725793361663818,-0.2998945713043213,0.03843473270535469,-0.13617786765098572,0.10706216096878052,0.3214806020259857,0.16337497532367706,0.2805342376232147,0.16884256899356842,-0.3344414234161377,0.06269390136003494,-0.19399355351924896,0.05519421026110649,-0.34267929196357727,0.2755344808101654,0.36435866355895996,-0.11374211311340332,-0.362643301486969,-0.09056294709444046,-0.15389063954353333,-0.6308972835540771,0.010255498811602592,-0.08370931446552277,-0.09937499463558197,-0.20561599731445312,0.003819539910182357,-0.027226712554693222,-0.0036192103289067745,-0.396019846200943,0.1248369887471199,0.041744764894247055,0.025006553158164024,0.3142364025115967,0.17141035199165344,0.3340640962123871,0.42566901445388794,0.5593404769897461,-0.03707117959856987,0.2798125147819519,-0.40341779589653015,-0.13196228444576263,0.1523527354001999,-0.11161842197179794,0.33289220929145813,0.10948775708675385,-0.12344981729984283,0.20868197083473206,0.1028280258178711,0.355764776468277,0.004835064988583326,-0.09978191554546356,-0.05682133138179779,0.02072405070066452,0.06839561462402344,-0.14768992364406586,0.07301347702741623,0.1897663176059723,-0.28092440962791443,-0.6534278988838196,-0.09101495891809464,0.004279726650565863,0.13380472362041473,0.34847068786621094,-0.3639822006225586,-0.02726057358086109,-0.33922314643859863,0.1321193426847458,-0.1390736699104309,0.3562658429145813,0.21160754561424255,0.015876900404691696,0.026442626491189003,0.09048070758581161,-0.40158483386039734,0.16936591267585754,-0.06970959901809692,0.22227056324481964,-0.188867449760437,-0.004312488716095686,0.1505746692419052,-0.28668084740638733,-0.10835087299346924,-0.5795267820358276,0.2077421396970749,-0.1695421189069748,0.4008888900279999,0.4233922064304352,-0.3012550175189972,0.03121647611260414,0.07923917472362518,-0.25450634956359863,-0.34000325202941895,-0.06270524859428406,-0.15503060817718506,-0.23859050869941711,0.39211758971214294,0.10620955377817154,0.00572132458910346,-0.01977739855647087,0.10910441726446152,0.15940554440021515,-0.004462560638785362,0.47115573287010193,-0.15636113286018372,-0.11619167774915695,0.005981103051453829,0.021124007180333138,0.14664773643016815,-0.14944235980510712,-0.12479328364133835,0.16428130865097046,0.06340032070875168,-0.24965305626392365,-0.013919223099946976,0.1449032574892044,-0.08857343345880508,0.02555985003709793,0.01252380944788456,0.1924763023853302,0.4490346312522888,0.31001016497612,-0.20608364045619965,0.27572518587112427,0.12986451387405396,-0.01604527048766613,0.0816730260848999,-0.09037231653928757,-0.02137911319732666,0.03955280780792236,0.02154274843633175,0.2838035523891449,-0.15397556126117706,-0.1370459794998169,-0.39796245098114014,0.12965327501296997,-0.17049776017665863,0.12423103302717209,0.1827581375837326,0.047049108892679214,-0.24950382113456726,-0.25442102551460266,0.10751958191394806,0.08510676771402359,0.31715908646583557,-0.4447701573371887,0.15966938436031342,1.0148776769638062,0.07277771830558777,-0.44952014088630676,0.15866908431053162,0.0880357101559639,-0.41475775837898254,-0.4671570956707001,0.21226932108402252,0.14267830550670624,0.35259416699409485,-0.04795320704579353,0.14526480436325073,0.2684515118598938,-0.1356768161058426,0.2805071175098419,0.07533474266529083,0.038223542273044586,-0.3114157021045685,-0.07887587696313858,-0.37142112851142883,0.19147413969039917,-0.0015671633882448077,0.2377910017967224,0.021877553313970566,-0.08994007110595703,-0.06325607001781464,-0.13795317709445953,-0.3127850294113159,-0.013897634111344814,-0.3048030436038971,0.09980633109807968,0.2694687247276306,-0.06421485543251038,-0.3396880328655243,0.05362537503242493,0.06937303394079208,-0.31768864393234253,-0.16011792421340942,0.3224707543849945,0.328871488571167,0.02606266178190708,0.43219706416130066,0.2991775870323181,0.45742326974868774,0.17220866680145264,-0.029101558029651642,0.05742421746253967,0.1360594928264618,0.026210568845272064,0.34148675203323364,0.04308311268687248,0.4108365774154663,0.22608745098114014,-0.4053876996040344,0.24796228110790253,0.1310282051563263,-0.032620709389448166,-0.053398337215185165,0.03363911807537079,0.0536140576004982,0.25448790192604065
活动,0.6973558664321899,-0.5547929406166077,-0.7306469678878784,0.32302677631378174,-0.027027703821659088,-0.7379586696624756,0.25101780891418457,0.7382625937461853,-1.4980911016464233,0.9397255778312683,-0.05436062440276146,0.304447203874588,-1.1906650066375732,0.8887284398078918,-0.3907739520072937,0.430555522441864,0.10298185795545578,1.1113933324813843,-0.4010601341724396,-1.6795718669891357,-0.176511749625206,-0.39861512184143066,0.654542088508606,0.23624709248542786,-0.26349225640296936,0.6697050333023071,-0.9420489072799683,-1.185944676399231,-0.9954392910003662,1.048594355583191,1.7200483853230253e-05,1.662214756011963,0.25628262758255005,0.29649877548217773,0.14889904856681824,-1.0974793434143066,-0.18169090151786804,-1.5842336416244507,-1.4807932376861572,1.4776924848556519,-0.21861590445041656,-0.07686517387628555,-2.8071677684783936,0.05105976387858391,1.8277517557144165,-0.3891453444957733,-0.7087564468383789,-1.0784624814987183,0.36151355504989624,0.08522869646549225,1.3044837713241577,1.3856996297836304,-1.3112887144088745,0.9832689762115479,-1.1407915353775024,2.5428874492645264,0.7935662269592285,1.2049487829208374,0.9375579953193665,0.44756457209587097,3.1714043617248535,1.7411577701568604,1.1061080694198608,-1.753643274307251,0.4587269723415375,0.2654835879802704,0.4672929048538208,3.354322671890259,0.3959278166294098,0.49042388796806335,-1.4270738363265991,-0.18068720400333405,-0.6623400449752808,0.06988266110420227,1.3985778093338013,0.011325023137032986,0.4294683337211609,-0.09940604865550995,0.9959573149681091,-0.07656044512987137,-0.921405017375946,-1.4798439741134644,-0.5083328485488892,-1.3651015758514404,-2.5720787048339844,0.27177777886390686,1.5489383935928345,-0.9970067739486694,0.6630505323410034,-0.4325544238090515,0.39558184146881104,-1.3553539514541626,0.09248070418834686,-1.8062368631362915,-1.2312451601028442,1.1826010942459106,1.4960486888885498,0.909518301486969,-2.386103630065918,-0.9917325377464294,1.6880344152450562,-0.5886289477348328,-1.2239844799041748,0.03502320870757103,-0.5250980854034424,0.6422173976898193,0.9340927600860596,1.7091827392578125,0.14798200130462646,2.4844725131988525,-0.8197647333145142,-0.0391392819583416,-1.080418586730957,0.9136266708374023,1.1450868844985962,0.26661476492881775,2.7103798389434814,-0.8532262444496155,-0.8280075192451477,0.9035205841064453,1.2924140691757202,0.7429184913635254,0.43726876378059387,2.7460248470306396,-2.490151882171631,-0.11476685851812363,1.9457387924194336,1.211340069770813,0.770143449306488,-0.8038068413734436,0.15192700922489166,-0.44404685497283936,1.3709921836853027,-0.6566348075866699,0.12331002950668335,-0.0216608177870512,-0.6730939149856567,0.9524000287055969,0.4248708486557007,-0.907292902469635,-1.4236003160476685,-0.600575864315033,-0.7901430130004883,-0.0004203945863991976,0.4658246636390686,-1.5862553119659424,-0.8902965784072876,-0.23901620507240295,0.8254057765007019,0.9524396061897278,2.0862154960632324,-0.26318228244781494,0.5406019687652588,-0.8725627064704895,-1.867047905921936,-2.7011427879333496,0.23933915793895721,0.5145649909973145,0.692775547504425,-1.2235829830169678,0.8899691700935364,-0.23660480976104736,1.3226426839828491,1.0606964826583862,0.007365234196186066,-2.0775434970855713,-0.37799426913261414,-1.2051887512207031,0.7063518762588501,0.38629189133644104,0.3973262310028076,-0.4599379599094391,-0.2430628538131714,-1.227736234664917,0.8510672450065613,0.22619974613189697,0.158564954996109,0.6133748888969421,-0.19180577993392944,-2.3561599254608154,0.7233066558837891,-0.43272340297698975,0.24166575074195862,-1.1643160581588745,-1.8584022521972656,-0.3130989670753479,-0.2956486940383911,0.5809857845306396,0.07799655199050903,1.2238775491714478,-3.058598279953003,0.4250025153160095,1.392182469367981,1.3850808143615723,2.807558536529541,-0.8072486519813538,2.4180386066436768,0.022272173315286636,-0.12774528563022614,-1.4543201923370361,-1.3775378465652466,0.5174328684806824,0.6998860239982605,-0.5692355036735535,0.06450971215963364,-1.2975618839263916,1.7043709754943848,-0.7921848893165588,-0.5397086143493652,-0.2956087291240692,0.1870429664850235,-0.7893091440200806,-0.8210773468017578,0.11448833346366882,-1.0878393650054932,-1.4029518365859985,0.048164207488298416,1.7162063121795654,-0.3788072168827057,0.5400781035423279,0.07520058006048203,0.19757884740829468,-0.6508789658546448,-1.3505815267562866,1.5435504913330078,-1.6180040836334229,0.6381250619888306,-1.99338960647583,-0.4559590816497803,-0.6600975394248962,1.7781795263290405,-1.7865500450134277,-0.519709587097168,-1.0760077238082886,-0.833357036113739,2.894972801208496,-0.1580444872379303,0.969477117061615,2.5566399097442627,0.26863887906074524,2.5095009803771973,2.7444703578948975,0.2610439360141754,2.280194044113159,-0.5806736350059509,0.35545021295547485,1.0795671939849854,-0.6553329229354858,0.6429802179336548,1.1636263132095337,-0.9212931990623474,-4.908274173736572,-2.6111831665039062,1.5310406684875488,0.19890113174915314,-1.029541015625,-0.2776332199573517,0.8402979373931885,3.057818651199341,0.10334170609712601,2.6047465801239014,-1.8780313730239868,0.4737623929977417,0.4515104293823242,0.6935526132583618,1.378688931465149,-0.061136770993471146,-1.0063591003417969,-1.3369688987731934,-0.42522159218788147,-1.0699310302734375,-1.617724895477295,-0.3411923944950104,2.870706558227539,0.25940006971359253,0.5672967433929443,1.1068580150604248,-1.3352100849151611,-1.2305980920791626,0.07727557420730591,1.6211719512939453,-0.11532028764486313,-1.923586130142212,0.6090286374092102,0.17815692722797394,-0.33148670196533203,0.2839832305908203,-0.6407471299171448,-2.429072380065918,-2.7626821994781494,-0.9224432110786438,-1.380664348602295,-1.7862669229507446,1.0593153238296509,0.6244097948074341,-0.005310732871294022,0.4870125651359558,0.8839343786239624,-0.9839718341827393,-2.4807376861572266
飞越,0.6471301317214966,0.6364176869392395,-1.8177728652954102,-0.01935437135398388,-0.29867133498191833,-0.5027462244033813,-0.6647370457649231,0.8567466139793396,-0.012300501577556133,0.9483254551887512,-1.3925044536590576,0.04100923612713814,-2.4651193618774414,-0.058434583246707916,0.27488797903060913,-0.3540092706680298,-0.34713509678840637,2.085007667541504,-0.05117141455411911,1.467728614807129,0.5835103988647461,2.304295778274536,0.18806977570056915,-0.5176893472671509,0.16827474534511566,0.20486512780189514,0.80860835313797,1.0357898473739624,-0.1628836840391159,-0.07436219602823257,0.4149121344089508,0.6415884494781494,0.9650877118110657,1.5326027870178223,0.441105455160141,-1.2898762226104736,-0.5028723478317261,-0.34112128615379333,-1.8646587133407593,-0.3986072838306427,-0.04130018875002861,1.1808735132217407,0.19782643020153046,-0.2788560688495636,-0.8410758376121521,0.16115979850292206,-1.7604279518127441,-0.561211884021759,-0.21309223771095276,1.2046064138412476,-2.1372194290161133,-1.0683971643447876,0.025435704737901688,0.6433106064796448,1.3473308086395264,-2.288543462753296,0.7959737777709961,0.28258994221687317,0.0055445218458771706,-0.08823827654123306,1.422843337059021,0.11951934546232224,-0.9069796800613403,1.0817538499832153,0.5097313523292542,-0.0436028353869915,0.19510948657989502,-0.03159923478960991,1.4972351789474487,0.7236032485961914,-0.11746884137392044,-0.8226451277732849,-0.09236901998519897,2.377044200897217,0.7854200601577759,-0.41513562202453613,-0.05797850340604782,-1.2257956266403198,0.3220708966255188,0.8230454921722412,-1.1248717308044434,0.13994549214839935,-0.945801317691803,-0.9163100719451904,0.1879812628030777,-1.2031038999557495,-0.8336120247840881,1.8467665910720825,-0.0761297345161438,-1.381359338760376,0.5876389741897583,0.09117500483989716,0.7984969019889832,-0.8784840703010559,0.18989217281341553,-0.4992917776107788,-0.07758712023496628,0.04987911507487297,-0.16661436855793,0.17190709710121155,0.7928783893585205,-1.01414155960083,0.008450241759419441,-0.6577301025390625,0.09024035930633545,0.4258083403110504,-2.2410435676574707,1.6889982223510742,0.1756608486175537,-1.3412171602249146,-1.1386935710906982,0.451282262802124,-2.055555582046509,-2.17071270942688,-0.589527428150177,0.6334335803985596,-1.6883440017700195,1.6393648386001587,1.5545260906219482,1.333378791809082,1.0330864191055298,-0.42447149753570557,0.4012455344200134,-0.7282443046569824,1.1922107934951782,-1.7723407745361328,-0.4825863540172577,0.27047833800315857,-0.15952347218990326,-0.7575641870498657,-0.5399811267852783,-0.22043763101100922,-0.37361234426498413,-0.11442285031080246,0.08030277490615845,-0.3175565004348755,0.09102701395750046,2.071441888809204,-0.6716696619987488,2.4819962978363037,1.0881589651107788,0.020853016525506973,-1.3300169706344604,-0.5221064686775208,-0.8163191080093384,-0.6001973152160645,-0.15648508071899414,-1.5039840936660767,-0.5106124877929688,0.18013179302215576,0.26267582178115845,-0.8087140321731567,0.8757209777832031,-0.4377034902572632,-0.9252340793609619,1.3742477893829346,0.597126305103302,-0.7576649188995361,-1.3303272724151611,-0.5124143958091736,-0.3742428421974182,1.448622703552246,0.44490548968315125,-0.44939756393432617,-1.4476176500320435,-0.5989031791687012,-0.4151758849620819,-0.12075571715831757,0.15827473998069763,-0.22990401089191437,-1.595314621925354,-1.6891800165176392,-1.4784824848175049,-1.5745733976364136,-0.33803898096084595,0.15342365205287933,1.3059872388839722,1.0053437948226929,-1.2012065649032593,2.4790163040161133,-0.0068028452806174755,-0.9698216319084167,0.8173276782035828,1.0781687498092651,0.7750861644744873,-0.7924859523773193,1.9005976915359497,-0.045582450926303864,1.626796007156372,-2.3192431926727295,0.9726970195770264,2.2242965698242188,-0.00746216019615531,0.5979876518249512,-2.1339266300201416,0.3527994453907013,0.17023999989032745,-0.8518674969673157,-1.5800750255584717,-0.2095802128314972,-0.6014017462730408,0.6171770691871643,1.9175221920013428,-0.7488604784011841,-1.5123553276062012,-0.04349294304847717,0.01803583838045597,1.5300196409225464,-1.445128083229065,1.2747846841812134,-0.6744840741157532,0.2160247415304184,0.3856927156448364,-0.21888302266597748,0.42966213822364807,-1.2058427333831787,0.6392386555671692,0.857405960559845,0.6514750719070435,0.03752349689602852,-2.8556032180786133,0.631033182144165,-0.31403470039367676,-0.7923056483268738,-1.7419986724853516,0.8505942225456238,-2.432098150253296,0.7476447224617004,-2.1481006145477295,-0.2802145481109619,-0.7573509216308594,-0.2172124832868576,-0.3136240541934967,0.05182329937815666,-0.5840084552764893,2.258369207382202,-0.8123824596405029,-0.18319840729236603,0.9860551953315735,0.42346328496932983,0.45288053154945374,0.39538049697875977,0.5577924251556396,0.30274486541748047,0.5406433343887329,2.211050033569336,-0.4186978340148926,-0.027570877224206924,0.21120673418045044,-1.4321688413619995,1.4066861867904663,-0.9885745048522949,-2.0451817512512207,-0.08207817375659943,-1.8456147909164429,1.1043248176574707,0.7562642097473145,-1.5867308378219604,-0.6977140307426453,1.4610611200332642,-0.9922783970832825,-0.8624687790870667,-1.159613847732544,-0.581732988357544,1.106811285018921,3.4797475337982178,-2.4094061851501465,0.6689745783805847,-0.10230830311775208,-0.6930107474327087,-0.17688900232315063,-0.9616388082504272,1.3535401821136475,-0.31891173124313354,-0.09696726500988007,0.5678279399871826,-0.9108549952507019,0.34140464663505554,1.1230429410934448,-0.9047629237174988,0.3470905125141144,0.0022958761546760798,-1.4465219974517822,-1.26317298412323,0.17530888319015503,1.2818799018859863,-1.370681881904602,-0.258175790309906,-0.33876582980155945,-0.6273994445800781,0.5963788628578186,-1.6467406749725342,-0.9747019410133362,2.531190872192383,-1.6045169830322266,-0.8811320066452026,-0.6114723682403564,1.0054231882095337,1.179686427116394,-0.3429363965988159
教育,1.2290029525756836,-1.0421777963638306,1.524677038192749,0.9678640365600586,-1.2903164625167847,0.40927618741989136,-3.1856913566589355,0.8967418074607849,0.057681452482938766,-0.04028299078345299,-0.4638088345527649,1.4667683839797974,-0.15928424894809723,2.4578280448913574,-0.36131036281585693,0.02594914473593235,1.6434623003005981,0.22707407176494598,-3.7023541927337646,-3.9671826362609863,1.524871587753296,-0.7620856761932373,-0.375405877828598,0.39697492122650146,-1.8184090852737427,0.7763015031814575,1.9575021266937256,0.008855783380568027,-2.050281286239624,0.2557646930217743,-0.6461760401725769,1.8994646072387695,-0.8606988787651062,-0.5219516158103943,-0.908668041229248,-0.49717074632644653,-1.875699520111084,-1.1481409072875977,-0.6820595860481262,-0.028207337483763695,1.0890507698059082,0.7448192238807678,-1.485691785812378,-0.7794157266616821,-0.5092668533325195,1.3134469985961914,2.470720052719116,-1.267560362815857,-1.2847744226455688,-1.7433931827545166,-0.6296206712722778,-0.7255814671516418,0.5372092723846436,0.13366062939167023,0.2480258047580719,0.1620669662952423,0.3281347155570984,-0.15057648718357086,1.5284907817840576,2.512040138244629,1.4129877090454102,1.0737864971160889,1.8526660203933716,-1.334985375404358,-1.2201285362243652,1.5434253215789795,1.857253909111023,2.7777786254882812,-0.6115458607673645,0.21823346614837646,-0.5762423276901245,1.1939365863800049,0.08864523470401764,-0.699586808681488,0.4382777810096741,-0.09425631165504456,1.5430721044540405,0.08689133077859879,0.8245767951011658,-1.5201586484909058,-1.612810492515564,0.32676082849502563,0.8119071125984192,-1.37123703956604,-2.9111247062683105,1.8649590015411377,-0.18951280415058136,-1.7247247695922852,2.5895323753356934,-0.5923810601234436,-0.496449738740921,0.03449682146310806,1.4174063205718994,-0.08884764462709427,0.18816450238227844,0.24891413748264313,2.890285015106201,0.17518478631973267,-2.2157576084136963,-0.4234147369861603,1.7997382879257202,-1.3967490196228027,1.3375108242034912,0.3514590859413147,0.977320671081543,-0.3296702206134796,-0.6693397164344788,0.5900147557258606,1.2736951112747192,-1.634872317314148,0.9126852750778198,1.1393918991088867,1.1076432466506958,-0.18800672888755798,-0.5392910242080688,0.02347315102815628,3.3535678386688232,-0.6556601524353027,0.18504193425178528,-0.20338106155395508,1.1114457845687866,-0.005914993118494749,-0.5997759699821472,0.9791130423545837,1.1715987920761108,1.3931370973587036,0.909440279006958,1.0957043170928955,1.773253083229065,-1.7499299049377441,1.0759137868881226,0.11927114427089691,2.085860252380371,-0.06831319630146027,-0.5251258015632629,-0.4603208005428314,-1.0123597383499146,-0.4761148691177368,-0.2457287609577179,-1.8117679357528687,-0.37552303075790405,-0.5665051341056824,0.9371434450149536,0.5566248297691345,-0.183331698179245,1.2401816844940186,-2.3995845317840576,-1.7116912603378296,0.9223542809486389,-0.574577808380127,1.791557788848877,0.2868451178073883,-0.1315387487411499,-0.3986893892288208,-1.2176263332366943,1.0673658847808838,-0.5598381161689758,0.5449498891830444,-1.1183241605758667,-0.13622130453586578,-0.6620373129844666,-0.1508067399263382,0.7323406934738159,-0.2736051380634308,0.8921546936035156,1.895668864250183,1.3936609029769897,-0.44685614109039307,1.8569458723068237,0.7095023989677429,0.8955673575401306,1.1175415515899658,0.15083715319633484,0.2297036349773407,1.979529857635498,1.6648640632629395,-2.0162618160247803,-2.971916913986206,0.9519834518432617,-1.8444160223007202,-0.21974268555641174,-0.4701702892780304,-1.4999780654907227,-0.0753951147198677,1.2446075677871704,-0.07083715498447418,-2.307875156402588,-0.8906574845314026,-3.1769540309906006,0.9022351503372192,-1.87114417552948,0.27631115913391113,-0.4274328052997589,0.43111956119537354,-1.4315117597579956,-0.08799999207258224,0.5724851489067078,-0.009707045741379261,-1.7552961111068726,0.041520312428474426,0.2595694959163666,0.030270246788859367,0.5423070192337036,-1.3013477325439453,0.98003751039505,-0.015516869723796844,1.644645094871521,2.4301955699920654,0.1707802712917328,1.02599036693573,0.47177788615226746,-1.1647253036499023,-1.9167299270629883,-0.7175418138504028,-0.3044746220111847,-0.3823665380477905,-1.194663643836975,1.4057629108428955,-1.3386303186416626,0.5857467651367188,-1.1152949333190918,1.0797332525253296,1.7087711095809937,-0.41365817189216614,-0.6482292413711548,-0.5490225553512573,0.12632079422473907,-1.3598949909210205,-0.14615046977996826,1.6292283535003662,-0.8092619180679321,-1.7717841863632202,1.0533361434936523,0.3277819752693176,-0.3679678440093994,-1.0681430101394653,0.31963396072387695,0.40556588768959045,0.9070451855659485,0.11026683449745178,0.6717988848686218,1.805032730102539,-0.6487352252006531,-0.44845256209373474,-0.8333364725112915,-1.546450138092041,0.8887513875961304,1.0843594074249268,-0.16823714971542358,0.6972410082817078,-0.9388701319694519,1.255991816520691,0.6036911606788635,1.6561607122421265,0.9941968321800232,-1.022290825843811,-0.6039595603942871,0.30251285433769226,1.1257213354110718,-2.1074349880218506,-0.24093222618103027,-1.0936124324798584,0.46862179040908813,-0.7069380879402161,-1.062656044960022,-1.1092771291732788,-0.2869802713394165,-0.8179787397384644,0.3335041403770447,1.8978735208511353,-1.2602492570877075,0.2572108805179596,0.9695168137550354,2.4151296615600586,0.6999708414077759,1.1171875,0.6750321984291077,1.7784837484359741,-0.8303758502006531,1.768585205078125,-0.9039510488510132,2.491562843322754,-2.258007287979126,1.1412651538848877,0.0012605334632098675,-0.7510086297988892,-1.017396330833435,2.005941152572632,-0.3601453900337219,-1.0089319944381714,0.37172627449035645,-2.560368537902832,1.2490233182907104,0.23775477707386017,0.4350510239601135,-0.2754991352558136,0.32071006298065186,-1.6063493490219116,-1.3019275665283203,1.1646513938903809
对象,-0.4030246436595917,-1.780960202217102,-0.29156655073165894,-0.05886992812156677,3.410332202911377,0.6469560265541077,-1.5582836866378784,0.5870228409767151,-1.4216291904449463,0.9783462285995483,-0.7683154344558716,-1.7771968841552734,1.8080438375473022,-1.3858935832977295,-1.4905333518981934,0.27281129360198975,1.119942545890808,0.5319526195526123,-0.9356739521026611,0.7313251495361328,1.157321572303772,-4.426541328430176,-0.5364230871200562,1.2621055841445923,0.8072496652603149,-0.42421993613243103,0.7486653327941895,-0.8182551264762878,-0.2726393938064575,1.7499042749404907,-0.851290762424469,1.1676521301269531,-0.9546354413032532,0.05672765150666237,1.1629245281219482,-0.14817331731319427,-2.29561448097229,-1.3680609464645386,-0.5367875099182129,2.049455165863037,-1.7266154289245605,0.3094467222690582,-3.0172667503356934,-1.2327975034713745,0.13962186872959137,1.5570225715637207,0.5128112435340881,0.7581015229225159,-0.3188348114490509,0.6811206936836243,-0.5780521631240845,-1.1416672468185425,1.0949770212173462,-0.9863583445549011,1.3330227136611938,-1.1591720581054688,-0.2622729241847992,0.19874277710914612,-1.120514154434204,-0.7236018776893616,-0.8722885251045227,2.019374370574951,-0.7454842925071716,-0.21066348254680634,-1.4728094339370728,1.5749672651290894,0.8967812657356262,0.9042321443557739,-2.656675100326538,-2.0896780490875244,0.7797159552574158,1.3089903593063354,-0.3076552152633667,-1.5406056642532349,-1.223490834236145,0.7391244173049927,-1.765957236289978,0.9844575524330139,-1.2356451749801636,-1.6039856672286987,1.3852192163467407,-1.335713267326355,-1.4616167545318604,2.229135274887085,-0.6482304334640503,-0.6294420957565308,0.7710737586021423,-0.4449399709701538,0.6377317905426025,-0.26833808422088623,-1.2524114847183228,-0.8091446757316589,0.8711596727371216,1.015999436378479,-2.334258556365967,-0.881458580493927,2.6245622634887695,1.0747904777526855,-0.415458619594574,0.6430361270904541,1.871823787689209,-1.2294186353683472,-0.6978297829627991,2.1107354164123535,0.022264249622821808,-1.0311198234558105,1.99455988407135,-0.6717448830604553,-1.1042879819869995,2.8375580310821533,1.7479830980300903,0.7537641525268555,-2.3055052757263184,0.4098324179649353,1.6866371631622314,0.9017167091369629,0.2656500041484833,-0.9872937798500061,-0.7789096832275391,0.775538980960846,2.6214349269866943,0.6328756809234619,0.555972158908844,0.41320937871932983,-0.8974617123603821,-1.1146072149276733,-0.5533536076545715,0.8954079151153564,2.9582083225250244,-0.951416015625,0.672834575176239,-0.9307262897491455,1.6634691953659058,-0.7990982532501221,-0.6359025835990906,-0.17456498742103577,0.15929095447063446,0.6535419225692749,-0.37312063574790955,-1.2774738073349,-0.9309102296829224,2.808659315109253,-1.0975021123886108,-1.5643095970153809,2.3694822788238525,-0.08830112218856812,0.26410260796546936,1.0771759748458862,0.9515460729598999,-1.8832451105117798,-0.26609835028648376,-0.4611946940422058,0.016060134395956993,2.024395227432251,0.7442770004272461,-2.6849801540374756,-0.3937221169471741,0.7022520303726196,-0.02693268470466137,-0.8209127187728882,0.7987985610961914,-1.1697297096252441,-0.8421670794487,0.1654416173696518,0.07497690618038177,0.3445616066455841,2.597809314727783,1.305467128753662,0.12470408529043198,0.24642860889434814,-1.5162837505340576,0.3867914080619812,0.6041943430900574,0.24152494966983795,-0.8308119773864746,0.05513022840023041,0.2540488839149475,-1.507482647895813,-1.2208735942840576,-0.9756828546524048,0.007111417595297098,0.048470743000507355,-1.9044026136398315,-0.14170217514038086,0.21155595779418945,1.275529146194458,-0.3043064475059509,2.0227489471435547,-1.5061721801757812,-0.9084726572036743,-1.7282383441925049,0.6878452897071838,2.585536479949951,1.285487413406372,-0.11277555674314499,-1.0102542638778687,0.5312802195549011,-1.159460425376892,1.740602731704712,0.2604448199272156,-0.24166743457317352,0.4174157977104187,1.0575590133666992,-1.432189702987671,-0.4125467836856842,-0.45668351650238037,0.6678783297538757,0.4975844621658325,0.8935196399688721,0.18415160477161407,-2.1364147663116455,-0.19133086502552032,0.41443124413490295,0.5351062417030334,0.4919187128543854,-2.262053966522217,0.41611722111701965,0.13095271587371826,0.7957029342651367,2.233290433883667,0.9131358861923218,0.22009418904781342,-1.0960031747817993,-0.5935384035110474,1.471464991569519,-1.6668225526809692,1.6859875917434692,1.680068016052246,-0.7474482655525208,0.37560173869132996,0.3157517611980438,-0.7988632917404175,1.509927749633789,-1.9320189952850342,-0.9556402564048767,-1.4742766618728638,2.7042009830474854,-0.653190016746521,0.2407781481742859,0.5904912948608398,1.4625444412231445,1.5730106830596924,1.057220697402954,1.5278513431549072,-0.6207873225212097,-2.2456188201904297,-0.6900599002838135,1.6010949611663818,0.11803219467401505,0.3050950765609741,-0.18506263196468353,0.3788639307022095,0.8269439935684204,0.39584994316101074,-0.04857225343585014,0.32778921723365784,2.088116407394409,-0.6196306347846985,2.891733407974243,-2.025325059890747,1.0583266019821167,-0.7371646761894226,1.1590276956558228,0.13108019530773163,-0.29999199509620667,0.09918399900197983,0.36078566312789917,0.4908214211463928,-0.8932080268859863,-1.6087918281555176,0.6495676636695862,-0.15086381137371063,-0.8602200746536255,2.3762288093566895,0.4857446551322937,-0.6120898127555847,1.7900664806365967,0.24331699311733246,0.4331933259963989,1.4583134651184082,0.43918895721435547,-1.5055909156799316,-1.7150532007217407,2.1756882667541504,-0.09248821437358856,1.964690923690796,2.942272663116455,1.3837116956710815,3.372824192047119,-2.649639368057251,-1.8891595602035522,1.161313772201538,-1.189141869544983,1.0033886432647705,1.0751283168792725,0.8880799412727356,0.20471803843975067,2.184877395629883,1.1874516010284424,-1.051040768623352
事业,0.16362956166267395,1.9691429138183594,-0.3834972679615021,-1.6957697868347168,-0.9976420998573303,0.060800742357969284,-1.7269923686981201,0.4065098464488983,-0.06784442067146301,0.9932563304901123,0.23476964235305786,1.1657589673995972,-2.339005947113037,0.055726196616888046,-0.14465466141700745,0.8362048864364624,1.9827524423599243,-1.5201263427734375,-0.6435574889183044,-1.0071450471878052,1.0540329217910767,-0.04256511479616165,-0.24987241625785828,-0.9877103567123413,1.021706223487854,-1.8214999437332153,0.9191110730171204,2.3317277431488037,-0.6087716817855835,0.28980404138565063,-2.497422218322754,2.5362460613250732,0.23342299461364746,3.3930304050445557,-0.5629284381866455,1.5647127628326416,2.450390577316284,-0.6919320225715637,0.0423600934445858,0.29439279437065125,-1.5987521409988403,0.38370415568351746,-2.5202488899230957,0.8051186203956604,0.269365131855011,1.0060147047042847,1.1865237951278687,0.20746691524982452,1.0389493703842163,0.9600620865821838,-0.43489140272140503,-0.5501439571380615,1.019714117050171,0.06331682205200195,-0.7685580849647522,0.5723873376846313,0.19518528878688812,0.17630116641521454,3.3021137714385986,-0.030363013967871666,2.85621976852417,-1.2040117979049683,0.10414892435073853,-2.0253238677978516,-0.5287293195724487,0.4037971496582031,2.057469367980957,2.2447288036346436,-1.4670469760894775,-0.8928455710411072,-1.4035392999649048,0.3845018446445465,1.4846043586730957,-2.389345645904541,1.4925295114517212,-1.1397829055786133,0.38400524854660034,2.3152101039886475,-0.894167423248291,-1.5303318500518799,0.19461733102798462,-1.8362174034118652,1.8962645530700684,-0.3795050084590912,-1.0307694673538208,2.386037826538086,-0.7149245738983154,-0.2326875478029251,1.1030594110488892,-2.3176381587982178,0.7447357773780823,-0.11625497788190842,1.3166325092315674,-0.7665391564369202,-0.12082501500844955,-0.5467098355293274,1.296682596206665,-0.6107828617095947,-2.726019859313965,-0.908389151096344,1.664493203163147,-0.03902733325958252,-1.0004379749298096,-1.6035791635513306,1.1310899257659912,-0.9176456332206726,0.3404718339443207,-0.06547759473323822,0.03652036935091019,1.640955924987793,-1.1698888540267944,-2.1099393367767334,0.5765222311019897,-0.4292624592781067,-1.3511885404586792,-1.9974526166915894,1.4042929410934448,0.7035919427871704,1.9991745948791504,1.2227996587753296,1.4713432788848877,-1.384027123451233,-0.7727057337760925,-0.3987293839454651,1.0494959354400635,-0.3723599314689636,0.3546248972415924,1.5920168161392212,-1.0468266010284424,-2.600090265274048,1.195543646812439,1.6840007305145264,-0.7894394993782043,-0.7171015739440918,-1.4772478342056274,0.9181190729141235,-0.9702727794647217,-1.2701905965805054,-0.7213401794433594,1.3600786924362183,0.3555363714694977,0.07404596358537674,0.04290856420993805,-0.047374606132507324,-0.6498571634292603,-0.6653979420661926,-0.6773916482925415,-2.273531675338745,1.8733115196228027,-2.2229859828948975,-0.15677665174007416,0.7093584537506104,-0.41084182262420654,1.6850553750991821,1.1961714029312134,-1.4356564283370972,1.0210548639297485,0.06300003081560135,0.6563171148300171,-2.407330274581909,-0.019543465226888657,0.919104814529419,2.0813987255096436,-1.1238853931427002,0.8252241611480713,0.7535340785980225,1.706481695175171,0.6003925204277039,0.9084358811378479,0.5945978164672852,-0.20529021322727203,-1.0067224502563477,0.4720369577407837,0.18760517239570618,-0.3506206274032593,2.495330572128296,-3.128547430038452,0.11653998494148254,-2.126856565475464,-1.9929862022399902,1.584168553352356,-1.890105962753296,-1.71576726436615,-0.020595792680978775,-0.03204166516661644,0.5838490724563599,-0.5513999462127686,-0.09008385241031647,-1.2664004564285278,0.04323124885559082,-2.024524450302124,1.0216798782348633,0.5396630764007568,0.8798562288284302,-0.3778309226036072,0.14486026763916016,3.170712947845459,-0.09647990763187408,-0.10528239607810974,-0.48048970103263855,-0.8892255425453186,-0.6320743560791016,0.6051862239837646,-0.28586870431900024,-2.229818820953369,0.4937097728252411,-0.4394264221191406,-0.5966002345085144,-1.729290246963501,-0.41857391595840454,1.1516072750091553,-0.05814119800925255,-0.34132328629493713,0.1732645332813263,-1.1859990358352661,-0.23842844367027283,-1.3896400928497314,-0.9373511672019958,1.5168074369430542,0.41570645570755005,-1.0534898042678833,1.281101107597351,-1.9741945266723633,0.7635312676429749,1.1476938724517822,-2.179335355758667,0.6306366324424744,-2.974168539047241,-1.6658600568771362,1.6216676235198975,-1.0692529678344727,0.05275597423315048,1.1286259889602661,1.2558846473693848,1.1431987285614014,1.630866527557373,-0.24896745383739471,1.2930757999420166,0.37850332260131836,0.42644479870796204,0.8715911507606506,0.38316184282302856,0.058709535747766495,-0.6185892224311829,-3.134584903717041,-1.2020567655563354,1.7753854990005493,-1.2373058795928955,1.4482080936431885,0.6985630393028259,-0.4670526385307312,-0.7137748599052429,-1.8401994705200195,-0.14006850123405457,0.37600237131118774,0.4776096045970917,-1.451114535331726,2.280646324157715,1.4176926612854004,-1.0471018552780151,1.4936919212341309,-1.6971691846847534,1.0902156829833984,1.1955674886703491,1.0788296461105347,0.4822397530078888,-0.7498689293861389,-0.4190836548805237,-0.9570447206497192,1.2719563245773315,0.491733580827713,-0.5488541126251221,0.3436158299446106,0.2730658948421478,0.9728248119354248,2.2692368030548096,2.0116920471191406,0.2259935587644577,0.44283491373062134,0.06845329701900482,-1.498879075050354,1.6056718826293945,-1.7803761959075928,-0.6307191848754883,-0.999384880065918,-0.2322169542312622,-1.033545732498169,0.880824863910675,-1.069002628326416,-2.6256229877471924,0.6319400072097778,-2.40293288230896,0.4574691951274872,1.9656734466552734,1.1640609502792358,-0.25643739104270935,2.443479061126709,0.6593611836433411,0.005294188857078552,0.11619781702756882
发展,0.6984522342681885,0.9620286822319031,-0.07771451026201248,-0.9317935705184937,-2.5672528743743896,2.60931396484375,-2.4616806507110596,1.314682126045227,-1.1982098817825317,-1.361206293106079,-1.9274135828018188,-0.3858586549758911,-0.22540675103664398,1.719325065612793,-1.7745651006698608,-2.0921216011047363,-1.2159558534622192,0.3854042589664459,-4.1609272956848145,-2.762526035308838,-1.7438241243362427,-0.8941072225570679,0.07230883836746216,-0.7530167102813721,-0.9207749962806702,-1.8498286008834839,2.62998628616333,-0.8069405555725098,-2.262579917907715,2.2611865997314453,-0.6674798130989075,-0.05201151967048645,-0.6663395762443542,0.5489665865898132,-1.5857715606689453,0.3455279469490051,1.2443052530288696,-2.1204888820648193,-0.8159147500991821,0.91738361120224,-2.1844115257263184,0.4704054296016693,-0.6353783011436462,-1.3428477048873901,0.36126384139060974,-0.36957138776779175,1.1500253677368164,1.4885321855545044,-1.2095112800598145,-0.4639572501182556,-1.2034084796905518,-1.085219383239746,1.5184956789016724,-0.6157760620117188,-0.9967164993286133,-0.10375416278839111,0.28048330545425415,0.8339306116104126,3.217082977294922,-0.07481135427951813,1.6402698755264282,0.8198704719543457,-0.4192871153354645,-0.45632219314575195,0.7076954245567322,-1.240365743637085,-0.06842397153377533,3.390279531478882,-1.3413207530975342,-0.11424102634191513,0.02672670967876911,0.12962640821933746,0.46092745661735535,-2.5135796070098877,1.5646551847457886,-0.31712955236434937,3.8431990146636963,-0.7074496746063232,2.2938392162323,-0.1596451997756958,-0.02122039720416069,-0.6090794205665588,-0.438078910112381,-1.1586148738861084,-2.883767604827881,0.19009087979793549,0.6933789253234863,1.8372480869293213,0.5363370776176453,-1.404707431793213,-0.08545331656932831,-1.7921416759490967,0.6845552921295166,-1.1424695253372192,2.292389392852783,-1.214266061782837,0.7613411545753479,0.21755877137184143,-1.347183346748352,-1.2742124795913696,1.8035893440246582,-1.2819995880126953,0.022144807502627373,0.5604419112205505,-0.3496449887752533,0.09857654571533203,-0.04158008098602295,1.6436915397644043,0.02729090116918087,-1.47575843334198,-0.9485960602760315,-1.0315228700637817,0.3294544816017151,0.6403678059577942,-1.7580726146697998,-0.8214901089668274,-1.0554368495941162,-0.5536282658576965,1.4430164098739624,0.608594536781311,1.193893551826477,-0.620164692401886,-0.555184006690979,2.4117655754089355,0.10965300351381302,-0.456465482711792,-1.780765414237976,-0.160768061876297,0.42674559354782104,-2.183967351913452,3.16803240776062,-0.20500192046165466,-0.7085477113723755,1.3574904203414917,-1.1085575819015503,-3.083890914916992,-1.8180174827575684,0.015113076195120811,-1.9987573623657227,0.2624284029006958,-0.35915645956993103,1.276470422744751,2.0944995880126953,-2.813323974609375,-0.7141383290290833,-1.8440980911254883,-1.2934843301773071,-0.5135090947151184,1.0605525970458984,-1.0989562273025513,1.3935492038726807,0.7723259925842285,1.393210768699646,1.0945454835891724,0.594790518283844,-2.400315284729004,-0.9939393401145935,2.22407603263855,-0.8668687343597412,-0.718075156211853,1.0152018070220947,-0.8778760433197021,0.9841286540031433,-0.7627674341201782,-0.25235575437545776,-0.9258196949958801,0.9610621333122253,-2.7854745388031006,0.8493521213531494,-0.5183843970298767,0.734653651714325,-0.28349360823631287,-2.1378822326660156,-1.0639965534210205,0.3440816104412079,1.2477902173995972,0.21954815089702606,1.0473307371139526,1.2385249137878418,-1.7794400453567505,-1.8196916580200195,-0.6256288886070251,-1.7396409511566162,-1.1906001567840576,0.17688627541065216,1.0872009992599487,-0.483257919549942,-0.13446266949176788,-2.1016573905944824,-0.8136286735534668,-2.0870578289031982,0.02981572598218918,-0.2849528193473816,2.2730143070220947,-2.5965676307678223,-2.2331626415252686,0.6388393640518188,-1.9434239864349365,-0.4756630063056946,-3.035051107406616,-2.1804044246673584,-1.9396765232086182,-0.6862366795539856,0.9744060635566711,-1.0026452541351318,-1.802329421043396,0.9250505566596985,1.3654065132141113,0.1915065199136734,-1.4213966131210327,1.9175570011138916,0.06029735133051872,-1.5572774410247803,-1.1520814895629883,-0.21618948876857758,-1.2827976942062378,-0.9519076347351074,1.2520866394042969,-1.3687658309936523,0.7349910736083984,0.7107141017913818,0.6445398330688477,1.3160676956176758,2.093066692352295,-2.0965778827667236,0.7062849998474121,-0.8210261464118958,-2.248366355895996,-1.2996010780334473,-0.9341745972633362,-0.5623378753662109,-1.9364638328552246,1.350305438041687,2.1192357540130615,0.6245179176330566,0.764250636100769,1.110361933708191,0.35453253984451294,0.372996062040329,2.184525489807129,2.381645917892456,3.1912801265716553,-0.2425341159105301,-1.7395597696304321,-2.3945648670196533,-0.4295033812522888,0.9425807595252991,-0.21477924287319183,-2.015596389770508,0.061243459582328796,-2.6144344806671143,-0.318190336227417,-0.3380391597747803,-1.0839701890945435,-0.5570576786994934,-0.9474430680274963,-0.6397744417190552,-0.22498883306980133,1.121660828590393,-0.8432782888412476,0.11007394641637802,-0.011990310624241829,0.5245359539985657,0.367544561624527,0.4292471706867218,0.6911052465438843,-1.3085280656814575,-0.48572516441345215,-1.383840560913086,-0.28742438554763794,0.8580267429351807,-0.5327343940734863,0.9135420918464661,0.7721747756004333,-0.9491597414016724,0.21516886353492737,0.2114093005657196,1.482215404510498,-1.8805389404296875,0.4482146203517914,0.752055287361145,1.0441662073135376,-1.204243540763855,1.5204596519470215,0.36610665917396545,1.006812572479248,-1.7811185121536255,-1.833150863647461,-0.5646392107009888,-2.4444305896759033,-1.7437664270401,-2.3425354957580566,0.8112437725067139,-1.0901827812194824,1.6517841815948486,1.267886757850647,0.4883626699447632,-0.8632479310035706,-1.9288504123687744,-0.6344438195228577
学生,2.4274003505706787,0.6676017642021179,-0.3195067048072815,-1.5146596431732178,0.1727207750082016,1.452633261680603,-0.35073041915893555,1.008644461631775,0.4949832856655121,-0.45167276263237,-2.1444039344787598,-0.3783314526081085,-1.0853773355484009,2.07775616645813,0.0663750022649765,0.747175395488739,1.621368408203125,-2.252326488494873,-1.6297706365585327,-1.0349071025848389,-1.1834450960159302,-1.431551218032837,0.8203704953193665,-0.759503960609436,0.02453678846359253,0.3526619076728821,0.5756027698516846,0.6613054871559143,-0.07520250976085663,-0.32644376158714294,0.2907957434654236,-0.30388325452804565,0.27436545491218567,-0.359199583530426,-1.6898772716522217,0.6419627070426941,-2.4325668811798096,0.2887516915798187,2.1714417934417725,0.37906402349472046,-0.06127474829554558,0.21229419112205505,-3.430680751800537,0.33024197816848755,-0.14084962010383606,-0.8149098753929138,-0.8671942353248596,-0.8729926347732544,-0.03621916100382805,0.48681217432022095,0.09763206541538239,1.2205392122268677,-1.3339409828186035,0.7441984415054321,1.9624731540679932,-0.03607267886400223,-2.8759710788726807,1.9408135414123535,0.7206252217292786,-0.08380004018545151,0.40922555327415466,-0.15805502235889435,1.662166714668274,-0.3993189334869385,-2.2350826263427734,1.5327835083007812,-0.7549910545349121,0.9190800786018372,0.5022585391998291,-0.784062385559082,1.8431390523910522,1.435198187828064,0.9197763800621033,-0.42131611704826355,0.5060980916023254,1.5308856964111328,-0.534180760383606,-0.5038022994995117,-0.6170633435249329,0.14356011152267456,-2.041274070739746,-2.362490653991699,-1.5808595418930054,0.40731558203697205,-0.48636549711227417,-2.901843547821045,1.0781446695327759,-3.164966344833374,0.15329208970069885,-0.8078912496566772,0.38397035002708435,1.126283049583435,-0.01586245745420456,1.209523320198059,-0.37848588824272156,0.34678420424461365,1.6899408102035522,1.578308343887329,-1.876854658126831,0.055889204144477844,-0.8843470215797424,-0.668521523475647,0.7638744115829468,0.26817798614501953,-0.597614049911499,0.576040506362915,1.2288093566894531,2.9573206901550293,-0.6444916725158691,0.23549355566501617,1.538079857826233,-0.43627241253852844,0.6693174839019775,-2.284198522567749,0.13448697328567505,0.042224910110235214,1.3706817626953125,-1.169102668762207,-1.757171630859375,-0.07263399660587311,0.7780779600143433,0.5140701532363892,1.2674745321273804,0.4085436463356018,0.6037304997444153,-0.7883595824241638,2.3954904079437256,-0.23707064986228943,1.6373783349990845,1.0001896619796753,0.562788188457489,-0.9742347002029419,-0.4481993317604065,-0.056182801723480225,-2.136502742767334,-1.689730167388916,-2.1730844974517822,1.7363947629928589,0.44511017203330994,-1.7508620023727417,-2.797074794769287,-0.41656434535980225,0.39672765135765076,-2.286910057067871,1.9879189729690552,0.7612072229385376,0.13437700271606445,0.7754893898963928,0.9057824015617371,0.15532590448856354,0.5692418217658997,-1.5033637285232544,-0.5601193904876709,1.043440818786621,-0.20962855219841003,-1.0436861515045166,0.8785082697868347,2.7797374725341797,-1.032585859298706,2.1887001991271973,0.053801167756319046,0.2131766825914383,1.0246094465255737,0.20933963358402252,1.0006133317947388,-1.6735584735870361,-0.5782981514930725,1.5535640716552734,0.4844690263271332,0.018608365207910538,-1.0935451984405518,-0.11559233069419861,0.5918384194374084,0.003208573441952467,1.8467546701431274,2.1782267093658447,1.046303629875183,-6.0106377601623535,1.7313392162322998,-1.45237398147583,1.4665285348892212,1.3203774690628052,-0.2340497523546219,-1.4136765003204346,-0.548393189907074,-0.14942961931228638,-0.1644551306962967,1.0239700078964233,-1.2754729986190796,2.4089441299438477,-0.7169970870018005,2.4723644256591797,1.0431336164474487,0.24461878836154938,0.5014877915382385,-1.0546668767929077,-0.04700472205877304,-1.1307295560836792,1.4590728282928467,-1.9943195581436157,-0.029042458161711693,0.5150038003921509,0.6397930383682251,-1.71165931224823,0.8678264617919922,1.2070603370666504,0.54615318775177,2.854515552520752,0.13450992107391357,1.2517393827438354,0.48469531536102295,-1.6997957229614258,-2.0805094242095947,2.1596953868865967,-0.7763893008232117,0.36947229504585266,-1.145639181137085,2.305556058883667,-0.8955638408660889,1.0909830331802368,-1.2235560417175293,-0.5925915837287903,2.172325611114502,-1.4448062181472778,0.09258417785167694,0.36956629157066345,2.0883936882019043,0.05072967708110809,-0.5531234741210938,1.7853845357894897,-0.6914584636688232,-0.9332666397094727,0.7428682446479797,-0.1969345510005951,-0.19437727332115173,-0.978522539138794,1.9119282960891724,0.1945313662290573,1.8002924919128418,0.5811038017272949,-0.24054478108882904,1.4589593410491943,1.428706169128418,1.3905218839645386,-0.6275588274002075,-3.0655319690704346,-1.1372313499450684,0.22898542881011963,-0.9583989977836609,-0.08162616193294525,-1.8892325162887573,-0.5206745266914368,0.7584895491600037,2.5110411643981934,-1.2498198747634888,0.3903631865978241,-0.8482473492622375,1.1543269157409668,2.2539784908294678,-0.36745941638946533,0.8714079260826111,-0.3045040965080261,0.47036129236221313,-1.4577643871307373,-1.7240896224975586,0.10622632503509521,-0.9472326636314392,-1.2032448053359985,-0.026650166139006615,0.7330891489982605,0.48073920607566833,-1.0590051412582397,0.15348748862743378,2.988537311553955,0.7248193025588989,-0.26987937092781067,1.5153173208236694,0.04614045470952988,-0.08234784752130508,0.4004153609275818,0.453748494386673,0.05732385069131851,-0.44591447710990906,0.9957892298698425,0.22552943229675293,0.6784207820892334,1.3375217914581299,0.3143123686313629,-0.250425785779953,-0.6646475195884705,-1.6895644664764404,0.5086709260940552,-0.5711305141448975,-1.5816891193389893,2.4419519901275635,-1.3175716400146484,1.0456279516220093,-0.2966093122959137,0.38108667731285095,-0.7530199289321899
有利于,0.7520780563354492,-1.1698896884918213,0.7170928120613098,-0.7106684446334839,-1.2457740306854248,0.165618434548378,0.152289018034935,-0.3262164294719696,-1.104851245880127,-1.957503318786621,-1.4546853303909302,-0.46297523379325867,-0.6839404106140137,0.8764757513999939,-0.46465572714805603,-0.9612231850624084,-0.8530035018920898,-0.12138688564300537,-0.25637680292129517,-1.5775268077850342,-0.30193641781806946,-1.0970224142074585,0.770082950592041,-1.014419436454773,-2.43953800201416,-0.5350717902183533,0.9216870665550232,-1.1027617454528809,-0.5371705293655396,1.7619210481643677,1.1488114595413208,-0.4184442460536957,0.04634234681725502,1.2121254205703735,-0.07325795292854309,-0.3828350603580475,-0.3990592062473297,-1.9864037036895752,0.41220197081565857,-0.23697666823863983,0.6838745474815369,-0.6533392071723938,1.5270723104476929,-0.290314257144928,0.3003242015838623,0.7106533646583557,-0.13403713703155518,0.32242417335510254,-1.280361294746399,-0.1804373860359192,-1.0926660299301147,1.1021133661270142,1.493634581565857,-0.05415990948677063,-1.268967866897583,0.46281805634498596,0.014203902333974838,1.8428152799606323,0.9564417004585266,-0.8302825689315796,-0.8164863586425781,-0.33346444368362427,0.780579149723053,0.4750765264034271,-0.7076428532600403,0.6507835388183594,0.02407929301261902,1.999344825744629,-0.4151841700077057,-1.6678706407546997,-0.5839119553565979,-1.1213815212249756,-1.3551805019378662,-1.8269368410110474,0.5232733488082886,0.8745816946029663,0.5728338360786438,1.096947431564331,-0.3819768726825714,0.3769882321357727,2.6454806327819824,0.9335963726043701,0.3100648820400238,-1.0151395797729492,-0.3982689678668976,0.8779223561286926,0.24254626035690308,0.3971373438835144,-0.19963686168193817,-0.17957395315170288,-0.2629011273384094,0.004959790501743555,-0.3158797323703766,0.21039485931396484,-1.1263113021850586,-0.7009709477424622,1.6020259857177734,0.2764025628566742,0.21284820139408112,-0.4368988275527954,0.8729508519172668,-0.19671399891376495,-0.1362413465976715,0.3302445709705353,-0.4201798737049103,2.4044203758239746,0.03930890932679176,-0.03469863533973694,0.727181077003479,-0.1956334263086319,-0.9329215288162231,0.29914993047714233,-2.0619778633117676,1.226277470588684,0.2051830142736435,-1.6915045976638794,1.0628283023834229,-0.4691847264766693,-0.6380136013031006,0.9362143278121948,-0.4839884340763092,-0.9865111112594604,0.17365068197250366,1.5779857635498047,0.357270747423172,-0.07097382843494415,0.5738058090209961,1.695138931274414,-0.1522507518529892,-0.6706745624542236,1.0553224086761475,1.8157074451446533,0.7040502429008484,1.3295326232910156,-0.8736349940299988,0.3561134338378906,1.3950647115707397,-0.5410242080688477,-1.058925986289978,0.4466789960861206,-0.5694097280502319,0.3395271599292755,-1.40738046169281,0.5832787156105042,1.4530558586120605,1.5211896896362305,-2.641950845718384,-0.48883625864982605,-0.4477784037590027,-1.2513152360916138,0.3065926134586334,-0.06637149304151535,0.060790546238422394,2.1260976791381836,0.24408069252967834,-2.0160040855407715,-0.3963549733161926,1.3495569229125977,-0.6604865789413452,-1.2187001705169678,0.5258609652519226,-1.9339574575424194,0.41145560145378113,-1.865435242652893,1.3359650373458862,0.13761577010154724,0.41808709502220154,-0.3729977011680603,0.415286123752594,-0.48449718952178955,-0.9367190599441528,-0.14608487486839294,0.22946132719516754,-0.3566662669181824,1.0943800210952759,1.2379323244094849,0.005614655092358589,-0.23892426490783691,-0.0747862160205841,0.48755988478660583,-0.8460437059402466,-0.2775406241416931,-0.8669915199279785,0.3322128355503082,1.6784056425094604,1.302223563194275,-0.4992886483669281,0.2955353558063507,-0.5826517343521118,-0.18320047855377197,-0.357163667678833,-0.6086385846138,-0.286321759223938,1.4961727857589722,1.453953504562378,1.1756653785705566,-0.2850586175918579,0.5754202604293823,-0.6876118779182434,0.6248827576637268,-1.4315109252929688,-1.1088160276412964,0.6761767268180847,-0.62043696641922,1.0797803401947021,0.24810397624969482,1.1061030626296997,-1.1136358976364136,0.9674662351608276,-1.4360963106155396,-0.3623773455619812,-0.4172244369983673,-2.0506529808044434,1.5805814266204834,-1.3160136938095093,0.3235507011413574,1.4655036926269531,0.329340398311615,0.7384033799171448,-0.3514503836631775,0.0015906632179394364,1.593636393547058,0.9316563606262207,-0.19965536892414093,-0.8180366158485413,0.08338648825883865,2.0053720474243164,0.5006937384605408,-0.8068145513534546,0.15249904990196228,0.07622931897640228,0.3866932988166809,-0.08122392743825912,1.2004950046539307,-2.4972245693206787,-0.6287575960159302,0.14323216676712036,-0.25503337383270264,-0.8182336688041687,-1.1095694303512573,-0.8275039792060852,1.0225187540054321,-0.3347053825855255,0.7372437715530396,-1.9164637327194214,0.11110229045152664,-0.8569575548171997,-0.3868095874786377,0.3785261809825897,0.14028137922286987,-1.4120275974273682,0.49233707785606384,-1.3960273265838623,-0.6573784351348877,0.14445990324020386,-0.11780959367752075,-0.9141362309455872,-1.5592329502105713,1.2719149589538574,-0.774599552154541,0.2799758315086365,-2.3160576820373535,-0.8187428116798401,0.8677972555160522,0.76786869764328,-1.3617432117462158,-1.1275506019592285,-0.43638721108436584,-0.9606682062149048,-0.5897631049156189,0.2584517002105713,-0.7631723880767822,0.296229749917984,1.1273717880249023,-1.1648741960525513,0.9623937606811523,0.40841689705848694,1.0437942743301392,0.6777282953262329,-0.8167025446891785,1.9703058004379272,0.6132210493087769,-1.0969346761703491,0.2990202307701111,-0.04086553305387497,0.11471833288669586,0.7293756604194641,0.7125099301338196,-1.1934950351715088,0.05295694246888161,0.3403131365776062,-1.9291832447052002,0.06264816224575043,-0.8070130944252014,-0.59328693151474,-0.6284967064857483,0.22327496111392975,0.0161015335470438,-1.8454358577728271,-0.7500156164169312
成为,1.8922667503356934,0.22689059376716614,-1.7998090982437134,-2.0766565799713135,-0.26703447103500366,0.25606951117515564,-0.6925185918807983,0.6948532462120056,-0.2876099646091461,0.4491695761680603,-0.26350530982017517,2.7662031650543213,-1.3159123659133911,0.36754903197288513,-0.9091533422470093,-1.9852827787399292,-0.5931742787361145,0.7579755187034607,-2.585110902786255,-0.6605353355407715,0.15718252956867218,-0.056562136858701706,2.1251087188720703,0.6657886505126953,0.9518519043922424,-1.2974709272384644,2.3877999782562256,-4.445971488952637,-0.6315659880638123,1.392110824584961,-0.21560311317443848,-0.7697763442993164,0.7975090742111206,1.6679526567459106,-0.9752196073532104,-1.2453749179840088,-2.060415744781494,-0.8855288624763489,-2.177459955215454,-1.4378705024719238,0.6723450422286987,-1.4915417432785034,-1.983201265335083,-1.9910292625427246,-0.8741739392280579,1.0576281547546387,-1.1065025329589844,2.5673718452453613,0.9760076403617859,-2.766761302947998,0.8557994961738586,0.27961331605911255,-0.5489410758018494,-0.06438560783863068,-1.0220106840133667,-0.228555828332901,0.0809372216463089,1.409505844116211,0.22707031667232513,0.9599090218544006,-0.9500102996826172,-2.047044515609741,0.47336363792419434,-0.6181118488311768,-0.054155245423316956,1.1760358810424805,0.7040864825248718,1.1371572017669678,-1.1475287675857544,-3.486908197402954,-0.8588487505912781,0.3161708414554596,-1.7151761054992676,-2.122260570526123,2.592313051223755,0.1834685504436493,-0.31903383135795593,1.088320016860962,1.5615344047546387,0.738369345664978,0.8317614197731018,-0.6021716594696045,1.87401282787323,1.2985209226608276,1.9018737077713013,-2.15130352973938,1.914412498474121,-0.9864941835403442,1.4723080396652222,-0.04974296689033508,0.7858188152313232,-2.9519264698028564,0.31503742933273315,0.6584400534629822,1.3863214254379272,0.883579432964325,0.9667993187904358,-2.4432425498962402,-1.2484652996063232,-2.626267194747925,1.2420920133590698,-0.6648529767990112,0.7584893703460693,-1.9006459712982178,1.5161280632019043,1.1083033084869385,-1.5835016965866089,0.1774885207414627,0.30152982473373413,0.2634776532649994,0.6854877471923828,-0.27783772349357605,0.21077947318553925,1.6987557411193848,-0.3311191201210022,-1.2291139364242554,-0.6678516864776611,0.6545844674110413,0.04517338424921036,2.7211008071899414,-0.21608154475688934,-1.5967289209365845,-1.598831057548523,0.3279232382774353,1.4670257568359375,-1.0069055557250977,2.2270047664642334,0.578008234500885,2.247385263442993,-1.8148472309112549,0.8117785453796387,-1.753570795059204,-1.1738324165344238,-0.32423412799835205,-0.3540475368499756,-0.7273693084716797,-1.665178656578064,-1.8140658140182495,0.1657227724790573,1.224757432937622,-0.7622473835945129,0.7431016564369202,2.8164255619049072,-0.6537079215049744,-0.6135866045951843,-1.3500374555587769,-3.648557424545288,-1.1539541482925415,2.3939390182495117,-0.35980668663978577,0.2585773169994354,0.02451823651790619,-0.7335641384124756,0.9290795922279358,0.7029772996902466,-1.1948931217193604,-0.9846137166023254,0.6356474757194519,0.3937557339668274,1.4776740074157715,-0.2886037528514862,0.23343509435653687,0.5316281914710999,-0.47209227085113525,1.506371259689331,0.38637182116508484,-0.1714973896741867,-1.3995614051818848,-0.5770984888076782,-0.2395586520433426,1.6130772829055786,-0.4523319900035858,-0.5871312618255615,1.1282806396484375,-1.8199480772018433,1.3296170234680176,-0.2641606628894806,-1.4701635837554932,0.2116493135690689,0.019640445709228516,0.15129533410072327,0.6450597047805786,0.10181140899658203,-3.824709415435791,-0.5760602951049805,0.2225017249584198,-1.922731876373291,-1.4887275695800781,-0.05910809338092804,-0.11826486140489578,-1.8642092943191528,-0.9110378623008728,2.461359977722168,1.838030457496643,-1.7723177671432495,-2.361252784729004,0.8698432445526123,3.318681240081787,2.7860236167907715,1.2864071130752563,1.8851388692855835,-2.2704803943634033,-0.08551491051912308,-1.8912913799285889,0.3045482039451599,-0.953660786151886,1.3751633167266846,-2.4589102268218994,-1.035447359085083,2.330418586730957,-2.562160015106201,1.0941053628921509,0.7873356938362122,-0.2200758457183838,-0.6274834275245667,0.06507277488708496,-1.567182183265686,2.4436025619506836,0.5008425116539001,2.6257143020629883,0.43569183349609375,1.5178111791610718,-0.7029318809509277,1.706363320350647,-2.7360339164733887,-0.11431172490119934,2.325348377227783,1.117474913597107,-2.683565378189087,-0.16997860372066498,3.723081111907959,-2.0885231494903564,2.3721535205841064,-1.2440211772918701,-1.2256230115890503,-0.05856882035732269,2.77219557762146,0.42221611738204956,0.5232045650482178,1.924038290977478,0.04649871960282326,3.1303441524505615,0.777526319026947,1.2003111839294434,1.6899386644363403,-0.46756935119628906,-1.0492345094680786,-3.6407785415649414,2.2995965480804443,1.1864025592803955,-0.8474414348602295,-0.8809462785720825,-3.092946767807007,-1.738497257232666,-2.3088369369506836,-3.1639795303344727,-3.2366294860839844,0.29509401321411133,0.21996374428272247,-0.9711921215057373,-2.1566123962402344,-1.3413820266723633,1.0536525249481201,1.8364800214767456,-0.11818797141313553,-1.4305369853973389,-3.8313660621643066,-0.455852210521698,0.8540528416633606,-1.3613150119781494,0.8415635228157043,-1.7884187698364258,3.5509746074676514,0.47787514328956604,1.6445006132125854,0.47033485770225525,-0.2364962249994278,3.729499340057373,-1.3183612823486328,-0.2257676124572754,-1.4461103677749634,1.539745807647705,-1.5982099771499634,-0.896293580532074,-1.1235661506652832,0.4933403730392456,1.1675188541412354,1.3426886796951294,-1.103575587272644,-1.6397911310195923,-0.26266586780548096,-0.703446626663208,-0.9506804347038269,1.6211061477661133,2.556931734085083,-0.32140737771987915,1.2081894874572754,-0.4995081424713135,-1.7137562036514282,2.1414225101470947
