word,0,1,2,3,4,5,6,7,8,9,10,11,12,13,14,15,16,17,18,19,20,21,22,23,24,25,26,27,28,29,30,31,32,33,34,35,36,37,38,39,40,41,42,43,44,45,46,47,48,49,50,51,52,53,54,55,56,57,58,59,60,61,62,63,64,65,66,67,68,69,70,71,72,73,74,75,76,77,78,79,80,81,82,83,84,85,86,87,88,89,90,91,92,93,94,95,96,97,98,99,100,101,102,103,104,105,106,107,108,109,110,111,112,113,114,115,116,117,118,119,120,121,122,123,124,125,126,127,128,129,130,131,132,133,134,135,136,137,138,139,140,141,142,143,144,145,146,147,148,149,150,151,152,153,154,155,156,157,158,159,160,161,162,163,164,165,166,167,168,169,170,171,172,173,174,175,176,177,178,179,180,181,182,183,184,185,186,187,188,189,190,191,192,193,194,195,196,197,198,199,200,201,202,203,204,205,206,207,208,209,210,211,212,213,214,215,216,217,218,219,220,221,222,223,224,225,226,227,228,229,230,231,232,233,234,235,236,237,238,239,240,241,242,243,244,245,246,247,248,249,250,251,252,253,254,255,256,257,258,259,260,261,262,263,264,265,266,267,268,269,270,271,272,273,274,275,276,277,278,279,280,281,282,283,284,285,286,287,288,289,290,291,292,293,294,295,296,297,298,299
实现,0.5551396608352661,-0.8804975152015686,0.6044899821281433,-0.01921490579843521,-0.046288274228572845,1.0322710275650024,-1.0620450973510742,1.0550557374954224,-1.509097933769226,-0.9524046182632446,-1.0618352890014648,-0.235684335231781,-1.720482349395752,-1.7224938869476318,-2.4796578884124756,-1.950964331626892,-0.22143816947937012,0.2263391762971878,-2.212343454360962,0.43846428394317627,-0.13976529240608215,0.6768694519996643,1.018008828163147,0.7009941935539246,2.0212481021881104,-1.0925301313400269,0.601258397102356,-0.209716796875,-0.8589752912521362,1.1654105186462402,0.9902629852294922,-1.2568730115890503,-0.4510587453842163,1.131783127784729,-1.2191781997680664,0.09258702397346497,-1.0656232833862305,-1.3483017683029175,-1.5665292739868164,0.017934618517756462,0.7931814789772034,-0.38968467712402344,-0.7005403637886047,-1.690803050994873,-1.2393385171890259,1.37173593044281,0.7244397401809692,1.4821603298187256,-1.2122141122817993,-0.8430168628692627,-0.5192746520042419,0.7142978310585022,0.6246457099914551,-0.07689274102449417,-1.0148422718048096,-1.2148674726486206,1.25443696975708,-0.621665894985199,1.5408430099487305,0.1893235445022583,0.9866126775741577,-0.2362622171640396,1.4295703172683716,2.1486918926239014,-1.2049580812454224,1.692543625831604,1.2791943550109863,1.0533090829849243,0.33622488379478455,-2.000683069229126,-2.22438383102417,-1.6116523742675781,-1.0711241960525513,-1.3616406917572021,0.6281946301460266,-1.47675359249115,1.3043348789215088,-0.5082381367683411,-1.6718419790267944,2.2175052165985107,-1.111021637916565,1.352550983428955,0.6406086087226868,-0.06284177303314209,0.011701102368533611,0.7378530502319336,1.5817832946777344,0.9488372206687927,-0.3815375864505768,-0.9954085946083069,-0.6183232069015503,-0.9756507277488708,-0.3852924406528473,-0.0892956554889679,1.44218111038208,-2.342799425125122,-0.06679996848106384,1.7263859510421753,-1.7291417121887207,-1.5563360452651978,0.07725995033979416,-1.4729169607162476,0.10296502709388733,0.7811061143875122,0.3009434938430786,2.0496292114257812,0.29868367314338684,0.2071579247713089,-2.634883403778076,0.340969055891037,0.1523090898990631,-1.109022617340088,-0.4769606590270996,0.3084504306316376,0.3518458306789398,0.11944369971752167,0.2768126428127289,2.304356575012207,-0.29125797748565674,-0.4623495042324066,0.9558490514755249,-2.6515932083129883,-0.11431874334812164,-0.12598590552806854,1.4041728973388672,0.06752803176641464,-0.470373272895813,1.9761277437210083,1.0116218328475952,-1.9613077640533447,1.0378763675689697,-1.7189785242080688,0.4484947621822357,1.8212878704071045,-0.5703697800636292,0.4309821128845215,1.812153697013855,0.42758533358573914,-0.7727715969085693,-1.8576104640960693,-0.3575652837753296,-0.1264311671257019,-0.676228404045105,-2.4589061737060547,-0.5079748034477234,0.0666639506816864,-3.4425463676452637,1.3120932579040527,1.4908926486968994,-1.258518934249878,0.50582355260849,-0.10774020850658417,-0.17651069164276123,0.49355605244636536,0.3896447718143463,-1.1996524333953857,-0.1724442094564438,1.1070311069488525,0.6979014277458191,-1.2364026308059692,1.593661904335022,-0.007954037748277187,0.06417708843946457,-0.5779377222061157,0.7724655866622925,-1.7822985649108887,2.0978939533233643,-0.8311236500740051,1.2321839332580566,1.8817405700683594,-0.1353483647108078,-0.5479294061660767,-0.18284526467323303,0.7118992209434509,0.3836732804775238,-1.852077841758728,2.1838219165802,-0.8681450486183167,-1.495739459991455,0.6282085180282593,-1.9668364524841309,-1.2033721208572388,-0.8570106625556946,-2.2554187774658203,-1.2996686697006226,1.3529818058013916,-0.9269528985023499,1.1232386827468872,0.4122137129306793,-1.1758273839950562,-1.508603811264038,-1.18766450881958,0.4515573978424072,1.1553813219070435,-1.0242341756820679,-1.4860997200012207,0.9947593212127686,0.6413185596466064,0.9611298441886902,0.934622049331665,-0.18697293102741241,-2.418081760406494,1.5131886005401611,-0.014200245030224323,-0.49715402722358704,0.12951669096946716,0.962466299533844,1.2768853902816772,1.8036736249923706,1.9251896142959595,-0.005754733458161354,1.521537184715271,-0.2472902536392212,1.6443883180618286,-0.5707328915596008,-0.657278835773468,1.6960188150405884,1.4710582494735718,1.2024787664413452,-0.16729508340358734,2.2831547260284424,1.2636312246322632,0.4930257797241211,2.093064069747925,-2.151787757873535,-0.5431060791015625,-0.10025724023580551,-3.2344045639038086,-2.0952327251434326,1.2210443019866943,1.31174898147583,-0.5099309682846069,0.3947056233882904,-0.0730278491973877,-1.3181235790252686,0.46653738617897034,1.1504817008972168,-0.19267457723617554,2.1925363540649414,0.5417991876602173,0.9571182727813721,0.3316861391067505,-0.18085673451423645,-1.4137212038040161,-1.497534155845642,-1.283983826637268,-0.14315690100193024,-1.1854029893875122,1.6516590118408203,-0.648975133895874,-2.7460453510284424,-0.993586540222168,0.2709634304046631,-2.1604926586151123,-2.354551315307617,-0.1711161732673645,-0.9825235605239868,-2.1333842277526855,1.90491783618927,-0.5843165516853333,-0.7724144458770752,-1.4386783838272095,0.120659738779068,1.4415069818496704,-0.6715927720069885,-0.4609164297580719,0.9280557632446289,0.3592979907989502,0.45924609899520874,0.2550687789916992,-1.3623987436294556,-1.1096333265304565,2.0946943759918213,1.329685091972351,-0.4689529240131378,0.19212980568408966,1.1204724311828613,3.17389178276062,0.10136796534061432,0.6407265067100525,0.3851873278617859,-0.3200053870677948,-0.009298743680119514,2.794018268585205,0.008091677911579609,2.5910804271698,-0.9332835674285889,0.5262113213539124,-0.9154622554779053,-1.1646015644073486,-1.7831237316131592,-1.192431092262268,-0.3362942039966583,0.2670041620731354,-0.27458086609840393,0.09473136812448502,0.8289657235145569,0.8641073703765869,1.1102277040481567,-0.9127066731452942
小,-0.031369853764772415,-0.5997474193572998,0.3392277657985687,0.2979058027267456,0.6960203051567078,-0.9543184638023376,-0.8040830492973328,1.5596084594726562,-1.204699993133545,0.22494733333587646,-0.40943264961242676,1.68700110912323,-0.25019386410713196,-0.19247309863567352,0.7641094326972961,-0.015428589656949043,-0.2777048647403717,-1.1467676162719727,0.32494306564331055,-0.6065037846565247,-1.9655845165252686,1.8804446458816528,-0.25264549255371094,-0.26486316323280334,-2.3914878368377686,-0.22103160619735718,1.8227078914642334,-0.5921348333358765,-2.2032015323638916,-0.4841063618659973,1.9134149551391602,1.2659889459609985,-0.5674868226051331,-0.9215911626815796,0.035262446850538254,0.22280937433242798,-1.17185378074646,0.8725653886795044,-1.7219053506851196,-0.30062100291252136,-1.798720359802246,2.102165937423706,-0.48624637722969055,-0.6490497589111328,0.9549461007118225,0.4345635771751404,-0.8226137757301331,0.38437914848327637,0.08037612587213516,-0.31283143162727356,-0.07783634960651398,-2.3326070308685303,-0.5544812679290771,1.6341497898101807,-0.39405038952827454,1.5274192094802856,-1.1166802644729614,0.6558874845504761,1.217431902885437,-0.18194825947284698,0.894749641418457,2.8338074684143066,1.0394282341003418,-1.203503131866455,-1.670632004737854,1.1412674188613892,-0.525648295879364,2.4156110286712646,-1.5521275997161865,-1.1879653930664062,-0.3475533425807953,3.9026427268981934,-1.3383363485336304,-2.6131651401519775,0.6494556665420532,0.11099299788475037,1.4625623226165771,-0.1977820098400116,0.11487501114606857,1.3370440006256104,0.060759808868169785,-0.10289862006902695,0.6714678406715393,0.33611583709716797,0.4929751753807068,0.016548043116927147,0.9520154595375061,1.0170787572860718,1.6884698867797852,-2.175638437271118,-0.14245057106018066,0.5088807344436646,1.9327722787857056,-0.6522321701049805,2.847862482070923,-1.6110225915908813,0.948763370513916,2.2365665435791016,-0.09099002927541733,1.8969289064407349,2.0334935188293457,-1.3475613594055176,-0.3058672249317169,-0.8759583234786987,-1.0937596559524536,2.4090843200683594,0.5795156359672546,0.6128350496292114,0.6740254759788513,1.8303526639938354,0.8174485564231873,0.31735387444496155,1.1642800569534302,0.947719931602478,-0.2019369751214981,1.0786367654800415,2.858765125274658,-0.25746437907218933,0.5158904194831848,1.094830870628357,-0.9930680990219116,1.8522522449493408,0.23640397191047668,2.7601735591888428,-3.8099613189697266,0.5756345987319946,0.1028231829404831,0.30490395426750183,-0.8422483801841736,1.260718584060669,0.1286165863275528,-1.3348078727722168,-0.32461535930633545,-3.02180552482605,-2.6821091175079346,0.5198242664337158,1.4078373908996582,-0.33187609910964966,-2.08914852142334,1.1229246854782104,0.7052167057991028,1.5460824966430664,0.8024204969406128,-0.851992666721344,3.1366994380950928,0.1704534888267517,-1.7262420654296875,-0.4777543246746063,-1.0561891794204712,0.06623142212629318,0.7886804938316345,2.232313871383667,-1.7655082941055298,2.7802209854125977,0.2781314253807068,-0.2611553966999054,0.8697048425674438,-1.731728196144104,-2.545971393585205,-0.2840082049369812,-3.0363004207611084,-0.5663597583770752,-0.9148229956626892,0.3260548710823059,-0.41933777928352356,-1.02327299118042,0.22673054039478302,0.30613964796066284,-0.03674030676484108,1.0603550672531128,-0.5414903163909912,1.2829561233520508,-0.4830501973628998,-0.8427596688270569,-0.1627655178308487,-0.6040269136428833,0.07502210885286331,-0.4370770752429962,2.187922954559326,1.859676480293274,0.7636476159095764,-2.0552401542663574,-0.15974116325378418,0.4092010259628296,0.7265551686286926,0.7536488771438599,0.033361487090587616,-2.492046594619751,2.146254062652588,2.063765525817871,-0.31655892729759216,0.7886638641357422,1.2140586376190186,0.2554360628128052,-0.03962316736578941,-0.3553665578365326,0.1103326678276062,0.7179245352745056,2.2945475578308105,1.2221463918685913,1.0273183584213257,-0.12290237843990326,1.9258599281311035,1.8728091716766357,2.0553903579711914,-0.5733650326728821,0.6858950257301331,-1.7004896402359009,-2.2595040798187256,0.6794071197509766,0.5074977278709412,0.8146877884864807,0.7814348936080933,2.006269693374634,-0.23635323345661163,-2.3119399547576904,0.9647611975669861,0.3237820565700531,-1.679726004600525,-1.173608660697937,0.27674630284309387,1.5658845901489258,0.8182873129844666,0.6250793933868408,-0.5334027409553528,-1.1091514825820923,-0.8021419048309326,1.0771682262420654,2.750810384750366,0.9060416221618652,-1.9646779298782349,-0.0836753398180008,-0.46502140164375305,-0.6840651631355286,1.2827913761138916,-0.015205109491944313,-0.20390252768993378,0.7088358402252197,-1.32778799533844,-0.1906590312719345,-3.6565260887145996,1.3345645666122437,3.1942384243011475,2.3568882942199707,-0.5600905418395996,-2.4853265285491943,-1.936195969581604,-0.7774137854576111,0.20709159970283508,-0.8347231149673462,-0.35580798983573914,-0.17160409688949585,-0.35546761751174927,1.6059767007827759,-1.750671148300171,1.5423922538757324,-2.4285247325897217,-0.32327017188072205,2.6857874393463135,0.33056023716926575,0.4629265069961548,1.9240498542785645,1.660414457321167,-1.262451410293579,0.45413607358932495,1.3855195045471191,0.04327206686139107,0.09654340147972107,3.1883432865142822,-1.8875784873962402,-2.5167572498321533,1.223200798034668,1.2230713367462158,1.3861864805221558,0.7701988816261292,-0.8349551558494568,0.3893642723560333,-0.2286396622657776,2.9203481674194336,0.9486839771270752,-0.7463347315788269,-0.7215598225593567,0.21221813559532166,-0.025854812934994698,-1.6538708209991455,-0.46484312415122986,-0.918383002281189,-1.9168334007263184,-2.00858211517334,-0.9983648061752319,-2.5335774421691895,-1.3196945190429688,-2.1058197021484375,1.6863809823989868,0.15448017418384552,-0.21300698816776276,1.9009929895401,0.2695152759552002,1.145304799079895,0.42000484466552734
形成,0.8914200067520142,-0.8686602115631104,-1.6513913869857788,-3.000105857849121,-1.3333733081817627,2.069230318069458,0.5144816637039185,-0.9860796928405762,-1.7920273542404175,-0.4234567880630493,2.33427095413208,0.22966089844703674,-1.6119146347045898,0.44391536712646484,-3.0970888137817383,-0.409864217042923,0.2403775155544281,1.4648886919021606,-2.45410418510437,0.1863022744655609,-0.8014757633209229,-0.7783045768737793,-0.06346481293439865,-1.3656407594680786,1.142553687095642,-1.4804552793502808,0.2538256049156189,-4.166547775268555,-0.6307573914527893,-0.504752516746521,0.33395683765411377,-1.0088887214660645,0.8011618256568909,-0.5251234173774719,-0.473537802696228,-0.6692044734954834,1.7572152614593506,-2.0064949989318848,-2.0956828594207764,-1.1286342144012451,-0.5820720791816711,-0.5388318300247192,0.7756645679473877,-0.861149787902832,-1.7760828733444214,1.2438403367996216,0.33981189131736755,0.9948655962944031,-1.6514711380004883,0.7998291254043579,0.9295064210891724,1.937796950340271,0.31228774785995483,1.4042162895202637,-1.86323881149292,-1.6836825609207153,1.7101945877075195,1.4914995431900024,-0.5990644693374634,-0.9651971459388733,-1.3512846231460571,-0.5299081206321716,0.8199136257171631,-0.3501943051815033,1.3686048984527588,-1.212833046913147,1.040339708328247,0.6016746163368225,-1.9457011222839355,-0.7446442246437073,-0.2868312895298004,-2.419360399246216,-0.5838481783866882,-0.7461998462677002,3.2792394161224365,1.2336312532424927,2.588139772415161,0.023182345554232597,-0.3417609632015228,1.3355224132537842,1.2143360376358032,-1.2584803104400635,-0.18798522651195526,-1.9790983200073242,-1.2415153980255127,1.0294992923736572,1.8400089740753174,0.7266631126403809,0.40488559007644653,-2.3447513580322266,-0.2294815331697464,-0.25954851508140564,-1.4064226150512695,1.0559381246566772,0.6790064573287964,-1.3537802696228027,-1.1568785905838013,0.522754967212677,0.9946926236152649,-0.7885911464691162,0.5570078492164612,-1.1513547897338867,-0.7739473581314087,-0.24198086559772491,-0.05854582041501999,2.5262959003448486,-0.9778441786766052,2.4819438457489014,-0.4896409213542938,-1.1454272270202637,-0.7531673908233643,-0.24963539838790894,0.4358578622341156,0.22256211936473846,0.9717295169830322,1.1127955913543701,-0.46411293745040894,0.9957566857337952,-0.5333651900291443,1.576643943786621,0.40830227732658386,-1.9535250663757324,0.15290603041648865,1.9890902042388916,0.37339210510253906,-0.00913739949464798,0.9802945256233215,-0.5591416358947754,-0.642920732498169,0.3736194372177124,0.562397837638855,-1.9774316549301147,1.390177845954895,-0.058415964245796204,-1.3433977365493774,-1.2207794189453125,0.9785665273666382,-0.4699784517288208,-1.8407516479492188,-0.39708688855171204,-1.3185800313949585,2.2838714122772217,0.5505670309066772,-2.2518951892852783,-0.8462241291999817,0.16365554928779602,-3.519170045852661,-0.32836011052131653,2.3760571479797363,1.9754419326782227,0.2748669683933258,-1.0569969415664673,-1.0723497867584229,0.13977518677711487,0.8388525247573853,-2.3448729515075684,-1.896994948387146,0.9277204871177673,-2.2480926513671875,0.16029100120067596,-0.9957311749458313,0.8717696070671082,1.0967283248901367,-1.53300142288208,-0.584832489490509,-0.22790037095546722,0.28781867027282715,0.20806828141212463,-0.1737285703420639,0.0952228382229805,-2.282456398010254,-0.0787365585565567,-0.455093115568161,-1.8125554323196411,0.4586593508720398,-0.8512770533561707,1.1634093523025513,1.4159194231033325,-2.1920101642608643,1.3669997453689575,-3.12302303314209,-1.0528895854949951,-0.47901082038879395,-3.0112011432647705,0.31393253803253174,1.1450672149658203,-0.967128574848175,-3.5615248680114746,-0.023760467767715454,-2.822192430496216,2.286289691925049,0.7917159199714661,-0.7373820543289185,0.4145320951938629,-0.5116800665855408,-1.6403201818466187,-0.27087903022766113,2.604785919189453,1.5393285751342773,-2.4115653038024902,-0.7722392082214355,-1.4677516222000122,-2.7919962406158447,-0.5340947508811951,-0.1543014943599701,-0.1929410845041275,1.6239200830459595,0.4039648473262787,-0.6808900237083435,2.246690511703491,0.1821335107088089,-0.7400246262550354,-1.1329712867736816,-1.134929895401001,-0.5647755265235901,0.13827215135097504,0.1486935317516327,0.6395788788795471,-1.9088633060455322,2.036184787750244,2.7246739864349365,1.7548621892929077,0.8336984515190125,1.0645065307617188,-1.3518261909484863,1.07020103931427,0.9181941747665405,-1.3457821607589722,-1.9177130460739136,-1.8295650482177734,2.3573520183563232,-0.5815578103065491,1.99741530418396,1.1733654737472534,-2.0755178928375244,-1.6513727903366089,2.266432046890259,-0.437544584274292,-0.3732038736343384,0.012299674563109875,-0.09784433245658875,1.79459810256958,0.5053467750549316,-0.38958755135536194,-1.7713980674743652,2.3690848350524902,-0.430057555437088,-1.9239813089370728,1.7361247539520264,1.1973960399627686,-1.656163215637207,-0.15095630288124084,-1.7603065967559814,-0.5219092965126038,-0.5452142953872681,-0.8306065201759338,0.30272477865219116,-0.7858449816703796,0.5518430471420288,-0.5305983424186707,0.10242205113172531,-1.7356243133544922,0.7636257410049438,1.4027694463729858,0.19965383410453796,-1.1028611660003662,-1.345039963722229,0.49502256512641907,0.5755751132965088,-1.2582058906555176,0.16962480545043945,-0.3136354684829712,3.1170859336853027,1.9001504182815552,-0.5489059686660767,1.53520929813385,-2.072740077972412,3.4628024101257324,-2.102353811264038,1.3168516159057617,0.2358524352312088,-0.2728438377380371,-2.7975971698760986,0.3956149220466614,-1.0569089651107788,1.1291277408599854,-0.1842300295829773,-0.8676214218139648,-1.741016149520874,-0.3533663749694824,-1.8784736394882202,-2.2489588260650635,-0.8720554113388062,-1.123707890510559,-0.3217230439186096,-1.8521732091903687,0.8260248899459839,0.21226325631141663,-0.02797427400946617,0.06510323286056519
实践,-1.03546142578125,-2.255871057510376,1.5942773818969727,-0.7561033964157104,-0.6265191435813904,2.3099169731140137,-1.2275313138961792,1.907601237297058,0.2709738612174988,-0.31126177310943604,-1.4907046556472778,-0.37409260869026184,0.12465406209230423,1.6710023880004883,-1.8472638130187988,-1.0468864440917969,0.10182435810565948,0.666387677192688,-1.6439313888549805,-1.3550292253494263,0.5421889424324036,0.11417390406131744,-0.36562469601631165,-0.12376733124256134,0.5889765620231628,-0.9566309452056885,0.04999060556292534,-0.0627288669347763,-0.2035578191280365,3.012152910232544,0.24704501032829285,-0.09799125790596008,-1.6178916692733765,2.1263368129730225,-0.5446252226829529,0.023586902767419815,-1.5962855815887451,-0.22865599393844604,-0.2448115050792694,0.2644940912723541,0.28717944025993347,0.16049128770828247,-1.970125675201416,-0.12799017131328583,0.27879971265792847,0.06389711797237396,0.7175620794296265,0.6565378308296204,0.5137661695480347,-0.20841260254383087,-0.8219054341316223,-0.7082527875900269,-0.6605873107910156,0.18519499897956848,-0.0364580899477005,-0.5882663130760193,-1.434030294418335,-1.1893227100372314,1.2387508153915405,1.1604408025741577,2.2423484325408936,0.9253268837928772,2.5337109565734863,0.64888995885849,-1.4242868423461914,0.4802229106426239,0.8923925161361694,2.234178304672241,-0.7169256210327148,0.10116396099328995,0.7848629951477051,0.1391632854938507,-0.521245002746582,0.51397305727005,0.5502925515174866,0.36787596344947815,1.889822006225586,-0.41964471340179443,0.8215648531913757,0.5809844732284546,-1.7654285430908203,0.22183701395988464,-1.6271065473556519,-1.2844330072402954,-2.2646772861480713,1.2899672985076904,0.07703042775392532,-0.236381396651268,1.1474298238754272,-1.3486385345458984,0.2442251443862915,-0.7076133489608765,2.0256752967834473,-0.9107977747917175,-0.8688432574272156,-0.47512051463127136,-0.947152853012085,0.5720363259315491,-1.4376312494277954,-2.310182571411133,-0.5960425734519958,0.0841875746846199,-1.0004569292068481,2.1782848834991455,-0.08175700902938843,-0.07657667249441147,-0.0029022369999438524,0.8894579410552979,0.02459278143942356,-0.07289236038923264,1.4214191436767578,0.25781744718551636,0.14603416621685028,-0.558663010597229,0.0312773659825325,2.1397409439086914,0.2919338643550873,-0.42484983801841736,-1.4552406072616577,0.4446553885936737,0.4409483075141907,-0.8909420967102051,0.6705314517021179,1.0343323945999146,2.4851040840148926,-0.11875927448272705,0.18526142835617065,1.2602332830429077,1.4136229753494263,-1.6655353307724,1.2266064882278442,-0.4323310852050781,-0.17316240072250366,1.2275135517120361,-1.358776569366455,0.15760600566864014,-1.0587605237960815,0.26313191652297974,-0.410925954580307,-0.9483857750892639,0.02136913873255253,1.042441487312317,1.0785071849822998,-0.9682813882827759,0.3834213316440582,0.48607829213142395,-2.082294464111328,-0.3698635697364807,1.4227893352508545,-0.7919778227806091,1.4961425065994263,-0.26701804995536804,-1.3273169994354248,0.6622143387794495,0.2892153859138489,-0.35383787751197815,-0.6634973287582397,0.1475314199924469,-0.8785862922668457,-1.3097532987594604,1.4025113582611084,1.0556145906448364,1.0072696208953857,-0.5293194651603699,0.5197694301605225,-0.9231460690498352,1.9165323972702026,0.1075114905834198,3.039539337158203,-0.13421683013439178,0.24061311781406403,-1.0920920372009277,-0.09583064168691635,0.8366111516952515,2.3668406009674072,0.30341339111328125,-0.12060894072055817,-1.6987544298171997,1.7538865804672241,-1.1671781539916992,-0.6622182726860046,-1.1148823499679565,-0.040981829166412354,-1.2759240865707397,0.29889246821403503,1.1343669891357422,-1.2604848146438599,-0.06083628162741661,0.4610252380371094,-0.3391661047935486,-1.5625805854797363,-0.053468652069568634,-0.5671464800834656,0.07064936310052872,-0.5526187419891357,0.635883629322052,1.8737555742263794,1.0956188440322876,-0.10173119604587555,0.9075000286102295,-0.7913079857826233,0.9462383985519409,0.3541947901248932,-1.1757402420043945,0.4129296839237213,0.485543429851532,0.5041214227676392,0.4397544860839844,1.1493356227874756,0.19403734803199768,-1.3733699321746826,-0.9357088208198547,-1.3145662546157837,1.3622350692749023,1.1744632720947266,-0.057305943220853806,-0.484639436006546,0.507051944732666,0.2670787572860718,0.8931836485862732,1.2515639066696167,2.4302046298980713,0.8432677388191223,-0.5495556592941284,-0.3014522194862366,-1.5799857378005981,0.6668280363082886,-0.18124555051326752,-0.613775908946991,0.411131888628006,-1.2968790531158447,-1.5773640871047974,1.1447083950042725,-0.041711483150720596,-1.2485826015472412,0.2670136094093323,2.65695858001709,0.5384088158607483,0.9245848059654236,1.7432191371917725,1.617917776107788,1.4170315265655518,1.0053333044052124,-0.27969568967819214,-1.6070184707641602,-0.856489896774292,-0.8153470158576965,0.8489794731140137,-1.1680089235305786,0.4201308488845825,-0.6310974955558777,-0.33206334710121155,0.2500118613243103,0.4063824713230133,-0.7923710346221924,1.1504429578781128,-0.7762064337730408,0.20372427999973297,0.901797890663147,-0.3612232208251953,0.13268908858299255,-1.6540733575820923,-1.4022674560546875,1.2909669876098633,0.22775158286094666,-0.19561481475830078,1.1348402500152588,-1.6645845174789429,-0.21409419178962708,-0.3866075873374939,-0.6811565160751343,-0.8960846662521362,1.5332239866256714,1.3155322074890137,-0.591753363609314,-0.22788961231708527,0.6402271389961243,0.44751355051994324,-1.8819842338562012,1.3693445920944214,1.3105931282043457,0.4770318865776062,-1.5928982496261597,0.9716678261756897,-0.2645516097545624,0.37367793917655945,0.0306046474725008,1.0909357070922852,-1.4904463291168213,-1.7733573913574219,-1.424726963043213,-1.138846516609192,1.086358904838562,-1.8949118852615356,-0.4519144296646118,1.3463983535766602,1.3996344804763794,0.8494877815246582,-0.6177089810371399,-0.5919744968414307
学生,2.4274003505706787,0.6676017642021179,-0.3195067048072815,-1.5146596431732178,0.1727207750082016,1.452633261680603,-0.35073041915893555,1.008644461631775,0.4949832856655121,-0.45167276263237,-2.1444039344787598,-0.3783314526081085,-1.0853773355484009,2.07775616645813,0.0663750022649765,0.747175395488739,1.621368408203125,-2.252326488494873,-1.6297706365585327,-1.0349071025848389,-1.1834450960159302,-1.431551218032837,0.8203704953193665,-0.759503960609436,0.02453678846359253,0.3526619076728821,0.5756027698516846,0.6613054871559143,-0.07520250976085663,-0.32644376158714294,0.2907957434654236,-0.30388325452804565,0.27436545491218567,-0.359199583530426,-1.6898772716522217,0.6419627070426941,-2.4325668811798096,0.2887516915798187,2.1714417934417725,0.37906402349472046,-0.06127474829554558,0.21229419112205505,-3.430680751800537,0.33024197816848755,-0.14084962010383606,-0.8149098753929138,-0.8671942353248596,-0.8729926347732544,-0.03621916100382805,0.48681217432022095,0.09763206541538239,1.2205392122268677,-1.3339409828186035,0.7441984415054321,1.9624731540679932,-0.03607267886400223,-2.8759710788726807,1.9408135414123535,0.7206252217292786,-0.08380004018545151,0.40922555327415466,-0.15805502235889435,1.662166714668274,-0.3993189334869385,-2.2350826263427734,1.5327835083007812,-0.7549910545349121,0.9190800786018372,0.5022585391998291,-0.784062385559082,1.8431390523910522,1.435198187828064,0.9197763800621033,-0.42131611704826355,0.5060980916023254,1.5308856964111328,-0.534180760383606,-0.5038022994995117,-0.6170633435249329,0.14356011152267456,-2.041274070739746,-2.362490653991699,-1.5808595418930054,0.40731558203697205,-0.48636549711227417,-2.901843547821045,1.0781446695327759,-3.164966344833374,0.15329208970069885,-0.8078912496566772,0.38397035002708435,1.126283049583435,-0.01586245745420456,1.209523320198059,-0.37848588824272156,0.34678420424461365,1.6899408102035522,1.578308343887329,-1.876854658126831,0.055889204144477844,-0.8843470215797424,-0.668521523475647,0.7638744115829468,0.26817798614501953,-0.597614049911499,0.576040506362915,1.2288093566894531,2.9573206901550293,-0.6444916725158691,0.23549355566501617,1.538079857826233,-0.43627241253852844,0.6693174839019775,-2.284198522567749,0.13448697328567505,0.042224910110235214,1.3706817626953125,-1.169102668762207,-1.757171630859375,-0.07263399660587311,0.7780779600143433,0.5140701532363892,1.2674745321273804,0.4085436463356018,0.6037304997444153,-0.7883595824241638,2.3954904079437256,-0.23707064986228943,1.6373783349990845,1.0001896619796753,0.562788188457489,-0.9742347002029419,-0.4481993317604065,-0.056182801723480225,-2.136502742767334,-1.689730167388916,-2.1730844974517822,1.7363947629928589,0.44511017203330994,-1.7508620023727417,-2.797074794769287,-0.41656434535980225,0.39672765135765076,-2.286910057067871,1.9879189729690552,0.7612072229385376,0.13437700271606445,0.7754893898963928,0.9057824015617371,0.15532590448856354,0.5692418217658997,-1.5033637285232544,-0.5601193904876709,1.043440818786621,-0.20962855219841003,-1.0436861515045166,0.8785082697868347,2.7797374725341797,-1.032585859298706,2.1887001991271973,0.053801167756319046,0.2131766825914383,1.0246094465255737,0.20933963358402252,1.0006133317947388,-1.6735584735870361,-0.5782981514930725,1.5535640716552734,0.4844690263271332,0.018608365207910538,-1.0935451984405518,-0.11559233069419861,0.5918384194374084,0.003208573441952467,1.8467546701431274,2.1782267093658447,1.046303629875183,-6.0106377601623535,1.7313392162322998,-1.45237398147583,1.4665285348892212,1.3203774690628052,-0.2340497523546219,-1.4136765003204346,-0.548393189907074,-0.14942961931228638,-0.1644551306962967,1.0239700078964233,-1.2754729986190796,2.4089441299438477,-0.7169970870018005,2.4723644256591797,1.0431336164474487,0.24461878836154938,0.5014877915382385,-1.0546668767929077,-0.04700472205877304,-1.1307295560836792,1.4590728282928467,-1.9943195581436157,-0.029042458161711693,0.5150038003921509,0.6397930383682251,-1.71165931224823,0.8678264617919922,1.2070603370666504,0.54615318775177,2.854515552520752,0.13450992107391357,1.2517393827438354,0.48469531536102295,-1.6997957229614258,-2.0805094242095947,2.1596953868865967,-0.7763893008232117,0.36947229504585266,-1.145639181137085,2.305556058883667,-0.8955638408660889,1.0909830331802368,-1.2235560417175293,-0.5925915837287903,2.172325611114502,-1.4448062181472778,0.09258417785167694,0.36956629157066345,2.0883936882019043,0.05072967708110809,-0.5531234741210938,1.7853845357894897,-0.6914584636688232,-0.9332666397094727,0.7428682446479797,-0.1969345510005951,-0.19437727332115173,-0.978522539138794,1.9119282960891724,0.1945313662290573,1.8002924919128418,0.5811038017272949,-0.24054478108882904,1.4589593410491943,1.428706169128418,1.3905218839645386,-0.6275588274002075,-3.0655319690704346,-1.1372313499450684,0.22898542881011963,-0.9583989977836609,-0.08162616193294525,-1.8892325162887573,-0.5206745266914368,0.7584895491600037,2.5110411643981934,-1.2498198747634888,0.3903631865978241,-0.8482473492622375,1.1543269157409668,2.2539784908294678,-0.36745941638946533,0.8714079260826111,-0.3045040965080261,0.47036129236221313,-1.4577643871307373,-1.7240896224975586,0.10622632503509521,-0.9472326636314392,-1.2032448053359985,-0.026650166139006615,0.7330891489982605,0.48073920607566833,-1.0590051412582397,0.15348748862743378,2.988537311553955,0.7248193025588989,-0.26987937092781067,1.5153173208236694,0.04614045470952988,-0.08234784752130508,0.4004153609275818,0.453748494386673,0.05732385069131851,-0.44591447710990906,0.9957892298698425,0.22552943229675293,0.6784207820892334,1.3375217914581299,0.3143123686313629,-0.250425785779953,-0.6646475195884705,-1.6895644664764404,0.5086709260940552,-0.5711305141448975,-1.5816891193389893,2.4419519901275635,-1.3175716400146484,1.0456279516220093,-0.2966093122959137,0.38108667731285095,-0.7530199289321899
标准答案,0.15708225965499878,-0.277488112449646,0.5923085808753967,-0.12535689771175385,-0.1559956967830658,0.3598799705505371,-0.2579389214515686,0.23770222067832947,0.09769879281520844,-0.2162247896194458,-0.15652084350585938,-0.12767288088798523,0.22965475916862488,0.013419114053249359,-0.21084590256214142,-0.05943939834833145,0.4988533556461334,0.24714097380638123,-0.36097922921180725,0.01890227012336254,-0.010268684476613998,-0.16346919536590576,0.10173653066158295,-0.14387579262256622,-0.2307753711938858,0.006574802566319704,-0.27923476696014404,0.07639891654253006,0.17550763487815857,0.05717582628130913,0.027645930647850037,0.32266172766685486,-0.2683011293411255,-0.22259648144245148,-0.11133019626140594,-0.15701572597026825,-0.30917227268218994,-0.10688089579343796,-0.16078190505504608,0.010641784407198429,0.2273654341697693,0.10162203013896942,0.12166140228509903,0.13507519662380219,-0.19667848944664001,-0.05992777273058891,0.3810674846172333,-0.07164748758077621,-0.059566680341959,-0.1386449635028839,0.013161706738173962,0.3460852801799774,0.2749479413032532,-0.20712561905384064,-0.09189295023679733,0.10048418492078781,-0.047693219035863876,-0.13644841313362122,-0.2108786553144455,-0.28092679381370544,-0.07731068879365921,0.1302366703748703,-0.21195653080940247,-0.04680173844099045,-0.0535341240465641,0.2674693763256073,-0.06785513460636139,-0.008219882845878601,0.01980421133339405,-0.05147117003798485,0.06065056473016739,0.22060222923755646,0.053540848195552826,-0.11124984920024872,-0.042306024581193924,0.2565506398677826,-0.05474166199564934,-0.08909399807453156,-0.20504610240459442,0.35931506752967834,-0.10323257744312286,0.09317359328269958,-0.07792515307664871,0.014278716407716274,0.3278872072696686,0.024407779797911644,0.11592505872249603,-0.22383274137973785,0.05466313287615776,0.06384860724210739,-0.05205460265278816,-0.03425582870841026,-0.1088351383805275,0.2838810682296753,-0.09837131202220917,-0.20102481544017792,0.004408014938235283,0.130296528339386,-0.1043606624007225,0.0052436403930187225,-0.1076054498553276,-0.1805204451084137,-0.21001467108726501,0.2772518992424011,-0.15472660958766937,-0.3533070385456085,0.036379747092723846,0.18008852005004883,-0.30319029092788696,-0.015658922493457794,0.18789604306221008,-0.23027513921260834,0.0746016800403595,0.07473091036081314,0.13612712919712067,0.2741195261478424,0.03739048168063164,-0.10034883767366409,-0.23205848038196564,0.25437989830970764,0.19051234424114227,-0.27395379543304443,0.07671722769737244,0.21248891949653625,-0.032618798315525055,0.2133856564760208,0.2641536593437195,-0.1216605007648468,0.24991339445114136,0.0576448030769825,0.027046309784054756,-0.10808601975440979,0.2678152918815613,0.16256728768348694,0.2366180270910263,-0.13814473152160645,0.29043084383010864,0.1851048618555069,0.12423719465732574,-0.39278823137283325,-0.014322090893983841,-0.15237146615982056,0.2994324564933777,-0.16213397681713104,-0.05252142623066902,0.07215862721204758,-0.15058740973472595,0.05482010543346405,-0.07752121984958649,0.1429860144853592,0.07178537547588348,-0.18117362260818481,-0.06325022876262665,-0.13551361858844757,-0.0437963604927063,-0.24589857459068298,0.15253311395645142,-0.01658528484404087,-0.023045310750603676,-0.15874966979026794,-0.2033519744873047,0.06483636796474457,0.0181227158755064,-0.04244367778301239,-0.12873023748397827,-0.1173265278339386,0.037370484322309494,0.07005883008241653,0.05610598996281624,0.11130405217409134,-0.07754281908273697,-0.15448521077632904,0.19902287423610687,0.0738033801317215,0.07406218349933624,0.1628875881433487,0.1880960315465927,-0.29432985186576843,-0.0023694410920143127,0.10335332900285721,-0.21875984966754913,-0.21026715636253357,-0.09920647740364075,-0.007183300796896219,-0.18095508217811584,0.23106956481933594,-0.06644238531589508,-0.045019734650850296,-0.10539565235376358,-0.07046215236186981,-0.44661664962768555,-0.2821365296840668,-0.15466755628585815,-0.16937850415706635,-0.22591251134872437,-0.0492350198328495,0.224979966878891,-0.3102360963821411,0.05984444543719292,0.13299433887004852,-0.07748036086559296,0.015538346022367477,0.201594740152359,0.07599145919084549,-0.02544521726667881,-0.04501299187541008,-0.21975170075893402,0.10418907552957535,0.03870347514748573,0.2664757966995239,-0.10867319256067276,0.04532432556152344,-0.11900999397039413,0.1428040862083435,-0.11360785365104675,-0.5657184720039368,0.08362185209989548,0.1048813983798027,-0.14490072429180145,-0.020976390689611435,0.23054568469524384,-0.24588602781295776,-0.002946799388155341,-0.15478722751140594,-0.011657542549073696,-0.13681861758232117,0.09713318943977356,0.09260033071041107,-0.2064572423696518,0.22117182612419128,-0.3481333255767822,-0.18036478757858276,0.31657761335372925,0.04200884327292442,-0.09783262014389038,-0.012033076025545597,0.34219440817832947,0.06146447733044624,-0.016337698325514793,0.10552982240915298,0.1787634789943695,-0.10190389305353165,0.08085967600345612,-0.0024475615937262774,-0.2872490882873535,-0.46455347537994385,0.016360241919755936,0.16961707174777985,-0.010825742036104202,-0.019746053963899612,0.0031545187812298536,0.14859704673290253,0.004259937908500433,0.07017112523317337,-0.20208439230918884,0.09665209800004959,-0.3986872434616089,0.23612330853939056,0.4804810583591461,0.019703799858689308,0.11608850210905075,-0.1158648431301117,-0.012011250481009483,0.09503888338804245,0.051727112382650375,-0.24821680784225464,0.2639397382736206,0.07307352125644684,0.14036990702152252,-0.09930182993412018,-0.045069873332977295,-0.08348901569843292,-0.08154968917369843,0.2572154998779297,-0.2152484655380249,-0.04186147823929787,-0.125386044383049,-0.03547218441963196,-0.3973241448402405,0.016619404777884483,0.22830229997634888,0.09742942452430725,-0.051582492887973785,0.23211556673049927,-0.0019925131928175688,0.01821836456656456,0.14680178463459015,0.2209281027317047,0.21659505367279053,-0.15635235607624054,-0.1334114968776703,0.14125578105449677,-0.005252407863736153,0.13485285639762878,-0.10513723641633987,0.17424096167087555,0.21732498705387115,-0.3567980229854584,-0.16767776012420654,-0.11090011149644852
生活,-0.9809239506721497,-2.0996410846710205,1.2331862449645996,-2.342275857925415,-2.4072537422180176,0.9753523468971252,0.1938624531030655,-0.6034993529319763,-0.31072914600372314,-0.19225843250751495,0.1709441989660263,0.49785682559013367,-0.5772220492362976,0.6033777594566345,-1.8236827850341797,1.6526446342468262,0.4544132947921753,-2.2843475341796875,-1.9081029891967773,-1.2297883033752441,1.0835771560668945,2.131924867630005,-0.3769679069519043,-0.5643947124481201,2.0880470275878906,-0.3195095956325531,0.3380063772201538,-0.23361442983150482,-2.2984843254089355,-1.0897798538208008,-0.6058192849159241,0.1602199673652649,-0.15345999598503113,0.8072187304496765,-0.13270968198776245,-1.271523118019104,1.0631707906723022,-1.2030525207519531,0.08490601181983948,-1.1470130681991577,-1.9075605869293213,-0.5059612393379211,-1.791562795639038,-0.07994607090950012,-1.4238988161087036,-0.12190838158130646,2.1278858184814453,0.6124699115753174,-0.03134314715862274,-0.056136682629585266,-0.5998585224151611,0.3779236674308777,-0.9433370232582092,0.40155303478240967,1.2377794981002808,0.7265684008598328,-1.2856897115707397,-1.9663910865783691,2.622403144836426,1.4423624277114868,2.489696979522705,0.34736669063568115,3.263484477996826,1.0854076147079468,0.4992251694202423,-0.22050024569034576,2.195342540740967,2.800426721572876,-2.0275535583496094,-1.2856413125991821,-0.011927147395908833,1.8546066284179688,-0.43468359112739563,0.5272705554962158,0.5848851203918457,-1.0188597440719604,1.6333587169647217,-1.265647530555725,1.502434492111206,-0.873611330986023,-1.8760552406311035,-0.4803641736507416,0.8187927603721619,-2.586249589920044,-0.9634717702865601,-0.1844472438097,1.2907185554504395,2.7648825645446777,-1.3991042375564575,-0.6416684985160828,0.9248548150062561,-1.8302130699157715,1.6555280685424805,-1.7464932203292847,1.1006544828414917,-0.8793107271194458,2.3312156200408936,0.5189061760902405,1.1436454057693481,0.7942675948143005,0.029388468712568283,-1.3086016178131104,-1.2762887477874756,-1.8493274450302124,0.20966798067092896,-0.5315238237380981,-0.5604143738746643,1.802830457687378,2.6535160541534424,-0.4995526969432831,-0.7284132242202759,-2.3982784748077393,0.5858232975006104,1.6875677108764648,-0.04289570450782776,-0.4429934322834015,1.3532330989837646,2.1714694499969482,-0.6669706106185913,0.32705751061439514,-0.055428944528102875,0.48754218220710754,0.6766465306282043,-0.03747834265232086,-0.14404752850532532,-1.8892313241958618,-1.355956792831421,-0.725380003452301,-0.050216034054756165,-0.8189689517021179,0.16936782002449036,-0.0018357897642999887,-0.11163641512393951,0.9881317019462585,-1.1801226139068604,1.9881479740142822,-0.7630667090415955,0.2543160319328308,0.6357094049453735,1.3031421899795532,0.1798333376646042,0.6166427135467529,1.0815885066986084,-0.6722115278244019,-0.027039660140872,1.3593491315841675,-0.9595780968666077,-1.0919359922409058,-0.9481081366539001,0.873034656047821,2.2350337505340576,-0.9899635910987854,-0.9989696145057678,0.7689350247383118,0.7236165404319763,-1.3143737316131592,-0.6502452492713928,1.576799988746643,1.6827858686447144,0.3025965392589569,0.27812233567237854,1.4661829471588135,0.8631167411804199,0.5264295935630798,-0.1954536736011505,1.1496477127075195,2.0575857162475586,-1.8502013683319092,0.3014388680458069,0.5776928663253784,-3.0100889205932617,-0.6110170483589172,-0.487915962934494,-0.018786698579788208,1.896300196647644,2.313230514526367,-1.4049855470657349,-0.6592828035354614,-1.6768168210983276,-2.0395307540893555,0.35950997471809387,-1.4811789989471436,0.19617941975593567,1.586313247680664,0.1982603669166565,0.6157182455062866,-3.33268141746521,-0.7680201530456543,-1.3623292446136475,2.7219767570495605,-1.4890170097351074,0.704720675945282,1.4433858394622803,1.3927451372146606,0.7169672250747681,0.4652659595012665,1.4090899229049683,-1.489268183708191,-1.0237939357757568,-1.582271695137024,0.34376469254493713,-0.44621139764785767,1.8440672159194946,-1.1922272443771362,0.0638594999909401,-1.6900895833969116,1.7628798484802246,-0.3238334655761719,-0.6132786273956299,0.6093637943267822,-2.3237926959991455,-1.1628838777542114,-1.386742353439331,0.03902669623494148,-0.3332853615283966,-1.8730159997940063,0.14382150769233704,1.321463942527771,-0.44737353920936584,1.7864989042282104,-2.411292314529419,1.2686575651168823,-0.09656360745429993,1.1430202722549438,0.18247301876544952,-1.5005143880844116,1.1894989013671875,0.5070880055427551,0.706729531288147,2.8139545917510986,0.7117003798484802,-1.7917728424072266,-0.6987295150756836,-2.4914121627807617,1.7276517152786255,-0.11245861649513245,-0.6340108513832092,0.5190471410751343,0.5685803890228271,-1.0552912950515747,-0.4473291039466858,1.0465718507766724,1.1816716194152832,-0.4192720651626587,-1.3298193216323853,-1.1305111646652222,0.855154812335968,-0.0699191614985466,0.12445578724145889,1.909082055091858,1.7945868968963623,-3.0825912952423096,-0.8104233145713806,0.1981077343225479,0.11964479833841324,-0.44630393385887146,0.3987404704093933,0.6285512447357178,4.052635192871094,-1.7049649953842163,0.6117882132530212,-0.06244705989956856,-0.23601700365543365,0.5925501585006714,0.31756386160850525,-0.22115635871887207,-0.8755915760993958,-0.13187392055988312,1.4753711223602295,-1.1419157981872559,1.3345365524291992,-1.2130650281906128,3.1212241649627686,1.4980205297470093,-1.4820619821548462,1.7019438743591309,-0.5356081128120422,1.6617518663406372,0.5605670809745789,2.335660219192505,3.0282042026519775,3.1250720024108887,-0.5738571882247925,-0.8055680394172668,-3.074077606201172,1.0992696285247803,0.8937327861785889,1.443813443183899,-0.9258568286895752,-1.8258248567581177,0.03384338691830635,-1.9303563833236694,0.06251842528581619,0.6093977689743042,1.6464887857437134,-0.7948558926582336,1.5952792167663574,0.41553229093551636,1.0326740741729736,0.24315550923347473
需要,-0.7523695230484009,-0.6437323689460754,-1.8635022640228271,-0.8376188278198242,-0.8894806504249573,-0.43757951259613037,-0.07870711386203766,2.050431251525879,1.7498584985733032,-1.2320160865783691,-2.113240957260132,-0.573704719543457,-0.45686984062194824,0.9315279126167297,-2.118839740753174,-1.0266700983047485,0.4508184492588043,0.7038766741752625,-2.8479888439178467,-1.0856621265411377,-2.701692819595337,-0.3307856321334839,2.2665045261383057,-1.1399914026260376,-1.0286142826080322,-1.7249354124069214,1.6117358207702637,-0.17911143600940704,0.6579604744911194,1.3848364353179932,0.9311071634292603,0.5783241987228394,-2.46528959274292,-1.1881763935089111,-1.5804345607757568,-2.508112668991089,-2.4407472610473633,-1.7687265872955322,1.4814003705978394,-0.72113436460495,-0.7225308418273926,0.3232676088809967,-0.8609949946403503,-1.7381095886230469,-0.5586578249931335,-0.6321123242378235,-0.8375729322433472,-0.09582915157079697,-1.0790523290634155,-2.019792318344116,0.44982969760894775,1.891532301902771,1.8519867658615112,0.28558725118637085,-1.2625482082366943,2.4142847061157227,-1.1838690042495728,1.1507974863052368,0.06279358267784119,0.33316946029663086,1.8889544010162354,-0.05582254007458687,-1.9337940216064453,-0.3386235237121582,0.5546978116035461,0.43396154046058655,-0.978009819984436,1.5416289567947388,0.3010629415512085,-1.4231356382369995,-1.0549976825714111,0.5782721042633057,-1.270752191543579,-0.8856030702590942,0.0896473303437233,-0.33581751585006714,-0.16746897995471954,0.24510517716407776,-2.130523681640625,1.0374481678009033,2.383789539337158,0.6238428950309753,-0.9619325995445251,-0.6173703670501709,-0.4661421775817871,0.4491770267486572,2.3648886680603027,-1.057105302810669,-1.7354451417922974,-1.0704185962677002,0.12616294622421265,1.188572645187378,-1.3194165229797363,-0.6034766435623169,1.0870286226272583,0.11410172283649445,0.6628006100654602,2.0476160049438477,0.7234634160995483,-0.23269738256931305,0.886049747467041,-1.2613039016723633,-0.5109859704971313,1.9257524013519287,0.4297771751880646,1.8552629947662354,2.883051633834839,0.7078820466995239,-1.231842041015625,-0.3172380328178406,-0.6043595671653748,-0.4866623878479004,-2.312108039855957,1.435476303100586,-1.4701236486434937,-1.3501770496368408,1.4115468263626099,-0.9978592395782471,-3.2644598484039307,-0.39176812767982483,1.9229527711868286,-1.9034814834594727,-0.12692676484584808,2.984220266342163,-0.01802236959338188,-1.2498829364776611,1.488358736038208,2.1742780208587646,0.28032606840133667,-1.6983562707901,1.2401734590530396,0.791049063205719,1.1238924264907837,1.8210514783859253,-0.8771434426307678,0.7449276447296143,1.7013826370239258,0.05676284059882164,-0.02275744639337063,-1.4609163999557495,-0.8871462345123291,3.254633903503418,-2.8163602352142334,1.9988682270050049,1.0051121711730957,1.9336826801300049,-1.9200823307037354,-0.09521439671516418,-0.4320780336856842,-1.0344027280807495,-0.819721519947052,0.3424893915653229,-0.3834686577320099,2.300781726837158,0.9291412234306335,-1.4671318531036377,0.8103733062744141,0.23995201289653778,0.30434849858283997,-0.2698560655117035,-0.5678750276565552,-0.684726357460022,1.9390937089920044,-0.13472281396389008,1.3025320768356323,-1.4411287307739258,0.11673589795827866,-1.6263651847839355,-0.612267255783081,-2.260080575942993,-0.16299115121364594,1.500948429107666,-0.24408242106437683,-0.4629802405834198,0.03730115294456482,1.890647292137146,0.8178269863128662,-1.1822813749313354,1.0371208190917969,1.1729520559310913,-2.3194997310638428,-0.9112584590911865,0.017858577892184258,1.236102819442749,0.5161905288696289,1.8271055221557617,-0.23115210235118866,-0.3668493628501892,-1.579720139503479,-2.2840919494628906,1.0861716270446777,-2.041821241378784,-0.9384116530418396,-0.39070650935173035,1.0294721126556396,0.2100910097360611,2.6563596725463867,-0.5291701555252075,-0.17287077009677887,1.773077130317688,-0.6324324011802673,-0.4442574679851532,0.40118083357810974,-0.3606232702732086,1.341936469078064,1.2933818101882935,-0.05965403839945793,-0.8626453876495361,1.370903491973877,0.581149160861969,-0.4882296621799469,0.5075502991676331,-2.34385085105896,0.7482510805130005,-0.46127498149871826,-0.5482859015464783,2.4679360389709473,0.4331042766571045,-0.04451343044638634,1.765494465827942,0.025531962513923645,-0.28520509600639343,0.8761594891548157,0.7116646766662598,0.7884340882301331,0.07432760298252106,1.2938330173492432,0.44257307052612305,-1.0978574752807617,0.6667529940605164,1.2719954252243042,0.17270271480083466,-0.7330300807952881,-0.970281183719635,-1.2334548234939575,-1.6942453384399414,0.07703536003828049,0.5467862486839294,-0.7647436857223511,0.4723556339740753,0.5603197813034058,-0.6019153594970703,0.027572747319936752,0.26170819997787476,-2.486799716949463,1.3835175037384033,-0.2790796756744385,0.3315521776676178,-1.040728211402893,-0.36578047275543213,0.06702853739261627,-0.39912983775138855,-1.2096580266952515,2.392509698867798,-0.174844428896904,-0.40155228972435,-3.271811008453369,-1.319549322128296,1.4781910181045532,-1.1979029178619385,-0.4883427619934082,-2.395120620727539,-0.8281762003898621,0.02540603280067444,2.825122356414795,-1.217507243156433,-1.9480044841766357,0.6220331788063049,-2.400407314300537,0.4228375256061554,0.5869765877723694,-1.7998920679092407,-1.1353486776351929,2.373783588409424,-2.040501117706299,0.8968182802200317,2.610145092010498,2.278730869293213,0.678297221660614,0.278089314699173,4.759248733520508,0.540734052658081,-0.9995381832122803,1.5051227807998657,0.207392618060112,2.9567081928253174,1.3715397119522095,-0.3108595311641693,0.6977948546409607,-1.3225327730178833,-0.8138274550437927,-0.9878041744232178,0.40273499488830566,1.3662189245224,0.3207278847694397,0.8364169001579285,-1.1444569826126099,1.074741005897522,-0.3336932063102722,-2.073279857635498
变得,1.2834861278533936,-1.4604177474975586,0.3325164020061493,-0.16993412375450134,0.46258750557899475,-0.6255242824554443,1.4348297119140625,-2.3770480155944824,-0.06126394495368004,-1.924370288848877,-1.3716018199920654,-0.40350931882858276,-1.8988326787948608,-1.5879311561584473,-0.22052635252475739,-0.8730376362800598,0.7809743285179138,0.5270888805389404,-1.0174121856689453,-1.3358997106552124,-1.660909652709961,-1.3887766599655151,1.7463486194610596,0.4696381390094757,1.8259296417236328,-0.9597938060760498,0.864020586013794,-3.218262195587158,-4.117239952087402,0.15312053263187408,0.383942186832428,-1.5622535943984985,-1.1213871240615845,-0.3714168071746826,-0.9741077423095703,0.30374497175216675,1.6538890600204468,-2.8164501190185547,0.3845035433769226,-0.8278265595436096,-0.3376992344856262,-1.4309394359588623,0.6490873098373413,-0.8882838487625122,-3.102679967880249,3.5866169929504395,-0.14280728995800018,2.466876745223999,-0.053304992616176605,-0.9631344079971313,0.8946086764335632,-0.14482122659683228,0.6634870171546936,-1.0007429122924805,-0.2647908329963684,1.0190842151641846,1.2669124603271484,0.9028619527816772,1.7199536561965942,-2.7453010082244873,-1.4583055973052979,1.6432145833969116,-0.4067094027996063,0.8711997866630554,-1.9967796802520752,2.025235414505005,1.402355670928955,1.254845380783081,-1.110706090927124,-0.629006564617157,-0.9070287942886353,0.6080551743507385,-1.2916876077651978,-1.6037631034851074,3.026454210281372,1.0136816501617432,-0.9737458825111389,-0.4348255395889282,0.9320597648620605,-0.2739683985710144,0.47113242745399475,-0.7597696781158447,-0.28896966576576233,-0.9651467204093933,-0.7985122203826904,-0.8167734146118164,1.9729219675064087,0.912005603313446,-2.670095443725586,-0.8042309880256653,0.8695778250694275,0.14447090029716492,0.07899073511362076,-0.4246678948402405,-0.9050568342208862,-0.3880637288093567,2.936208724975586,0.0749707818031311,1.1879451274871826,-0.7330612540245056,1.0754374265670776,0.5516597032546997,1.4598326683044434,0.9022904634475708,-1.7584530115127563,0.5070587396621704,-0.7163825631141663,1.7528139352798462,-0.8554782867431641,-1.5977680683135986,-2.171121120452881,-0.991452157497406,-1.3124390840530396,-1.6478595733642578,0.7342017292976379,-3.056612253189087,-0.24591585993766785,0.48816418647766113,0.6390441060066223,0.26704907417297363,1.3262079954147339,-1.2864079475402832,0.17531661689281464,1.824629545211792,1.2304906845092773,-0.7736093401908875,2.1643290519714355,2.386080741882324,2.0735113620758057,-0.17092983424663544,0.8751875162124634,2.6504554748535156,-0.6246674656867981,-1.198039174079895,-0.5067583918571472,1.3309950828552246,-0.8482270240783691,-0.9096612334251404,0.2737402021884918,2.0776379108428955,0.5404854416847229,2.254397392272949,0.6770343780517578,-1.9478296041488647,0.9506389498710632,-0.8569284677505493,-1.7770274877548218,-0.8376633524894714,2.0469319820404053,-0.040748246014118195,-0.7475824952125549,-2.2802157402038574,-1.8129148483276367,0.48083779215812683,-0.6684862375259399,-1.446886658668518,1.1076722145080566,1.0936946868896484,-0.8995595574378967,2.5040524005889893,-0.16568884253501892,-0.37580832839012146,1.7376219034194946,1.3230489492416382,1.5573010444641113,-1.3673597574234009,0.962535560131073,0.786770761013031,-0.5518494844436646,0.2959916889667511,-0.603735625743866,1.632972002029419,1.5643900632858276,-1.5549463033676147,0.8055015206336975,1.60603928565979,0.6261801719665527,1.77940034866333,-1.3281538486480713,2.189013957977295,-1.9036628007888794,0.30392149090766907,-0.5195701122283936,0.01272473856806755,0.8872398734092712,0.30696502327919006,-0.427015095949173,-0.581329882144928,-0.5193994641304016,0.6375529766082764,-0.3135087192058563,0.4323619306087494,2.991502046585083,-0.5162999629974365,0.7815297245979309,0.3085118532180786,-0.3451269865036011,0.442772775888443,0.4664805829524994,0.23382391035556793,-0.5840920805931091,-2.0165507793426514,1.6793547868728638,0.05836065113544464,1.0960239171981812,0.6651825308799744,2.3184077739715576,-1.2322230339050293,0.07147369533777237,-0.2618010938167572,0.3528018593788147,-0.4944908618927002,-0.36608728766441345,0.8093776702880859,0.48644185066223145,-0.8198039531707764,1.0323420763015747,0.9407361745834351,-2.4639036655426025,3.419562816619873,-0.012676381506025791,0.8440814018249512,1.5942872762680054,-0.21555182337760925,-1.9036508798599243,1.1262104511260986,-0.35922756791114807,0.6072776913642883,-2.5179457664489746,0.042972382158041,2.0915470123291016,1.9444655179977417,1.324313759803772,-0.9889867305755615,-0.2108885645866394,-2.5147454738616943,2.2359113693237305,-0.5982940793037415,-0.1489422470331192,0.057853516191244125,3.665677785873413,0.5561111569404602,-0.7462907433509827,1.662630319595337,-1.0807760953903198,-0.20621517300605774,-0.9564950466156006,-2.098273754119873,-0.19765526056289673,-0.3112987279891968,0.44380345940589905,-0.8835046291351318,-1.4074174165725708,-2.1937289237976074,-0.32987236976623535,-2.217719078063965,-3.0779900550842285,-2.3835349082946777,2.692624807357788,-0.8567476272583008,1.0445308685302734,1.5505924224853516,2.159458875656128,1.3683239221572876,0.1795777827501297,-0.3945062458515167,-2.422606945037842,0.19910207390785217,-0.7624674439430237,0.33435529470443726,-0.5703624486923218,-0.5684967041015625,1.0214173793792725,-0.3172939419746399,-2.237422466278076,-0.3945077061653137,-1.0886644124984741,2.3948607444763184,1.1559032201766968,0.7665301561355591,1.0356329679489136,2.868990659713745,-1.3806743621826172,0.4342774450778961,-1.7813414335250854,1.5434064865112305,0.3857029974460602,0.35807788372039795,-1.1565816402435303,-0.6568562388420105,-0.0021302110981196165,-1.9936469793319702,-1.6746236085891724,-0.3569827973842621,1.3638458251953125,1.4169248342514038,0.665553092956543,-2.0219573974609375,-0.5609909892082214,-0.7802579998970032
在实践中,0.03453608229756355,-0.5588323473930359,-0.12315063178539276,0.4669826328754425,-0.16898326575756073,-0.0024973296094685793,-0.6083609461784363,-0.3436828553676605,0.1101340651512146,-0.4496704638004303,-0.5276649594306946,-0.38328248262405396,-0.3120375871658325,0.4102424085140228,-0.601776123046875,-0.2605469524860382,0.40889036655426025,0.49310123920440674,-0.6318127512931824,-0.2175361067056656,-0.030678944662213326,-0.28503692150115967,0.052413638681173325,0.1556270569562912,-0.14815287292003632,-0.513351559638977,-0.056693773716688156,-0.03196529671549797,0.1449330598115921,0.9788827300071716,-0.31657055020332336,-0.3075721561908722,-0.9549669623374939,0.011202197521924973,-0.3679584264755249,-0.3950817584991455,-0.718890368938446,-1.1646240949630737,-0.20187821984291077,-0.26551881432533264,0.38709208369255066,0.06409957259893417,0.6155576109886169,0.10686544328927994,-0.4125036299228668,0.23001214861869812,0.2670416235923767,-0.022668318822979927,-0.2737399637699127,-0.4111819267272949,-0.15347832441329956,0.08732399344444275,0.13702933490276337,0.424588680267334,-0.6626256704330444,0.21948903799057007,0.07011722773313522,0.07604526728391647,0.22642256319522858,-0.36227381229400635,0.16394008696079254,0.3532889783382416,-0.07141485065221786,-0.22958287596702576,-0.7303197979927063,0.9088847637176514,0.12964503467082977,0.8316612839698792,0.2841615080833435,-0.4878067076206207,-0.11207879334688187,-0.06701453030109406,0.11706326901912689,-0.0854886919260025,-0.32398277521133423,0.1083391010761261,0.08712456375360489,-0.421616792678833,-0.4417157471179962,0.5624945163726807,0.326442152261734,-0.17758218944072723,-0.03282535821199417,-0.08662674576044083,0.3605755865573883,0.2988181710243225,0.6118878126144409,0.30913054943084717,0.16313043236732483,-0.6160701513290405,-0.15855325758457184,0.1205136701464653,0.17551764845848083,0.05076407268643379,-0.43035438656806946,-0.40956854820251465,0.22637125849723816,-0.26286807656288147,0.2982027530670166,0.1895986646413803,-0.04826750233769417,-0.04699735343456268,-0.16213782131671906,0.5067623853683472,-0.43657562136650085,0.37183618545532227,-0.0043959831818938255,-0.11114541441202164,-0.1808212697505951,0.3419097661972046,0.38645416498184204,-0.07321155071258545,-0.3348208963871002,0.939913809299469,-0.08560129255056381,0.07096590846776962,-0.03459630161523819,-0.007749917916953564,-0.26449841260910034,-0.012537561357021332,0.44081348180770874,-0.964893639087677,0.2765110433101654,0.7074059247970581,-0.021541129797697067,0.218567356467247,-0.27748605608940125,0.5057141184806824,0.37384507060050964,0.16212382912635803,0.4016822874546051,0.47484391927719116,0.5991580486297607,0.5052836537361145,-0.25755956768989563,0.16348649561405182,1.0015949010849,-0.2850196361541748,0.315771222114563,-0.6701670289039612,-0.0986555889248848,0.21664920449256897,-0.23648813366889954,0.09149277955293655,-0.2611173689365387,0.6913605332374573,-0.6454558968544006,0.3629804849624634,0.055632419884204865,0.08788074553012848,-0.5927679538726807,-0.2125530242919922,-0.2074631005525589,0.6622826457023621,0.662530243396759,-0.6218988299369812,0.503024160861969,-0.6436847448348999,-0.15375058352947235,-0.16358129680156708,-0.05163370072841644,-0.13890030980110168,-0.5421580672264099,-0.3880181610584259,-0.17556382715702057,-0.7659353613853455,0.59734046459198,0.27298831939697266,0.34895947575569153,-0.2180260568857193,-0.011105526238679886,0.39320898056030273,0.4466557204723358,0.5536688566207886,-0.055532313883304596,-0.025941964238882065,-0.09656931459903717,-0.002404596423730254,0.1195906475186348,0.3076004087924957,-0.5214046239852905,-0.3757529556751251,-0.12062687426805496,0.17935429513454437,0.8177021741867065,0.3682240843772888,-0.1982884705066681,0.3373749554157257,-0.2355436086654663,0.05933038890361786,-0.13814504444599152,-0.2171608954668045,-0.20092011988162994,-0.2535761594772339,-0.08008702844381332,-0.09142328053712845,0.09221584349870682,-0.9220370054244995,0.009017535485327244,0.34440138936042786,0.1782395839691162,-0.11020141839981079,0.2700844407081604,0.1793534755706787,0.18228787183761597,0.3050787150859833,-0.3110447824001312,-0.012861047871410847,0.21237146854400635,0.4335263967514038,-0.19258582592010498,-0.10516008734703064,-0.4241460859775543,0.293844997882843,-0.5156551003456116,-0.25346609950065613,0.028757119551301003,0.38597628474235535,-0.14301176369190216,0.15949420630931854,0.2452373206615448,0.4118659794330597,0.8797253966331482,0.2088262140750885,-0.2933666408061981,-0.500215470790863,0.08837602287530899,0.07177212089300156,-0.0586237907409668,0.38250699639320374,0.09161420911550522,-0.5119173526763916,-0.20396962761878967,-0.1997314989566803,-0.7540278434753418,-0.6021750569343567,0.007229100912809372,0.11639045178890228,0.0825612023472786,-0.36053532361984253,0.4719253182411194,0.4862973690032959,0.21160167455673218,-0.11191376298666,-0.7658270001411438,-0.4865269660949707,-0.10559944808483124,-0.3631507456302643,-0.27673497796058655,-0.01776912249624729,-0.9804500937461853,0.010938516817986965,0.5064454078674316,-0.4369640648365021,-0.11402237415313721,0.029763519763946533,-0.5104867219924927,-0.5612726211547852,0.2933973968029022,-0.6054877042770386,0.021029986441135406,-0.871758759021759,-0.37204962968826294,0.7696223855018616,0.4778158366680145,-0.049446672201156616,0.18513867259025574,-0.5603403449058533,-0.25793883204460144,0.03455884009599686,-0.28092193603515625,0.018544163554906845,0.465036541223526,0.24067972600460052,-0.9152228236198425,-0.0808163583278656,0.02358471229672432,-0.0173072200268507,0.13658839464187622,-0.3773145079612732,0.5833912491798401,0.006526656914502382,-0.4660038948059082,0.23332223296165466,-0.09000423550605774,0.4345097839832306,0.06255516409873962,0.31571727991104126,-0.00186385796405375,-0.11236252635717392,-0.22046008706092834,-0.05602836608886719,0.1760009527206421,-0.23271603882312775,-0.3438703417778015,0.710536539554596,0.7701916694641113,-0.24117058515548706,-0.40442049503326416,-0.3036544620990753
重点,-0.3452059030532837,-1.096732497215271,0.15937718749046326,0.3354906439781189,0.18043793737888336,1.879082202911377,-2.404695510864258,0.6868994832038879,0.20145447552204132,-0.6489997506141663,-0.8307567238807678,-0.8028397560119629,-0.23281802237033844,-1.011734962463379,-1.0237289667129517,-1.092353105545044,1.5069963932037354,1.6803832054138184,0.5532416701316833,-2.4096992015838623,0.06162179633975029,-2.680849313735962,0.756955087184906,-1.8759784698486328,-1.5489509105682373,-1.1683204174041748,0.7762694954872131,-1.425670862197876,0.5596497654914856,1.7724401950836182,0.8754448294639587,0.5004169344902039,0.36212241649627686,-0.483905553817749,0.2011796236038208,-0.08218663185834885,-2.4171335697174072,0.04198738932609558,-1.8339041471481323,-0.41021955013275146,-1.7722177505493164,-0.009110218845307827,-1.0423473119735718,-0.2653830051422119,1.7246184349060059,-0.8582544326782227,-0.10627362132072449,-1.7478529214859009,-1.8741155862808228,-1.0469752550125122,-1.4231370687484741,0.18776912987232208,1.6970595121383667,-0.7517974972724915,-1.043879747390747,-0.17653709650039673,-0.8755248785018921,0.627782940864563,0.43135982751846313,0.12922900915145874,-1.205073595046997,0.6107314825057983,0.5965310335159302,1.9843231439590454,-0.4416663348674774,0.04651202633976936,0.4964972734451294,1.6695696115493774,-2.847135543823242,-0.6420107483863831,0.11218813806772232,0.40204542875289917,0.8097084760665894,0.8616416454315186,1.3403702974319458,-1.2096213102340698,-0.4280172288417816,0.8887349367141724,-0.5964386463165283,-1.311680555343628,0.914015531539917,1.746333360671997,-0.7057523727416992,0.21158839762210846,0.35399532318115234,1.9400763511657715,-0.023142622783780098,-1.0065313577651978,0.7954159379005432,-0.6487941145896912,-0.6652877926826477,1.4357515573501587,-0.18891641497612,1.3205375671386719,-0.4347802698612213,0.9781908392906189,-0.24091319739818573,1.642820119857788,-1.5054419040679932,0.8860528469085693,0.5723990201950073,-1.2345056533813477,-1.325488567352295,1.6587094068527222,-0.906396210193634,1.0109286308288574,0.353175550699234,1.8220449686050415,1.4386522769927979,-0.5049693584442139,-1.0689362287521362,1.6216049194335938,-0.5400683879852295,0.5588251948356628,-1.2237881422042847,-0.040372710675001144,1.0481594800949097,-0.2316356897354126,-0.8739214539527893,0.1560460329055786,1.669366478919983,-1.2787995338439941,0.14524853229522705,1.1931755542755127,-2.228832960128784,1.310489296913147,0.525280773639679,1.7839381694793701,0.632134199142456,-0.8814312815666199,1.9672799110412598,-1.0597474575042725,1.3471384048461914,0.6806014776229858,-1.1188217401504517,-1.213282823562622,-0.48623427748680115,-1.2583142518997192,0.5645310878753662,-2.4020307064056396,-1.0320183038711548,1.10728120803833,0.4065572917461395,0.10137336701154709,1.4028441905975342,-0.30998626351356506,-0.17703300714492798,-0.3024436831474304,-1.3001633882522583,-0.3073629140853882,0.48343425989151,0.0006709601730108261,0.11072391271591187,-0.3172075152397156,0.047540049999952316,-0.5290663838386536,-1.4523415565490723,1.005582332611084,0.7463593482971191,0.9509786367416382,-0.24434956908226013,-0.31086429953575134,0.3858436346054077,-1.831815481185913,0.5399417877197266,0.6863933801651001,0.3319786787033081,-1.0627553462982178,-0.8088406920433044,0.354007750749588,-0.2842133343219757,0.053470365703105927,0.3426889181137085,-0.022771410644054413,1.5353562831878662,0.9256939888000488,0.370900422334671,-0.8970816135406494,-0.33904173970222473,-1.7502309083938599,-0.46739888191223145,-0.9910948276519775,-3.0759925842285156,-1.3883365392684937,-1.0707387924194336,2.0974597930908203,-1.6627591848373413,1.2716861963272095,-0.8395571708679199,-2.1836066246032715,-1.2633872032165527,0.3674391806125641,0.7533044815063477,1.8376991748809814,-1.8943766355514526,-0.517180323600769,1.2332121133804321,0.3037054240703583,-0.9199826717376709,1.4874253273010254,-0.48889410495758057,-1.0326454639434814,0.7931889891624451,-0.5231963396072388,1.0936863422393799,0.8980181217193604,0.37605664134025574,-1.5422154664993286,2.0295567512512207,-0.2266223132610321,-0.021516822278499603,-1.4353946447372437,-0.37852707505226135,-0.5192252993583679,-1.1893352270126343,-2.742100715637207,1.0505362749099731,-0.4195406436920166,0.015198303386569023,0.24268683791160583,1.0837886333465576,0.0035941191017627716,-0.5025904178619385,0.8047698140144348,0.23793649673461914,-0.9974604249000549,0.3468799889087677,-0.1899709701538086,-1.400633692741394,-0.4751145541667938,-3.835017442703247,-1.1944202184677124,3.097397804260254,0.39962223172187805,-0.5881786346435547,-1.5572549104690552,2.667238235473633,-1.0045199394226074,-0.44990506768226624,-0.3311048150062561,1.4555994272232056,1.360783338546753,0.48960262537002563,1.322952389717102,-1.588843584060669,-0.7244910001754761,2.2039780616760254,1.6995848417282104,-0.4122542142868042,0.6390894651412964,-1.0050867795944214,-0.2544209361076355,-0.6260949969291687,-1.9704747200012207,-0.058512233197689056,0.2736099660396576,-1.2083216905593872,-1.0323221683502197,1.0415682792663574,-0.691439151763916,-0.2555795907974243,-0.8808650970458984,-1.9685362577438354,0.5656833648681641,-0.7428069710731506,1.9691082239151,0.869132399559021,-0.6692765951156616,-1.3808667659759521,-1.9925174713134766,0.714146077632904,1.5563573837280273,1.0172330141067505,1.0427151918411255,0.4201475977897644,2.5515737533569336,0.7979902625083923,-0.13456331193447113,-1.3201583623886108,0.888828694820404,-0.3281879723072052,-1.3349708318710327,-1.6413841247558594,-0.44229549169540405,1.4199104309082031,-0.7729398012161255,-0.5582760572433472,-1.2468317747116089,1.2189220190048218,-1.1740041971206665,-1.9283909797668457,0.11904264986515045,2.121490955352783,-2.535775899887085,-0.04778284206986427,0.18593750894069672,0.5162631869316101,1.4827756881713867,-0.06851008534431458,-0.014628774486482143
政治,0.027558431029319763,0.640400230884552,1.3233015537261963,0.03247934952378273,-0.857848584651947,2.1622884273529053,-1.1520063877105713,0.0676649883389473,0.3031698167324066,0.662002444267273,1.53103768825531,-1.4254571199417114,-1.579300880432129,-0.9391008019447327,-1.2227530479431152,-0.2264605462551117,1.4730579853057861,1.383100986480713,-0.5351279973983765,-2.8316233158111572,2.246739625930786,-0.01233823224902153,1.7590515613555908,1.1707254648208618,-1.1890697479248047,-1.5869497060775757,1.0705758333206177,-0.2790081202983856,0.26692917943000793,-0.26638591289520264,-1.614918828010559,1.0831811428070068,-0.8451778888702393,-0.17978908121585846,-0.7919186949729919,0.6230887770652771,-2.1147820949554443,-1.5028913021087646,-0.04715830832719803,-0.5736048221588135,0.0751500204205513,0.32585635781288147,0.4927888512611389,0.2625112235546112,-0.49965405464172363,4.354511111159809e-05,-1.2952096462249756,-1.1841418743133545,-2.6294496059417725,-2.4074602127075195,0.08767640590667725,-0.6131687760353088,0.09805300086736679,0.1679610162973404,0.018706338480114937,0.9878679513931274,1.1236485242843628,0.47978153824806213,-0.10405706614255905,2.113750696182251,-0.12489436566829681,0.7912166118621826,2.5928823947906494,-0.28527551889419556,-0.7447652220726013,2.488405466079712,1.0001239776611328,1.9817140102386475,-1.8953453302383423,0.6816818714141846,1.686095118522644,-1.0764859914779663,-1.2312391996383667,-1.9936107397079468,2.0748980045318604,1.2432003021240234,0.4872116446495056,0.192254900932312,2.6436243057250977,-1.332184910774231,-1.0949666500091553,-0.1534447818994522,-1.4851597547531128,-0.12302994728088379,-3.514904737472534,1.4122284650802612,0.8395759463310242,-0.7955742478370667,0.7694910764694214,-0.0045551336370408535,1.9827834367752075,1.1553966999053955,1.3824528455734253,0.42710185050964355,-0.053019728511571884,0.7643753290176392,1.3105242252349854,0.11813677102327347,-0.04900196194648743,0.40137699246406555,-0.3626081049442291,1.1380431652069092,0.45004943013191223,-0.35144758224487305,1.366119384765625,-1.1293954849243164,0.7833703756332397,0.09752044081687927,-1.719483494758606,-1.6071580648422241,0.9195411205291748,-1.0405305624008179,1.1814929246902466,0.6894631385803223,0.6431053876876831,-0.4614136219024658,-0.5986696481704712,-0.015827344730496407,-0.6088110208511353,1.8654149770736694,2.5019822120666504,0.11978866159915924,-0.22104549407958984,2.45447039604187,1.975295066833496,-1.4038528203964233,2.5323843955993652,-0.8175965547561646,-0.801659107208252,-1.5097074508666992,0.7828786373138428,0.793447732925415,0.10637868940830231,2.465628147125244,-1.3445297479629517,0.15644219517707825,1.8891414403915405,-1.2064952850341797,0.45182305574417114,-0.705374002456665,-0.9960893988609314,1.4608370065689087,1.5532509088516235,0.9230802655220032,-0.05669513717293739,0.06380519270896912,-1.2702332735061646,1.2223573923110962,2.693906545639038,-1.8151724338531494,4.328549385070801,-1.637526035308838,-0.9949710369110107,-0.3292856216430664,-2.030979633331299,-1.398328423500061,-0.5089856386184692,1.565678596496582,-0.8161412477493286,-1.8691067695617676,0.9204940795898438,1.3742252588272095,-2.563007354736328,-1.290421724319458,2.846461296081543,0.5148380994796753,1.7683846950531006,1.7405009269714355,-0.5098986625671387,1.8041311502456665,-0.14839808642864227,-0.7671413421630859,-1.4414366483688354,1.8054043054580688,2.672261953353882,1.0383350849151611,0.517805814743042,-0.6826096773147583,0.7239055037498474,0.4842989444732666,0.08364532142877579,-0.47748538851737976,-0.2363201379776001,-0.9183681607246399,2.9269213676452637,0.9177813529968262,-3.5449068546295166,1.2748790979385376,-2.3715813159942627,1.3911429643630981,0.49295932054519653,-0.3075218200683594,0.38110411167144775,-0.5717596411705017,-0.3017866611480713,-1.1364225149154663,1.2436679601669312,0.34541240334510803,0.46668827533721924,-1.6935834884643555,0.831702470779419,-0.6212635636329651,-1.2653694152832031,-0.679717481136322,1.4398443698883057,1.7024543285369873,1.3920061588287354,-0.6788738965988159,0.920973002910614,-0.904758095741272,0.2700555622577667,-2.1796770095825195,-2.1471681594848633,0.17179521918296814,-0.406611829996109,-1.3230854272842407,0.7987039089202881,1.612673044204712,1.4354397058486938,1.0894348621368408,0.7938851714134216,2.5587425231933594,1.3673546314239502,1.0672500133514404,0.8596964478492737,-0.9709166884422302,0.5274860262870789,0.27154019474983215,0.7574912309646606,0.16872018575668335,0.13648800551891327,-1.5284302234649658,-0.9666137099266052,0.3252183198928833,-0.6540166139602661,-2.363302707672119,-2.1528162956237793,3.0017080307006836,-0.03367774933576584,0.8412072658538818,1.172561764717102,1.742369532585144,1.7481341361999512,-0.9768428802490234,-0.7172655463218689,-1.452410340309143,0.3760080933570862,-1.2179453372955322,-3.085453748703003,-0.4782966375350952,1.6962966918945312,2.7155818939208984,-0.16579699516296387,0.15686985850334167,-0.37443462014198303,-1.8539446592330933,0.40870872139930725,-0.7397828698158264,2.2926855087280273,0.0677855834364891,-0.5328502655029297,-0.8091448545455933,-0.9716361165046692,1.1131677627563477,0.07002290338277817,-0.07330220192670822,-1.6391034126281738,-1.9273847341537476,-1.295434594154358,-2.5170209407806396,0.7183805704116821,-0.5618563294410706,0.5180371999740601,2.3442749977111816,-1.1881945133209229,0.4873649477958679,-1.0343265533447266,-0.9301306009292603,-0.927603006362915,-1.7213783264160156,-2.0951762199401855,1.0891929864883423,-1.4528985023498535,1.6098970174789429,-1.9218794107437134,0.44110187888145447,0.3832572102546692,1.3791720867156982,-0.9871562123298645,-2.0643553733825684,-1.5853488445281982,-1.7128912210464478,2.8409762382507324,-0.3345949947834015,0.1508253812789917,-1.387096881866455,0.4359438717365265,-0.458121657371521,-2.3970961570739746,-0.8899693489074707
情感,0.5388293266296387,-0.8460882306098938,2.2676594257354736,-0.47617992758750916,1.2957390546798706,0.2967735826969147,-0.42939311265945435,0.7666382789611816,0.18093815445899963,0.2659360468387604,-0.48938241600990295,1.016392707824707,-0.22672031819820404,-0.8301833271980286,-0.6857578754425049,2.9315526485443115,1.3192074298858643,0.27928030490875244,-1.1854735612869263,0.26561713218688965,1.770993947982788,-0.30064305663108826,-0.5639762282371521,-1.0391250848770142,0.9682339429855347,-0.8105838298797607,-0.709526777267456,0.08633232861757278,-0.733608603477478,-0.21384459733963013,-1.0742928981781006,0.569543719291687,-3.5015928745269775,0.027950076386332512,0.6883954405784607,-0.9276130795478821,-1.7754017114639282,-0.7550904750823975,-1.0609208345413208,1.1346417665481567,-1.6134846210479736,-0.42828378081321716,-1.8096562623977661,0.3798937201499939,1.1479963064193726,0.8807348608970642,-0.31730058789253235,-0.45633620023727417,-0.5722244381904602,1.2859084606170654,0.17592428624629974,0.7531348466873169,1.0560153722763062,-0.1733538806438446,0.8414832353591919,0.12272623926401138,-0.5021558403968811,-2.248804807662964,0.9175894856452942,-0.5399007797241211,0.932319164276123,0.19900567829608917,-0.17233146727085114,0.5761209726333618,-2.553962230682373,1.223221778869629,2.244760036468506,-0.7371208667755127,-1.2078241109848022,-0.5385259389877319,0.5991598963737488,-0.09495512396097183,-1.604994297027588,-0.8528116941452026,2.958998918533325,-0.06460250914096832,1.1407216787338257,0.5158864259719849,1.333537220954895,-1.346145510673523,-0.9788432717323303,-1.0840984582901,0.3789809048175812,-1.3311011791229248,-2.0798609256744385,0.6490631699562073,0.4660899043083191,0.7196489572525024,-1.5266366004943848,-1.0609043836593628,1.4513498544692993,-0.5835013389587402,-0.11992177367210388,0.8411598801612854,-0.8732326030731201,-0.7180333137512207,1.487326979637146,-0.9002322554588318,1.5986539125442505,0.28832972049713135,-0.39570778608322144,-1.4881139993667603,0.18837673962116241,-0.9611320495605469,-0.61673504114151,-1.6228452920913696,0.19148612022399902,1.4078861474990845,-1.0342715978622437,-0.20140664279460907,1.932902216911316,-0.4274328351020813,-3.2206692695617676,-0.9159383773803711,2.1994519233703613,1.2052669525146484,-0.24112354218959808,0.030476896092295647,-0.18910573422908783,1.5185750722885132,2.0992112159729004,-1.677770733833313,1.100043535232544,0.5845587849617004,-1.34013032913208,-1.4905118942260742,-0.08894120901823044,0.6860169768333435,1.8866026401519775,-0.6180785298347473,0.4613850712776184,0.4516540765762329,-0.08653143048286438,0.5619717836380005,-1.9520697593688965,0.6215623021125793,-0.5181340575218201,-1.1763033866882324,-0.14381010830402374,-0.24545612931251526,0.6602337956428528,1.8500787019729614,-0.6002553105354309,0.40242114663124084,0.9993746876716614,-0.009334784932434559,-2.024359703063965,-0.18667277693748474,-0.15683938562870026,-3.1456055641174316,2.2448322772979736,-0.6704559922218323,-0.670135498046875,1.1745051145553589,0.856484055519104,-1.4903297424316406,1.3599430322647095,-0.24566568434238434,-0.42823073267936707,-1.083319902420044,1.4824614524841309,-0.6710004806518555,-1.7376644611358643,1.1915467977523804,1.6265344619750977,-0.16054080426692963,0.4556902348995209,-0.4729275405406952,-0.5669970512390137,0.3201533854007721,-3.814770221710205,0.8092555403709412,-0.531599223613739,1.5400526523590088,2.130497932434082,2.001204252243042,0.15291981399059296,0.0648920014500618,-1.3851292133331299,1.3212605714797974,-2.114716053009033,0.06394313275814056,-1.9714313745498657,-0.5222083330154419,-0.4253426790237427,-0.7222912907600403,0.6175881028175354,-0.33033955097198486,-0.722403347492218,-0.1793038547039032,-0.3762064278125763,0.4485284090042114,-0.1969042718410492,1.4571527242660522,-1.2793769836425781,0.8348053097724915,1.345523715019226,2.1817121505737305,-0.5095126032829285,-1.4880398511886597,1.606034755706787,0.5941854119300842,0.2577919661998749,-1.6866875886917114,0.431436151266098,1.567705512046814,0.7303856015205383,-0.9560544490814209,0.3727113604545593,-0.8321413993835449,-1.744776725769043,0.5546754002571106,-2.5247414112091064,0.4802253246307373,-0.5574111938476562,-2.2922298908233643,1.5950711965560913,0.19864706695079803,0.26008644700050354,1.0865399837493896,1.6855345964431763,0.1298322081565857,0.3329051434993744,-0.9652709364891052,0.5543001890182495,-1.175055742263794,-0.33602625131607056,1.8427633047103882,-0.07096102833747864,3.634585380554199,2.381258726119995,-1.688060998916626,1.3437166213989258,-0.8623624444007874,-0.1886921226978302,-0.8508294820785522,1.7640055418014526,0.7763522863388062,0.620363712310791,1.252227544784546,2.1223363876342773,2.389892101287842,-1.0318305492401123,-0.11302120983600616,-1.5394580364227295,0.46270477771759033,-0.3593890368938446,-0.7844530344009399,0.5042295455932617,2.2231972217559814,0.6668944954872131,1.292810320854187,1.3847042322158813,-1.0349795818328857,0.19021928310394287,-0.24513252079486847,-0.39142468571662903,0.2984793484210968,2.1866304874420166,-0.8080310821533203,0.5463119745254517,0.9742183685302734,0.26493099331855774,0.29879072308540344,2.0842199325561523,-1.5135796070098877,-1.1208659410476685,0.3887036442756653,-1.211228370666504,1.5717034339904785,-1.1620181798934937,-0.5307448506355286,0.6855171918869019,1.8204584121704102,-0.7816922664642334,3.607779026031494,-0.29921403527259827,1.4312164783477783,2.6651549339294434,-0.1963760256767273,1.526728868484497,3.1452901363372803,0.3963784873485565,0.5322226881980896,-1.0675928592681885,1.4013359546661377,0.855137825012207,0.6889638900756836,0.3340223431587219,-2.7287275791168213,-2.0243632793426514,-1.4009480476379395,-0.41984066367149353,-0.8238305449485779,2.48152756690979,0.05684785917401314,0.4103599786758423,0.33791059255599976,0.17895153164863586,-0.3915224075317383
兴趣,-0.9993754625320435,1.4681143760681152,1.232184886932373,-0.31276193261146545,0.30607545375823975,2.280142307281494,-0.39970704913139343,1.726763129234314,1.3938343524932861,-1.8632079362869263,-1.9937368631362915,-0.2829999327659607,-1.6398125886917114,-1.6960506439208984,-2.3067002296447754,1.4417418241500854,1.7701685428619385,0.10969620198011398,2.2608933448791504,0.5789960622787476,0.9592654705047607,-3.338555097579956,-0.0838015154004097,0.7102439999580383,-1.3496356010437012,-0.1586344689130783,1.3853020668029785,-0.3436095714569092,-0.07860518991947174,-0.04728810861706734,0.5914096236228943,2.788137912750244,-2.7248873710632324,-1.1283169984817505,-0.590970516204834,-0.07205376774072647,0.056931231170892715,-1.5347981452941895,-0.9830317497253418,-1.213633418083191,0.46872082352638245,-0.15463460981845856,0.693351149559021,-0.05338774994015694,0.9789739847183228,1.5621349811553955,5.043284893035889,-1.080735683441162,0.6606212854385376,2.0426321029663086,1.9925206899642944,-0.8395993709564209,-2.168318510055542,-1.2917437553405762,1.35493803024292,-0.2390158474445343,-2.9528632164001465,-1.392333984375,-1.1120226383209229,-0.865325927734375,1.041516900062561,0.8494320511817932,-2.1501879692077637,0.2149961143732071,-0.98079913854599,3.416807174682617,-2.1822283267974854,2.12727427482605,-0.38916730880737305,-2.2172322273254395,0.8140746355056763,-0.44418057799339294,-0.08381987363100052,1.2918540239334106,1.647100567817688,1.7466633319854736,-0.3849633038043976,-0.31609272956848145,-0.4273240268230438,-2.385850429534912,-0.9883226156234741,-1.531516432762146,-3.694797992706299,0.6843990683555603,0.0210359338670969,0.06482698023319244,2.7207136154174805,-0.27523064613342285,-2.480909585952759,1.7503246068954468,1.373594880104065,-0.3542364537715912,1.899054765701294,-1.4879634380340576,-0.6312584280967712,0.10942738503217697,1.5328693389892578,-1.1275832653045654,-0.9042688608169556,0.9928455352783203,3.1164119243621826,0.720526933670044,0.2562786042690277,-1.9169868230819702,-0.3372429609298706,-1.888511300086975,1.2803393602371216,1.3699191808700562,1.3258243799209595,-0.341785728931427,-1.6475894451141357,-2.086057424545288,0.4926674962043762,-1.4838882684707642,0.8042858839035034,0.5128613114356995,1.4923652410507202,1.184752345085144,-0.6315724849700928,4.33484411239624,3.6558804512023926,1.0607984066009521,1.512631893157959,3.991058111190796,-1.6397005319595337,-0.8128429651260376,2.3582606315612793,3.633380174636841,1.5796847343444824,-4.239910125732422,1.1348565816879272,1.8333165645599365,-0.766929030418396,-0.6176273226737976,-2.1924338340759277,-0.18911196291446686,-2.4297337532043457,1.9941741228103638,0.3023729920387268,-1.4850356578826904,0.657167375087738,0.6181830763816833,2.311223268508911,-1.6332714557647705,0.47440218925476074,-1.2447160482406616,-1.3384315967559814,-1.591685175895691,-0.3129942715167999,-0.8785041570663452,-1.030401349067688,0.13000105321407318,2.4423463344573975,1.573055386543274,2.778862476348877,-0.4465480446815491,-0.9564359188079834,2.220864772796631,-0.7467658519744873,-2.0266270637512207,0.6733044385910034,0.6480173468589783,-0.568381130695343,0.2396060824394226,0.39509275555610657,0.5177484750747681,-0.9835116267204285,-1.2288395166397095,0.722945511341095,2.990169048309326,0.3810974955558777,-1.5139119625091553,-0.21168221533298492,-0.8778984546661377,-1.2122198343276978,0.9605847001075745,0.7278687357902527,-0.18466438353061676,0.02869284525513649,-0.7882118225097656,0.11342136561870575,0.4017314910888672,0.374477744102478,-0.08056775480508804,-2.0789642333984375,0.5018870830535889,1.228755235671997,1.119612216949463,-3.831860065460205,3.109158754348755,-2.8988449573516846,0.30573320388793945,0.7681068181991577,2.430262565612793,1.3249081373214722,-1.3458805084228516,1.28001070022583,-0.10385945439338684,1.4997199773788452,-1.2529116868972778,-0.3387998938560486,-1.0902934074401855,-0.3369794487953186,-1.38752019405365,-3.1680908203125,-0.7980963587760925,0.7096832394599915,-0.44152936339378357,-0.5843772888183594,-2.36279559135437,-0.7737103700637817,-1.206670880317688,-0.5050708651542664,1.019553780555725,-0.8389230370521545,-2.5161361694335938,-1.407475233078003,1.3444077968597412,0.7979166507720947,1.488614797592163,1.2971594333648682,-0.30228134989738464,-1.511589527130127,-1.346671223640442,1.2052606344223022,-0.29776468873023987,-0.10277348756790161,1.1528347730636597,1.2503304481506348,1.0754196643829346,1.0211292505264282,0.11103488504886627,1.0739006996154785,-1.1336331367492676,0.042228054255247116,-1.0632996559143066,0.9274357557296753,0.2555866241455078,1.0007247924804688,-0.3972260653972626,1.5775686502456665,-0.9475567936897278,0.5668042302131653,3.393237829208374,-1.8845045566558838,-3.6303210258483887,1.417360782623291,0.5481263399124146,-0.3737667202949524,1.5725454092025757,-1.3439570665359497,0.8302865028381348,-0.11349733918905258,1.1182876825332642,0.8802180290222168,1.9970152378082275,-1.8614588975906372,0.7898433804512024,-0.7568109035491943,-2.198280096054077,1.651017189025879,0.09343790262937546,0.32636114954948425,0.2679738402366638,1.2857621908187866,1.0649092197418213,-1.5909572839736938,-0.8072790503501892,1.5572278499603271,0.6554510593414307,1.398819088935852,0.06761442124843597,-0.8523259162902832,0.12918458878993988,-0.608055830001831,3.327378749847412,3.8409922122955322,1.421910047531128,1.1332509517669678,-1.7107192277908325,1.6816229820251465,1.412689447402954,-1.1338988542556763,0.19036097824573517,-1.2571879625320435,1.350189447402954,-0.6471161246299744,-0.2879795730113983,-1.3741354942321777,-2.6119496822357178,-0.5455070734024048,-0.9957946538925171,0.7807259559631348,0.7338944673538208,1.3589084148406982,1.6986726522445679,-0.24619264900684357,1.2836763858795166,0.7450745701789856,0.27359867095947266
社会,1.2831685543060303,-0.48189204931259155,0.6019983887672424,0.25193071365356445,-2.07991623878479,2.3671743869781494,0.6813336610794067,-0.01964799501001835,0.007961679250001907,1.4140005111694336,-0.2707982063293457,-0.48526397347450256,-0.3869396448135376,0.3454838991165161,-2.171020030975342,0.7059140205383301,-0.3065159022808075,-0.6784960031509399,-2.1855673789978027,-3.398174285888672,0.8690151572227478,-0.7885527610778809,-0.899894654750824,-1.1242377758026123,-1.3221460580825806,-2.188462972640991,1.7224127054214478,0.005397501401603222,-1.0879144668579102,0.8164560794830322,-2.029219150543213,-0.9554087519645691,-1.6777596473693848,-0.23386524617671967,-1.9658738374710083,-0.4361707270145416,-0.6008875370025635,-1.9354431629180908,-0.14314331114292145,1.1353309154510498,-1.0176187753677368,1.0695031881332397,-2.206956148147583,-0.7873145341873169,-0.068181611597538,-0.7847565412521362,-1.110677719116211,0.24526803195476532,0.06356415152549744,-0.4700613021850586,-0.45538094639778137,-1.4740186929702759,0.5293440222740173,-0.591417133808136,-0.3428574502468109,0.8434472680091858,0.6398987174034119,0.9078276753425598,1.8719611167907715,0.17210008203983307,1.2345552444458008,0.496664434671402,2.0097100734710693,0.0801573097705841,-1.059491515159607,1.6113661527633667,2.9990015029907227,2.5366899967193604,-0.23004773259162903,-1.107964277267456,2.1791064739227295,-1.2238775491714478,1.0678311586380005,-0.9835458993911743,0.42352813482284546,0.5419042110443115,0.649021327495575,-0.5964478850364685,1.1025829315185547,-0.782777726650238,0.32994043827056885,0.27342692017555237,-0.7310768961906433,-1.0719836950302124,-2.6207804679870605,0.7487124800682068,-0.2733270525932312,0.008532227948307991,1.620804786682129,0.7092554569244385,1.6220756769180298,0.7444187998771667,2.1671142578125,-1.1928082704544067,-1.28342866897583,-0.7358630299568176,1.33152174949646,-0.05738489702343941,-1.135427713394165,-0.9847908020019531,0.40062904357910156,-0.3452901244163513,-0.7274125218391418,-0.3159046173095703,-0.6849952340126038,-1.1761866807937622,-0.3867018222808838,1.9910333156585693,-1.672261357307434,-1.656593680381775,2.6825246810913086,-0.5363184213638306,0.28291431069374084,-0.1617564857006073,0.27227339148521423,-1.6600607633590698,-0.4498613774776459,0.8557387590408325,-0.7858468890190125,-0.49751609563827515,2.3833158016204834,-0.7868123650550842,1.0028480291366577,-0.4689536988735199,0.941919207572937,-1.797314167022705,0.17847906053066254,-1.2405457496643066,0.44598087668418884,-1.77876877784729,1.7986103296279907,0.29818907380104065,1.4524561166763306,3.0102813243865967,-1.656090497970581,0.41819697618484497,0.06461583822965622,-0.4923882484436035,-0.6768128871917725,-2.0571398735046387,-1.1823447942733765,0.3607451319694519,1.2833194732666016,0.5137985348701477,-0.8682762384414673,0.7553460001945496,-2.9766712188720703,0.4175640940666199,1.1066160202026367,-1.1353038549423218,2.6973795890808105,-1.2453174591064453,-1.7586588859558105,1.1723860502243042,-0.8895072340965271,-1.160946011543274,-1.766722321510315,2.274603843688965,-0.3574851155281067,-0.48606157302856445,0.24201518297195435,0.966060221195221,-0.7061029672622681,0.04248817637562752,2.0109684467315674,-1.0171141624450684,2.273642063140869,0.1415567696094513,0.9868855476379395,0.6661528944969177,-0.9484846591949463,-0.5178484320640564,0.5741785168647766,-0.37032240629196167,1.2700780630111694,2.481066942214966,-0.6800109148025513,-1.2656264305114746,0.5020450949668884,1.1958167552947998,-0.09781153500080109,-0.7813794612884521,-2.1329314708709717,0.5706411600112915,2.093531847000122,1.301670789718628,-2.4084632396698,-0.5077659487724304,-1.6297446489334106,1.6223970651626587,-1.2849068641662598,0.5938971042633057,-1.1812843084335327,-0.3717261850833893,2.2793495655059814,0.8491581082344055,-0.1853390336036682,1.166629672050476,-1.2818589210510254,-2.6687164306640625,-0.548102617263794,-0.032634079456329346,-0.31070947647094727,-0.20635943114757538,-0.3277747631072998,0.6609926223754883,1.1666672229766846,-1.135315179824829,0.44779881834983826,-0.7648168802261353,-0.6419393420219421,-2.4854660034179688,-3.2050037384033203,-0.7537135481834412,-1.439969539642334,-1.705436110496521,0.7217048406600952,2.302309274673462,0.36572664976119995,2.9963231086730957,1.1641699075698853,1.1009328365325928,1.9362095594406128,-0.9496502876281738,0.1124674528837204,0.03984152898192406,1.6907292604446411,0.19661693274974823,-1.461118459701538,2.814542293548584,0.37331217527389526,-1.1433998346328735,0.01886570267379284,0.21775178611278534,0.9018151164054871,-1.1245733499526978,-0.45502710342407227,1.6774163246154785,-0.7238624691963196,1.3854005336761475,2.327913284301758,1.8131046295166016,-0.4706624448299408,-0.34452855587005615,-3.0597758293151855,-0.7335748672485352,0.05731259658932686,0.3226579427719116,-1.331354022026062,0.6967483162879944,-0.9196361899375916,0.602445662021637,-0.7572407126426697,1.394178867340088,-0.044822148978710175,-2.3750298023223877,-0.8361328840255737,-0.1858544498682022,3.6489665508270264,-3.46696138381958,-0.4060713052749634,-0.9767509698867798,-0.6658722162246704,0.8640028834342957,-0.2696208655834198,-0.12761087715625763,0.8880703449249268,-0.18399019539356232,-1.5539329051971436,-0.639862060546875,0.4336039423942566,0.8864699006080627,-1.0149552822113037,0.6763641238212585,-0.689129650592804,1.8303165435791016,-0.5954445600509644,2.2257285118103027,-1.3175876140594482,0.8858091831207275,-0.7589985132217407,2.126572847366333,0.2253129482269287,2.1286442279815674,-0.2110442966222763,-0.26767221093177795,1.1632314920425415,2.37540864944458,0.18094632029533386,-2.1647746562957764,-0.5669211149215698,-0.8611147403717041,1.1027932167053223,-1.091908574104309,1.0989018678665161,-0.3496948480606079,-1.092247724533081,-0.3504232168197632,-0.3739945590496063,-1.4899863004684448
笔者,0.5044749975204468,0.11069463193416595,0.2529730200767517,0.07547159492969513,0.01862962916493416,0.36307790875434875,-0.3546009063720703,0.17701603472232819,0.12830953299999237,-0.003521621460095048,-0.29810816049575806,-0.65003502368927,0.08923251181840897,0.2831825911998749,-0.2947312593460083,-0.056176286190748215,-0.1503758281469345,-0.23347732424736023,-0.20528198778629303,-0.02985331416130066,0.045509111136198044,0.0631529688835144,-0.05381763353943825,-0.6610054969787598,0.21307958662509918,-0.3535928428173065,0.3731289505958557,0.03542127087712288,0.2024209052324295,0.1298927515745163,0.24667853116989136,0.2875225245952606,-0.5019805431365967,0.01624845527112484,0.2662869095802307,-0.36233729124069214,0.14511655271053314,0.017401471734046936,0.36901500821113586,-0.4900501072406769,-0.4340907037258148,-0.25572291016578674,0.04525362327694893,0.11830251663923264,-0.5978535413742065,0.12915700674057007,0.9016680121421814,0.46525469422340393,0.2996476888656616,-0.1647588014602661,0.011866914108395576,0.24599096179008484,0.4984683692455292,0.43039649724960327,0.41634002327919006,0.13275180757045746,0.05649510771036148,-0.11627727001905441,0.28934362530708313,-0.13549433648586273,0.2788628041744232,0.23462097346782684,-0.020990755409002304,-0.10113806277513504,-0.28085196018218994,0.5151618719100952,0.1851038932800293,-0.3930980861186981,0.40679696202278137,0.08569378405809402,0.21574395895004272,-0.10744732618331909,-0.47516217827796936,-0.06726040691137314,-0.11690843105316162,-0.08926285058259964,-0.14020183682441711,0.24595791101455688,-0.5081818103790283,0.17073631286621094,-0.09121637791395187,0.008110838942229748,-0.27920517325401306,0.272935688495636,0.05475183203816414,0.10041370242834091,-0.16190114617347717,0.0070151956751942635,-0.07676968723535538,0.3581431806087494,0.030355827882885933,0.6046109199523926,-0.13950486481189728,-0.02241840399801731,-1.28030264377594,-0.036430634558200836,-0.1975083351135254,0.22161026298999786,0.07874943315982819,-0.5197678208351135,-0.5803410410881042,0.44152888655662537,0.252869576215744,0.1183573380112648,0.4010336697101593,-0.12424229085445404,0.47297579050064087,0.023859674111008644,-0.2613126039505005,-0.38850513100624084,0.7476258873939514,-0.8953914642333984,0.5465986132621765,0.2422305941581726,0.40252652764320374,-0.40278884768486023,-0.8278064727783203,-0.28169408440589905,-0.03643156960606575,0.20625711977481842,0.3569982647895813,0.32793596386909485,0.3545514941215515,-0.39390677213668823,-0.44113320112228394,0.5590352416038513,0.3863372802734375,0.08669028431177139,-0.5687177777290344,-0.0232635959982872,-0.2662958800792694,-0.46598532795906067,0.5920433402061462,-0.09154599159955978,-0.431702584028244,-0.03698902577161789,0.3073398172855377,0.0005378047935664654,-0.13078030943870544,-0.5099737644195557,-0.359770804643631,0.2361496239900589,-0.12334205955266953,-0.2634235918521881,0.06295018643140793,-0.4089376628398895,0.3169482946395874,0.3063969910144806,-0.7059504985809326,-0.6122965216636658,0.554993212223053,0.18511298298835754,-0.4922226369380951,0.24756261706352234,-0.01869114488363266,0.19296440482139587,0.014909625053405762,-0.1551940143108368,-0.6141974925994873,-0.3654934763908386,-0.18376363813877106,-0.03761272504925728,0.2518303692340851,-0.18698368966579437,-0.10477299988269806,-0.053000468760728836,0.2402621954679489,0.4962683320045471,0.026642929762601852,0.026819398626685143,-0.49456194043159485,-0.33757659792900085,0.06102650240063667,-0.18676447868347168,-0.16141244769096375,0.4421515464782715,-0.7029280662536621,-0.1399490386247635,0.006086924113333225,-0.021531809121370316,-0.0051811193116009235,-0.05021844431757927,0.18093319237232208,-0.08025316894054413,-0.3995044529438019,-0.19263452291488647,-0.21069107949733734,-0.2290561944246292,-0.312641978263855,0.22804826498031616,-0.04757283255457878,0.27611327171325684,0.7688441872596741,0.1598377823829651,-0.0399373322725296,0.22488000988960266,-0.030134547501802444,-0.4903349280357361,-0.1836175173521042,-0.3745165765285492,0.33398863673210144,0.23614326119422913,-0.2228945940732956,-0.09924063831567764,0.16486254334449768,0.011936038732528687,-0.6411218047142029,0.47522565722465515,-0.4947057068347931,0.3237551152706146,0.0018306290730834007,0.6864960193634033,-0.08147772401571274,-0.052816301584243774,0.28592240810394287,-0.0024526917841285467,-0.8411818146705627,0.05014470964670181,-0.1613301932811737,0.2513197064399719,0.4588424563407898,-0.054061807692050934,0.21628740429878235,0.4666580855846405,-0.1188746765255928,0.015606693923473358,-0.13079726696014404,0.3602849543094635,0.02260434813797474,0.1915813833475113,-0.2146425098180771,0.3390171527862549,-0.12686724960803986,-0.01870310679078102,0.4078252613544464,-0.5832623839378357,0.19527237117290497,-0.4014985263347626,0.4416196346282959,0.362346351146698,0.06905341893434525,0.23812824487686157,0.35987141728401184,-0.2287566214799881,0.1189175695180893,0.33196672797203064,-0.025520646944642067,0.26485276222229004,-0.14251995086669922,-0.5508663654327393,-0.06213996931910515,-0.19499169290065765,-0.16728238761425018,0.1655512899160385,-0.269775390625,-0.17861293256282806,0.15893390774726868,0.35697662830352783,-0.0874783843755722,-0.16871775686740875,-0.06881214678287506,0.19108979403972626,0.1509430706501007,0.7605208158493042,-0.01795903407037258,-0.5736752152442932,-0.4924485385417938,-0.5831471085548401,-0.5174079537391663,-0.08745645731687546,-0.06671521812677383,-0.18488632142543793,-0.0312423687428236,-0.349967896938324,0.441803514957428,-0.49583789706230164,-0.42254242300987244,0.12446784228086472,-0.2630305290222168,-0.3291097581386566,0.1330224871635437,0.30934956669807434,-0.1290469616651535,0.5455176830291748,0.0652889832854271,-0.4846119284629822,0.38800129294395447,0.48066189885139465,0.18281246721744537,-0.41205504536628723,0.1401822417974472,0.12706983089447021,0.22245283424854279,-0.4580058157444,0.3277377486228943,0.15910974144935608,-0.08762069046497345,0.5654882192611694,-0.5100222826004028,-0.24481412768363953
