word,0,1,2,3,4,5,6,7,8,9,10,11,12,13,14,15,16,17,18,19,20,21,22,23,24,25,26,27,28,29,30,31,32,33,34,35,36,37,38,39,40,41,42,43,44,45,46,47,48,49,50,51,52,53,54,55,56,57,58,59,60,61,62,63,64,65,66,67,68,69,70,71,72,73,74,75,76,77,78,79,80,81,82,83,84,85,86,87,88,89,90,91,92,93,94,95,96,97,98,99,100,101,102,103,104,105,106,107,108,109,110,111,112,113,114,115,116,117,118,119,120,121,122,123,124,125,126,127,128,129,130,131,132,133,134,135,136,137,138,139,140,141,142,143,144,145,146,147,148,149,150,151,152,153,154,155,156,157,158,159,160,161,162,163,164,165,166,167,168,169,170,171,172,173,174,175,176,177,178,179,180,181,182,183,184,185,186,187,188,189,190,191,192,193,194,195,196,197,198,199,200,201,202,203,204,205,206,207,208,209,210,211,212,213,214,215,216,217,218,219,220,221,222,223,224,225,226,227,228,229,230,231,232,233,234,235,236,237,238,239,240,241,242,243,244,245,246,247,248,249,250,251,252,253,254,255,256,257,258,259,260,261,262,263,264,265,266,267,268,269,270,271,272,273,274,275,276,277,278,279,280,281,282,283,284,285,286,287,288,289,290,291,292,293,294,295,296,297,298,299
全面提高,0.17992772161960602,-0.09952867031097412,0.2300885021686554,0.05121837556362152,-0.0008907080045901239,0.0574817955493927,-0.2717353403568268,0.062392376363277435,-0.22468648850917816,0.07033378630876541,-0.23445762693881989,-0.05037727952003479,-0.09542027860879898,0.008431514725089073,-0.03577612712979317,-0.06681641191244125,0.10423528403043747,-0.0979260802268982,-0.04861477389931679,-0.14692623913288116,0.02188119664788246,0.005754195619374514,-0.024664103984832764,-0.01666782982647419,0.06931208074092865,-0.2738502621650696,-0.07724693417549133,0.10242439806461334,0.06453511863946915,-0.04346267879009247,0.15918047726154327,-0.022540468722581863,-0.03936680406332016,0.027612723410129547,-0.010578322224318981,-0.1460697203874588,0.1077423095703125,-0.1299615055322647,-0.16852539777755737,0.010831589810550213,-0.02983012981712818,0.08282081037759781,-0.08473891019821167,-0.13613921403884888,-0.19234296679496765,0.1096237301826477,-0.008445672690868378,-0.025153174996376038,-0.1469329446554184,0.05816389247775078,-0.10035086423158646,-0.09484753012657166,0.03465976566076279,0.028208335861563683,-0.033516403287649155,-0.09777127951383591,-0.004124633967876434,0.08354879915714264,-0.042594850063323975,-0.19401802122592926,0.16157196462154388,0.028695926070213318,0.06509845703840256,0.0755731463432312,0.02569103240966797,-0.10060364007949829,-0.05666843801736832,0.1049673780798912,-0.05872628092765808,-0.07999613136053085,-0.021967299282550812,-0.16152600944042206,0.0659095048904419,0.10356267541646957,0.16510380804538727,-0.1787876933813095,0.11526515334844589,0.0553954653441906,-0.12160075455904007,-0.041145049035549164,-0.022394943982362747,0.04283475875854492,-0.13035701215267181,-0.15144839882850647,-0.14119741320610046,0.0749337449669838,-0.04796876758337021,-0.11644754558801651,0.07529167830944061,-0.06592836230993271,-0.1335626244544983,0.059841275215148926,0.10566242784261703,0.05543443188071251,-0.028053872287273407,-0.15575234591960907,0.10648901015520096,-0.035692550241947174,-0.08516383171081543,-0.15556953847408295,0.10037613660097122,0.10002845525741577,-0.13579677045345306,0.0029068398289382458,0.04044850170612335,0.18339233100414276,-0.1587621569633484,0.13227799534797668,0.03634931519627571,-0.12941597402095795,-0.1872948855161667,0.05214931070804596,0.007252296432852745,-0.30450737476348877,-0.0665683001279831,0.059797510504722595,-0.11824139952659607,-0.03630442172288895,-0.09333810210227966,-0.17985495924949646,0.14653095602989197,-0.09573934227228165,-0.04039870202541351,-0.036335743963718414,0.1842946708202362,0.12170890718698502,-0.10346772521734238,0.011099379509687424,-0.08509740978479385,-0.07245925068855286,0.04887519031763077,0.02252885513007641,0.0845569297671318,0.1517832726240158,-0.058769937604665756,-0.115132175385952,0.1398942619562149,0.04414914920926094,-0.05752658098936081,0.014242101460695267,-0.12465354800224304,-0.1272474229335785,-0.04719541594386101,-0.05900927633047104,0.04536781460046768,0.029857566580176353,-0.09126821905374527,0.0023901578970253468,0.04050028696656227,0.09437328577041626,0.005024819169193506,-0.06696763634681702,-0.012117565609514713,0.07847907394170761,0.09513247013092041,-0.10635901987552643,0.0007765452028252184,0.11730197072029114,0.0015928935026749969,-0.13015782833099365,0.0121528385207057,-0.03363397717475891,0.11525038629770279,-0.03235083445906639,-0.0071327704936265945,0.03418409451842308,0.22099658846855164,-0.016219867393374443,0.22991152107715607,0.12559574842453003,0.006101762410253286,-0.058623988181352615,0.018333110958337784,0.007368639577180147,0.01863591931760311,0.012029439210891724,-0.06022125482559204,-0.18407362699508667,0.04954037815332413,0.019009415060281754,-0.07717353850603104,0.05041547119617462,-0.0727464109659195,-0.0799221321940422,0.05661913380026817,0.21283388137817383,-0.03434634208679199,-0.027926333248615265,-0.08724939078092575,-0.16577516496181488,0.10995986312627792,0.022183485329151154,-0.04624734818935394,-0.06504108011722565,0.128439262509346,0.09882824122905731,-0.08577261120080948,0.06421086192131042,-0.21281936764717102,0.015361147932708263,-0.02553774230182171,0.13313685357570648,-0.06088411062955856,0.07529465854167938,0.01737065613269806,0.033163540065288544,0.041550640016794205,-0.0535147562623024,0.11295026540756226,0.0002360182406846434,-0.0009742959518916905,-0.13760559260845184,-0.01831388659775257,0.04893843084573746,-0.0033545398619025946,0.20243650674819946,0.04089600592851639,0.03840969130396843,0.11594925075769424,-0.17224329710006714,0.05680285021662712,0.06396378576755524,0.0024378234520554543,-0.003975407220423222,-0.07768373936414719,-0.05146355926990509,0.002858158200979233,-0.09735195338726044,-0.1708621084690094,0.15255048871040344,-0.3199807405471802,-0.08039122074842453,0.1658145785331726,0.07776250690221786,-0.04977017641067505,-0.10155308991670609,0.14259973168373108,0.010334528051316738,-0.12126265466213226,0.07480504363775253,-0.0785774290561676,0.08061914891004562,-0.1317206770181656,-0.07891972362995148,-0.18769261240959167,-0.10524851828813553,-0.07803891599178314,-0.03823297098278999,0.022528771311044693,0.11175667494535446,-0.10307375341653824,-0.047870032489299774,-0.046576641499996185,-0.035374317318201065,0.0914706364274025,0.005864400882273912,0.06840897351503372,0.08053488284349442,-0.1262672245502472,0.04003067687153816,0.016247238963842392,-0.18640375137329102,-0.1692405343055725,-0.09444557875394821,-0.08126980811357498,0.1447504609823227,0.15438273549079895,0.03796258196234703,0.010923231020569801,-0.005606828257441521,-0.12501981854438782,0.02540806122124195,0.08605707436800003,0.011145494878292084,-0.11465700715780258,0.1066240519285202,-0.06284412741661072,0.10176318883895874,-0.10282943397760391,-0.043837789446115494,0.056763794273138046,-0.10484027862548828,0.051406968384981155,0.12173546850681305,-0.2051188051700592,-0.13375607132911682,-0.026569291949272156,-0.12475743889808655,-0.06751540303230286,0.01719442754983902,0.029915448278188705,-0.04969806596636772,-0.026047000661492348,-0.11475256085395813,-0.09333813935518265,-0.23715664446353912,0.12306133657693863,-0.046589549630880356,-0.002576520899310708,-0.10775721073150635
小学,-1.6216340065002441,1.1357026100158691,-0.04681162163615227,2.8688762187957764,1.2553642988204956,0.6939217448234558,-2.417482614517212,-0.28666776418685913,1.0223898887634277,0.7708308696746826,-0.3879251480102539,-0.9643115997314453,-2.380167245864868,-0.13681833446025848,-0.09251314401626587,0.8424403667449951,1.5324572324752808,-2.3263659477233887,-1.1366279125213623,-2.659470796585083,-1.3148753643035889,-1.7865444421768188,-1.4503825902938843,1.377656102180481,-1.327974796295166,0.16010335087776184,1.9102147817611694,1.0760340690612793,0.2189980149269104,-1.1661617755889893,1.5768736600875854,0.12534992396831512,0.8282188773155212,-0.3144223093986511,2.114445924758911,-1.5774675607681274,0.12412268668413162,-0.9996811151504517,-0.5777499079704285,1.83510160446167,3.0457699298858643,-0.25759822130203247,-1.6575905084609985,0.6617844104766846,0.1849772185087204,0.3303895592689514,0.8170790672302246,-0.0822136253118515,-0.2785817086696625,1.209273338317871,-0.3111008107662201,-0.38441795110702515,-0.6309140920639038,-1.1225857734680176,0.8046176433563232,-0.017372366040945053,-1.3544998168945312,0.29828158020973206,1.5134425163269043,1.4794567823410034,0.2795448303222656,0.024490779265761375,3.248558282852173,-1.5311046838760376,0.04946017637848854,1.9148396253585815,0.11752539128065109,-0.4526384472846985,0.5340813398361206,-0.6073797345161438,0.21998029947280884,1.638465404510498,-0.21908394992351532,-1.2145038843154907,0.6363247632980347,1.4720332622528076,-0.16872374713420868,-1.0839154720306396,-2.0340800285339355,1.4898332357406616,-2.2436094284057617,-1.2973426580429077,1.8683663606643677,1.3878750801086426,0.7893360257148743,-0.9020224809646606,0.6323698163032532,-0.9597191214561462,1.0790314674377441,0.15855321288108826,1.4845527410507202,0.08614303916692734,1.6138983964920044,1.1953173875808716,1.1459263563156128,-0.705970048904419,0.7056026458740234,1.2749578952789307,-1.1777287721633911,1.0843220949172974,2.1987526416778564,-0.6979203820228577,0.4766201674938202,1.119295358657837,0.42374861240386963,0.4662126898765564,0.475527286529541,-0.8749179840087891,0.7610214352607727,0.660737931728363,-0.8249874114990234,-0.7753494381904602,3.0468318462371826,-1.9026814699172974,1.255098581314087,1.6971938610076904,1.3639169931411743,-0.5982299447059631,1.7756670713424683,0.4577108919620514,0.3294254541397095,-0.3556719124317169,-0.11975356936454773,0.7255721688270569,-0.6094000339508057,2.67698335647583,1.272377848625183,-0.38234639167785645,0.9285531044006348,-0.6615758538246155,-0.24969293177127838,1.3372784852981567,0.8157811164855957,-0.7369764447212219,0.7849587202072144,-0.09824664145708084,0.04381299763917923,-0.2675771117210388,-1.4849402904510498,1.3843072652816772,0.31650063395500183,-0.753783106803894,0.7341223359107971,0.9192666411399841,-0.4784870743751526,-1.4947086572647095,-0.13397400081157684,-0.39170774817466736,-1.6191109418869019,0.06904713809490204,-0.2781752347946167,-0.2187948226928711,0.2199772298336029,3.119455099105835,1.693495273590088,-0.2486954778432846,2.150082588195801,-0.14201508462429047,-2.1375503540039062,0.031020427122712135,-1.7430075407028198,1.214918613433838,-0.8551561236381531,-0.5377565622329712,0.8244405388832092,-2.0496251583099365,0.3598114848136902,0.5867802500724792,0.5143492221832275,-0.0679054707288742,0.33282336592674255,-0.9310827255249023,1.7148100137710571,-0.7936213612556458,0.6688328385353088,1.9605004787445068,-1.9385801553726196,-2.164860725402832,2.1524205207824707,0.049972593784332275,1.368304967880249,0.9973586797714233,-0.4827171564102173,-2.553523063659668,-0.46478134393692017,-1.350441336631775,-1.3197654485702515,-1.8706663846969604,-1.1206759214401245,-0.06274355202913284,1.2779992818832397,0.08140125125646591,1.5261304378509521,-1.9490835666656494,-3.6883511543273926,-1.3696080446243286,1.3611160516738892,-0.837051272392273,-1.9367038011550903,0.6664106249809265,-0.41979414224624634,2.454688787460327,0.565639853477478,-1.0216096639633179,1.369736909866333,1.575979232788086,0.038056958466768265,3.7224507331848145,-2.349987745285034,0.03290275111794472,1.5061604976654053,1.2337350845336914,0.6520226001739502,-0.21291959285736084,0.9812041521072388,-0.24853651225566864,-1.5367498397827148,0.15573826432228088,-1.8050670623779297,1.4133429527282715,-0.16324825584888458,1.2088314294815063,1.2574139833450317,-1.248779296875,0.4167070984840393,0.9124965071678162,1.410232424736023,-0.29996442794799805,3.0426950454711914,1.1413582563400269,0.4613613784313202,-0.9589375257492065,0.2975350618362427,-3.2279136180877686,2.422248601913452,-0.2215680330991745,1.2207008600234985,-0.8670366406440735,2.048548460006714,-0.6075751781463623,-3.3610641956329346,-0.41273072361946106,2.924490451812744,1.0267307758331299,1.6141414642333984,-1.8703899383544922,0.992874026298523,0.08825647085905075,-0.4736205041408539,3.4255118370056152,-1.9763988256454468,0.2743445634841919,-1.2571855783462524,1.3377493619918823,-0.1270361840724945,1.5519437789916992,-1.26780366897583,0.4622149169445038,2.6206912994384766,0.31334489583969116,-0.13731372356414795,0.46903032064437866,0.8157709240913391,-4.210059642791748,-2.235557794570923,-2.0058541297912598,0.002138392301276326,0.7146074175834656,-0.2376265674829483,1.8945833444595337,-0.2006099671125412,-0.04763912409543991,0.9568342566490173,0.40382248163223267,2.1438052654266357,0.7987940907478333,4.491050720214844,2.9684746265411377,-1.0504964590072632,1.9549355506896973,-0.9422651529312134,0.4360027611255646,1.384230613708496,-1.2230710983276367,-0.926332950592041,-3.0073137283325195,-1.4922393560409546,-2.802224636077881,1.0011215209960938,-0.9039714336395264,-2.902865171432495,-1.2329537868499756,-0.3752037584781647,-2.4600019454956055,2.2203426361083984,-1.1675045490264893,2.24383544921875,0.37303125858306885,2.266130208969116,-1.2718377113342285
发展,0.6984522342681885,0.9620286822319031,-0.07771451026201248,-0.9317935705184937,-2.5672528743743896,2.60931396484375,-2.4616806507110596,1.314682126045227,-1.1982098817825317,-1.361206293106079,-1.9274135828018188,-0.3858586549758911,-0.22540675103664398,1.719325065612793,-1.7745651006698608,-2.0921216011047363,-1.2159558534622192,0.3854042589664459,-4.1609272956848145,-2.762526035308838,-1.7438241243362427,-0.8941072225570679,0.07230883836746216,-0.7530167102813721,-0.9207749962806702,-1.8498286008834839,2.62998628616333,-0.8069405555725098,-2.262579917907715,2.2611865997314453,-0.6674798130989075,-0.05201151967048645,-0.6663395762443542,0.5489665865898132,-1.5857715606689453,0.3455279469490051,1.2443052530288696,-2.1204888820648193,-0.8159147500991821,0.91738361120224,-2.1844115257263184,0.4704054296016693,-0.6353783011436462,-1.3428477048873901,0.36126384139060974,-0.36957138776779175,1.1500253677368164,1.4885321855545044,-1.2095112800598145,-0.4639572501182556,-1.2034084796905518,-1.085219383239746,1.5184956789016724,-0.6157760620117188,-0.9967164993286133,-0.10375416278839111,0.28048330545425415,0.8339306116104126,3.217082977294922,-0.07481135427951813,1.6402698755264282,0.8198704719543457,-0.4192871153354645,-0.45632219314575195,0.7076954245567322,-1.240365743637085,-0.06842397153377533,3.390279531478882,-1.3413207530975342,-0.11424102634191513,0.02672670967876911,0.12962640821933746,0.46092745661735535,-2.5135796070098877,1.5646551847457886,-0.31712955236434937,3.8431990146636963,-0.7074496746063232,2.2938392162323,-0.1596451997756958,-0.02122039720416069,-0.6090794205665588,-0.438078910112381,-1.1586148738861084,-2.883767604827881,0.19009087979793549,0.6933789253234863,1.8372480869293213,0.5363370776176453,-1.404707431793213,-0.08545331656932831,-1.7921416759490967,0.6845552921295166,-1.1424695253372192,2.292389392852783,-1.214266061782837,0.7613411545753479,0.21755877137184143,-1.347183346748352,-1.2742124795913696,1.8035893440246582,-1.2819995880126953,0.022144807502627373,0.5604419112205505,-0.3496449887752533,0.09857654571533203,-0.04158008098602295,1.6436915397644043,0.02729090116918087,-1.47575843334198,-0.9485960602760315,-1.0315228700637817,0.3294544816017151,0.6403678059577942,-1.7580726146697998,-0.8214901089668274,-1.0554368495941162,-0.5536282658576965,1.4430164098739624,0.608594536781311,1.193893551826477,-0.620164692401886,-0.555184006690979,2.4117655754089355,0.10965300351381302,-0.456465482711792,-1.780765414237976,-0.160768061876297,0.42674559354782104,-2.183967351913452,3.16803240776062,-0.20500192046165466,-0.7085477113723755,1.3574904203414917,-1.1085575819015503,-3.083890914916992,-1.8180174827575684,0.015113076195120811,-1.9987573623657227,0.2624284029006958,-0.35915645956993103,1.276470422744751,2.0944995880126953,-2.813323974609375,-0.7141383290290833,-1.8440980911254883,-1.2934843301773071,-0.5135090947151184,1.0605525970458984,-1.0989562273025513,1.3935492038726807,0.7723259925842285,1.393210768699646,1.0945454835891724,0.594790518283844,-2.400315284729004,-0.9939393401145935,2.22407603263855,-0.8668687343597412,-0.718075156211853,1.0152018070220947,-0.8778760433197021,0.9841286540031433,-0.7627674341201782,-0.25235575437545776,-0.9258196949958801,0.9610621333122253,-2.7854745388031006,0.8493521213531494,-0.5183843970298767,0.734653651714325,-0.28349360823631287,-2.1378822326660156,-1.0639965534210205,0.3440816104412079,1.2477902173995972,0.21954815089702606,1.0473307371139526,1.2385249137878418,-1.7794400453567505,-1.8196916580200195,-0.6256288886070251,-1.7396409511566162,-1.1906001567840576,0.17688627541065216,1.0872009992599487,-0.483257919549942,-0.13446266949176788,-2.1016573905944824,-0.8136286735534668,-2.0870578289031982,0.02981572598218918,-0.2849528193473816,2.2730143070220947,-2.5965676307678223,-2.2331626415252686,0.6388393640518188,-1.9434239864349365,-0.4756630063056946,-3.035051107406616,-2.1804044246673584,-1.9396765232086182,-0.6862366795539856,0.9744060635566711,-1.0026452541351318,-1.802329421043396,0.9250505566596985,1.3654065132141113,0.1915065199136734,-1.4213966131210327,1.9175570011138916,0.06029735133051872,-1.5572774410247803,-1.1520814895629883,-0.21618948876857758,-1.2827976942062378,-0.9519076347351074,1.2520866394042969,-1.3687658309936523,0.7349910736083984,0.7107141017913818,0.6445398330688477,1.3160676956176758,2.093066692352295,-2.0965778827667236,0.7062849998474121,-0.8210261464118958,-2.248366355895996,-1.2996010780334473,-0.9341745972633362,-0.5623378753662109,-1.9364638328552246,1.350305438041687,2.1192357540130615,0.6245179176330566,0.764250636100769,1.110361933708191,0.35453253984451294,0.372996062040329,2.184525489807129,2.381645917892456,3.1912801265716553,-0.2425341159105301,-1.7395597696304321,-2.3945648670196533,-0.4295033812522888,0.9425807595252991,-0.21477924287319183,-2.015596389770508,0.061243459582328796,-2.6144344806671143,-0.318190336227417,-0.3380391597747803,-1.0839701890945435,-0.5570576786994934,-0.9474430680274963,-0.6397744417190552,-0.22498883306980133,1.121660828590393,-0.8432782888412476,0.11007394641637802,-0.011990310624241829,0.5245359539985657,0.367544561624527,0.4292471706867218,0.6911052465438843,-1.3085280656814575,-0.48572516441345215,-1.383840560913086,-0.28742438554763794,0.8580267429351807,-0.5327343940734863,0.9135420918464661,0.7721747756004333,-0.9491597414016724,0.21516886353492737,0.2114093005657196,1.482215404510498,-1.8805389404296875,0.4482146203517914,0.752055287361145,1.0441662073135376,-1.204243540763855,1.5204596519470215,0.36610665917396545,1.006812572479248,-1.7811185121536255,-1.833150863647461,-0.5646392107009888,-2.4444305896759033,-1.7437664270401,-2.3425354957580566,0.8112437725067139,-1.0901827812194824,1.6517841815948486,1.267886757850647,0.4883626699447632,-0.8632479310035706,-1.9288504123687744,-0.6344438195228577
学生,2.4274003505706787,0.6676017642021179,-0.3195067048072815,-1.5146596431732178,0.1727207750082016,1.452633261680603,-0.35073041915893555,1.008644461631775,0.4949832856655121,-0.45167276263237,-2.1444039344787598,-0.3783314526081085,-1.0853773355484009,2.07775616645813,0.0663750022649765,0.747175395488739,1.621368408203125,-2.252326488494873,-1.6297706365585327,-1.0349071025848389,-1.1834450960159302,-1.431551218032837,0.8203704953193665,-0.759503960609436,0.02453678846359253,0.3526619076728821,0.5756027698516846,0.6613054871559143,-0.07520250976085663,-0.32644376158714294,0.2907957434654236,-0.30388325452804565,0.27436545491218567,-0.359199583530426,-1.6898772716522217,0.6419627070426941,-2.4325668811798096,0.2887516915798187,2.1714417934417725,0.37906402349472046,-0.06127474829554558,0.21229419112205505,-3.430680751800537,0.33024197816848755,-0.14084962010383606,-0.8149098753929138,-0.8671942353248596,-0.8729926347732544,-0.03621916100382805,0.48681217432022095,0.09763206541538239,1.2205392122268677,-1.3339409828186035,0.7441984415054321,1.9624731540679932,-0.03607267886400223,-2.8759710788726807,1.9408135414123535,0.7206252217292786,-0.08380004018545151,0.40922555327415466,-0.15805502235889435,1.662166714668274,-0.3993189334869385,-2.2350826263427734,1.5327835083007812,-0.7549910545349121,0.9190800786018372,0.5022585391998291,-0.784062385559082,1.8431390523910522,1.435198187828064,0.9197763800621033,-0.42131611704826355,0.5060980916023254,1.5308856964111328,-0.534180760383606,-0.5038022994995117,-0.6170633435249329,0.14356011152267456,-2.041274070739746,-2.362490653991699,-1.5808595418930054,0.40731558203697205,-0.48636549711227417,-2.901843547821045,1.0781446695327759,-3.164966344833374,0.15329208970069885,-0.8078912496566772,0.38397035002708435,1.126283049583435,-0.01586245745420456,1.209523320198059,-0.37848588824272156,0.34678420424461365,1.6899408102035522,1.578308343887329,-1.876854658126831,0.055889204144477844,-0.8843470215797424,-0.668521523475647,0.7638744115829468,0.26817798614501953,-0.597614049911499,0.576040506362915,1.2288093566894531,2.9573206901550293,-0.6444916725158691,0.23549355566501617,1.538079857826233,-0.43627241253852844,0.6693174839019775,-2.284198522567749,0.13448697328567505,0.042224910110235214,1.3706817626953125,-1.169102668762207,-1.757171630859375,-0.07263399660587311,0.7780779600143433,0.5140701532363892,1.2674745321273804,0.4085436463356018,0.6037304997444153,-0.7883595824241638,2.3954904079437256,-0.23707064986228943,1.6373783349990845,1.0001896619796753,0.562788188457489,-0.9742347002029419,-0.4481993317604065,-0.056182801723480225,-2.136502742767334,-1.689730167388916,-2.1730844974517822,1.7363947629928589,0.44511017203330994,-1.7508620023727417,-2.797074794769287,-0.41656434535980225,0.39672765135765076,-2.286910057067871,1.9879189729690552,0.7612072229385376,0.13437700271606445,0.7754893898963928,0.9057824015617371,0.15532590448856354,0.5692418217658997,-1.5033637285232544,-0.5601193904876709,1.043440818786621,-0.20962855219841003,-1.0436861515045166,0.8785082697868347,2.7797374725341797,-1.032585859298706,2.1887001991271973,0.053801167756319046,0.2131766825914383,1.0246094465255737,0.20933963358402252,1.0006133317947388,-1.6735584735870361,-0.5782981514930725,1.5535640716552734,0.4844690263271332,0.018608365207910538,-1.0935451984405518,-0.11559233069419861,0.5918384194374084,0.003208573441952467,1.8467546701431274,2.1782267093658447,1.046303629875183,-6.0106377601623535,1.7313392162322998,-1.45237398147583,1.4665285348892212,1.3203774690628052,-0.2340497523546219,-1.4136765003204346,-0.548393189907074,-0.14942961931228638,-0.1644551306962967,1.0239700078964233,-1.2754729986190796,2.4089441299438477,-0.7169970870018005,2.4723644256591797,1.0431336164474487,0.24461878836154938,0.5014877915382385,-1.0546668767929077,-0.04700472205877304,-1.1307295560836792,1.4590728282928467,-1.9943195581436157,-0.029042458161711693,0.5150038003921509,0.6397930383682251,-1.71165931224823,0.8678264617919922,1.2070603370666504,0.54615318775177,2.854515552520752,0.13450992107391357,1.2517393827438354,0.48469531536102295,-1.6997957229614258,-2.0805094242095947,2.1596953868865967,-0.7763893008232117,0.36947229504585266,-1.145639181137085,2.305556058883667,-0.8955638408660889,1.0909830331802368,-1.2235560417175293,-0.5925915837287903,2.172325611114502,-1.4448062181472778,0.09258417785167694,0.36956629157066345,2.0883936882019043,0.05072967708110809,-0.5531234741210938,1.7853845357894897,-0.6914584636688232,-0.9332666397094727,0.7428682446479797,-0.1969345510005951,-0.19437727332115173,-0.978522539138794,1.9119282960891724,0.1945313662290573,1.8002924919128418,0.5811038017272949,-0.24054478108882904,1.4589593410491943,1.428706169128418,1.3905218839645386,-0.6275588274002075,-3.0655319690704346,-1.1372313499450684,0.22898542881011963,-0.9583989977836609,-0.08162616193294525,-1.8892325162887573,-0.5206745266914368,0.7584895491600037,2.5110411643981934,-1.2498198747634888,0.3903631865978241,-0.8482473492622375,1.1543269157409668,2.2539784908294678,-0.36745941638946533,0.8714079260826111,-0.3045040965080261,0.47036129236221313,-1.4577643871307373,-1.7240896224975586,0.10622632503509521,-0.9472326636314392,-1.2032448053359985,-0.026650166139006615,0.7330891489982605,0.48073920607566833,-1.0590051412582397,0.15348748862743378,2.988537311553955,0.7248193025588989,-0.26987937092781067,1.5153173208236694,0.04614045470952988,-0.08234784752130508,0.4004153609275818,0.453748494386673,0.05732385069131851,-0.44591447710990906,0.9957892298698425,0.22552943229675293,0.6784207820892334,1.3375217914581299,0.3143123686313629,-0.250425785779953,-0.6646475195884705,-1.6895644664764404,0.5086709260940552,-0.5711305141448975,-1.5816891193389893,2.4419519901275635,-1.3175716400146484,1.0456279516220093,-0.2966093122959137,0.38108667731285095,-0.7530199289321899
有利于,0.7520780563354492,-1.1698896884918213,0.7170928120613098,-0.7106684446334839,-1.2457740306854248,0.165618434548378,0.152289018034935,-0.3262164294719696,-1.104851245880127,-1.957503318786621,-1.4546853303909302,-0.46297523379325867,-0.6839404106140137,0.8764757513999939,-0.46465572714805603,-0.9612231850624084,-0.8530035018920898,-0.12138688564300537,-0.25637680292129517,-1.5775268077850342,-0.30193641781806946,-1.0970224142074585,0.770082950592041,-1.014419436454773,-2.43953800201416,-0.5350717902183533,0.9216870665550232,-1.1027617454528809,-0.5371705293655396,1.7619210481643677,1.1488114595413208,-0.4184442460536957,0.04634234681725502,1.2121254205703735,-0.07325795292854309,-0.3828350603580475,-0.3990592062473297,-1.9864037036895752,0.41220197081565857,-0.23697666823863983,0.6838745474815369,-0.6533392071723938,1.5270723104476929,-0.290314257144928,0.3003242015838623,0.7106533646583557,-0.13403713703155518,0.32242417335510254,-1.280361294746399,-0.1804373860359192,-1.0926660299301147,1.1021133661270142,1.493634581565857,-0.05415990948677063,-1.268967866897583,0.46281805634498596,0.014203902333974838,1.8428152799606323,0.9564417004585266,-0.8302825689315796,-0.8164863586425781,-0.33346444368362427,0.780579149723053,0.4750765264034271,-0.7076428532600403,0.6507835388183594,0.02407929301261902,1.999344825744629,-0.4151841700077057,-1.6678706407546997,-0.5839119553565979,-1.1213815212249756,-1.3551805019378662,-1.8269368410110474,0.5232733488082886,0.8745816946029663,0.5728338360786438,1.096947431564331,-0.3819768726825714,0.3769882321357727,2.6454806327819824,0.9335963726043701,0.3100648820400238,-1.0151395797729492,-0.3982689678668976,0.8779223561286926,0.24254626035690308,0.3971373438835144,-0.19963686168193817,-0.17957395315170288,-0.2629011273384094,0.004959790501743555,-0.3158797323703766,0.21039485931396484,-1.1263113021850586,-0.7009709477424622,1.6020259857177734,0.2764025628566742,0.21284820139408112,-0.4368988275527954,0.8729508519172668,-0.19671399891376495,-0.1362413465976715,0.3302445709705353,-0.4201798737049103,2.4044203758239746,0.03930890932679176,-0.03469863533973694,0.727181077003479,-0.1956334263086319,-0.9329215288162231,0.29914993047714233,-2.0619778633117676,1.226277470588684,0.2051830142736435,-1.6915045976638794,1.0628283023834229,-0.4691847264766693,-0.6380136013031006,0.9362143278121948,-0.4839884340763092,-0.9865111112594604,0.17365068197250366,1.5779857635498047,0.357270747423172,-0.07097382843494415,0.5738058090209961,1.695138931274414,-0.1522507518529892,-0.6706745624542236,1.0553224086761475,1.8157074451446533,0.7040502429008484,1.3295326232910156,-0.8736349940299988,0.3561134338378906,1.3950647115707397,-0.5410242080688477,-1.058925986289978,0.4466789960861206,-0.5694097280502319,0.3395271599292755,-1.40738046169281,0.5832787156105042,1.4530558586120605,1.5211896896362305,-2.641950845718384,-0.48883625864982605,-0.4477784037590027,-1.2513152360916138,0.3065926134586334,-0.06637149304151535,0.060790546238422394,2.1260976791381836,0.24408069252967834,-2.0160040855407715,-0.3963549733161926,1.3495569229125977,-0.6604865789413452,-1.2187001705169678,0.5258609652519226,-1.9339574575424194,0.41145560145378113,-1.865435242652893,1.3359650373458862,0.13761577010154724,0.41808709502220154,-0.3729977011680603,0.415286123752594,-0.48449718952178955,-0.9367190599441528,-0.14608487486839294,0.22946132719516754,-0.3566662669181824,1.0943800210952759,1.2379323244094849,0.005614655092358589,-0.23892426490783691,-0.0747862160205841,0.48755988478660583,-0.8460437059402466,-0.2775406241416931,-0.8669915199279785,0.3322128355503082,1.6784056425094604,1.302223563194275,-0.4992886483669281,0.2955353558063507,-0.5826517343521118,-0.18320047855377197,-0.357163667678833,-0.6086385846138,-0.286321759223938,1.4961727857589722,1.453953504562378,1.1756653785705566,-0.2850586175918579,0.5754202604293823,-0.6876118779182434,0.6248827576637268,-1.4315109252929688,-1.1088160276412964,0.6761767268180847,-0.62043696641922,1.0797803401947021,0.24810397624969482,1.1061030626296997,-1.1136358976364136,0.9674662351608276,-1.4360963106155396,-0.3623773455619812,-0.4172244369983673,-2.0506529808044434,1.5805814266204834,-1.3160136938095093,0.3235507011413574,1.4655036926269531,0.329340398311615,0.7384033799171448,-0.3514503836631775,0.0015906632179394364,1.593636393547058,0.9316563606262207,-0.19965536892414093,-0.8180366158485413,0.08338648825883865,2.0053720474243164,0.5006937384605408,-0.8068145513534546,0.15249904990196228,0.07622931897640228,0.3866932988166809,-0.08122392743825912,1.2004950046539307,-2.4972245693206787,-0.6287575960159302,0.14323216676712036,-0.25503337383270264,-0.8182336688041687,-1.1095694303512573,-0.8275039792060852,1.0225187540054321,-0.3347053825855255,0.7372437715530396,-1.9164637327194214,0.11110229045152664,-0.8569575548171997,-0.3868095874786377,0.3785261809825897,0.14028137922286987,-1.4120275974273682,0.49233707785606384,-1.3960273265838623,-0.6573784351348877,0.14445990324020386,-0.11780959367752075,-0.9141362309455872,-1.5592329502105713,1.2719149589538574,-0.774599552154541,0.2799758315086365,-2.3160576820373535,-0.8187428116798401,0.8677972555160522,0.76786869764328,-1.3617432117462158,-1.1275506019592285,-0.43638721108436584,-0.9606682062149048,-0.5897631049156189,0.2584517002105713,-0.7631723880767822,0.296229749917984,1.1273717880249023,-1.1648741960525513,0.9623937606811523,0.40841689705848694,1.0437942743301392,0.6777282953262329,-0.8167025446891785,1.9703058004379272,0.6132210493087769,-1.0969346761703491,0.2990202307701111,-0.04086553305387497,0.11471833288669586,0.7293756604194641,0.7125099301338196,-1.1934950351715088,0.05295694246888161,0.3403131365776062,-1.9291832447052002,0.06264816224575043,-0.8070130944252014,-0.59328693151474,-0.6284967064857483,0.22327496111392975,0.0161015335470438,-1.8454358577728271,-0.7500156164169312
思维,0.9493011832237244,-2.0897560119628906,1.9646117687225342,-1.5009808540344238,-0.7061754465103149,1.149228572845459,-0.35366564989089966,-0.6373381614685059,1.2176618576049805,-0.7396355867385864,-1.3565105199813843,-1.3409940004348755,0.30740609765052795,1.3812143802642822,-1.1622048616409302,1.3878469467163086,0.46294689178466797,0.6592158079147339,-1.2426362037658691,-1.426086664199829,1.0350943803787231,0.12378609925508499,0.14551682770252228,-0.8966509103775024,-0.5616326332092285,-1.8505563735961914,-0.7265539765357971,-0.5174696445465088,-1.4672832489013672,0.15798690915107727,-0.019962696358561516,0.5687590837478638,-2.5487210750579834,1.9888211488723755,0.6925454139709473,-1.5556889772415161,-0.8902071714401245,-1.5508137941360474,-0.486401230096817,-0.005443430971354246,-0.7434540390968323,-0.2936854958534241,0.0432073138654232,-1.5723326206207275,-1.0392251014709473,0.7685508131980896,1.651735544204712,0.6696721315383911,-0.8759725689888,-0.4765799939632416,-1.270049810409546,-1.483622431755066,0.8292709589004517,1.0569214820861816,0.41486021876335144,-1.4879933595657349,-0.36057883501052856,-0.6486837267875671,0.9565606117248535,0.10966329276561737,1.3668891191482544,-0.11746589839458466,-0.7675707340240479,0.2085437774658203,-2.005948781967163,2.157198667526245,1.8045741319656372,1.3520687818527222,-1.4837112426757812,-0.04965401813387871,-1.1285909414291382,0.07059711962938309,-0.729395866394043,-0.34830018877983093,0.48051512241363525,1.043992042541504,1.950617790222168,-0.3241617977619171,1.0835022926330566,-1.6907365322113037,-2.00199031829834,-2.0150747299194336,-1.452270269393921,0.6484947800636292,-2.3777546882629395,1.1377161741256714,0.5677002668380737,0.5037463903427124,-0.045062970370054245,-0.2769836485385895,2.1965830326080322,1.0963386297225952,1.0234334468841553,-0.676056981086731,-1.573646903038025,-0.5024046897888184,1.8340809345245361,0.024831006303429604,0.7474581003189087,-0.025474846363067627,0.20838339626789093,-1.438228726387024,0.2643047273159027,-0.988879382610321,0.07374241948127747,-0.22186942398548126,-0.5182750821113586,-0.01852317340672016,-0.536706268787384,-0.4655308723449707,1.1630728244781494,-1.116573452949524,-0.9433797597885132,0.7170620560646057,0.5588056445121765,0.8024327158927917,-0.07727565616369247,0.01379342656582594,-0.6528087854385376,0.24083498120307922,1.0520540475845337,-0.5212045907974243,1.733013391494751,0.4998263418674469,1.7092190980911255,-0.9390398859977722,1.2998600006103516,-0.5049609541893005,1.555093765258789,0.3767900764942169,1.4688937664031982,0.5887364745140076,0.15226814150810242,2.250044107437134,-1.3109354972839355,-0.015879567712545395,0.8783315420150757,0.8695951700210571,-0.1498142033815384,-0.5605525374412537,-0.3067687451839447,0.8609223365783691,1.4550673961639404,0.27200186252593994,1.1323751211166382,0.3746592104434967,-1.970908522605896,0.7798202633857727,0.27695202827453613,-0.7745847702026367,0.8613283038139343,-0.20948250591754913,-1.7560890913009644,0.5589452385902405,0.48581284284591675,-0.42586129903793335,-1.4080091714859009,1.7278443574905396,0.07463604211807251,-0.5774655342102051,1.4196490049362183,0.13196350634098053,0.12036413699388504,0.5750288963317871,-0.5234726667404175,-1.4741898775100708,1.6212772130966187,1.0722687244415283,0.9841471910476685,0.625200092792511,-2.059467077255249,-0.12963761389255524,-0.6376594305038452,0.5407487154006958,2.5482211112976074,-0.5853416323661804,-0.6269484162330627,-1.0714755058288574,0.29360491037368774,1.0644980669021606,-0.7367680668830872,-1.1854900121688843,-0.00812883023172617,-1.1396204233169556,0.2858583927154541,0.816358745098114,1.044060468673706,1.1613452434539795,0.005127080250531435,-1.5173614025115967,-0.22243477404117584,0.22953557968139648,0.30603131651878357,1.6345316171646118,-0.9193130135536194,0.6924751996994019,1.0268874168395996,1.063359260559082,-0.17434440553188324,1.3969701528549194,0.11227817833423615,0.3729291260242462,0.030161285772919655,-0.7356273531913757,0.8347328305244446,0.8329801559448242,0.2945975065231323,-0.48781880736351013,0.2501972019672394,0.6428530216217041,0.3291665315628052,-0.709236204624176,-1.7368381023406982,0.7685138583183289,-1.0902512073516846,0.37694963812828064,-0.24664926528930664,-0.735923171043396,-0.9305844306945801,0.026959571987390518,0.6399349570274353,-0.06428033113479614,-1.3769606351852417,-0.8580591082572937,-1.4782404899597168,-1.0277904272079468,-0.6663849353790283,1.8370985984802246,0.8391829133033752,0.5209624767303467,-0.28458064794540405,-0.9013085961341858,1.852901577949524,-0.865149974822998,0.14185848832130432,-0.41332149505615234,1.935642123222351,0.22051355242729187,-0.34116828441619873,0.19591815769672394,2.3402931690216064,1.0375458002090454,-1.6446555852890015,-0.14054206013679504,-0.9031873941421509,-1.2424408197402954,-0.10272401571273804,-0.4640786349773407,-1.496092438697815,2.0891788005828857,-0.5369049906730652,0.6154060959815979,0.8964889049530029,-0.6188979744911194,-0.521964967250824,-0.7377067804336548,-0.4647558033466339,0.6651429533958435,1.6649580001831055,-0.6556869745254517,0.37319913506507874,-0.09772328287363052,0.1288277953863144,0.20895931124687195,1.3438944816589355,-1.0211516618728638,-0.251625657081604,-1.6237112283706665,-1.3212547302246094,-0.5733425617218018,-1.414533019065857,-0.945849597454071,-0.7180717587471008,0.3095020055770874,-1.360124111175537,-0.1368887722492218,-1.260439395904541,1.2351475954055786,-0.6214419007301331,-0.24434053897857666,2.580636978149414,1.2355271577835083,0.1570756584405899,0.3963553011417389,-0.2920372486114502,-0.9998993873596191,0.9515089392662048,1.4178261756896973,-0.4598444402217865,-1.6313692331314087,-0.6985018849372864,-2.4921560287475586,0.5393168330192566,-0.4166814386844635,0.9173094034194946,0.31425824761390686,0.06485963612794876,-0.42006176710128784,-0.2753438353538513,-0.71650630235672
思维能力,0.06637581437826157,-0.08765619248151779,0.32478079199790955,0.10006684809923172,0.0526028610765934,0.23510655760765076,-0.20903117954730988,0.03199543058872223,0.15201713144779205,-0.06849385052919388,-0.3102917969226837,0.013022110797464848,-0.01990506425499916,0.16939689218997955,-0.07714993506669998,0.05520696938037872,0.08335545659065247,0.018589623272418976,-0.02030915394425392,-0.09758485853672028,-0.0658944621682167,0.07101105898618698,0.021682245656847954,-0.12835316359996796,-0.048780087381601334,-0.09033547341823578,-0.08680567890405655,-0.01832713559269905,0.0036995606496930122,0.0845634862780571,0.13327960669994354,0.10540367662906647,-0.2718152105808258,-0.052725616842508316,0.06869986653327942,-0.33199068903923035,-0.10509039461612701,-0.11710447818040848,-0.20806117355823517,0.06243644654750824,0.10914596170186996,-0.03457337245345116,-0.006288534961640835,0.09385105222463608,-0.0009764916030690074,-0.05517970770597458,-0.024503909051418304,0.03230823948979378,0.04584565758705139,0.1255238950252533,0.008108672685921192,0.10731040686368942,-0.05064849182963371,-0.06370387971401215,-0.05376299470663071,-0.10501199960708618,-0.16552288830280304,-0.13764283061027527,0.0018984961789101362,-0.04631282761693001,0.09978055953979492,-0.05631307512521744,-0.07619664818048477,-0.12698045372962952,-0.15659193694591522,0.014228740707039833,-0.0842050164937973,-0.025551985949277878,-0.14861850440502167,-0.1878962218761444,-0.09543239325284958,-0.08781623840332031,0.011077112518250942,0.10391857475042343,0.14725792407989502,-0.0058785551227629185,0.1937570422887802,0.021553723141551018,-0.03569736331701279,-0.08115454018115997,-0.23572951555252075,-0.032420799136161804,-0.04839698225259781,-0.044005732983350754,-0.23502597212791443,0.033164456486701965,0.04056311771273613,-0.12275413423776627,0.0072915563359856606,0.07293626666069031,-0.1024978831410408,-0.10263761878013611,0.058242928236722946,0.04623319208621979,-0.10816098749637604,0.03238530829548836,0.061430759727954865,-0.046396270394325256,0.08106309175491333,-0.04585704207420349,0.09581849724054337,0.050826091319322586,-0.12068863213062286,0.009919166564941406,-0.01147158071398735,-0.09781239926815033,0.006537572015076876,0.10711915045976639,0.129212886095047,0.08478420972824097,0.03021564893424511,-0.048898130655288696,-0.11264122277498245,-0.1264873445034027,0.05095434933900833,0.2928245961666107,0.017950808629393578,-0.1936364471912384,-0.13040125370025635,-0.050868790596723557,0.1696905940771103,0.09654831141233444,0.11156073212623596,-0.0769570842385292,0.142996147274971,0.03621350973844528,0.06081933155655861,0.10970007628202438,0.10536736994981766,-0.01181555725634098,-0.0683305636048317,0.22449806332588196,0.09487669914960861,0.08541964739561081,-0.15843462944030762,-0.09614674746990204,0.06015893444418907,0.09473182260990143,0.17300449311733246,-0.016991833224892616,0.03353200852870941,0.015300480648875237,-0.05544755607843399,0.2182910293340683,0.1499071717262268,0.04524488002061844,0.08841056376695633,0.058560241013765335,-0.07515121251344681,0.14442823827266693,0.07123185694217682,-0.09392569214105606,-0.17526598274707794,0.07057621330022812,0.10638902336359024,-0.13192777335643768,0.25856658816337585,0.10445202887058258,-0.09774074703454971,-0.1134059876203537,0.050194527953863144,0.05304177850484848,-0.06721439957618713,-0.08425880968570709,-0.027457458898425102,0.07253236323595047,0.10570565611124039,-0.0004861789057031274,0.1089816689491272,0.015671417117118835,-0.05553693324327469,0.09720386564731598,-0.0864163264632225,0.07398389279842377,0.1662147045135498,-0.011994277127087116,0.01508859172463417,-0.21201658248901367,-0.017107680439949036,-0.021234596148133278,-0.2065606564283371,0.012251438573002815,0.009558522142469883,-0.11624301970005035,0.1336166262626648,0.060602638870477676,0.012215479277074337,-0.00470386678352952,-0.14124993979930878,-0.06782662868499756,-0.1429809182882309,0.05838141217827797,-0.04136882349848747,-0.021590253338217735,0.009842587634921074,-0.035189978778362274,0.01806250587105751,0.08443000167608261,-0.2189706265926361,0.08508552610874176,-0.1338248997926712,0.13615059852600098,0.03445789963006973,-0.05120189115405083,-0.08131453394889832,0.1425996571779251,-0.20835010707378387,0.038112521171569824,0.008755145594477654,-0.1366044282913208,0.030179623514413834,-0.012724681757390499,-0.061599209904670715,0.02841462567448616,-0.04870959371328354,0.09889469295740128,0.0693436861038208,0.0012206430546939373,0.03888818621635437,-0.17340593039989471,0.06020446866750717,0.12632767856121063,-0.07510986924171448,-0.152698814868927,0.09914594888687134,-0.030927296727895737,-0.16334033012390137,0.14430876076221466,0.15320555865764618,0.24032379686832428,-0.06170128285884857,-0.08874601870775223,0.17261068522930145,-0.004964002873748541,-0.018994737416505814,-0.09615468978881836,0.25706034898757935,0.021296164020895958,-0.050161927938461304,0.11159488558769226,0.03181561827659607,0.22283366322517395,-0.21767576038837433,-0.044564735144376755,-0.1805422157049179,-0.11804498732089996,-0.06904619187116623,-0.08627419173717499,-0.28297898173332214,0.20289310812950134,-0.11428947001695633,0.09185890108346939,-0.07133034616708755,-0.049357201904058456,-0.08676078915596008,-0.12624290585517883,-0.11750757694244385,0.05053459852933884,0.015978040173649788,-0.10117238014936447,-0.09750114381313324,-0.026806797832250595,0.02416662871837616,0.019354358315467834,0.0031108809635043144,0.16339755058288574,0.08561883866786957,-0.06474575400352478,0.006648513488471508,0.22159022092819214,-0.10109065473079681,-0.01800461672246456,-0.08328314870595932,-0.14537474513053894,-0.28131887316703796,0.14434757828712463,-0.05924561992287636,-0.02435397356748581,-0.10840270668268204,-0.027532529085874557,0.013782966881990433,-0.07396237552165985,-0.02704567462205887,0.21160189807415009,-0.10704448074102402,-0.06852613389492035,0.14462031424045563,0.15973897278308868,-0.1642235815525055,-0.005388408899307251,-0.07139262557029724,-0.0380905456840992,0.08599112927913666,-0.1097816750407219,0.03209945932030678,-0.03251243010163307,-0.07935647666454315,-0.04520478844642639,-0.08246475458145142,-0.19501559436321259
数学,1.6186379194259644,1.2777518033981323,3.4422624111175537,1.1978915929794312,-0.07310336083173752,0.07670154422521591,-1.142417550086975,-0.48366981744766235,3.173694372177124,-0.6557533144950867,-0.5341179370880127,-0.7349017262458801,-1.3553553819656372,1.3949710130691528,-0.9510920643806458,1.3529741764068604,2.8989617824554443,0.9207310080528259,-0.3901195824146271,-1.555863618850708,0.303045392036438,1.4610495567321777,0.2505747675895691,-0.9315919876098633,-0.3570079505443573,-1.2373660802841187,1.1858779191970825,-0.0610971637070179,1.1401997804641724,0.6644096374511719,-1.8742433786392212,1.8864517211914062,-0.1402791291475296,-2.720743179321289,-1.3800548315048218,-0.8861753940582275,-0.06928341835737228,-0.955783486366272,0.14518460631370544,0.9803997278213501,0.8210918307304382,-1.3923542499542236,0.03258606418967247,1.2862476110458374,0.5262667536735535,-0.055906377732753754,1.4231761693954468,0.05498245730996132,0.8291002511978149,-0.6775054335594177,-0.3253966271877289,0.8329367637634277,-0.946797251701355,0.7017239928245544,1.3465673923492432,-0.28261426091194153,-2.539294958114624,-1.7702678442001343,1.6259498596191406,2.3591649532318115,1.1344045400619507,1.3394081592559814,-0.4176922142505646,-0.4678860306739807,-2.3581042289733887,2.280923366546631,2.3558425903320312,2.8574037551879883,-1.4377371072769165,-0.9334957003593445,-1.9957033395767212,1.216290831565857,-1.0284733772277832,1.326820969581604,0.31717202067375183,-0.04245166853070259,0.3433743715286255,-1.6144906282424927,-0.23811958730220795,-0.5940293669700623,-2.692387580871582,0.0787929818034172,0.45186665654182434,0.5583305358886719,1.2343446016311646,0.23441734910011292,-0.4939011037349701,-0.02675369195640087,1.538561463356018,0.959979236125946,1.1101967096328735,-0.8370233774185181,1.6421810388565063,-0.2901189923286438,0.06557827442884445,-0.4402342140674591,0.24493591487407684,-0.6877130270004272,-1.225327730178833,-0.09814120084047318,1.82333242893219,-0.7944983839988708,0.35990792512893677,0.017766965553164482,0.08125761896371841,-1.238871693611145,1.221240520477295,2.491661787033081,1.7122713327407837,0.006112338043749332,3.058382749557495,-0.4284912943840027,2.80285382270813,1.3109791278839111,0.6660435199737549,0.6043232083320618,-1.4374667406082153,-0.1136220246553421,0.47472262382507324,1.1839364767074585,1.2893152236938477,0.479846328496933,0.7600304484367371,0.07742782682180405,3.362696647644043,0.5335410237312317,0.9440304040908813,0.3296310305595398,1.7359225749969482,0.07229165732860565,0.47799012064933777,-0.005192266311496496,1.4721333980560303,-0.3783571720123291,-1.1618742942810059,-1.0978693962097168,-0.7608996033668518,-0.05844935402274132,0.22297680377960205,-3.6376025676727295,-1.0845781564712524,-0.9266939759254456,2.265758991241455,-1.786795735359192,0.32726603746414185,-0.9560027122497559,-0.5310596227645874,1.6009495258331299,0.2766092121601105,0.33186161518096924,-0.672678530216217,0.7497956156730652,-0.16490253806114197,-0.053711261600255966,1.191606044769287,-2.0394093990325928,2.4793899059295654,0.1193164736032486,-1.4845678806304932,0.45804762840270996,-1.7208508253097534,1.2386131286621094,-0.830722987651825,-0.8267340064048767,-1.163818597793579,-0.8803067207336426,0.5416023135185242,0.2797454297542572,-0.4138656258583069,1.3192020654678345,-0.9469285607337952,1.8819295167922974,0.8151092529296875,-0.06915095448493958,-0.6446995139122009,0.37062522768974304,-0.8256529569625854,-1.759337067604065,0.3645431101322174,1.2620327472686768,-1.1529484987258911,-0.38674166798591614,0.5777871012687683,-0.37420183420181274,-0.7263765335083008,1.4370099306106567,-1.7454752922058105,-1.1818312406539917,-0.9650507569313049,0.09306580573320389,-1.4314295053482056,-0.5069202780723572,-0.10289350897073746,-0.3414340615272522,0.31903812289237976,-0.0015151863917708397,1.1816139221191406,-0.41322892904281616,0.9529902935028076,0.7600597739219666,-0.4019276201725006,-0.49555957317352295,0.25521543622016907,-0.20079688727855682,-0.7812045812606812,1.0768840312957764,-0.4515495300292969,2.819303274154663,0.44242048263549805,-0.17031319439411163,0.6982319355010986,-0.28265905380249023,-1.8449170589447021,0.39464491605758667,0.2126762568950653,-1.8795464038848877,0.36595961451530457,-0.4550306499004364,-0.13826194405555725,1.4295122623443604,1.8514472246170044,-0.2356669157743454,-0.6279634237289429,-1.30046808719635,-0.8091866970062256,0.7649519443511963,-0.9134270548820496,-0.0004596853395923972,0.9138278365135193,0.509028971195221,0.30955007672309875,0.35860973596572876,0.7438925504684448,0.3052995204925537,0.3584117293357849,-0.7941095232963562,1.1079950332641602,-1.703208565711975,3.5306556224823,0.25850531458854675,1.5553475618362427,1.444961667060852,-0.4229106605052948,-0.19187340140342712,-1.2136242389678955,-1.2942919731140137,-0.27598249912261963,-2.0300240516662598,-0.43404361605644226,2.524996519088745,-2.4091734886169434,1.3459504842758179,2.0607874393463135,-0.23809875547885895,-1.660781979560852,-0.06385216116905212,-1.6560240983963013,1.1563633680343628,1.2370697259902954,-0.5985594391822815,0.050559163093566895,-0.39120081067085266,-1.9349714517593384,0.6867227554321289,0.194304957985878,2.2918472290039062,0.581008791923523,-0.44681546092033386,-0.270736962556839,-0.32065242528915405,-1.131981611251831,0.639258086681366,0.4103091359138489,-1.8140748739242554,-1.9765132665634155,0.2615545690059662,1.964414119720459,-0.4630250036716461,-0.6184280514717102,1.2831170558929443,0.773544430732727,0.5017274618148804,-1.2800310850143433,1.0633800029754639,-2.95751690864563,1.3727757930755615,-0.10638479888439178,2.1968839168548584,1.2840631008148193,0.28040364384651184,-3.0768795013427734,-2.4615046977996826,-0.31772667169570923,-0.942164957523346,1.0611058473587036,0.30917617678642273,0.4457269012928009,-2.000007152557373,-0.3110702633857727,-0.5619260668754578
能力,1.9949111938476562,1.2371826171875,-0.16443195939064026,-0.6462100744247437,2.686920404434204,-0.8462902903556824,0.550393283367157,1.1195690631866455,1.9303184747695923,-1.3853281736373901,0.4043847322463989,0.2520122230052948,-1.2513757944107056,-0.04738519713282585,-1.8984936475753784,0.5306602120399475,2.0559940338134766,-0.7728568315505981,-1.8754096031188965,-1.0778088569641113,-1.8942177295684814,-1.7470424175262451,1.8333619832992554,-2.0392556190490723,0.5551703572273254,1.0373111963272095,1.2610702514648438,-2.867399215698242,-0.4933156371116638,2.5827953815460205,0.18080954253673553,-0.191322460770607,-2.162785291671753,0.27613940834999084,-0.5208629965782166,0.7090630531311035,-0.8080106377601624,-1.5146468877792358,-0.16042408347129822,-0.8997523784637451,-0.4441455900669098,0.1495884358882904,-0.5415963530540466,-1.2198753356933594,0.5564845204353333,1.6108938455581665,2.117076873779297,1.734860897064209,-1.9080713987350464,0.4290344715118408,1.6454240083694458,0.4139472246170044,-0.023330383002758026,-2.3968594074249268,-1.6526273488998413,-0.3806661367416382,-2.117182493209839,1.9345511198043823,0.21696361899375916,-1.211477518081665,1.7589633464813232,-0.496728777885437,-0.32938283681869507,-0.7192378640174866,-1.6893893480300903,1.2944438457489014,-0.9475305676460266,0.8488761186599731,-0.1662498563528061,-3.0001659393310547,-0.3433738946914673,-0.4793318808078766,-1.9201253652572632,0.718184232711792,-0.8844130635261536,-0.13793912529945374,2.8299355506896973,0.5618049502372742,-0.8017750978469849,1.1846774816513062,0.6044145226478577,-1.3212227821350098,-1.6510828733444214,1.458777666091919,0.04786493256688118,-0.7607913017272949,2.6734440326690674,-1.0077283382415771,-2.830569267272949,-0.14231523871421814,-1.3691293001174927,0.42557159066200256,0.6796433329582214,-0.27027180790901184,-1.7319879531860352,0.07586299628019333,3.346102237701416,-2.318146228790283,1.6091960668563843,-0.287554532289505,2.5655598640441895,-1.019171118736267,-0.5359658598899841,-1.7148091793060303,1.4052637815475464,0.9883632063865662,-0.26410162448883057,0.5463542342185974,-1.2545945644378662,0.8328633904457092,-0.05852701887488365,-2.247241735458374,-2.6534297466278076,-1.9163352251052856,1.095571756362915,1.4244842529296875,0.18739347159862518,-2.5988576412200928,-0.9996873736381531,1.273875117301941,0.017080938443541527,0.04764188453555107,-1.4921455383300781,0.03896750137209892,-1.2789020538330078,-0.9093958735466003,0.7035588026046753,2.7047781944274902,-0.48618850111961365,-1.5927464962005615,-0.37479516863822937,-0.3173971474170685,1.8718299865722656,0.413382887840271,-1.7855947017669678,-2.0502679347991943,1.0805379152297974,0.6622529625892639,0.113313689827919,0.00965663231909275,-0.45947131514549255,1.0001416206359863,-1.339471459388733,0.7337899208068848,2.4677932262420654,0.3763345181941986,-0.46213290095329285,-0.7786980271339417,1.4777401685714722,-2.380023717880249,-0.30427268147468567,-1.3316011428833008,-1.7911944389343262,1.822760820388794,0.9321897625923157,-1.864638328552246,1.4441758394241333,2.5995774269104004,-0.41707155108451843,-0.6913586258888245,0.7987706661224365,1.1344865560531616,1.3846436738967896,-0.46198830008506775,2.067065715789795,-0.09643056243658066,0.22721634805202484,0.9253780245780945,1.9072701930999756,1.2702088356018066,-0.9035906195640564,-0.1346515417098999,-0.7761898636817932,1.4885162115097046,1.2195804119110107,0.6033486127853394,1.3729444742202759,-2.752276659011841,-0.5114755034446716,0.5436058044433594,-0.659916341304779,1.587100625038147,-0.7009310126304626,-1.5834144353866577,-0.09439721703529358,0.9538280367851257,-0.22683286666870117,1.5353463888168335,-0.5157700777053833,1.136017084121704,0.0016654751962050796,-0.07598602026700974,-0.2512983977794647,3.88366436958313,0.5010209083557129,0.31503042578697205,0.7651417851448059,0.39264777302742004,0.16817328333854675,3.925974130630493,-0.6719104051589966,-0.2830853760242462,3.2045552730560303,-1.4895390272140503,-1.784673810005188,-2.0494375228881836,-1.0843740701675415,1.014038324356079,0.486456960439682,-0.2915399968624115,-0.7717766761779785,0.16917726397514343,-1.8717845678329468,0.28749778866767883,-2.808908462524414,-1.7502225637435913,2.018265724182129,-0.15798528492450714,-1.0181620121002197,-1.8259941339492798,1.7799533605575562,-0.053551074117422104,-0.7474136352539062,0.024921314790844917,2.2206804752349854,-0.4719604253768921,-0.8191248774528503,1.5324288606643677,-1.1448020935058594,2.0066940784454346,1.4566625356674194,-0.7719027996063232,1.6542340517044067,-0.26767846941947937,-0.1472177654504776,-1.8698112964630127,3.161745071411133,-0.6542574167251587,-0.6904152631759644,1.4645081758499146,2.497004985809326,-0.7814129590988159,-2.377303123474121,2.3895978927612305,-1.1606673002243042,-0.25285181403160095,-2.2885243892669678,-0.9498828649520874,-2.0564370155334473,-1.007667064666748,-0.9378462433815002,1.0342447757720947,-0.7258966565132141,0.8614540100097656,-1.7448606491088867,-1.3899660110473633,-3.3202362060546875,-0.3138402998447418,2.3636083602905273,-1.5241984128952026,-1.074181079864502,0.9302598834037781,0.29551786184310913,-0.43779757618904114,-0.2803591787815094,-0.0899098739027977,-1.8960398435592651,0.2722933292388916,-0.9929175972938538,1.0474662780761719,3.0615124702453613,-1.5685138702392578,-1.131571888923645,0.8039087653160095,-1.5561034679412842,0.24787434935569763,0.588638186454773,0.8205850124359131,1.848830223083496,0.4950960576534271,2.601625442504883,1.0894869565963745,-0.6263293623924255,1.8290704488754272,-1.678652286529541,-0.07784484326839447,2.4220528602600098,0.9600619673728943,-1.2053219079971313,-2.692884683609009,-1.8672910928726196,-0.18535327911376953,0.9253133535385132,-0.3786781430244446,0.7537554502487183,-0.13121812045574188,0.44408300518989563,0.6607673168182373,0.628777265548706,-4.242366790771484
训练,0.2882631719112396,-1.2305326461791992,1.9811471700668335,-0.2752898037433624,-0.7764920592308044,-0.875075101852417,-1.235139012336731,3.010978937149048,0.9610645174980164,-0.01694127544760704,-2.3174571990966797,1.5672674179077148,0.7529104351997375,3.017807960510254,-0.3823692202568054,0.21269792318344116,-0.6674861311912537,1.3774642944335938,-1.6696234941482544,-1.1518547534942627,-1.3543270826339722,0.5734821557998657,1.3499101400375366,-0.7126362323760986,-1.0721814632415771,-0.94342041015625,2.6026575565338135,-2.180548906326294,-1.1315643787384033,-0.0371856652200222,0.7564635276794434,0.9101186394691467,-1.1107512712478638,-1.0729774236679077,-0.8148732781410217,0.07743868231773376,1.024970531463623,-0.33540597558021545,1.1795217990875244,-1.8647328615188599,0.8617733716964722,-0.5513884425163269,0.040459465235471725,-0.34832873940467834,0.723071277141571,0.16135820746421814,2.032350540161133,0.5473161935806274,-3.3930656909942627,-2.985365152359009,0.8118568062782288,0.3815959692001343,-0.9134798049926758,0.25300702452659607,-1.463428258895874,0.7452157139778137,-0.2728603482246399,1.3709428310394287,0.31138938665390015,1.6755074262619019,2.067596197128296,1.164160132408142,0.6828124523162842,-0.9277940392494202,-0.5028371810913086,0.0012001137947663665,-1.098150610923767,1.740976333618164,0.4516565799713135,-1.480530023574829,-0.926059901714325,0.6464837193489075,-1.0276448726654053,-0.12565617263317108,1.41005277633667,1.0911370515823364,-0.5423040986061096,0.18486042320728302,0.11383447051048279,0.0062029859982430935,-0.3539336621761322,-0.9362297654151917,-1.646823525428772,-1.7767592668533325,-1.1250171661376953,3.6582610607147217,0.35112693905830383,-2.1589102745056152,0.8233705163002014,-0.4589332044124603,-0.5199779272079468,0.25112852454185486,0.9936712980270386,-0.3987334072589874,-1.0993643999099731,-0.5778658986091614,1.755778431892395,-2.1579232215881348,-0.37075942754745483,-0.5427214503288269,1.031703233718872,-2.4256350994110107,0.9214171767234802,-0.6393095254898071,1.0330713987350464,0.5369362235069275,-0.9749003052711487,-1.2826074361801147,1.655456304550171,1.5034996271133423,1.082851529121399,0.5022590756416321,-2.075678825378418,-0.8138729929924011,-0.7995837330818176,-0.08851367980241776,2.159776210784912,-1.726448893547058,-0.38584116101264954,0.03588646277785301,1.293873906135559,-0.9303596019744873,0.23288242518901825,1.968515396118164,2.207350969314575,0.7811562418937683,0.41231924295425415,-0.4333614408969879,1.148408055305481,-2.3487656116485596,-0.8668626546859741,-0.24410448968410492,0.8153060078620911,-0.17196151614189148,-0.6602998971939087,-1.149771809577942,-1.5000391006469727,-0.1174982562661171,0.9752289652824402,1.7040380239486694,-1.7782036066055298,-0.5837109684944153,-1.4047399759292603,0.8103380799293518,1.905735969543457,1.1153751611709595,-0.02244318649172783,0.48014265298843384,0.38450896739959717,1.2399383783340454,1.097988247871399,-0.8246297836303711,-0.5546261072158813,0.30787739157676697,-0.3895517587661743,-0.8697523474693298,0.675102949142456,1.1891555786132812,-0.4621772766113281,0.8647767901420593,-0.8827197551727295,2.9028337001800537,2.580493211746216,1.017096996307373,-0.6372260451316833,-1.8832032680511475,0.5925803780555725,-1.23427152633667,-0.2531505227088928,0.19942907989025116,-0.10804805159568787,0.04125729203224182,1.0014320611953735,1.017462134361267,2.4960360527038574,2.9457690715789795,-0.18189337849617004,-1.1516956090927124,2.398890256881714,-1.9773871898651123,-0.797604501247406,-1.0576528310775757,-0.47856709361076355,-0.18245455622673035,-0.2853146493434906,-0.870297372341156,-1.4795548915863037,0.7851306796073914,0.2593141794204712,-0.4320194721221924,-1.8860496282577515,-0.5498130917549133,0.49180957674980164,1.7232779264450073,-2.3350443840026855,-1.336510181427002,2.4109749794006348,-1.5550954341888428,-1.2252182960510254,1.3978103399276733,-0.945741593837738,-0.14101511240005493,1.5045288801193237,-1.170371651649475,0.4033535420894623,-1.118744969367981,1.1280144453048706,2.1351113319396973,-0.03748621419072151,1.3216198682785034,0.14029577374458313,1.198102593421936,-0.9269434809684753,-2.028367519378662,1.158678412437439,-0.056349873542785645,-0.391402006149292,2.0320630073547363,0.58085036277771,1.4553501605987549,-3.216740369796753,1.6061489582061768,-0.5354201197624207,-0.7163007259368896,1.6754412651062012,-0.9577234387397766,0.4660748541355133,0.21777081489562988,-0.23524132370948792,0.07028257101774216,1.7143874168395996,-0.6224514842033386,1.1200556755065918,0.40145647525787354,0.3444373905658722,1.1315582990646362,1.8067840337753296,-0.2711852192878723,1.1422507762908936,3.531940221786499,1.4149198532104492,0.812286376953125,-1.886840581893921,3.3221962451934814,0.02389167621731758,0.301008939743042,-0.4655376374721527,1.4430925846099854,-0.8887373805046082,0.5066377520561218,-1.5353093147277832,-0.12739171087741852,-0.49852070212364197,1.4416664838790894,0.6441625952720642,0.4776124358177185,-1.770496129989624,-0.22664344310760498,-0.32098427414894104,0.26034244894981384,1.328647255897522,-0.5191224217414856,0.667967677116394,-1.055478811264038,-0.14838682115077972,0.41554707288742065,-1.3446078300476074,0.22916144132614136,0.25392356514930725,1.1997894048690796,1.0846699476242065,-2.2185676097869873,0.8107824325561523,2.790553092956543,-0.6585990190505981,1.2818864583969116,1.3915750980377197,1.3533930778503418,0.006400436162948608,2.0365114212036133,1.2301697731018066,1.8937145471572876,-1.6002006530761719,0.10012236982584,0.3541126251220703,0.7051864862442017,-0.3634736239910126,0.26321840286254883,-0.6049681305885315,-2.2818801403045654,-0.1360570192337036,-0.8346924781799316,-1.5775699615478516,3.2542660236358643,1.4726988077163696,-0.7875654697418213,1.2758244276046753,0.48289260268211365,0.6934548020362854,0.20346224308013916
教学,1.7881566286087036,-0.5789034366607666,1.8043898344039917,0.9872949123382568,-0.04169653728604317,0.6334500312805176,-3.391258478164673,1.3489396572113037,0.6553353667259216,-0.10599478334188461,-2.104046106338501,-0.1971256285905838,-0.2556561827659607,2.433558702468872,0.36738333106040955,-1.8412824869155884,1.6049714088439941,-0.2944418787956238,-1.3050205707550049,-1.8189677000045776,-0.6857871413230896,0.9295388460159302,0.7693453431129456,-0.7240530252456665,-1.0740525722503662,0.5363311171531677,-0.10442956537008286,-0.3942631781101227,0.11344654113054276,-0.8168635964393616,0.42014771699905396,1.6901378631591797,-0.6299302577972412,-2.2933132648468018,-0.3053542673587799,0.7425797581672668,-1.9959700107574463,-1.956859827041626,-0.427626371383667,-0.8822705745697021,-1.5962731838226318,-0.44829344749450684,-0.12315911799669266,-1.0470365285873413,1.0954885482788086,-1.047310471534729,0.2422182410955429,0.24007117748260498,-1.9437575340270996,-0.7632039785385132,-1.8678101301193237,0.8270738124847412,-0.005653242580592632,-1.36618173122406,-0.19260063767433167,0.14503508806228638,-0.31566494703292847,1.000882625579834,2.571474075317383,2.3781380653381348,2.090128183364868,0.9268490076065063,0.6974253058433533,0.38223907351493835,-1.0237820148468018,1.0893467664718628,1.3068093061447144,0.2681647837162018,-1.4917500019073486,0.36013197898864746,-1.314936637878418,1.3067468404769897,0.4525205194950104,0.8019919395446777,0.7005811333656311,-0.3978517949581146,0.15459327399730682,-1.047417402267456,1.1598509550094604,-1.2059181928634644,-1.1114190816879272,-0.6890162229537964,-0.05588427186012268,-0.09640857577323914,-2.023310422897339,1.3373289108276367,0.6892580389976501,-1.744134545326233,1.7185304164886475,-0.3933612108230591,-1.4547501802444458,-0.6166703104972839,0.3973444998264313,0.020494524389505386,-1.3728160858154297,0.44788405299186707,1.005472183227539,-0.11037953943014145,-2.1461782455444336,-1.8098286390304565,2.3546597957611084,-0.18809874355793,-0.1434442400932312,0.9493893384933472,-1.7288568019866943,-0.4604186713695526,0.14259696006774902,2.6792075634002686,0.19785408675670624,0.13378915190696716,-0.39933404326438904,1.5596721172332764,0.7310832142829895,-1.5053701400756836,-2.224344253540039,0.46792781352996826,2.4035558700561523,-1.3687747716903687,-0.6463009119033813,-0.9615451097488403,2.0602011680603027,1.004880666732788,0.0769810900092125,0.9523289203643799,2.1169240474700928,0.792733907699585,0.9081518054008484,0.5586341619491577,2.563616991043091,-0.5513295531272888,0.5773093700408936,0.5284189581871033,0.7142950296401978,-0.1454615592956543,-2.2095940113067627,-0.1098121851682663,-1.5796657800674438,0.06105475500226021,1.0600298643112183,-2.1965882778167725,-1.2944895029067993,-0.8607628345489502,1.225720763206482,-0.119717538356781,2.6096889972686768,-0.38692280650138855,-1.6695492267608643,2.07528018951416,0.8554558753967285,-0.5641523003578186,0.8948814868927002,1.431667685508728,-0.38477957248687744,1.383680820465088,0.9944286942481995,-1.0747261047363281,0.8225454092025757,0.2794282138347626,-1.9149073362350464,-1.0711561441421509,-1.5605186223983765,0.8713574409484863,1.2633192539215088,-1.1673476696014404,0.3645687699317932,0.2121020406484604,0.9789178371429443,1.0228371620178223,1.8830124139785767,0.8281722068786621,0.148196280002594,0.6450616121292114,-0.027767090126872063,0.42889872193336487,1.2324590682983398,1.1975312232971191,-2.6939592361450195,-2.8422391414642334,0.6611465215682983,-1.72427499294281,-0.5219207406044006,-1.8337122201919556,-1.9624791145324707,-1.294945478439331,-0.426064133644104,0.213657945394516,-1.896587610244751,-0.7909834980964661,-1.222212314605713,-1.0942068099975586,-1.529378890991211,1.7521660327911377,-0.4493222236633301,0.4708715081214905,-0.6334770321846008,-0.9777272343635559,1.2231045961380005,-0.2077578455209732,-0.3505723178386688,-0.07665842026472092,0.5484517216682434,1.9105092287063599,0.32186922430992126,-1.1538254022598267,-0.3792431056499481,0.14390520751476288,0.5525313019752502,3.4598560333251953,1.389168381690979,0.28913962841033936,-0.28059425950050354,-0.9426395893096924,0.23526285588741302,-1.017936110496521,-0.4996214807033539,-0.8702053427696228,0.8778870701789856,1.2279672622680664,-0.3844112157821655,0.622789204120636,0.5437664985656738,0.785818338394165,-0.059331923723220825,-0.7705763578414917,1.306546926498413,1.1999667882919312,-0.7093581557273865,0.28798046708106995,1.3524391651153564,0.8023017644882202,-0.5039500594139099,-1.3539437055587769,-0.09660140424966812,0.059118952602148056,-0.03234286233782768,-1.329802393913269,3.0668869018554688,-0.20113691687583923,0.6852076053619385,0.7654558420181274,0.40915992856025696,2.188822031021118,-1.4385640621185303,0.4131656289100647,0.2812785506248474,-1.7255802154541016,0.2662470042705536,1.7175456285476685,-2.1571602821350098,0.7499051094055176,-1.211797833442688,-2.127574920654297,0.6306217908859253,1.5307506322860718,1.1667430400848389,-0.11350931972265244,-2.1822471618652344,1.6799259185791016,1.4027047157287598,-0.9814544916152954,0.0449967123568058,-0.041767869144678116,0.3587353229522705,-0.2120896875858307,-0.7866342067718506,-0.019731832668185234,-0.28828442096710205,-2.5932998657226562,0.6148541569709778,0.10083351284265518,0.04056306183338165,0.49141108989715576,3.427117109298706,2.530134677886963,-0.2503919005393982,1.1717853546142578,0.9247633218765259,0.5074058175086975,-0.4972986578941345,1.826475977897644,1.3860721588134766,1.2355315685272217,-1.2347310781478882,0.2724843919277191,0.8655253052711487,-0.6081910729408264,0.40613555908203125,1.1090543270111084,-1.647508978843689,-1.1473125219345093,-1.0037434101104736,-1.1184536218643188,1.1921720504760742,-0.6496221423149109,0.5389525890350342,-0.3936412036418915,1.448866367340088,-1.8582860231399536,-1.3258000612258911,-0.7440762519836426
计划,2.137962818145752,0.34965282678604126,0.07549163699150085,-0.4983316659927368,-1.6797736883163452,-0.9418882131576538,-1.5945378541946411,2.852611780166626,-1.0632990598678589,-0.6851162314414978,-2.0641591548919678,1.1947604417800903,0.6259690523147583,-0.35251501202583313,-1.1737254858016968,0.6418169736862183,1.2173011302947998,-0.033023934811353683,-2.0176000595092773,-3.212423324584961,0.22684384882450104,-0.19984187185764313,0.11514627933502197,0.29158809781074524,1.5419363975524902,1.8408482074737549,2.832998037338257,-1.7316771745681763,0.0072816889733076096,0.8983407020568848,-0.9937978982925415,-1.0441645383834839,1.0265125036239624,0.7878090739250183,-0.10735034197568893,-0.5507236123085022,0.5458216667175293,0.6934193968772888,0.5373650789260864,1.041305422782898,0.9332122206687927,1.1496782302856445,-2.038543701171875,-1.4962496757507324,0.4677685797214508,1.4675735235214233,0.4840260148048401,-0.864931583404541,-0.6690032482147217,-0.4340183734893799,-1.2138367891311646,1.500259280204773,2.0178263187408447,1.5998458862304688,-1.2614413499832153,1.330028772354126,0.044986262917518616,0.9706891179084778,0.552933931350708,0.7980645298957825,2.317146062850952,1.0985294580459595,-0.2047095000743866,2.1582581996917725,1.0501166582107544,0.36146801710128784,2.273073196411133,1.502404808998108,0.36929526925086975,-1.7016083002090454,-0.8345435857772827,1.2018134593963623,-1.1638494729995728,-0.08760404586791992,-0.1734408438205719,-0.342398077249527,-1.1586942672729492,-1.87095046043396,0.9079922437667847,-1.8827906847000122,-0.1911640465259552,1.2949296236038208,-0.7068096995353699,-0.38783788681030273,0.400328665971756,-1.1202350854873657,4.092991828918457,-2.66489315032959,2.553839683532715,0.8058955669403076,-1.2171542644500732,0.5336370468139648,0.1829971820116043,-0.9189118146896362,0.5329521298408508,2.363567590713501,-0.807360053062439,1.3105369806289673,-1.0211586952209473,-1.3607162237167358,2.299898862838745,-0.9872040152549744,-1.5186456441879272,0.12951938807964325,1.6404320001602173,2.0153846740722656,0.1198633536696434,-0.0128475995734334,-0.25794675946235657,-1.945277214050293,-1.5000125169754028,-2.5169529914855957,0.32118844985961914,1.0450868606567383,0.27655044198036194,-0.8821356296539307,2.713245391845703,-1.5284841060638428,-0.31392183899879456,0.9392020106315613,2.600771188735962,-1.637431025505066,0.7648379802703857,1.8255549669265747,1.1705119609832764,-0.6318686008453369,-1.479491114616394,2.1838159561157227,0.07243174314498901,-1.7563397884368896,-0.5036492347717285,-2.3776071071624756,-1.9940677881240845,0.975141167640686,0.8933467864990234,-3.2909774780273438,-0.436270534992218,1.1317070722579956,0.36597639322280884,1.0879673957824707,1.1758019924163818,-0.378499835729599,-0.5794398784637451,0.22930528223514557,0.19277991354465485,-0.7902220487594604,-0.9896389245986938,-1.0778528451919556,0.1404540091753006,-2.070857286453247,0.24026796221733093,1.5234109163284302,-0.13627982139587402,0.5128171443939209,-3.0792744159698486,2.2165744304656982,0.8142481446266174,0.5914211869239807,0.9697115421295166,0.6625034213066101,0.6398698091506958,-0.7260135412216187,0.967168390750885,-0.21492008864879608,1.7620429992675781,0.1072642058134079,0.4341718256473541,-0.8401249647140503,1.7954273223876953,0.36018815636634827,-1.4536566734313965,0.041845835745334625,-1.989776849746704,0.6339022517204285,0.8576241135597229,0.9954034090042114,1.5080056190490723,-1.4363175630569458,0.019592683762311935,-2.930518865585327,-1.263399600982666,-1.754387617111206,-0.6188186407089233,-0.4687443673610687,1.230175256729126,1.6173534393310547,1.0074478387832642,1.5455583333969116,-0.4543367922306061,-1.796597957611084,-0.7867816090583801,-1.4820576906204224,1.8712691068649292,1.629957914352417,1.984085202217102,-1.5674854516983032,1.6811609268188477,-0.7826893925666809,-2.225797414779663,1.0650209188461304,1.399706482887268,-0.80019611120224,0.2278531938791275,-0.23768025636672974,-0.8498857617378235,-0.3692569434642792,0.11477597057819366,-1.1235411167144775,0.14150384068489075,1.055062174797058,0.4024510085582733,0.34102028608322144,-0.7310017347335815,-0.31682467460632324,0.05753958970308304,-1.6455943584442139,1.7400412559509277,-0.15359686315059662,0.5122570991516113,-0.11045073717832565,0.7946580052375793,2.0846521854400635,-2.1148629188537598,0.1302160918712616,0.4796636402606964,-0.05997760593891144,1.0136207342147827,-1.570404052734375,-0.08493836224079132,-0.5972819328308105,-0.18945583701133728,-1.9114798307418823,0.5632736086845398,0.7173596620559692,-2.6153147220611572,0.6038258671760559,0.8344598412513733,0.5827571153640747,0.06436575204133987,3.084827423095703,3.438055992126465,1.208333969116211,-0.05498276278376579,2.0511410236358643,-2.357058048248291,-2.018704414367676,-0.08812087029218674,2.5879735946655273,1.6803429126739502,-0.19583502411842346,-1.9649637937545776,-1.6324504613876343,-1.1331418752670288,-0.8840234279632568,-0.31123533844947815,-0.7741314172744751,-0.2861839234828949,0.6486923098564148,2.2197964191436768,0.3666742444038391,-0.9922927618026733,-2.2042315006256104,1.4129072427749634,0.6857853531837463,-0.6291919350624084,1.4893394708633423,1.001281499862671,-0.9672031998634338,-0.1452658772468567,0.8441144824028015,1.674864411354065,-0.5990945100784302,1.697337031364441,0.7464760541915894,0.23303087055683136,0.20704436302185059,1.9623948335647583,-0.17775370180606842,1.1679826974868774,-0.6975698471069336,0.09518619626760483,-0.625312089920044,-1.0868370532989502,0.7719857096672058,1.579843521118164,0.22161608934402466,1.1355421543121338,-1.6926404237747192,-0.6631357669830322,-2.817288398742676,-1.2626582384109497,-1.3761415481567383,-1.8213642835617065,0.08329139649868011,1.5373040437698364,1.0521719455718994,0.8555290102958679,0.4633500874042511,0.976304829120636,-1.8162436485290527
加强,0.19018106162548065,-2.7335541248321533,2.2461040019989014,0.9233275651931763,-1.0327962636947632,0.33744311332702637,-2.152513027191162,3.18316912651062,-0.8258134126663208,0.028896454721689224,-1.9583898782730103,-0.9194846749305725,-0.2404787540435791,-0.7451048493385315,-0.5903717279434204,-1.7733428478240967,-0.14282095432281494,0.3724716007709503,-3.669978380203247,-1.393944263458252,-1.203031301498413,-2.7127318382263184,-0.4725593030452728,-1.107811450958252,-2.223224401473999,-0.8293490409851074,0.5676010847091675,-1.0545973777770996,-2.8275787830352783,0.964693009853363,1.8634172677993774,-1.3536640405654907,-0.5165532827377319,1.8439371585845947,-2.2837579250335693,0.7362186312675476,0.5968395471572876,-0.23420557379722595,-2.289731025695801,-1.349596619606018,-0.8327274322509766,-1.5472086668014526,0.917555570602417,-0.297798216342926,-0.17882879078388214,-0.9579941034317017,-0.07927079498767853,0.5625201463699341,-2.779067039489746,0.026304174214601517,-1.0584477186203003,2.463357925415039,1.2443957328796387,0.18022242188453674,-1.0274871587753296,-0.9501938223838806,1.4768918752670288,3.5747663974761963,-0.9437881112098694,-0.45189255475997925,-0.4942743182182312,-0.5669260621070862,-1.030665636062622,0.019300419837236404,-1.9769985675811768,1.0278071165084839,0.8673617243766785,1.7028595209121704,-0.44113051891326904,-1.9750789403915405,-0.38260847330093384,-1.1665349006652832,-0.3764406740665436,-0.24007537961006165,0.7715979814529419,-0.9902327060699463,2.4159934520721436,2.317002296447754,-0.5632306337356567,-0.41096606850624084,0.9626635909080505,1.9759533405303955,-0.8165625929832458,-0.08784310519695282,-2.0051627159118652,0.5406756401062012,0.0949561595916748,1.1597404479980469,0.6901473999023438,-1.4461143016815186,-1.8107444047927856,-0.056489136070013046,-0.5508729815483093,0.00597592955455184,-0.36365336179733276,-0.020146334543824196,1.4818710088729858,1.7802035808563232,-1.3731294870376587,-0.16875596344470978,1.2900656461715698,-0.4027877449989319,0.15259994566440582,-1.3970049619674683,-0.7728898525238037,1.9727119207382202,-0.3590810298919678,1.8752331733703613,-0.3470916748046875,-0.46995893120765686,-1.6583313941955566,0.7772052884101868,0.21280530095100403,-1.5733722448349,-1.1469742059707642,-0.7050430774688721,0.3923119008541107,-0.13453538715839386,-0.2681331932544708,-0.6952775120735168,0.44227081537246704,-1.7591140270233154,-0.3987181484699249,1.3024977445602417,-0.17078930139541626,-0.284578800201416,-1.17631995677948,1.9931107759475708,0.35105612874031067,-1.6231588125228882,1.9259387254714966,-1.2522954940795898,1.0786336660385132,0.6641944050788879,-1.1306265592575073,-0.19186575710773468,-0.5591588020324707,-0.1881081461906433,-0.11746339499950409,-1.06104576587677,-2.0381100177764893,0.6122860312461853,-0.9494712948799133,-0.5978798270225525,2.2674930095672607,-1.1455076932907104,-2.5115878582000732,-0.41168296337127686,-0.558249294757843,-1.0328444242477417,0.20919625461101532,-1.1858055591583252,1.2289540767669678,0.04615580290555954,-0.8276659250259399,-1.033742904663086,-0.5611295104026794,1.8531789779663086,-0.22386322915554047,-2.668492555618286,-0.49363192915916443,-1.751425862312317,2.585549831390381,-2.283797264099121,1.901992917060852,0.4363744258880615,1.7912598848342896,-0.3896033763885498,1.459781527519226,1.1417388916015625,0.4839073121547699,0.08105503022670746,-0.8659802675247192,-1.2027363777160645,2.515835762023926,0.3986852169036865,-0.4958325922489166,0.5179916024208069,0.1949193924665451,-1.1151930093765259,-2.9272289276123047,0.9793304800987244,-0.6588606834411621,-1.007830262184143,-1.1547796726226807,1.179112195968628,-2.923394203186035,1.7691675424575806,-0.35195714235305786,-1.5828430652618408,-0.7191505432128906,-0.07753812521696091,0.3796333968639374,0.6926307082176208,1.4936637878417969,-1.16640305519104,-1.3813412189483643,1.3167208433151245,1.0915712118148804,-0.1594855785369873,0.9460384249687195,-2.0022642612457275,2.150402069091797,-1.3575785160064697,0.6222544312477112,0.8464296460151672,3.1933274269104004,0.2957228720188141,0.7980964183807373,-1.8537479639053345,0.8955699801445007,-0.8097118139266968,-3.291973829269409,0.335469126701355,-0.5149258375167847,0.948978066444397,0.5106022953987122,3.140692949295044,-0.11519171297550201,0.4721224904060364,1.2876518964767456,1.5399266481399536,1.8033210039138794,0.5211310386657715,0.1144828200340271,-1.7525107860565186,1.247878909111023,-0.951409101486206,-1.2890335321426392,-1.2288304567337036,2.361973524093628,-0.368419349193573,1.6416537761688232,0.5042911171913147,-1.3787602186203003,1.1520944833755493,0.6670337319374084,-0.9661792516708374,0.29547443985939026,1.4710952043533325,1.5642887353897095,-0.5209450721740723,-0.9704519510269165,-0.9348053932189941,-1.5213472843170166,1.2236034870147705,-0.47901538014411926,-0.5958560109138489,-1.7207814455032349,-0.7014678120613098,-3.337650775909424,0.5209949016571045,-0.33910292387008667,0.12169776111841202,0.9105584621429443,-0.18261897563934326,-1.6358139514923096,-0.6606432199478149,-1.3892943859100342,-1.3608369827270508,-0.2894684374332428,-3.4156618118286133,-0.865986704826355,-0.3027569353580475,0.7886937856674194,1.8957140445709229,-1.3204238414764404,-1.0710314512252808,-1.3853880167007446,-0.40561744570732117,-0.6741640567779541,-0.6533272862434387,0.43833473324775696,1.631698727607727,-0.5161496996879578,0.8783254027366638,-1.241855502128601,0.0997370108962059,0.6577407121658325,1.4616529941558838,-0.3851449489593506,-0.08103225380182266,-0.04116415977478027,0.9986935257911682,-0.07864661514759064,0.1383933275938034,-0.4392807185649872,-0.5567079782485962,-1.2857646942138672,-2.145252227783203,0.12155542522668839,-0.25368601083755493,-0.4738253951072693,-0.8557528257369995,-0.3406810164451599,-2.636229991912842,-0.20993366837501526,1.2358828783035278,-0.46147966384887695,-2.200221300125122
教学质量,0.3406108021736145,0.2109595388174057,0.34047549962997437,-0.0035973500926047564,-0.40616729855537415,0.6513973474502563,-0.763530969619751,0.22497309744358063,0.28765565156936646,-0.34997856616973877,-0.9249125123023987,0.05776546522974968,-0.7794126868247986,0.8621099591255188,-0.4954851269721985,-0.17342787981033325,0.3617735207080841,-0.40163561701774597,-0.888209342956543,-0.862593948841095,0.1786555051803589,0.012589897029101849,0.18770068883895874,0.1728631556034088,-0.03101559914648533,-0.42146021127700806,0.23837152123451233,0.4378761053085327,-0.051601801067590714,0.3174433708190918,0.0894048884510994,0.09991347044706345,-0.20383085310459137,-0.08186941593885422,0.056891970336437225,-0.5342288613319397,-0.19886532425880432,-0.4376367926597595,-0.5699180364608765,-0.22752897441387177,0.24427209794521332,-0.23550297319889069,0.07912536710500717,0.49782222509384155,-0.11598943173885345,-0.3440549373626709,0.16297446191310883,-0.17212316393852234,-0.37442994117736816,0.0381639301776886,-0.2766587734222412,-0.27768436074256897,-0.15391415357589722,-0.22670184075832367,0.3045371174812317,-0.20988856256008148,-1.1785775423049927,0.45444536209106445,0.6791136264801025,-0.28468015789985657,0.021943561732769012,-0.41055160760879517,0.7662555575370789,0.08578076958656311,-0.9673164486885071,0.17024946212768555,0.28709250688552856,-0.07164119929075241,0.4398050606250763,-0.3718353509902954,-0.7398931980133057,-0.6555761694908142,0.00034622583189047873,0.19655655324459076,0.8635842204093933,-0.14079201221466064,-0.17454510927200317,-0.2534215450286865,0.14387010037899017,-0.4976378381252289,-0.2725980877876282,-0.13712042570114136,0.22429534792900085,0.1102616935968399,-0.6877562403678894,0.04503217339515686,-0.06092621013522148,-0.579181432723999,0.0270349383354187,-0.1126524806022644,-0.46696871519088745,-0.5127545595169067,0.13739138841629028,0.40606334805488586,-0.48504212498664856,0.10199509561061859,0.7584092617034912,0.22801607847213745,-0.17643330991268158,0.10065005719661713,-0.09274958074092865,-0.10747434198856354,-0.6362325549125671,-0.18223339319229126,0.2984859347343445,0.14045071601867676,-0.5046818852424622,0.37233543395996094,0.26120200753211975,-0.4607997238636017,-0.6105826497077942,0.41174647212028503,-0.24975980818271637,-0.7856817245483398,-0.2986297011375427,0.1203257143497467,0.6851667761802673,-0.5460327863693237,0.2880105674266815,0.1531992107629776,0.12296072393655777,-0.20090584456920624,-0.11130944639444351,0.3049376308917999,0.611046552658081,0.13839410245418549,0.40724024176597595,-0.09766273945569992,0.22382217645645142,-0.6460413336753845,0.2867927849292755,-0.09078975766897202,0.5096167325973511,0.07687096297740936,-0.39943739771842957,-0.7050505876541138,-0.06512688100337982,-0.2180466502904892,-0.22460004687309265,-0.278948575258255,-0.8029916882514954,-0.5630077719688416,0.323841392993927,-0.23079806566238403,0.21310150623321533,-0.1659155935049057,-0.6052042245864868,0.2996387481689453,0.5668294429779053,-0.27466657757759094,-0.12866683304309845,-0.44976508617401123,-0.187314972281456,0.4358425438404083,0.19255559146404266,-0.5608345866203308,0.7338666319847107,0.6535707712173462,-0.2527763247489929,0.12756216526031494,-0.4610251784324646,-0.07453755289316177,0.6719430088996887,-0.42645543813705444,0.10867930203676224,0.7247743010520935,0.369480699300766,-0.06700291484594345,0.2710464596748352,0.07682729512453079,-0.05494222417473793,0.04625741392374039,0.12681707739830017,-0.18742623925209045,0.24610552191734314,0.41654786467552185,-0.293782114982605,-1.5845422744750977,0.7737341523170471,-0.4608238935470581,0.004856880288571119,0.017785055562853813,-0.706878125667572,-0.5424922108650208,0.3683027923107147,0.3156225085258484,-0.8223532438278198,0.12772247195243835,-0.2072947472333908,0.09794069081544876,-0.2304367572069168,-0.11903554946184158,-0.066661536693573,-0.23299618065357208,-0.20832909643650055,-0.2187083661556244,-0.11804473400115967,-0.6048278212547302,-0.07850675284862518,0.4767441153526306,-0.26502859592437744,0.5398539900779724,0.5697766542434692,-0.4739280939102173,0.19483070075511932,0.43308085203170776,0.18500857055187225,0.18591152131557465,0.378783255815506,0.047188907861709595,-0.12567415833473206,-0.08991153538227081,-0.4389432966709137,0.14588552713394165,-0.24998372793197632,0.540809154510498,0.33700689673423767,0.11584825068712234,-0.4954909086227417,-0.674892246723175,0.30032873153686523,-0.3625451624393463,0.2596329152584076,-0.23429667949676514,0.11207137256860733,0.4588329792022705,0.24599209427833557,-0.07398447394371033,0.2233167439699173,0.2678588032722473,-0.5420275330543518,-1.2357677221298218,0.6970131397247314,0.2703728675842285,0.24305744469165802,0.11407270282506943,0.3062199652194977,0.07101868093013763,0.4643045961856842,-0.19174206256866455,0.16506466269493103,0.5083720684051514,-0.6430355906486511,-0.33747464418411255,-0.6946379542350769,-0.888351321220398,0.0803118571639061,-0.37366530299186707,-0.5313029885292053,-0.13397689163684845,-1.0624052286148071,-0.27336496114730835,0.23112040758132935,0.2293352335691452,0.48226407170295715,0.397024005651474,0.17691847681999207,-0.3496122360229492,0.26426661014556885,-0.3537290692329407,-0.0005338353221304715,-0.0036235032603144646,-0.3296352028846741,-0.24395346641540527,-0.6253073215484619,0.4059579372406006,-0.4013872742652893,0.28700515627861023,-0.46039023995399475,0.2112444043159485,0.08850650489330292,-0.041013531386852264,0.5279650688171387,-0.2536281645298004,-0.3829234838485718,-0.06946863234043121,0.35055792331695557,-0.24237771332263947,-0.36445245146751404,0.23070313036441803,0.17780908942222595,0.3239176571369171,0.052873458713293076,-0.11584994941949844,0.26533612608909607,-0.15284180641174316,-0.11893201619386673,0.8799741864204407,0.004546997137367725,0.0012709327274933457,-0.36883458495140076,0.13866472244262695,0.1625264585018158,-0.7919378280639648,-0.2958316504955292,0.2514757513999939,-0.18509843945503235,-0.8259332180023193,-0.039836253970861435,-0.3633517920970917
提高,0.5606556534767151,-3.8423032760620117,2.646167039871216,0.5571926236152649,-2.93207049369812,1.8675655126571655,-2.468663215637207,0.7133327126502991,-2.4225215911865234,0.17215031385421753,-2.326094150543213,-1.7603542804718018,0.13229034841060638,-1.9087367057800293,-2.8063840866088867,-2.6333160400390625,-0.493896484375,-2.0834367275238037,-3.4860610961914062,-0.3491751551628113,-1.8337202072143555,-2.000544548034668,0.658098042011261,-1.776750087738037,-0.2613579332828522,-0.7237526774406433,0.9133966565132141,-0.650476336479187,-1.6854684352874756,0.3403210937976837,1.23580002784729,-0.398922860622406,-1.489201307296753,0.9266443252563477,-3.1920528411865234,-0.6724451780319214,-1.7120482921600342,-1.806052327156067,-3.575352668762207,-1.2657564878463745,-1.550844669342041,-1.0172743797302246,-0.8865270614624023,0.05092872679233551,0.9215686917304993,0.024820687249302864,-0.6176455020904541,1.120654821395874,-0.9853105545043945,0.535047709941864,-0.1742202341556549,1.4653288125991821,1.9855891466140747,-0.8725595474243164,-0.9553295373916626,-0.8985418677330017,0.9132726192474365,3.0358102321624756,0.5134258270263672,-1.896718144416809,-0.8669496178627014,-0.6715514659881592,-1.0257108211517334,-0.2432149350643158,-1.8936275243759155,0.3569481670856476,0.43458667397499084,2.555804967880249,-0.029155632480978966,-2.4744973182678223,-0.4765731990337372,-0.665471613407135,-2.23565673828125,1.4705311059951782,0.43023914098739624,-3.0801138877868652,1.6143293380737305,1.839492917060852,0.5523695945739746,-1.607509732246399,-0.2572251558303833,2.0583395957946777,-1.167301893234253,-0.7804476022720337,-0.3263819217681885,1.613863468170166,1.3634337186813354,1.6944162845611572,0.8442609310150146,-0.47110429406166077,-1.6480830907821655,0.670939028263092,-0.34485557675361633,0.12329095602035522,0.17171725630760193,-0.5123591423034668,1.6210722923278809,3.1543452739715576,1.6620211601257324,-0.2701992988586426,2.656383991241455,-0.98921138048172,1.9436239004135132,0.3842603862285614,1.0701301097869873,2.8199799060821533,-0.3268417418003082,1.74504554271698,-2.4250035285949707,-0.7657578587532043,-1.6985708475112915,0.05871438607573509,-0.7779207229614258,-2.6447482109069824,-0.18838165700435638,-0.8674865365028381,0.6750345230102539,-0.10629133880138397,-2.2119510173797607,0.08581123501062393,-0.021234620362520218,-3.2639362812042236,-0.1821189671754837,1.7297002077102661,1.0597141981124878,0.13364112377166748,0.03411339223384857,0.9468415379524231,1.714611291885376,0.7487707734107971,1.941394567489624,1.0794942378997803,-0.4679584801197052,0.7717195153236389,0.842863142490387,-1.5323446989059448,-0.42457401752471924,2.0529580116271973,0.5887556672096252,-0.7778292298316956,-1.2793852090835571,0.1590348333120346,-1.2559146881103516,-1.2174460887908936,1.0023702383041382,-1.3335423469543457,-3.6097030639648438,0.6782743334770203,0.6995067596435547,1.4069691896438599,1.1806937456130981,0.8991587162017822,0.7133851647377014,1.8337738513946533,0.06706937402486801,-1.2391858100891113,0.07600733637809753,1.708310604095459,0.4980587661266327,-1.0014833211898804,-1.853518009185791,-0.06305715441703796,1.6974833011627197,-0.9675912261009216,2.3446457386016846,1.7485285997390747,1.385730504989624,-1.0755594968795776,0.09928259998559952,1.3423314094543457,-0.7293445467948914,-0.039705146104097366,0.6732938885688782,0.4874765872955322,1.8732781410217285,0.7169540524482727,-0.318717896938324,-0.28564751148223877,0.7084599733352661,0.5296096205711365,-0.8556824326515198,0.9803396463394165,-0.33256858587265015,-0.661716639995575,0.09558995068073273,2.0784072875976562,-2.528015375137329,0.8554151654243469,1.5266422033309937,-2.2321181297302246,-3.0321576595306396,-1.9717552661895752,-0.7141837477684021,0.26094862818717957,1.2615069150924683,-0.3671703338623047,-0.9535911679267883,0.28522735834121704,1.1283397674560547,0.3052200376987457,-0.3271511197090149,-2.132906913757324,2.650571346282959,0.12671568989753723,1.2683464288711548,-0.17856474220752716,0.2107793241739273,0.18800503015518188,0.6099237203598022,-1.5259029865264893,-0.7864339351654053,-0.6386075019836426,-2.439749240875244,-0.6619229316711426,-0.600509524345398,0.9822744727134705,0.2565871775150299,2.150404214859009,-1.1477800607681274,0.25080475211143494,-0.4307665526866913,0.36036691069602966,2.6147348880767822,1.6892811059951782,-1.3457205295562744,-2.3895275592803955,3.2035040855407715,-1.1382988691329956,-2.2017760276794434,-0.012637513689696789,2.218618631362915,0.13037090003490448,1.645514726638794,0.11511816084384918,-1.7224876880645752,-0.19215236604213715,0.11089018732309341,0.14611203968524933,0.34519514441490173,-0.18738193809986115,-0.8783003091812134,-0.4734368920326233,-1.7257139682769775,-1.4360071420669556,-2.214264154434204,-2.122243642807007,-0.5300177335739136,-0.818202018737793,-0.20248255133628845,-1.5253331661224365,-4.377539157867432,-0.5168567895889282,1.3652607202529907,-0.4543938636779785,-0.007869256660342216,1.141274333000183,-1.5297139883041382,-0.8435379266738892,-0.8788678050041199,-1.0518643856048584,0.6097812056541443,-2.6963388919830322,-0.5682778358459473,-0.17113156616687775,1.0258153676986694,2.917158603668213,-1.9312864542007446,-1.004889965057373,-1.607143759727478,0.15141595900058746,-0.12288995087146759,-1.5432008504867554,-1.7074025869369507,0.9425843954086304,-0.7953763604164124,0.6108826398849487,-0.5572659373283386,2.0888586044311523,1.6839882135391235,1.2109514474868774,-0.3794712424278259,1.841335654258728,-0.3871568441390991,1.302799105644226,-0.546737790107727,0.38661670684814453,-2.0502986907958984,0.469356894493103,-1.5958398580551147,-1.1266672611236572,-0.5992687344551086,-1.8618872165679932,0.07868561893701553,2.205375909805298,-1.1818008422851562,-0.537799596786499,0.002890166360884905,0.12279266119003296,-0.20967048406600952,-2.1227869987487793
素质,0.8170768022537231,-0.38891932368278503,0.9776207208633423,-0.6566289663314819,-0.5893990397453308,1.0093328952789307,-0.84572434425354,1.8745373487472534,-0.3321039080619812,-1.637525200843811,-2.286731004714966,-0.021310629323124886,-0.47767725586891174,1.3162473440170288,-1.108202338218689,-1.23179030418396,0.5723549723625183,-1.0699753761291504,-0.6193616390228271,-2.660447597503662,0.6982159614562988,0.8352737426757812,0.14675775170326233,-1.0338101387023926,-1.0231293439865112,-0.3776198923587799,0.32510730624198914,-1.4592360258102417,-1.2245128154754639,0.6238899827003479,-0.5610325336456299,-0.2464001625776291,-1.1255391836166382,0.039734844118356705,-0.0360100083053112,-1.495722770690918,-0.7840058207511902,-3.3904664516448975,-1.914368748664856,-0.7008634209632874,0.4354335367679596,-0.9185731410980225,-0.48535507917404175,0.6538129448890686,-0.5188533067703247,0.13246136903762817,0.5280374884605408,0.8760258555412292,-0.9728026986122131,-0.16401579976081848,-0.2767695486545563,-0.35094153881073,-0.0910455510020256,0.6322774887084961,0.22722063958644867,0.5650477409362793,-2.1007180213928223,0.47914406657218933,1.5534285306930542,-0.537901759147644,0.4283985197544098,-0.20816802978515625,1.1415126323699951,-0.2415047436952591,-1.906517744064331,1.4396306276321411,0.8819432854652405,-0.04014880955219269,0.6834484934806824,-1.8048150539398193,0.03883872926235199,-1.2130926847457886,-0.659622073173523,-0.10457184910774231,0.6741352677345276,0.048878856003284454,2.1396751403808594,1.0758897066116333,0.14183276891708374,0.9893398880958557,-0.2987805902957916,-0.8490583896636963,-1.6737085580825806,-0.37548908591270447,-0.4507647156715393,0.250149130821228,-0.24904212355613708,-0.3083844780921936,-0.2094021588563919,0.7745169997215271,-1.4292728900909424,-0.40146952867507935,0.5530446171760559,0.5588095784187317,-1.3426905870437622,-0.5905548334121704,2.5729806423187256,-0.09177376329898834,0.4494253695011139,0.31827229261398315,-0.7008528709411621,0.32164135575294495,-0.10484388470649719,-0.9433062672615051,0.18620873987674713,-0.3428724706172943,-1.7544347047805786,0.5585511922836304,1.0580132007598877,-0.3933189809322357,0.2460629940032959,-0.9060953259468079,-1.6086900234222412,-1.9314903020858765,0.4794541001319885,0.24851098656654358,1.0269945859909058,-0.5362147688865662,-1.0156846046447754,0.08712045103311539,-0.7328824400901794,-1.45082688331604,0.4651273190975189,1.469301700592041,-0.43020763993263245,-0.17461197078227997,1.2573909759521484,0.5318108797073364,-0.9870555400848389,-1.709241271018982,0.32548320293426514,-0.31030869483947754,-1.1258543729782104,0.5746423602104187,-0.5374868512153625,-0.7242794632911682,-0.45033106207847595,-0.11482999473810196,-0.21252746880054474,0.15650169551372528,-0.7628819942474365,-0.047525323927402496,0.843731164932251,0.28044211864471436,2.5288734436035156,0.6943537592887878,-1.944104552268982,-0.6483191251754761,0.9135708212852478,-1.4367982149124146,1.191080093383789,-0.737478494644165,-0.8262704610824585,2.0790061950683594,0.392656534910202,-2.4362616539001465,0.43445757031440735,1.8366361856460571,0.18373903632164001,0.016255835071206093,-1.474546194076538,0.5224753618240356,1.8164829015731812,-1.0119816064834595,0.04522719979286194,1.6997288465499878,0.39417049288749695,-1.6519814729690552,-0.07424371689558029,0.11791151016950607,-0.9483017921447754,0.37714120745658875,-0.7525902390480042,0.16125531494617462,0.8057438731193542,1.1036901473999023,-0.6341860294342041,-1.6500097513198853,0.38404548168182373,-1.0323154926300049,0.4051770269870758,0.315878301858902,-0.12349937111139297,-0.9899863600730896,-0.5384148359298706,1.7830504179000854,-1.4996206760406494,1.0065783262252808,-0.3793538808822632,0.4118161201477051,-1.2130646705627441,0.8753657341003418,0.4460867941379547,0.9032207131385803,-0.16357572376728058,0.33096155524253845,-1.170939564704895,-0.19483982026576996,0.07642486691474915,2.4991681575775146,-0.020618880167603493,0.5644097924232483,1.6611948013305664,-1.5495715141296387,1.1710007190704346,0.043126460164785385,-0.5805506706237793,0.2159442901611328,-0.29578468203544617,0.4001167118549347,-1.5333272218704224,-0.8926110863685608,-1.6431632041931152,-0.13484349846839905,-0.6735793948173523,-0.7672774195671082,1.386651873588562,1.0656155347824097,-0.578815221786499,-0.037882182747125626,0.036110877990722656,-0.2852448523044586,0.37825682759284973,-0.4751605689525604,0.13391321897506714,-0.04160819202661514,0.6190561652183533,0.5184686779975891,-0.039926622062921524,0.6178037524223328,0.07987483590841293,-2.046161413192749,1.9173494577407837,0.49444618821144104,-0.3184073865413666,-0.7597900032997131,1.025614857673645,-0.17447738349437714,-0.8120482563972473,0.7133904695510864,1.0634775161743164,0.1257680058479309,-1.4635964632034302,-0.5161063075065613,-0.7297662496566772,-1.0526092052459717,0.3794984519481659,0.20265237987041473,-1.6862462759017944,0.12489099055528641,-1.0348948240280151,0.3322540521621704,-0.2372734695672989,0.9991089105606079,0.4347383975982666,-0.6503292918205261,-2.030088424682617,-0.3124922215938568,1.0420337915420532,-0.2343347817659378,-0.5718788504600525,1.0096815824508667,-0.4871366024017334,-1.0757663249969482,-0.0969248116016388,-0.34994760155677795,-0.5430889129638672,0.5105714797973633,0.14172202348709106,0.7525237202644348,-0.23747257888317108,-0.28313010931015015,-0.516635000705719,-0.014509421773254871,-0.7643669247627258,0.2242397665977478,0.6075120568275452,0.9917462468147278,-0.583317220211029,-1.3139479160308838,0.9485732913017273,1.552201509475708,-0.1827489733695984,-0.1688927263021469,0.875274658203125,-0.5656431317329407,0.6072514653205872,1.7679551839828491,-0.2135097235441208,-0.5966383218765259,-1.7983410358428955,-0.48756659030914307,-0.21211852133274078,-0.40348517894744873,0.38145050406455994,0.2451016902923584,-0.0416405126452446,-0.8682180643081665,0.06080198287963867,-1.2374975681304932
