word,0,1,2,3,4,5,6,7,8,9,10,11,12,13,14,15,16,17,18,19,20,21,22,23,24,25,26,27,28,29,30,31,32,33,34,35,36,37,38,39,40,41,42,43,44,45,46,47,48,49,50,51,52,53,54,55,56,57,58,59,60,61,62,63,64,65,66,67,68,69,70,71,72,73,74,75,76,77,78,79,80,81,82,83,84,85,86,87,88,89,90,91,92,93,94,95,96,97,98,99,100,101,102,103,104,105,106,107,108,109,110,111,112,113,114,115,116,117,118,119,120,121,122,123,124,125,126,127,128,129,130,131,132,133,134,135,136,137,138,139,140,141,142,143,144,145,146,147,148,149,150,151,152,153,154,155,156,157,158,159,160,161,162,163,164,165,166,167,168,169,170,171,172,173,174,175,176,177,178,179,180,181,182,183,184,185,186,187,188,189,190,191,192,193,194,195,196,197,198,199,200,201,202,203,204,205,206,207,208,209,210,211,212,213,214,215,216,217,218,219,220,221,222,223,224,225,226,227,228,229,230,231,232,233,234,235,236,237,238,239,240,241,242,243,244,245,246,247,248,249,250,251,252,253,254,255,256,257,258,259,260,261,262,263,264,265,266,267,268,269,270,271,272,273,274,275,276,277,278,279,280,281,282,283,284,285,286,287,288,289,290,291,292,293,294,295,296,297,298,299
效率,0.01760520040988922,1.2654454708099365,-0.12291564047336578,-1.7866989374160767,0.7294635772705078,0.12496097385883331,1.1781107187271118,0.6519434452056885,-0.45369359850883484,-1.4584484100341797,-1.4618523120880127,-0.019813241437077522,-0.616045355796814,0.18518070876598358,-2.385225296020508,-2.120347499847412,0.8287595510482788,-0.5993742346763611,-2.907390594482422,-0.5928217768669128,-0.9332152009010315,-0.7390553951263428,0.13740494847297668,-1.5559370517730713,-0.12139275670051575,-1.1281658411026,-0.3587969243526459,-2.366605758666992,0.20720155537128448,2.096127986907959,-0.3913010060787201,-0.7593857049942017,-1.3205232620239258,0.3616640567779541,-1.4174662828445435,-0.14843010902404785,-0.9586917757987976,-2.7901875972747803,-2.1925604343414307,-0.024448009207844734,0.5062844157218933,-0.7677361369132996,0.35446104407310486,-0.9304838180541992,0.9570691585540771,2.022372245788574,1.484233021736145,2.561906099319458,-2.683549404144287,0.38400423526763916,-0.9815458059310913,0.671303927898407,1.6667050123214722,-0.10849999636411667,0.7258254289627075,0.8891393542289734,0.08381950855255127,2.3350069522857666,1.7979332208633423,-0.4267731308937073,-0.5818643569946289,-0.22628523409366608,1.0120383501052856,1.4327737092971802,-2.750437021255493,1.789668321609497,0.4720013439655304,0.8194772005081177,1.7324880361557007,-1.969879388809204,-3.2995715141296387,-1.1031972169876099,-0.985779881477356,0.9143506288528442,1.3042610883712769,-1.199377179145813,2.0427186489105225,-0.0872064158320427,0.5908141136169434,0.06755895167589188,0.9447634816169739,0.1724645495414734,-1.056957483291626,0.3471156060695648,-0.6417298316955566,-0.358481228351593,0.3155551254749298,0.5601357817649841,-0.7791374325752258,-0.8848787546157837,-0.6562483310699463,0.11081022769212723,0.5860006213188171,0.941757321357727,-1.4192167520523071,-0.04339452087879181,0.781400740146637,0.9743033647537231,0.7721152305603027,-0.4422134757041931,0.5585498809814453,-0.5992019772529602,-1.200103759765625,-0.8972957730293274,1.9511655569076538,2.271979808807373,-0.6302670836448669,0.22599484026432037,0.4972439706325531,-2.621424674987793,1.2372089624404907,-1.0900135040283203,-1.9098752737045288,-0.6148476600646973,0.2381312996149063,0.456773579120636,1.8039709329605103,-0.7566958665847778,-1.5528734922409058,0.6310257911682129,-0.7776498198509216,-1.2053366899490356,0.1824243813753128,0.4728802740573883,0.25818270444869995,-0.606848418712616,1.1436508893966675,1.892695665359497,-0.29470446705818176,-2.541275978088379,-0.268032968044281,0.026412250474095345,1.5642441511154175,2.349104881286621,0.18134936690330505,-2.1399335861206055,-0.34594759345054626,0.21331670880317688,-1.6403722763061523,-0.047886330634355545,-0.8393825888633728,0.03450831398367882,-3.1179380416870117,1.793206810951233,2.8629281520843506,1.1350696086883545,-1.4123378992080688,0.092710942029953,1.7683051824569702,-0.3772299289703369,-1.1475061178207397,0.18715043365955353,-2.7798824310302734,2.5734899044036865,-0.32269448041915894,-1.9599497318267822,0.4441929757595062,0.10789204388856888,-1.8252475261688232,-0.008519366383552551,-1.5245981216430664,0.2934478521347046,1.3656715154647827,-3.1540894508361816,1.9155770540237427,-0.28670376539230347,1.877311110496521,-0.2650468945503235,2.1589176654815674,1.0718342065811157,0.7133240103721619,-0.40192288160324097,-1.12913978099823,0.36071687936782837,1.4655258655548096,1.1857410669326782,0.012879191897809505,-1.231094479560852,-0.9544367790222168,1.2217433452606201,-0.5792409181594849,-2.826016902923584,-1.7626105546951294,-0.5397824645042419,1.7897039651870728,0.8691670298576355,-1.3588316440582275,1.4583766460418701,-1.0932117700576782,-0.7217388153076172,0.023604819551110268,-0.32486385107040405,0.32418292760849,0.22513189911842346,0.8720016479492188,-0.5117189884185791,-0.7340162992477417,-0.4125744700431824,0.9583596587181091,1.8705756664276123,-1.7663750648498535,0.6719387769699097,3.0558691024780273,0.8902780413627625,-0.5681807994842529,-0.4175463914871216,0.2713160514831543,-0.4136289954185486,2.2903482913970947,-0.42527836561203003,0.002446178114041686,0.9832022786140442,-1.550829529762268,-0.05638011544942856,1.0795718431472778,-0.5729603171348572,0.9048677086830139,-1.1773040294647217,-0.1263151615858078,-1.1278918981552124,0.9454323053359985,1.6493932008743286,-1.4300991296768188,1.8883002996444702,-0.48382633924484253,0.6338972449302673,1.6696358919143677,0.2425723373889923,-0.289843887090683,0.6436441540718079,0.1030428558588028,-0.949366569519043,0.8883889317512512,1.5874667167663574,-1.2499384880065918,-0.650188148021698,0.7556004524230957,-0.558701753616333,-2.171013832092285,-0.7497342824935913,1.5004231929779053,-0.4172842502593994,0.24531617760658264,-1.302270531654358,-1.7512168884277344,-0.7733128070831299,-0.27196887135505676,-0.9085531830787659,-2.118100881576538,-0.7283241152763367,-1.5334967374801636,0.24668756127357483,0.7456135749816895,-0.6912474632263184,0.019367722794413567,0.6038236618041992,-3.2508628368377686,-0.8601176738739014,1.290418267250061,-2.093879222869873,-0.930456280708313,0.9412881135940552,0.9366400837898254,1.647850513458252,1.0486022233963013,-0.20875371992588043,-0.7324487566947937,-0.9378325343132019,-0.9348711967468262,0.04417642205953598,-0.1652543842792511,-0.6354278326034546,-0.7653812766075134,-1.3317350149154663,-2.3274166584014893,0.09263822436332703,3.082542657852173,-0.23619240522384644,-0.2528020143508911,0.17592541873455048,2.9942867755889893,1.3849048614501953,-0.6151266694068909,2.3873090744018555,-0.35432010889053345,0.872462809085846,0.5510185360908508,1.902079701423645,-0.49416887760162354,-0.004319698084145784,-1.6885005235671997,-1.071297526359558,-0.9216358065605164,-0.42103156447410583,-1.0117467641830444,1.5868194103240967,0.3024085462093353,-1.9876375198364258,-0.41183745861053467,-2.841761827468872
原有,1.1932624578475952,-0.09780200570821762,-0.09503758698701859,-0.35855185985565186,-1.1061457395553589,0.6731485724449158,-1.8817695379257202,1.0804705619812012,-1.5619394779205322,-0.15769532322883606,0.9715666770935059,1.6988766193389893,-0.1424642950296402,0.250313937664032,1.3883663415908813,1.0436768531799316,0.8097730278968811,0.08424078673124313,-2.8624935150146484,-1.3610587120056152,0.39519867300987244,-0.3793615400791168,-0.6147376298904419,-0.9475745558738708,0.00963536649942398,-0.804878294467926,0.5175883173942566,-1.7326762676239014,-2.2022864818573,-0.41964709758758545,1.8863286972045898,1.5926958322525024,-2.117142677307129,-0.0176104623824358,-0.9293214082717896,0.5475212931632996,0.6941529512405396,-0.8826314210891724,-1.840107798576355,0.31093302369117737,-0.968504786491394,-0.9224454760551453,-0.8823500275611877,0.1740814447402954,0.42239561676979065,-0.9314194321632385,0.07123221457004547,-0.8265989422798157,-1.7521023750305176,0.2728588879108429,0.28808385133743286,2.0316989421844482,1.037172555923462,0.34156063199043274,-0.27660712599754333,0.6090299487113953,0.7441151738166809,2.495206594467163,0.12277927994728088,0.6754816174507141,-1.3508424758911133,-0.7187631726264954,0.013302916660904884,0.36868131160736084,1.5077307224273682,0.08497568964958191,-0.46020248532295227,-0.2863611578941345,-1.013608694076538,0.6442910432815552,-0.46702805161476135,0.19775953888893127,-0.2640537917613983,-2.2688100337982178,0.05373510345816612,0.6650030612945557,0.19640786945819855,-0.5291982293128967,-0.1945972740650177,0.03059176728129387,1.0201951265335083,0.839800238609314,0.2631989121437073,0.6561602354049683,0.10057839751243591,-0.8863141536712646,0.34821784496307373,-0.9560607671737671,1.1431523561477661,-0.7909295558929443,-0.6148672103881836,-0.27243572473526,0.2981075048446655,-1.3436830043792725,0.1892998218536377,0.46738502383232117,0.06894446164369583,1.3569152355194092,-0.40625014901161194,-1.493219017982483,-1.5453369617462158,-2.1223881244659424,1.5045453310012817,0.761118471622467,-0.7467654943466187,1.907153844833374,-0.8018141388893127,1.0024011135101318,-0.9452160596847534,-0.7074777483940125,-0.7398297190666199,-0.9126094579696655,0.32581689953804016,0.7654164433479309,-1.0772801637649536,-0.9951022267341614,-0.48312681913375854,-0.6525601744651794,-0.12773272395133972,1.8777620792388916,-1.1397160291671753,-0.16170188784599304,-0.19639508426189423,2.2093567848205566,-0.9482359290122986,-0.7058772444725037,1.2800159454345703,-0.428065687417984,0.7647989392280579,0.8633617758750916,1.8539807796478271,-2.799862861633301,0.2808675467967987,1.599204659461975,-0.21029283106327057,-0.020769348368048668,1.355210304260254,0.868623673915863,0.4065132737159729,-0.25429877638816833,0.08882283419370651,2.158884286880493,-1.23936128616333,-1.0272741317749023,-0.7636578679084778,-1.3143419027328491,-0.7150846123695374,-0.05652238428592682,0.8989825248718262,1.0829252004623413,0.6253153681755066,1.257577657699585,0.5080596804618835,2.0534303188323975,0.4407399892807007,-1.6006741523742676,0.2363235503435135,-0.14543338119983673,-1.3963056802749634,0.1980118453502655,-0.5385817885398865,-0.6827042698860168,1.8905152082443237,-0.4739519953727722,2.6523077487945557,1.5865083932876587,-0.6447650790214539,-0.034721869975328445,-0.56887286901474,-0.4025297462940216,2.3250796794891357,1.1778467893600464,0.41423261165618896,-1.8034619092941284,0.6959627866744995,-0.8004347085952759,-1.6873948574066162,0.6754136085510254,-0.983445405960083,-1.387733817100525,1.5243525505065918,-2.0724823474884033,0.8724424839019775,1.5229769945144653,0.9063396453857422,1.4924571514129639,-1.6183444261550903,-1.16083824634552,0.42014405131340027,-2.0259549617767334,-0.0050129517912864685,-1.2809135913848877,0.02906258963048458,1.3687247037887573,0.2980218231678009,1.4412920475006104,2.4997682571411133,-0.49017372727394104,0.8562568426132202,1.2053903341293335,0.42494410276412964,-0.49642321467399597,-1.812798023223877,-1.6493752002716064,0.4587835371494293,0.2464011162519455,-1.118165373802185,0.9221207499504089,0.2480918914079666,-0.28357836604118347,-0.043808553367853165,1.6192859411239624,-0.7455770373344421,-1.9637879133224487,-2.881476402282715,0.7137134075164795,1.754491925239563,-0.004512343090027571,-1.423134207725525,0.8427854180335999,-0.11148973554372787,0.6927427053451538,0.49826788902282715,0.8648540377616882,0.06748584657907486,0.30402445793151855,0.6332692503929138,-0.014349360950291157,-0.1183454617857933,-2.6870627403259277,1.2697392702102661,-1.7810982465744019,0.7197458744049072,0.19426752626895905,-0.00857248529791832,-0.7574006915092468,1.2777295112609863,0.32265448570251465,-0.25462764501571655,0.6747205257415771,0.39296209812164307,0.41301238536834717,-0.05412087216973305,-0.741364061832428,-0.3996216058731079,0.4789109528064728,0.6003402471542358,-1.529625654220581,-0.36855581402778625,0.7303704023361206,-2.433877944946289,0.049595996737480164,-0.6034508347511292,-0.8203715682029724,0.2193310260772705,-0.9956602454185486,-2.77424955368042,0.27666595578193665,1.325816035270691,-2.273733139038086,0.32216429710388184,-0.8937669396400452,1.5727169513702393,-0.161398783326149,-0.16529670357704163,0.6378409266471863,-0.41051697731018066,-0.20507268607616425,0.023577086627483368,-0.6862708926200867,1.091098666191101,-0.5345933437347412,2.299802780151367,0.13889741897583008,1.8898429870605469,2.278940439224243,-0.20299258828163147,1.544830560684204,1.3804792165756226,-0.13931255042552948,0.7604519128799438,0.06966903805732727,0.9980477094650269,-1.0698490142822266,1.9108244180679321,-0.7958657741546631,0.7755702137947083,-0.8541837930679321,-0.7503786683082581,-0.7133662700653076,-1.6377776861190796,0.5020479559898376,1.3747880458831787,-0.3025439381599426,-0.7197896242141724,0.28207269310951233,0.31695684790611267,0.5624685287475586,0.20056170225143433,-0.21264512836933136
基础,-0.33209028840065,1.5509446859359741,1.234106183052063,1.5376458168029785,-0.58658367395401,1.3935390710830688,-0.8713892698287964,1.7716174125671387,-0.6063055992126465,-0.48127856850624084,0.32137832045555115,0.06108350306749344,-0.9746106863021851,0.4084978401660919,-2.0911624431610107,0.40682992339134216,0.2682923674583435,1.4671697616577148,-2.039461135864258,-1.5188416242599487,0.7960435152053833,-1.1833140850067139,-1.576737880706787,-1.3537126779556274,-1.2752450704574585,-0.1375855803489685,0.6664891839027405,-0.1540622115135193,-1.2173733711242676,2.543527603149414,-0.7678458094596863,1.359752893447876,-0.6122352480888367,-0.559757649898529,0.6493515372276306,2.155970811843872,-0.1983991414308548,-2.1904985904693604,0.17294681072235107,0.3194772005081177,-0.23547828197479248,-1.9392259120941162,-1.7017977237701416,-2.1961307525634766,0.5853583216667175,1.8423211574554443,2.750765562057495,0.611692488193512,-2.031066417694092,-2.645378828048706,-2.100534677505493,1.1365926265716553,2.8296780586242676,-1.8730577230453491,0.37140893936157227,-0.6159383654594421,-0.16075006127357483,0.7334187626838684,0.8592149019241333,1.0101617574691772,-2.778639554977417,-0.036489203572273254,-1.0255488157272339,0.6993955373764038,-3.4809844493865967,0.6477553844451904,0.7017912268638611,3.2063729763031006,-1.1848019361495972,-1.0393807888031006,-0.12475208938121796,-0.6511725187301636,-0.046461910009384155,-1.0416055917739868,1.6847320795059204,-0.3166428804397583,0.13868434727191925,0.4439898133277893,-1.0349013805389404,0.4486599564552307,0.7468836307525635,0.30950769782066345,-1.1291323900222778,-1.169796109199524,-2.2833971977233887,2.4442763328552246,-0.4707554280757904,0.07682891190052032,2.5087811946868896,0.018052522093057632,-1.254420518875122,0.17243964970111847,0.7636905908584595,1.3286784887313843,-2.7767159938812256,-0.26895827054977417,-0.045144617557525635,0.8824078440666199,0.10867351293563843,-0.4217891991138458,0.2283797413110733,-1.9340746402740479,-1.138205647468567,-1.8188745975494385,-0.34114596247673035,1.149696946144104,0.5711618065834045,1.8038792610168457,-1.4196714162826538,-0.02764260023832321,0.9901769757270813,-0.5847682356834412,-0.33568400144577026,1.3393915891647339,-2.3631083965301514,0.051132090389728546,0.2375643253326416,-0.37836793065071106,-1.4240437746047974,0.6861912608146667,0.01621379889547825,-2.203061580657959,-0.42177483439445496,-0.4491405487060547,-0.661616325378418,-0.1662774235010147,-0.04334977641701698,1.4717313051223755,0.46986857056617737,-2.0269174575805664,-0.7101239562034607,-1.79136061668396,-0.7628446221351624,1.4789330959320068,-2.110992193222046,-2.2763099670410156,0.4577850103378296,0.06807024776935577,1.5873950719833374,-1.5114665031433105,0.45776692032814026,0.5834589004516602,1.0010018348693848,-0.11264611035585403,-0.3948824405670166,-0.48609837889671326,-1.0672376155853271,1.4609951972961426,-0.29463088512420654,0.12913496792316437,-0.17079181969165802,-0.022610124200582504,0.4939478635787964,2.57893443107605,0.21982097625732422,-3.430485486984253,0.6454939246177673,1.3448972702026367,0.8650330305099487,0.8772357106208801,-0.4008015990257263,-1.3720932006835938,-0.10982363671064377,-1.8686007261276245,0.6420905590057373,-0.2366393506526947,3.109438896179199,-1.354425311088562,0.32091087102890015,0.8857443928718567,0.005996680818498135,-1.060937762260437,1.9199219942092896,1.9364895820617676,1.857975959777832,0.34934693574905396,-1.3322999477386475,0.4320242404937744,0.5146238207817078,0.3422187566757202,-0.35343942046165466,0.9398805499076843,0.21219389140605927,-0.17416386306285858,-1.8911290168762207,0.031926706433296204,-2.186638116836548,-1.1378167867660522,-0.24750317633152008,-2.1672563552856445,-0.83302241563797,-0.9221656322479248,0.32665494084358215,2.430344581604004,0.8867200016975403,-0.5935247540473938,1.2157411575317383,0.6432473659515381,-1.7778141498565674,0.4153771996498108,-0.5780587792396545,0.28337448835372925,-0.5734785199165344,0.99343341588974,-0.8024285435676575,-0.6662328839302063,-0.4302600920200348,1.7127221822738647,1.190792441368103,-0.9704864025115967,-0.21422028541564941,0.5434889793395996,-0.7842830419540405,0.2947866916656494,-0.6624013781547546,-1.31743323802948,0.15629133582115173,0.7559077143669128,0.760056734085083,0.2819282114505768,1.825446367263794,-0.8994033932685852,0.7046366333961487,-1.2899175882339478,-0.2223760336637497,-0.08127918094396591,-0.4660571813583374,-0.983673632144928,1.0409834384918213,-0.5537840127944946,-0.5307377576828003,-0.9790535569190979,0.9736589193344116,0.13037851452827454,0.24552655220031738,-1.1192402839660645,2.002032518386841,0.47727325558662415,0.06479689478874207,-0.5563697814941406,1.8539183139801025,-0.975111186504364,-1.3565771579742432,-0.750958263874054,-2.843238353729248,0.15822568535804749,0.9449226260185242,0.5917065143585205,-0.6428938508033752,-0.055296409875154495,-2.178412675857544,-0.054848965257406235,0.6884557604789734,-0.8771620988845825,0.4596880376338959,1.142132043838501,-3.3223214149475098,-0.6906741261482239,-0.5484620928764343,-1.2766226530075073,-0.25028565526008606,-2.780832290649414,-0.0582628957927227,-0.30220162868499756,0.8746623396873474,0.8043202757835388,1.1136829853057861,-0.9995790719985962,-0.9867002964019775,-1.4480931758880615,0.5051171779632568,0.04957769438624382,3.041961908340454,1.4883567094802856,-2.6056535243988037,1.672721266746521,0.8501360416412354,2.8343169689178467,-0.5839099884033203,1.009680151939392,0.38338586688041687,-0.9656908512115479,-0.5941547155380249,1.1445943117141724,1.7614901065826416,0.08497046679258347,-0.6387660503387451,-0.3723459243774414,-0.6543108224868774,-1.3343513011932373,-1.4178591966629028,-1.3265445232391357,0.08982978016138077,-1.6117199659347534,0.37140482664108276,0.6840621829032898,0.02823135256767273,0.7902807593345642,0.5805062651634216,-1.04483962059021
简单,0.968731164932251,-0.4424552917480469,-0.2431768923997879,0.276950865983963,-0.4807901084423065,0.6227931380271912,-0.7692165374755859,-0.34153449535369873,0.2929413914680481,-2.761260747909546,-0.6372206807136536,-2.162091016769409,-1.3338373899459839,0.3349514305591583,-0.942564070224762,-1.448005199432373,1.4560844898223877,0.956158459186554,-1.5638090372085571,-0.5971015691757202,-1.1977224349975586,-0.9183813333511353,-0.07193628698587418,-1.562733769416809,-0.784060001373291,-1.7813223600387573,1.0404551029205322,-0.6468614935874939,-0.23535780608654022,1.5731176137924194,0.8374635577201843,1.110346794128418,-1.505133032798767,-1.3325690031051636,0.0003652778104878962,1.8230974674224854,-0.6750650405883789,-1.7195968627929688,0.24775776267051697,2.1104886531829834,-0.2699662446975708,-0.3629056215286255,0.11583424359560013,-0.9111515283584595,-1.7328695058822632,1.386827826499939,-0.5260981321334839,1.6102696657180786,-1.3954644203186035,1.47307550907135,-0.17946259677410126,1.2859731912612915,1.2345445156097412,-0.35652539134025574,-0.03728242591023445,0.7053470015525818,-1.347669005393982,-1.1374130249023438,-0.20854821801185608,0.607643187046051,1.2068685293197632,1.382290244102478,-0.438177227973938,2.576364755630493,-2.2383341789245605,1.6362234354019165,0.21481278538703918,3.0580787658691406,-0.6553781032562256,-1.6147938966751099,0.1245073676109314,2.1940343379974365,-0.5592000484466553,0.05901375040411949,-0.0007197540253400803,-0.9811931252479553,0.3124391734600067,0.8845071792602539,0.5331250429153442,-0.49107328057289124,1.0917001962661743,0.2868615984916687,-0.34483298659324646,-0.6610447764396667,1.1793323755264282,-0.7119025588035583,0.03405466303229332,0.4725293517112732,-1.890040397644043,-1.4657225608825684,0.42198702692985535,0.5804606080055237,1.038641095161438,1.1033674478530884,0.6370114684104919,-2.1432623863220215,0.13133354485034943,2.318817138671875,1.1278622150421143,-0.42383989691734314,-1.5024183988571167,-2.2430639266967773,0.09063204377889633,1.590651035308838,-2.889131546020508,0.3188767731189728,-0.35289767384529114,-0.44773516058921814,-1.6478685140609741,1.2365607023239136,2.5207149982452393,0.20874927937984467,-1.0062943696975708,3.5681207180023193,-0.007565951906144619,0.5391095280647278,0.9332028031349182,0.34214678406715393,-1.2932956218719482,-1.7554782629013062,0.6735935211181641,-0.48773130774497986,-0.10417846590280533,1.3913782835006714,-0.7679275870323181,-0.4455570578575134,1.0250070095062256,1.9091888666152954,2.9120588302612305,0.7404965758323669,0.4102242588996887,1.7134199142456055,1.394569993019104,1.9378834962844849,-1.2725467681884766,1.9228510856628418,2.4047749042510986,0.8609065413475037,0.34564676880836487,-0.7927817106246948,-0.3116369843482971,0.6993498206138611,0.023722071200609207,-2.7828407287597656,1.339634656906128,1.2242257595062256,-0.4461042284965515,0.06521765142679214,-0.7667033672332764,1.6087623834609985,-0.706108570098877,-0.029737981036305428,-1.5201555490493774,0.8924681544303894,0.32845818996429443,-3.3656797409057617,-0.5036432147026062,-1.2693662643432617,-1.40835702419281,0.3743303120136261,-0.28381314873695374,-0.8029166460037231,0.02326696738600731,-0.6501573324203491,1.3575834035873413,-1.6687067747116089,0.4340047240257263,0.35352620482444763,-0.3324730098247528,0.00639175483956933,-1.302014946937561,1.4249343872070312,0.7801312804222107,-0.44859641790390015,2.2360999584198,-1.1435526609420776,1.4905250072479248,0.17618109285831451,-0.7569844722747803,1.0191004276275635,-1.2897387742996216,-3.098329782485962,0.03976483643054962,0.5678116679191589,-0.6256603002548218,1.4261070489883423,-0.2306690663099289,-0.9368755221366882,0.17163830995559692,0.14130054414272308,-0.6149529814720154,0.13487321138381958,0.019892219454050064,0.13322682678699493,1.1368399858474731,0.6683057546615601,2.1368017196655273,0.6542350649833679,-0.15750262141227722,0.4237062335014343,0.1909659504890442,-0.15542945265769958,1.6767600774765015,-0.6425477266311646,0.5450606346130371,-1.3338983058929443,-0.49796566367149353,0.808198094367981,1.1533311605453491,0.7297273278236389,0.6101077198982239,1.4338728189468384,0.5291149020195007,0.6959657073020935,0.3469139635562897,-0.41055136919021606,0.9199900031089783,0.544277012348175,1.9356763362884521,1.1054165363311768,0.31913432478904724,-0.18465913832187653,-1.392432451248169,0.507888674736023,-0.1648310273885727,-0.2784607410430908,-1.4631240367889404,0.25228509306907654,-0.4595690965652466,1.0189197063446045,1.4560389518737793,1.1087331771850586,0.7769775390625,-0.204040065407753,-2.378196954727173,-0.6649904251098633,0.1954980194568634,-1.3069374561309814,0.750403642654419,-0.7868222594261169,-0.6581477522850037,0.20621849596500397,0.011939607560634613,0.4999818801879883,-1.4291430711746216,-1.4005447626113892,-0.06962142139673233,-0.5463083386421204,0.6130267977714539,0.3356460630893707,-0.06316147744655609,0.16071957349777222,0.14769309759140015,0.24367180466651917,1.5347062349319458,0.5090604424476624,-3.8344922065734863,0.7212205529212952,0.6872003078460693,-1.200052261352539,-0.22901761531829834,-0.3669416308403015,-0.14647121727466583,1.445397973060608,2.3473830223083496,-1.0462367534637451,-0.1465432494878769,0.10246411710977554,1.4236886501312256,-0.7154483199119568,-2.0304107666015625,-1.3295068740844727,-0.8799833655357361,1.1470240354537964,-1.8376667499542236,0.9144341349601746,-0.36840999126434326,0.7037444710731506,0.9622424840927124,-0.18469232320785522,1.8922265768051147,0.09278450161218643,-0.5130814909934998,0.9901466369628906,0.3837917745113373,-1.503814935684204,3.4150216579437256,0.14229896664619446,0.19099512696266174,0.969765841960907,-1.6342473030090332,-1.8423727750778198,-0.4860013723373413,1.045451045036316,0.6356596350669861,2.0865509510040283,1.2768937349319458,-1.208790898323059,-1.3252062797546387,-1.0495449304580688
学生,2.4274003505706787,0.6676017642021179,-0.3195067048072815,-1.5146596431732178,0.1727207750082016,1.452633261680603,-0.35073041915893555,1.008644461631775,0.4949832856655121,-0.45167276263237,-2.1444039344787598,-0.3783314526081085,-1.0853773355484009,2.07775616645813,0.0663750022649765,0.747175395488739,1.621368408203125,-2.252326488494873,-1.6297706365585327,-1.0349071025848389,-1.1834450960159302,-1.431551218032837,0.8203704953193665,-0.759503960609436,0.02453678846359253,0.3526619076728821,0.5756027698516846,0.6613054871559143,-0.07520250976085663,-0.32644376158714294,0.2907957434654236,-0.30388325452804565,0.27436545491218567,-0.359199583530426,-1.6898772716522217,0.6419627070426941,-2.4325668811798096,0.2887516915798187,2.1714417934417725,0.37906402349472046,-0.06127474829554558,0.21229419112205505,-3.430680751800537,0.33024197816848755,-0.14084962010383606,-0.8149098753929138,-0.8671942353248596,-0.8729926347732544,-0.03621916100382805,0.48681217432022095,0.09763206541538239,1.2205392122268677,-1.3339409828186035,0.7441984415054321,1.9624731540679932,-0.03607267886400223,-2.8759710788726807,1.9408135414123535,0.7206252217292786,-0.08380004018545151,0.40922555327415466,-0.15805502235889435,1.662166714668274,-0.3993189334869385,-2.2350826263427734,1.5327835083007812,-0.7549910545349121,0.9190800786018372,0.5022585391998291,-0.784062385559082,1.8431390523910522,1.435198187828064,0.9197763800621033,-0.42131611704826355,0.5060980916023254,1.5308856964111328,-0.534180760383606,-0.5038022994995117,-0.6170633435249329,0.14356011152267456,-2.041274070739746,-2.362490653991699,-1.5808595418930054,0.40731558203697205,-0.48636549711227417,-2.901843547821045,1.0781446695327759,-3.164966344833374,0.15329208970069885,-0.8078912496566772,0.38397035002708435,1.126283049583435,-0.01586245745420456,1.209523320198059,-0.37848588824272156,0.34678420424461365,1.6899408102035522,1.578308343887329,-1.876854658126831,0.055889204144477844,-0.8843470215797424,-0.668521523475647,0.7638744115829468,0.26817798614501953,-0.597614049911499,0.576040506362915,1.2288093566894531,2.9573206901550293,-0.6444916725158691,0.23549355566501617,1.538079857826233,-0.43627241253852844,0.6693174839019775,-2.284198522567749,0.13448697328567505,0.042224910110235214,1.3706817626953125,-1.169102668762207,-1.757171630859375,-0.07263399660587311,0.7780779600143433,0.5140701532363892,1.2674745321273804,0.4085436463356018,0.6037304997444153,-0.7883595824241638,2.3954904079437256,-0.23707064986228943,1.6373783349990845,1.0001896619796753,0.562788188457489,-0.9742347002029419,-0.4481993317604065,-0.056182801723480225,-2.136502742767334,-1.689730167388916,-2.1730844974517822,1.7363947629928589,0.44511017203330994,-1.7508620023727417,-2.797074794769287,-0.41656434535980225,0.39672765135765076,-2.286910057067871,1.9879189729690552,0.7612072229385376,0.13437700271606445,0.7754893898963928,0.9057824015617371,0.15532590448856354,0.5692418217658997,-1.5033637285232544,-0.5601193904876709,1.043440818786621,-0.20962855219841003,-1.0436861515045166,0.8785082697868347,2.7797374725341797,-1.032585859298706,2.1887001991271973,0.053801167756319046,0.2131766825914383,1.0246094465255737,0.20933963358402252,1.0006133317947388,-1.6735584735870361,-0.5782981514930725,1.5535640716552734,0.4844690263271332,0.018608365207910538,-1.0935451984405518,-0.11559233069419861,0.5918384194374084,0.003208573441952467,1.8467546701431274,2.1782267093658447,1.046303629875183,-6.0106377601623535,1.7313392162322998,-1.45237398147583,1.4665285348892212,1.3203774690628052,-0.2340497523546219,-1.4136765003204346,-0.548393189907074,-0.14942961931228638,-0.1644551306962967,1.0239700078964233,-1.2754729986190796,2.4089441299438477,-0.7169970870018005,2.4723644256591797,1.0431336164474487,0.24461878836154938,0.5014877915382385,-1.0546668767929077,-0.04700472205877304,-1.1307295560836792,1.4590728282928467,-1.9943195581436157,-0.029042458161711693,0.5150038003921509,0.6397930383682251,-1.71165931224823,0.8678264617919922,1.2070603370666504,0.54615318775177,2.854515552520752,0.13450992107391357,1.2517393827438354,0.48469531536102295,-1.6997957229614258,-2.0805094242095947,2.1596953868865967,-0.7763893008232117,0.36947229504585266,-1.145639181137085,2.305556058883667,-0.8955638408660889,1.0909830331802368,-1.2235560417175293,-0.5925915837287903,2.172325611114502,-1.4448062181472778,0.09258417785167694,0.36956629157066345,2.0883936882019043,0.05072967708110809,-0.5531234741210938,1.7853845357894897,-0.6914584636688232,-0.9332666397094727,0.7428682446479797,-0.1969345510005951,-0.19437727332115173,-0.978522539138794,1.9119282960891724,0.1945313662290573,1.8002924919128418,0.5811038017272949,-0.24054478108882904,1.4589593410491943,1.428706169128418,1.3905218839645386,-0.6275588274002075,-3.0655319690704346,-1.1372313499450684,0.22898542881011963,-0.9583989977836609,-0.08162616193294525,-1.8892325162887573,-0.5206745266914368,0.7584895491600037,2.5110411643981934,-1.2498198747634888,0.3903631865978241,-0.8482473492622375,1.1543269157409668,2.2539784908294678,-0.36745941638946533,0.8714079260826111,-0.3045040965080261,0.47036129236221313,-1.4577643871307373,-1.7240896224975586,0.10622632503509521,-0.9472326636314392,-1.2032448053359985,-0.026650166139006615,0.7330891489982605,0.48073920607566833,-1.0590051412582397,0.15348748862743378,2.988537311553955,0.7248193025588989,-0.26987937092781067,1.5153173208236694,0.04614045470952988,-0.08234784752130508,0.4004153609275818,0.453748494386673,0.05732385069131851,-0.44591447710990906,0.9957892298698425,0.22552943229675293,0.6784207820892334,1.3375217914581299,0.3143123686313629,-0.250425785779953,-0.6646475195884705,-1.6895644664764404,0.5086709260940552,-0.5711305141448975,-1.5816891193389893,2.4419519901275635,-1.3175716400146484,1.0456279516220093,-0.2966093122959137,0.38108667731285095,-0.7530199289321899
素养,0.8446254730224609,-0.6446677446365356,1.536388874053955,-0.2344256490468979,-0.4908594787120819,1.297571063041687,-0.7753223180770874,0.8132027983665466,0.3119381070137024,-1.5761240720748901,-0.5206247568130493,0.1904713660478592,-0.5352774858474731,0.7109984159469604,-0.5216787457466125,-0.04186687991023064,-0.31294652819633484,-0.46630048751831055,-1.1426548957824707,-2.1423628330230713,0.8989389538764954,-0.7336368560791016,-0.5494850873947144,-0.044395312666893005,-0.833767294883728,-0.03972649946808815,-0.3161187767982483,0.20886670053005219,-0.7014188170433044,1.0707491636276245,0.22234512865543365,0.8403115272521973,-1.5766501426696777,0.9456989765167236,0.052340537309646606,-2.0480566024780273,-0.5171170234680176,-1.6275293827056885,-1.7601271867752075,-0.3936058580875397,0.10696166008710861,-0.8020102977752686,0.24515827000141144,0.5756470561027527,0.24846191704273224,0.7929818034172058,1.9349597692489624,0.09447488933801651,-0.20932850241661072,0.4034145176410675,-0.7768570184707642,-0.4614785313606262,0.6381168961524963,0.01991106942296028,-0.7656711339950562,-0.31732672452926636,-1.533908486366272,-0.6207730174064636,0.8725731372833252,-0.2647501230239868,0.5401379466056824,-0.28570055961608887,0.30669188499450684,-0.874799907207489,-1.307615876197815,0.6007243394851685,0.15333746373653412,0.6546229720115662,-1.3839994668960571,-1.6010994911193848,0.1543196588754654,-0.841540515422821,0.3346398174762726,0.31581243872642517,1.0248985290527344,0.39273208379745483,1.3847318887710571,1.1641159057617188,0.3490712642669678,0.7787590622901917,-0.8144049048423767,-1.022383213043213,-1.0909210443496704,0.44217365980148315,-0.4461894631385803,0.2473921924829483,-0.15343187749385834,-0.3924224078655243,0.6941165328025818,-0.26365867257118225,-0.18336547911167145,-0.5936919450759888,0.42020511627197266,-1.1458266973495483,-0.9458808898925781,-0.03242944926023483,1.5247058868408203,-0.48966366052627563,-0.8394371867179871,-0.6608307957649231,0.7236964702606201,0.0396977923810482,0.1923125684261322,-0.5297793745994568,-0.13997487723827362,-0.43512141704559326,-1.5052707195281982,0.9027491211891174,-0.024053769186139107,0.7566935420036316,0.5655108690261841,0.5216520428657532,-0.32121169567108154,-0.4791087210178375,0.7794497609138489,0.4144047498703003,0.3370206952095032,-0.3895588219165802,-0.6786537170410156,0.30570927262306213,-0.016269216313958168,-0.13807687163352966,0.5257679224014282,0.876197874546051,1.6741355657577515,0.28386616706848145,0.44026416540145874,0.30699825286865234,0.4211905598640442,-2.0054802894592285,1.35832679271698,1.0937213897705078,-0.3552086055278778,1.139041543006897,-0.6852620840072632,-0.2453410029411316,-0.46609652042388916,-0.7194186449050903,-0.009357823990285397,-0.3960791826248169,-0.3443251848220825,-0.4098917543888092,1.4230175018310547,0.43917661905288696,0.5120421051979065,-0.08797542005777359,-0.7789667844772339,-0.006402256432920694,0.8006441593170166,-0.6277870535850525,1.6291817426681519,-0.5072137713432312,-0.3203895688056946,0.36939308047294617,0.19371061027050018,-0.7255125045776367,0.01976962387561798,1.9736273288726807,-0.5402030944824219,-0.42110639810562134,-0.2505268454551697,-0.9394289255142212,0.5395925045013428,-0.47239288687705994,0.3630560040473938,1.1109380722045898,0.5364669561386108,-0.6185276508331299,0.5089972615242004,0.3760022521018982,-0.5149075388908386,-0.18803450465202332,-0.4121253490447998,0.9165728688240051,0.8570114970207214,1.1014938354492188,-0.8448808193206787,-1.403822422027588,0.41743025183677673,-0.9927586317062378,-0.41448161005973816,0.5517575740814209,0.14546307921409607,-0.5730834007263184,-0.3131904900074005,1.5888527631759644,-0.9960976243019104,-0.43046602606773376,-1.1584441661834717,0.7343493700027466,-1.5534615516662598,0.0649816170334816,-0.403387188911438,0.9066742062568665,0.3257376253604889,0.625760555267334,-0.9221513271331787,0.968576192855835,-0.29327309131622314,0.5017234683036804,-0.9203108549118042,0.9234249591827393,0.8086443543434143,-1.2991265058517456,-0.06911572068929672,0.8778126239776611,-0.27496689558029175,1.1101261377334595,-0.4629705548286438,-0.45730432868003845,-0.8237939476966858,0.3073187470436096,-1.106000542640686,0.4242766499519348,0.0841183215379715,-0.8700929284095764,0.3822408616542816,0.9830517768859863,-0.5088542103767395,-0.17866867780685425,1.0320323705673218,0.3895261287689209,0.5429314374923706,-1.2361160516738892,0.13370370864868164,-0.48378893733024597,-0.843420684337616,-0.28377729654312134,-0.04063667729496956,0.9939849376678467,-1.9084752798080444,-1.1931571960449219,1.3551548719406128,0.14819401502609253,0.32280147075653076,-1.4580079317092896,0.8743523359298706,0.35146358609199524,-0.0858551487326622,0.2657122313976288,0.8201766014099121,0.9679547548294067,-1.223596215248108,0.01594570465385914,-0.5945138335227966,-1.3639277219772339,-0.7383596301078796,-0.1907448023557663,-1.6898921728134155,1.4364326000213623,-1.0803793668746948,0.461507111787796,0.3124793469905853,0.6995051503181458,0.4873313903808594,-1.131672978401184,-1.151841640472412,0.877109706401825,1.0187971591949463,-0.8031466007232666,0.3036048114299774,-0.21352320909500122,-0.4137701094150543,0.03863198310136795,0.19633525609970093,0.08659171313047409,0.12358211725950241,0.7116764187812805,1.036393165588379,1.1996551752090454,-0.837965190410614,-0.6496722102165222,-0.4657299816608429,0.24456900358200073,-0.9407835602760315,1.0330842733383179,0.03295716643333435,0.14857177436351776,-0.4792754054069519,-0.6988534331321716,1.0313854217529297,0.7626350522041321,-1.3542832136154175,1.5769137144088745,-0.590537965297699,-0.7649688124656677,0.5839328765869141,0.9577353596687317,-0.2022903859615326,0.2694660425186157,-0.34863579273223877,-1.4386255741119385,0.1118554174900055,-0.2186826467514038,0.7911065220832825,-0.6714008450508118,0.10844460874795914,0.14933864772319794,-0.8581762313842773,-1.5795379877090454
提高,0.5606556534767151,-3.8423032760620117,2.646167039871216,0.5571926236152649,-2.93207049369812,1.8675655126571655,-2.468663215637207,0.7133327126502991,-2.4225215911865234,0.17215031385421753,-2.326094150543213,-1.7603542804718018,0.13229034841060638,-1.9087367057800293,-2.8063840866088867,-2.6333160400390625,-0.493896484375,-2.0834367275238037,-3.4860610961914062,-0.3491751551628113,-1.8337202072143555,-2.000544548034668,0.658098042011261,-1.776750087738037,-0.2613579332828522,-0.7237526774406433,0.9133966565132141,-0.650476336479187,-1.6854684352874756,0.3403210937976837,1.23580002784729,-0.398922860622406,-1.489201307296753,0.9266443252563477,-3.1920528411865234,-0.6724451780319214,-1.7120482921600342,-1.806052327156067,-3.575352668762207,-1.2657564878463745,-1.550844669342041,-1.0172743797302246,-0.8865270614624023,0.05092872679233551,0.9215686917304993,0.024820687249302864,-0.6176455020904541,1.120654821395874,-0.9853105545043945,0.535047709941864,-0.1742202341556549,1.4653288125991821,1.9855891466140747,-0.8725595474243164,-0.9553295373916626,-0.8985418677330017,0.9132726192474365,3.0358102321624756,0.5134258270263672,-1.896718144416809,-0.8669496178627014,-0.6715514659881592,-1.0257108211517334,-0.2432149350643158,-1.8936275243759155,0.3569481670856476,0.43458667397499084,2.555804967880249,-0.029155632480978966,-2.4744973182678223,-0.4765731990337372,-0.665471613407135,-2.23565673828125,1.4705311059951782,0.43023914098739624,-3.0801138877868652,1.6143293380737305,1.839492917060852,0.5523695945739746,-1.607509732246399,-0.2572251558303833,2.0583395957946777,-1.167301893234253,-0.7804476022720337,-0.3263819217681885,1.613863468170166,1.3634337186813354,1.6944162845611572,0.8442609310150146,-0.47110429406166077,-1.6480830907821655,0.670939028263092,-0.34485557675361633,0.12329095602035522,0.17171725630760193,-0.5123591423034668,1.6210722923278809,3.1543452739715576,1.6620211601257324,-0.2701992988586426,2.656383991241455,-0.98921138048172,1.9436239004135132,0.3842603862285614,1.0701301097869873,2.8199799060821533,-0.3268417418003082,1.74504554271698,-2.4250035285949707,-0.7657578587532043,-1.6985708475112915,0.05871438607573509,-0.7779207229614258,-2.6447482109069824,-0.18838165700435638,-0.8674865365028381,0.6750345230102539,-0.10629133880138397,-2.2119510173797607,0.08581123501062393,-0.021234620362520218,-3.2639362812042236,-0.1821189671754837,1.7297002077102661,1.0597141981124878,0.13364112377166748,0.03411339223384857,0.9468415379524231,1.714611291885376,0.7487707734107971,1.941394567489624,1.0794942378997803,-0.4679584801197052,0.7717195153236389,0.842863142490387,-1.5323446989059448,-0.42457401752471924,2.0529580116271973,0.5887556672096252,-0.7778292298316956,-1.2793852090835571,0.1590348333120346,-1.2559146881103516,-1.2174460887908936,1.0023702383041382,-1.3335423469543457,-3.6097030639648438,0.6782743334770203,0.6995067596435547,1.4069691896438599,1.1806937456130981,0.8991587162017822,0.7133851647377014,1.8337738513946533,0.06706937402486801,-1.2391858100891113,0.07600733637809753,1.708310604095459,0.4980587661266327,-1.0014833211898804,-1.853518009185791,-0.06305715441703796,1.6974833011627197,-0.9675912261009216,2.3446457386016846,1.7485285997390747,1.385730504989624,-1.0755594968795776,0.09928259998559952,1.3423314094543457,-0.7293445467948914,-0.039705146104097366,0.6732938885688782,0.4874765872955322,1.8732781410217285,0.7169540524482727,-0.318717896938324,-0.28564751148223877,0.7084599733352661,0.5296096205711365,-0.8556824326515198,0.9803396463394165,-0.33256858587265015,-0.661716639995575,0.09558995068073273,2.0784072875976562,-2.528015375137329,0.8554151654243469,1.5266422033309937,-2.2321181297302246,-3.0321576595306396,-1.9717552661895752,-0.7141837477684021,0.26094862818717957,1.2615069150924683,-0.3671703338623047,-0.9535911679267883,0.28522735834121704,1.1283397674560547,0.3052200376987457,-0.3271511197090149,-2.132906913757324,2.650571346282959,0.12671568989753723,1.2683464288711548,-0.17856474220752716,0.2107793241739273,0.18800503015518188,0.6099237203598022,-1.5259029865264893,-0.7864339351654053,-0.6386075019836426,-2.439749240875244,-0.6619229316711426,-0.600509524345398,0.9822744727134705,0.2565871775150299,2.150404214859009,-1.1477800607681274,0.25080475211143494,-0.4307665526866913,0.36036691069602966,2.6147348880767822,1.6892811059951782,-1.3457205295562744,-2.3895275592803955,3.2035040855407715,-1.1382988691329956,-2.2017760276794434,-0.012637513689696789,2.218618631362915,0.13037090003490448,1.645514726638794,0.11511816084384918,-1.7224876880645752,-0.19215236604213715,0.11089018732309341,0.14611203968524933,0.34519514441490173,-0.18738193809986115,-0.8783003091812134,-0.4734368920326233,-1.7257139682769775,-1.4360071420669556,-2.214264154434204,-2.122243642807007,-0.5300177335739136,-0.818202018737793,-0.20248255133628845,-1.5253331661224365,-4.377539157867432,-0.5168567895889282,1.3652607202529907,-0.4543938636779785,-0.007869256660342216,1.141274333000183,-1.5297139883041382,-0.8435379266738892,-0.8788678050041199,-1.0518643856048584,0.6097812056541443,-2.6963388919830322,-0.5682778358459473,-0.17113156616687775,1.0258153676986694,2.917158603668213,-1.9312864542007446,-1.004889965057373,-1.607143759727478,0.15141595900058746,-0.12288995087146759,-1.5432008504867554,-1.7074025869369507,0.9425843954086304,-0.7953763604164124,0.6108826398849487,-0.5572659373283386,2.0888586044311523,1.6839882135391235,1.2109514474868774,-0.3794712424278259,1.841335654258728,-0.3871568441390991,1.302799105644226,-0.546737790107727,0.38661670684814453,-2.0502986907958984,0.469356894493103,-1.5958398580551147,-1.1266672611236572,-0.5992687344551086,-1.8618872165679932,0.07868561893701553,2.205375909805298,-1.1818008422851562,-0.537799596786499,0.002890166360884905,0.12279266119003296,-0.20967048406600952,-2.1227869987487793
课堂,0.7646090388298035,-0.43022826313972473,1.0229694843292236,0.562730073928833,0.4199729859828949,-0.3230554163455963,-1.9559882879257202,0.6308385133743286,1.5525950193405151,-0.8409245014190674,-1.6258766651153564,0.24808360636234283,-0.5493046045303345,0.30040332674980164,-0.6714184284210205,0.9296700954437256,1.545805811882019,0.0880475640296936,-0.5391760468482971,-0.4509626030921936,-0.9870710372924805,0.607423722743988,0.4708501994609833,-0.6010082960128784,0.43924370408058167,-0.3985925614833832,-0.47983160614967346,0.2993282377719879,-0.09063404053449631,-0.6483548879623413,0.8155252933502197,0.3761325478553772,-0.8481374979019165,-1.3351309299468994,-0.34774643182754517,-0.5576837062835693,-0.3179212212562561,0.1716083586215973,-0.07623045146465302,-0.14514805376529694,-0.21170096099376678,-0.579096257686615,-1.1394600868225098,0.43751710653305054,0.6109412312507629,0.23671390116214752,-0.128657728433609,-0.8326491713523865,0.027923928573727608,-0.0855710431933403,-2.4561989307403564,-0.3404896557331085,0.28400537371635437,0.06610815227031708,1.0299780368804932,-0.8384455442428589,-0.07062537223100662,-0.5217986702919006,1.5886080265045166,1.7761143445968628,0.20712797343730927,0.42809081077575684,0.008862019516527653,-0.8472180366516113,-1.9424664974212646,1.8899492025375366,0.3088456392288208,3.018588066101074,0.41606032848358154,0.4791257679462433,-0.44020530581474304,0.6881939768791199,-0.728130578994751,-0.38721734285354614,0.3533785343170166,0.6284523606300354,-0.35261139273643494,-0.7093976140022278,0.10042951256036758,-1.2899789810180664,-1.4982659816741943,-0.8634544610977173,-0.5723866820335388,0.3389512002468109,-0.34944623708724976,-0.15225113928318024,-1.2414908409118652,-0.5990941524505615,0.8745887875556946,0.5032744407653809,-0.7314692735671997,-0.5974512696266174,0.3784659504890442,-0.12334074079990387,-2.136920690536499,0.096157006919384,1.1341021060943604,1.3809796571731567,-1.4290224313735962,-0.6829849481582642,1.0462908744812012,-0.319000780582428,0.5555210113525391,0.6607826352119446,-1.150115728378296,-0.675131618976593,-0.0056437114253640175,0.9968576431274414,0.8260098099708557,0.9424638748168945,1.1289235353469849,-0.12431616336107254,0.33626657724380493,-0.1477002203464508,0.5746687650680542,-0.1453683078289032,0.9295987486839294,-0.648179292678833,-1.788408875465393,0.43515583872795105,1.2801483869552612,0.5289456844329834,1.9602916240692139,0.763525128364563,0.40768253803253174,-0.2707679271697998,0.03893719241023064,1.2456375360488892,2.3165555000305176,-0.3906118869781494,-0.6082279682159424,0.06308098137378693,0.17603860795497894,-0.550150990486145,-2.069443702697754,-0.036783814430236816,-1.1058080196380615,-1.400816559791565,0.7088748216629028,-3.0925960540771484,-1.0484856367111206,-0.3765419125556946,0.47463127970695496,-0.42065882682800293,1.1473827362060547,0.04404802247881889,-0.2773938477039337,1.2820967435836792,-0.42547163367271423,1.0010204315185547,1.2623807191848755,-0.015310815535485744,-1.1641868352890015,1.3286316394805908,-0.04639866575598717,-1.6276687383651733,1.4229109287261963,-0.4435266852378845,-0.5389140844345093,-0.29641738533973694,-1.2520393133163452,-0.10327161103487015,-0.24468417465686798,-1.056671380996704,1.2675578594207764,-0.7480854988098145,1.1806716918945312,1.0002787113189697,0.36376523971557617,0.04307623952627182,-0.7363847494125366,-0.4323730766773224,0.3129022419452667,-0.05479889735579491,0.8697769045829773,0.7511988282203674,-1.0182818174362183,-2.3214006423950195,0.6326246857643127,-0.16304907202720642,-0.04805177077651024,0.3167489171028137,-1.0985350608825684,-0.8721094727516174,-0.3758919835090637,0.30526044964790344,-1.0530295372009277,-0.6783444285392761,0.10119282454252243,0.42064228653907776,-0.6279762387275696,1.2251856327056885,0.00744586018845439,-0.3514224886894226,0.6436792612075806,-0.3329344689846039,1.4689769744873047,-0.5457637310028076,-1.3888131380081177,-0.942689836025238,-0.46761631965637207,1.1835358142852783,0.7932714819908142,-2.3956708908081055,-0.023540182039141655,1.1611669063568115,0.6251707077026367,2.1956894397735596,0.6610251069068909,1.9218229055404663,-1.3209208250045776,0.6694579124450684,-0.12864214181900024,0.9621842503547668,-0.6650753021240234,-0.9494437575340271,0.7910540103912354,1.0855664014816284,-0.7883355617523193,0.9296329617500305,-0.12729842960834503,-0.11058592796325684,0.8766931891441345,-0.8231287002563477,0.6027392745018005,-0.7910577058792114,-0.11592438071966171,1.4722479581832886,0.01814611814916134,0.4315371513366699,-0.3585282862186432,-1.8106694221496582,0.8733537197113037,-0.5921927690505981,1.171675682067871,1.1245917081832886,1.6506083011627197,0.9177178740501404,1.4336479902267456,-0.4602431058883667,0.5366837382316589,1.414507269859314,-1.147970199584961,-0.27164018154144287,0.3477088212966919,-1.840076208114624,0.24204428493976593,0.41392016410827637,-0.13213558495044708,0.041389063000679016,-0.262147456407547,-3.3875958919525146,0.30398687720298767,1.9036563634872437,-0.5566197633743286,0.7475969195365906,-0.9980165362358093,1.205557107925415,2.6498751640319824,0.6360704302787781,1.0541051626205444,-0.08489476889371872,-0.7427952289581299,-0.5748353600502014,-0.6077753305435181,-0.017947576940059662,0.4902973771095276,-1.398977279663086,-0.7767729759216309,0.21742290258407593,-0.21565474569797516,-0.3189629912376404,1.2826792001724243,2.3927721977233887,-0.25483325123786926,1.3341091871261597,1.3386753797531128,-0.000141458775033243,0.22363637387752533,1.578154444694519,1.770669937133789,1.3393579721450806,0.10339530557394028,0.6338048577308655,-0.8985977172851562,0.3901599943637848,0.6463049650192261,-0.4081614017486572,-0.6464551091194153,-0.3575209677219391,-0.4285036325454712,-0.6383799910545349,-1.5903805494308472,-1.0673869848251343,1.7740658521652222,-0.2147427797317505,-1.012037754058838,-1.030371069908142,-0.18255849182605743,-1.2156482934951782
使,-1.018930196762085,-2.9545342922210693,2.067601442337036,0.8145624399185181,-0.6904426217079163,-0.8909497857093811,0.5147008299827576,-0.43954843282699585,0.5772721767425537,1.4967758655548096,0.1627371609210968,0.762126624584198,-0.2444734275341034,-1.257914662361145,-1.1337122917175293,0.8220164775848389,0.009188498370349407,-1.9262244701385498,-0.8722594976425171,-0.002044504741206765,-0.7297656536102295,-0.9370843768119812,0.9547975659370422,-1.023080825805664,-0.02565823495388031,-0.8845227956771851,0.7366213202476501,-1.4365246295928955,-2.0618255138397217,1.3402440547943115,1.1168686151504517,-0.46675077080726624,0.5790268182754517,1.0486862659454346,-2.409292459487915,-0.7311848402023315,-0.047669414430856705,-2.7168309688568115,-0.647113561630249,0.08561843633651733,0.036863844841718674,-0.662147581577301,-1.780806303024292,-0.6850852966308594,-0.25831276178359985,2.9094462394714355,1.2068734169006348,1.2768410444259644,-2.4832711219787598,0.6233574151992798,2.200190305709839,0.793213963508606,0.44139236211776733,-2.2501683235168457,0.11269532889127731,0.04353506863117218,2.077308416366577,3.066211462020874,-0.5457471609115601,-1.9703587293624878,1.2744331359863281,1.7909574508666992,-0.315721720457077,-0.46141958236694336,-0.7696300148963928,1.097087025642395,1.551050066947937,-0.3654029965400696,-1.7202956676483154,-0.14158675074577332,-0.188796266913414,-0.21441435813903809,-0.5341786742210388,-1.6439629793167114,1.8688368797302246,0.6392827033996582,0.3212844133377075,-0.9170429706573486,0.38018909096717834,-0.395858496427536,4.942596435546875,-0.7731435298919678,0.13764749467372894,-0.11970382928848267,1.6159229278564453,-1.292181372642517,0.9630247354507446,-0.512407660484314,-1.1651172637939453,-2.5008087158203125,-2.0415449142456055,-1.9155213832855225,-0.26743608713150024,-1.2536213397979736,-0.9590266346931458,-0.847594678401947,1.3321318626403809,0.4735282063484192,0.6320549845695496,-0.219689279794693,1.4785667657852173,0.034496113657951355,2.2516281604766846,0.26206380128860474,0.6102320551872253,0.6114537119865417,0.6756999492645264,0.07049551606178284,-0.027567481622099876,-0.6535681486129761,0.11361074447631836,-0.19612586498260498,-1.0039910078048706,-0.9496905207633972,0.4057060182094574,-2.208972215652466,-0.618412971496582,-0.017331309616565704,1.1231902837753296,-0.892053484916687,-1.0147305727005005,0.2518884539604187,-1.941286325454712,-0.025842389091849327,0.2680133879184723,0.03834649175405502,2.361466407775879,2.2301294803619385,-0.27845025062561035,-1.460348129272461,-0.23770292103290558,-0.45969823002815247,-1.8670260906219482,-0.10754883289337158,0.2630057632923126,-0.5037360787391663,0.8487809300422668,-1.911427617073059,-0.11650018393993378,-1.061193823814392,0.46758562326431274,0.7721605896949768,-1.3360590934753418,-0.09974761307239532,-0.41329118609428406,2.326014995574951,-1.4108030796051025,-0.027028163895010948,0.7978555560112,1.6641013622283936,0.7815085649490356,0.18960227072238922,1.3306435346603394,1.4726759195327759,1.0719711780548096,-0.7207963466644287,-0.021651670336723328,2.319225788116455,-0.006227499805390835,-0.8304053544998169,0.2639862596988678,-1.7834141254425049,0.9118124842643738,-0.48021599650382996,1.2913793325424194,-0.7744659781455994,1.5280123949050903,0.2571864128112793,-0.2674046456813812,0.5727026462554932,-1.8173627853393555,-2.4916129112243652,-0.6517059206962585,-0.43915992975234985,1.4670114517211914,0.6249868273735046,0.27522730827331543,-1.0826224088668823,0.7760260701179504,0.8421141505241394,0.1984713226556778,0.45851999521255493,-0.6016840934753418,0.3568049669265747,0.09919857978820801,3.273501396179199,-1.1764180660247803,0.7341126203536987,-0.18170803785324097,-0.6677888631820679,-0.59247225522995,0.09786011278629303,1.5181241035461426,3.0639877319335938,-0.15686598420143127,-0.10779225081205368,0.4620401859283447,0.7377160787582397,0.7227031588554382,0.8717244863510132,-1.1077932119369507,-0.24023401737213135,0.47679033875465393,2.2829084396362305,2.202516794204712,0.9387180805206299,0.9332876205444336,-1.0290650129318237,0.9597562551498413,-1.2118566036224365,-0.5363095998764038,0.20317284762859344,-3.1629366874694824,0.9154525995254517,-1.6363890171051025,-0.21580290794372559,2.5144755840301514,0.7352542877197266,0.41433456540107727,0.9366143941879272,-0.039829790592193604,0.5082207918167114,-0.47641775012016296,0.1800004094839096,-0.4579372704029083,-0.21023453772068024,-0.7681614756584167,2.322964668273926,-2.1996896266937256,0.07104469835758209,1.0978697538375854,1.3689637184143066,-1.0025476217269897,2.5714340209960938,-1.284184455871582,-0.3546229600906372,1.1437406539916992,0.5740019679069519,1.0471795797348022,0.4640825390815735,0.9543300271034241,1.4970934391021729,0.6415004134178162,-1.4506312608718872,-1.5896135568618774,-0.017068341374397278,-1.3481355905532837,0.052494361996650696,0.6932199001312256,-1.0959362983703613,-3.2795960903167725,1.503525733947754,1.4118471145629883,1.2959414720535278,-0.12403856962919235,-2.1270694732666016,-3.9661123752593994,-2.148530960083008,2.4386560916900635,-1.8501031398773193,-0.492843359708786,-2.2131848335266113,0.8403727412223816,-1.0001099109649658,0.6556398272514343,-0.9949952363967896,-0.7003771662712097,-0.4162362515926361,-4.464846134185791,0.5549412369728088,0.5570967197418213,-0.3512914180755615,1.0474916696548462,1.4664403200149536,-0.5934635996818542,-1.0458862781524658,-0.7756272554397583,0.8897907137870789,2.533432722091675,-0.16266293823719025,1.9999158382415771,2.007349967956543,-0.07496639341115952,0.18052345514297485,0.17962199449539185,1.5586042404174805,2.5565967559814453,-0.20377881824970245,0.40136104822158813,-1.0884350538253784,-0.6095623970031738,-1.4784867763519287,-0.18398532271385193,-0.20769384503364563,0.2786840498447418,-1.6875211000442505,0.4382588565349579,0.44624045491218567,-1.7393611669540405,-2.1344707012176514
创设,0.6344325542449951,0.7144284844398499,-1.8800065517425537,1.65744948387146,-1.1623295545578003,-0.7850536108016968,-1.1077251434326172,0.7442091703414917,-0.6828483939170837,0.5777991414070129,1.5655938386917114,0.47319909930229187,-1.178955316543579,-0.12568192183971405,-0.5704903602600098,0.4792146682739258,-1.240256905555725,-0.033445265144109726,-0.5584288239479065,-0.8825348615646362,1.0455526113510132,1.1654051542282104,-1.745770812034607,-1.2130848169326782,-0.2177056521177292,-0.9662731289863586,0.09643272310495377,-1.3245288133621216,0.2730252742767334,-0.4561280906200409,-0.38502776622772217,2.00187349319458,0.041945669800043106,0.9009479880332947,-1.2968624830245972,0.472665399312973,1.460413932800293,-1.0019081830978394,-0.6270832419395447,0.06788358092308044,-0.05499272793531418,-0.8301721811294556,-2.0794570446014404,-0.6648504137992859,-1.5620399713516235,-1.1593254804611206,1.8352701663970947,0.03880999609827995,0.6426971554756165,1.0631016492843628,1.1322376728057861,0.12607505917549133,-0.12094306945800781,1.8436046838760376,-0.21177510917186737,-1.0458916425704956,-0.4882088601589203,1.3417277336120605,0.295928031206131,-0.04595359414815903,-0.5564245581626892,-2.009899854660034,1.1769392490386963,-1.6894116401672363,0.2546555697917938,-0.8936964869499207,0.7729788422584534,0.8806646466255188,0.25122877955436707,0.7507030367851257,-0.09781965613365173,-0.3814419209957123,0.8087016940116882,-0.8816187977790833,-0.027704041451215744,0.5544512271881104,-0.22928546369075775,1.4911983013153076,0.014968601986765862,0.9986989498138428,-1.7755533456802368,0.026057245209813118,0.09149577468633652,-1.7980765104293823,-0.8088224530220032,1.4477747678756714,0.8526059985160828,-0.8857210874557495,2.896623134613037,-0.9463351964950562,0.2352307140827179,-0.7557420134544373,1.8786892890930176,0.543060839176178,0.5574896335601807,-0.8465963006019592,0.2888718843460083,-0.810942530632019,-0.16907206177711487,-2.024822950363159,-0.03462923690676689,0.770828127861023,-0.3873510956764221,0.8697820901870728,1.9328786134719849,0.03199472278356552,1.4628243446350098,1.232984185218811,-0.13632389903068542,-0.009166059084236622,0.1691243052482605,-1.0786091089248657,1.0511096715927124,-0.22608451545238495,0.9307281970977783,-0.6956713199615479,0.6514654755592346,0.19007684290409088,0.8260775804519653,-0.27510517835617065,-0.3501860201358795,-0.6236841082572937,-0.4414342939853668,-0.9872801303863525,0.8063840866088867,1.3058563470840454,-0.021827582269906998,-0.34709349274635315,-1.247369408607483,-1.4664323329925537,1.3520866632461548,-0.23754501342773438,0.2810530960559845,0.12176856398582458,0.044534649699926376,0.20370687544345856,-1.0779139995574951,-1.0348328351974487,-0.18981841206550598,-0.36774036288261414,-0.6164352893829346,-0.897102952003479,1.1978853940963745,0.7182215452194214,-0.3276756703853607,-2.407240152359009,-0.4057139456272125,-0.014517628587782383,1.7105934619903564,1.4682643413543701,-0.4538467228412628,0.6936396956443787,-1.2990741729736328,-0.13469542562961578,0.04628925397992134,-0.26480433344841003,-1.0757197141647339,-0.7758580446243286,-1.3625339269638062,-0.3691640794277191,-0.4837646484375,-0.9585866928100586,0.5730153918266296,-0.4508591592311859,-0.5977505445480347,0.7024902105331421,1.4508832693099976,0.33001959323883057,0.47712379693984985,0.6058191657066345,1.3956010341644287,-0.5161051750183105,0.05288109555840492,-0.7787941098213196,0.25183433294296265,0.9468185305595398,-0.10182113200426102,-1.1215530633926392,-0.5367627739906311,-1.776711344718933,-0.5867807269096375,0.14655998349189758,2.466909408569336,-1.323150396347046,0.1234094426035881,0.40627172589302063,-1.0692065954208374,-1.6835778951644897,-1.3411903381347656,1.1450128555297852,-1.0247803926467896,-0.6723996996879578,0.01910766214132309,-0.8850781321525574,-2.1287484169006348,-1.8753278255462646,0.6900995969772339,-0.37859103083610535,0.19141241908073425,0.1913943886756897,0.4568089544773102,0.5863580703735352,0.20040163397789001,-1.0056695938110352,-1.0071710348129272,0.8426527976989746,0.7585803270339966,-0.18075235188007355,0.6985688805580139,-0.7825837731361389,-0.48008280992507935,-0.7509790062904358,0.235419362783432,-0.8393649458885193,2.489001750946045,1.5288573503494263,-1.0204828977584839,-0.16934305429458618,0.12447963654994965,0.05431127920746803,0.6006529927253723,-0.7700815200805664,-0.21538333594799042,-0.931941032409668,-0.22801336646080017,0.43519601225852966,1.0703407526016235,-1.055091381072998,0.5260363221168518,-1.2911683320999146,0.5198032259941101,-1.2196041345596313,1.870871663093567,-0.07781460136175156,0.28149107098579407,0.38277339935302734,0.35938403010368347,-1.4959498643875122,0.3220047056674957,-0.3547656834125519,-1.9366447925567627,2.1853911876678467,-0.7530267834663391,-0.8317368626594543,-0.2505325675010681,-1.0765902996063232,0.9557746648788452,0.8281199932098389,0.03365778177976608,-0.7830042839050293,-1.107450008392334,0.967951774597168,-0.15056844055652618,-1.0311782360076904,-0.5345434546470642,0.9042539596557617,0.2007860392332077,1.222429633140564,0.5501062273979187,-1.042845368385315,-0.19719085097312927,-1.903098702430725,0.30571243166923523,0.33439767360687256,0.03591052070260048,-1.3191684484481812,-0.07414383441209793,-1.2321562767028809,1.3968969583511353,0.34838297963142395,0.508598268032074,0.060606371611356735,0.9327698349952698,1.2844899892807007,0.6667579412460327,-0.9832766056060791,0.5158354640007019,0.4114004969596863,-1.196083426475525,0.45576468110084534,-2.1187949180603027,1.0174381732940674,0.4965344965457916,0.905208945274353,0.8292152285575867,-0.33012866973876953,0.23814724385738373,-1.2692128419876099,-1.5651201009750366,-1.3018012046813965,-1.2606669664382935,0.7069293856620789,0.34712061285972595,1.128529667854309,-0.2873508632183075,0.3746502697467804,0.05136661231517792,2.2363202571868896,-0.3951890766620636,0.961686909198761
情境,0.06754875183105469,-0.07838241755962372,1.1227221488952637,-1.693917989730835,1.0975589752197266,-1.0047316551208496,-0.5134154558181763,0.8656582832336426,1.2256766557693481,-0.32882028818130493,-0.08738042414188385,-1.966528296470642,-0.5460224747657776,-0.42759475111961365,-1.9234644174575806,1.7657432556152344,0.34989187121391296,0.6049103140830994,-0.49038538336753845,0.07528387755155563,0.051302168518304825,0.7320241928100586,-0.0333724170923233,1.1337426900863647,1.3684781789779663,0.09999299049377441,-0.0656491219997406,0.48364362120628357,-0.12129092216491699,0.30213817954063416,-0.31369054317474365,0.5223331451416016,-1.7338083982467651,-0.6303273439407349,-0.26180052757263184,-0.9054778814315796,-1.5419296026229858,-1.6909204721450806,-0.5272781848907471,0.2827381193637848,-1.1790895462036133,0.32837581634521484,-1.2968182563781738,-0.6438817381858826,0.39172646403312683,-0.7913668751716614,0.1541071981191635,-0.3264300525188446,-0.7802258729934692,0.3516801595687866,1.5899736881256104,-0.7493893504142761,-0.4247463047504425,1.2923611402511597,0.10239365696907043,-0.5194917321205139,0.3049945533275604,-1.0345176458358765,0.336335688829422,-0.8096227645874023,0.6579968929290771,0.480401873588562,-0.10951352119445801,0.7692694664001465,-2.374103546142578,0.2083502560853958,1.3583686351776123,0.7560553550720215,-0.2666270434856415,-0.2919382154941559,-0.2826077938079834,0.19827748835086823,-0.3610324263572693,-1.0588897466659546,-0.505592405796051,-0.12573808431625366,0.41700732707977295,-0.16847096383571625,1.2655360698699951,-1.1303746700286865,-0.7944839000701904,-1.7379781007766724,-1.3219871520996094,0.6699480414390564,-0.2855270802974701,0.10396925359964371,-0.7738133668899536,1.9682668447494507,0.6744077801704407,0.05834710970520973,0.12144934386014938,0.9866084456443787,0.16818828880786896,-1.327235221862793,-0.6970488429069519,-1.175174593925476,1.4635436534881592,0.7202022075653076,0.8092353940010071,-0.8871843814849854,1.3703746795654297,-0.11030355095863342,0.5337035059928894,-0.11191309243440628,-1.5979435443878174,-0.5675811767578125,0.5764579772949219,2.1738314628601074,-0.9547151923179626,0.6742122769355774,0.8072069883346558,-0.47186020016670227,-1.963463544845581,2.453835964202881,2.1637771129608154,-0.6246345043182373,1.0419838428497314,-0.5879326462745667,-0.8901772499084473,-0.04554516077041626,0.32798588275909424,-0.3721221685409546,0.8564680218696594,-0.2636561393737793,-0.6704840660095215,-2.1946299076080322,0.2670489251613617,-0.007198509760200977,1.7099586725234985,-1.2650911808013916,-0.8857867121696472,0.3400494456291199,1.3234018087387085,1.5998046398162842,-0.8082531094551086,-0.05578268691897392,-0.0020539858378469944,-0.05668293684720993,0.013268092647194862,-0.5141468048095703,1.2242063283920288,0.2219822108745575,-0.24195264279842377,0.739392101764679,1.583878517150879,0.38394036889076233,-0.510539174079895,0.3086285889148712,-0.7739543318748474,-0.30755430459976196,0.6961365342140198,-0.9323375821113586,0.24363695085048676,0.12596085667610168,-0.5409467220306396,-0.8394378423690796,-1.0040278434753418,0.05710352584719658,-1.4799797534942627,0.11916649341583252,1.287850260734558,-0.6721450686454773,-0.7151569724082947,0.12231829017400742,0.17911100387573242,-1.6779167652130127,0.34648942947387695,-0.85450679063797,0.45110639929771423,-0.04068823531270027,-1.6976149082183838,-0.4054422080516815,-0.12651944160461426,-0.012428983114659786,1.9901925325393677,0.9549521803855896,-1.083775520324707,-0.2791866064071655,1.0703250169754028,0.34062784910202026,-0.6895405650138855,-1.7147551774978638,0.040972013026475906,1.0823396444320679,-0.4038546681404114,0.40303710103034973,0.44326072931289673,-0.01561778225004673,-0.03523837402462959,-1.0149019956588745,-1.2481645345687866,0.20844852924346924,-0.6525920629501343,0.22293201088905334,0.47809773683547974,0.4205734133720398,0.6508657932281494,0.8121115565299988,-1.4448833465576172,0.8923544883728027,-0.6751695871353149,0.7890245318412781,0.1410868614912033,-1.6685665845870972,0.08596856147050858,-0.01829691231250763,-0.4955376088619232,1.177601933479309,0.13258832693099976,-0.5428712368011475,-0.5991300940513611,0.04567444697022438,-1.0593494176864624,-0.1492883861064911,0.07375726848840714,-1.306397557258606,0.02140928991138935,0.7182308435440063,0.8591377139091492,0.39052844047546387,0.256695955991745,-0.09318377077579498,0.050492942333221436,-0.49062326550483704,0.7203571796417236,-0.4096931219100952,0.32364147901535034,0.5458657145500183,-0.8934330940246582,1.2051690816879272,0.28473156690597534,-0.7322171330451965,-0.3296525776386261,-1.6041836738586426,-0.5116181969642639,-0.5324598550796509,1.51628577709198,0.4023296535015106,-0.8031416535377502,0.7783126831054688,0.6297906637191772,1.7907295227050781,-0.7554605007171631,-0.5724777579307556,-1.8345776796340942,-1.0538508892059326,-0.7391916513442993,-0.0992678552865982,0.5108963251113892,0.4086768329143524,0.7886330485343933,-0.405182421207428,-0.6389427781105042,-0.5130781531333923,0.6964854598045349,-1.7522093057632446,-1.0220457315444946,0.5418488383293152,1.4877879619598389,0.38262665271759033,1.3503456115722656,-0.4227772057056427,-1.2789084911346436,-0.7680321931838989,-0.36660030484199524,-0.8084942102432251,-0.5560237765312195,-0.8439895510673523,2.0150203704833984,-1.2945786714553833,0.4015599489212036,0.4819091856479645,1.0067750215530396,1.3204089403152466,-0.03269515559077263,1.050894856452942,1.1685457229614258,-0.0387444868683815,-0.9122629165649414,-0.29410287737846375,0.2691059708595276,0.8081781268119812,-0.8688381314277649,0.0733969584107399,-0.07478845119476318,0.9419093728065491,1.3790663480758667,0.9159982800483704,0.5919222235679626,-0.1402563899755478,-1.1726031303405762,-1.3798086643218994,-1.5882539749145508,-1.5059760808944702,2.12261700630188,1.5259127616882324,1.197343349456787,-0.954932451248169,-1.0095280408859253,0.00911515112966299
物理,1.108143925666809,1.0522382259368896,1.0193158388137817,1.306040644645691,1.7055729627609253,0.5769548416137695,-0.014833047986030579,1.6025563478469849,1.4935816526412964,0.8856804370880127,0.06220028176903725,0.4260946214199066,-0.49989983439445496,2.0000710487365723,-1.5621055364608765,0.6073635220527649,0.6789733171463013,1.5388976335525513,0.4063403904438019,-1.4125268459320068,-0.37791168689727783,0.18212401866912842,0.6341829299926758,-0.21568679809570312,0.1880383938550949,-2.3816351890563965,0.3452320992946625,-0.6442075371742249,1.7304936647415161,0.4045368432998657,-1.729565143585205,0.41851308941841125,0.3665085732936859,-1.3601224422454834,-1.379115104675293,0.1655558943748474,-0.6877216696739197,-0.636803150177002,-0.10665509104728699,-1.205905795097351,-0.8950632810592651,-0.13110779225826263,0.5512372851371765,0.6792840361595154,-0.1676381230354309,-0.22175908088684082,0.3040345013141632,-0.7629014253616333,-1.1430295705795288,0.022269923239946365,-0.5703504085540771,1.1771401166915894,-0.7922939658164978,0.9023510217666626,1.6752735376358032,-0.6166750192642212,-1.6110166311264038,-0.30695244669914246,2.50496244430542,1.0323843955993652,-0.6562691926956177,0.8823201656341553,1.054891586303711,0.08128786087036133,-2.4957940578460693,4.093033313751221,1.4059122800827026,1.7287507057189941,0.3432069718837738,0.5278539061546326,-1.1237534284591675,0.617427408695221,-0.379995733499527,2.2712907791137695,0.9772184491157532,-0.6949410438537598,0.6416395902633667,0.47172534465789795,1.270619511604309,0.7757128477096558,-2.0221829414367676,-0.3173596262931824,0.16654112935066223,0.4255850315093994,-0.017658323049545288,0.12137727439403534,1.6770952939987183,0.49576056003570557,0.680767834186554,0.41824349761009216,0.3714849650859833,-1.4314980506896973,-1.6033601760864258,-1.750065565109253,0.11137828975915909,0.3047599196434021,-0.8544807434082031,0.35448771715164185,-0.10098399221897125,-0.7020055651664734,1.285138726234436,-1.0005723237991333,-0.1370445042848587,1.3087621927261353,0.40985316038131714,0.1868462860584259,-0.11129744350910187,1.6842057704925537,0.4358178675174713,-0.4937572777271271,1.739419937133789,-0.05303460359573364,0.5566988587379456,0.22645226120948792,0.21691115200519562,-0.3950631618499756,-0.12507542967796326,-0.8544780611991882,-0.07550045102834702,1.2725900411605835,2.031181573867798,0.7651612162590027,-0.2260536253452301,0.02382572740316391,2.711296796798706,1.0745277404785156,0.2956608235836029,1.3358625173568726,0.9294034838676453,-0.1544196456670761,2.1935524940490723,0.16124778985977173,0.5427992939949036,-1.3718185424804688,-0.574490487575531,-0.8552402853965759,2.5987699031829834,0.18167637288570404,0.17812244594097137,-3.1618361473083496,-2.1540541648864746,0.5202760100364685,0.6730592250823975,-0.11985112726688385,0.783977210521698,-0.3134422302246094,-0.3209781050682068,1.1315807104110718,0.3542577624320984,0.6836153864860535,-0.26315340399742126,0.4502778649330139,-0.687516450881958,0.14190563559532166,0.14448654651641846,-1.097324252128601,1.349831223487854,1.2269219160079956,-2.147145986557007,-0.11685570329427719,1.3685139417648315,0.4946233630180359,-0.5015366673469543,-0.2751113772392273,-1.118862509727478,-1.0198974609375,0.2573491334915161,1.347439169883728,1.2064642906188965,-0.15882210433483124,-1.2106796503067017,0.3634226620197296,0.05995815247297287,1.2537051439285278,-0.5547003149986267,-0.23193803429603577,-0.40551885962486267,-1.267802119255066,0.35534632205963135,0.013101513497531414,0.5629299283027649,-0.3897848427295685,0.01862350106239319,0.6490728259086609,0.4596143960952759,1.2349095344543457,-2.2961761951446533,-0.47911950945854187,1.4531662464141846,-1.7584528923034668,-0.7010757327079773,0.1662435233592987,-1.066274642944336,0.8653045892715454,0.039904434233903885,-1.7933467626571655,2.0230374336242676,0.5530969500541687,0.30357325077056885,0.812602162361145,0.47037795186042786,0.03362683579325676,-0.6420453786849976,1.7540392875671387,-0.8965914845466614,0.16670513153076172,0.7672757506370544,2.245121479034424,0.2468075156211853,1.3326959609985352,-0.6437565684318542,1.0566582679748535,-1.2450565099716187,-0.515752911567688,-1.2787199020385742,-1.4722684621810913,1.8040850162506104,-0.02346695028245449,-0.48331937193870544,1.0052794218063354,0.6179449558258057,-0.4136207103729248,0.23750533163547516,-1.0202418565750122,0.11154361814260483,-0.7431260347366333,-0.25423023104667664,0.9096770882606506,-0.42410901188850403,0.8604839444160461,1.408810019493103,0.109384685754776,1.0227699279785156,0.6446763277053833,-0.4924336075782776,-3.5013015270233154,0.43069201707839966,-1.162097454071045,1.2579243183135986,-0.10737336426973343,1.171114444732666,1.1912418603897095,-0.35441824793815613,1.2445547580718994,-0.33757922053337097,-0.5378665924072266,-1.8004913330078125,-0.2582472860813141,-2.4551451206207275,1.4427224397659302,-0.925585150718689,2.0853493213653564,-0.5578644275665283,0.3413131833076477,-0.5188167691230774,1.7039899826049805,-3.2315833568573,0.21224761009216309,0.131586953997612,-0.8221659064292908,0.3051285147666931,-0.444600909948349,-0.7447680234909058,1.9105826616287231,0.720588207244873,1.481278896331787,1.4574236869812012,-0.996866762638092,0.05027158185839653,-0.05872710794210434,1.0989524126052856,-0.7810512781143188,0.20871113240718842,0.04786575585603714,-2.7258799076080322,0.27357807755470276,-0.013434043154120445,-1.1152594089508057,-0.021882282570004463,0.6892253160476685,1.4713069200515747,1.6920454502105713,-1.8297576904296875,1.243719220161438,-1.444332242012024,1.5008777379989624,0.5772842168807983,1.0256803035736084,0.37451258301734924,0.823363184928894,-2.7785041332244873,-1.7241922616958618,0.6920122504234314,-1.583089828491211,1.1905570030212402,-0.3782709836959839,0.7668189406394958,-1.6157441139221191,-1.3328596353530884,-0.845142662525177
情景,1.0078041553497314,-0.7514167428016663,-0.8540589809417725,-1.400143027305603,0.04930255934596062,-0.017125310376286507,-0.0767233818769455,-0.6579418182373047,-0.7106381058692932,0.1998300701379776,-0.47409912943840027,-1.083894968032837,-0.037436917424201965,0.5727121233940125,-1.8234795331954956,0.09052781760692596,0.4096435308456421,0.6623409986495972,0.46073585748672485,0.031095487996935844,0.6633560061454773,-0.5073631405830383,-1.0514354705810547,-0.20033854246139526,1.429329514503479,-0.46400073170661926,0.8431727886199951,-1.645511507987976,0.1435093730688095,0.41562819480895996,1.115609049797058,0.43713268637657166,-1.097042202949524,-0.5437048077583313,1.0289065837860107,-1.3214857578277588,-0.7634772658348083,-0.5311873555183411,0.36862531304359436,0.2550417482852936,-0.062138449400663376,0.4962722659111023,-0.48805496096611023,-1.4950028657913208,0.3987918794155121,-0.26056501269340515,-0.9018905162811279,-1.4575797319412231,-0.44493985176086426,0.010227090679109097,0.100063256919384,-0.10640383511781693,-0.21535754203796387,0.6327149868011475,0.6803503632545471,1.7127764225006104,0.1700592339038849,-0.6595110893249512,-0.8769994974136353,0.8346992135047913,-0.27362921833992004,0.9250597357749939,-0.04673971235752106,1.4265159368515015,-1.9010525941848755,-0.612642765045166,1.065760612487793,1.1167174577713013,0.4928947389125824,0.15085023641586304,-0.31405526399612427,-0.006627705879509449,-1.1797693967819214,-0.013346966356039047,1.1341029405593872,0.4712131917476654,0.8400388956069946,-0.6330339312553406,0.4360191822052002,-1.4258655309677124,0.7195624113082886,-1.0155760049819946,-0.10983530431985855,0.5084141492843628,0.622067391872406,0.7585645318031311,-0.4838220179080963,2.3896143436431885,-1.1322808265686035,-0.2508167326450348,0.6848032474517822,1.4347903728485107,0.14864511787891388,-0.7338588833808899,-1.4101215600967407,0.7387094497680664,-0.4352022707462311,1.3906159400939941,0.4559342861175537,-0.5221989154815674,-0.1448945701122284,-0.308406263589859,0.4868054986000061,0.7202225923538208,-2.044227123260498,-0.7663227915763855,1.056986927986145,1.1082063913345337,-0.04626789689064026,0.0935167670249939,1.2899154424667358,-0.996488094329834,-0.9889403581619263,1.3423755168914795,0.9108205437660217,-0.7238265872001648,0.7074529528617859,-0.2213769406080246,-0.7143889665603638,1.1333390474319458,-0.9895250797271729,-0.1175321564078331,1.0328923463821411,0.4051767587661743,-0.8183414340019226,-1.328587293624878,0.8360161185264587,1.2917540073394775,1.1370809078216553,-0.2577440142631531,-0.7663093209266663,-0.2752492129802704,0.7947743535041809,-0.005674437619745731,-1.0907937288284302,0.47090399265289307,-0.8494770526885986,0.1087770089507103,-0.04449182748794556,-0.4617142677307129,0.8920764327049255,0.3018118441104889,-1.460284948348999,0.37990638613700867,0.6533184051513672,0.2002357393503189,-1.2378942966461182,-0.5909253358840942,-1.8571209907531738,0.14784318208694458,0.5203718543052673,-0.8435379266738892,0.06463486701250076,1.3321685791015625,1.4606026411056519,-0.0191082451492548,-0.2978985607624054,0.6239587664604187,-1.7383872270584106,-0.38009223341941833,0.28840872645378113,-1.1075292825698853,1.0603842735290527,-0.01503211259841919,0.2558649778366089,-1.127722144126892,-0.31296637654304504,0.14372797310352325,0.311660498380661,0.8968050479888916,-2.1824581623077393,-0.9036786556243896,-0.044674839824438095,0.09113206714391708,1.3574403524398804,0.3163783550262451,-0.5009225606918335,-0.16412381827831268,1.7449402809143066,0.2619084119796753,-1.2427111864089966,-0.8993805050849915,0.3162435293197632,0.7735357284545898,0.05121405050158501,1.2458305358886719,0.3970823287963867,0.14365768432617188,0.18881313502788544,-0.8218982815742493,-1.0331695079803467,0.4024275839328766,0.3178494870662689,0.31552672386169434,0.0699746236205101,0.43183937668800354,-0.00623692199587822,-0.10206098854541779,-1.243656873703003,0.9915189743041992,-0.42605334520339966,-0.09013833105564117,0.20587317645549774,-1.1624927520751953,0.34492868185043335,0.643494725227356,0.49643269181251526,1.8252220153808594,1.0311763286590576,-0.31596076488494873,0.08116438239812851,0.5007151961326599,0.028164004907011986,0.3627777099609375,0.5897520184516907,-0.5356475114822388,-0.8756369948387146,-0.0480358749628067,0.40109187364578247,0.9025136232376099,0.7610749006271362,0.8137754797935486,-0.3372688591480255,0.20632077753543854,-0.014178871177136898,-0.36474087834358215,-0.1874721497297287,0.9075936079025269,-0.9746191501617432,1.4670039415359497,1.859687328338623,0.26280677318573,0.2192879170179367,-1.3272736072540283,-0.7354978919029236,1.0142896175384521,1.0534915924072266,0.4224952161312103,-0.46231934428215027,0.7546337842941284,0.46311861276626587,1.4179883003234863,-0.8940200209617615,1.0507078170776367,-0.9976360201835632,0.6161542534828186,0.429522305727005,0.5315879583358765,1.6571353673934937,-0.6996145844459534,1.0548731088638306,-0.7661743760108948,-0.30854833126068115,-0.5735418796539307,0.7628831267356873,-1.061255693435669,-0.7445995807647705,-0.03312645107507706,1.2183789014816284,0.9281795024871826,0.6959890723228455,0.10136239230632782,-0.6117732524871826,-0.6834396123886108,-0.28901129961013794,-0.0947498232126236,-1.1936876773834229,0.7333143949508667,0.4821093678474426,-0.6073638796806335,-0.18015837669372559,-0.799678385257721,0.019955286756157875,1.421288251876831,0.7975956201553345,0.35454970598220825,1.5032117366790771,0.08514803647994995,-0.4715535342693329,-0.06568353623151779,0.33118394017219543,0.9231606125831604,-0.6251544952392578,-0.706903338432312,-0.06785514205694199,-0.3216640055179596,0.2686931788921356,-0.6238195896148682,1.5139986276626587,-1.1550081968307495,-0.3087548613548279,-0.12875676155090332,-0.7048490643501282,-1.0366160869598389,1.6193639039993286,0.36635032296180725,-0.019153811037540436,-0.5663459300994873,0.07853661477565765,-0.542801558971405
得到,0.46201324462890625,-0.011233123019337654,-1.0670428276062012,0.13952162861824036,-1.3095780611038208,1.2541189193725586,2.009476661682129,-0.5533545613288879,-1.0731924772262573,1.141629934310913,0.22662638127803802,-1.0761131048202515,0.8935253024101257,-1.0259225368499756,-2.449889659881592,-2.878431558609009,-1.7167056798934937,0.9248950481414795,-2.8758816719055176,-0.3759000599384308,0.05361340567469597,-1.0184663534164429,1.0434738397598267,0.14265407621860504,0.9629742503166199,-2.4222731590270996,1.1401374340057373,-1.6953105926513672,0.9543514847755432,0.6539378762245178,-0.5841866731643677,0.5628198385238647,-1.8064790964126587,-0.47380200028419495,-2.6247475147247314,-0.1920294463634491,0.8282979130744934,-0.22655893862247467,-0.9370713233947754,2.5432076454162598,0.5149055123329163,1.7192366123199463,-0.43741533160209656,-1.073347806930542,-2.317727565765381,-0.16398128867149353,-0.1377529799938202,0.6298938989639282,-0.1537282019853592,-2.923699378967285,0.9733235239982605,2.747802257537842,0.6732330322265625,0.627245306968689,0.6193700432777405,1.2403099536895752,0.904400646686554,1.4323499202728271,0.10872577130794525,-1.3523472547531128,0.07045932859182358,0.11697527021169662,0.8369399905204773,0.12253256142139435,-0.3155768811702728,1.2089239358901978,1.060221552848816,2.1477272510528564,-1.1273431777954102,-2.707000970840454,-0.8529938459396362,1.1545534133911133,-1.4656847715377808,-0.7485160827636719,0.10279688239097595,-0.9844380617141724,0.633048415184021,1.0179576873779297,-0.463854044675827,1.284726858139038,0.8527235388755798,0.14209340512752533,0.2346179187297821,0.17453251779079437,1.6623488664627075,0.7503558993339539,2.309267282485962,1.1061158180236816,0.41826555132865906,-0.25243836641311646,0.08475439250469208,1.2088046073913574,-1.3404347896575928,-1.4109262228012085,1.3528894186019897,-0.41026756167411804,0.5748463273048401,-0.8759356141090393,-1.0716617107391357,0.738827645778656,-1.1927536725997925,-0.838336169719696,1.3653963804244995,1.375145435333252,0.2452506273984909,-0.17401430010795593,-0.28686413168907166,0.8309836983680725,-0.20671498775482178,1.7807142734527588,-1.085728645324707,0.25459253787994385,-0.6341785788536072,0.6302889585494995,2.3069465160369873,0.20089514553546906,0.8494164943695068,-1.7636233568191528,0.2699471414089203,-0.3790948688983917,-0.6096534729003906,-1.8209387063980103,1.2451832294464111,1.0109050273895264,1.4139716625213623,-0.5927438139915466,2.169309139251709,-0.6908853054046631,-1.033491849899292,-2.2518985271453857,0.4300597310066223,-0.3872445225715637,0.3065769076347351,1.874923825263977,-1.4564956426620483,0.4951789677143097,1.2363122701644897,-0.5404940843582153,0.3062402606010437,-0.4409120976924896,-0.9611214399337769,1.850333333015442,1.38423752784729,-2.122865676879883,-0.34162384271621704,-0.7200784683227539,-1.0413569211959839,-0.6805473566055298,3.171661376953125,0.06873194128274918,-1.8706682920455933,-0.041062287986278534,-1.0395312309265137,0.9581671357154846,-0.3691295385360718,-0.00783164706081152,3.3697397708892822,0.8914041519165039,1.2985173463821411,0.4505075216293335,-2.4002554416656494,-0.13647334277629852,2.3232035636901855,0.32783734798431396,1.2706282138824463,-1.5465344190597534,0.17890983819961548,-0.3773992657661438,-0.45816943049430847,1.435509204864502,-0.9651665687561035,0.7774445414543152,1.4418224096298218,0.7120033502578735,-0.42151615023612976,0.8084738254547119,0.15993623435497284,-2.780752182006836,-0.9015175104141235,2.828674793243408,-0.9526283144950867,0.5013784766197205,0.57265305519104,-0.9736729860305786,-0.8030148148536682,1.7263128757476807,-2.394324541091919,-0.6303777694702148,0.6807818412780762,-0.011867469176650047,-2.4349935054779053,-1.8337615728378296,-0.5196948647499084,2.5132906436920166,-0.06914470344781876,-0.26200807094573975,-2.0294477939605713,1.8002545833587646,0.03993533179163933,0.6527194380760193,0.8972122073173523,-1.9424312114715576,2.8947277069091797,-2.7418103218078613,0.03959232568740845,1.0439093112945557,1.7789133787155151,-1.3641600608825684,0.031176449730992317,1.5032073259353638,-1.4746485948562622,0.4929346442222595,1.402681589126587,2.407411575317383,-0.9200282692909241,-1.9899282455444336,1.3905712366104126,-0.3396127223968506,-1.8179476261138916,0.9510471820831299,2.5272066593170166,-0.5098413825035095,1.6007148027420044,1.5610507726669312,-1.2894346714019775,1.306644082069397,3.146716356277466,-0.19082103669643402,-1.3342950344085693,0.3356172442436218,0.6997160315513611,0.033710964024066925,3.22538161277771,0.24812263250350952,-2.5046935081481934,-0.1907472014427185,0.5750646591186523,-1.2590817213058472,1.2388757467269897,-0.3499448001384735,0.5378037095069885,1.5027496814727783,-0.16593410074710846,-1.995145320892334,-1.8687130212783813,1.1767356395721436,-1.7812892198562622,-1.6781542301177979,1.4244424104690552,0.42563584446907043,-2.263434410095215,0.20666629076004028,-2.214404821395874,-0.3659711480140686,0.17857910692691803,-0.3380497395992279,-3.1365110874176025,0.7614588141441345,-1.0158621072769165,-1.5568078756332397,0.8274483680725098,-0.458671897649765,-1.7053754329681396,-0.16785912215709686,-1.4699523448944092,-0.4881230890750885,-1.0957056283950806,-1.0432363748550415,-2.2849767208099365,0.5121737122535706,1.3588476181030273,-0.1211240291595459,0.33078253269195557,-0.12938325107097626,-0.25697681307792664,-1.7097322940826416,1.6238131523132324,1.4979064464569092,1.366502285003662,-1.178506851196289,0.8945403099060059,1.7409104108810425,-0.6534503102302551,0.29355770349502563,-1.3409851789474487,2.071782112121582,2.1214144229888916,1.8367347717285156,-1.4509843587875366,-2.2902708053588867,-0.1912846714258194,-0.7528325915336609,-2.342447280883789,1.9697527885437012,1.8814942836761475,0.1727534830570221,0.772765576839447,0.3560909330844879,0.9031187891960144,1.3932528495788574
讨论,0.9139431715011597,-1.015892744064331,2.6110172271728516,0.6681703925132751,-1.1658285856246948,1.6567554473876953,-0.6860553622245789,2.2093827724456787,0.6175132393836975,0.41753995418548584,-1.3127988576889038,0.2710985839366913,-0.024388862773776054,0.7295200228691101,-0.5740135312080383,-0.772558331489563,1.8397334814071655,-0.03238385170698166,-1.3984929323196411,-0.11703088879585266,-0.7310974597930908,0.15997162461280823,-0.4036791920661926,-0.46402814984321594,-0.28166481852531433,-0.18678830564022064,-0.411064088344574,-2.535884380340576,0.0008263416821137071,0.5384162664413452,-0.3079604506492615,0.23493929207324982,-1.4098405838012695,-1.5143001079559326,-0.610970139503479,0.036178506910800934,-0.39423856139183044,1.175681710243225,0.2904510498046875,0.8297772407531738,-0.3769349455833435,1.6681638956069946,0.7798669338226318,-1.1883032321929932,-0.22548912465572357,-0.9944289326667786,0.4913646876811981,-1.4961116313934326,-1.5528144836425781,-0.2987203299999237,0.7487724423408508,0.27915865182876587,-0.7444509267807007,1.2751473188400269,1.3515973091125488,0.2862767279148102,0.930815577507019,0.09429600834846497,0.375305712223053,0.7758260369300842,1.2764005661010742,1.763074517250061,-0.8556451797485352,-0.7858430743217468,-0.07371914386749268,0.35035139322280884,-0.8486779928207397,2.124563694000244,-1.362036943435669,-1.7053279876708984,0.7134789228439331,-0.25760775804519653,-1.8126336336135864,1.4288921356201172,-1.9587993621826172,1.7060686349868774,0.7407777309417725,-0.028687695041298866,1.356676697731018,-0.5906823873519897,0.543535590171814,-1.4215636253356934,-0.24624326825141907,-0.785400927066803,-1.4919925928115845,-0.1105305626988411,0.8212423920631409,1.7284026145935059,0.05496978387236595,0.3634660243988037,0.8002349138259888,1.4885562658309937,0.3206803500652313,-1.8527302742004395,-1.4600218534469604,-1.490482211112976,0.0163863655179739,1.946160912513733,-2.433135747909546,-1.787114143371582,-0.016267666593194008,-0.3558514416217804,0.9637947678565979,0.8423150181770325,-0.495930016040802,-0.5544063448905945,0.46613550186157227,1.6425060033798218,-0.04284215345978737,0.6414851546287537,0.870550811290741,-0.107951320707798,0.42346400022506714,1.0650569200515747,-0.12290249019861221,-1.9023693799972534,-0.46241527795791626,-1.3705273866653442,-0.42258375883102417,0.9633851647377014,2.5198745727539062,-0.9225637912750244,1.0990656614303589,1.1031478643417358,0.35230904817581177,-1.5151103734970093,1.5891720056533813,-0.09852256625890732,1.6756467819213867,0.053299639374017715,-0.8781416416168213,0.9831309914588928,-1.0431640148162842,1.2707048654556274,-0.16832613945007324,0.058826036751270294,0.21439401805400848,1.3032336235046387,-0.27573272585868835,-2.235257625579834,-0.12774743139743805,0.28544342517852783,2.5110228061676025,-0.8757428526878357,0.4518391191959381,0.3618340790271759,-2.932830572128296,-0.5665716528892517,-0.6281633973121643,-1.2744662761688232,0.8966033458709717,-0.9421084523200989,-1.1190439462661743,-0.0569257028400898,-1.9034968614578247,-0.6973732709884644,-1.3003591299057007,2.443869113922119,-0.2779368758201599,-0.09561271220445633,-1.9143433570861816,0.3347250819206238,1.3372032642364502,0.3397109806537628,1.8573298454284668,-0.6254754066467285,0.5594832301139832,-1.7920787334442139,-0.25219497084617615,1.3057563304901123,0.30050885677337646,-0.8311163187026978,0.6870297193527222,0.2345273643732071,-0.35488927364349365,2.3918604850769043,0.2495594322681427,1.6815043687820435,-0.3740348815917969,-0.01808188296854496,-1.6514825820922852,-0.9457064867019653,0.4804024398326874,-2.5770676136016846,1.1826612949371338,0.5966408848762512,-0.4037286341190338,0.9560027122497559,-1.2497003078460693,0.1510118693113327,-0.9030176997184753,-1.597707748413086,0.510840892791748,-1.2107350826263428,-0.7176235318183899,-0.5907765030860901,2.0973422527313232,-0.8393682241439819,-1.623897671699524,-2.142178535461426,-0.7655044794082642,1.5549732446670532,-1.6056642532348633,-0.14594785869121552,-0.8640589118003845,1.310929298400879,0.8199331760406494,1.1330175399780273,-0.5473547577857971,1.5385104417800903,0.37256354093551636,0.3070899248123169,-1.850545883178711,0.818568229675293,1.6918729543685913,-1.7310025691986084,0.7666430473327637,1.8337243795394897,-2.2058539390563965,2.6043694019317627,1.8062232732772827,-0.3906831443309784,-0.3616223633289337,1.5235683917999268,1.2526482343673706,-1.2665461301803589,1.5665276050567627,-0.6443052887916565,-0.8807339072227478,-0.36811622977256775,0.7205039858818054,-2.399973154067993,1.8616225719451904,0.7393481135368347,-1.35521399974823,0.14349496364593506,-0.009740957990288734,0.29416343569755554,0.3433345556259155,2.0278871059417725,1.4471263885498047,1.7998992204666138,1.4106602668762207,0.2729545831680298,-0.3213866651058197,-1.7560395002365112,-0.510535717010498,-2.2781291007995605,0.4640386998653412,0.9049268960952759,-0.861842691898346,-1.3709887266159058,-1.3162742853164673,-1.8129875659942627,0.781383216381073,-0.845731794834137,-1.384933590888977,-1.0360677242279053,1.157464623451233,1.224327564239502,-0.5109714865684509,-2.9581611156463623,-1.892594337463379,1.2941944599151611,1.2057422399520874,-2.3698809146881104,0.23745577037334442,-2.449960947036743,-1.228890299797058,-2.1269125938415527,-2.4977686405181885,-0.5844139456748962,0.8989512324333191,1.195383071899414,-1.5331586599349976,0.7276468276977539,1.6674320697784424,-0.4080161154270172,-0.5806043148040771,0.15608854591846466,0.6314348578453064,1.2869198322296143,-2.2733800411224365,1.2709895372390747,-0.27446866035461426,2.28337025642395,0.5044671893119812,0.3470730185508728,-1.711717963218689,-0.6286388635635376,0.421650230884552,-1.2258355617523193,0.23478634655475616,-1.1254781484603882,1.5420129299163818,0.14253801107406616,-1.1850608587265015,0.2607359290122986,-1.2419945001602173,0.03969208523631096
高中物理,0.08786942064762115,-0.0347089059650898,0.26122406125068665,0.05710825324058533,0.13738787174224854,0.06484885513782501,-0.24423807859420776,0.1927720457315445,-0.08632109314203262,-0.03844323754310608,-0.36761412024497986,0.07814791053533554,-0.042170047760009766,0.10719272494316101,-0.054753322154283524,-0.09702513366937637,-0.026331372559070587,-0.08259457349777222,0.004913080018013716,-0.08461182564496994,-0.04257669299840927,0.292205274105072,0.01212623156607151,0.025169964879751205,-0.3179839253425598,-0.1126076802611351,-0.010375424288213253,0.21392756700515747,0.09972136467695236,-0.28461501002311707,-0.043100755661726,0.18954388797283173,-0.10901443660259247,-0.08021000772714615,-0.06094089150428772,-0.01042645238339901,-0.002257881686091423,-0.06239290162920952,-0.005202761851251125,-0.12773504853248596,0.08419099450111389,-0.03672250732779503,-0.039651524275541306,0.1250026673078537,0.04328448697924614,-0.0981108546257019,-0.15250392258167267,0.10253340005874634,0.16649289429187775,0.19945161044597626,0.11814369261264801,-0.02097255364060402,0.03168676048517227,-0.07371063530445099,-0.011369633488357067,-0.10859929025173187,-0.04833628609776497,-0.13740842044353485,0.032905589789152145,-0.016674768179655075,0.06870806217193604,-0.030955655500292778,-0.0865432471036911,-0.1715264618396759,-0.08433826267719269,-0.015892792493104935,-0.060732610523700714,0.028042824938893318,-0.005721045657992363,0.06135497987270355,-0.037298720329999924,0.13627788424491882,0.11343440413475037,-0.0409061461687088,0.32175159454345703,-0.028755052015185356,-0.09116446226835251,0.10031881183385849,0.023089108988642693,-0.1505625694990158,-0.2702120542526245,-0.09129783511161804,-0.1773906797170639,-0.13179048895835876,0.0034530810080468655,-0.10792604833841324,0.09473587572574615,-0.223207488656044,0.06905372440814972,0.2184087187051773,-0.1756148636341095,0.013171432539820671,0.022376099601387978,-0.016138844192028046,-0.08370548486709595,-0.05854126811027527,0.1106819286942482,0.07704528421163559,-0.3170115053653717,0.018395310267806053,0.0014558549737557769,0.07284881174564362,-0.1783999502658844,0.19538387656211853,0.15693794190883636,-0.0679854154586792,-0.06012873351573944,0.07793417572975159,0.16016076505184174,-0.14684128761291504,0.12873457372188568,-0.001107616350054741,0.18765804171562195,-0.2762007713317871,0.07072407752275467,0.24435219168663025,0.0321313701570034,-0.17701473832130432,0.0076393247582018375,-0.048024047166109085,0.22383923828601837,0.0434214249253273,-0.032979514449834824,-0.07947683334350586,0.24103456735610962,0.20435281097888947,0.12436436861753464,-0.19570443034172058,0.11505809426307678,-0.027633443474769592,0.09032248705625534,0.2118903398513794,0.1420406848192215,0.04587561637163162,0.0774935781955719,-0.03464623913168907,0.02092081494629383,0.1314949095249176,0.15560729801654816,0.010545500554144382,0.03011876717209816,-0.3193819522857666,0.18193796277046204,0.19271798431873322,0.2373657375574112,-0.13085375726222992,0.10530903935432434,0.10728032886981964,-0.01236764807254076,0.14902788400650024,-0.06616119295358658,-0.05377562716603279,0.1985006481409073,-0.0764407068490982,0.18666811287403107,-0.04272804036736488,0.14073951542377472,0.007891429588198662,-0.1303185224533081,-0.07519568502902985,-0.07818827033042908,-0.014429892413318157,-0.12755239009857178,-0.028485676273703575,-0.04645818844437599,0.18748696148395538,0.16901281476020813,0.25905537605285645,0.10257425159215927,0.00802381057292223,-0.17576710879802704,0.07507926225662231,-0.07346813380718231,-0.11554542183876038,0.10646219551563263,-0.09639251232147217,0.0007332650711759925,-0.1899235099554062,0.061299774795770645,-0.05403520539402962,0.17703795433044434,0.06539683043956757,-0.04746593162417412,0.024127140641212463,-0.21588629484176636,-0.2168060839176178,-0.05565718188881874,0.041383907198905945,0.009899486787617207,-0.012440512888133526,-0.22596441209316254,0.07434084266424179,-0.002857184736058116,-0.15714801847934723,-0.016226420179009438,0.019497442990541458,-0.17143233120441437,0.007129053585231304,-0.05721753463149071,0.08889386057853699,0.020023934543132782,0.20485687255859375,-0.06276793777942657,0.08586730808019638,-0.15939155220985413,0.17802877724170685,0.007872101850807667,0.10502724349498749,0.13138239085674286,-0.26480093598365784,0.10373102873563766,0.05640609934926033,0.08589914441108704,0.03149033337831497,0.20769371092319489,0.2238110452890396,0.04306037351489067,-0.01531557459384203,0.2475762963294983,0.0318160355091095,0.17299170792102814,-0.0957912877202034,0.04313609376549721,-0.12545347213745117,0.06823188066482544,0.01026315800845623,-0.09627290815114975,-0.03580981865525246,0.05119001120328903,0.1911606788635254,-0.2580670714378357,-0.19766798615455627,0.17253950238227844,-0.018104933202266693,0.10799259692430496,-0.23590679466724396,-0.039276283234357834,0.04382658377289772,0.14660030603408813,0.10082690417766571,-0.1376824975013733,0.035897739231586456,-0.07635591924190521,-0.020884498953819275,0.10403528064489365,-0.14494289457798004,-0.15031608939170837,-0.06325661391019821,-0.25781020522117615,-0.015639882534742355,-0.09123449772596359,0.050672177225351334,0.1433597058057785,-0.03857552260160446,-0.019581807777285576,0.027308879420161247,0.004423109348863363,0.2044149488210678,0.04362711310386658,-0.1002679169178009,-0.04727359116077423,0.2016553431749344,-0.05857112258672714,-0.00460530212149024,-0.08766709268093109,-0.013467825949192047,0.08391177654266357,-0.02359107881784439,0.1423119753599167,0.04027751088142395,-0.06326961517333984,0.13208340108394623,0.22099341452121735,-0.004450333770364523,-0.07413474470376968,0.09703134745359421,0.01269461214542389,0.07481788843870163,-0.12978613376617432,0.10029667615890503,-0.1650206446647644,0.03610263764858246,0.13780105113983154,0.2228749841451645,-0.23274016380310059,-0.25020939111709595,0.08295073360204697,0.04284510761499405,-0.09956652671098709,0.20848535001277924,0.040804434567689896,0.09763399511575699,-0.059062693268060684,-0.1468695104122162,0.075172558426857,-0.12985897064208984,0.039737675338983536,-0.25542500615119934,0.03885188698768616,0.03317948803305626
