word,0,1,2,3,4,5,6,7,8,9,10,11,12,13,14,15,16,17,18,19,20,21,22,23,24,25,26,27,28,29,30,31,32,33,34,35,36,37,38,39,40,41,42,43,44,45,46,47,48,49,50,51,52,53,54,55,56,57,58,59,60,61,62,63,64,65,66,67,68,69,70,71,72,73,74,75,76,77,78,79,80,81,82,83,84,85,86,87,88,89,90,91,92,93,94,95,96,97,98,99,100,101,102,103,104,105,106,107,108,109,110,111,112,113,114,115,116,117,118,119,120,121,122,123,124,125,126,127,128,129,130,131,132,133,134,135,136,137,138,139,140,141,142,143,144,145,146,147,148,149,150,151,152,153,154,155,156,157,158,159,160,161,162,163,164,165,166,167,168,169,170,171,172,173,174,175,176,177,178,179,180,181,182,183,184,185,186,187,188,189,190,191,192,193,194,195,196,197,198,199,200,201,202,203,204,205,206,207,208,209,210,211,212,213,214,215,216,217,218,219,220,221,222,223,224,225,226,227,228,229,230,231,232,233,234,235,236,237,238,239,240,241,242,243,244,245,246,247,248,249,250,251,252,253,254,255,256,257,258,259,260,261,262,263,264,265,266,267,268,269,270,271,272,273,274,275,276,277,278,279,280,281,282,283,284,285,286,287,288,289,290,291,292,293,294,295,296,297,298,299
适应性,0.806064784526825,-1.4077413082122803,0.1886216551065445,-0.3159046769142151,0.8764742016792297,-0.018816817551851273,0.43743109703063965,-0.28895753622055054,0.7826365828514099,-0.6580727696418762,-0.999984860420227,-0.5972160696983337,-0.9513755440711975,0.6426264047622681,-0.8655445575714111,0.4616255462169647,-0.3383902311325073,0.2272387444972992,-0.5179910063743591,-0.8342260122299194,-0.7579505443572998,0.04830533638596535,1.3019955158233643,0.06601689010858536,-0.16412699222564697,0.24402527511119843,0.004017675295472145,-0.8110271096229553,-0.869900643825531,1.8657084703445435,0.4815727472305298,-0.37065449357032776,-1.2932387590408325,0.4513222277164459,0.5530318021774292,0.26795127987861633,-0.033198051154613495,-0.9566146731376648,-0.8374216556549072,-0.5993072986602783,-0.4229811728000641,-0.9518791437149048,0.8097839951515198,-0.4533262252807617,0.015335564501583576,1.2701138257980347,0.7661817073822021,0.7650527954101562,-1.6160991191864014,0.26766350865364075,0.6093791723251343,-0.11199308931827545,0.20703642070293427,-0.1257127970457077,-0.5116889476776123,0.44401007890701294,0.5254059433937073,0.22976404428482056,-0.4396456778049469,-1.0983997583389282,0.13373389840126038,0.955200731754303,0.30223846435546875,-0.5761049389839172,-0.6762788891792297,0.7173522114753723,0.4636460542678833,0.2295236587524414,-0.245918408036232,-1.1039596796035767,-1.6355990171432495,0.35680070519447327,-0.3076828718185425,0.31263795495033264,0.1303131878376007,-0.21216349303722382,1.216723918914795,0.5558266043663025,-0.15385286509990692,-0.2858874201774597,-0.004520172718912363,0.11979510635137558,-0.6229104995727539,-0.6084073185920715,-1.2723525762557983,0.1568426638841629,0.5993901491165161,0.3016812801361084,-0.865190327167511,0.14964373409748077,-0.7172110676765442,-0.4548339545726776,0.7658716440200806,0.8582950830459595,0.16589021682739258,-0.20556682348251343,0.7979888319969177,0.6567652821540833,0.5376671552658081,0.4319150745868683,1.0778770446777344,-0.7329202890396118,-0.6562854647636414,0.2515551447868347,-0.22341758012771606,0.8743144273757935,-0.09180789440870285,-0.33239808678627014,0.22256207466125488,-0.5755929946899414,0.6404128670692444,-0.2937682867050171,-0.91994708776474,0.17094974219799042,0.8697455525398254,0.5986685752868652,-0.05691540986299515,-0.3045187294483185,0.13843631744384766,1.038374423980713,0.8161031603813171,-0.7938780188560486,0.773791491985321,0.8259120583534241,-0.17580890655517578,-0.6062605977058411,-0.4446943700313568,1.0823239088058472,-0.42730581760406494,-0.4268762171268463,-0.4624204933643341,0.6193330883979797,0.23518678545951843,-0.1200399324297905,-0.5915715098381042,-1.0022611618041992,0.40805935859680176,0.22317282855510712,-0.21880318224430084,0.009436122141778469,-1.1380083560943604,0.21532763540744781,-0.5616697669029236,-0.5822579860687256,0.8421913385391235,-0.018627019599080086,-1.6188557147979736,0.07480573654174805,1.0525158643722534,-0.05565623566508293,-0.47282370924949646,0.509541392326355,-0.8812568783760071,1.471224308013916,0.4668361246585846,-1.035353660583496,0.749718427658081,0.9768002033233643,-0.9855011701583862,-0.4054587781429291,-0.33251699805259705,0.4084576964378357,0.9056222438812256,-1.2576032876968384,-0.1139298528432846,0.21520909667015076,0.6256144046783447,-0.5937606692314148,0.8736423254013062,-0.22915345430374146,-1.5104280710220337,0.48691946268081665,0.15019665658473969,1.0831129550933838,0.29704543948173523,-0.19690197706222534,0.19678905606269836,-0.39528611302375793,-0.23592250049114227,0.5748460292816162,-0.7405070066452026,-0.33392027020454407,-0.5769357681274414,-1.238668441772461,-0.18556542694568634,1.306868076324463,-0.7756150364875793,0.22599539160728455,0.6699697971343994,0.3388536274433136,-0.43769127130508423,0.35757866501808167,-0.7664337158203125,0.13202500343322754,-0.590984582901001,0.12544235587120056,-0.2112632840871811,0.26141512393951416,-0.6878644824028015,1.3768359422683716,-1.0499398708343506,-0.6364195346832275,0.7479068040847778,-0.15039074420928955,0.3000067472457886,-0.11047998815774918,-0.7648718357086182,-0.23411187529563904,-0.03846760839223862,0.09276942163705826,-0.585896909236908,0.015252359211444855,-0.9989233016967773,-0.508724570274353,-0.8231533765792847,-0.1498810052871704,1.3757275342941284,0.34403517842292786,-0.25149816274642944,-0.2156735062599182,0.6826840043067932,-0.3627670705318451,-0.06708449870347977,-0.2701566815376282,0.28902965784072876,-0.2846730053424835,0.1516343504190445,0.3660909831523895,-1.0699878931045532,0.9122529029846191,-0.021395139396190643,-1.0517950057983398,0.3981403708457947,0.07857026904821396,-0.5580611824989319,-0.5538057684898376,0.16004757583141327,0.05899972841143608,-1.1492953300476074,-0.5882260203361511,1.1200519800186157,-0.07737922668457031,-0.7744022607803345,0.16589677333831787,-0.6626248359680176,0.011538325808942318,-0.740766704082489,-0.1415439397096634,-0.8962080478668213,0.28266873955726624,-1.6782920360565186,0.05391765758395195,-0.5504600405693054,0.1818278282880783,1.04982590675354,0.15603572130203247,-0.9651886820793152,-0.29036810994148254,0.6964613795280457,-0.5401460528373718,-0.3594420254230499,-0.1522171050310135,0.8173133730888367,1.3480331897735596,0.1280180811882019,0.6489661931991577,-0.6578279733657837,0.36812812089920044,0.6779829859733582,0.051155440509319305,0.3935474753379822,-0.18148599565029144,0.17392860352993011,0.767195999622345,-1.966201901435852,1.1850240230560303,-0.3194030225276947,1.1799589395523071,-0.06099948659539223,-0.3148418962955475,1.2791688442230225,1.0016423463821411,-1.2151492834091187,1.2512972354888916,-0.0515747107565403,-0.09120211750268936,0.8239238858222961,0.9908402562141418,0.009976327419281006,-0.19893518090248108,-0.9668290019035339,-0.1814674735069275,0.43108752369880676,-1.4938857555389404,0.3329315483570099,0.47348830103874207,0.3655540943145752,0.44444552063941956,-0.11810404807329178,-0.6264550685882568
高温,-0.03449804335832596,0.36273956298828125,-0.3167506456375122,-2.885549783706665,1.2710731029510498,-0.998481273651123,0.9470651745796204,-0.8529117703437805,1.3730907440185547,-0.2692157030105591,-0.5322189927101135,0.7876614332199097,-2.2919037342071533,0.1603107452392578,-2.7904176712036133,-0.44501635432243347,-2.043517827987671,0.23830802738666534,-0.8224959373474121,-0.7681675553321838,-1.3660861253738403,-0.14927341043949127,-0.25887027382850647,0.9974334239959717,0.3152102828025818,0.35109058022499084,0.10243195295333862,-1.4415807723999023,1.6674189567565918,-0.6325004696846008,-0.5633982419967651,-1.1616719961166382,-0.6011919379234314,-2.1836934089660645,-0.9209817051887512,0.20974582433700562,-0.9082248210906982,-2.3203845024108887,0.32219257950782776,0.6044791340827942,0.17422981560230255,1.9490594863891602,0.40242835879325867,0.14037851989269257,0.4011445939540863,0.6065794825553894,0.43662720918655396,-1.0890260934829712,-3.3254058361053467,0.9150082468986511,0.23577524721622467,1.2285809516906738,-0.32052677869796753,-1.5169192552566528,-0.25067341327667236,-1.2499101161956787,2.0727157592773438,1.8036597967147827,0.4793999195098877,-2.1780707836151123,-0.9763613939285278,3.245941400527954,1.861877679824829,1.7708842754364014,-0.8662512898445129,1.2987046241760254,0.673073947429657,1.0871812105178833,0.09341990202665329,-0.5928221344947815,-0.3098198175430298,1.0381125211715698,-1.8958154916763306,1.5300188064575195,1.545500636100769,-1.9879742860794067,0.6597555875778198,0.5275644063949585,1.2705656290054321,0.12845975160598755,2.37339448928833,0.7849580645561218,2.4725539684295654,-2.4491498470306396,0.4709564745426178,-0.3465549647808075,-0.10855857282876968,-0.25053712725639343,-1.5703339576721191,0.023233748972415924,-0.6732619404792786,-0.40672892332077026,-1.190986156463623,-0.43864431977272034,2.923156261444092,0.948975682258606,-0.5529133081436157,2.7217087745666504,1.7448644638061523,1.0776413679122925,1.5528438091278076,0.18033508956432343,-1.1420786380767822,1.9758901596069336,0.468887597322464,1.8695037364959717,-1.1414895057678223,1.9583711624145508,0.172338604927063,-1.7253526449203491,1.5516436100006104,0.6036562323570251,-0.7331156134605408,-0.11251424998044968,-0.08140261471271515,-0.5990492105484009,1.0983893871307373,0.43305161595344543,-0.7523340582847595,-0.2871033549308777,-0.22409798204898834,-0.6716164946556091,-0.03650643676519394,-0.2739068567752838,-0.7310173511505127,0.3644099533557892,-0.3992266058921814,-0.10381478816270828,-0.78235924243927,0.5261114835739136,-0.7401357889175415,1.3688300848007202,1.4460196495056152,-2.203550100326538,-0.2105606496334076,-0.12653465569019318,-1.3186984062194824,2.128678321838379,-0.11461155116558075,-0.20503708720207214,-2.8708486557006836,1.8108559846878052,-2.1142125129699707,1.364014744758606,0.7250609993934631,1.0895195007324219,-0.5234578847885132,-0.022357959300279617,-1.0170607566833496,1.116019606590271,-1.481492280960083,-1.0044394731521606,0.7319238185882568,1.6442623138427734,-1.2345815896987915,-0.7657131552696228,-1.053147554397583,0.6016201376914978,-0.9411364793777466,0.044290050864219666,1.0961841344833374,0.33099547028541565,0.26446837186813354,-2.5147061347961426,2.7116713523864746,-1.0695250034332275,-1.8574073314666748,0.9762963056564331,1.5205905437469482,-0.9185275435447693,0.1691758632659912,-0.5434332489967346,0.5684177875518799,0.2878066897392273,1.084944725036621,0.32774242758750916,-0.1406848281621933,-1.5184197425842285,-0.3397473394870758,0.8647522926330566,1.5891051292419434,-0.7160212397575378,0.2463778555393219,-2.064675807952881,1.211364984512329,-0.3990846872329712,-1.331728458404541,-0.26080405712127686,0.6033802032470703,-0.5941553711891174,0.5255655646324158,1.000742793083191,-0.14939095079898834,0.8217354416847229,-0.12390241771936417,-0.2359878122806549,0.6056849956512451,-0.07704880833625793,-1.3315887451171875,0.2061275690793991,-2.239011764526367,-0.648552656173706,0.8280548453330994,-0.3276149034500122,0.28926774859428406,-1.2772122621536255,0.5290220975875854,0.976494312286377,2.653013229370117,0.9925753474235535,1.1368926763534546,-0.12683600187301636,-0.9701182842254639,0.8454433679580688,0.5163097381591797,-2.0686557292938232,0.969793975353241,-0.6028546094894409,0.9939296841621399,-0.6520541310310364,-0.3557937741279602,-0.24378515779972076,-2.3066060543060303,-1.346225380897522,-1.6389516592025757,0.5156934261322021,-0.2925068438053131,0.21154077351093292,0.03648971766233444,1.7315818071365356,2.300855875015259,-0.3681130111217499,0.1060197502374649,-0.057725321501493454,0.5576015710830688,0.6789960861206055,0.5888772010803223,-0.9899620413780212,1.4898611307144165,-0.9502527713775635,-0.059764932841062546,-0.34693261981010437,-0.14041677117347717,0.8084133863449097,-0.5025778412818909,2.843599319458008,-0.512211263179779,-0.9948198795318604,-1.0962979793548584,-1.2019680738449097,-0.05315738916397095,1.3706706762313843,-1.1606837511062622,-1.2905231714248657,-0.3808147609233856,0.5667846202850342,-1.6884057521820068,0.22766800224781036,-0.23706620931625366,0.27126383781433105,1.217531681060791,-0.36139559745788574,0.928652286529541,0.8758473992347717,2.6185948848724365,0.93263179063797,-1.82547128200531,0.16123881936073303,0.9193572998046875,-1.2339154481887817,2.1574208736419678,-1.265799880027771,0.28675219416618347,1.7839497327804565,-1.6196081638336182,1.7191908359527588,1.2265387773513794,0.59420245885849,0.03324846178293228,1.414925217628479,1.174191951751709,2.1310553550720215,-1.358783483505249,0.27596986293792725,-0.7829216122627258,1.5024603605270386,-0.7542417049407959,-1.157612919807434,-0.8530566692352295,-0.3468562066555023,-0.8892040252685547,-0.8754182457923889,0.9244638681411743,-1.4126757383346558,0.17016877233982086,2.860175371170044,-0.3176085948944092,-2.254333019256592,-1.287610411643982,2.3105742931365967
强,1.9751659631729126,-1.7936573028564453,1.8276543617248535,0.06300488114356995,0.6991947293281555,-1.0726333856582642,-0.7659371495246887,-2.216851234436035,-0.3165881037712097,-2.0520896911621094,-1.9742505550384521,0.8897966742515564,-0.4058818817138672,0.7797274589538574,-0.14693506062030792,0.35351696610450745,0.6389973163604736,-0.22979822754859924,0.2370450645685196,-1.8374162912368774,-3.1761584281921387,-0.8247032165527344,2.313448905944824,-1.3121625185012817,-0.8176380395889282,0.3720031678676605,1.6050517559051514,-0.8112579584121704,0.7244275212287903,1.9744067192077637,1.8781039714813232,-0.49631935358047485,-2.5843682289123535,-1.3265455961227417,0.7646403312683105,0.8735160827636719,0.5847316384315491,-2.1224334239959717,-1.534515619277954,0.7489674687385559,-0.532048761844635,-0.9604845643043518,-0.01701018027961254,-0.03761400654911995,1.8278206586837769,-0.8460063338279724,0.5364609956741333,1.503749132156372,0.03684183582663536,-0.822925865650177,2.0284030437469482,0.1337130218744278,1.2305784225463867,0.8796645998954773,0.30163538455963135,-0.6273582577705383,-0.6225640177726746,0.7124359011650085,-0.5825182199478149,-0.02951059304177761,2.535722017288208,0.7928728461265564,-0.6274157166481018,-1.1970423460006714,-1.7694318294525146,3.61761736869812,-0.21707157790660858,2.229780673980713,-1.732163906097412,-0.6387680768966675,2.087695360183716,1.4699013233184814,0.6115303635597229,-1.8040529489517212,0.2642413079738617,0.8080629706382751,0.676348865032196,2.066415548324585,-0.9011753797531128,-2.1549763679504395,-1.0782915353775024,-0.29500827193260193,0.9701114892959595,-1.7970986366271973,-0.5697353482246399,0.08484996855258942,0.5529289841651917,0.025482237339019775,-0.8897867798805237,-0.9426646828651428,-1.4879555702209473,1.6279195547103882,1.1832910776138306,1.2291884422302246,0.30076292157173157,-1.0771006345748901,2.127903699874878,-0.7179123759269714,0.8778212070465088,0.40901511907577515,0.4115106761455536,-2.2634732723236084,-0.6721890568733215,-0.3995249569416046,0.08002191036939621,1.8159098625183105,-1.4521164894104004,-0.7755408883094788,-1.5410693883895874,0.6709821820259094,0.37703728675842285,2.2913854122161865,-0.933887779712677,-1.4344098567962646,-0.8557759523391724,0.102222740650177,-1.641398549079895,1.524412751197815,-0.6509812474250793,0.4482558071613312,-0.8807006478309631,-0.8995993733406067,0.8060301542282104,0.49744468927383423,-1.586159586906433,0.5973650217056274,-1.4625704288482666,-1.0616588592529297,-1.1602064371109009,-2.022550582885742,0.13419395685195923,0.30522969365119934,1.69004225730896,-1.4572019577026367,-1.669748067855835,2.0787112712860107,-0.6338347792625427,-0.046953897923231125,-0.31889602541923523,2.6173791885375977,-1.683974027633667,1.2330478429794312,2.795902729034424,-0.16749897599220276,2.313692092895508,-0.33648061752319336,-0.7973633408546448,-0.03844142705202103,0.5990961790084839,1.1357438564300537,-0.4147067070007324,2.028658866882324,-0.35539647936820984,0.3494771122932434,-0.8865917325019836,-1.1799278259277344,-0.7556949257850647,0.21287621557712555,1.1753699779510498,-1.7324495315551758,-2.1133346557617188,-0.8363266587257385,0.3709386885166168,2.0408270359039307,-0.0702366754412651,-0.048091910779476166,0.4965650737285614,-0.2991155982017517,0.377544641494751,0.9647215008735657,-0.5770378708839417,1.7047594785690308,0.9986261129379272,0.5726479291915894,0.7369028925895691,-1.252692461013794,-0.5640480518341064,-1.2527705430984497,-1.3972347974777222,0.3269607722759247,0.022000018507242203,2.366133213043213,-0.16413916647434235,-2.272954225540161,0.38581591844558716,1.3619465827941895,0.8411194086074829,2.125035285949707,-0.15804411470890045,-0.310940146446228,0.2099723368883133,0.8054090738296509,1.0703518390655518,-0.2920532822608948,0.29836615920066833,0.5304423570632935,-0.7956715226173401,0.8014768958091736,2.0077219009399414,2.248957395553589,-1.0395902395248413,-0.22694101929664612,2.4878594875335693,0.8975074291229248,2.8986411094665527,-0.5089427828788757,-0.4046310782432556,0.2671296000480652,1.0285892486572266,1.1713964939117432,-1.2806185483932495,-0.04686082527041435,-0.3571697175502777,-0.8429052829742432,1.0108418464660645,-1.5094680786132812,0.5013155937194824,1.111901879310608,0.9705654978752136,-0.19395464658737183,2.2337377071380615,-1.0470048189163208,-0.2525813579559326,-0.6258282661437988,0.9558762311935425,-1.452436089515686,-0.14210903644561768,0.3030102252960205,0.10814524441957474,1.876099705696106,-0.35571199655532837,-1.197091817855835,2.7944438457489014,1.8453930616378784,-0.7048825621604919,1.8550832271575928,-2.0956311225891113,0.5855485200881958,-1.179756999015808,0.5547858476638794,0.321270227432251,0.6666520833969116,1.2599055767059326,0.5901075005531311,0.42370927333831787,-0.7798278331756592,-1.4421998262405396,-2.8715879917144775,-0.2957533299922943,-1.1367244720458984,1.0909494161605835,1.7881596088409424,0.885786235332489,0.21751229465007782,-0.29523786902427673,1.2496676445007324,-0.5594381093978882,-1.494360327720642,1.3620812892913818,1.6633917093276978,0.5989412665367126,1.0232048034667969,-0.1856107860803604,-1.0742453336715698,1.9186159372329712,0.9708648920059204,-1.5671836137771606,1.9590154886245728,-1.0476962327957153,-1.8994702100753784,-0.4992454946041107,-1.0797374248504639,-3.690047025680542,0.4541943073272705,-1.0581802129745483,0.24387413263320923,-3.216749429702759,0.9532278776168823,1.587309718132019,-0.17281486093997955,1.268100380897522,-0.5379162430763245,-1.13875150680542,0.3265301585197449,-0.6734558343887329,-0.7284682989120483,2.6053779125213623,-2.7191054821014404,0.5496143102645874,0.3194979429244995,-1.1728347539901733,-2.193336009979248,1.0231183767318726,-0.4080343544483185,-0.31503528356552124,0.6082921624183655,-4.467399776331149e-05,-0.3017003536224365,2.666038751602173,-0.9090205430984497
忍耐,0.1611887663602829,-1.6298346519470215,1.5749504566192627,-0.24826528131961823,0.0884530171751976,0.3594135046005249,0.6966666579246521,-0.041959457099437714,0.47591981291770935,0.06450647115707397,-0.9996271729469299,1.2031619548797607,-0.9402306079864502,0.03557689115405083,-0.02251877263188362,-0.3796258568763733,0.9273609519004822,-0.47787126898765564,-0.3211037814617157,0.2544572949409485,-0.2818285822868347,-0.4108922779560089,0.23943765461444855,-0.2677329182624817,-0.48381128907203674,-0.11661647260189056,-0.7527667880058289,0.7718260884284973,-1.9580824375152588,0.6457237005233765,0.04553989693522453,-0.2562723159790039,-0.8673832416534424,-0.20285674929618835,-1.010654091835022,0.9495407938957214,0.38639363646507263,-0.47169047594070435,0.6778250336647034,-0.3342815041542053,0.7447105050086975,0.783714234828949,-0.28757244348526,-0.8102697134017944,-0.8294093012809753,0.569371223449707,0.06499208509922028,0.8907974362373352,-0.5905545353889465,0.11185868084430695,1.404605746269226,0.5217605233192444,-0.18741022050380707,-0.16981413960456848,0.5085060000419617,-0.7546080946922302,-0.5257971286773682,0.01679893583059311,-0.513944685459137,-1.0152751207351685,1.1375600099563599,0.7482665777206421,1.0731335878372192,-0.7249391674995422,-0.6818265914916992,0.5956927537918091,-0.7620380520820618,0.6190978288650513,-0.2383134514093399,-0.2129446268081665,-0.006129235494881868,0.1123080849647522,-1.1651469469070435,0.0436331108212471,-0.11193297803401947,-0.6264331936836243,0.5091445446014404,-0.17324164509773254,0.8163905143737793,0.4598679542541504,-0.2471822202205658,1.0227832794189453,-0.4098746180534363,-0.06346700340509415,-0.4577971398830414,0.7244883179664612,0.770173966884613,0.03691793605685234,-0.4876898229122162,-0.3024705648422241,0.5203819870948792,0.7111128568649292,0.2010202705860138,1.0560566186904907,0.39745524525642395,-0.701841413974762,0.9223009943962097,-0.657280445098877,0.13445672392845154,0.07557053864002228,-0.6908380389213562,0.11469521373510361,0.400499552488327,0.2728499472141266,1.0263348817825317,-0.1012234315276146,-0.7667545676231384,0.6164562106132507,0.956500232219696,-0.20372682809829712,-0.21084898710250854,-0.052824363112449646,-1.5782887935638428,-1.616886019706726,0.5678249001502991,1.1781057119369507,-0.4060226082801819,-0.2909301817417145,-0.34871596097946167,-0.08403326570987701,1.2769534587860107,-1.0019303560256958,0.6368213891983032,0.12115217745304108,0.7589978575706482,0.3830603361129761,0.22363880276679993,1.0737712383270264,1.2826437950134277,0.12154003232717514,0.23082536458969116,0.5518696904182434,-0.29611828923225403,-0.07091978192329407,-0.2111394852399826,2.2717108726501465,0.18708093464374542,0.09199792891740799,-0.06111416593194008,-0.8470814228057861,0.35917043685913086,0.6444616317749023,0.7064573764801025,-0.7264420986175537,-0.32631057500839233,1.0795308351516724,-0.697343111038208,-0.1055591031908989,-1.2776516675949097,-1.5071890354156494,0.1350211352109909,-0.1114385724067688,-0.6265769004821777,0.5801469087600708,0.20121289789676666,-0.27549099922180176,0.7602218389511108,-0.7707614898681641,0.3882197439670563,-0.9025731086730957,0.2550947964191437,0.6092760562896729,0.3240114450454712,1.7720941305160522,0.3783016502857208,-1.509961485862732,0.5048626661300659,0.6162098050117493,-0.0547456368803978,-0.8932054042816162,-1.3624765872955322,0.23499402403831482,0.22517426311969757,0.11135202646255493,0.5721650719642639,1.0387697219848633,-0.45641738176345825,-0.3396297097206116,-0.14724647998809814,-0.2850608229637146,0.17228396236896515,0.42647477984428406,0.010698028840124607,0.5484651327133179,-0.3993740677833557,0.2594819962978363,-0.21552911400794983,0.2064824402332306,-0.5458658933639526,0.786961555480957,-0.0252546314150095,-0.01743793860077858,-0.21757148206233978,1.0102516412734985,-0.21123792231082916,1.0903939008712769,-0.5132821202278137,-0.409716933965683,-0.08566975593566895,-0.48009780049324036,0.1895618885755539,-0.1428689807653427,1.0944098234176636,-0.611764669418335,0.12409330904483795,0.13373585045337677,0.6110808253288269,-0.40087395906448364,0.9062774181365967,-0.1699245274066925,-0.1700104922056198,0.7047804594039917,-0.17794109880924225,0.685186505317688,0.7167626619338989,-2.086350679397583,0.8088252544403076,0.12270313501358032,-0.46402639150619507,0.05552475154399872,-0.9821613430976868,0.6323588490486145,0.264952152967453,0.0798138827085495,0.30272233486175537,-1.3813210725784302,-0.8470368981361389,0.7206148505210876,-0.4730280041694641,1.3736835718154907,0.40311866998672485,0.4317067861557007,-0.575236976146698,-0.41217485070228577,-0.45258742570877075,0.28317633271217346,0.30964064598083496,-0.5247273445129395,0.2557485103607178,-0.22057519853115082,1.7569042444229126,-0.31580424308776855,0.8882991671562195,-0.015275429002940655,0.22296933829784393,1.094045877456665,-0.3642897605895996,0.11748544126749039,0.015418020077049732,-0.07134402543306351,1.0050405263900757,-0.5274329781532288,-0.8359736800193787,-0.06102936714887619,-0.3937782347202301,-0.6671355962753296,-1.1258095502853394,0.31476470828056335,1.2129021883010864,0.5423063635826111,-0.04500998184084892,-0.8931785821914673,0.25528770685195923,0.37666457891464233,0.500020444393158,-1.1631098985671997,-0.2672392427921295,-0.40849006175994873,-1.5196201801300049,0.6021469235420227,-0.14224332571029663,-0.7506322860717773,-0.18438050150871277,0.9508039951324463,0.7014569640159607,-0.3070130944252014,-0.9860787987709045,0.20791763067245483,0.34947603940963745,1.0042469501495361,1.1774815320968628,1.5855329036712646,0.44550004601478577,-0.9533484578132629,-0.45806968212127686,0.23406754434108734,0.8806699514389038,0.1320323348045349,-0.48254701495170593,-0.8570621609687805,-0.8103377819061279,-0.04715702310204506,-0.5898727774620056,-0.13709476590156555,0.7457088828086853,0.3179728090763092,0.19604291021823883,0.36168745160102844,0.22449564933776855,-0.015680808573961258
栽培,0.314766526222229,-1.1186162233352661,2.7186219692230225,-0.5352199077606201,-1.0751882791519165,0.9460978507995605,0.5020975470542908,-2.2412564754486084,-0.42406314611434937,-0.07622192054986954,-0.8691200613975525,1.2159277200698853,1.969889760017395,0.40163666009902954,-0.42651763558387756,-2.311622142791748,-1.0064301490783691,-2.608776092529297,0.9587485194206238,-1.8279352188110352,-2.355562686920166,0.14889420568943024,-0.38361814618110657,-0.12088991701602936,0.226324200630188,-0.38231176137924194,0.6845926642417908,0.6560906767845154,-0.873527467250824,0.6346335411071777,-1.129785418510437,1.2604705095291138,-1.3354902267456055,-0.5919293165206909,1.3880693912506104,1.7493587732315063,2.2647714614868164,-1.0861272811889648,1.6056655645370483,0.046551935374736786,-0.29315266013145447,-3.379138946533203,-1.1792975664138794,0.39937880635261536,0.20360572636127472,0.30813926458358765,1.953189730644226,0.5575950741767883,-0.6857271194458008,0.02844192460179329,2.4366862773895264,-0.7901964783668518,-0.3086216151714325,-0.42238983511924744,-1.9954802989959717,-1.408912181854248,-0.22142907977104187,-0.2207803726196289,0.7177830934524536,-1.6391217708587646,-1.14146089553833,3.2851929664611816,1.0020794868469238,-1.5740556716918945,-1.6277791261672974,-1.0895220041275024,0.8782786130905151,0.1683010309934616,-1.0546985864639282,0.14525985717773438,-0.06179461255669594,1.836655616760254,-1.0265313386917114,0.6060802340507507,0.6897005438804626,0.12418284267187119,0.15796490013599396,0.024009572342038155,0.2851901948451996,0.628783106803894,0.7961945533752441,1.0719385147094727,0.9845200181007385,-1.4480888843536377,-0.8522254228591919,2.0019636154174805,0.06873182952404022,-1.0267481803894043,0.8066004514694214,-0.4699821174144745,-1.131580114364624,-0.9860312342643738,1.9601529836654663,1.0370841026306152,2.5395615100860596,2.1654036045074463,1.0629483461380005,-0.47816893458366394,-1.5847127437591553,0.20163868367671967,1.731969952583313,0.013846058398485184,-1.2914758920669556,2.1932084560394287,-1.226913571357727,1.3950965404510498,-0.32526111602783203,0.2720127999782562,1.6272591352462769,1.4753729104995728,0.5680137872695923,-0.7554168701171875,0.31823891401290894,0.7291547060012817,-0.007632049731910229,1.0890041589736938,0.4546661078929901,-1.053502082824707,0.8590882420539856,-0.9229575991630554,1.1959123611450195,-0.1987154483795166,-0.4286811947822571,0.4399145841598511,0.3493674397468567,0.8351989388465881,-1.5388786792755127,1.5447750091552734,-0.12819935381412506,0.29664555191993713,1.6040098667144775,0.3530662953853607,0.4419509470462799,0.4657837152481079,-0.7847149968147278,-2.351377010345459,-1.624098539352417,1.8038830757141113,-1.4445925951004028,-1.066253900527954,-2.569499969482422,-0.19056324660778046,0.4261546730995178,-0.9716615676879883,-0.1282012164592743,-0.4695141315460205,0.22818686068058014,0.029025744646787643,0.8891894817352295,-1.6554595232009888,0.547325611114502,1.5267279148101807,0.47185850143432617,0.5478289127349854,1.9922473430633545,-1.5639069080352783,1.5601065158843994,0.32564592361450195,-0.4494430124759674,-0.8070816397666931,-0.6975479125976562,2.9716203212738037,0.9092230796813965,-1.96573007106781,-0.8869019150733948,1.1219438314437866,0.49138835072517395,-1.5147984027862549,0.2912917733192444,-0.9413676261901855,-1.0957316160202026,0.1314191371202469,-0.07914011180400848,1.3606711626052856,-1.3098795413970947,2.5465872287750244,0.2847982347011566,-2.036227226257324,-0.40372899174690247,-1.0501564741134644,-0.9358867406845093,-0.05521220341324806,1.7707502841949463,-1.4452898502349854,-2.1142570972442627,1.2281537055969238,-1.187678575515747,2.117128610610962,-0.7201788425445557,1.8141769170761108,-1.8271691799163818,0.7654375433921814,0.8057193756103516,0.13883434236049652,-1.7149947881698608,-0.7079682946205139,1.9382835626602173,-0.46256938576698303,-1.5893990993499756,-0.6928557753562927,-2.3760018348693848,-1.7850372791290283,-1.1587862968444824,-3.310711145401001,0.2087601125240326,0.6055077314376831,-0.5128174424171448,1.3305155038833618,-2.162095785140991,-0.39565467834472656,0.08715566247701645,-0.3100647032260895,1.9011573791503906,0.6186238527297974,0.30473512411117554,0.13911625742912292,1.2401373386383057,0.5755337476730347,1.492246389389038,-0.16302241384983063,-0.07140686362981796,-0.07161550968885422,0.2702055871486664,-0.04676233232021332,-0.6661166548728943,-0.6996749639511108,0.4202231466770172,-0.28912052512168884,-0.02633875235915184,0.08982458710670471,0.23315884172916412,-1.6734460592269897,0.22713880240917206,-1.3799208402633667,0.942628800868988,-0.09332593530416489,0.8584257364273071,-1.0613352060317993,-0.08683428913354874,-0.2731579840183258,-0.8325377702713013,1.3937547206878662,-0.647641658782959,0.7541512250900269,-2.002608299255371,0.6456438899040222,1.5583733320236206,0.7682455778121948,-0.08260089159011841,0.04189513996243477,-1.8506672382354736,0.8154094815254211,-2.0991768836975098,0.06134858727455139,-0.6466363668441772,-0.5143896341323853,0.009263448417186737,0.28908807039260864,1.2110079526901245,-0.1727904975414276,1.0414085388183594,-0.6814818382263184,2.301076889038086,0.8388875126838684,-0.9297779202461243,-1.406389594078064,-1.0657764673233032,0.3978728950023651,0.6213738918304443,-1.4534964561462402,0.530631959438324,-1.191515326499939,0.4528372287750244,1.559643268585205,0.6846312880516052,0.2896428406238556,1.0832418203353882,1.7873917818069458,-1.6394795179367065,-0.8971181511878967,0.27751460671424866,1.0405477285385132,-1.5446934700012207,2.4678053855895996,-0.43562257289886475,1.0631937980651855,0.35504263639450073,1.1464903354644775,0.09522071480751038,0.4014546871185303,-0.2377830594778061,-0.11491262167692184,1.4200984239578247,1.452025294303894,-0.05420603230595589,0.6075068712234497,-0.0616593062877655,0.12238867580890656,1.2705203294754028,2.528106927871704
枸杞,-0.11677606403827667,-0.4725431203842163,0.4143771827220917,-0.25481176376342773,-0.1421487033367157,0.06594173610210419,0.7008758783340454,-0.4223620295524597,-0.5444589257240295,0.12104301899671555,-0.05298160761594772,0.35773399472236633,0.5318148136138916,-0.5289268493652344,-0.2640986144542694,-0.5667506456375122,0.3413214683532715,-0.5776783227920532,0.4453144669532776,-0.8605564832687378,-1.4020636081695557,0.25203078985214233,-0.4239446520805359,-0.17112021148204803,-0.5627294182777405,0.043513618409633636,0.34608539938926697,0.1698630154132843,0.04153180867433548,0.019436098635196686,0.49719828367233276,-0.29309529066085815,0.14241190254688263,-0.697865903377533,1.2154412269592285,0.637976348400116,0.9961860775947571,0.33653441071510315,-0.5490849614143372,0.1261509209871292,0.8458022475242615,-0.46367692947387695,-0.22114883363246918,0.345791757106781,0.2587398886680603,-0.2806864380836487,-0.1080065369606018,-0.07382877171039581,-0.31695127487182617,0.025025678798556328,0.06326504796743393,-0.09534336626529694,0.016620144248008728,-0.5293118953704834,-0.9790520071983337,-0.23934784531593323,0.00650002108886838,0.5942358374595642,0.2154601514339447,-0.6357235312461853,-0.6417825222015381,0.5454200506210327,-0.21238023042678833,-0.40103432536125183,-0.27736085653305054,-0.01952308416366577,-0.46939054131507874,-0.4352436363697052,-0.40693557262420654,0.11460408568382263,0.24467399716377258,-0.006314615253359079,0.23719026148319244,0.11958234012126923,0.7247291803359985,-0.5102935433387756,0.6746991872787476,0.1381060928106308,-0.820260763168335,-0.17351584136486053,0.4375603497028351,0.5172427296638489,0.1674007922410965,0.010291568003594875,-0.3903029263019562,-0.2102048695087433,-0.629420280456543,-0.1977943331003189,-0.5703074336051941,-0.34166020154953003,-0.4989525079727173,-0.13123176991939545,0.47885581851005554,0.12263930588960648,1.4253621101379395,0.023342732340097427,-0.6330089569091797,0.4659847319126129,0.19597363471984863,0.17653422057628632,0.17943674325942993,0.12444278597831726,-0.9772154092788696,1.307116985321045,-0.3125258982181549,0.8278892040252686,-0.16264644265174866,0.4850640594959259,0.6281238198280334,0.2966057062149048,0.7895419597625732,0.2762569189071655,-0.013387157581746578,-0.15613828599452972,-0.18607589602470398,0.4754588305950165,-0.2942708730697632,-0.19825007021427155,-0.09120498597621918,-0.22913266718387604,-0.45567089319229126,0.09676604717969894,0.23409485816955566,-0.2527228593826294,-0.48821476101875305,0.5183702111244202,-0.14151813089847565,0.7877296805381775,-0.0709066167473793,0.4680258631706238,-0.0158982016146183,0.7022431492805481,0.2866819202899933,0.08213800191879272,0.0955444872379303,-0.11338545382022858,0.44965749979019165,-0.2590370178222656,0.04499306529760361,-0.4918801784515381,-0.18651029467582703,0.6006510257720947,-0.9983081817626953,0.08483339101076126,-0.3329358994960785,-0.4308672845363617,0.8692721724510193,-0.422712117433548,-0.4831431806087494,0.051252905279397964,0.25842729210853577,-0.10500716418027878,0.7116446495056152,-0.1268952637910843,0.022533897310495377,-0.28289151191711426,0.24339571595191956,0.45881199836730957,-0.313816100358963,-0.8182188272476196,0.28712573647499084,1.2554090023040771,-0.057301655411720276,0.27349716424942017,-0.3987635672092438,0.5596431493759155,-0.48762136697769165,-0.3782931864261627,-0.3448373079299927,-0.12627029418945312,-0.705910861492157,-0.11691436171531677,0.35730665922164917,0.780158519744873,-0.019503867253661156,-0.18246407806873322,0.4867919683456421,-0.21107971668243408,-0.13776923716068268,0.10676655918359756,-0.35530611872673035,-0.3235493302345276,0.884326159954071,-0.5890918970108032,-0.7743861079216003,0.04941761493682861,0.2182595580816269,-0.25902071595191956,-0.09724249690771103,0.4155055582523346,-0.18999004364013672,0.020406894385814667,-0.3623352646827698,-0.2193842977285385,0.07091659307479858,0.5094262957572937,-0.2917327582836151,0.2514989674091339,0.055766720324754715,-0.2776225209236145,-0.7719140648841858,0.0010321334702894092,-0.2928449511528015,-0.0723918154835701,0.5884957909584045,-0.5930895209312439,-0.04100856930017471,-1.0212520360946655,-0.3813048303127289,-0.3941492736339569,0.19371415674686432,-0.07799931615591049,0.24583488702774048,-0.11264579743146896,-0.47993969917297363,-0.26053372025489807,0.10613591969013214,-0.5084056854248047,0.41691210865974426,-0.1927419900894165,0.0717538371682167,-0.8719933032989502,0.11884142458438873,0.20774759352207184,-0.07411844283342361,-0.6244387626647949,-0.23526640236377716,0.48948267102241516,0.343840092420578,-0.4035205543041229,-0.9052584171295166,0.05533934384584427,-0.9403405785560608,-0.5548089742660522,0.04335147887468338,-0.13548976182937622,0.8257261514663696,-0.3857663571834564,-0.2852790355682373,-0.866591215133667,-0.7059895396232605,-0.24149726331233978,1.018444538116455,0.4918409287929535,-0.607384204864502,0.9259987473487854,0.32792994379997253,0.5541622042655945,-0.5482974648475647,0.14781679213047028,-0.5888579487800598,0.494859904050827,0.16267837584018707,0.1164674237370491,0.6738414764404297,0.37973228096961975,0.6572760343551636,-0.08466524630784988,0.37316906452178955,-0.33038008213043213,0.012906682677567005,0.028471626341342926,1.1260299682617188,0.5709563493728638,-0.8292286396026611,0.11386037617921829,-0.21005597710609436,0.7085899710655212,0.7386006712913513,0.2212284356355667,-0.024718161672353745,0.20695361495018005,0.08369387686252594,0.22778922319412231,-0.31247347593307495,1.1841115951538086,0.0035321549512445927,0.6801189184188843,-0.2953888475894928,-0.15546101331710815,-0.29679566621780396,-0.3508172333240509,-0.20816566050052643,0.5961502194404602,-0.49365007877349854,0.2268710434436798,0.766411304473877,0.3752048909664154,0.6820515990257263,0.17403535544872284,0.5265255570411682,0.19431522488594055,0.6643186807632446,-0.42814159393310547,-0.19920408725738525,-0.4644584059715271,-0.20680303871631622,-0.6649225354194641,0.19994112849235535,0.7415162324905396
茄科,-0.0667954683303833,-0.41443246603012085,0.4707638621330261,-0.20039407908916473,-0.1281134933233261,0.0013523345114663243,0.310424268245697,-0.3315376937389374,-0.5504860877990723,-0.06925183534622192,0.08841253072023392,-0.23056800663471222,0.1504559963941574,-0.13295087218284607,0.17003269493579865,-0.1535189151763916,0.042445216327905655,-0.359576553106308,0.027201980352401733,-0.5956247448921204,-0.7520490884780884,-0.3129523992538452,-0.19798697531223297,-0.10502317547798157,-0.11739763617515564,0.4883745312690735,-0.20039431750774384,0.17729808390140533,0.23006078600883484,-0.1447230875492096,0.18015924096107483,0.3719102144241333,-0.5305800437927246,-0.101676344871521,0.479826956987381,0.39278092980384827,0.5078130960464478,0.2918955683708191,-0.20852120220661163,-0.0266884695738554,0.6280426979064941,-0.14586839079856873,0.098635233938694,0.06809604912996292,0.27155181765556335,-0.12333840131759644,0.3620985448360443,0.04480203986167908,-0.05976361781358719,0.1841767430305481,0.5505554676055908,-0.384054571390152,-0.01867482252418995,-0.42056992650032043,-0.436102032661438,-0.1697857677936554,0.46907976269721985,0.2937563955783844,0.13417962193489075,-0.5060317516326904,-0.1435871720314026,0.3903888463973999,-0.37009724974632263,-0.356466680765152,-0.3204459249973297,-0.04737846553325653,-0.32870447635650635,-0.39588722586631775,-0.24887534976005554,0.16050966084003448,0.09269524365663528,-0.05172552168369293,-0.16668325662612915,0.1968507468700409,0.20403647422790527,-0.1570000797510147,0.13707461953163147,0.34117215871810913,-0.5539915561676025,-0.10874071717262268,-0.07160980254411697,0.31595578789711,-0.21227668225765228,-0.01932522840797901,0.11974688619375229,-0.23088201880455017,-0.10920514911413193,0.21271654963493347,-0.358951598405838,0.062130142003297806,-0.5600108504295349,0.0800807997584343,0.3373163938522339,0.2404596507549286,0.6319481730461121,0.03694405034184456,-0.319519579410553,0.4480891823768616,0.06178262457251549,0.2550852298736572,0.5522667765617371,0.10246125608682632,-0.9821704030036926,0.7722068428993225,-0.2641015946865082,0.17949125170707703,0.26932328939437866,0.43916773796081543,0.4648965895175934,0.06085868179798126,0.23389573395252228,-0.21719443798065186,-0.07873256504535675,0.374260812997818,-0.21596205234527588,0.76896071434021,-0.4191961884498596,-0.5024835467338562,0.03554366156458855,-0.4231201708316803,0.30844929814338684,0.04897507652640343,0.22520919144153595,-0.2895042896270752,-0.06412959098815918,-0.07445865869522095,-0.1566227227449417,0.22068347036838531,-0.07278856635093689,0.37979984283447266,-0.6137011051177979,0.43768155574798584,0.24628019332885742,-0.26906996965408325,0.10544738918542862,-0.5866129398345947,0.14113827049732208,0.36983275413513184,-0.004057830665260553,-0.4275017976760864,-0.35380902886390686,0.5317519307136536,-0.49872592091560364,0.06825078278779984,0.3522703945636749,-0.518287718296051,0.5519571304321289,0.12275853753089905,-0.12299826741218567,0.8549598455429077,0.09436320513486862,0.22998642921447754,0.2193082869052887,-0.2625214755535126,0.2677237391471863,-0.6129423975944519,0.1100885272026062,-0.020450668409466743,-0.1445775181055069,0.031179627403616905,0.15462256968021393,0.7028632760047913,-0.2728331685066223,0.012740558944642544,-0.04794686287641525,0.12527601420879364,-0.002625413704663515,-0.016340067610144615,0.20925486087799072,0.23094402253627777,-0.494429349899292,0.11161387711763382,0.19304519891738892,0.5950495004653931,0.09318991750478745,0.07840285450220108,0.14906176924705505,-0.14134255051612854,0.15684908628463745,0.4496438205242157,-0.04001836106181145,-0.6101614832878113,0.41818875074386597,0.18193475902080536,-0.25227245688438416,-0.3251331150531769,-0.22892841696739197,-0.23198233544826508,-0.291087806224823,0.320838987827301,-0.09059130400419235,0.0275880116969347,-0.4535371661186218,-0.12756751477718353,-0.10600985586643219,-0.1355050653219223,-0.112016960978508,0.5558070540428162,0.13014169037342072,0.1448281854391098,-0.3443804085254669,0.15453258156776428,-0.3320194184780121,0.12998035550117493,0.032901037484407425,0.2395152449607849,-0.5308545231819153,-0.22473768889904022,-0.6525173783302307,-0.5667021870613098,-0.003999156877398491,0.1021433100104332,0.14751620590686798,-0.10281725227832794,-0.6474262475967407,0.11552803963422775,0.453530490398407,-0.013353287242352962,0.272932767868042,0.11299207806587219,-0.1696578860282898,-0.4971836507320404,-0.3736710250377655,-0.3763729929924011,0.06294376403093338,-0.4418157637119293,0.1667691320180893,0.068029023706913,-0.2040465921163559,-0.19226835668087006,-0.08249710500240326,-0.5389003753662109,-0.6081696152687073,-0.6546277403831482,0.14757589995861053,-0.2746453285217285,0.07970397919416428,-0.19469054043293,-0.5387201309204102,-0.2042488008737564,-0.1997155249118805,0.06546851247549057,0.5132023692131042,0.25486576557159424,-0.40268102288246155,0.5122821927070618,0.40501895546913147,0.41836804151535034,0.1391623169183731,0.16252413392066956,-0.6366509199142456,0.35810965299606323,-0.0058643389493227005,0.22208890318870544,0.23914280533790588,0.15442226827144623,0.3284505307674408,0.18048708140850067,0.0981050506234169,-0.4303297996520996,-0.4815882742404938,-0.08057086914777756,1.0753217935562134,0.3349608778953552,-0.3569831848144531,-0.1823611855506897,0.14576351642608643,0.3106658458709717,0.7376463413238525,-0.19932730495929718,0.37882527709007263,-0.24296879768371582,0.2855982780456543,0.4367610812187195,-0.6650822162628174,0.34183505177497864,-0.004322904162108898,0.2644575834274292,-0.5979105234146118,-0.23039615154266357,-0.16689221560955048,-0.3520057201385498,-0.47670266032218933,0.5998867750167847,-0.4936090409755707,0.020336158573627472,0.6335420608520508,0.6680033802986145,0.4009074866771698,0.14487023651599884,0.16595996916294098,0.28110596537590027,0.4156181514263153,-0.22254742681980133,-0.16896656155586243,-0.11989322304725647,0.12874405086040497,-0.4696345627307892,0.287910133600235,0.5852764248847961
耐盐碱,0.07645567506551743,-0.12547171115875244,0.287575364112854,-0.09299776703119278,-0.09856636822223663,0.045954834669828415,-0.07733389735221863,-0.08640993386507034,-0.1461588591337204,-0.005598083138465881,-0.15793146193027496,0.06801940500736237,-0.05974752455949783,0.06596836447715759,0.053591690957546234,-0.040369730442762375,-0.0763753354549408,-0.04764283075928688,0.12331252545118332,-0.09248759597539902,-0.18273766338825226,0.09717599302530289,0.12731340527534485,0.016795694828033447,-0.15374287962913513,-0.06973577290773392,-0.0572449192404747,0.18959172070026398,-0.053373273462057114,-0.08789422363042831,0.1648350954055786,-0.01330236904323101,-0.13258755207061768,-0.08994278311729431,0.0902833566069603,-0.037655338644981384,0.1722836047410965,-0.07916438579559326,-0.1008593887090683,0.03866182267665863,0.12257546931505203,0.01957409456372261,0.1580350548028946,0.016841283068060875,-0.15356802940368652,0.12101994454860687,-0.02809121273458004,0.04977924004197121,-0.017823174595832825,-0.027856608852744102,0.12590549886226654,0.03820357844233513,0.02440446987748146,-0.13612541556358337,-0.14416776597499847,0.025438232347369194,0.02005043812096119,0.07457032054662704,-0.009100793860852718,-0.2202220857143402,-0.07217167317867279,0.14251060783863068,-0.030394861474633217,-0.10278983414173126,-0.0065040080808103085,0.09079981595277786,-0.10181514918804169,-0.11400637030601501,0.029829170554876328,-0.08686937391757965,-0.026768730953335762,-0.0868033692240715,0.0004730859654955566,0.051889847964048386,0.11673298478126526,-0.09829814732074738,0.07129234820604324,-0.0102052828297019,-0.2100723832845688,-0.04958788678050041,-0.021138135343790054,0.10429650545120239,-0.020988645032048225,-0.13471610844135284,-0.08568938076496124,-0.02789127267897129,-0.034730084240436554,0.01556011289358139,-0.007883916608989239,0.02545315772294998,-0.1278819441795349,0.0701635405421257,-0.010225232690572739,-0.03434723615646362,0.12542441487312317,0.06580770760774612,0.01658170111477375,0.02226114645600319,0.0783071517944336,-0.03706500679254532,0.050539713352918625,-0.00862674880772829,-0.2083144336938858,0.12937748432159424,-0.013261375017464161,0.06629876047372818,0.044347550719976425,0.12318948656320572,0.17719392478466034,-0.13209301233291626,-0.00041200165287591517,-0.030186953023076057,-0.12042611092329025,-0.13605087995529175,0.036114178597927094,0.07732415199279785,-0.1606803983449936,-0.07538493722677231,-0.026208044961094856,-0.041067540645599365,0.07428739964962006,0.02524498850107193,0.02343038097023964,-0.039636723697185516,-0.08042147755622864,0.03546532988548279,-0.07396821677684784,0.06376195698976517,-0.09345345944166183,-0.035340867936611176,0.006169946398586035,0.21359160542488098,0.050765518099069595,-0.10065490007400513,-0.08098940551280975,-0.10290541499853134,0.09534487873315811,0.1420714259147644,0.08597005158662796,0.12847544252872467,-0.1022593080997467,0.04639330878853798,-0.10647761821746826,0.008768098428845406,0.003093165811151266,0.022963019087910652,0.008976485580205917,-0.012542066164314747,-0.06423789262771606,0.15965893864631653,-0.096220001578331,-0.01879071071743965,0.04335787519812584,0.026374008506536484,0.038401782512664795,-0.1070941835641861,0.04199596494436264,-0.0014152521034702659,-0.047303706407547,-0.07697681337594986,0.06151612475514412,0.14214292168617249,0.0569712333381176,-0.04033106938004494,-0.07913706451654434,0.13898222148418427,0.005293429363518953,0.030291249975562096,0.10972533375024796,-0.055414579808712006,-0.050543442368507385,0.04584931582212448,0.0038948911242187023,0.026759374886751175,0.025396857410669327,-0.0630873292684555,0.035289447754621506,-0.15822356939315796,0.017746655270457268,0.040433209389448166,-0.0514926016330719,-0.06112372502684593,-0.03475197032094002,-0.07881149649620056,-0.0051218257285654545,-0.013215441256761551,-0.04477578401565552,-0.020654045045375824,-0.00986082386225462,0.02382475882768631,-0.08241885900497437,0.02957412786781788,-0.03401860222220421,-0.07308665663003922,0.05250224098563194,0.08420402556657791,-0.05465688928961754,-0.019802754744887352,-0.060093555599451065,0.11755585670471191,-0.03437555953860283,-0.06539333611726761,-0.0074337078258395195,-0.032364845275878906,-0.08382962644100189,0.0541016049683094,-0.04741561412811279,0.00098470039665699,-0.038908421993255615,-0.09839839488267899,0.04819076508283615,0.01650843396782875,0.052832383662462234,0.021007025614380836,-0.010869652964174747,0.08742355555295944,0.07506308704614639,0.005664055701345205,0.17518463730812073,-0.08734263479709625,-0.06539268791675568,-0.1165471225976944,-0.02866140753030777,-0.048422716557979584,0.05751775577664375,-0.08182317763566971,0.07384810596704483,0.0017163465963676572,-0.04130636900663376,0.15401285886764526,-0.06970798224210739,-0.1668006330728531,0.04604300856590271,-0.016447193920612335,0.018550816923379898,-0.005639227107167244,0.03050963394343853,-0.0028660076204687357,-0.07947983592748642,0.05730200558900833,-0.10303331911563873,-0.048723626881837845,0.033591628074645996,0.050863854587078094,-0.15258441865444183,0.03717881441116333,-0.12242250144481659,0.010261127725243568,-0.14110088348388672,0.03036775067448616,0.0019975663162767887,0.10183749347925186,-0.04484368860721588,-0.07068463414907455,-0.04562202841043472,0.03416510671377182,0.09911678731441498,-0.054386794567108154,0.03855685889720917,-0.08211791515350342,-0.02390926517546177,0.054171640425920486,0.10554520040750504,0.11628545075654984,0.0191621333360672,0.04148362576961517,0.10262472182512283,0.06669437885284424,0.11096098273992538,0.01883002743124962,0.03908122330904007,0.014408235438168049,0.035352952778339386,-0.04341309145092964,-0.08889880776405334,0.09915360063314438,-0.0849146619439125,0.04797295108437538,-0.05545128136873245,-0.0017344641964882612,-0.010356766171753407,0.005951692350208759,0.001990190939977765,0.17062948644161224,-0.06961210072040558,-0.01656976342201233,0.12896010279655457,0.11356455832719803,-0.04441359266638756,0.04805740714073181,0.11497741937637329,0.033571839332580566,0.01591997779905796,-0.08257099986076355,-0.02383607067167759,-0.06203758344054222,0.06110529601573944,-0.08434686809778214,0.03011436015367508,0.10043872147798538
植物,0.2980097234249115,-1.5254729986190796,0.8653947114944458,-0.8962337970733643,2.106823682785034,-1.053171992301941,1.7211763858795166,-3.3589510917663574,-1.5453189611434937,0.48179253935813904,0.7451926469802856,-0.8007717132568359,-0.351993203163147,-0.1068718209862709,0.7176692485809326,0.05527341365814209,-0.49924975633621216,-0.81559818983078,1.0374242067337036,-2.2814524173736572,-1.3368515968322754,-1.0502623319625854,-1.162546992301941,0.2396203577518463,0.25073346495628357,-0.5048454403877258,0.10630521178245544,0.376675009727478,-0.8414018154144287,2.4522945880889893,-0.7021909356117249,0.8810403943061829,-2.881510019302368,0.3129997253417969,0.9100785255432129,0.5892500281333923,0.16079863905906677,-0.5668516755104065,1.6944471597671509,0.14766371250152588,-0.32006752490997314,-1.9502431154251099,-1.1060835123062134,1.0193288326263428,1.2414942979812622,-2.597235918045044,1.3385967016220093,-1.1475282907485962,-0.7062835097312927,1.4901164770126343,1.070901870727539,0.06352207064628601,-0.6489961743354797,-0.6704906821250916,-1.3154652118682861,-0.727066159248352,1.1722412109375,1.1102325916290283,0.6668373942375183,-0.9942618608474731,0.46352657675743103,2.0988874435424805,1.8053113222122192,-1.1671899557113647,-2.2247002124786377,1.1164584159851074,1.7811477184295654,0.7199136018753052,0.6614213585853577,0.9871964454650879,-0.1857413798570633,2.363612174987793,-0.9101135730743408,0.2794938087463379,1.5701045989990234,-0.03466501459479332,1.3997331857681274,-0.6885277032852173,-0.09551654756069183,-1.0793849229812622,1.2911901473999023,1.871203064918518,0.5670987963676453,-0.24290716648101807,0.037480004131793976,-0.6993867754936218,1.8675379753112793,-0.46974894404411316,-2.5904324054718018,2.281132221221924,-0.2760934829711914,0.7329047918319702,1.1662516593933105,0.4907740354537964,1.7338721752166748,2.490029811859131,1.8289554119110107,0.5870068073272705,0.29330068826675415,1.3804848194122314,2.704421281814575,-1.18397057056427,-1.996996283531189,2.1399197578430176,0.14165128767490387,0.5717995762825012,1.8739562034606934,1.8399631977081299,0.7139636278152466,-0.9687582850456238,0.8602588772773743,-2.1252846717834473,0.8933372497558594,2.1595871448516846,-0.3616567850112915,1.4448134899139404,-3.408005475997925,-0.6084381937980652,-1.0142391920089722,1.2906945943832397,1.734037160873413,0.8038546442985535,0.0014375158352777362,0.002609357936307788,0.0828961431980133,-0.4216320514678955,-2.3972365856170654,1.8361560106277466,-0.29675745964050293,0.16778318583965302,-1.083673119544983,-0.8538200855255127,2.334975004196167,0.22130410373210907,-0.439376562833786,-3.47929048538208,0.34236806631088257,2.9909780025482178,-2.7328436374664307,-2.493601083755493,-2.965691566467285,1.144622564315796,-1.351771354675293,-0.12865249812602997,0.8927918672561646,-0.07555103302001953,0.8217320442199707,1.6538810729980469,0.6238607168197632,0.6831657886505127,-0.4605315923690796,0.0420939102768898,0.9023308157920837,-0.08375788480043411,1.1510423421859741,-1.5981614589691162,2.509470224380493,-0.0031951393466442823,-1.3483816385269165,0.4198839068412781,0.5550220608711243,-0.10767318308353424,-0.3429147005081177,-2.396923303604126,2.0493690967559814,-0.8826144933700562,0.888036847114563,-1.4466450214385986,1.8295625448226929,-0.13795997202396393,-2.082127809524536,2.111116409301758,-0.4722464680671692,3.4160726070404053,0.3784504532814026,-0.2822950780391693,-0.429997980594635,-0.24804194271564484,-0.027583003044128418,-0.7732890248298645,0.5391611456871033,-0.7592175006866455,0.5341073274612427,0.5296655297279358,-1.9585793018341064,1.1899007558822632,-2.1275475025177,-0.3630114793777466,-0.15839159488677979,2.7758283615112305,-0.4952618181705475,1.771270513534546,1.5740803480148315,0.4407031834125519,0.05476580560207367,-2.1615123748779297,1.410205364227295,0.3960278630256653,-0.6761355996131897,-1.6501978635787964,-1.3145925998687744,0.04279652610421181,-1.244206190109253,-0.5728090405464172,0.8000796437263489,0.18698927760124207,-0.8576840162277222,0.5615460276603699,-1.2057337760925293,-0.171153724193573,-0.4059313237667084,0.33924436569213867,-0.8314260244369507,0.3528343737125397,-0.5227072834968567,0.27340197563171387,2.688023090362549,0.3894219696521759,-0.02866615355014801,0.8107132315635681,0.831572413444519,-1.583065390586853,-0.41123276948928833,0.451593816280365,-0.12794092297554016,0.0318063348531723,1.0228157043457031,0.35715848207473755,-0.7282924056053162,-0.11772700399160385,0.9263737201690674,0.044786304235458374,-0.7672568559646606,0.04711863771080971,-0.44631078839302063,-0.9561663866043091,0.728478729724884,-0.5704901218414307,-1.2321351766586304,-2.1442220211029053,0.24129988253116608,2.3751235008239746,1.603326678276062,0.5208667516708374,-2.5328500270843506,1.6416789293289185,1.09864342212677,1.8837201595306396,0.6291640400886536,1.8947144746780396,-2.308774471282959,1.4766844511032104,-2.2514524459838867,1.5674231052398682,-1.4401074647903442,-0.5258730053901672,-0.9248967170715332,0.7583904266357422,1.1771403551101685,-0.21131613850593567,-1.408624529838562,-0.3585484027862549,2.6318295001983643,1.052399754524231,-0.2928548753261566,-2.0215682983398438,-1.6210002899169922,0.22773943841457367,0.43981602787971497,-1.7353843450546265,1.159435749053955,-1.499414324760437,1.968778133392334,0.47469791769981384,-1.0323635339736938,0.8920760750770569,1.2623796463012695,1.733397364616394,-0.40809980034828186,1.118333101272583,-0.5884032845497131,1.128929615020752,-2.5341031551361084,2.411395788192749,-0.9130210876464844,0.7628254890441895,1.6760777235031128,2.300412654876709,1.834004521369934,0.4016748070716858,-0.20450176298618317,-1.7991408109664917,1.988823652267456,-1.3761283159255981,-1.5373649597167969,0.18939858675003052,-0.9164621829986572,-0.3114902973175049,1.5266011953353882,2.0464553833007812
栽培技术,-0.03677401319146156,-0.32270458340644836,0.32858648896217346,0.008565720170736313,-0.307887464761734,-0.18495553731918335,0.10476664453744888,0.07501014322042465,-0.21100683510303497,0.01636659912765026,-0.36759331822395325,0.11949338018894196,0.3213745951652527,0.14844673871994019,-0.2710893452167511,-0.22303961217403412,-0.06255966424942017,-0.4032204747200012,0.05857318639755249,-0.45018523931503296,-0.2795085608959198,0.21415123343467712,-0.2864230275154114,-0.22501397132873535,-0.23180915415287018,-0.2192552536725998,-0.03531824052333832,-0.2227177768945694,-0.1917126476764679,0.2704881429672241,0.2731311023235321,0.14067651331424713,-0.13152995705604553,-0.054553449153900146,0.322645902633667,0.06413976848125458,0.3023049831390381,-0.16668759286403656,-0.14928019046783447,-0.07070636004209518,0.2511683404445648,-0.0682252049446106,-0.17009854316711426,0.05253596976399422,0.14466559886932373,0.09275834262371063,-0.08554507046937943,0.186799094080925,-0.08313876390457153,0.11260251700878143,0.18769438564777374,-0.1073787659406662,0.11144700646400452,-0.12325529009103775,-0.5436656475067139,-0.10317179560661316,-0.1605447232723236,-0.10382111370563507,0.32229912281036377,-0.21457144618034363,-0.12804454565048218,0.14622792601585388,-0.041932202875614166,-0.3326565623283386,-0.16491252183914185,-0.04707524552941322,0.014886797405779362,0.02513493038713932,-0.18836770951747894,-0.014652962796390057,-0.13647791743278503,0.07137776166200638,0.028479700908064842,0.2192583829164505,0.31283918023109436,-0.2992990016937256,0.09231475740671158,0.11650438606739044,-0.1473902463912964,-0.33398449420928955,0.09455256164073944,-0.007342960219830275,0.11515627801418304,-0.1980603039264679,-0.4099140167236328,0.3398562967777252,-0.07353819906711578,-0.002150821266695857,-0.185355544090271,-0.011816008016467094,-0.2070014625787735,-0.05110057070851326,0.4776066839694977,0.11951632052659988,0.39752352237701416,0.07744934409856796,-0.16971398890018463,0.04163325950503349,-0.08465892821550369,-0.001207644701935351,-0.018747305497527122,0.21138596534729004,-0.5657751560211182,0.41294416785240173,-0.02649790793657303,0.4494713246822357,-0.2744448184967041,0.1470750868320465,0.4642038345336914,0.020863492041826248,0.25517114996910095,0.097665935754776,0.03424021974205971,0.07374195009469986,-0.30694901943206787,0.08654006570577621,0.18432922661304474,-0.11342751234769821,-0.12893705070018768,-0.09967230260372162,0.11549046635627747,-0.17527198791503906,-0.018452070653438568,-0.14776404201984406,0.08094889670610428,0.05791150778532028,-0.044495590031147,0.13952095806598663,0.050040215253829956,0.1784573644399643,0.09382729977369308,0.2469882071018219,0.07592643052339554,0.1634434461593628,-0.037080783396959305,-0.3018980324268341,-0.00021475832909345627,0.10248778015375137,-0.11042816936969757,-0.15224207937717438,-0.19377821683883667,0.012223763391375542,-0.4070662558078766,0.032252468168735504,-0.03203364089131355,-0.08778689056634903,0.04127785935997963,-0.28263023495674133,-0.017274532467126846,0.06445971876382828,-0.01257690042257309,0.053854864090681076,-0.11437725275754929,0.05591076612472534,0.11601459980010986,-0.16682982444763184,0.11948582530021667,-0.04960694909095764,-0.06984911113977432,-0.3938893973827362,-0.03258749470114708,0.41943010687828064,-0.030122721567749977,-0.04869416728615761,0.23436978459358215,0.37827903032302856,0.10042772442102432,-0.12669311463832855,0.2831786572933197,0.060560837388038635,-0.21419350802898407,-0.015550537034869194,0.1683405488729477,0.1781270056962967,0.24769484996795654,0.048778802156448364,0.1988627314567566,0.005260169040411711,-0.07072824239730835,-0.2069038599729538,0.09559892863035202,-0.24538765847682953,0.30519556999206543,-0.23245801031589508,-0.09049715846776962,0.1500667780637741,0.11494265496730804,0.10773535072803497,0.03625352680683136,0.08483733236789703,-0.21174396574497223,-0.022436723113059998,-0.014336946420371532,-0.2045096755027771,0.21866342425346375,-0.018037255853414536,-0.03008800558745861,-0.020135119557380676,-0.2436421662569046,-0.0184940118342638,-0.3199707269668579,-0.16438865661621094,0.04873260110616684,-0.29300424456596375,0.011909114196896553,-0.13876855373382568,-0.09626543521881104,-0.2127012014389038,-0.16378681361675262,-0.06161276251077652,0.28308844566345215,-0.14140823483467102,0.10720562934875488,-0.06413216143846512,-0.1724235862493515,0.11080167442560196,-0.01972256600856781,0.09500515460968018,0.0814809799194336,-0.015914397314190865,0.1397332400083542,-0.23796528577804565,-0.04237068071961403,0.0305790938436985,0.10111796855926514,-0.17901748418807983,0.05332593619823456,0.21553145349025726,0.05121956393122673,-0.04311569407582283,-0.3102259337902069,-0.20354171097278595,0.03316735476255417,-0.015166687779128551,0.02375018410384655,-0.2254052460193634,0.2967519760131836,-0.11884522438049316,-0.2021215260028839,-0.32110023498535156,-0.2808123230934143,0.09219357371330261,-0.015086139552295208,0.1349024921655655,-0.3038182556629181,0.11727438867092133,0.11664123088121414,0.19832342863082886,-0.23194067180156708,0.24773406982421875,-0.3655552566051483,-0.04060722514986992,0.037164703011512756,0.054596997797489166,0.31739020347595215,0.23793165385723114,-0.09386001527309418,0.07190223038196564,0.2971213161945343,-0.3617900311946869,0.031246289610862732,0.027165573090314865,0.14480096101760864,0.16008298099040985,-0.07870800793170929,0.0823112279176712,-0.16162903606891632,0.10285498946905136,0.13073430955410004,0.00255021033808589,-0.09377633780241013,0.08555548638105392,0.1374616026878357,0.07913123071193695,-0.2437860667705536,0.29690444469451904,0.24671080708503723,0.22504952549934387,-0.24037379026412964,-0.07614877074956894,0.06708629429340363,0.02096530981361866,-0.3678244948387146,0.17265062034130096,-0.12965616583824158,0.004038368351757526,0.05549417436122894,0.07729668915271759,0.09840095043182373,-0.10741612315177917,0.16109608113765717,0.1156255304813385,0.24140356481075287,-0.14663948118686676,0.009886081330478191,-0.05001225695014,0.16008754074573517,-0.3898136019706726,0.005457594059407711,0.25525057315826416
标准化,0.17597301304340363,-1.8018485307693481,0.39139294624328613,0.5102373361587524,-0.9400069117546082,-0.5366368889808655,-0.19691792130470276,0.3932976722717285,-0.18974833190441132,0.7350250482559204,-0.7936588525772095,-0.4074978828430176,-1.028056263923645,0.5978286266326904,-1.3464895486831665,-1.5397156476974487,0.3921630382537842,0.07173511385917664,-2.699906587600708,-0.7466174960136414,0.130245178937912,-1.4371423721313477,-0.8978051543235779,0.2869296669960022,-1.003572940826416,0.3323596119880676,1.875950574874878,-0.9486269950866699,-0.6452573537826538,1.6161558628082275,0.09305368363857269,0.9340240955352783,-0.15646995604038239,-1.0722899436950684,-0.9762208461761475,0.8694615960121155,-0.9381452798843384,-2.2722835540771484,-0.3581632375717163,-0.6061944365501404,0.1606433242559433,-1.260406255722046,1.2538360357284546,0.14843016862869263,0.16735447943210602,-0.09051806479692459,0.7078874707221985,-0.2982359528541565,-1.4690799713134766,-0.505314826965332,-1.1639587879180908,2.0405020713806152,-0.3885897696018219,0.9556809067726135,-1.2845488786697388,-0.5197176337242126,-0.16598692536354065,-0.3481517434120178,2.0102243423461914,-0.0814577043056488,-0.6486313343048096,0.8494608998298645,-1.1375609636306763,0.4167628586292267,-0.9119843244552612,0.8110576272010803,0.2417777180671692,1.2506316900253296,-0.4200572073459625,-1.5828825235366821,-1.3119385242462158,1.1475160121917725,1.1983342170715332,0.9215207099914551,0.48011723160743713,0.8230032920837402,0.6930898427963257,-0.5882006287574768,-0.5007933378219604,1.36576509475708,0.6742733120918274,-1.1903623342514038,1.3142937421798706,0.16511866450309753,-0.7581167221069336,0.7097634077072144,0.6345627307891846,0.3116106688976288,0.8554291129112244,-0.8399826884269714,-0.8512351512908936,-0.6067522764205933,0.9187002778053284,-0.19376502931118011,1.3739503622055054,0.49498647451400757,0.017833946272730827,0.43202003836631775,-0.5706306099891663,-1.7317157983779907,0.3624418377876282,-0.28419333696365356,-1.0191240310668945,0.7127317786216736,-1.2784782648086548,1.6517306566238403,-0.5195900797843933,0.48455870151519775,-1.9589340686798096,0.5183711647987366,0.934895932674408,-0.8581451177597046,-0.16638284921646118,0.12546353042125702,-1.087597131729126,0.2732458710670471,0.4145548939704895,0.12051616609096527,-1.100654125213623,-1.4858700037002563,1.8341386318206787,-1.9383822679519653,-0.3767146170139313,1.1005253791809082,0.5068501830101013,0.5017333030700684,-0.16937382519245148,-0.31218114495277405,1.141119360923767,-0.11315611004829407,0.5887413024902344,-1.24467933177948,0.5673413872718811,0.5376878976821899,-0.885237991809845,-1.6800265312194824,0.18896740674972534,0.8395140767097473,0.6520234942436218,-1.1619688272476196,-1.1324456930160522,0.1282276213169098,0.6235531568527222,-0.8890408277511597,0.458725243806839,1.3209238052368164,-1.7512950897216797,0.5798419117927551,1.8180842399597168,0.7085831165313721,-0.8909856677055359,0.6190809607505798,-1.6802380084991455,0.5725618004798889,0.6867662072181702,-1.409318447113037,-1.1708333492279053,0.6148239374160767,-0.6263097524642944,-0.5679003000259399,-1.0178636312484741,0.5197404623031616,0.24148322641849518,-0.09224827587604523,0.8544495701789856,1.1040968894958496,2.7023465633392334,-1.127584457397461,1.5616848468780518,0.46471697092056274,2.032590627670288,-0.2467309683561325,2.325279951095581,-0.10911544412374496,-0.7544831037521362,-0.41894352436065674,0.805376410484314,2.0839078426361084,0.3923046588897705,0.16537418961524963,-1.2614281177520752,-1.3799214363098145,-0.6447719931602478,-0.6725703477859497,-0.30370041728019714,2.337803602218628,-2.0863897800445557,0.5834780931472778,0.031011072918772697,-1.157008171081543,-2.1451404094696045,-2.2720072269439697,0.13500097393989563,-0.5573970675468445,-0.507416307926178,-1.1530886888504028,-0.3867069482803345,-0.8185914158821106,-0.626087486743927,2.0682289600372314,-0.45810404419898987,-0.6888841986656189,-0.28721919655799866,1.4230962991714478,0.09513209760189056,-0.9238176941871643,0.5417757630348206,1.1956785917282104,-0.2461071014404297,-0.2015138864517212,1.002727746963501,0.18463686108589172,-1.534521222114563,-1.3441781997680664,0.712658703327179,0.12672804296016693,0.45702889561653137,0.04156891256570816,-1.171033501625061,-0.9391312003135681,0.8087396025657654,-0.033163562417030334,0.459133118391037,1.2295130491256714,-0.0466994009912014,0.9452897906303406,1.2786598205566406,-1.196368932723999,-0.8779202103614807,0.2836875915527344,0.6927056312561035,-0.4537615180015564,1.9470345973968506,0.6062703728675842,-0.3554607629776001,-0.5132150053977966,1.0415343046188354,-0.15025712549686432,1.0562019348144531,0.3712496757507324,0.48711350560188293,0.008005489595234394,-0.7384880781173706,-0.7269663214683533,-1.4276424646377563,-2.3206894397735596,-0.2703731954097748,2.520627021789551,-0.4885256886482239,0.37146803736686707,-2.0514719486236572,0.16274648904800415,-0.5360142588615417,-2.0006072521209717,-0.033631522208452225,0.4391326606273651,-2.0597660541534424,-1.2246272563934326,-0.03171148896217346,-1.9345862865447998,-0.17234759032726288,-0.07132647931575775,-0.992568850517273,0.8916004300117493,0.23759859800338745,0.3111927807331085,-0.8042073249816895,-0.3074924647808075,0.12490731477737427,-0.8099516034126282,-1.376446008682251,-1.5145506858825684,1.734230399131775,0.12707485258579254,-1.8197945356369019,0.4075563848018646,0.6598174571990967,1.4737353324890137,-0.09280584007501602,-0.5937513709068298,0.32200753688812256,-0.3565404713153839,-1.7397451400756836,2.187621593475342,-0.0656832605600357,1.0661877393722534,0.0665101408958435,0.1217648833990097,-0.2874037027359009,-0.28411975502967834,-0.3341408669948578,-0.523436427116394,0.46784526109695435,-1.3900400400161743,-0.04111310467123985,1.7253168821334839,0.4317617416381836,0.7825446724891663,-0.6478449106216431,0.1361248642206192
适宜,-0.10982922464609146,-1.2805181741714478,0.21813106536865234,-0.7694965600967407,-0.1361512690782547,-0.30506211519241333,-0.27169522643089294,-1.2973644733428955,0.01797054149210453,-1.8742042779922485,0.35408467054367065,-1.5975632667541504,-1.0730507373809814,1.5484886169433594,-0.3502068817615509,-1.6033720970153809,-0.7158478498458862,-0.10069058835506439,0.15310485661029816,-1.5454216003417969,-0.9504938125610352,-0.2552551329135895,0.947496771812439,-0.6118036508560181,-1.308224081993103,-0.5387371778488159,-0.1142810732126236,-0.3337288200855255,0.635800838470459,0.990372359752655,-0.20650698244571686,0.6808828711509705,0.7452588677406311,-0.474063903093338,0.7035013437271118,-0.08590532839298248,0.938529908657074,-1.1970291137695312,0.3468729257583618,-0.4837518334388733,1.036872148513794,-0.9133397340774536,0.05731679126620293,-0.4781671464443207,1.044677972793579,0.72252357006073,-0.21840767562389374,1.3346600532531738,-0.9382890462875366,0.2379605621099472,-0.1906266212463379,0.1530238389968872,0.5578363537788391,-0.23465359210968018,-1.5569276809692383,0.5796167850494385,-0.3721231520175934,0.9417110085487366,-2.0862589735770598e-05,-0.27287235856056213,-0.8284630179405212,2.121929883956909,0.4115837812423706,1.3116083145141602,-1.308079481124878,-1.6327797174453735,0.20394012331962585,-0.1966685801744461,-0.3374556303024292,-0.7418809533119202,0.20448370277881622,1.1233012676239014,-0.6427181959152222,-0.4758424758911133,-0.5408926606178284,-0.04028456658124924,-0.09262018650770187,-0.031211165711283684,-0.6607308983802795,-0.8684119582176208,1.9587680101394653,0.7509623765945435,0.3890095353126526,-0.6477148532867432,0.31930047273635864,0.00767886359244585,-0.5387496948242188,-1.0137267112731934,0.10022527724504471,0.7396611571311951,-0.3237040638923645,-0.5300480127334595,0.5377156138420105,0.5624701976776123,1.5719501972198486,-0.6283507347106934,-0.004091484472155571,0.17313510179519653,0.7073525190353394,-0.6333908438682556,1.331304907798767,-0.8388574719429016,-0.9876222610473633,1.108213186264038,-0.039286304265260696,2.0919694900512695,-0.6287363767623901,0.7342666387557983,1.2463116645812988,-0.3783709406852722,-0.038166649639606476,1.7449684143066406,-0.6051477193832397,1.9737845659255981,0.09222037345170975,0.07774855196475983,-0.4983544647693634,0.13277535140514374,-0.4845307171344757,-0.422499418258667,0.6206622123718262,0.3356204330921173,0.37317460775375366,1.159221887588501,-2.3031303882598877,-1.0771987438201904,0.7713266611099243,2.0192980766296387,0.037782829254865646,-1.0060796737670898,-0.35317498445510864,1.2274469137191772,1.179395079612732,0.012285614386200905,0.6557475328445435,-0.05932692438364029,0.517218291759491,0.8280095458030701,-1.2629375457763672,-1.2241758108139038,-0.26399534940719604,0.23979368805885315,-0.8885052800178528,0.18814295530319214,2.249077081680298,0.8376348614692688,-2.407846689224243,-1.4152814149856567,-1.7142130136489868,0.665547251701355,1.0402752161026,1.7078899145126343,-0.05544417351484299,0.17327828705310822,0.8729568719863892,-0.9354545474052429,0.46563461422920227,0.10389430820941925,-1.058720350265503,-0.36259010434150696,-0.05545724928379059,-0.5653849244117737,0.05335953086614609,-1.023260474205017,1.7508426904678345,0.9286507368087769,-1.6496374607086182,-1.767307162284851,0.14318056404590607,-1.82315194606781,-1.1544684171676636,-0.15614420175552368,0.2075590193271637,-0.899658739566803,0.8525705933570862,1.7517240047454834,-0.13574464619159698,-0.8465155363082886,-0.11331570893526077,-0.639244794845581,-0.01519313920289278,0.0954807922244072,-0.07079112529754639,0.8400877118110657,0.2505989074707031,1.09056556224823,0.5294469594955444,-0.011567017063498497,-1.7369956970214844,-0.3730774521827698,-1.6624789237976074,0.33256447315216064,-0.8897902369499207,1.1055822372436523,1.3354263305664062,-0.49193042516708374,1.0929373502731323,-0.8804025053977966,-1.147199273109436,0.6162554025650024,-1.4957020282745361,-1.5736593008041382,0.35026881098747253,-0.8548861145973206,1.464530348777771,0.26834797859191895,0.16092519462108612,-0.05827794969081879,0.3946128189563751,0.5309601426124573,0.9890672564506531,-1.8177447319030762,0.6352542042732239,0.5487450361251831,0.023490117862820625,-0.7206886410713196,0.5037904977798462,0.6741109490394592,0.9112088680267334,1.4001260995864868,-1.1466559171676636,-0.7261686325073242,0.5262784361839294,-0.9196587800979614,0.021702099591493607,0.5551779866218567,0.5067091584205627,0.2097967565059662,0.7592425346374512,0.3762679100036621,0.5458594560623169,-1.4464552402496338,0.8799426555633545,-0.16673842072486877,-1.4602556228637695,0.05468503758311272,0.36794817447662354,-0.7461620569229126,-0.0360899455845356,-1.3679414987564087,-0.698836624622345,-0.31270381808280945,0.10852602124214172,0.4682597815990448,-0.9813809394836426,0.46993958950042725,-0.09783730655908585,-0.19379989802837372,-1.421864628791809,-1.3386842012405396,1.1575517654418945,0.5227234959602356,-1.8220654726028442,-0.0039013416972011328,-0.1047486886382103,-0.044654231518507004,-1.6185258626937866,-0.5045981407165527,1.2082685232162476,-1.338515043258667,0.8502115607261658,-1.465609073638916,0.6895049810409546,0.5290253758430481,1.782390832901001,-1.464542269706726,0.09191996604204178,1.3930282592773438,1.4366326332092285,-2.2607617378234863,0.4303602874279022,-1.1883841753005981,-1.147081732749939,2.3573851585388184,-2.0724518299102783,2.2544479370117188,1.5331261157989502,0.4892575144767761,-1.0567350387573242,0.6644626259803772,2.2433993816375732,0.6515654921531677,-1.6900641918182373,-0.6813446283340454,1.1494511365890503,0.8466205596923828,0.6712585091590881,-1.4575544595718384,0.4361615777015686,-0.5491533875465393,0.2639673054218292,-1.0537039041519165,0.2196853756904602,0.3722125291824341,-0.8077451586723328,1.053124189376831,0.13070417940616608,-0.5159885883331299,-1.0508952140808105,-0.8543056845664978
耐寒性,0.08527810871601105,-0.22321228682994843,0.22455459833145142,-0.13312435150146484,0.1337408721446991,0.16128526628017426,0.19189158082008362,-0.38771823048591614,-0.07406697422266006,-0.02024218812584877,-0.24400247633457184,-0.22194331884384155,-0.03617580980062485,-0.05391018092632294,-0.04628319293260574,0.10650532692670822,-0.3506011962890625,-0.1535801887512207,0.2427643984556198,-0.3655734360218048,-0.46687641739845276,-0.06406638771295547,0.11214291304349899,-0.007724322844296694,-0.00726183271035552,0.23338524997234344,-0.06402832269668579,0.10799752920866013,-0.1374753713607788,0.49197015166282654,0.06738406419754028,0.061335574835538864,-0.45102524757385254,-0.09081901609897614,0.3490878939628601,0.01778292842209339,0.252815306186676,-0.1856439709663391,-0.17885999381542206,-0.011329064145684242,0.336328387260437,-0.12625399231910706,0.4105503261089325,0.3279379904270172,-0.06359948217868805,-0.036603573709726334,0.3063591718673706,0.28180089592933655,-0.2927659749984741,0.233546182513237,0.07753846794366837,0.0766787901520729,0.06303715705871582,-0.16090750694274902,-0.19545942544937134,-0.2304229438304901,0.07287293672561646,0.38423416018486023,-0.21034306287765503,-0.4145999550819397,-0.18567121028900146,0.1756170094013214,0.23479826748371124,-0.5087957978248596,0.00014969005133025348,0.1348707675933838,-0.03455108031630516,-0.27111580967903137,0.18477846682071686,-0.12443272024393082,-0.06761527806520462,0.133180171251297,-0.025111693888902664,0.18260812759399414,0.08893400430679321,-0.0492643341422081,0.2139068841934204,-0.007964705117046833,-0.2435821145772934,0.08304716646671295,0.06829376518726349,0.17242106795310974,0.1059907078742981,-0.36117056012153625,-0.17146097123622894,-0.20945334434509277,-0.14831554889678955,-0.13229359686374664,-0.2365228682756424,-0.059661708772182465,-0.6034219264984131,-0.19355158507823944,0.19441233575344086,0.16301824152469635,0.2559335231781006,0.3126961290836334,0.3184906542301178,-0.1614960879087448,0.2045602947473526,0.20853348076343536,0.2776689827442169,-0.17893245816230774,-0.3557862639427185,0.3217070698738098,-0.12864843010902405,-0.006840572226792574,-0.03402778133749962,0.03284648433327675,0.09136280417442322,-0.29261961579322815,-0.034506041556596756,-0.0462166853249073,-0.4721639156341553,0.1995692253112793,0.026282919570803642,0.2318052053451538,-0.10456410050392151,-0.10491621494293213,-0.131038099527359,0.0575069934129715,0.21134637296199799,-0.05222002789378166,0.212521031498909,0.09155477583408356,-0.2686239778995514,0.010971255600452423,-0.3582591712474823,-0.1319507211446762,-0.5050927996635437,-0.047448620200157166,-0.3223496973514557,0.18866916000843048,0.37026235461235046,-0.33295896649360657,-0.021796179935336113,-0.14521262049674988,0.00015010395145509392,-0.11106439679861069,0.15063321590423584,0.09527172148227692,-0.39700672030448914,0.2007816731929779,-0.09089039266109467,-0.270615816116333,0.3389371633529663,-0.1849236637353897,-0.033861976116895676,0.2798594832420349,0.16421446204185486,0.04972763732075691,-0.007487238850444555,0.13285258412361145,-0.1499185413122177,0.03641839697957039,-0.0986870527267456,-0.2313319742679596,0.17233304679393768,0.16216424107551575,0.1895536333322525,-0.04907851666212082,-0.002223456045612693,0.47924575209617615,0.2170282006263733,-0.2298530638217926,-0.024610133841633797,0.29874810576438904,0.04603644460439682,-0.11374394595623016,0.08872678130865097,-0.4924565553665161,-0.3985380530357361,0.21234416961669922,0.17134808003902435,0.2619830071926117,-0.055766042321920395,0.01725463755428791,-0.0003381872083991766,-0.02750554494559765,-0.1646702140569687,0.09320353716611862,0.017812758684158325,-0.02401711419224739,-0.011519449763000011,-0.4634817838668823,0.14059920608997345,0.022986864671111107,-0.22747373580932617,0.14022918045520782,-0.014399471692740917,0.5894769430160522,-0.08804529905319214,0.3194257915019989,-0.06109534576535225,-0.022141583263874054,-0.05239357799291611,-0.020777910947799683,0.03783918172121048,-0.008582946844398975,-0.11930582672357559,0.3491649627685547,-0.03923340514302254,0.0940672755241394,0.12165798246860504,-0.09730266779661179,0.27457985281944275,0.008344795554876328,-0.17616763710975647,0.18109986186027527,-0.29453644156455994,0.05687125399708748,-0.11438867449760437,0.051255736500024796,0.28442853689193726,-0.11056262999773026,-0.12453745305538177,-0.14871156215667725,0.18048140406608582,-0.16071093082427979,-0.30034956336021423,-0.03227808699011803,-0.07269421219825745,-0.2658264935016632,-0.11668851226568222,-0.07110238820314407,0.026338454335927963,-0.0009425102034583688,0.12017085403203964,-0.07954005897045135,-0.11789222806692123,0.15195441246032715,0.049029674381017685,-0.14934101700782776,0.07718364149332047,-0.12174598127603531,-0.13517014682292938,-0.20344041287899017,-0.2296491414308548,-0.13965828716754913,-0.10626889020204544,-0.20799103379249573,-0.010224769823253155,-0.17537850141525269,0.018989525735378265,0.23041723668575287,-0.10761196166276932,-0.0223066546022892,0.2054658830165863,0.16763682663440704,-0.17261798679828644,0.18136069178581238,-0.2735994756221771,0.25869062542915344,-0.17627662420272827,0.16683952510356903,-0.13327732682228088,0.021252939477562904,-0.13490504026412964,0.0024627414532005787,-0.09883545339107513,-0.06528158485889435,-0.27648964524269104,0.02216915227472782,0.5837500095367432,-0.017703603953123093,0.02252509631216526,0.04265369102358818,-0.05758731812238693,0.1431461125612259,0.3443686068058014,-0.30308619141578674,0.12646722793579102,-0.042265087366104126,-0.10669313371181488,0.22367459535598755,-0.3164905309677124,0.07301601767539978,-0.2659796476364136,0.21098221838474274,-0.33999955654144287,0.20373156666755676,0.1488915979862213,0.3046344816684723,-0.3135503828525543,0.1974152773618698,0.01005906518548727,0.339805543422699,0.13311508297920227,0.1584296077489853,0.12105181813240051,0.1977175921201706,-0.3257923424243927,-0.09507833421230316,0.25897765159606934,-0.15930233895778656,-0.21331709623336792,0.4286099970340729,-0.025006413459777832,-0.6914383769035339,0.017597828060388565,0.07451210170984268
生长,-0.9912403225898743,0.11010892689228058,1.1397194862365723,-0.29537785053253174,-2.6265692710876465,0.8106716871261597,2.2994601726531982,-2.937380313873291,-1.1430232524871826,-1.986857533454895,0.6203219890594482,-0.13683375716209412,-1.254019856452942,1.6008853912353516,0.3913158178329468,0.8586360812187195,-2.1245696544647217,-2.7021825313568115,-1.7942664623260498,-1.7416070699691772,-3.163759708404541,1.7336058616638184,-0.2862180173397064,-0.5650320649147034,0.07744621485471725,0.8221704363822937,0.7240810990333557,-0.7973809838294983,0.018329793587327003,1.563385009765625,-1.4601291418075562,-0.974725067615509,-1.2973687648773193,-0.8079657554626465,0.8581783771514893,1.3763679265975952,2.019613027572632,-1.426064133644104,-0.025138134136795998,-0.9741141200065613,-1.7660040855407715,-1.2331637144088745,-0.9206688404083252,1.9487674236297607,-1.180678129196167,0.4221764802932739,0.7977375984191895,1.0986462831497192,-0.7230215668678284,-0.1595626026391983,0.7814522385597229,-0.8989500999450684,0.2264387458562851,-0.6655651926994324,-1.2735425233840942,-1.4630374908447266,0.8853304386138916,-0.9282363057136536,0.7705682516098022,-0.9727892875671387,-0.45973682403564453,1.3904491662979126,2.3186492919921875,-1.9233497381210327,-0.7686823606491089,-0.7468205094337463,-0.21223489940166473,1.0454460382461548,-1.437537670135498,0.6969806551933289,-0.555816113948822,2.04008150100708,-1.7160773277282715,-0.7333193421363831,1.3497507572174072,-1.0275564193725586,1.7695822715759277,0.28407493233680725,0.4874466359615326,-0.6374481916427612,0.8750686645507812,1.9611396789550781,-0.7720051407814026,-2.5073280334472656,-1.4757050275802612,-0.5153589844703674,2.1820485591888428,0.7365049123764038,-1.1417547464370728,1.1496961116790771,-0.9755681753158569,-0.24937552213668823,1.2712899446487427,0.7636250257492065,3.766098976135254,-0.37535542249679565,1.421730875968933,0.3021151125431061,2.20212721824646,1.2793493270874023,3.088895082473755,-1.2668544054031372,-1.6336450576782227,1.0946208238601685,-0.8217425346374512,-0.8506315350532532,0.41233351826667786,3.4093575477600098,2.2041842937469482,-0.16888019442558289,-0.6471262574195862,-0.6027346849441528,-0.6328921914100647,1.6521018743515015,2.658294200897217,1.2448447942733765,-1.8016901016235352,-0.27201879024505615,2.106309175491333,1.0459800958633423,1.1751612424850464,-1.248518705368042,1.2023084163665771,1.2419447898864746,-0.5730587840080261,1.1384166479110718,-1.6794025897979736,1.9869884252548218,-2.0486834049224854,2.5478885173797607,0.9031484127044678,0.46790891885757446,0.5275213122367859,-1.7500108480453491,-1.6173259019851685,-1.6205766201019287,-0.9599734544754028,0.1842014193534851,-1.9818460941314697,-0.3327333331108093,-1.130474328994751,2.179389715194702,-1.9977833032608032,-1.1471699476242065,-1.221096396446228,0.3847678005695343,-1.8851433992385864,1.0908732414245605,2.0099189281463623,1.6138452291488647,0.06713458895683289,-0.7136585712432861,1.4384368658065796,-0.5443868041038513,2.020484209060669,-2.4472429752349854,0.7616063952445984,-0.5892714262008667,-1.7884083986282349,-0.08522190153598785,-0.17200346291065216,3.2218425273895264,0.07716448605060577,-2.3427579402923584,0.36747607588768005,-0.937053918838501,-1.113529920578003,0.7847447991371155,1.406800627708435,-2.2661375999450684,-2.7181808948516846,-0.1531151980161667,-2.047022819519043,1.7238346338272095,-0.34568095207214355,0.27124443650245667,0.11725034564733505,-1.726847767829895,-0.8847619295120239,0.6676092743873596,-1.5449092388153076,-1.7963268756866455,0.593769371509552,-0.16263312101364136,-1.1791452169418335,0.7723658084869385,-1.167418122291565,-0.21722412109375,0.6324089765548706,2.8393571376800537,-1.4613335132598877,1.9622197151184082,0.40436506271362305,0.31870922446250916,-1.1698001623153687,-1.863059401512146,0.1561368852853775,-1.8708884716033936,-0.49745112657546997,-2.885300636291504,-3.153386354446411,-1.7594647407531738,-0.14785079658031464,0.13161017000675201,1.4046560525894165,-0.5326383113861084,-0.7883931994438171,2.7608978748321533,-2.100468873977661,-0.3560127913951874,-0.30037930607795715,-0.03516270965337753,-0.633522093296051,1.037221074104309,0.49345800280570984,1.1826410293579102,3.385486364364624,-0.6544672846794128,-1.0418623685836792,0.2029852569103241,-1.4966553449630737,0.12208592891693115,1.512573480606079,-0.19503338634967804,-1.176609754562378,-0.17140185832977295,0.9270918965339661,-1.2927778959274292,-1.6999166011810303,0.7598256468772888,2.1848349571228027,-2.826632499694824,-0.9122373461723328,-1.1383463144302368,0.5316874980926514,-1.278200626373291,-0.7902671694755554,-0.5814394950866699,0.894091784954071,-0.09815026074647903,0.5821208357810974,2.8953661918640137,1.1993087530136108,-0.6977185010910034,-1.8039720058441162,2.9394772052764893,0.37116798758506775,1.3551355600357056,1.560092568397522,2.136908531188965,-1.2260087728500366,-0.1764977127313614,-2.7518250942230225,1.186978816986084,-1.875382661819458,-0.10230325907468796,1.3874685764312744,-0.0592801533639431,2.1172473430633545,-0.2559395432472229,0.071754090487957,-1.279396891593933,2.96506667137146,3.0855584144592285,1.4191014766693115,-0.9612596035003662,-0.8423750400543213,0.2268332540988922,1.0700788497924805,-1.616642951965332,1.535675048828125,-0.6841734647750854,0.4241960644721985,1.1255265474319458,-1.066556692123413,1.0028084516525269,0.13253454864025116,1.9062877893447876,-1.6654337644577026,1.532875657081604,3.0879271030426025,3.6127755641937256,-1.384973406791687,1.1513502597808838,-0.575795590877533,1.6825530529022217,-0.8693629503250122,-1.0881541967391968,0.08935610204935074,0.37332671880722046,0.3059631586074829,0.4452727138996124,0.8641282320022583,0.4632016122341156,-0.09259579330682755,2.107182741165161,0.8338815569877625,-0.9433348774909973,1.007544994354248,0.04679316282272339
要求,0.7205274701118469,-0.003791481489315629,1.731037974357605,-1.0300719738006592,-0.0302512738853693,-0.19655689597129822,-0.34522971510887146,2.6375491619110107,-0.5585840940475464,0.5594618320465088,-0.9194843173027039,0.4987916946411133,0.17069341242313385,0.587652862071991,-0.4402177333831787,-0.13168129324913025,2.691415309906006,-0.8943431973457336,-2.2049334049224854,-0.53518146276474,0.14029860496520996,-1.1194406747817993,0.787354588508606,0.9916447997093201,-1.0112049579620361,0.17696884274482727,1.1136034727096558,-0.7984905242919922,-2.8222248554229736,0.8977245092391968,0.5778795480728149,-1.4846196174621582,0.20648746192455292,-0.30505138635635376,-2.507735013961792,-1.811403751373291,-1.8755048513412476,-0.7686329483985901,0.3464895188808441,0.5468114018440247,0.12702511250972748,0.9496590495109558,-0.04982943460345268,-1.9483253955841064,-0.06944270431995392,-0.15092913806438446,0.6612696647644043,-1.372599720954895,-2.6435012817382812,-1.995680809020996,0.49505388736724854,1.9549537897109985,-0.6725818514823914,3.130091667175293,0.039921075105667114,1.6346349716186523,-0.8978504538536072,1.42173171043396,0.09733255952596664,-1.684696912765503,-0.025541290640830994,-2.7956109046936035,-0.777129054069519,0.2860387861728668,-0.5460360646247864,0.6992740035057068,-0.7229390144348145,0.7866487503051758,0.6704810857772827,-0.9040574431419373,-0.16404543817043304,0.2627907693386078,-1.0771726369857788,-2.2242941856384277,-0.6933763027191162,-0.7617934346199036,-0.14262346923351288,-1.0577459335327148,-1.1573508977890015,-0.4211457371711731,0.8511906862258911,2.247019052505493,-0.4666515588760376,-0.07934544235467911,-0.7074968814849854,0.3526470363140106,0.658487856388092,1.4112770557403564,0.10914041846990585,-1.0881155729293823,-0.1257854849100113,1.9340499639511108,-0.8719200491905212,-1.5669804811477661,-0.7969242930412292,0.6778261065483093,2.246826410293579,1.57188880443573,-1.0428234338760376,1.1405495405197144,-1.0754491090774536,0.8465285301208496,0.6673753261566162,0.6223625540733337,-0.28465723991394043,1.11952805519104,1.6412800550460815,0.676466703414917,-0.6154400706291199,0.7609220743179321,1.629941463470459,-0.03481700271368027,-1.117261528968811,-0.7558941841125488,-0.5420842170715332,-2.866132974624634,1.4026339054107666,-2.66648268699646,-0.7753108739852905,0.6943718194961548,0.6812491416931152,0.28848761320114136,-0.18611779808998108,3.5884814262390137,-0.26078930497169495,-0.3892567753791809,0.2152496874332428,1.6956772804260254,-0.8997418284416199,-0.3457832932472229,1.0947132110595703,0.5474826097488403,-2.0418944358825684,0.41203296184539795,-0.002123321173712611,-0.3528226613998413,2.1391172409057617,1.2370942831039429,0.8370993733406067,-0.8400017619132996,0.0847182497382164,2.331566095352173,1.7678368091583252,0.5270270705223083,1.3275585174560547,2.957232713699341,-1.0808336734771729,1.0499751567840576,0.3734394609928131,-0.27462470531463623,-0.6825478076934814,-1.8563663959503174,1.442334771156311,1.1856039762496948,-1.1869922876358032,-1.0336699485778809,-0.5174290537834167,2.1673390865325928,-0.9263601899147034,0.144895538687706,-0.592366635799408,-1.0169094800949097,2.2816147804260254,0.029543019831180573,1.9567495584487915,-0.2542598247528076,1.3598439693450928,-0.09192217141389847,-0.08976409584283829,0.4802005887031555,1.1951143741607666,-0.020969610661268234,0.6013263463973999,-0.4391970634460449,-0.234908327460289,1.4446070194244385,0.40019482374191284,-1.0929980278015137,0.8087010383605957,-1.759681224822998,1.228538155555725,-0.843170702457428,0.2845124900341034,0.23564206063747406,0.243449404835701,2.3494601249694824,-1.046817660331726,2.524911403656006,-1.236542820930481,-0.5491383671760559,-0.316884309053421,-1.9872037172317505,-0.7451568245887756,1.2817001342773438,2.070019483566284,-0.3361766040325165,1.8097352981567383,-0.4630369544029236,-0.5647485852241516,0.9740092158317566,1.106115698814392,-0.4103498160839081,0.5687628984451294,-0.6564965844154358,0.2899100184440613,0.2854500710964203,0.788817822933197,-0.051424525678157806,1.1370407342910767,1.1224745512008667,-0.7046988010406494,-0.016329411417245865,-1.139878273010254,2.156226634979248,-0.9420914053916931,0.6962766647338867,2.394207239151001,1.0613998174667358,-0.07667017728090286,-0.9244771599769592,-1.1702359914779663,-0.24142670631408691,-0.07605902850627899,1.5997735261917114,1.2975704669952393,0.304367333650589,1.8769882917404175,0.7244278192520142,-1.1698557138442993,1.238561987876892,1.701838731765747,-1.7941564321517944,-0.7005293369293213,0.5553615093231201,-3.3701062202453613,1.0362966060638428,0.8373808264732361,0.2309035360813141,0.4895959496498108,1.4575923681259155,1.5056368112564087,0.5019469857215881,1.9048361778259277,-0.3426888883113861,-1.6692469120025635,-1.3868008852005005,-0.1405942142009735,-0.037774864584207535,-1.0571986436843872,-0.1940925568342209,-0.622889518737793,1.1386892795562744,-0.59974604845047,0.8634238839149475,0.14781056344509125,-1.7950164079666138,-1.3691879510879517,0.22391879558563232,1.303843379020691,-0.6535871624946594,-2.0709946155548096,-2.4760403633117676,-1.121593713760376,-0.020232923328876495,1.1405441761016846,-1.4883582592010498,-1.4211771488189697,-2.20084547996521,-2.1843626499176025,-0.7031327486038208,0.7240267992019653,-0.9728014469146729,-0.7414918541908264,1.6585602760314941,0.05328885465860367,-0.2832440137863159,2.24991512298584,0.2451556771993637,0.8421044945716858,0.33221158385276794,3.2504971027374268,1.1042866706848145,-0.2937575876712799,0.7628846168518066,1.5157825946807861,0.8183543682098389,0.1846349537372589,0.017497140914201736,0.2638467252254486,-2.755427837371826,1.0501468181610107,-0.32350197434425354,-0.9329761862754822,0.8040191531181335,0.12134979665279388,0.2833932042121887,-1.164474606513977,0.5653152465820312,-0.25387030839920044,-1.5871977806091309
壤土,-0.09534081071615219,-0.22707664966583252,0.3105412423610687,-0.20727553963661194,0.30676817893981934,-0.296915203332901,0.2359178215265274,-0.31585177779197693,-0.028876202180981636,-0.3708586096763611,0.19310903549194336,0.14290380477905273,-0.06697886437177658,-0.4209670126438141,-0.8274940848350525,-0.14151956140995026,-0.017616452649235725,-0.3315393328666687,0.07592647522687912,-0.7814912796020508,-0.7360718250274658,0.09847338497638702,-0.4537019729614258,0.0033183800987899303,-0.29381659626960754,0.38108742237091064,0.05060157924890518,-0.1723562479019165,0.5340669751167297,-0.010821056552231312,0.06055617332458496,-0.034508731216192245,-0.38011229038238525,-0.32230740785598755,0.44144415855407715,0.40495559573173523,0.09760673344135284,-0.6879593729972839,-0.3327547609806061,-0.3113548457622528,0.41589435935020447,-0.13377493619918823,-0.04459422454237938,0.5919830203056335,-0.04118122160434723,0.45116955041885376,-0.4398568272590637,-0.15053525567054749,-0.98659747838974,0.12704770267009735,0.1347009837627411,-0.5205405950546265,0.16261915862560272,-0.41507014632225037,-0.25822436809539795,-0.3610822558403015,0.3248051404953003,0.787810206413269,-0.015554298646748066,-0.5433648228645325,-0.8421198725700378,1.0268919467926025,0.4052566587924957,-0.1348467469215393,-0.1307220458984375,-0.25979098677635193,0.3198533356189728,-0.1762247383594513,-0.17501772940158844,0.40960678458213806,-0.7394809722900391,0.11570767313241959,0.22530201077461243,-0.3607722222805023,0.5240170359611511,-0.15613889694213867,-0.14731666445732117,-0.028357701376080513,-0.41998133063316345,-0.22691957652568817,0.4525018632411957,0.05554011091589928,0.44027838110923767,-0.9149872064590454,-0.8550972938537598,-0.26601698994636536,-0.10647266358137131,0.1066027507185936,-0.06557345390319824,-0.2233797013759613,-0.34701454639434814,-0.521385908126831,-0.2812988758087158,-0.07923215627670288,0.42694440484046936,0.4570091664791107,0.5235801935195923,0.8195802569389343,0.4145844578742981,0.02674640528857708,0.27302515506744385,-0.535570502281189,-0.8923231363296509,0.22229361534118652,-0.1436837762594223,-0.21032369136810303,-0.31703317165374756,0.2428610473871231,0.20682033896446228,-0.4812247157096863,0.48318058252334595,-0.217626690864563,-0.5853452682495117,0.009337068535387516,-0.14435702562332153,0.5067850351333618,-0.3122160732746124,-0.1559680849313736,0.03784264624118805,0.21624499559402466,-0.10812961310148239,-0.5306723713874817,0.5137019753456116,-0.47293561697006226,-0.6724259853363037,0.20711231231689453,-0.022707268595695496,0.034709054976701736,-0.50425124168396,0.5275545120239258,0.10242744535207748,0.1598197966814041,-0.2610570788383484,-0.4625605642795563,-0.130046546459198,-0.5038948059082031,0.03218987584114075,-0.045261625200510025,-0.37933313846588135,-0.46121543645858765,-0.7666939496994019,0.5069672465324402,-1.0322530269622803,-0.2691667377948761,-0.04412462189793587,-0.27952954173088074,0.052751325070858,-0.2512703835964203,-0.4357510209083557,0.281983882188797,0.21899057924747467,-0.15628743171691895,-0.05623212456703186,0.9393103718757629,0.05663478001952171,-0.580905020236969,0.2971996068954468,0.21196946501731873,-0.3010440170764923,-0.42259374260902405,0.30269092321395874,0.8424410820007324,0.4688067138195038,-0.48746630549430847,0.23813912272453308,-0.044544558972120285,-0.4910848140716553,0.04111393913626671,-0.23556357622146606,-0.13093003630638123,-0.6046367883682251,0.4626617729663849,-0.1940138190984726,0.4523344039916992,-0.47722408175468445,0.13731814920902252,0.41477271914482117,-0.04675862938165665,0.07318024337291718,0.5613080859184265,-0.2342221736907959,-0.20216521620750427,-0.33538907766342163,-0.44829094409942627,-0.008995682001113892,0.05601778253912926,-0.5422664880752563,-0.3620918393135071,0.08694759756326675,-0.22750000655651093,0.08038382977247238,0.0991833359003067,-0.345784991979599,0.07874978333711624,0.3494097888469696,-0.20410078763961792,0.16118653118610382,0.39513373374938965,0.006529009900987148,0.2976793646812439,-0.4193672835826874,-0.2354176938533783,-0.4141739010810852,-0.1189025267958641,0.2979922890663147,0.13176782429218292,-0.40976861119270325,-0.042503416538238525,-0.7796869277954102,-0.2492750883102417,-0.30743664503097534,-0.11426050215959549,0.21202582120895386,0.054011065512895584,-0.21536220610141754,0.3832639157772064,0.5833854675292969,-0.3393058478832245,-0.3350452482700348,0.17251014709472656,-0.27923059463500977,-0.5846664905548096,-0.06740017980337143,-0.056648917496204376,-0.40936192870140076,-0.006879748310893774,0.31498855352401733,0.11322683840990067,0.676411509513855,0.3536311984062195,-0.2402694970369339,-0.3714592158794403,-0.17371153831481934,0.4676917493343353,0.18563392758369446,-0.06166713312268257,0.33353421092033386,-0.12785793840885162,-0.3278424143791199,-0.09895513951778412,0.03908216208219528,-0.4945198893547058,0.1409168541431427,-0.4205534756183624,-0.22121568024158478,0.523210883140564,-0.16254155337810516,-0.17964857816696167,-0.3062870502471924,0.15340083837509155,-0.477143257856369,0.6235961318016052,0.368350625038147,-0.03560510650277138,0.6501078605651855,-0.015854649245738983,0.27705931663513184,0.1502760797739029,0.20282083749771118,0.09729311615228653,-0.13529251515865326,-0.5937187671661377,1.078758716583252,0.5054944157600403,0.15110981464385986,-0.08918093889951706,-0.4487261176109314,-0.15191775560379028,0.37597474455833435,-0.39905282855033875,0.9893366694450378,-0.17657779157161713,0.04920407012104988,0.23693439364433289,-0.386653870344162,0.8003500699996948,-0.3678567707538605,0.7071285843849182,-0.0350581631064415,0.3658747375011444,0.0848199874162674,-0.172373428940773,-0.2568938732147217,-0.046412646770477295,-0.02017206698656082,0.24541819095611572,0.11722709238529205,0.3767315745353699,0.1488671451807022,0.32381758093833923,-0.705846905708313,-0.061228927224874496,-0.30338117480278015,-0.5534003376960754,-0.4430193603038788,0.16702800989151,0.4382597804069519,-0.3687320351600647,0.48691946268081665,-0.1312306523323059
