word,0,1,2,3,4,5,6,7,8,9,10,11,12,13,14,15,16,17,18,19,20,21,22,23,24,25,26,27,28,29,30,31,32,33,34,35,36,37,38,39,40,41,42,43,44,45,46,47,48,49,50,51,52,53,54,55,56,57,58,59,60,61,62,63,64,65,66,67,68,69,70,71,72,73,74,75,76,77,78,79,80,81,82,83,84,85,86,87,88,89,90,91,92,93,94,95,96,97,98,99,100,101,102,103,104,105,106,107,108,109,110,111,112,113,114,115,116,117,118,119,120,121,122,123,124,125,126,127,128,129,130,131,132,133,134,135,136,137,138,139,140,141,142,143,144,145,146,147,148,149,150,151,152,153,154,155,156,157,158,159,160,161,162,163,164,165,166,167,168,169,170,171,172,173,174,175,176,177,178,179,180,181,182,183,184,185,186,187,188,189,190,191,192,193,194,195,196,197,198,199,200,201,202,203,204,205,206,207,208,209,210,211,212,213,214,215,216,217,218,219,220,221,222,223,224,225,226,227,228,229,230,231,232,233,234,235,236,237,238,239,240,241,242,243,244,245,246,247,248,249,250,251,252,253,254,255,256,257,258,259,260,261,262,263,264,265,266,267,268,269,270,271,272,273,274,275,276,277,278,279,280,281,282,283,284,285,286,287,288,289,290,291,292,293,294,295,296,297,298,299
有限,0.16942158341407776,-0.06512527167797089,0.07292971014976501,-0.6610987186431885,-0.6928969621658325,0.8973075151443481,0.054041776806116104,-0.00902734138071537,-1.4301869869232178,0.49294957518577576,0.09014005959033966,-1.5945682525634766,-1.559178113937378,0.6885260343551636,0.818115234375,-1.2430509328842163,0.5151718854904175,1.1524057388305664,-3.064356803894043,0.183595672249794,-1.833223819732666,-1.4227150678634644,0.7375690340995789,-1.3437542915344238,-0.6310807466506958,-0.245535209774971,1.6512161493301392,0.700111448764801,0.09910759329795837,1.9968411922454834,0.8161906599998474,-0.07202185690402985,-2.33286714553833,0.00545550836250186,-0.8841197490692139,0.7955347895622253,0.20893248915672302,-1.4543414115905762,-1.0507943630218506,0.48563888669013977,-1.3766400814056396,0.31044435501098633,-0.010448208078742027,0.35879358649253845,-0.0912422388792038,-0.7824580073356628,-0.37229248881340027,-0.7095979452133179,-0.5233613848686218,0.36921340227127075,1.0807571411132812,-0.5923879146575928,0.839099645614624,1.025547742843628,-0.07456772774457932,-0.02542201243340969,0.04706741124391556,-0.0435924306511879,1.1823338270187378,0.612728476524353,-0.16366426646709442,1.069435715675354,-1.1899968385696411,0.522361159324646,-1.6043013334274292,1.4173486232757568,-0.5291233062744141,1.892253041267395,-1.954484224319458,-1.2902714014053345,-1.2467341423034668,0.34479212760925293,-0.8798553347587585,-1.300995945930481,-2.0956008434295654,-2.169034242630005,0.7303619384765625,2.7299575805664062,0.43610072135925293,-0.11284022033214569,-0.40023869276046753,0.6146726608276367,-1.3614084720611572,0.32530900835990906,1.4799853563308716,0.12814800441265106,1.7354445457458496,1.1549643278121948,0.7462526559829712,1.111411452293396,0.053904078900814056,1.2096679210662842,0.452779620885849,0.6408541202545166,0.4828711748123169,-1.8839105367660522,1.1862684488296509,-2.685683250427246,0.6432318687438965,-0.4131331145763397,-0.11180607229471207,-1.4316679239273071,-0.0554300993680954,-0.07360627502202988,-0.3079298138618469,0.9186857342720032,0.5092262625694275,-0.27743202447891235,-0.4570488929748535,0.045312974601984024,0.7335720062255859,0.12787681818008423,-0.15162868797779083,4.134822845458984,-0.7776005864143372,-1.1376389265060425,0.5437204241752625,0.008961444720625877,-0.10064805299043655,0.0965862050652504,1.803674578666687,-0.3460923135280609,-0.3888324499130249,1.4149504899978638,-1.686524748802185,-0.17562656104564667,0.46019744873046875,1.721789836883545,0.8667817711830139,-2.135141372680664,1.9424874782562256,-0.10317248106002808,1.100627064704895,-1.284649133682251,0.05399380251765251,-0.10709662735462189,1.5588451623916626,1.5275276899337769,0.6985862255096436,-0.6152611970901489,-2.730210304260254,-0.5464009642601013,-0.5953115820884705,-2.4865705966949463,1.9650214910507202,-0.181202232837677,-2.3962388038635254,0.6808063983917236,-0.8706993460655212,0.38464075326919556,-0.5949873328208923,0.4589639902114868,0.09602504968643188,3.0096490383148193,-1.4341517686843872,-1.0927941799163818,1.7700703144073486,-1.0447611808776855,-0.03101549670100212,-1.8708118200302124,-2.168394088745117,-0.2669205069541931,0.25634729862213135,-0.5674465298652649,2.216423273086548,0.06316546350717545,0.6634048819541931,0.012330452911555767,-0.27139636874198914,1.7472386360168457,0.40815117955207825,2.0028059482574463,1.7712386846542358,-0.4634692966938019,1.1498322486877441,1.5151158571243286,1.218669056892395,-1.0189781188964844,0.1516384333372116,0.4260079562664032,-3.0566210746765137,-2.3166921138763428,-0.12717720866203308,1.955505132675171,2.478219985961914,2.0531561374664307,-1.102224349975586,1.7497624158859253,-0.9605417847633362,0.1121455505490303,-0.12265374511480331,0.9205586314201355,-0.7906118631362915,-0.9648612141609192,0.3162153959274292,0.4807615578174591,1.272526741027832,-2.3543479442596436,0.5997664332389832,1.3521792888641357,0.27282336354255676,-1.5070171356201172,1.3732895851135254,-0.8169621229171753,-0.9523608684539795,-0.11389028280973434,-1.4340623617172241,1.4169639348983765,-0.05973568558692932,-0.7681958079338074,0.14290407299995422,-0.35582786798477173,0.5784952640533447,-0.6905293464660645,-2.0662474632263184,-1.255915641784668,1.6482782363891602,0.4089645743370056,-1.5821266174316406,0.7059963941574097,-0.4320295453071594,0.9829739332199097,0.6609529256820679,1.08469557762146,1.3329803943634033,0.5612181425094604,1.1186848878860474,1.033367395401001,0.4684494435787201,-1.6148290634155273,0.43970635533332825,-1.4996421337127686,0.426090806722641,0.15753772854804993,-1.503596544265747,-0.11923093348741531,-1.8198425769805908,0.8859982490539551,-0.36111360788345337,-0.832652747631073,-0.06536973267793655,-1.295903205871582,-0.21632467210292816,-1.2006276845932007,-1.053438425064087,2.1822211742401123,-1.1175787448883057,-1.139855146408081,-0.09151739627122879,-0.03717659041285515,-2.6079020500183105,0.029098335653543472,0.3540440797805786,1.1188182830810547,-3.0419414043426514,-0.30810487270355225,-2.2092363834381104,-1.466314673423767,0.3760662376880646,-0.3437899947166443,0.7331663966178894,-1.2374680042266846,-0.32293906807899475,1.1558828353881836,1.72787344455719,1.6845803260803223,0.8225079774856567,-1.8036037683486938,0.08631540089845657,-0.460424542427063,-0.49495720863342285,-0.6216268539428711,-0.5573642253875732,2.1217727661132812,-1.7262582778930664,0.41054847836494446,1.0902166366577148,0.4931304156780243,1.756047248840332,-1.0506010055541992,1.7984033823013306,2.488783597946167,-2.551173686981201,1.9968678951263428,0.10956477373838425,1.5769566297531128,1.5006511211395264,-0.8322759866714478,-1.8340137004852295,-1.2063051462173462,-1.7930660247802734,-2.1618940830230713,-0.4773688018321991,0.8504030704498291,-0.4529467523097992,0.5197076797485352,0.9622145295143127,-0.2127801924943924,1.3319368362426758,-0.07122354209423065
小学,-1.6216340065002441,1.1357026100158691,-0.04681162163615227,2.8688762187957764,1.2553642988204956,0.6939217448234558,-2.417482614517212,-0.28666776418685913,1.0223898887634277,0.7708308696746826,-0.3879251480102539,-0.9643115997314453,-2.380167245864868,-0.13681833446025848,-0.09251314401626587,0.8424403667449951,1.5324572324752808,-2.3263659477233887,-1.1366279125213623,-2.659470796585083,-1.3148753643035889,-1.7865444421768188,-1.4503825902938843,1.377656102180481,-1.327974796295166,0.16010335087776184,1.9102147817611694,1.0760340690612793,0.2189980149269104,-1.1661617755889893,1.5768736600875854,0.12534992396831512,0.8282188773155212,-0.3144223093986511,2.114445924758911,-1.5774675607681274,0.12412268668413162,-0.9996811151504517,-0.5777499079704285,1.83510160446167,3.0457699298858643,-0.25759822130203247,-1.6575905084609985,0.6617844104766846,0.1849772185087204,0.3303895592689514,0.8170790672302246,-0.0822136253118515,-0.2785817086696625,1.209273338317871,-0.3111008107662201,-0.38441795110702515,-0.6309140920639038,-1.1225857734680176,0.8046176433563232,-0.017372366040945053,-1.3544998168945312,0.29828158020973206,1.5134425163269043,1.4794567823410034,0.2795448303222656,0.024490779265761375,3.248558282852173,-1.5311046838760376,0.04946017637848854,1.9148396253585815,0.11752539128065109,-0.4526384472846985,0.5340813398361206,-0.6073797345161438,0.21998029947280884,1.638465404510498,-0.21908394992351532,-1.2145038843154907,0.6363247632980347,1.4720332622528076,-0.16872374713420868,-1.0839154720306396,-2.0340800285339355,1.4898332357406616,-2.2436094284057617,-1.2973426580429077,1.8683663606643677,1.3878750801086426,0.7893360257148743,-0.9020224809646606,0.6323698163032532,-0.9597191214561462,1.0790314674377441,0.15855321288108826,1.4845527410507202,0.08614303916692734,1.6138983964920044,1.1953173875808716,1.1459263563156128,-0.705970048904419,0.7056026458740234,1.2749578952789307,-1.1777287721633911,1.0843220949172974,2.1987526416778564,-0.6979203820228577,0.4766201674938202,1.119295358657837,0.42374861240386963,0.4662126898765564,0.475527286529541,-0.8749179840087891,0.7610214352607727,0.660737931728363,-0.8249874114990234,-0.7753494381904602,3.0468318462371826,-1.9026814699172974,1.255098581314087,1.6971938610076904,1.3639169931411743,-0.5982299447059631,1.7756670713424683,0.4577108919620514,0.3294254541397095,-0.3556719124317169,-0.11975356936454773,0.7255721688270569,-0.6094000339508057,2.67698335647583,1.272377848625183,-0.38234639167785645,0.9285531044006348,-0.6615758538246155,-0.24969293177127838,1.3372784852981567,0.8157811164855957,-0.7369764447212219,0.7849587202072144,-0.09824664145708084,0.04381299763917923,-0.2675771117210388,-1.4849402904510498,1.3843072652816772,0.31650063395500183,-0.753783106803894,0.7341223359107971,0.9192666411399841,-0.4784870743751526,-1.4947086572647095,-0.13397400081157684,-0.39170774817466736,-1.6191109418869019,0.06904713809490204,-0.2781752347946167,-0.2187948226928711,0.2199772298336029,3.119455099105835,1.693495273590088,-0.2486954778432846,2.150082588195801,-0.14201508462429047,-2.1375503540039062,0.031020427122712135,-1.7430075407028198,1.214918613433838,-0.8551561236381531,-0.5377565622329712,0.8244405388832092,-2.0496251583099365,0.3598114848136902,0.5867802500724792,0.5143492221832275,-0.0679054707288742,0.33282336592674255,-0.9310827255249023,1.7148100137710571,-0.7936213612556458,0.6688328385353088,1.9605004787445068,-1.9385801553726196,-2.164860725402832,2.1524205207824707,0.049972593784332275,1.368304967880249,0.9973586797714233,-0.4827171564102173,-2.553523063659668,-0.46478134393692017,-1.350441336631775,-1.3197654485702515,-1.8706663846969604,-1.1206759214401245,-0.06274355202913284,1.2779992818832397,0.08140125125646591,1.5261304378509521,-1.9490835666656494,-3.6883511543273926,-1.3696080446243286,1.3611160516738892,-0.837051272392273,-1.9367038011550903,0.6664106249809265,-0.41979414224624634,2.454688787460327,0.565639853477478,-1.0216096639633179,1.369736909866333,1.575979232788086,0.038056958466768265,3.7224507331848145,-2.349987745285034,0.03290275111794472,1.5061604976654053,1.2337350845336914,0.6520226001739502,-0.21291959285736084,0.9812041521072388,-0.24853651225566864,-1.5367498397827148,0.15573826432228088,-1.8050670623779297,1.4133429527282715,-0.16324825584888458,1.2088314294815063,1.2574139833450317,-1.248779296875,0.4167070984840393,0.9124965071678162,1.410232424736023,-0.29996442794799805,3.0426950454711914,1.1413582563400269,0.4613613784313202,-0.9589375257492065,0.2975350618362427,-3.2279136180877686,2.422248601913452,-0.2215680330991745,1.2207008600234985,-0.8670366406440735,2.048548460006714,-0.6075751781463623,-3.3610641956329346,-0.41273072361946106,2.924490451812744,1.0267307758331299,1.6141414642333984,-1.8703899383544922,0.992874026298523,0.08825647085905075,-0.4736205041408539,3.4255118370056152,-1.9763988256454468,0.2743445634841919,-1.2571855783462524,1.3377493619918823,-0.1270361840724945,1.5519437789916992,-1.26780366897583,0.4622149169445038,2.6206912994384766,0.31334489583969116,-0.13731372356414795,0.46903032064437866,0.8157709240913391,-4.210059642791748,-2.235557794570923,-2.0058541297912598,0.002138392301276326,0.7146074175834656,-0.2376265674829483,1.8945833444595337,-0.2006099671125412,-0.04763912409543991,0.9568342566490173,0.40382248163223267,2.1438052654266357,0.7987940907478333,4.491050720214844,2.9684746265411377,-1.0504964590072632,1.9549355506896973,-0.9422651529312134,0.4360027611255646,1.384230613708496,-1.2230710983276367,-0.926332950592041,-3.0073137283325195,-1.4922393560409546,-2.802224636077881,1.0011215209960938,-0.9039714336395264,-2.902865171432495,-1.2329537868499756,-0.3752037584781647,-2.4600019454956055,2.2203426361083984,-1.1675045490264893,2.24383544921875,0.37303125858306885,2.266130208969116,-1.2718377113342285
思考,1.9431383609771729,-1.973085641860962,2.104853630065918,0.664988100528717,-1.0313003063201904,2.3421950340270996,-0.6575004458427429,0.8766103982925415,2.2822296619415283,-1.0769786834716797,-1.4698981046676636,0.22523362934589386,-0.0006176523165777326,0.7046998739242554,-0.2716706395149231,0.883367121219635,0.8478403091430664,-0.011177527718245983,-2.113232374191284,-0.9248311519622803,-0.023610437288880348,0.3194844126701355,-0.518258273601532,-1.6882829666137695,0.46301591396331787,-0.5327234268188477,-0.719966471195221,-0.3152822256088257,-1.3740928173065186,0.4517693817615509,-0.5997318029403687,0.26659315824508667,-1.7458245754241943,1.4707528352737427,-1.119354248046875,-1.2341227531433105,-0.623393177986145,-1.08857262134552,0.9157688021659851,-0.4440552890300751,-1.1789182424545288,1.1664129495620728,-0.510056734085083,-1.6331182718276978,-0.222340926527977,1.0710926055908203,1.7756150960922241,-0.1153971403837204,-0.6235862374305725,-0.9712418913841248,0.09778042137622833,-1.5874431133270264,-0.616073489189148,0.48961517214775085,1.2440831661224365,-2.8828513622283936,-0.21827270090579987,-0.20908395946025848,-0.31860819458961487,0.9556063413619995,1.994145393371582,1.7887535095214844,-0.8616477847099304,0.5869174599647522,-1.6482259035110474,1.271081566810608,-0.34530115127563477,2.4402475357055664,-1.1987487077713013,0.5093854665756226,0.42655110359191895,1.3575375080108643,-1.16250741481781,-0.11895370483398438,-0.43118783831596375,1.8516476154327393,1.3105053901672363,0.23295919597148895,0.8585984706878662,-0.6983523964881897,-0.5587961673736572,-0.2850140929222107,-2.3685288429260254,0.62721186876297,-1.9999935626983643,0.363188236951828,1.0906239748001099,0.8416515588760376,-0.6960306167602539,0.6028315424919128,1.8225327730178833,2.670022487640381,1.3603445291519165,-1.345677375793457,-1.0835845470428467,-1.0355792045593262,-1.0082762241363525,-0.9858712553977966,-0.44551533460617065,-0.2742488980293274,0.9737452864646912,-1.390238881111145,1.0541788339614868,-0.5771097540855408,-1.3134708404541016,-0.33780667185783386,-0.18393519520759583,1.5587574243545532,0.012238078750669956,1.522247552871704,0.6154608726501465,-1.003637433052063,-1.1019965410232544,-0.43965181708335876,1.3077497482299805,0.605514645576477,-0.9718526005744934,-0.6325674653053284,-0.40017661452293396,-0.2920806407928467,2.910137414932251,-2.6502466201782227,1.2862563133239746,0.5005553364753723,0.8076742887496948,-0.7773752808570862,1.0011277198791504,1.3981513977050781,1.5088154077529907,0.7401043772697449,1.0160741806030273,0.05333532765507698,-0.10537028312683105,2.9415981769561768,-2.2725207805633545,-0.984978437423706,-0.2929866909980774,0.9871553182601929,0.7789747714996338,-1.3305282592773438,0.3103654682636261,1.835471272468567,2.173903703689575,-0.3532787263393402,0.8950067758560181,0.8103054761886597,-1.6987453699111938,-1.7803144454956055,-0.5100452303886414,0.04940810799598694,0.2513286769390106,-1.2595446109771729,-0.98499596118927,-0.3879537880420685,1.2266077995300293,-0.008843682706356049,-0.5774983167648315,1.6463991403579712,0.17159385979175568,-2.3268368244171143,-0.05480707809329033,-0.9202970266342163,1.678868055343628,0.11102227121591568,-0.2580054700374603,-1.9513680934906006,-0.04544280469417572,-0.3952926993370056,1.6818487644195557,0.2758820950984955,-0.9012932181358337,-0.5367437601089478,-0.1414252072572708,1.0262442827224731,1.9627132415771484,0.7679802775382996,-0.4657441973686218,-0.761826753616333,-1.032621145248413,-0.2545180022716522,-0.6323714256286621,-2.0376086235046387,0.45235541462898254,-1.8047730922698975,0.682320773601532,-0.23195119202136993,0.26435044407844543,0.07473218441009521,-0.41647613048553467,-0.3112984001636505,-0.15495754778385162,0.4834139347076416,-0.6505733728408813,0.493805855512619,-0.23336079716682434,-0.16849341988563538,0.7598206400871277,-0.18932005763053894,-1.1769275665283203,-0.2284536510705948,-1.2462247610092163,0.8006465435028076,-0.15291255712509155,-0.7353060841560364,-0.6388634443283081,1.1196613311767578,-1.2918896675109863,0.2386002391576767,-0.2176787406206131,-0.5510517358779907,-0.09599945694208145,0.536736786365509,-2.2933223247528076,2.0439255237579346,0.5841270089149475,-0.4639735221862793,1.319517731666565,0.7863202691078186,-1.5624085664749146,0.19903750717639923,0.473774254322052,1.2235480546951294,0.1299615502357483,1.2992874383926392,-0.4802834987640381,-1.3177083730697632,-1.412205457687378,1.346372127532959,0.545988917350769,0.8715248703956604,1.1326767206192017,-0.24607399106025696,1.1858164072036743,-0.9393308758735657,0.28459590673446655,-1.6358596086502075,2.062147617340088,-0.11921264231204987,-0.7856239676475525,2.565490245819092,1.240126371383667,1.0345436334609985,0.2712242305278778,-0.13726800680160522,-0.028532367199659348,-1.7471699714660645,0.13693715631961823,-1.2388664484024048,-0.972076952457428,2.6588852405548096,0.10459277033805847,-0.4323529005050659,0.0202981848269701,-1.0450395345687866,0.3662605881690979,-0.4190943241119385,-2.2186293601989746,0.12255857139825821,1.2763688564300537,-0.8529325127601624,-0.7189176082611084,-1.0808743238449097,-0.051582422107458115,1.0237596035003662,1.186739206314087,-1.6714378595352173,-0.9072505235671997,-0.890853762626648,-1.8091918230056763,0.5353007316589355,-1.566765308380127,-1.5000649690628052,0.622616708278656,0.7798384428024292,-0.6502388715744019,0.12126383185386658,-0.7861849665641785,1.5835858583450317,0.6618738770484924,1.0965192317962646,1.789417028427124,3.5354390144348145,-1.9233894348144531,0.7489466667175293,-1.727052927017212,0.9758144021034241,1.9563558101654053,1.1767573356628418,-0.43645361065864563,-1.7385311126708984,-1.4013937711715698,-1.4727115631103516,0.44603562355041504,-0.9877747893333435,1.3270132541656494,1.2870967388153076,-0.03402800112962723,-0.055458880960941315,-1.745951533317566,0.652496337890625
时间,-2.6645309925079346,0.3943699598312378,0.16826125979423523,0.6646074056625366,1.1297205686569214,-0.7877448201179504,-1.450906753540039,-0.9032617211341858,0.4518023133277893,-1.2016971111297607,-1.7702974081039429,0.058885373175144196,1.894898533821106,-2.3886666297912598,-1.6078877449035645,0.730568528175354,0.4532712996006012,1.4717992544174194,-0.8489404916763306,-0.7416463494300842,0.04318668320775032,-2.0208740234375,-0.3930165767669678,-2.4620676040649414,0.4161875545978546,-0.32537227869033813,0.4435163140296936,-0.8267783522605896,-0.1462722271680832,1.655860185623169,2.765029191970825,-0.12815137207508087,-1.2030082941055298,0.4283430576324463,1.891851782798767,0.07450637221336365,-1.570523738861084,0.24326306581497192,0.5707898736000061,0.524500846862793,-1.4036788940429688,2.0366790294647217,-1.1177629232406616,-0.07006044685840607,2.5766916275024414,-2.103898763656616,0.040375590324401855,1.0320066213607788,-2.3322627544403076,0.2719605267047882,-0.04558240994811058,1.4841437339782715,0.8396080732345581,-2.142827033996582,-0.6047760248184204,1.2363733053207397,0.8318868279457092,-0.49983352422714233,4.178799152374268,1.573355793952942,0.7600407600402832,2.0132808685302734,-0.004508527461439371,0.45179837942123413,0.2135930061340332,0.22911380231380463,-0.9853569269180298,2.5303215980529785,-1.383852243423462,-2.435418128967285,-0.9048078656196594,0.4207528233528137,0.2950691878795624,0.17856638133525848,0.4302104413509369,-0.3600888252258301,-0.9638335704803467,-2.739300489425659,0.9821472764015198,0.8328988552093506,-1.354491114616394,2.088200330734253,0.41294920444488525,1.8043403625488281,-0.17129941284656525,-1.2131747007369995,2.077362298965454,-0.5693401098251343,-1.9172111749649048,-1.3159469366073608,0.07398318499326706,0.2892723083496094,-0.6656520366668701,0.45858657360076904,-0.05131673067808151,-0.889452338218689,0.4423674941062927,2.125708818435669,-0.5150790810585022,0.3464466333389282,-0.057950060814619064,-1.4644612073898315,-0.8146582841873169,-1.3265178203582764,1.3621728420257568,-0.5884625911712646,3.097959041595459,1.5744794607162476,-1.7869654893875122,-0.8803890943527222,2.369586229324341,0.324017733335495,-2.9565365314483643,1.0533357858657837,1.698724627494812,-1.0840318202972412,2.5613932609558105,-1.3188085556030273,-3.0634541511535645,1.7277159690856934,0.729970395565033,0.8230185508728027,1.7490553855895996,-1.0600569248199463,-3.504082679748535,-2.7219226360321045,1.7365933656692505,1.1584467887878418,-0.03027380257844925,-1.8547307252883911,-2.2388696670532227,-2.3702619075775146,2.2903339862823486,3.288435459136963,0.8558756709098816,0.8728728294372559,-0.17903180420398712,1.4446121454238892,-0.0969075858592987,-2.85880184173584,-2.3869481086730957,0.5593727231025696,-0.9307988882064819,0.24664631485939026,0.46031445264816284,0.39606773853302,-1.7964650392532349,0.2038191705942154,-1.7156306505203247,-0.015724388882517815,0.30816662311553955,-0.9087591171264648,0.32127484679222107,1.0153908729553223,1.3581907749176025,0.8272945880889893,0.9229404330253601,0.5880540609359741,-0.8642358779907227,0.3540065586566925,-1.914044976234436,1.0449482202529907,1.399182915687561,0.3025471270084381,1.670731544494629,-0.229470357298851,-0.07035716623067856,0.7268279194831848,-1.7036888599395752,0.7024232745170593,1.7850899696350098,-1.056260347366333,-1.1532485485076904,-0.7737871408462524,1.7641103267669678,0.3918534815311432,-2.6196277141571045,0.20032450556755066,-0.7112743258476257,2.231623888015747,0.4068355858325958,-0.713798999786377,0.4437917172908783,0.6044673919677734,1.0833641290664673,0.3950214385986328,-0.7412645816802979,-0.1818712204694748,1.0874587297439575,-0.7477094531059265,0.07471659779548645,1.1730365753173828,-0.5115413069725037,0.039171237498521805,0.11572305113077164,-2.450028419494629,1.2979151010513306,-1.977832317352295,-0.5164037942886353,-0.1586541384458542,-0.6880544424057007,-1.7488062381744385,1.6957601308822632,0.7662920951843262,-0.08432871103286743,-0.12769275903701782,0.009517433121800423,1.108750820159912,-1.8710116147994995,1.6057664155960083,1.221679925918579,-1.3847920894622803,-0.40825846791267395,0.31734567880630493,0.4554126560688019,-0.1437101662158966,0.9874591827392578,2.05614972114563,-0.8291503190994263,-0.34251073002815247,-1.07489812374115,0.333827406167984,0.02014816366136074,1.1925691366195679,-0.2600362300872803,-1.2069265842437744,-0.8451099991798401,1.1615289449691772,-2.4005424976348877,-0.274942547082901,1.5890964269638062,0.5822190046310425,-1.0033284425735474,1.919202208518982,-0.25379884243011475,-0.41587668657302856,-3.322618007659912,0.9949071407318115,2.282440185546875,0.5199037194252014,1.9744322299957275,-1.016125202178955,-1.9303292036056519,1.5458978414535522,-1.1441186666488647,0.2141154706478119,-0.8733550310134888,-1.189849853515625,-2.639587879180908,1.3522487878799438,-1.263651967048645,-0.36934995651245117,1.4344990253448486,0.9770045876502991,-2.943080186843872,-1.9554308652877808,-1.004604458808899,-0.21699538826942444,1.637373447418213,-0.8598878979682922,-1.5615274906158447,-0.626078188419342,0.762543261051178,1.059510588645935,2.3233296871185303,0.43623974919319153,-1.9655263423919678,-1.538029670715332,-2.612941026687622,-1.7523443698883057,0.8515658378601074,0.1865641176700592,-0.5651699900627136,0.6645578742027283,-3.3458218574523926,0.11735239624977112,4.77231502532959,1.4448150396347046,0.43770450353622437,3.081328868865967,1.264341950416565,2.7251760959625244,-0.6281793713569641,-0.017262650653719902,-0.1157342717051506,0.0937141627073288,0.17281952500343323,-0.6726245284080505,-0.4446086585521698,-0.7094066739082336,0.47929733991622925,-0.3252199590206146,-0.4801265299320221,0.48828125,0.6800459623336792,2.0864357948303223,0.6150588393211365,-2.0058820247650146,0.8389161229133606,-1.419894814491272
手段,0.6279417276382446,-0.15561294555664062,1.8251776695251465,-0.809581458568573,0.922671377658844,-3.4775915145874023,-0.05142673850059509,-0.243785098195076,-0.924720048904419,-0.6578481197357178,1.3742268085479736,-1.0847129821777344,0.20541556179523468,-0.9115668535232544,-0.3730703294277191,-0.22790203988552094,1.9727991819381714,-0.3043256998062134,-1.004026174545288,-1.3608192205429077,0.48016324639320374,-2.101320505142212,1.3833982944488525,2.4611499309539795,0.6208904981613159,-0.9939552545547485,-1.9575259685516357,-0.807550847530365,0.6425044536590576,1.2134193181991577,-0.6713120937347412,-0.11453957110643387,-2.2749135494232178,0.6263836622238159,0.5404626727104187,0.9904296398162842,-1.6484289169311523,0.06158318743109703,-1.0142818689346313,1.2398182153701782,0.046792834997177124,-0.37922894954681396,-2.256744384765625,-2.320068359375,1.3746087551116943,0.5941669344902039,0.3323884606361389,2.228177785873413,-1.6100587844848633,-2.617690324783325,0.11634283512830734,0.5549692511558533,3.0525221824645996,1.7517728805541992,-1.349543809890747,0.7081804275512695,0.8072983026504517,0.4052240252494812,2.2703864574432373,-0.9140355587005615,0.33402401208877563,1.7207340002059937,-0.6638818383216858,0.8551633954048157,-3.1446006298065186,1.9289438724517822,1.0968875885009766,1.5700552463531494,-0.5710775852203369,-1.5589852333068848,-0.4335103929042816,-0.7987075448036194,-1.691473364830017,-1.0106959342956543,-0.2478562295436859,-0.2437458634376526,1.3427563905715942,0.5172247886657715,0.35064631700515747,-1.1084526777267456,0.6539536118507385,-0.44325897097587585,-2.0320041179656982,-0.4672093689441681,-0.8809258937835693,0.29675742983818054,0.4649595618247986,-0.9848170280456543,-0.7738267779350281,-0.16988258063793182,1.2506684064865112,1.0173894166946411,-0.013589102774858475,1.2797695398330688,-4.347437381744385,-1.7437599897384644,1.6981078386306763,1.7177019119262695,0.020114026963710785,-1.3868733644485474,0.911072850227356,0.7037084102630615,-0.2160002589225769,-1.1933789253234863,0.5570362210273743,2.1863744258880615,0.5511171221733093,1.4248234033584595,0.12866272032260895,1.671034812927246,-0.09894103556871414,-1.1738090515136719,-0.8843069672584534,-1.2974299192428589,-0.5543826818466187,-1.6256567239761353,1.7028157711029053,-0.4247470796108246,1.9532166719436646,1.6883615255355835,0.9496147036552429,-1.843990445137024,-0.8505895137786865,1.7364463806152344,0.8120505809783936,0.5974906086921692,-0.7941023707389832,1.9544740915298462,1.9719271659851074,-1.735916018486023,1.371516227722168,-0.2064008265733719,1.7360281944274902,1.8869242668151855,0.7271725535392761,-0.6560946702957153,0.007483182940632105,0.3708522319793701,1.4037073850631714,-0.3067634105682373,-0.42389610409736633,2.085679054260254,-1.9955631494522095,1.0385262966156006,0.16288472712039948,0.9226332902908325,-0.7773799300193787,-0.5339573621749878,-0.5909591913223267,-2.115169048309326,0.04807714372873306,-0.049594130367040634,-1.654187560081482,0.9134325385093689,0.992516040802002,-3.3485279083251953,0.3323952257633209,1.2773494720458984,-0.9052403569221497,-1.3507989645004272,2.314682960510254,-1.0420671701431274,0.3262866139411926,0.15779462456703186,0.8616034388542175,-1.9319851398468018,1.1954753398895264,1.034356951713562,-0.6407589912414551,2.5116591453552246,-1.2469298839569092,-0.5147640705108643,-0.4078938066959381,1.5194913148880005,1.0923526287078857,-0.43134742975234985,1.8166892528533936,-1.9649324417114258,-0.432057648897171,1.4866598844528198,-0.8734090328216553,-1.0042638778686523,-1.28109610080719,-1.4542779922485352,1.2097201347351074,0.2535375654697418,-0.3808646500110626,2.2367539405822754,-2.228670597076416,-0.8680882453918457,-0.4968331754207611,-1.1664073467254639,-1.148693323135376,2.181462287902832,-0.04641708359122276,-0.6010977625846863,0.7066848874092102,1.0106028318405151,1.2152866125106812,0.5495045781135559,-0.8146358728408813,-1.1005651950836182,0.6401113271713257,-1.5972495079040527,1.92794668674469,-0.48039665818214417,1.8388124704360962,-1.216205358505249,2.254356861114502,-1.8297779560089111,0.5202645659446716,-0.7875677943229675,0.2552773058414459,0.6664159297943115,-1.2044602632522583,-1.4847620725631714,-0.9245326519012451,1.6959154605865479,1.4250074625015259,-0.7006544470787048,-0.01276793610304594,0.7280956506729126,0.3088962435722351,-0.031452905386686325,1.4338473081588745,-2.02128529548645,0.33602574467658997,1.7078073024749756,-1.0948189496994019,-0.0848870575428009,-0.5453822016716003,1.4129842519760132,-0.21417078375816345,-1.2319854497909546,-1.7725077867507935,0.48838961124420166,2.213874578475952,0.5850977897644043,-0.07275430858135223,-0.9517394304275513,2.216778516769409,0.8592952489852905,0.3052327334880829,1.4036272764205933,-1.8166544437408447,-0.7939161062240601,-2.2079689502716064,0.5447399616241455,-0.767450749874115,-1.4286539554595947,-0.5230312347412109,0.4788675010204315,0.6514649987220764,0.4074374735355377,0.3481754958629608,-1.2316784858703613,-1.5187382698059082,0.3668667674064636,3.1989119052886963,-2.427762508392334,0.16270187497138977,-0.8265824317932129,1.237714409828186,-0.2029053121805191,0.24138417840003967,-0.057951923459768295,-1.235341191291809,-0.6411013007164001,-0.8950952291488647,-0.40126365423202515,2.1756043434143066,-1.926425576210022,-0.7452532649040222,0.9344475269317627,0.27809062600135803,-1.9234585762023926,-0.3672891855239868,-2.3907957077026367,1.0574488639831543,0.4830475151538849,2.003650188446045,-0.06381124258041382,-2.633882761001587,2.1965620517730713,-1.865896224975586,2.207648515701294,2.87876296043396,1.125746726989746,1.2914680242538452,-1.852871060371399,-1.3077011108398438,-2.3346359729766846,0.001531019457615912,0.3096013069152832,0.6071553230285645,0.4863013029098511,0.33261486887931824,-0.5993870496749878,0.24591873586177826,-1.1615170240402222
指出,1.9053316116333008,0.1719430387020111,0.9024267792701721,-0.5145768523216248,-1.5358331203460693,1.7626980543136597,0.03271501883864403,0.13776849210262299,-1.3939852714538574,-0.6018770337104797,-0.06587643176317215,-1.1556607484817505,-0.6762505769729614,0.5266723036766052,-1.6832854747772217,-0.7739428877830505,1.2268680334091187,0.8114801049232483,-1.581297516822815,-1.0529340505599976,-0.7954898476600647,-0.8012217283248901,-1.541147232055664,-1.992443561553955,-2.2715537548065186,-1.2249799966812134,-1.8783379793167114,-0.10133493691682816,1.1266967058181763,1.4440301656723022,-1.045731782913208,-2.544447422027588,-1.666595697402954,-0.17590074241161346,0.25218480825424194,-1.5068540573120117,-1.863000750541687,1.1677840948104858,1.6176156997680664,-1.6024824380874634,1.2318134307861328,0.4295130670070648,0.7995561957359314,-0.45942166447639465,-0.6081807613372803,-1.363036870956421,1.224342942237854,-1.084348440170288,1.2287330627441406,-3.054487705230713,-0.3134596049785614,0.2714419960975647,-0.5233638286590576,2.237924575805664,-0.864561140537262,0.8337830901145935,0.16667011380195618,0.17952680587768555,0.06539114564657211,-0.31600603461265564,0.14492979645729065,-0.42278826236724854,-0.31387391686439514,-0.01484487485140562,-0.13031186163425446,1.0244407653808594,1.1347236633300781,3.1422464847564697,-0.43399372696876526,0.30556720495224,1.526254653930664,-0.8560896515846252,-0.6441370844841003,-1.8200925588607788,0.9190449118614197,2.612455129623413,1.2696176767349243,1.1602399349212646,1.259049654006958,-1.4395334720611572,0.6940717101097107,0.19668065011501312,-0.2292489856481552,-0.18533949553966522,0.9621509909629822,0.3926399052143097,2.3292999267578125,3.5210137367248535,-0.03455492854118347,-0.9423612356185913,0.46485063433647156,1.0920838117599487,0.535058856010437,-0.803375780582428,-1.4553678035736084,-1.02107834815979,1.4088886976242065,0.9149252772331238,0.12747961282730103,-0.5140603184700012,-0.03532286733388901,0.8115763664245605,0.32350385189056396,2.095059394836426,-0.9597539901733398,-0.7638388872146606,-0.6568419933319092,0.6731595396995544,-1.6160966157913208,-1.8539953231811523,1.4915810823440552,-1.7820358276367188,-0.675895631313324,0.16811978816986084,0.6037915945053101,-2.2409191131591797,0.5250133275985718,-1.232225775718689,0.8293114304542542,0.3697025179862976,1.2607356309890747,-0.8350602388381958,0.10658129304647446,2.6080453395843506,-0.7317907810211182,-0.447549968957901,0.8735525012016296,-1.1249761581420898,-0.2928074300289154,1.936457633972168,-0.4390262961387634,1.153703212738037,-1.3218293190002441,-0.5686519145965576,1.4946666955947876,-0.20109812915325165,0.31750208139419556,0.010931995697319508,0.10899330675601959,-2.7377560138702393,1.460078239440918,1.3755820989608765,3.343071699142456,0.8040632009506226,0.7643204927444458,1.348000407218933,-1.0713655948638916,-0.2527923285961151,2.1119165420532227,-2.3510842323303223,1.1963529586791992,-1.5397785902023315,-0.9540677666664124,-0.2860337495803833,-1.4202110767364502,-0.2886480987071991,0.7925562262535095,0.897014856338501,-0.8531171083450317,-1.2589610815048218,-0.35295137763023376,-0.7127869129180908,0.20490942895412445,-2.448880672454834,2.140843391418457,0.8337648510932922,2.703683614730835,-1.3144177198410034,2.595703363418579,0.2568865418434143,0.9671757817268372,1.145783543586731,0.2715492844581604,0.6804565191268921,-0.5659271478652954,1.8831775188446045,0.5612798929214478,-0.17322483658790588,0.013176405802369118,-0.4230818748474121,-0.5343640446662903,-2.4541778564453125,0.6364361047744751,-0.5283147692680359,-0.9591770768165588,-0.5638522505760193,-1.8394032716751099,0.9034473896026611,0.14877796173095703,-0.4418571889400482,-1.250875473022461,-0.5125327706336975,2.5937397480010986,0.1175859346985817,0.911816418170929,-1.0542304515838623,-0.20298592746257782,-0.21952232718467712,-0.5155898928642273,-0.49298012256622314,0.2454862743616104,-2.157263994216919,0.0076892441138625145,0.3973199427127838,-0.1790858507156372,0.5887606143951416,-0.0029624179005622864,0.05902005732059479,-0.8166912794113159,1.8842427730560303,-0.7096994519233704,-0.10288922488689423,-0.28041839599609375,-0.5924459099769592,0.8428958654403687,-2.2294576168060303,0.7068557143211365,1.7284107208251953,-1.1894686222076416,1.0947202444076538,0.8230832815170288,1.6149749755859375,-0.44686996936798096,0.16515079140663147,-1.234020471572876,0.8831309676170349,-0.16101409494876862,0.7601226568222046,-1.966158390045166,1.478888988494873,-0.5460655689239502,-1.330636978149414,-0.8010409474372864,1.0492372512817383,-1.7038272619247437,0.5803912878036499,0.3007658123970032,-1.4568068981170654,-0.3355034291744232,-1.0365595817565918,0.2573660612106323,0.5819923281669617,0.038747720420360565,-0.8090378046035767,-1.8117680549621582,-0.201310396194458,-0.9634783864021301,1.5556066036224365,0.5024030208587646,-0.0780901089310646,-1.070813775062561,3.6298305988311768,-0.9146764874458313,0.7887240648269653,-0.6587666869163513,0.11975768208503723,-1.8544914722442627,-0.2769067585468292,-0.03610886633396149,0.33946990966796875,-1.5640467405319214,-0.45636287331581116,-2.4807028770446777,1.2405835390090942,0.12000744789838791,-0.32322418689727783,0.14792676270008087,-1.9556294679641724,-0.6159424185752869,-1.6361262798309326,0.2544890344142914,1.1139401197433472,-0.2747286260128021,1.6211185455322266,-1.401803970336914,-2.745023012161255,0.2621425688266754,-0.4500288665294647,0.047003213316202164,-1.1602483987808228,2.516378164291382,1.8436965942382812,-1.6778733730316162,0.40230152010917664,0.1144665777683258,0.45758137106895447,-0.22284221649169922,0.1830061376094818,-0.6899762153625488,-3.577160358428955,0.6831815838813782,-0.5587651133537292,-0.1336890161037445,-1.4467620849609375,0.6496998071670532,0.5153394341468811,-2.970918893814087,0.17943967878818512,-1.2622277736663818,-0.9802266359329224
掌握,-0.43893322348594666,-0.27158790826797485,-0.038671527057886124,-0.8902046084403992,-0.2131001204252243,0.11769168823957443,-0.8250459432601929,-0.2437124103307724,0.5866929292678833,-0.4352901577949524,-1.0545581579208374,0.5525867938995361,-2.043931484222412,-0.43984267115592957,-1.593467354774475,-1.4656375646591187,-1.4155445098876953,0.7253250479698181,-1.782414436340332,-0.8768884539604187,-0.3085305094718933,-0.3684629201889038,0.44937780499458313,0.17289210855960846,-0.7193491458892822,-1.9333785772323608,0.7335740327835083,-0.059096597135066986,-0.2860236167907715,0.5745931267738342,0.4588828384876251,0.43415841460227966,-0.6162086129188538,1.0199676752090454,-2.4006760120391846,-1.2025227546691895,0.7895879745483398,-1.220056176185608,-0.09747033566236496,-2.3189890384674072,-0.5510877966880798,-0.2704773247241974,0.4509401321411133,-1.508923888206482,-2.904435396194458,0.4853571951389313,1.4046376943588257,0.6477681994438171,-0.8025763034820557,-0.9226903915405273,1.7098976373672485,0.7890287637710571,0.04347634315490723,0.4311520755290985,-2.0808236598968506,-1.719092845916748,1.8710063695907593,-0.053360458463430405,0.15875600278377533,1.6758286952972412,-0.690610945224762,1.5534217357635498,1.3223199844360352,-1.1142573356628418,-0.38317349553108215,-0.6503903865814209,-1.062987208366394,1.1290842294692993,-0.9551364779472351,-0.5321133732795715,0.7056929469108582,-0.44984710216522217,0.028867142274975777,-1.6669949293136597,-0.9827645421028137,-1.069593906402588,2.048708915710449,1.4331350326538086,-0.36303308606147766,1.7291123867034912,-1.050290822982788,-1.183061122894287,-0.17763786017894745,-0.3809065520763397,0.5975040197372437,2.5939629077911377,0.6919904351234436,1.205277442932129,-0.3239630162715912,-0.02359556406736374,-0.8692144751548767,1.017714500427246,-2.3603076934814453,0.4428856670856476,-0.3977385461330414,-3.292318344116211,3.0949859619140625,-0.7748287320137024,1.2933627367019653,-0.28445541858673096,0.5897761583328247,0.8834785223007202,1.0382080078125,0.3770349323749542,1.1153128147125244,1.7872159481048584,-1.4461441040039062,1.1384341716766357,-0.9627826809883118,1.5736764669418335,1.4508299827575684,0.5691477060317993,0.27585265040397644,-1.9312725067138672,0.6103376746177673,-2.9105451107025146,-1.3725250959396362,0.9446426033973694,0.05295603349804878,0.0280147772282362,0.743792712688446,-2.142930507659912,1.0989700555801392,2.5378060340881348,1.111591100692749,1.535509705543518,1.588010311126709,0.27584317326545715,-1.1761378049850464,-1.3581780195236206,2.475473403930664,-0.7270689010620117,0.32369062304496765,2.9481959342956543,-0.6316850185394287,1.977278232574463,0.05604683607816696,1.3281816244125366,-1.0046145915985107,-0.17248721420764923,-0.19691704213619232,0.8731973767280579,1.9944361448287964,-1.4509170055389404,-1.6877162456512451,-0.18465541303157806,-0.7861971259117126,-0.6753333210945129,0.8190668821334839,-0.9398682713508606,0.0798608660697937,0.18938292562961578,-1.953943133354187,0.17646938562393188,-0.9996479153633118,0.09215579181909561,0.39773812890052795,0.7516735792160034,0.6578624248504639,-0.8228800892829895,-0.5602474808692932,1.7683629989624023,0.6097389459609985,-2.149057626724243,0.04581708088517189,-0.43943101167678833,0.6576933264732361,1.39415442943573,-1.6610143184661865,2.6947524547576904,-0.4658064842224121,0.6829701662063599,-1.1565219163894653,-0.27999377250671387,2.592186450958252,1.4242786169052124,1.316603422164917,-1.4711675643920898,-0.12139543890953064,1.1989535093307495,-1.2165699005126953,0.38271206617355347,1.4786055088043213,-1.1641873121261597,-0.20393294095993042,0.0630028024315834,-2.295034408569336,2.725836753845215,-0.32585039734840393,-1.8352131843566895,-1.1130270957946777,1.6747335195541382,-0.29268980026245117,0.8096036314964294,-0.14889587461948395,-0.9029871821403503,0.4871445298194885,-0.04306270182132721,0.14405511319637299,0.49905967712402344,0.8215014934539795,-2.256962299346924,1.4023351669311523,-0.27151188254356384,-0.6950064301490784,0.8690540194511414,0.9245862364768982,-0.16636285185813904,-0.3243913948535919,0.9075941443443298,-0.5415626168251038,-0.4700596332550049,-0.8547708988189697,1.2328569889068604,1.1078613996505737,-1.1731913089752197,1.3231524229049683,1.4296560287475586,-1.6163954734802246,-1.0863828659057617,2.082581043243408,-0.02828233689069748,2.204413414001465,0.6047013998031616,-1.9583746194839478,-1.3418371677398682,-0.12444731593132019,-1.3010847568511963,0.8640092015266418,-0.777382493019104,1.6932650804519653,1.139808177947998,0.8761314153671265,-0.28742364048957825,0.8216840028762817,0.12712210416793823,2.4360921382904053,-0.6002516150474548,-0.6335271000862122,1.5375572443008423,0.41648995876312256,0.5643435120582581,-0.7399498224258423,-0.9925976991653442,-1.0293381214141846,-1.8088855743408203,-1.1346089839935303,-0.516181468963623,0.5327476263046265,0.610530436038971,-2.556767225265503,0.5276517868041992,-0.09661845117807388,-1.9033710956573486,-1.6887280941009521,-1.7251789569854736,-2.59999418258667,-1.6019831895828247,-1.2306010723114014,-1.406585931777954,-1.6564714908599854,-0.7430886626243591,-0.7610155344009399,0.7502623796463013,-0.9564816951751709,-1.3639289140701294,-0.3285062611103058,-0.32166579365730286,0.6133900284767151,-1.8994594812393188,0.8825735449790955,-2.4156570434570312,0.4723304510116577,2.0487122535705566,0.8512577414512634,-0.2553764283657074,-0.40923166275024414,2.144749164581299,1.4586901664733887,-0.03587853163480759,2.020199775695801,3.1180877685546875,-0.8899036049842834,1.8319966793060303,-1.1550101041793823,1.7991516590118408,1.1977261304855347,0.5389299392700195,-2.0107133388519287,0.29309526085853577,0.775433361530304,-1.0391854047775269,1.2448976039886475,-0.7075815200805664,0.11619707942008972,-0.935904860496521,1.6751341819763184,2.132493257522583,-0.5930365920066833,0.1342976689338684
活动,0.6973558664321899,-0.5547929406166077,-0.7306469678878784,0.32302677631378174,-0.027027703821659088,-0.7379586696624756,0.25101780891418457,0.7382625937461853,-1.4980911016464233,0.9397255778312683,-0.05436062440276146,0.304447203874588,-1.1906650066375732,0.8887284398078918,-0.3907739520072937,0.430555522441864,0.10298185795545578,1.1113933324813843,-0.4010601341724396,-1.6795718669891357,-0.176511749625206,-0.39861512184143066,0.654542088508606,0.23624709248542786,-0.26349225640296936,0.6697050333023071,-0.9420489072799683,-1.185944676399231,-0.9954392910003662,1.048594355583191,1.7200483853230253e-05,1.662214756011963,0.25628262758255005,0.29649877548217773,0.14889904856681824,-1.0974793434143066,-0.18169090151786804,-1.5842336416244507,-1.4807932376861572,1.4776924848556519,-0.21861590445041656,-0.07686517387628555,-2.8071677684783936,0.05105976387858391,1.8277517557144165,-0.3891453444957733,-0.7087564468383789,-1.0784624814987183,0.36151355504989624,0.08522869646549225,1.3044837713241577,1.3856996297836304,-1.3112887144088745,0.9832689762115479,-1.1407915353775024,2.5428874492645264,0.7935662269592285,1.2049487829208374,0.9375579953193665,0.44756457209587097,3.1714043617248535,1.7411577701568604,1.1061080694198608,-1.753643274307251,0.4587269723415375,0.2654835879802704,0.4672929048538208,3.354322671890259,0.3959278166294098,0.49042388796806335,-1.4270738363265991,-0.18068720400333405,-0.6623400449752808,0.06988266110420227,1.3985778093338013,0.011325023137032986,0.4294683337211609,-0.09940604865550995,0.9959573149681091,-0.07656044512987137,-0.921405017375946,-1.4798439741134644,-0.5083328485488892,-1.3651015758514404,-2.5720787048339844,0.27177777886390686,1.5489383935928345,-0.9970067739486694,0.6630505323410034,-0.4325544238090515,0.39558184146881104,-1.3553539514541626,0.09248070418834686,-1.8062368631362915,-1.2312451601028442,1.1826010942459106,1.4960486888885498,0.909518301486969,-2.386103630065918,-0.9917325377464294,1.6880344152450562,-0.5886289477348328,-1.2239844799041748,0.03502320870757103,-0.5250980854034424,0.6422173976898193,0.9340927600860596,1.7091827392578125,0.14798200130462646,2.4844725131988525,-0.8197647333145142,-0.0391392819583416,-1.080418586730957,0.9136266708374023,1.1450868844985962,0.26661476492881775,2.7103798389434814,-0.8532262444496155,-0.8280075192451477,0.9035205841064453,1.2924140691757202,0.7429184913635254,0.43726876378059387,2.7460248470306396,-2.490151882171631,-0.11476685851812363,1.9457387924194336,1.211340069770813,0.770143449306488,-0.8038068413734436,0.15192700922489166,-0.44404685497283936,1.3709921836853027,-0.6566348075866699,0.12331002950668335,-0.0216608177870512,-0.6730939149856567,0.9524000287055969,0.4248708486557007,-0.907292902469635,-1.4236003160476685,-0.600575864315033,-0.7901430130004883,-0.0004203945863991976,0.4658246636390686,-1.5862553119659424,-0.8902965784072876,-0.23901620507240295,0.8254057765007019,0.9524396061897278,2.0862154960632324,-0.26318228244781494,0.5406019687652588,-0.8725627064704895,-1.867047905921936,-2.7011427879333496,0.23933915793895721,0.5145649909973145,0.692775547504425,-1.2235829830169678,0.8899691700935364,-0.23660480976104736,1.3226426839828491,1.0606964826583862,0.007365234196186066,-2.0775434970855713,-0.37799426913261414,-1.2051887512207031,0.7063518762588501,0.38629189133644104,0.3973262310028076,-0.4599379599094391,-0.2430628538131714,-1.227736234664917,0.8510672450065613,0.22619974613189697,0.158564954996109,0.6133748888969421,-0.19180577993392944,-2.3561599254608154,0.7233066558837891,-0.43272340297698975,0.24166575074195862,-1.1643160581588745,-1.8584022521972656,-0.3130989670753479,-0.2956486940383911,0.5809857845306396,0.07799655199050903,1.2238775491714478,-3.058598279953003,0.4250025153160095,1.392182469367981,1.3850808143615723,2.807558536529541,-0.8072486519813538,2.4180386066436768,0.022272173315286636,-0.12774528563022614,-1.4543201923370361,-1.3775378465652466,0.5174328684806824,0.6998860239982605,-0.5692355036735535,0.06450971215963364,-1.2975618839263916,1.7043709754943848,-0.7921848893165588,-0.5397086143493652,-0.2956087291240692,0.1870429664850235,-0.7893091440200806,-0.8210773468017578,0.11448833346366882,-1.0878393650054932,-1.4029518365859985,0.048164207488298416,1.7162063121795654,-0.3788072168827057,0.5400781035423279,0.07520058006048203,0.19757884740829468,-0.6508789658546448,-1.3505815267562866,1.5435504913330078,-1.6180040836334229,0.6381250619888306,-1.99338960647583,-0.4559590816497803,-0.6600975394248962,1.7781795263290405,-1.7865500450134277,-0.519709587097168,-1.0760077238082886,-0.833357036113739,2.894972801208496,-0.1580444872379303,0.969477117061615,2.5566399097442627,0.26863887906074524,2.5095009803771973,2.7444703578948975,0.2610439360141754,2.280194044113159,-0.5806736350059509,0.35545021295547485,1.0795671939849854,-0.6553329229354858,0.6429802179336548,1.1636263132095337,-0.9212931990623474,-4.908274173736572,-2.6111831665039062,1.5310406684875488,0.19890113174915314,-1.029541015625,-0.2776332199573517,0.8402979373931885,3.057818651199341,0.10334170609712601,2.6047465801239014,-1.8780313730239868,0.4737623929977417,0.4515104293823242,0.6935526132583618,1.378688931465149,-0.061136770993471146,-1.0063591003417969,-1.3369688987731934,-0.42522159218788147,-1.0699310302734375,-1.617724895477295,-0.3411923944950104,2.870706558227539,0.25940006971359253,0.5672967433929443,1.1068580150604248,-1.3352100849151611,-1.2305980920791626,0.07727557420730591,1.6211719512939453,-0.11532028764486313,-1.923586130142212,0.6090286374092102,0.17815692722797394,-0.33148670196533203,0.2839832305908203,-0.6407471299171448,-2.429072380065918,-2.7626821994781494,-0.9224432110786438,-1.380664348602295,-1.7862669229507446,1.0593153238296509,0.6244097948074341,-0.005310732871294022,0.4870125651359558,0.8839343786239624,-0.9839718341827393,-2.4807376861572266
教学方法,0.4609404504299164,-0.5924981236457825,0.5971502065658569,-0.01085340604186058,-0.3325802981853485,0.23052829504013062,-0.8419498801231384,0.40965184569358826,0.45259785652160645,-0.5302566885948181,-0.5160762071609497,-0.34292376041412354,-0.08235672861337662,0.6758225560188293,-0.38436365127563477,0.06044997274875641,0.40164169669151306,0.14944761991500854,-0.5298219919204712,-0.4944491684436798,-0.05702891945838928,-0.1272726058959961,0.050447382032871246,0.11797618865966797,0.0657748356461525,-0.6816945672035217,-0.24195727705955505,-0.32163006067276,0.009955444373190403,0.184915229678154,0.7073452472686768,0.28617069125175476,-0.7860742807388306,-0.38338109850883484,0.4112653434276581,-0.2451220452785492,-0.1936841756105423,-0.43774113059043884,-0.3714614510536194,0.14556936919689178,-0.10243595391511917,-0.237467959523201,-0.1719822883605957,0.12542296946048737,-0.016664311289787292,-0.07236219197511673,0.6197866201400757,0.03945237770676613,-0.4272928535938263,-0.30746766924858093,-0.46021637320518494,0.42070260643959045,0.31420356035232544,0.2146490514278412,0.20045843720436096,-0.2827168107032776,-0.6022741198539734,0.005210380535572767,0.6133303046226501,0.13409963250160217,0.06249552592635155,-0.03695724159479141,0.028827236965298653,-0.024866962805390358,-1.0382033586502075,0.4065997898578644,0.3689292371273041,0.5306349992752075,-0.15970969200134277,-0.4477463662624359,-0.5545249581336975,-0.136372372508049,0.20342758297920227,0.1615937054157257,0.24505168199539185,0.5054656863212585,0.07309214025735855,-0.042067088186740875,-0.028710173442959785,-0.11946587264537811,0.010509784333407879,-0.4319433867931366,-0.46247977018356323,-0.0065144882537424564,-0.34921008348464966,0.17385073006153107,-0.31437060236930847,-0.12614236772060394,0.41518765687942505,-0.3443194627761841,0.042066559195518494,-0.11984726041555405,0.27532926201820374,-0.2635175287723541,-0.5099365711212158,0.5074435472488403,0.5314135551452637,0.5464267730712891,-0.4777095317840576,-0.19582195580005646,0.19217555224895477,0.1908138394355774,-0.14600670337677002,0.3727574944496155,0.026210134848952293,0.1805850863456726,-0.18529656529426575,0.017796408385038376,-0.13061004877090454,0.18161705136299133,0.4330618381500244,-0.5376782417297363,0.3360319435596466,0.2075735479593277,-0.10974662005901337,-0.16213607788085938,0.535722553730011,-0.3414114713668823,-0.051270149648189545,-0.42139145731925964,0.0968143492937088,-0.2533610761165619,0.17447146773338318,0.38749152421951294,0.6403263807296753,0.03015786223113537,0.03338932618498802,0.6776222586631775,1.0491750240325928,-0.26973047852516174,0.3019287884235382,0.07824776321649551,0.4484262764453888,0.4459599256515503,-1.3527997732162476,-0.2377249151468277,-0.5398632287979126,-0.2080947458744049,0.5176207423210144,-0.4673752188682556,0.027809059247374535,0.04244759678840637,0.13887247443199158,-0.04022523760795593,0.2765998840332031,0.015497131273150444,-0.47563743591308594,0.40981554985046387,-0.4147035479545593,0.07812674343585968,0.10761558264493942,-0.02165847457945347,-0.41264134645462036,0.49685147404670715,0.7655722498893738,-0.42488205432891846,0.42649489641189575,0.12116111069917679,-0.7740553617477417,-0.38805681467056274,0.01696801744401455,-0.33155858516693115,0.02636066824197769,-0.3430878520011902,-0.06964506208896637,0.029218273237347603,0.6233752369880676,0.05346532166004181,0.21880340576171875,0.248228058218956,-0.6613367199897766,0.2489122599363327,-0.4171009361743927,0.4366406500339508,0.34284573793411255,0.36308208107948303,-0.4202793836593628,-0.5078828930854797,0.4612431824207306,-0.5738548636436462,-0.2354333996772766,-0.11870164424180984,-0.02093225158751011,-0.5686938166618347,0.2796975076198578,0.42457544803619385,-0.4766605496406555,0.07434404641389847,-0.5025327801704407,-0.051628876477479935,-0.6773834824562073,-0.18482521176338196,-0.23382891714572906,0.20554955303668976,-0.12664885818958282,-0.26858922839164734,0.2651836574077606,0.3422788083553314,-0.38074037432670593,0.3207699954509735,0.2457031011581421,0.3381217122077942,-0.021963143721222878,-0.6904307007789612,0.11935251951217651,0.3351539969444275,0.16731515526771545,0.4311341643333435,0.4586559236049652,0.1738290786743164,0.1364142745733261,0.11282642930746078,-0.341105580329895,0.32418787479400635,0.2949844002723694,-0.11395935714244843,0.1339312642812729,0.5749693512916565,0.2471858114004135,0.1932147592306137,0.2945127487182617,0.3322242796421051,0.0960831567645073,-0.009776562452316284,0.20356248319149017,0.18977192044258118,-0.03162327781319618,0.12597212195396423,0.07523582875728607,-0.1581123024225235,-0.46536844968795776,-0.928250789642334,0.49040067195892334,-0.3046863377094269,0.29167109727859497,-0.34393107891082764,0.6848074793815613,0.2569572925567627,0.09247609972953796,-0.11816460639238358,-0.11604411900043488,0.34525537490844727,-0.7421661615371704,0.5736075639724731,-0.6050423979759216,-0.8170074224472046,0.2781519591808319,-0.012655138969421387,-0.35116493701934814,-0.11816821247339249,-1.044337272644043,-0.024297550320625305,0.42606765031814575,-0.11473271250724792,0.2806839048862457,-0.2998301386833191,-0.781741201877594,0.6113796830177307,0.36377280950546265,-0.5110665559768677,0.06998883932828903,-0.5224820375442505,-0.02020091377198696,0.0570111908018589,-0.3905535340309143,-0.44320377707481384,-0.12830457091331482,-0.7218374609947205,0.13472381234169006,0.1693516969680786,0.07206893712282181,0.12660464644432068,0.750678300857544,0.43305888772010803,-0.4392413794994354,0.09938815981149673,0.10012856870889664,0.21440932154655457,-0.17816978693008423,-0.015512515790760517,0.5329309701919556,0.304479718208313,-0.13029436767101288,0.4203985631465912,-0.34059014916419983,-0.1815163642168045,0.5606021285057068,0.6884936094284058,-0.33449530601501465,-0.5172547698020935,-0.23619404435157776,-0.3979036509990692,0.03495527058839798,-0.25669941306114197,0.07242996245622635,0.0907609760761261,0.20827166736125946,-0.44648125767707825,-0.13936254382133484,-0.5212995409965515
发展,0.6984522342681885,0.9620286822319031,-0.07771451026201248,-0.9317935705184937,-2.5672528743743896,2.60931396484375,-2.4616806507110596,1.314682126045227,-1.1982098817825317,-1.361206293106079,-1.9274135828018188,-0.3858586549758911,-0.22540675103664398,1.719325065612793,-1.7745651006698608,-2.0921216011047363,-1.2159558534622192,0.3854042589664459,-4.1609272956848145,-2.762526035308838,-1.7438241243362427,-0.8941072225570679,0.07230883836746216,-0.7530167102813721,-0.9207749962806702,-1.8498286008834839,2.62998628616333,-0.8069405555725098,-2.262579917907715,2.2611865997314453,-0.6674798130989075,-0.05201151967048645,-0.6663395762443542,0.5489665865898132,-1.5857715606689453,0.3455279469490051,1.2443052530288696,-2.1204888820648193,-0.8159147500991821,0.91738361120224,-2.1844115257263184,0.4704054296016693,-0.6353783011436462,-1.3428477048873901,0.36126384139060974,-0.36957138776779175,1.1500253677368164,1.4885321855545044,-1.2095112800598145,-0.4639572501182556,-1.2034084796905518,-1.085219383239746,1.5184956789016724,-0.6157760620117188,-0.9967164993286133,-0.10375416278839111,0.28048330545425415,0.8339306116104126,3.217082977294922,-0.07481135427951813,1.6402698755264282,0.8198704719543457,-0.4192871153354645,-0.45632219314575195,0.7076954245567322,-1.240365743637085,-0.06842397153377533,3.390279531478882,-1.3413207530975342,-0.11424102634191513,0.02672670967876911,0.12962640821933746,0.46092745661735535,-2.5135796070098877,1.5646551847457886,-0.31712955236434937,3.8431990146636963,-0.7074496746063232,2.2938392162323,-0.1596451997756958,-0.02122039720416069,-0.6090794205665588,-0.438078910112381,-1.1586148738861084,-2.883767604827881,0.19009087979793549,0.6933789253234863,1.8372480869293213,0.5363370776176453,-1.404707431793213,-0.08545331656932831,-1.7921416759490967,0.6845552921295166,-1.1424695253372192,2.292389392852783,-1.214266061782837,0.7613411545753479,0.21755877137184143,-1.347183346748352,-1.2742124795913696,1.8035893440246582,-1.2819995880126953,0.022144807502627373,0.5604419112205505,-0.3496449887752533,0.09857654571533203,-0.04158008098602295,1.6436915397644043,0.02729090116918087,-1.47575843334198,-0.9485960602760315,-1.0315228700637817,0.3294544816017151,0.6403678059577942,-1.7580726146697998,-0.8214901089668274,-1.0554368495941162,-0.5536282658576965,1.4430164098739624,0.608594536781311,1.193893551826477,-0.620164692401886,-0.555184006690979,2.4117655754089355,0.10965300351381302,-0.456465482711792,-1.780765414237976,-0.160768061876297,0.42674559354782104,-2.183967351913452,3.16803240776062,-0.20500192046165466,-0.7085477113723755,1.3574904203414917,-1.1085575819015503,-3.083890914916992,-1.8180174827575684,0.015113076195120811,-1.9987573623657227,0.2624284029006958,-0.35915645956993103,1.276470422744751,2.0944995880126953,-2.813323974609375,-0.7141383290290833,-1.8440980911254883,-1.2934843301773071,-0.5135090947151184,1.0605525970458984,-1.0989562273025513,1.3935492038726807,0.7723259925842285,1.393210768699646,1.0945454835891724,0.594790518283844,-2.400315284729004,-0.9939393401145935,2.22407603263855,-0.8668687343597412,-0.718075156211853,1.0152018070220947,-0.8778760433197021,0.9841286540031433,-0.7627674341201782,-0.25235575437545776,-0.9258196949958801,0.9610621333122253,-2.7854745388031006,0.8493521213531494,-0.5183843970298767,0.734653651714325,-0.28349360823631287,-2.1378822326660156,-1.0639965534210205,0.3440816104412079,1.2477902173995972,0.21954815089702606,1.0473307371139526,1.2385249137878418,-1.7794400453567505,-1.8196916580200195,-0.6256288886070251,-1.7396409511566162,-1.1906001567840576,0.17688627541065216,1.0872009992599487,-0.483257919549942,-0.13446266949176788,-2.1016573905944824,-0.8136286735534668,-2.0870578289031982,0.02981572598218918,-0.2849528193473816,2.2730143070220947,-2.5965676307678223,-2.2331626415252686,0.6388393640518188,-1.9434239864349365,-0.4756630063056946,-3.035051107406616,-2.1804044246673584,-1.9396765232086182,-0.6862366795539856,0.9744060635566711,-1.0026452541351318,-1.802329421043396,0.9250505566596985,1.3654065132141113,0.1915065199136734,-1.4213966131210327,1.9175570011138916,0.06029735133051872,-1.5572774410247803,-1.1520814895629883,-0.21618948876857758,-1.2827976942062378,-0.9519076347351074,1.2520866394042969,-1.3687658309936523,0.7349910736083984,0.7107141017913818,0.6445398330688477,1.3160676956176758,2.093066692352295,-2.0965778827667236,0.7062849998474121,-0.8210261464118958,-2.248366355895996,-1.2996010780334473,-0.9341745972633362,-0.5623378753662109,-1.9364638328552246,1.350305438041687,2.1192357540130615,0.6245179176330566,0.764250636100769,1.110361933708191,0.35453253984451294,0.372996062040329,2.184525489807129,2.381645917892456,3.1912801265716553,-0.2425341159105301,-1.7395597696304321,-2.3945648670196533,-0.4295033812522888,0.9425807595252991,-0.21477924287319183,-2.015596389770508,0.061243459582328796,-2.6144344806671143,-0.318190336227417,-0.3380391597747803,-1.0839701890945435,-0.5570576786994934,-0.9474430680274963,-0.6397744417190552,-0.22498883306980133,1.121660828590393,-0.8432782888412476,0.11007394641637802,-0.011990310624241829,0.5245359539985657,0.367544561624527,0.4292471706867218,0.6911052465438843,-1.3085280656814575,-0.48572516441345215,-1.383840560913086,-0.28742438554763794,0.8580267429351807,-0.5327343940734863,0.9135420918464661,0.7721747756004333,-0.9491597414016724,0.21516886353492737,0.2114093005657196,1.482215404510498,-1.8805389404296875,0.4482146203517914,0.752055287361145,1.0441662073135376,-1.204243540763855,1.5204596519470215,0.36610665917396545,1.006812572479248,-1.7811185121536255,-1.833150863647461,-0.5646392107009888,-2.4444305896759033,-1.7437664270401,-2.3425354957580566,0.8112437725067139,-1.0901827812194824,1.6517841815948486,1.267886757850647,0.4883626699447632,-0.8632479310035706,-1.9288504123687744,-0.6344438195228577
有效性,0.3912268280982971,-0.7988191843032837,1.067946434020996,-0.39701828360557556,-0.570385217666626,0.6923421025276184,-0.5090466141700745,0.015403000637888908,0.0585305318236351,0.22336144745349884,-0.5038469433784485,0.08286258578300476,0.30098605155944824,0.8910134434700012,-1.41391921043396,-0.35575881600379944,0.20648418366909027,1.456568956375122,-1.9566726684570312,-0.47650206089019775,0.25298818945884705,-0.4048123061656952,0.4418371021747589,0.20114409923553467,-0.5635471940040588,0.20024339854717255,0.17021365463733673,-1.0828567743301392,0.37527361512184143,1.7645668983459473,-0.8930994272232056,0.21552684903144836,-1.0317652225494385,0.18183302879333496,-0.0662698745727539,-0.4611380696296692,-0.9863196015357971,-1.291245460510254,-1.7670278549194336,0.3854823708534241,0.01632247306406498,-0.5639044642448425,0.4151323139667511,-0.4242745339870453,0.3205399513244629,0.1267339289188385,1.0636893510818481,0.6686952114105225,-0.78397136926651,-0.8875300884246826,0.29219332337379456,0.9521279335021973,0.08784177154302597,-0.34297236800193787,-0.3271806240081787,0.3364458680152893,-0.34860262274742126,-0.29684048891067505,-0.07959139347076416,-0.9243040084838867,0.19627082347869873,-0.40790313482284546,-0.24886365234851837,-0.06266891211271286,-1.460071086883545,0.40510472655296326,-0.401503324508667,0.4008750021457672,0.03246045857667923,-1.0167468786239624,-0.3656454086303711,-0.13913951814174652,-0.6935597062110901,0.24677538871765137,0.43053293228149414,0.44145551323890686,0.1836657077074051,0.3047371506690979,0.5108528733253479,-0.17798320949077606,0.11730623245239258,0.642570436000824,0.23268699645996094,0.3014894127845764,-0.5056573152542114,-0.7295033931732178,-0.14580124616622925,2.0176644325256348,0.050817061215639114,-0.005681028123944998,-0.13702383637428284,0.1588687300682068,0.11598211526870728,0.4088813364505768,-0.23377752304077148,-0.08563625067472458,-0.114903524518013,1.109356164932251,-0.4232514500617981,-0.40214768052101135,0.18997958302497864,-0.5261411666870117,0.33304786682128906,-0.29743221402168274,-0.8096060752868652,-0.2541154623031616,0.17119291424751282,0.5758661031723022,-0.8584128618240356,0.16313813626766205,0.036964740604162216,-0.3255884051322937,-1.1944400072097778,1.3483977317810059,-0.1821398138999939,-0.09236366301774979,0.18520238995552063,-0.7267071008682251,0.22702008485794067,1.0333057641983032,1.1836446523666382,-1.2443369626998901,-0.15031573176383972,0.6423542499542236,0.6304332613945007,-0.35433900356292725,-0.11125563085079193,1.2431309223175049,0.5957305431365967,-0.4555147588253021,-0.9941826462745667,-0.12882934510707855,0.014873431995511055,-0.12467830628156662,-0.3923758864402771,-0.7115119099617004,1.0695966482162476,0.612573504447937,0.33114689588546753,-1.1061007976531982,-0.38873007893562317,0.16871103644371033,0.29637065529823303,0.20428015291690826,0.35338905453681946,0.5383003950119019,-0.5162461400032043,0.11139576137065887,0.28962746262550354,-0.040803417563438416,0.08820750564336777,0.17721302807331085,-0.5870340466499329,0.8677068948745728,-0.10369741171598434,-1.23637855052948,0.545141339302063,-0.15293793380260468,-1.3968381881713867,-0.7483282089233398,-0.38168787956237793,-0.17372620105743408,-0.011828657239675522,-0.9172417521476746,0.6702203750610352,0.02377849631011486,1.6163766384124756,-0.04667077213525772,0.8584339022636414,0.12668608129024506,-0.40169379115104675,0.02134232595562935,0.8069457411766052,0.5102733969688416,-0.005463434383273125,0.09038136899471283,0.676217257976532,0.41223955154418945,-0.3970996141433716,-0.3263263702392578,-0.6443607807159424,-1.0595262050628662,0.4616529643535614,-0.32362550497055054,0.8620772957801819,0.15216366946697235,-0.9493663311004639,0.8453413844108582,0.2299981713294983,-0.2930847704410553,-0.3630305528640747,-1.2782268524169922,0.011857178993523121,0.7181434631347656,0.30114981532096863,-0.2924397587776184,-0.17070604860782623,0.009038313291966915,-0.1509428769350052,0.4630679488182068,0.06110488250851631,-0.6136530637741089,0.055850643664598465,-0.2111174464225769,0.10791946202516556,0.9770478010177612,-0.12095894664525986,-0.051379650831222534,-0.28543156385421753,0.17837992310523987,-0.7249273657798767,-0.26086705923080444,-0.9267050623893738,-0.5830749273300171,-0.3591453433036804,-0.8073294758796692,0.8483383059501648,0.514684796333313,-0.9317063093185425,0.29954153299331665,0.8135517239570618,0.41645675897598267,-0.3232933282852173,-0.36661669611930847,0.44300729036331177,-0.1517549753189087,0.9014939069747925,1.1324834823608398,-0.35865119099617004,0.4233578145503998,-0.8765276074409485,-0.8483543395996094,0.7157980799674988,0.5923354029655457,-0.7010653018951416,-0.7646686434745789,0.24768021702766418,-0.13045634329319,-0.08108986169099808,-0.4912327826023102,0.9301161766052246,0.2694910764694214,0.045633841305971146,0.27709493041038513,-0.6230925917625427,-0.8845338225364685,0.10973476618528366,0.16375373303890228,-0.7161090970039368,-0.30546924471855164,-1.7072833776474,0.62156081199646,0.8764619827270508,-0.274978369474411,0.25349023938179016,0.37284332513809204,-0.8376070261001587,-0.312566876411438,0.21726110577583313,-1.4256105422973633,-0.7637237310409546,-0.4212323725223541,-0.6315761208534241,1.4339712858200073,-0.2753475308418274,0.07524453103542328,0.687763512134552,-0.3295402526855469,-0.039053283631801605,0.10161306709051132,0.22222350537776947,0.8282592296600342,0.08587660640478134,0.12376640737056732,-1.8983170986175537,-0.2247554063796997,0.35992565751075745,-0.6506718993186951,0.06870894879102707,0.019357308745384216,1.7381489276885986,0.2591148018836975,-1.2926548719406128,1.0382399559020996,0.5148483514785767,0.41618812084198,0.28673309087753296,0.6641749143600464,0.6043723225593567,-0.8915903568267822,-0.27900534868240356,-0.4470832049846649,1.0910539627075195,-0.30181464552879333,0.5396904945373535,0.9863921403884888,-0.10890242457389832,0.10982383787631989,-0.13531917333602905,-0.3590056896209717
学生,2.4274003505706787,0.6676017642021179,-0.3195067048072815,-1.5146596431732178,0.1727207750082016,1.452633261680603,-0.35073041915893555,1.008644461631775,0.4949832856655121,-0.45167276263237,-2.1444039344787598,-0.3783314526081085,-1.0853773355484009,2.07775616645813,0.0663750022649765,0.747175395488739,1.621368408203125,-2.252326488494873,-1.6297706365585327,-1.0349071025848389,-1.1834450960159302,-1.431551218032837,0.8203704953193665,-0.759503960609436,0.02453678846359253,0.3526619076728821,0.5756027698516846,0.6613054871559143,-0.07520250976085663,-0.32644376158714294,0.2907957434654236,-0.30388325452804565,0.27436545491218567,-0.359199583530426,-1.6898772716522217,0.6419627070426941,-2.4325668811798096,0.2887516915798187,2.1714417934417725,0.37906402349472046,-0.06127474829554558,0.21229419112205505,-3.430680751800537,0.33024197816848755,-0.14084962010383606,-0.8149098753929138,-0.8671942353248596,-0.8729926347732544,-0.03621916100382805,0.48681217432022095,0.09763206541538239,1.2205392122268677,-1.3339409828186035,0.7441984415054321,1.9624731540679932,-0.03607267886400223,-2.8759710788726807,1.9408135414123535,0.7206252217292786,-0.08380004018545151,0.40922555327415466,-0.15805502235889435,1.662166714668274,-0.3993189334869385,-2.2350826263427734,1.5327835083007812,-0.7549910545349121,0.9190800786018372,0.5022585391998291,-0.784062385559082,1.8431390523910522,1.435198187828064,0.9197763800621033,-0.42131611704826355,0.5060980916023254,1.5308856964111328,-0.534180760383606,-0.5038022994995117,-0.6170633435249329,0.14356011152267456,-2.041274070739746,-2.362490653991699,-1.5808595418930054,0.40731558203697205,-0.48636549711227417,-2.901843547821045,1.0781446695327759,-3.164966344833374,0.15329208970069885,-0.8078912496566772,0.38397035002708435,1.126283049583435,-0.01586245745420456,1.209523320198059,-0.37848588824272156,0.34678420424461365,1.6899408102035522,1.578308343887329,-1.876854658126831,0.055889204144477844,-0.8843470215797424,-0.668521523475647,0.7638744115829468,0.26817798614501953,-0.597614049911499,0.576040506362915,1.2288093566894531,2.9573206901550293,-0.6444916725158691,0.23549355566501617,1.538079857826233,-0.43627241253852844,0.6693174839019775,-2.284198522567749,0.13448697328567505,0.042224910110235214,1.3706817626953125,-1.169102668762207,-1.757171630859375,-0.07263399660587311,0.7780779600143433,0.5140701532363892,1.2674745321273804,0.4085436463356018,0.6037304997444153,-0.7883595824241638,2.3954904079437256,-0.23707064986228943,1.6373783349990845,1.0001896619796753,0.562788188457489,-0.9742347002029419,-0.4481993317604065,-0.056182801723480225,-2.136502742767334,-1.689730167388916,-2.1730844974517822,1.7363947629928589,0.44511017203330994,-1.7508620023727417,-2.797074794769287,-0.41656434535980225,0.39672765135765076,-2.286910057067871,1.9879189729690552,0.7612072229385376,0.13437700271606445,0.7754893898963928,0.9057824015617371,0.15532590448856354,0.5692418217658997,-1.5033637285232544,-0.5601193904876709,1.043440818786621,-0.20962855219841003,-1.0436861515045166,0.8785082697868347,2.7797374725341797,-1.032585859298706,2.1887001991271973,0.053801167756319046,0.2131766825914383,1.0246094465255737,0.20933963358402252,1.0006133317947388,-1.6735584735870361,-0.5782981514930725,1.5535640716552734,0.4844690263271332,0.018608365207910538,-1.0935451984405518,-0.11559233069419861,0.5918384194374084,0.003208573441952467,1.8467546701431274,2.1782267093658447,1.046303629875183,-6.0106377601623535,1.7313392162322998,-1.45237398147583,1.4665285348892212,1.3203774690628052,-0.2340497523546219,-1.4136765003204346,-0.548393189907074,-0.14942961931228638,-0.1644551306962967,1.0239700078964233,-1.2754729986190796,2.4089441299438477,-0.7169970870018005,2.4723644256591797,1.0431336164474487,0.24461878836154938,0.5014877915382385,-1.0546668767929077,-0.04700472205877304,-1.1307295560836792,1.4590728282928467,-1.9943195581436157,-0.029042458161711693,0.5150038003921509,0.6397930383682251,-1.71165931224823,0.8678264617919922,1.2070603370666504,0.54615318775177,2.854515552520752,0.13450992107391357,1.2517393827438354,0.48469531536102295,-1.6997957229614258,-2.0805094242095947,2.1596953868865967,-0.7763893008232117,0.36947229504585266,-1.145639181137085,2.305556058883667,-0.8955638408660889,1.0909830331802368,-1.2235560417175293,-0.5925915837287903,2.172325611114502,-1.4448062181472778,0.09258417785167694,0.36956629157066345,2.0883936882019043,0.05072967708110809,-0.5531234741210938,1.7853845357894897,-0.6914584636688232,-0.9332666397094727,0.7428682446479797,-0.1969345510005951,-0.19437727332115173,-0.978522539138794,1.9119282960891724,0.1945313662290573,1.8002924919128418,0.5811038017272949,-0.24054478108882904,1.4589593410491943,1.428706169128418,1.3905218839645386,-0.6275588274002075,-3.0655319690704346,-1.1372313499450684,0.22898542881011963,-0.9583989977836609,-0.08162616193294525,-1.8892325162887573,-0.5206745266914368,0.7584895491600037,2.5110411643981934,-1.2498198747634888,0.3903631865978241,-0.8482473492622375,1.1543269157409668,2.2539784908294678,-0.36745941638946533,0.8714079260826111,-0.3045040965080261,0.47036129236221313,-1.4577643871307373,-1.7240896224975586,0.10622632503509521,-0.9472326636314392,-1.2032448053359985,-0.026650166139006615,0.7330891489982605,0.48073920607566833,-1.0590051412582397,0.15348748862743378,2.988537311553955,0.7248193025588989,-0.26987937092781067,1.5153173208236694,0.04614045470952988,-0.08234784752130508,0.4004153609275818,0.453748494386673,0.05732385069131851,-0.44591447710990906,0.9957892298698425,0.22552943229675293,0.6784207820892334,1.3375217914581299,0.3143123686313629,-0.250425785779953,-0.6646475195884705,-1.6895644664764404,0.5086709260940552,-0.5711305141448975,-1.5816891193389893,2.4419519901275635,-1.3175716400146484,1.0456279516220093,-0.2966093122959137,0.38108667731285095,-0.7530199289321899
积极性,0.164566770195961,-0.4947924315929413,0.6516368985176086,-0.26665017008781433,-0.21474532783031464,0.8307484984397888,-0.20791178941726685,0.18844518065452576,-0.35340678691864014,-0.5216946601867676,-0.7137963771820068,0.3439979553222656,-0.24459898471832275,-0.10717363655567169,-1.3827441930770874,-0.14636799693107605,-0.056412842124700546,-0.18211108446121216,-0.3620677590370178,-0.9791966676712036,0.3003646731376648,-0.5109615921974182,0.15917474031448364,-0.24920569360256195,-0.3212718069553375,-1.054549217224121,-0.08209285140037537,-0.5148826241493225,-0.3543023467063904,0.7893465757369995,0.05795105919241905,-0.14415505528450012,-0.3981098532676697,-0.024507693946361542,-0.12051037698984146,-0.08704128861427307,-0.28460341691970825,-1.109816074371338,-0.12637871503829956,-0.6588396430015564,-0.09150493890047073,-0.7143745422363281,-0.29782190918922424,-0.003964216448366642,-0.08190795034170151,0.5429611802101135,-0.021918652579188347,-0.15481653809547424,-0.6995570063591003,0.11324145644903183,0.5118560194969177,0.053428832441568375,0.37747427821159363,0.1741897314786911,-0.22310368716716766,0.5197873115539551,-0.5821489691734314,0.5499380230903625,0.6461431980133057,-0.050619903951883316,-0.2203412503004074,-0.30813348293304443,0.4630998373031616,0.047154996544122696,-0.8555256724357605,0.7834874391555786,-0.19326014816761017,0.45659440755844116,0.2575992941856384,-0.6675089001655579,-0.23112013936042786,-1.024976372718811,-0.8901847004890442,-0.6271291375160217,0.2988564074039459,-0.15595979988574982,0.4587092101573944,0.3309500217437744,0.32766687870025635,0.14959850907325745,0.3769899606704712,-0.1326899230480194,-0.5752269625663757,0.025130808353424072,-0.5245984792709351,-0.1428295522928238,0.16199636459350586,-0.13474157452583313,0.021663088351488113,-0.06416486948728561,-0.05032224953174591,-0.0871519148349762,0.38176801800727844,0.18521207571029663,-0.5421749949455261,-0.17523768544197083,0.6290169358253479,0.33088937401771545,-0.6133723258972168,-0.2606121003627777,-0.0316152460873127,0.34622862935066223,-0.500891923904419,-0.7961757779121399,0.8232998251914978,0.4980112314224243,-0.7593063712120056,0.08829483389854431,0.41016948223114014,-0.6949384212493896,-0.20657122135162354,-0.04058543220162392,-0.15670962631702423,-0.37861692905426025,0.11116615682840347,0.47366055846214294,0.9116173386573792,-0.16029174625873566,-0.5371528267860413,-0.3326643407344818,-0.2945142984390259,-0.22013899683952332,0.03231070563197136,0.7576025128364563,-0.5506641268730164,0.25413602590560913,0.4483613669872284,0.5955590605735779,-0.08062385022640228,-0.8672598004341125,0.6486551761627197,0.5029994249343872,0.5742882490158081,0.22766678035259247,-0.6828091740608215,-0.14070358872413635,0.5694609880447388,-0.3398153781890869,-0.470401793718338,0.3411363363265991,0.24026034772396088,0.13657505810260773,-0.38785746693611145,-0.018247375264763832,0.6002833843231201,0.302401602268219,-1.1006497144699097,-0.18132007122039795,0.019463803619146347,-0.28390833735466003,0.04940183833241463,-0.43585851788520813,-0.8413599133491516,0.3748267590999603,-0.012380051426589489,-0.4304535388946533,0.6061912775039673,1.1111053228378296,0.09741180390119553,-0.7645989656448364,-0.42548561096191406,0.2532873749732971,0.42689377069473267,0.01749054342508316,0.49187996983528137,0.03878733515739441,0.7503834366798401,-1.0389952659606934,-0.11081723123788834,0.4051751494407654,-0.9016465544700623,-0.6518030166625977,-0.11436474323272705,0.42974579334259033,0.6583341360092163,0.8056553602218628,-0.30451700091362,-0.7143332958221436,0.18327784538269043,-0.2152882218360901,-0.4577482342720032,-0.05420451611280441,-0.3728017807006836,-0.35446134209632874,0.10727386176586151,0.471405953168869,-0.17092616856098175,0.8325005769729614,-0.4774238169193268,0.03886690363287926,-0.06779251992702484,0.08413257449865341,0.7400299906730652,0.14729033410549164,0.17557725310325623,-0.08322131633758545,-0.13426204025745392,-0.24547351896762848,0.17224259674549103,0.4417608678340912,-0.033127665519714355,0.2789084017276764,0.7634822726249695,-0.41567936539649963,0.48478302359580994,-0.07119587063789368,0.7768893241882324,-0.4486803710460663,0.6963505744934082,-0.5980324745178223,-0.43575242161750793,-0.4455055296421051,-0.5235533714294434,0.47021815180778503,-0.40538835525512695,0.34168741106987,0.4967265725135803,0.49255135655403137,-0.39892852306365967,-0.13758201897144318,0.10213787108659744,-0.032628193497657776,0.3482106029987335,-0.039911624044179916,-0.03893114626407623,-0.29544180631637573,0.7397165894508362,0.02527230605483055,-0.2874966263771057,0.5624425411224365,0.2931774854660034,-0.5592660307884216,0.45746803283691406,0.4497605562210083,-0.3595651686191559,-0.3185218870639801,0.10739240050315857,0.08862163126468658,-0.37751251459121704,0.023032793775200844,0.4655556380748749,0.4630931317806244,-0.8459922075271606,-0.05336321145296097,-0.9443381428718567,-0.14399783313274384,0.45857733488082886,-0.2178955227136612,-0.6089599132537842,0.006729831453412771,-0.6828909516334534,-0.3960118591785431,0.2297256886959076,0.558356761932373,0.6288009881973267,-0.20985157787799835,-0.3429288864135742,-0.12560929358005524,0.35186338424682617,-0.19331423938274384,0.15560463070869446,-0.15740075707435608,-0.16912393271923065,-0.09939775615930557,-0.1234501302242279,-0.6141279935836792,-0.3570455312728882,0.1951899379491806,-1.0321663618087769,-0.0220201276242733,-0.1543663740158081,-0.012623470276594162,-0.4340883791446686,0.08330796658992767,-0.5968095064163208,0.5543553829193115,0.168256014585495,0.5590583086013794,-0.13756291568279266,-1.0383979082107544,0.4860661029815674,0.35266396403312683,0.10767509043216705,0.10049649327993393,-0.02802846021950245,-0.37987402081489563,0.3216322362422943,0.20101113617420197,-0.4180684983730316,-1.2679654359817505,-0.32282504439353943,0.29305872321128845,-0.21899192035198212,-0.6936460137367249,-0.3445890247821808,-0.09261228889226913,0.24114133417606354,-0.004725809674710035,-0.31004494428634644,-0.8716537952423096
和谐,0.06978945434093475,-0.10981136560440063,1.9227267503738403,1.093433141708374,-1.7725132703781128,0.5791937708854675,-1.7850675582885742,-1.7336708307266235,0.49991270899772644,0.32370129227638245,1.2197054624557495,-2.5862927436828613,0.3416026830673218,1.7645074129104614,-0.18542791903018951,0.34325578808784485,-0.4206189513206482,0.3443816900253296,-1.3628761768341064,-0.2447003275156021,0.12465178221464157,0.056412745267152786,0.07873626798391342,-2.5245769023895264,-0.8641974925994873,-0.9705290198326111,-1.5552167892456055,-0.28309857845306396,-2.102297067642212,1.0457921028137207,0.9864621162414551,0.054536230862140656,0.5658591389656067,1.1015585660934448,1.1671442985534668,-0.6345947980880737,0.11298339068889618,-1.4477922916412354,-1.3459628820419312,1.7580327987670898,-0.989834725856781,0.3670787811279297,0.05216243863105774,-0.01763978600502014,0.38511425256729126,-0.039417658001184464,0.4528205990791321,0.19451437890529633,-0.18837589025497437,0.9377601146697998,-1.3493611812591553,-0.3972647786140442,-0.5847356915473938,2.2548680305480957,1.2389434576034546,-0.13952282071113586,-1.1979115009307861,-0.9493429064750671,1.031331181526184,-0.5836625695228577,0.6122846007347107,-0.10196931660175323,-0.6876946091651917,2.340064764022827,-0.307112455368042,1.769093632698059,-0.8946557641029358,-0.9908297657966614,-1.503332495689392,-2.8797764778137207,0.9351093173027039,0.4786950349807739,1.2211328744888306,-1.7821660041809082,0.6257901787757874,-0.2101525515317917,3.655648708343506,-2.303114652633667,1.4328525066375732,0.8088297843933105,-0.9719460010528564,1.2663494348526,1.312168836593628,-0.9371575713157654,-2.5422167778015137,-0.9523106813430786,1.6722489595413208,0.2204589545726776,-0.9847776889801025,0.42389824986457825,1.07472825050354,-0.8091466426849365,1.5897893905639648,0.7762344479560852,2.6171369552612305,-0.1258217990398407,1.0090992450714111,0.7450089454650879,-1.1147104501724243,-1.5031594038009644,-1.2317253351211548,0.32363593578338623,0.5670952796936035,1.8837624788284302,-0.5454148650169373,3.0545237064361572,-0.04757433384656906,3.2237281799316406,-1.831228494644165,-2.3115732669830322,0.19374391436576843,0.07316499948501587,-1.54562509059906,-0.9133736491203308,0.5739647746086121,2.1447412967681885,-0.627136766910553,2.660912275314331,-0.7261320352554321,-0.0009125545620918274,0.11867258697748184,0.26401495933532715,1.1494708061218262,0.27710819244384766,0.3573206067085266,-2.0023603439331055,-0.35630208253860474,0.8255037069320679,-0.052117906510829926,-0.10910539329051971,0.03915028274059296,-0.1873980462551117,-2.0127506256103516,1.4014623165130615,-1.0248490571975708,1.6214393377304077,-1.204860806465149,0.10338301211595535,-1.4344569444656372,-1.1741775274276733,0.07585101574659348,-0.10547400265932083,-1.0697277784347534,-2.1542932987213135,-0.20931623876094818,1.2883167266845703,-1.8292099237442017,1.9247499704360962,0.5058314800262451,-1.2091747522354126,1.678236961364746,-0.6203882098197937,-0.9040790796279907,1.8821147680282593,-0.42161861062049866,-1.8082832098007202,0.47097328305244446,0.9306235313415527,0.24599291384220123,0.32305896282196045,1.3643196821212769,-2.139604091644287,-1.4950730800628662,0.5800902247428894,0.3325634002685547,0.38933810591697693,0.44426456093788147,-1.0178592205047607,0.5803270936012268,-1.9798882007598877,-0.6823354959487915,1.0815284252166748,-1.6493078470230103,-0.0671769455075264,3.3974485397338867,1.9235585927963257,-1.8053219318389893,1.0985277891159058,1.53120756149292,-1.1959362030029297,-0.7207836508750916,-0.6461969614028931,-1.7246423959732056,1.1606848239898682,1.555539608001709,0.20152194797992706,-1.7902470827102661,-0.49019259214401245,-1.5464797019958496,-0.6319121718406677,-0.1918812096118927,-0.03947749733924866,-0.4170492887496948,1.1216373443603516,0.252249538898468,1.7121587991714478,1.0264523029327393,2.9506969451904297,-0.031327180564403534,0.9216887950897217,0.14906863868236542,1.2404826879501343,0.3406031131744385,0.6829885840415955,1.3406397104263306,-0.6712724566459656,1.9637174606323242,-0.554742157459259,0.642815351486206,-0.019458098337054253,-0.04565531015396118,1.5249661207199097,-0.4599818289279938,0.21311131119728088,0.10812265425920486,-0.5788376927375793,1.0800896883010864,0.7618995904922485,-0.8022413849830627,-0.6010134816169739,0.2688804268836975,0.6839608550071716,0.9407919645309448,-1.0884389877319336,0.7521714568138123,-0.171846404671669,0.5828357338905334,-1.0631405115127563,-1.1778743267059326,1.2127805948257446,2.2539753913879395,-0.07930849492549896,-0.07851060479879379,0.6894838213920593,-1.163680911064148,0.3383593261241913,2.3925185203552246,-0.6274213194847107,-0.35806789994239807,-0.10889536142349243,1.170945644378662,0.032607126981019974,0.8035270571708679,-2.3860526084899902,-1.10024893283844,2.187814474105835,-0.6000627279281616,0.19744576513767242,0.03563310205936432,0.23396100103855133,2.6592953205108643,0.8525624871253967,-0.9986366033554077,-0.8669016361236572,0.12203960865736008,-0.5086037516593933,-1.9540575742721558,0.8092572689056396,1.194494605064392,-0.2929406464099884,1.0009981393814087,-0.7194168567657471,-2.2521331310272217,0.12170618027448654,0.10148800164461136,-2.1807286739349365,0.5744947791099548,0.49132803082466125,0.1721542477607727,-1.3260828256607056,-0.8622696399688721,-0.2656667232513428,2.2333450317382812,-0.3898107409477234,1.4938368797302246,2.329233169555664,1.290992259979248,1.094752311706543,-0.0015677526826038957,1.8098489046096802,0.4586373269557953,0.9779191613197327,0.1772790253162384,-1.1857516765594482,-0.7818481922149658,-0.7624835968017578,2.3919804096221924,0.014635086990892887,-0.11477260291576385,-1.1432278156280518,-1.6841331720352173,-1.8181214332580566,-0.6880549788475037,-1.8063499927520752,-0.2074384242296219,0.7781845331192017,-1.2823859453201294,-1.7695139646530151,-0.2744761109352112,-1.6158732175827026
从事,-2.280802011489868,-0.7339078187942505,0.5152009129524231,-0.6354582905769348,-0.37008607387542725,-0.06683220714330673,-0.7127472162246704,1.0714508295059204,-1.9437144994735718,0.40404409170150757,0.31778305768966675,-0.7625005841255188,0.4920462965965271,0.8729920387268066,-1.8948410749435425,-0.7022934556007385,-1.2759259939193726,-1.8426858186721802,1.346802830696106,-1.2909209728240967,-0.4979588985443115,0.0722242221236229,-2.1649045944213867,2.2437584400177,0.05797923356294632,-0.8880638480186462,-0.21915645897388458,-3.0662147998809814,0.15617872774600983,-0.41985437273979187,0.5529760718345642,0.9939885139465332,-0.31018051505088806,0.3739560842514038,0.5838934183120728,-1.532711148262024,-0.3353032171726227,-0.6800969839096069,-0.4895293116569519,-1.5321449041366577,0.65240478515625,-0.0017363225342705846,-0.44571438431739807,0.5608878135681152,-4.790957927703857,0.19432497024536133,1.268430471420288,3.005733013153076,2.004456043243408,-1.7714569568634033,1.1988474130630493,-1.3690388202667236,-2.954000234603882,-0.3673592507839203,-1.4264676570892334,1.6922861337661743,-2.7644705772399902,0.9857155680656433,-0.6512752175331116,1.6026734113693237,1.1529279947280884,0.7401960492134094,1.946945071220398,-1.0841811895370483,-1.1190587282180786,0.4091147482395172,-0.7905712127685547,2.976663827896118,-0.24721762537956238,-0.9048790335655212,-1.198970913887024,2.840104341506958,0.14394883811473846,-0.043410107493400574,-0.47884276509284973,-0.03929318115115166,-0.8755062818527222,2.046255111694336,0.45834213495254517,-0.2053786963224411,2.7030367851257324,-0.6105709671974182,0.5357499718666077,-0.3625096380710602,-1.0601916313171387,1.0515241622924805,0.20848627388477325,-0.7776171565055847,-0.31590622663497925,-2.5325582027435303,-0.06284438073635101,-0.019511189311742783,-0.49951422214508057,-2.266512393951416,-0.13089652359485626,-2.906240463256836,1.406098484992981,-0.5154497623443604,-2.2713489532470703,-1.156901240348816,1.4789557456970215,-0.07404958456754684,-1.4541645050048828,0.5309895277023315,0.39396411180496216,-0.20718958973884583,0.5715507864952087,1.330562949180603,0.8027863502502441,1.587307333946228,0.1539444923400879,-0.6406537890434265,0.7835093140602112,-0.17704616487026215,-1.6808563470840454,-0.6350862979888916,0.8579301238059998,1.1484965085983276,-0.29761624336242676,1.4853007793426514,2.0777194499969482,-0.11762630939483643,0.8125218152999878,1.3345253467559814,0.23403802514076233,-0.3078181743621826,2.012693405151367,0.16774983704090118,1.9192091226577759,-1.4670512676239014,3.2803127765655518,4.2811994552612305,0.3267471194267273,-1.3140532970428467,0.5358244180679321,0.4693748354911804,-3.5292317867279053,-0.9536628127098083,0.13007360696792603,-0.7054523825645447,-2.378124713897705,1.272205114364624,1.841735601425171,0.009111178107559681,-0.5025936961174011,-1.5563989877700806,0.10424298793077469,-0.9483155012130737,0.6853816509246826,-2.1444690227508545,-0.3313305974006653,1.1540801525115967,-0.317553848028183,0.48634234070777893,-1.0146026611328125,-2.0139658451080322,0.9693132042884827,2.385530471801758,0.1287071406841278,-1.9042339324951172,2.2949156761169434,-0.46596673130989075,-0.06954611837863922,0.7230188846588135,0.6264832615852356,1.361036777496338,-1.7306135892868042,0.45654040575027466,2.966787576675415,-0.10774850100278854,1.3887029886245728,-1.5437885522842407,-1.4850764274597168,-0.3131125271320343,-0.296916127204895,1.7315244674682617,-1.0467076301574707,0.085778146982193,-1.6944737434387207,-2.710613489151001,-0.9340133666992188,0.11089356988668442,1.5365900993347168,0.1173986867070198,-3.231637716293335,-0.9156439304351807,-0.8131666779518127,2.620870351791382,-3.3891429901123047,0.8439057469367981,-1.9712824821472168,-0.1834457814693451,-0.47134485840797424,1.0153809785842896,1.8297154903411865,-2.9769418239593506,-0.5289362668991089,-1.6222275495529175,0.7813586592674255,-0.06708157062530518,-0.8542381525039673,-2.075854539871216,-0.7943969368934631,-0.2589229941368103,-2.2729084491729736,-2.4554269313812256,0.14310051500797272,-0.11108415573835373,0.22701920568943024,-2.7530417442321777,-1.2378849983215332,-3.397017002105713,0.32645609974861145,-0.2349713295698166,0.9889187216758728,-0.7155150771141052,-1.58750581741333,0.33986493945121765,0.6033262610435486,0.29293668270111084,-1.287482500076294,2.180776834487915,-0.8663506507873535,-1.1735095977783203,0.19109989702701569,-1.952447533607483,0.7286669611930847,-1.578604817390442,1.2845690250396729,-0.11692420393228531,-0.6533684730529785,-0.895463764667511,1.0313011407852173,1.367249608039856,1.2331582307815552,0.46925538778305054,-0.6272991895675659,-1.6771711111068726,0.5280366539955139,0.9296557903289795,0.8012630939483643,2.217520236968994,-2.1408872604370117,-0.8164198398590088,-1.5720865726470947,-0.3308551609516144,-0.60832279920578,-0.17481760680675507,-0.6242071390151978,0.3886312246322632,0.4728669226169586,0.7200138568878174,0.2646883726119995,0.017208494246006012,0.5718826055526733,-0.6159538626670837,-0.09896717220544815,0.8140637874603271,1.4633251428604126,-3.1241512298583984,0.8478516936302185,-3.51804780960083,2.2595112323760986,0.10794301331043243,0.6479966640472412,0.6209105253219604,-1.5644093751907349,-0.1679954081773758,0.7906911969184875,-0.04588347300887108,0.8171804547309875,-1.9524377584457397,1.7973791360855103,1.7066280841827393,-0.1421390175819397,-0.48558446764945984,0.43103453516960144,0.9870360493659973,-0.19737385213375092,-1.060141921043396,1.104460597038269,-1.1126261949539185,-1.3270210027694702,-2.6421923637390137,-1.0335441827774048,1.0140680074691772,-1.2795462608337402,2.3170650005340576,-0.6638855934143066,-1.860582947731018,1.4252283573150635,-1.8790949583053589,3.34419322013855,0.7822785973548889,-1.0416508913040161,-1.6046732664108276,3.5843801498413086,1.1163220405578613,1.0169614553451538,-1.3702689409255981
体验,-1.1511808633804321,-3.3450582027435303,0.16706304252147675,-2.4293441772460938,0.7486846446990967,2.0943470001220703,-0.7271660566329956,1.307054042816162,0.37951016426086426,0.34734275937080383,-1.6053332090377808,-0.08190314471721649,0.12887343764305115,0.7838174104690552,-2.775291919708252,-0.6545313000679016,-0.16152670979499817,-0.4670519530773163,-0.588570237159729,-1.0325735807418823,0.12702155113220215,0.6934564113616943,-0.5720109939575195,-1.2792973518371582,2.1764583587646484,-1.9330828189849854,0.007936537265777588,-1.7271817922592163,0.555972158908844,-0.157415509223938,1.8479924201965332,0.32289919257164,-1.0187814235687256,3.3831565380096436,0.04374614730477333,-1.5506654977798462,-1.1543710231781006,-2.0270884037017822,-0.5644938349723816,-0.6045830845832825,-0.28277042508125305,-0.38470345735549927,-2.724083662033081,-1.3389997482299805,1.0692888498306274,0.5346052050590515,0.490605890750885,0.8938617706298828,-1.566117525100708,1.9165674448013306,-2.4168155193328857,-0.7246092557907104,-1.34388267993927,-1.3429487943649292,0.4835454523563385,-0.27333930134773254,1.572997808456421,-1.3055068254470825,1.502392292022705,1.1532706022262573,2.081749677658081,0.36483675241470337,1.0929293632507324,0.07825949043035507,-1.4291683435440063,1.2710776329040527,0.4676051437854767,1.4413186311721802,0.03057112731039524,-0.9196105003356934,-0.49974870681762695,0.4890666902065277,-0.9403064250946045,1.058868408203125,0.9065766930580139,1.2324879169464111,3.71829891204834,-0.29178088903427124,0.6507335901260376,-0.6277250051498413,-0.4325922727584839,-0.629817545413971,-2.386709690093994,-1.9425687789916992,-0.22369830310344696,0.7566392421722412,1.6727488040924072,0.5399299263954163,-1.7055749893188477,0.25678136944770813,-1.6106764078140259,-1.1049054861068726,0.6830657720565796,-1.1168373823165894,-0.011434411630034447,1.0152390003204346,0.8615538477897644,1.5386149883270264,-0.0920877680182457,0.016884345561265945,0.8628999590873718,-1.9114230871200562,1.1243075132369995,1.5182143449783325,-0.538739800453186,-0.1271669566631317,-1.6822428703308105,-0.3363361656665802,0.5906018018722534,0.8418964147567749,0.8133686780929565,1.9104057550430298,-1.241966724395752,-0.42063993215560913,0.8189159035682678,0.2134048193693161,2.085587501525879,0.5225528478622437,-1.9179401397705078,0.12314802408218384,-0.5317466855049133,0.2723161280155182,2.247980833053589,-0.6406677961349487,-0.7142325043678284,-3.0842044353485107,0.4901201128959656,1.580782413482666,1.728264570236206,-1.3933550119400024,-1.6032135486602783,0.9542595148086548,1.0507463216781616,0.7244144678115845,-2.1395888328552246,0.92229163646698,-0.49136194586753845,1.9567214250564575,-0.2853398323059082,-1.1084271669387817,2.1947531700134277,0.15878382325172424,-1.2715727090835571,0.032145239412784576,0.4244711995124817,-2.165417194366455,-1.9393864870071411,-2.836459159851074,-0.4855162799358368,1.5801130533218384,-0.7601318359375,0.30830952525138855,-0.3897857367992401,1.1423804759979248,-0.043442994356155396,0.553087055683136,0.8808230757713318,1.1367709636688232,1.4991240501403809,-0.8858000636100769,1.7307738065719604,-0.5216349959373474,2.0400807857513428,0.3831438422203064,-0.7079480290412903,-0.9025522470474243,-0.9764515161514282,-1.544508934020996,-0.11514530330896378,0.9553323984146118,-0.936680793762207,-0.4736595153808594,-0.7074556946754456,-0.3534044921398163,2.2021548748016357,-0.06171424314379692,0.5594367384910583,-1.9207913875579834,0.1015535444021225,-1.0289056301116943,-1.458625078201294,-0.3742789328098297,-0.08518646657466888,-0.25751006603240967,-1.1709927320480347,1.5428204536437988,-0.09923429042100906,-1.7229728698730469,-1.2470309734344482,0.12403170019388199,-2.7538020610809326,0.02047722227871418,-0.042010772973299026,0.8430591821670532,-1.0341265201568604,-0.12729643285274506,1.0217570066452026,-0.18854539096355438,-2.4141623973846436,0.14051401615142822,-1.7910146713256836,0.758080780506134,1.3154287338256836,-0.1919248253107071,-0.6191207766532898,-1.5305099487304688,1.8788565397262573,0.23605617880821228,0.1596030592918396,1.8112603425979614,-0.825299084186554,-0.02950967848300934,-2.025418519973755,0.7986168265342712,-0.7648763656616211,-0.9117562770843506,-1.1916550397872925,0.8748929500579834,0.1111467108130455,0.2832498550415039,0.4971846342086792,1.3600010871887207,0.15200012922286987,-0.6298988461494446,0.2535332143306732,-0.4800575077533722,-1.6243290901184082,0.06964287906885147,-0.9113010764122009,2.219339609146118,0.1795344203710556,-0.5590943098068237,0.19632023572921753,-1.9225901365280151,-0.8134335279464722,1.3204023838043213,1.0318102836608887,0.4098021686077118,0.12988512217998505,0.1568574160337448,0.30384334921836853,0.7965409755706787,-1.3332912921905518,2.1245920658111572,-1.1293222904205322,-0.18787753582000732,0.1129164770245552,0.259105384349823,-0.9810919165611267,-1.9180594682693481,-0.15030266344547272,-1.5821897983551025,-0.8485661745071411,0.6907520294189453,1.8743456602096558,-0.11216948926448822,0.5724925398826599,1.1465860605239868,1.5495229959487915,0.34089425206184387,0.39417871832847595,0.31989195942878723,-0.9151387810707092,0.08766370266675949,-0.708545982837677,0.1343265175819397,-0.741392970085144,-1.025614857673645,1.2514561414718628,2.3941657543182373,-0.904076874256134,-0.9958982467651367,1.0386579036712646,0.3741237223148346,1.163753867149353,2.5095574855804443,1.1102718114852905,1.3944810628890991,2.5478317737579346,0.9236007332801819,0.7633514404296875,1.5067545175552368,-2.8086276054382324,-0.1555379182100296,-0.2569943368434906,-0.28227776288986206,1.420577049255371,0.36440029740333557,-0.0012027111370116472,-1.3465169668197632,-1.1814266443252563,-0.5074531435966492,-2.9838309288024902,-0.09194432199001312,1.3778207302093506,0.04213142767548561,-0.4874764382839203,-0.2920493483543396,-1.4689137935638428,-0.5289474129676819
