word,0,1,2,3,4,5,6,7,8,9,10,11,12,13,14,15,16,17,18,19,20,21,22,23,24,25,26,27,28,29,30,31,32,33,34,35,36,37,38,39,40,41,42,43,44,45,46,47,48,49,50,51,52,53,54,55,56,57,58,59,60,61,62,63,64,65,66,67,68,69,70,71,72,73,74,75,76,77,78,79,80,81,82,83,84,85,86,87,88,89,90,91,92,93,94,95,96,97,98,99,100,101,102,103,104,105,106,107,108,109,110,111,112,113,114,115,116,117,118,119,120,121,122,123,124,125,126,127,128,129,130,131,132,133,134,135,136,137,138,139,140,141,142,143,144,145,146,147,148,149,150,151,152,153,154,155,156,157,158,159,160,161,162,163,164,165,166,167,168,169,170,171,172,173,174,175,176,177,178,179,180,181,182,183,184,185,186,187,188,189,190,191,192,193,194,195,196,197,198,199,200,201,202,203,204,205,206,207,208,209,210,211,212,213,214,215,216,217,218,219,220,221,222,223,224,225,226,227,228,229,230,231,232,233,234,235,236,237,238,239,240,241,242,243,244,245,246,247,248,249,250,251,252,253,254,255,256,257,258,259,260,261,262,263,264,265,266,267,268,269,270,271,272,273,274,275,276,277,278,279,280,281,282,283,284,285,286,287,288,289,290,291,292,293,294,295,296,297,298,299
小学,-1.6216340065002441,1.1357026100158691,-0.04681162163615227,2.8688762187957764,1.2553642988204956,0.6939217448234558,-2.417482614517212,-0.28666776418685913,1.0223898887634277,0.7708308696746826,-0.3879251480102539,-0.9643115997314453,-2.380167245864868,-0.13681833446025848,-0.09251314401626587,0.8424403667449951,1.5324572324752808,-2.3263659477233887,-1.1366279125213623,-2.659470796585083,-1.3148753643035889,-1.7865444421768188,-1.4503825902938843,1.377656102180481,-1.327974796295166,0.16010335087776184,1.9102147817611694,1.0760340690612793,0.2189980149269104,-1.1661617755889893,1.5768736600875854,0.12534992396831512,0.8282188773155212,-0.3144223093986511,2.114445924758911,-1.5774675607681274,0.12412268668413162,-0.9996811151504517,-0.5777499079704285,1.83510160446167,3.0457699298858643,-0.25759822130203247,-1.6575905084609985,0.6617844104766846,0.1849772185087204,0.3303895592689514,0.8170790672302246,-0.0822136253118515,-0.2785817086696625,1.209273338317871,-0.3111008107662201,-0.38441795110702515,-0.6309140920639038,-1.1225857734680176,0.8046176433563232,-0.017372366040945053,-1.3544998168945312,0.29828158020973206,1.5134425163269043,1.4794567823410034,0.2795448303222656,0.024490779265761375,3.248558282852173,-1.5311046838760376,0.04946017637848854,1.9148396253585815,0.11752539128065109,-0.4526384472846985,0.5340813398361206,-0.6073797345161438,0.21998029947280884,1.638465404510498,-0.21908394992351532,-1.2145038843154907,0.6363247632980347,1.4720332622528076,-0.16872374713420868,-1.0839154720306396,-2.0340800285339355,1.4898332357406616,-2.2436094284057617,-1.2973426580429077,1.8683663606643677,1.3878750801086426,0.7893360257148743,-0.9020224809646606,0.6323698163032532,-0.9597191214561462,1.0790314674377441,0.15855321288108826,1.4845527410507202,0.08614303916692734,1.6138983964920044,1.1953173875808716,1.1459263563156128,-0.705970048904419,0.7056026458740234,1.2749578952789307,-1.1777287721633911,1.0843220949172974,2.1987526416778564,-0.6979203820228577,0.4766201674938202,1.119295358657837,0.42374861240386963,0.4662126898765564,0.475527286529541,-0.8749179840087891,0.7610214352607727,0.660737931728363,-0.8249874114990234,-0.7753494381904602,3.0468318462371826,-1.9026814699172974,1.255098581314087,1.6971938610076904,1.3639169931411743,-0.5982299447059631,1.7756670713424683,0.4577108919620514,0.3294254541397095,-0.3556719124317169,-0.11975356936454773,0.7255721688270569,-0.6094000339508057,2.67698335647583,1.272377848625183,-0.38234639167785645,0.9285531044006348,-0.6615758538246155,-0.24969293177127838,1.3372784852981567,0.8157811164855957,-0.7369764447212219,0.7849587202072144,-0.09824664145708084,0.04381299763917923,-0.2675771117210388,-1.4849402904510498,1.3843072652816772,0.31650063395500183,-0.753783106803894,0.7341223359107971,0.9192666411399841,-0.4784870743751526,-1.4947086572647095,-0.13397400081157684,-0.39170774817466736,-1.6191109418869019,0.06904713809490204,-0.2781752347946167,-0.2187948226928711,0.2199772298336029,3.119455099105835,1.693495273590088,-0.2486954778432846,2.150082588195801,-0.14201508462429047,-2.1375503540039062,0.031020427122712135,-1.7430075407028198,1.214918613433838,-0.8551561236381531,-0.5377565622329712,0.8244405388832092,-2.0496251583099365,0.3598114848136902,0.5867802500724792,0.5143492221832275,-0.0679054707288742,0.33282336592674255,-0.9310827255249023,1.7148100137710571,-0.7936213612556458,0.6688328385353088,1.9605004787445068,-1.9385801553726196,-2.164860725402832,2.1524205207824707,0.049972593784332275,1.368304967880249,0.9973586797714233,-0.4827171564102173,-2.553523063659668,-0.46478134393692017,-1.350441336631775,-1.3197654485702515,-1.8706663846969604,-1.1206759214401245,-0.06274355202913284,1.2779992818832397,0.08140125125646591,1.5261304378509521,-1.9490835666656494,-3.6883511543273926,-1.3696080446243286,1.3611160516738892,-0.837051272392273,-1.9367038011550903,0.6664106249809265,-0.41979414224624634,2.454688787460327,0.565639853477478,-1.0216096639633179,1.369736909866333,1.575979232788086,0.038056958466768265,3.7224507331848145,-2.349987745285034,0.03290275111794472,1.5061604976654053,1.2337350845336914,0.6520226001739502,-0.21291959285736084,0.9812041521072388,-0.24853651225566864,-1.5367498397827148,0.15573826432228088,-1.8050670623779297,1.4133429527282715,-0.16324825584888458,1.2088314294815063,1.2574139833450317,-1.248779296875,0.4167070984840393,0.9124965071678162,1.410232424736023,-0.29996442794799805,3.0426950454711914,1.1413582563400269,0.4613613784313202,-0.9589375257492065,0.2975350618362427,-3.2279136180877686,2.422248601913452,-0.2215680330991745,1.2207008600234985,-0.8670366406440735,2.048548460006714,-0.6075751781463623,-3.3610641956329346,-0.41273072361946106,2.924490451812744,1.0267307758331299,1.6141414642333984,-1.8703899383544922,0.992874026298523,0.08825647085905075,-0.4736205041408539,3.4255118370056152,-1.9763988256454468,0.2743445634841919,-1.2571855783462524,1.3377493619918823,-0.1270361840724945,1.5519437789916992,-1.26780366897583,0.4622149169445038,2.6206912994384766,0.31334489583969116,-0.13731372356414795,0.46903032064437866,0.8157709240913391,-4.210059642791748,-2.235557794570923,-2.0058541297912598,0.002138392301276326,0.7146074175834656,-0.2376265674829483,1.8945833444595337,-0.2006099671125412,-0.04763912409543991,0.9568342566490173,0.40382248163223267,2.1438052654266357,0.7987940907478333,4.491050720214844,2.9684746265411377,-1.0504964590072632,1.9549355506896973,-0.9422651529312134,0.4360027611255646,1.384230613708496,-1.2230710983276367,-0.926332950592041,-3.0073137283325195,-1.4922393560409546,-2.802224636077881,1.0011215209960938,-0.9039714336395264,-2.902865171432495,-1.2329537868499756,-0.3752037584781647,-2.4600019454956055,2.2203426361083984,-1.1675045490264893,2.24383544921875,0.37303125858306885,2.266130208969116,-1.2718377113342285
难免会,0.0873550996184349,0.03565308824181557,0.22665531933307648,-0.12086232006549835,-0.1573057323694229,-0.032169729471206665,0.2948303818702698,-0.1057625263929367,0.20147313177585602,-0.047973401844501495,-0.28856560587882996,0.03309788182377815,-0.03486819192767143,0.06339021772146225,-0.17270499467849731,-0.012818783521652222,0.037637483328580856,-0.055684011429548264,-0.023795725777745247,-0.07617729902267456,-0.07066487520933151,-0.056457776576280594,0.07794706523418427,-0.18188300728797913,-0.05078204721212387,-0.18062478303909302,-0.3154570460319519,0.027092529460787773,-0.057347699999809265,-0.3590124547481537,0.04224688559770584,0.02686125598847866,-0.14596869051456451,-0.1349322646856308,0.040684252977371216,-0.2275075763463974,0.12623050808906555,-0.20637091994285583,-0.10944577306509018,-0.05809338390827179,-0.1341567188501358,0.07919202744960785,0.10820705443620682,0.09568186104297638,0.10554899275302887,0.02536936290562153,0.07469058036804199,-0.0692601427435875,-0.02776649408042431,0.007033942267298698,0.3283763527870178,0.15437087416648865,0.20779217779636383,-0.04432869702577591,0.13582564890384674,0.2629152834415436,-0.2512359917163849,0.21131959557533264,0.0739821046590805,-0.023173561319708824,0.0989852026104927,0.2484944462776184,0.08490794152021408,0.09177665412425995,-0.20905457437038422,0.22997631132602692,-0.20204487442970276,0.17903098464012146,0.010445700958371162,-0.053516753017902374,0.05958529934287071,-0.0018647467950358987,-0.02835567109286785,-0.020684409886598587,0.06464006006717682,0.20261617004871368,0.2538977861404419,-0.08430007100105286,0.06032425910234451,0.10444557666778564,0.34343546628952026,-0.04991461709141731,-0.38592708110809326,-0.07422499358654022,-0.12416186928749084,-0.09653899073600769,0.1371864229440689,0.11770830303430557,0.13954448699951172,-0.020883668214082718,0.1820821762084961,-0.02406953275203705,-0.04815720021724701,-0.14676699042320251,-0.08390184491872787,0.15300066769123077,0.19199614226818085,0.15783357620239258,0.16932322084903717,-0.09998922049999237,0.17651070654392242,-0.13937750458717346,-0.16751644015312195,-0.19045259058475494,-0.08404231071472168,-0.013056629337370396,0.1508491188287735,-0.03986314311623573,0.4066554605960846,-0.040761400014162064,-0.165499746799469,-0.07758805900812149,0.050958167761564255,-0.015380900353193283,0.03462471440434456,-0.11357627063989639,0.08284460008144379,0.03172917291522026,-0.213972806930542,0.07525435090065002,0.21636883914470673,0.011722787283360958,-0.011168384924530983,-0.02537386678159237,-0.351494163274765,0.12261039763689041,0.10428230464458466,0.2146996110677719,-0.11493822187185287,0.23815985023975372,-0.005400293041020632,0.20325833559036255,0.23145832121372223,-0.24495099484920502,-0.1995738446712494,0.17942483723163605,0.19762621819972992,0.07836928963661194,-0.2310706377029419,0.21432244777679443,-0.12919355928897858,-0.05593520775437355,-0.0017110890476033092,0.1834617406129837,0.02451193332672119,0.14638102054595947,0.005241713020950556,-0.1042613610625267,-0.34581291675567627,0.06766902655363083,0.00125947839114815,-0.11862615495920181,0.08882147818803787,0.1643185317516327,-0.11242835223674774,0.020578570663928986,-0.07733898609876633,-0.011343928053975105,-0.27306485176086426,-0.24580053985118866,0.0027892303187400103,-0.10748689621686935,-0.2861013412475586,0.12749096751213074,-0.03221137821674347,0.07593663781881332,0.044614341109991074,0.019228043034672737,0.11846569925546646,-0.11199130117893219,-0.26835402846336365,0.061331622302532196,0.25051072239875793,0.09322922676801682,0.011777319014072418,0.10780767351388931,0.006990946363657713,-0.19348327815532684,0.11982352286577225,0.3377026319503784,-0.04626324027776718,-0.3532550632953644,-0.2515271008014679,0.11400169879198074,0.09742410480976105,0.06687586009502411,-0.14381636679172516,0.04491642117500305,-0.04223645105957985,0.3064053952693939,0.22404111921787262,-0.09814054518938065,0.18402183055877686,-0.12861591577529907,-0.09668536484241486,0.1584501713514328,-0.10888971388339996,0.00790034793317318,-0.01043081097304821,-0.09084802120923996,-0.18958643078804016,0.2801913321018219,-0.07742086797952652,0.06387066841125488,-0.12679468095302582,0.2727043032646179,-0.10510598868131638,0.07751181721687317,-0.29068493843078613,-0.035263702273368835,-0.13938401639461517,-0.017863096669316292,0.06580033898353577,-0.09800754487514496,-0.11414019763469696,-0.38700735569000244,0.12970289587974548,0.056238219141960144,-0.10047955811023712,0.29426309466362,-0.0733957588672638,-0.10898461937904358,0.06686200201511383,-0.11396980285644531,0.13912886381149292,-0.23591500520706177,0.1272806078195572,0.3505840003490448,-0.13337428867816925,0.35517531633377075,-0.0801960825920105,-0.10668698698282242,-0.11911654472351074,-0.0712076723575592,0.04867042601108551,-0.24424859881401062,0.09314046800136566,0.07100724428892136,0.07122524827718735,0.02555166929960251,0.2054431289434433,-0.0836239829659462,0.08209238946437836,-0.024172116070985794,-0.06787212193012238,-0.05465852841734886,0.05791904404759407,-0.02838796004652977,0.05371048301458359,-0.07722915709018707,-0.07824959605932236,0.1070094183087349,-0.025294650346040726,-0.0495225191116333,0.14591461420059204,-0.021980823948979378,-0.19638775289058685,-0.19303706288337708,0.2064097374677658,0.004829573445022106,0.003710465971380472,-0.012405384331941605,0.11829881370067596,0.25729259848594666,0.2878863215446472,-0.05650504678487778,-0.2207578420639038,0.07708657532930374,-0.22041060030460358,0.00714477663859725,-0.041895315051078796,-0.12562809884548187,-0.1367095559835434,0.19913506507873535,-0.23365020751953125,-0.12992198765277863,0.1569865196943283,-0.12684427201747894,0.005975695326924324,-0.006520881317555904,0.21113555133342743,0.08625318855047226,0.012484394945204258,0.03477048501372337,0.010718828067183495,-0.009841308929026127,-0.03605220094323158,-0.01293181162327528,0.12877851724624634,-0.14196212589740753,0.08707869797945023,0.07125338166952133,0.13387607038021088,0.007719528395682573,-0.2311541587114334,0.140040785074234,0.12625448405742645,-0.11232168972492218,-0.2671714127063751,0.16567213833332062
感觉,0.3180302381515503,-1.2702445983886719,-0.1904166042804718,-2.2917377948760986,0.7272900938987732,0.9799569845199585,-0.6201806664466858,1.019618034362793,1.647146463394165,-1.0327513217926025,-0.5243366956710815,-0.36545854806900024,-0.5890519618988037,-1.8076823949813843,-0.27886703610420227,-0.9100808501243591,1.3904008865356445,0.2008027881383896,-0.5728312730789185,-1.3432713747024536,-0.06784991919994354,-0.5012056231498718,0.6829007863998413,-1.4952691793441772,1.8712284564971924,-1.2606301307678223,0.2923208773136139,0.5493884086608887,-1.2895536422729492,-1.5528372526168823,1.3840583562850952,0.40546056628227234,-2.883333206176758,0.5293357968330383,1.3828555345535278,-0.7719582319259644,-3.0426952838897705,-1.0861074924468994,0.09478078037500381,0.9863883256912231,-1.703080415725708,0.21254995465278625,0.03519487753510475,-0.3383517265319824,0.4435940682888031,1.6607081890106201,1.8081880807876587,1.4909605979919434,0.37183496356010437,1.298877239227295,0.4599113464355469,0.06199447810649872,0.6728151440620422,1.3835992813110352,1.6437251567840576,0.2616223990917206,-0.5201882719993591,-0.8392505049705505,1.2627116441726685,-1.0902011394500732,0.4807016849517822,0.8818312883377075,-1.3152329921722412,0.1289697289466858,-2.5400428771972656,2.650015115737915,1.575029969215393,1.9404908418655396,-0.7673214673995972,0.4989766478538513,1.1330124139785767,0.33422523736953735,-0.6239932179450989,-0.43787333369255066,2.861239194869995,1.4713659286499023,3.210761785507202,0.5050403475761414,1.9575999975204468,-0.5149919986724854,0.2281266450881958,-1.479029893875122,-0.7269120812416077,-0.5747562050819397,-0.20277032256126404,-0.07883691042661667,3.591156005859375,2.1513192653656006,-2.288424015045166,0.05528732389211655,1.9203600883483887,-0.09231831133365631,-1.4896934032440186,0.3827701508998871,-0.48839032649993896,0.04599053040146828,3.240659236907959,-0.7905914783477783,2.6557652950286865,-0.20576786994934082,-0.5465357303619385,-1.2464443445205688,1.0479176044464111,1.0048871040344238,-1.2812025547027588,-0.2749459445476532,1.0784436464309692,0.4491617977619171,-0.13849329948425293,-0.9968032240867615,0.7135547399520874,-0.7410691976547241,-1.6237772703170776,-1.280824065208435,2.4832663536071777,-0.7131103873252869,-0.6702681183815002,0.23837096989154816,-2.1304712295532227,0.954190731048584,0.6088488698005676,-2.219057083129883,1.288543701171875,0.4269346594810486,-1.8011019229888916,-2.0304243564605713,0.029299691319465637,1.6939717531204224,0.7813959121704102,0.15511207282543182,-0.788407027721405,1.286873698234558,0.4680115282535553,0.24931380152702332,-0.6587948203086853,1.0758904218673706,0.4879339635372162,-0.2699766457080841,-0.1184506043791771,0.5129452347755432,1.9395661354064941,0.7092908620834351,0.644096314907074,-0.4551921486854553,-0.15506474673748016,0.18862085044384003,0.9797457456588745,-1.3960567712783813,-0.6687223315238953,-1.1362117528915405,-0.4959060847759247,-1.811714768409729,-1.4211137294769287,-0.01577494852244854,0.41735804080963135,-0.00714348629117012,0.7531430721282959,1.1274586915969849,-0.07519970834255219,-1.0523462295532227,1.7413228750228882,0.36328446865081787,0.16953986883163452,2.3837265968322754,1.1640894412994385,-1.5228513479232788,0.07356302440166473,-0.6151545643806458,-0.9283584356307983,0.9736998677253723,-3.1351277828216553,1.2821069955825806,-0.5941784977912903,-0.9547321200370789,1.5698328018188477,0.4269828200340271,1.1833374500274658,0.9044785499572754,-1.6521354913711548,1.049747347831726,-1.5414135456085205,-0.9241997599601746,-0.5814303159713745,-1.1892638206481934,-0.007096932735294104,-0.5300433039665222,1.1392549276351929,-0.06772013753652573,0.364510178565979,1.3254917860031128,-1.4621471166610718,1.0278611183166504,0.3707048296928406,-0.14240925014019012,-1.0222254991531372,0.16449928283691406,-1.4098073244094849,1.4489188194274902,0.7488479614257812,-1.389440894126892,-0.639092743396759,0.9208443760871887,0.6837083697319031,1.0825423002243042,-0.9899228811264038,1.358346939086914,-1.4498944282531738,-0.3922758102416992,0.4812784790992737,-0.23850902915000916,-2.06992506980896,0.49272337555885315,-1.6861025094985962,0.9831344485282898,1.3190727233886719,-1.4490869045257568,1.5000154972076416,1.2333670854568481,-0.7524670362472534,1.387209177017212,-1.7586063146591187,-0.6486095190048218,-0.025461798533797264,-1.101435899734497,0.2177879810333252,-0.3026812672615051,-1.8972101211547852,2.2040350437164307,-2.4443769454956055,3.5880672931671143,2.0045673847198486,0.45225417613983154,-0.1841898262500763,-0.9063742160797119,0.5502817630767822,0.3577127158641815,1.7262107133865356,0.9943198561668396,0.4630516767501831,0.2641379237174988,0.959764301776886,-1.2994861602783203,-0.550602376461029,2.6420881748199463,-1.086193561553955,0.2471943497657776,0.7671095132827759,0.9559265375137329,0.0917462557554245,0.9469503164291382,-0.1642119288444519,-0.23925438523292542,-0.5355269312858582,-0.07809830456972122,1.0514237880706787,-0.013425708748400211,-1.6627306938171387,1.2926737070083618,1.0075771808624268,0.39536935091018677,-0.7376770973205566,0.28892892599105835,1.328011155128479,0.36120089888572693,1.526352047920227,-2.371854066848755,-0.830323338508606,0.9048778414726257,-0.2872310280799866,1.0844683647155762,0.2737020254135132,-0.6885448098182678,0.04185564070940018,-0.1410634070634842,-1.0445735454559326,2.1530253887176514,0.0590696856379509,3.091165781021118,2.626032590866089,0.24524368345737457,2.7854373455047607,2.5922789573669434,-0.5174047350883484,0.1792803853750229,-0.12399744242429733,0.3394967019557953,-0.05329178646206856,-0.30331847071647644,1.155845046043396,-2.4330873489379883,-2.0527217388153076,0.013760684989392757,-0.7995852828025818,-0.797714352607727,1.2064241170883179,0.8513415455818176,-0.11573643237352371,-0.3980521857738495,0.128140389919281,-0.2930773198604584
难度,0.5050241947174072,1.642030954360962,-0.31400084495544434,-0.6415349245071411,0.15377390384674072,0.7907664775848389,-1.1481021642684937,-0.7419971823692322,2.831113338470459,-1.3215255737304688,-3.393786668777466,-0.3144252300262451,-1.4056980609893799,-0.19073590636253357,-0.8796045184135437,-2.2517850399017334,2.1191561222076416,-0.055937815457582474,-1.5356733798980713,-0.07133452594280243,0.09826824069023132,-2.6094493865966797,0.09785870462656021,-2.0362462997436523,-1.0564632415771484,-1.1304107904434204,-0.8251419067382812,-0.04537844657897949,0.4671253263950348,1.883571743965149,1.5012807846069336,0.4968595504760742,-1.8641701936721802,-0.69029301404953,-0.6201725602149963,-1.8021304607391357,0.4883768558502197,-1.7376790046691895,-1.8320435285568237,-1.1497173309326172,0.3573575019836426,-2.293320655822754,-1.6125580072402954,0.3880982995033264,0.01249465811997652,0.9160558581352234,1.3763904571533203,2.43631911277771,-2.856760025024414,0.20168818533420563,0.9959810376167297,-1.1694635152816772,-0.3777034878730774,-1.9745491743087769,1.952028751373291,3.85453462600708,-0.3385612964630127,-0.24443930387496948,1.0932906866073608,-2.0067319869995117,0.49624472856521606,-0.815028965473175,0.09612259268760681,1.2725101709365845,-1.422749400138855,2.2189595699310303,-0.5783279538154602,0.3691149353981018,0.979662299156189,-2.807497501373291,-2.962419033050537,0.8521113395690918,-0.48840636014938354,0.5349321365356445,0.24633827805519104,-1.4260221719741821,-0.515297532081604,-2.10929274559021,-0.6965743899345398,-0.9501549005508423,1.0535240173339844,-0.7368497252464294,-2.51371169090271,0.9713142514228821,-0.6479739546775818,0.7703851461410522,-0.48306992650032043,-1.1826971769332886,-0.0715099573135376,0.12908919155597687,-1.936792016029358,0.39490973949432373,-0.09633959084749222,1.1913803815841675,-1.0786378383636475,1.12068772315979,-0.2950352728366852,2.6932547092437744,0.7096496224403381,0.6727573275566101,0.9943258166313171,-1.0141521692276,0.30707529187202454,0.46858543157577515,-0.2396140694618225,-1.0590053796768188,0.7448586821556091,0.01101680938154459,-1.28006112575531,0.31314781308174133,0.6627631187438965,-1.5407556295394897,-1.1790436506271362,-0.7799497246742249,0.3169737756252289,0.05244588851928711,1.5390385389328003,-0.6375463604927063,0.2417934238910675,2.5793979167938232,-0.28401950001716614,0.5183789730072021,-0.40798354148864746,2.0189993381500244,-0.6550917625427246,-1.7680109739303589,2.3091297149658203,-0.8272382616996765,0.48978888988494873,-0.4325355589389801,1.79960298538208,-1.5349977016448975,3.433953046798706,3.4324071407318115,-1.3090438842773438,0.3216458261013031,2.9147896766662598,1.3647716045379639,-1.0135307312011719,-0.32968270778656006,0.754956841468811,2.0418567657470703,-0.3305854797363281,1.0765700340270996,1.950601577758789,0.38366368412971497,-1.8412142992019653,0.7810049057006836,-0.7865952849388123,-1.2037913799285889,-1.065838098526001,-1.9294650554656982,-2.41274356842041,2.2927379608154297,2.3855392932891846,-2.379277229309082,2.5700745582580566,-0.208365797996521,-1.5058887004852295,1.8279467821121216,-1.6773648262023926,-0.8893998861312866,4.821216106414795,0.19095854461193085,0.6206634640693665,-0.7982222437858582,-2.0726966857910156,-0.1335199475288391,-1.1410208940505981,-0.26033493876457214,-1.5890676975250244,0.5708889961242676,-0.5310075283050537,0.7059409022331238,-0.05851154029369354,1.962215781211853,2.1950912475585938,-0.8843587636947632,0.34681013226509094,1.4272968769073486,-0.5124797224998474,-0.623002827167511,-0.9189738631248474,-0.538569450378418,0.15651336312294006,1.787978172302246,-0.25429973006248474,0.4803466200828552,-0.053097426891326904,-0.41062381863594055,-1.3987001180648804,-0.20490336418151855,1.4719667434692383,1.145093560218811,1.1046088933944702,0.7292311191558838,-0.2638341188430786,0.2008475512266159,-1.331709861755371,3.3463354110717773,-0.38418105244636536,-0.49087101221084595,1.3760299682617188,0.5368710160255432,0.6147357821464539,-0.2311185747385025,-1.0186197757720947,-0.022773927077651024,-0.26849794387817383,0.5230227708816528,-2.6250011920928955,1.2800819873809814,-1.2319153547286987,0.745615541934967,-0.19206224381923676,-0.4946726858615875,0.9518492817878723,1.877899169921875,-0.41363364458084106,-0.8375188708305359,1.2891579866409302,-1.3546769618988037,-3.0082926750183105,-1.23100745677948,-1.0032932758331299,1.3196096420288086,-2.1676719188690186,-0.7019864320755005,-1.6651962995529175,0.49053439497947693,1.219439148902893,-0.10361730307340622,-0.32238587737083435,0.09021340310573578,-0.3581247627735138,-0.1166536957025528,-0.5627750754356384,0.057587843388319016,1.4572324752807617,0.7362653613090515,-0.03952011466026306,0.29305213689804077,0.37300077080726624,1.1768604516983032,-0.6620242595672607,-1.67966628074646,-1.5511510372161865,-2.257535934448242,0.9190776348114014,-1.313027262687683,-1.9254350662231445,-0.8136093616485596,-0.15120723843574524,-1.3414459228515625,1.4398677349090576,0.4494573473930359,-1.968482255935669,-0.01406867615878582,1.2011653184890747,1.2315330505371094,-1.5308568477630615,-0.43452295660972595,0.1446620374917984,-0.31755807995796204,0.6727578639984131,0.9475478529930115,-1.2321127653121948,-0.17984159290790558,1.9361684322357178,-1.1881706714630127,0.8315544128417969,1.7173125743865967,0.7640045881271362,-0.5812463164329529,-1.5741219520568848,1.7990981340408325,1.4146777391433716,0.3638591766357422,0.5909280776977539,-0.22303391993045807,1.7584868669509888,1.7711234092712402,0.1386238932609558,0.18985331058502197,1.384035587310791,1.6090526580810547,-0.6941095590591431,1.497114896774292,1.5251736640930176,-1.072684645652771,-0.5597705841064453,-1.0716328620910645,0.27954649925231934,-0.53142911195755,-0.7279500365257263,1.929332971572876,-0.6578775644302368,-1.5154370069503784,-1.7746326923370361,-2.67596435546875
人们,-0.2651914954185486,-1.229164958000183,-0.7141410708427429,-0.725202202796936,-0.5258778929710388,0.48923933506011963,0.771492063999176,-1.5012377500534058,0.26888617873191833,0.03326860070228577,0.5261391401290894,-1.5145772695541382,-1.8495776653289795,1.1103534698486328,-1.4511653184890747,-2.043776512145996,-0.24700026214122772,-0.9104433655738831,-1.1472545862197876,0.17456360161304474,-0.3637442886829376,-0.8714839220046997,0.06490765511989594,-0.8689485788345337,2.278911590576172,-0.7630261778831482,1.7762371301651,0.8223507404327393,-1.0593262910842896,1.2810665369033813,-0.3790525794029236,-1.9903032779693604,-1.529543161392212,0.02316424623131752,0.5673750042915344,1.5782712697982788,-0.6159622669219971,-0.741871178150177,0.2912271320819855,-0.4342656433582306,-1.4858518838882446,-1.084786295890808,-0.3535936772823334,-1.149098515510559,-1.0888900756835938,0.3667781352996826,0.6441368460655212,0.010106172412633896,-0.40994495153427124,-0.11694927513599396,1.063827395439148,2.699892520904541,0.12673749029636383,-0.9420965909957886,0.9191243648529053,0.4500778019428253,-0.9131230711936951,1.1436797380447388,0.7392350435256958,-2.3846590518951416,2.1865978240966797,1.4771831035614014,1.0333775281906128,-0.7152111530303955,-3.057265043258667,2.056722402572632,-0.34057942032814026,1.454002022743225,-0.8304581046104431,-0.24563536047935486,1.1101702451705933,-0.297299861907959,-2.007146120071411,1.3846160173416138,0.630561351776123,-0.538920521736145,-0.0929572731256485,-0.4009586572647095,-0.05847363919019699,-0.5620678663253784,1.5769140720367432,-1.1800339221954346,-1.0149095058441162,-0.8623737096786499,-0.9787265658378601,-1.6607156991958618,2.005488395690918,0.6187756657600403,0.2319852113723755,-0.4487498998641968,0.9741552472114563,2.4820921421051025,0.8148151636123657,0.6142535209655762,-0.07914083451032639,-0.40651729702949524,-0.14209342002868652,0.7096530795097351,-0.18343579769134521,-1.428422212600708,-0.3079681396484375,-0.8604997396469116,0.7439426779747009,0.25663214921951294,-1.5297791957855225,0.4121370017528534,-0.4659941494464874,2.2412614822387695,-0.6244305968284607,-0.3803662359714508,0.4741366505622864,-0.6693996787071228,-0.4571186900138855,-0.01816221885383129,1.8573482036590576,-0.44939905405044556,-0.2586832642555237,1.497542142868042,-0.12368114292621613,1.3177140951156616,-0.09770751744508743,-2.4545164108276367,2.0321438312530518,0.17991851270198822,-0.22083328664302826,-1.124350905418396,1.379578709602356,3.199552059173584,0.8014562726020813,-0.2871924042701721,0.023898134008049965,-1.1982256174087524,0.013949345797300339,0.2370164692401886,-2.809934377670288,0.753264844417572,-1.6674795150756836,-0.20098771154880524,0.03138257563114166,-1.5880407094955444,0.948028028011322,1.380748987197876,-1.273707628250122,-2.3794431686401367,0.2537737488746643,-1.2352015972137451,-0.7475184202194214,-0.5038198828697205,-2.4180681705474854,0.7120952010154724,-0.686826765537262,0.21381646394729614,-0.16020268201828003,1.450617790222168,0.3847801983356476,-2.2685811519622803,-0.31064796447753906,0.7652040719985962,-2.0774834156036377,0.6888960599899292,0.2556406855583191,1.6663495302200317,-0.1681859940290451,0.23235000669956207,1.450200080871582,-1.995871901512146,0.5616545081138611,0.9206970930099487,1.6596184968948364,0.8287833333015442,-1.7545907497406006,-1.6721080541610718,0.07685089111328125,0.6148002743721008,0.34999576210975647,1.585159420967102,-0.13238820433616638,-0.31861189007759094,1.1224125623703003,-0.4454419016838074,-1.5994811058044434,-1.528721570968628,-1.351718544960022,1.264805793762207,0.2541450560092926,1.3604485988616943,0.3037201464176178,-0.13590604066848755,0.2858360707759857,1.1658529043197632,0.9760692715644836,-0.3738451302051544,0.9366305470466614,-0.34180739521980286,2.264185905456543,1.8079293966293335,-0.5987316370010376,-0.5113999247550964,-0.789597749710083,-2.36800217628479,-3.472374677658081,-1.076434850692749,0.756499707698822,-0.8615525960922241,0.3587638735771179,0.3196878135204315,2.362048864364624,-0.6478742957115173,0.6122539043426514,0.11819905787706375,0.36653903126716614,-0.7056538462638855,-0.3668994903564453,0.5333727598190308,0.37801170349121094,-1.8890975713729858,-0.299640417098999,0.5625157952308655,-0.8903407454490662,1.6164120435714722,1.1346019506454468,0.20002508163452148,0.94269859790802,-0.8006779551506042,-1.1698668003082275,0.19857187569141388,1.2457417249679565,1.9503215551376343,-2.085334062576294,2.1980369091033936,1.5036123991012573,1.319621205329895,0.10396912693977356,-2.204740285873413,0.463500052690506,-1.262970209121704,1.5272712707519531,-0.12490331381559372,-0.1161409541964531,1.4381102323532104,1.504534125328064,0.51226806640625,0.7228566408157349,1.2140755653381348,-1.3640031814575195,0.8425180912017822,0.6252740025520325,0.8612545728683472,0.03541061654686928,-0.303803026676178,1.3084572553634644,-0.34538209438323975,-0.44635868072509766,0.12633459270000458,-1.047790765762329,-1.493188500404358,-0.394541472196579,0.9448250532150269,1.73186457157135,-3.1418919563293457,1.6604639291763306,0.2076021432876587,0.3758074641227722,2.3084065914154053,-0.45556148886680603,-1.2713677883148193,-1.2712173461914062,-0.9409292936325073,-1.5215880870819092,-0.7547028064727783,-1.0528022050857544,-0.4689118564128876,-1.1201354265213013,1.7522602081298828,-0.02752091735601425,0.8478590846061707,0.7765063643455505,1.0694200992584229,1.700907826423645,0.5601525902748108,0.5471468567848206,0.10270510613918304,-0.39791375398635864,0.14563527703285217,-1.6723763942718506,-0.38012343645095825,0.780737578868866,0.14609718322753906,1.8924450874328613,-0.5513029098510742,0.020962176844477654,0.21265126764774323,1.3603789806365967,0.9777402877807617,2.515392780303955,0.6425500512123108,0.9008035063743591,-0.13940243422985077,-0.8302707076072693,0.34177854657173157
抽象性,0.12291640788316727,-0.02497771941125393,0.13113754987716675,0.08541824668645859,-0.0036829733289778233,0.11562751978635788,-0.14320838451385498,-0.05860276147723198,0.13008125126361847,0.11727254092693329,-0.10485546290874481,-0.15811961889266968,-0.01841619983315468,0.13036753237247467,-0.19941096007823944,0.04665302857756615,0.16726049780845642,0.14249999821186066,-0.16271871328353882,-0.07187045365571976,0.04867372661828995,-0.1640380620956421,0.0039934623055160046,-0.06539076566696167,-0.06592585146427155,-0.0321713462471962,-0.23789499700069427,-0.027824345976114273,0.04054926335811615,0.29705092310905457,0.012530535459518433,0.10869596898555756,-0.4222075045108795,0.0866161435842514,0.1834762543439865,-0.16150353848934174,-0.09175275266170502,-0.34746214747428894,-0.120866559445858,0.049272339791059494,0.006747371517121792,0.030279185622930527,0.22171232104301453,-0.06634610891342163,-0.21504922211170197,0.13630716502666473,0.003170714480802417,0.1079297810792923,-0.033557210117578506,-0.05817781761288643,-0.03958788886666298,0.04256242513656616,-0.0014606864424422383,0.09057226032018661,0.0820455476641655,-0.019897835329174995,-0.08444751054048538,-0.19962599873542786,-0.19603009521961212,-0.09067779779434204,0.0595325231552124,0.18969888985157013,0.01983935944736004,0.04232652857899666,-0.2274017482995987,0.0013112613232806325,-0.005676080472767353,0.13429661095142365,-0.06005142629146576,-0.15995121002197266,-0.23933477699756622,0.005916014313697815,0.14963306486606598,0.014147518202662468,0.17900116741657257,0.07154358923435211,0.1232948750257492,-0.034021466970443726,0.08863602578639984,0.13128767907619476,0.03596239909529686,0.12599891424179077,-0.10754699259996414,-0.08603957295417786,0.002449655905365944,0.08182629942893982,0.07746738940477371,0.17422343790531158,0.04911133646965027,-0.1511169821023941,0.12594732642173767,-0.044494278728961945,0.09451624006032944,0.15345491468906403,-0.02045094594359398,0.0285783838480711,-0.05988530442118645,-0.035976361483335495,0.056235894560813904,-0.12489552050828934,-0.11173117160797119,-0.13876675069332123,0.0066683473996818066,0.08407185971736908,-0.15664012730121613,0.009336874820291996,0.010684788227081299,0.13856741786003113,-0.18661178648471832,-0.034347523003816605,0.17976170778274536,-0.049351416528224945,-0.31822389364242554,0.19253429770469666,0.12819276750087738,0.0006294173654168844,-0.04502882435917854,-0.05203980579972267,-0.026070576161146164,-0.001835729111917317,0.22971154749393463,0.03055162914097309,-0.05062359198927879,0.01110499445348978,-0.2086384892463684,0.07401280850172043,0.07517331838607788,0.1284787803888321,0.15013548731803894,-0.04930407553911209,-0.0084567004814744,0.18597862124443054,0.21312060952186584,-0.03732280060648918,-0.15521956980228424,0.07861777395009995,0.20230327546596527,0.12767943739891052,-0.010625522583723068,-0.005533057264983654,-0.001373597769998014,0.06600651144981384,0.02289612777531147,-0.12518566846847534,0.027728848159313202,0.04278140887618065,-0.11886876821517944,0.05857797712087631,0.06177409365773201,2.31089234148385e-06,0.031068949028849602,-0.2664755880832672,-0.17879508435726166,0.07462054491043091,0.10195545107126236,-0.2659970223903656,0.029229464009404182,0.03064706362783909,-0.1633424609899521,-0.31564387679100037,0.01688106171786785,-0.10968592017889023,-0.11390392482280731,0.08506041020154953,0.10724853724241257,-0.09456729888916016,0.34769824147224426,0.003988262265920639,0.0884857326745987,0.17890630662441254,-0.2120772749185562,0.09914997965097427,-0.007007027044892311,0.2521815896034241,0.12468799948692322,0.06538744270801544,-0.12583772838115692,0.022233998402953148,0.013325714506208897,0.1855958104133606,-0.2277081161737442,-0.2926504909992218,0.029957806691527367,-0.12985073029994965,0.03834277763962746,-0.02371175028383732,-0.06228354945778847,-0.11406705528497696,-0.010910242795944214,-0.16801433265209198,-0.2658590078353882,-0.12051217257976532,-0.09485416859388351,0.05017130821943283,0.08867829293012619,0.10026291757822037,-0.07758749276399612,0.01607316918671131,-0.26892614364624023,0.205814391374588,-0.13464094698429108,0.13730624318122864,-0.05535999312996864,-0.026316192001104355,0.06962542235851288,0.04279973730444908,-0.24663086235523224,0.23402255773544312,0.039657145738601685,-0.07563023269176483,-0.0084189772605896,-0.09705398231744766,0.012406207621097565,-0.13589659333229065,-0.05465789511799812,-0.21208475530147552,0.116450235247612,-0.04786420240998268,0.11140506714582443,-0.0155566968023777,0.19968843460083008,-0.039568956941366196,0.009959664195775986,-0.00878274254500866,0.010027045384049416,-0.10670144110918045,-0.030216099694371223,-0.015180598013103008,-0.13144415616989136,0.0719442293047905,-0.13733206689357758,-0.036706287413835526,0.2376970797777176,-0.11600086092948914,-0.0313376821577549,-0.16163049638271332,0.20333831012248993,-0.06558290123939514,-0.07026630640029907,-0.050099585205316544,0.07757286727428436,0.03368866443634033,-0.058418579399585724,0.02794574573636055,-0.19200125336647034,-0.13561154901981354,-0.11104261875152588,-0.10355734825134277,-0.17360256612300873,0.030565110966563225,-0.08820793032646179,0.2007213979959488,0.08980776369571686,0.014485868625342846,0.014653508551418781,-0.11651933938264847,-0.049710821360349655,0.045380327850580215,0.29085347056388855,-0.19594863057136536,0.0015954904956743121,-0.12568169832229614,-0.17105132341384888,0.15985479950904846,0.060708221048116684,-0.10305888205766678,-0.049499548971652985,-0.06717823445796967,0.21151098608970642,0.06820136308670044,-0.08870107680559158,-0.11951808631420135,0.10402142256498337,0.01790282502770424,-0.23917868733406067,0.16224859654903412,-0.04056445509195328,-0.10106999427080154,-0.05561480671167374,-0.09762459248304367,0.11398372799158096,0.11094241589307785,-0.1654205024242401,0.14053557813167572,-0.04244387149810791,0.1667877435684204,0.14128468930721283,0.11816652119159698,-0.016342654824256897,-0.15566205978393555,-0.25716209411621094,-0.0081475879997015,0.22090932726860046,-0.1396411955356598,-0.06562619656324387,0.1340085119009018,0.06541018187999725,-0.09395137429237366,-0.17159360647201538,0.054438505321741104
教育,1.2290029525756836,-1.0421777963638306,1.524677038192749,0.9678640365600586,-1.2903164625167847,0.40927618741989136,-3.1856913566589355,0.8967418074607849,0.057681452482938766,-0.04028299078345299,-0.4638088345527649,1.4667683839797974,-0.15928424894809723,2.4578280448913574,-0.36131036281585693,0.02594914473593235,1.6434623003005981,0.22707407176494598,-3.7023541927337646,-3.9671826362609863,1.524871587753296,-0.7620856761932373,-0.375405877828598,0.39697492122650146,-1.8184090852737427,0.7763015031814575,1.9575021266937256,0.008855783380568027,-2.050281286239624,0.2557646930217743,-0.6461760401725769,1.8994646072387695,-0.8606988787651062,-0.5219516158103943,-0.908668041229248,-0.49717074632644653,-1.875699520111084,-1.1481409072875977,-0.6820595860481262,-0.028207337483763695,1.0890507698059082,0.7448192238807678,-1.485691785812378,-0.7794157266616821,-0.5092668533325195,1.3134469985961914,2.470720052719116,-1.267560362815857,-1.2847744226455688,-1.7433931827545166,-0.6296206712722778,-0.7255814671516418,0.5372092723846436,0.13366062939167023,0.2480258047580719,0.1620669662952423,0.3281347155570984,-0.15057648718357086,1.5284907817840576,2.512040138244629,1.4129877090454102,1.0737864971160889,1.8526660203933716,-1.334985375404358,-1.2201285362243652,1.5434253215789795,1.857253909111023,2.7777786254882812,-0.6115458607673645,0.21823346614837646,-0.5762423276901245,1.1939365863800049,0.08864523470401764,-0.699586808681488,0.4382777810096741,-0.09425631165504456,1.5430721044540405,0.08689133077859879,0.8245767951011658,-1.5201586484909058,-1.612810492515564,0.32676082849502563,0.8119071125984192,-1.37123703956604,-2.9111247062683105,1.8649590015411377,-0.18951280415058136,-1.7247247695922852,2.5895323753356934,-0.5923810601234436,-0.496449738740921,0.03449682146310806,1.4174063205718994,-0.08884764462709427,0.18816450238227844,0.24891413748264313,2.890285015106201,0.17518478631973267,-2.2157576084136963,-0.4234147369861603,1.7997382879257202,-1.3967490196228027,1.3375108242034912,0.3514590859413147,0.977320671081543,-0.3296702206134796,-0.6693397164344788,0.5900147557258606,1.2736951112747192,-1.634872317314148,0.9126852750778198,1.1393918991088867,1.1076432466506958,-0.18800672888755798,-0.5392910242080688,0.02347315102815628,3.3535678386688232,-0.6556601524353027,0.18504193425178528,-0.20338106155395508,1.1114457845687866,-0.005914993118494749,-0.5997759699821472,0.9791130423545837,1.1715987920761108,1.3931370973587036,0.909440279006958,1.0957043170928955,1.773253083229065,-1.7499299049377441,1.0759137868881226,0.11927114427089691,2.085860252380371,-0.06831319630146027,-0.5251258015632629,-0.4603208005428314,-1.0123597383499146,-0.4761148691177368,-0.2457287609577179,-1.8117679357528687,-0.37552303075790405,-0.5665051341056824,0.9371434450149536,0.5566248297691345,-0.183331698179245,1.2401816844940186,-2.3995845317840576,-1.7116912603378296,0.9223542809486389,-0.574577808380127,1.791557788848877,0.2868451178073883,-0.1315387487411499,-0.3986893892288208,-1.2176263332366943,1.0673658847808838,-0.5598381161689758,0.5449498891830444,-1.1183241605758667,-0.13622130453586578,-0.6620373129844666,-0.1508067399263382,0.7323406934738159,-0.2736051380634308,0.8921546936035156,1.895668864250183,1.3936609029769897,-0.44685614109039307,1.8569458723068237,0.7095023989677429,0.8955673575401306,1.1175415515899658,0.15083715319633484,0.2297036349773407,1.979529857635498,1.6648640632629395,-2.0162618160247803,-2.971916913986206,0.9519834518432617,-1.8444160223007202,-0.21974268555641174,-0.4701702892780304,-1.4999780654907227,-0.0753951147198677,1.2446075677871704,-0.07083715498447418,-2.307875156402588,-0.8906574845314026,-3.1769540309906006,0.9022351503372192,-1.87114417552948,0.27631115913391113,-0.4274328052997589,0.43111956119537354,-1.4315117597579956,-0.08799999207258224,0.5724851489067078,-0.009707045741379261,-1.7552961111068726,0.041520312428474426,0.2595694959163666,0.030270246788859367,0.5423070192337036,-1.3013477325439453,0.98003751039505,-0.015516869723796844,1.644645094871521,2.4301955699920654,0.1707802712917328,1.02599036693573,0.47177788615226746,-1.1647253036499023,-1.9167299270629883,-0.7175418138504028,-0.3044746220111847,-0.3823665380477905,-1.194663643836975,1.4057629108428955,-1.3386303186416626,0.5857467651367188,-1.1152949333190918,1.0797332525253296,1.7087711095809937,-0.41365817189216614,-0.6482292413711548,-0.5490225553512573,0.12632079422473907,-1.3598949909210205,-0.14615046977996826,1.6292283535003662,-0.8092619180679321,-1.7717841863632202,1.0533361434936523,0.3277819752693176,-0.3679678440093994,-1.0681430101394653,0.31963396072387695,0.40556588768959045,0.9070451855659485,0.11026683449745178,0.6717988848686218,1.805032730102539,-0.6487352252006531,-0.44845256209373474,-0.8333364725112915,-1.546450138092041,0.8887513875961304,1.0843594074249268,-0.16823714971542358,0.6972410082817078,-0.9388701319694519,1.255991816520691,0.6036911606788635,1.6561607122421265,0.9941968321800232,-1.022290825843811,-0.6039595603942871,0.30251285433769226,1.1257213354110718,-2.1074349880218506,-0.24093222618103027,-1.0936124324798584,0.46862179040908813,-0.7069380879402161,-1.062656044960022,-1.1092771291732788,-0.2869802713394165,-0.8179787397384644,0.3335041403770447,1.8978735208511353,-1.2602492570877075,0.2572108805179596,0.9695168137550354,2.4151296615600586,0.6999708414077759,1.1171875,0.6750321984291077,1.7784837484359741,-0.8303758502006531,1.768585205078125,-0.9039510488510132,2.491562843322754,-2.258007287979126,1.1412651538848877,0.0012605334632098675,-0.7510086297988892,-1.017396330833435,2.005941152572632,-0.3601453900337219,-1.0089319944381714,0.37172627449035645,-2.560368537902832,1.2490233182907104,0.23775477707386017,0.4350510239601135,-0.2754991352558136,0.32071006298065186,-1.6063493490219116,-1.3019275665283203,1.1646513938903809
发展,0.6984522342681885,0.9620286822319031,-0.07771451026201248,-0.9317935705184937,-2.5672528743743896,2.60931396484375,-2.4616806507110596,1.314682126045227,-1.1982098817825317,-1.361206293106079,-1.9274135828018188,-0.3858586549758911,-0.22540675103664398,1.719325065612793,-1.7745651006698608,-2.0921216011047363,-1.2159558534622192,0.3854042589664459,-4.1609272956848145,-2.762526035308838,-1.7438241243362427,-0.8941072225570679,0.07230883836746216,-0.7530167102813721,-0.9207749962806702,-1.8498286008834839,2.62998628616333,-0.8069405555725098,-2.262579917907715,2.2611865997314453,-0.6674798130989075,-0.05201151967048645,-0.6663395762443542,0.5489665865898132,-1.5857715606689453,0.3455279469490051,1.2443052530288696,-2.1204888820648193,-0.8159147500991821,0.91738361120224,-2.1844115257263184,0.4704054296016693,-0.6353783011436462,-1.3428477048873901,0.36126384139060974,-0.36957138776779175,1.1500253677368164,1.4885321855545044,-1.2095112800598145,-0.4639572501182556,-1.2034084796905518,-1.085219383239746,1.5184956789016724,-0.6157760620117188,-0.9967164993286133,-0.10375416278839111,0.28048330545425415,0.8339306116104126,3.217082977294922,-0.07481135427951813,1.6402698755264282,0.8198704719543457,-0.4192871153354645,-0.45632219314575195,0.7076954245567322,-1.240365743637085,-0.06842397153377533,3.390279531478882,-1.3413207530975342,-0.11424102634191513,0.02672670967876911,0.12962640821933746,0.46092745661735535,-2.5135796070098877,1.5646551847457886,-0.31712955236434937,3.8431990146636963,-0.7074496746063232,2.2938392162323,-0.1596451997756958,-0.02122039720416069,-0.6090794205665588,-0.438078910112381,-1.1586148738861084,-2.883767604827881,0.19009087979793549,0.6933789253234863,1.8372480869293213,0.5363370776176453,-1.404707431793213,-0.08545331656932831,-1.7921416759490967,0.6845552921295166,-1.1424695253372192,2.292389392852783,-1.214266061782837,0.7613411545753479,0.21755877137184143,-1.347183346748352,-1.2742124795913696,1.8035893440246582,-1.2819995880126953,0.022144807502627373,0.5604419112205505,-0.3496449887752533,0.09857654571533203,-0.04158008098602295,1.6436915397644043,0.02729090116918087,-1.47575843334198,-0.9485960602760315,-1.0315228700637817,0.3294544816017151,0.6403678059577942,-1.7580726146697998,-0.8214901089668274,-1.0554368495941162,-0.5536282658576965,1.4430164098739624,0.608594536781311,1.193893551826477,-0.620164692401886,-0.555184006690979,2.4117655754089355,0.10965300351381302,-0.456465482711792,-1.780765414237976,-0.160768061876297,0.42674559354782104,-2.183967351913452,3.16803240776062,-0.20500192046165466,-0.7085477113723755,1.3574904203414917,-1.1085575819015503,-3.083890914916992,-1.8180174827575684,0.015113076195120811,-1.9987573623657227,0.2624284029006958,-0.35915645956993103,1.276470422744751,2.0944995880126953,-2.813323974609375,-0.7141383290290833,-1.8440980911254883,-1.2934843301773071,-0.5135090947151184,1.0605525970458984,-1.0989562273025513,1.3935492038726807,0.7723259925842285,1.393210768699646,1.0945454835891724,0.594790518283844,-2.400315284729004,-0.9939393401145935,2.22407603263855,-0.8668687343597412,-0.718075156211853,1.0152018070220947,-0.8778760433197021,0.9841286540031433,-0.7627674341201782,-0.25235575437545776,-0.9258196949958801,0.9610621333122253,-2.7854745388031006,0.8493521213531494,-0.5183843970298767,0.734653651714325,-0.28349360823631287,-2.1378822326660156,-1.0639965534210205,0.3440816104412079,1.2477902173995972,0.21954815089702606,1.0473307371139526,1.2385249137878418,-1.7794400453567505,-1.8196916580200195,-0.6256288886070251,-1.7396409511566162,-1.1906001567840576,0.17688627541065216,1.0872009992599487,-0.483257919549942,-0.13446266949176788,-2.1016573905944824,-0.8136286735534668,-2.0870578289031982,0.02981572598218918,-0.2849528193473816,2.2730143070220947,-2.5965676307678223,-2.2331626415252686,0.6388393640518188,-1.9434239864349365,-0.4756630063056946,-3.035051107406616,-2.1804044246673584,-1.9396765232086182,-0.6862366795539856,0.9744060635566711,-1.0026452541351318,-1.802329421043396,0.9250505566596985,1.3654065132141113,0.1915065199136734,-1.4213966131210327,1.9175570011138916,0.06029735133051872,-1.5572774410247803,-1.1520814895629883,-0.21618948876857758,-1.2827976942062378,-0.9519076347351074,1.2520866394042969,-1.3687658309936523,0.7349910736083984,0.7107141017913818,0.6445398330688477,1.3160676956176758,2.093066692352295,-2.0965778827667236,0.7062849998474121,-0.8210261464118958,-2.248366355895996,-1.2996010780334473,-0.9341745972633362,-0.5623378753662109,-1.9364638328552246,1.350305438041687,2.1192357540130615,0.6245179176330566,0.764250636100769,1.110361933708191,0.35453253984451294,0.372996062040329,2.184525489807129,2.381645917892456,3.1912801265716553,-0.2425341159105301,-1.7395597696304321,-2.3945648670196533,-0.4295033812522888,0.9425807595252991,-0.21477924287319183,-2.015596389770508,0.061243459582328796,-2.6144344806671143,-0.318190336227417,-0.3380391597747803,-1.0839701890945435,-0.5570576786994934,-0.9474430680274963,-0.6397744417190552,-0.22498883306980133,1.121660828590393,-0.8432782888412476,0.11007394641637802,-0.011990310624241829,0.5245359539985657,0.367544561624527,0.4292471706867218,0.6911052465438843,-1.3085280656814575,-0.48572516441345215,-1.383840560913086,-0.28742438554763794,0.8580267429351807,-0.5327343940734863,0.9135420918464661,0.7721747756004333,-0.9491597414016724,0.21516886353492737,0.2114093005657196,1.482215404510498,-1.8805389404296875,0.4482146203517914,0.752055287361145,1.0441662073135376,-1.204243540763855,1.5204596519470215,0.36610665917396545,1.006812572479248,-1.7811185121536255,-1.833150863647461,-0.5646392107009888,-2.4444305896759033,-1.7437664270401,-2.3425354957580566,0.8112437725067139,-1.0901827812194824,1.6517841815948486,1.267886757850647,0.4883626699447632,-0.8632479310035706,-1.9288504123687744,-0.6344438195228577
活跃,-1.3124511241912842,0.9564470052719116,-1.6043390035629272,-0.6061317920684814,-1.390842318534851,0.9437231421470642,0.5892906188964844,-2.036977529525757,-1.2265429496765137,-0.5056936740875244,0.6065070629119873,-1.3038831949234009,-0.5850154161453247,1.4260926246643066,-0.3823745846748352,0.71329265832901,-1.5341328382492065,0.34335219860076904,-2.0174331665039062,-1.0319057703018188,-2.1969499588012695,0.020435016602277756,1.6527183055877686,-0.26329919695854187,-0.8088285326957703,-0.11782142519950867,-0.056916262954473495,-1.7037736177444458,-1.336247444152832,0.07988819479942322,-1.4216252565383911,0.9364757537841797,0.4544370174407959,0.26738837361335754,-0.43015921115875244,-0.25944551825523376,0.9362257122993469,-0.9849393367767334,-1.0352022647857666,0.6633108258247375,1.0596861839294434,-2.581639289855957,-0.21400931477546692,1.0392332077026367,0.6731348633766174,0.2819126844406128,0.07635524123907089,-0.059922948479652405,1.366492748260498,-0.6974089741706848,2.8973145484924316,-0.5183800458908081,-2.2575457096099854,-0.6568599939346313,0.6189907193183899,0.6809224486351013,-1.5074094533920288,-0.45710334181785583,1.4793269634246826,0.7514962553977966,1.1425623893737793,2.1354143619537354,2.3827710151672363,0.46550101041793823,-1.057445764541626,0.706646740436554,-0.3384157121181488,2.83099365234375,-1.709584355354309,0.20371855795383453,0.8583850860595703,-2.1661601066589355,-0.5231218934059143,0.34956637024879456,1.3931610584259033,1.1325607299804688,0.04093998670578003,3.3637239933013916,1.5614296197891235,-1.2604165077209473,0.9596537947654724,-1.2078378200531006,-1.4975743293762207,-1.9137850999832153,1.1227407455444336,0.46732503175735474,0.5371918678283691,-0.5135425925254822,0.9096158742904663,0.7715457081794739,0.8874513506889343,-2.191638469696045,-0.0036848317831754684,-1.7368707656860352,2.268326997756958,-1.2122970819473267,1.518191933631897,-2.0187175273895264,2.003786087036133,-1.4124863147735596,0.5593312382698059,-2.230492353439331,-0.970863401889801,-1.1581069231033325,0.30765554308891296,2.4579930305480957,0.24944549798965454,0.47384175658226013,0.6701673269271851,2.70404314994812,-2.2824947834014893,-0.41279274225234985,-0.3631734848022461,0.5821185111999512,1.011257529258728,-1.0366911888122559,0.33129769563674927,2.8412625789642334,0.3499737083911896,-1.3426326513290405,3.230759620666504,0.36815136671066284,0.03809501603245735,0.56739741563797,-0.6280604004859924,0.5795676708221436,2.148207902908325,1.1110539436340332,1.0434013605117798,-2.3829433917999268,3.6075425148010254,2.7253036499023438,-0.6169496178627014,0.005443117115646601,-2.099215507507324,-0.031656235456466675,-1.7925662994384766,0.18412400782108307,0.5659744143486023,-1.0110024213790894,-1.1386833190917969,0.3821747303009033,1.6941450834274292,0.6847236752510071,0.7514991164207458,0.4111180007457733,0.5772090554237366,0.7282696962356567,3.5552852153778076,-0.1959681361913681,1.248349905014038,-0.030343055725097656,-0.4406268000602722,-0.446903795003891,-1.6377722024917603,-2.861478805541992,0.5366923809051514,1.031894564628601,1.1394184827804565,0.5120421051979065,-0.3430618643760681,-0.1512576788663864,0.4860519468784332,-0.9952911138534546,1.4066370725631714,-0.641464352607727,-2.922903299331665,0.17253738641738892,-0.5983308553695679,-1.3540942668914795,0.06985210627317429,-1.2038124799728394,0.8342078328132629,-2.7373456954956055,0.7465389966964722,0.9626482725143433,0.8995171189308167,-0.16462081670761108,-1.0234498977661133,1.1083271503448486,-0.588555097579956,0.7328678965568542,1.4755206108093262,-0.23310187458992004,-1.643720030784607,-0.510059118270874,0.9677145481109619,0.2553103268146515,-1.161858081817627,1.2994346618652344,-0.8395644426345825,3.178182363510132,0.6254702210426331,1.276415467262268,1.3907737731933594,-2.6863741874694824,0.5859248638153076,-1.106738805770874,1.19319486618042,-1.4599542617797852,-0.21771663427352905,-0.6876967549324036,1.1396015882492065,0.7370404601097107,-1.032157301902771,-1.3239952325820923,-0.07086718827486038,-0.24254369735717773,-2.398646354675293,-2.5996193885803223,0.1234278753399849,-1.0154809951782227,0.8794596195220947,-0.9551106095314026,1.4272414445877075,-1.465989589691162,0.3053087890148163,1.1557987928390503,-1.5169824361801147,-1.111995816230774,1.059131145477295,0.3032574951648712,-1.3772833347320557,0.7366421818733215,0.4278215169906616,0.5754474401473999,0.33932945132255554,-0.6312972903251648,0.8208025097846985,-1.1414347887039185,-0.0052435919642448425,-2.114224433898926,0.16660086810588837,1.706228256225586,1.3763407468795776,0.4808509051799774,-1.2765816450119019,-1.472656011581421,1.9395309686660767,-1.249316930770874,0.7668108344078064,1.7042343616485596,1.1314023733139038,0.3198853135108948,0.09129100292921066,0.4889114201068878,-1.1780225038528442,-2.152963638305664,-0.5993697047233582,-0.07081528007984161,1.6320778131484985,-0.7186705470085144,-1.0329251289367676,0.3028823733329773,-0.9534977078437805,-0.3654195964336395,0.9195651412010193,-0.2096053957939148,1.3844183683395386,0.49309656023979187,-3.435504913330078,-1.3735072612762451,0.9132030606269836,0.21078523993492126,2.310654878616333,0.34369614720344543,0.7794449925422668,-0.3057410717010498,1.9659380912780762,-2.98177170753479,-0.984115719795227,-1.9467930793762207,0.8520424365997314,0.6040375828742981,-0.38934019207954407,1.9409986734390259,-1.3341511487960815,-0.23505574464797974,-2.4528982639312744,-0.7319543957710266,0.804340124130249,0.3324064612388611,-1.6391571760177612,-0.8780805468559265,-0.2550436854362488,0.3722221851348877,-1.906935691833496,-1.0410575866699219,-2.387667179107666,-2.445671558380127,-0.8964111804962158,-1.2761541604995728,-0.15467138588428497,-1.2390567064285278,1.3529983758926392,0.6195439100265503,0.4100956320762634,1.5035103559494019,-0.637130618095398,-0.8363019227981567
学生,2.4274003505706787,0.6676017642021179,-0.3195067048072815,-1.5146596431732178,0.1727207750082016,1.452633261680603,-0.35073041915893555,1.008644461631775,0.4949832856655121,-0.45167276263237,-2.1444039344787598,-0.3783314526081085,-1.0853773355484009,2.07775616645813,0.0663750022649765,0.747175395488739,1.621368408203125,-2.252326488494873,-1.6297706365585327,-1.0349071025848389,-1.1834450960159302,-1.431551218032837,0.8203704953193665,-0.759503960609436,0.02453678846359253,0.3526619076728821,0.5756027698516846,0.6613054871559143,-0.07520250976085663,-0.32644376158714294,0.2907957434654236,-0.30388325452804565,0.27436545491218567,-0.359199583530426,-1.6898772716522217,0.6419627070426941,-2.4325668811798096,0.2887516915798187,2.1714417934417725,0.37906402349472046,-0.06127474829554558,0.21229419112205505,-3.430680751800537,0.33024197816848755,-0.14084962010383606,-0.8149098753929138,-0.8671942353248596,-0.8729926347732544,-0.03621916100382805,0.48681217432022095,0.09763206541538239,1.2205392122268677,-1.3339409828186035,0.7441984415054321,1.9624731540679932,-0.03607267886400223,-2.8759710788726807,1.9408135414123535,0.7206252217292786,-0.08380004018545151,0.40922555327415466,-0.15805502235889435,1.662166714668274,-0.3993189334869385,-2.2350826263427734,1.5327835083007812,-0.7549910545349121,0.9190800786018372,0.5022585391998291,-0.784062385559082,1.8431390523910522,1.435198187828064,0.9197763800621033,-0.42131611704826355,0.5060980916023254,1.5308856964111328,-0.534180760383606,-0.5038022994995117,-0.6170633435249329,0.14356011152267456,-2.041274070739746,-2.362490653991699,-1.5808595418930054,0.40731558203697205,-0.48636549711227417,-2.901843547821045,1.0781446695327759,-3.164966344833374,0.15329208970069885,-0.8078912496566772,0.38397035002708435,1.126283049583435,-0.01586245745420456,1.209523320198059,-0.37848588824272156,0.34678420424461365,1.6899408102035522,1.578308343887329,-1.876854658126831,0.055889204144477844,-0.8843470215797424,-0.668521523475647,0.7638744115829468,0.26817798614501953,-0.597614049911499,0.576040506362915,1.2288093566894531,2.9573206901550293,-0.6444916725158691,0.23549355566501617,1.538079857826233,-0.43627241253852844,0.6693174839019775,-2.284198522567749,0.13448697328567505,0.042224910110235214,1.3706817626953125,-1.169102668762207,-1.757171630859375,-0.07263399660587311,0.7780779600143433,0.5140701532363892,1.2674745321273804,0.4085436463356018,0.6037304997444153,-0.7883595824241638,2.3954904079437256,-0.23707064986228943,1.6373783349990845,1.0001896619796753,0.562788188457489,-0.9742347002029419,-0.4481993317604065,-0.056182801723480225,-2.136502742767334,-1.689730167388916,-2.1730844974517822,1.7363947629928589,0.44511017203330994,-1.7508620023727417,-2.797074794769287,-0.41656434535980225,0.39672765135765076,-2.286910057067871,1.9879189729690552,0.7612072229385376,0.13437700271606445,0.7754893898963928,0.9057824015617371,0.15532590448856354,0.5692418217658997,-1.5033637285232544,-0.5601193904876709,1.043440818786621,-0.20962855219841003,-1.0436861515045166,0.8785082697868347,2.7797374725341797,-1.032585859298706,2.1887001991271973,0.053801167756319046,0.2131766825914383,1.0246094465255737,0.20933963358402252,1.0006133317947388,-1.6735584735870361,-0.5782981514930725,1.5535640716552734,0.4844690263271332,0.018608365207910538,-1.0935451984405518,-0.11559233069419861,0.5918384194374084,0.003208573441952467,1.8467546701431274,2.1782267093658447,1.046303629875183,-6.0106377601623535,1.7313392162322998,-1.45237398147583,1.4665285348892212,1.3203774690628052,-0.2340497523546219,-1.4136765003204346,-0.548393189907074,-0.14942961931228638,-0.1644551306962967,1.0239700078964233,-1.2754729986190796,2.4089441299438477,-0.7169970870018005,2.4723644256591797,1.0431336164474487,0.24461878836154938,0.5014877915382385,-1.0546668767929077,-0.04700472205877304,-1.1307295560836792,1.4590728282928467,-1.9943195581436157,-0.029042458161711693,0.5150038003921509,0.6397930383682251,-1.71165931224823,0.8678264617919922,1.2070603370666504,0.54615318775177,2.854515552520752,0.13450992107391357,1.2517393827438354,0.48469531536102295,-1.6997957229614258,-2.0805094242095947,2.1596953868865967,-0.7763893008232117,0.36947229504585266,-1.145639181137085,2.305556058883667,-0.8955638408660889,1.0909830331802368,-1.2235560417175293,-0.5925915837287903,2.172325611114502,-1.4448062181472778,0.09258417785167694,0.36956629157066345,2.0883936882019043,0.05072967708110809,-0.5531234741210938,1.7853845357894897,-0.6914584636688232,-0.9332666397094727,0.7428682446479797,-0.1969345510005951,-0.19437727332115173,-0.978522539138794,1.9119282960891724,0.1945313662290573,1.8002924919128418,0.5811038017272949,-0.24054478108882904,1.4589593410491943,1.428706169128418,1.3905218839645386,-0.6275588274002075,-3.0655319690704346,-1.1372313499450684,0.22898542881011963,-0.9583989977836609,-0.08162616193294525,-1.8892325162887573,-0.5206745266914368,0.7584895491600037,2.5110411643981934,-1.2498198747634888,0.3903631865978241,-0.8482473492622375,1.1543269157409668,2.2539784908294678,-0.36745941638946533,0.8714079260826111,-0.3045040965080261,0.47036129236221313,-1.4577643871307373,-1.7240896224975586,0.10622632503509521,-0.9472326636314392,-1.2032448053359985,-0.026650166139006615,0.7330891489982605,0.48073920607566833,-1.0590051412582397,0.15348748862743378,2.988537311553955,0.7248193025588989,-0.26987937092781067,1.5153173208236694,0.04614045470952988,-0.08234784752130508,0.4004153609275818,0.453748494386673,0.05732385069131851,-0.44591447710990906,0.9957892298698425,0.22552943229675293,0.6784207820892334,1.3375217914581299,0.3143123686313629,-0.250425785779953,-0.6646475195884705,-1.6895644664764404,0.5086709260940552,-0.5711305141448975,-1.5816891193389893,2.4419519901275635,-1.3175716400146484,1.0456279516220093,-0.2966093122959137,0.38108667731285095,-0.7530199289321899
对策,0.40446737408638,-1.1076124906539917,1.0344665050506592,-1.1126980781555176,-0.0731961578130722,-0.6005783081054688,0.1667606681585312,0.8666476607322693,1.1474677324295044,0.7892804145812988,-0.22334742546081543,0.8469870686531067,1.1927413940429688,1.1252479553222656,-1.0170538425445557,1.1503896713256836,1.5966997146606445,-0.9309985041618347,-0.23990391194820404,-1.454764485359192,0.7501256465911865,-0.9544731378555298,-0.5433341264724731,0.37949374318122864,-1.7147847414016724,-0.6666457056999207,0.5294120907783508,-0.9917004108428955,-0.20942211151123047,1.1169261932373047,-1.631067156791687,0.5621634721755981,0.8507076501846313,-0.0865543931722641,-1.2183916568756104,-0.7768304944038391,0.984458327293396,0.4886499345302582,0.2895587086677551,0.2510007619857788,-0.6715596914291382,0.03393571823835373,-1.0471655130386353,-0.846447765827179,0.9029397964477539,0.37252533435821533,0.06775123625993729,1.0839171409606934,-1.7031611204147339,0.07600134611129761,-0.16614672541618347,1.2312967777252197,2.241229772567749,1.35475754737854,-0.6174905300140381,0.4608456492424011,-0.054682452231645584,2.2062129974365234,-1.114450454711914,-1.9266036748886108,0.9614672064781189,0.8871486783027649,1.5755913257598877,-1.369154930114746,-0.8118062615394592,0.48701122403144836,1.647043228149414,2.490988254547119,0.5907281041145325,-0.7620542645454407,-0.09596631675958633,-1.7620739936828613,-0.31918832659721375,0.07156724482774734,-2.0481061935424805,1.0720006227493286,0.4094623327255249,1.5894733667373657,0.4325036108493805,-0.012071487493813038,-0.3704828917980194,-0.2993406057357788,0.15122298896312714,-1.6039150953292847,-0.4038008451461792,-0.0034656471107155085,-1.5804808139801025,-1.1373851299285889,0.7387580871582031,1.529988169670105,-1.7743602991104126,1.8970353603363037,-0.020414618775248528,-1.0435147285461426,0.2749435305595398,-0.13567286729812622,-0.8660979866981506,0.9220288991928101,-2.280595064163208,-2.367170572280884,1.5983551740646362,0.35932034254074097,-1.1116493940353394,-0.04513617977499962,1.857082724571228,0.10330343246459961,1.2746003866195679,1.1191091537475586,0.8343849182128906,-0.6968655586242676,0.3488309383392334,-0.7004157900810242,1.4723528623580933,-1.3629697561264038,0.5270242094993591,-1.4369964599609375,0.5807644724845886,-1.9672160148620605,0.49638649821281433,0.6795774698257446,1.8588939905166626,0.12260422110557556,1.6638514995574951,-0.5872159600257874,-1.3705261945724487,-1.4439247846603394,-1.1486724615097046,0.5620604753494263,0.3687158226966858,1.150100827217102,-1.1316279172897339,-0.25499245524406433,0.00829601101577282,0.10305294394493103,-0.17637526988983154,0.7288289666175842,1.7087434530258179,-0.7156389951705933,0.8401222229003906,-1.4226548671722412,-0.8536624312400818,0.4810088574886322,1.0996317863464355,-0.6572893857955933,1.8463691473007202,0.508074939250946,-2.043583869934082,-0.9540927410125732,-1.7962130308151245,0.4112962782382965,-1.7029975652694702,-0.9951227903366089,-0.7100296020507812,-0.7012527585029602,-2.336515426635742,0.28643998503685,-0.6777330040931702,1.4651552438735962,0.04580805078148842,-0.7355033755302429,0.45198023319244385,-1.3260867595672607,2.2254018783569336,0.6137855648994446,2.445486307144165,-1.8235353231430054,1.036369800567627,-0.21246957778930664,-0.1875418871641159,-1.160751461982727,0.5173822641372681,-1.0120259523391724,-0.07673564553260803,0.582470715045929,1.774067759513855,1.7216936349868774,2.5540428161621094,-0.5277502536773682,-0.7167273759841919,0.8386806845664978,-0.3826358914375305,-1.8531808853149414,0.13826772570610046,-1.1329598426818848,0.9940095543861389,-1.1880669593811035,-0.548163890838623,1.3014951944351196,-2.662238597869873,-1.1516650915145874,-0.0323452427983284,-0.030883420258760452,0.10266724228858948,-0.7719430923461914,1.0785737037658691,-0.23637698590755463,0.4948113262653351,-0.25460511445999146,-2.1422810554504395,2.0721027851104736,0.7164794206619263,-0.17785018682479858,1.3623664379119873,0.6338970065116882,0.19297505915164948,-0.5316364765167236,1.0936906337738037,-0.3317633867263794,0.4318232536315918,-2.256279230117798,0.500272274017334,-0.8335956931114197,-2.3726553916931152,0.7414570450782776,1.01399827003479,-0.8539162278175354,0.5875219106674194,2.6545870304107666,0.5696702599525452,-0.040272586047649384,1.608744502067566,0.7772387862205505,0.12488976866006851,1.6919358968734741,-0.2660849392414093,-0.7727249264717102,0.016140006482601166,-0.5423749089241028,0.25784140825271606,0.173414409160614,0.5744481086730957,-0.40021464228630066,-1.0889530181884766,0.59309321641922,0.03926961496472359,-0.6312059164047241,1.5217150449752808,0.39650797843933105,-0.8382293581962585,-0.9344041347503662,-0.20557115972042084,0.5173416137695312,0.653236448764801,0.06700632721185684,0.8521378636360168,-1.3935405015945435,-0.6832000017166138,0.9852230548858643,-0.306559681892395,-1.1700711250305176,-2.209235191345215,0.8191685676574707,-1.1487797498703003,-1.1988359689712524,-0.13689003884792328,0.25333845615386963,-1.8233760595321655,0.03322311118245125,-0.42137831449508667,-0.9865332841873169,-1.2048875093460083,-1.4656119346618652,-0.5241245031356812,-0.519093930721283,-1.0588335990905762,-0.7780140042304993,-2.0582170486450195,-1.9579578638076782,0.22868980467319489,0.07141713052988052,-1.4291292428970337,-2.0924863815307617,-2.7609164714813232,-1.1632003784179688,-0.1726243495941162,-0.11163704842329025,1.0609569549560547,-0.3234974443912506,-1.5426431894302368,-0.7025728225708008,0.39852696657180786,2.4161627292633057,-2.98683500289917,2.2368783950805664,-2.3063457012176514,-0.32045337557792664,1.1396182775497437,-0.7041608691215515,-0.8676012754440308,-0.8125187754631042,-2.3253886699676514,-0.6056725978851318,-0.6590055823326111,-0.7527210712432861,1.356472373008728,-0.5303303599357605,0.3030910789966583,2.2099556922912598,-1.1115261316299438,-0.5389969944953918
很强,2.0312297344207764,-1.2850836515426636,-0.623805820941925,0.7059144973754883,1.401623249053955,1.5996055603027344,-0.35298866033554077,-1.9268467426300049,-0.35549622774124146,-0.11055323481559753,-0.8321544528007507,0.333545446395874,-0.9436525106430054,0.12867197394371033,-0.5870957374572754,-0.5205616354942322,-0.9945817589759827,0.6976103782653809,-1.193494439125061,-0.8755654692649841,-1.3907350301742554,0.0978626161813736,1.174556851387024,-0.347615122795105,-0.4777311384677887,0.4161272943019867,0.31128478050231934,0.06337708979845047,-0.9586411714553833,2.3227734565734863,0.017650343477725983,-0.036950379610061646,-0.8187872767448425,-0.8825123310089111,0.2982195317745209,0.7962772250175476,0.36870789527893066,-2.191270351409912,-1.0854883193969727,-1.8854444026947021,0.10820662975311279,-0.9559658169746399,0.2155410498380661,-0.4809447228908539,1.043149471282959,0.1968728005886078,0.21298882365226746,0.0386604368686676,-0.6330447196960449,0.48904868960380554,1.5402024984359741,-0.016561714932322502,0.08286742866039276,0.10267249494791031,-0.09829411655664444,-0.9068086743354797,-1.0759861469268799,1.102577805519104,-1.0779780149459839,-1.1842111349105835,1.1306405067443848,1.4460755586624146,0.16816894710063934,-0.7504033446311951,-1.8020496368408203,2.479973554611206,-1.1790165901184082,2.3111348152160645,-1.0440592765808105,-0.9597688317298889,0.7954069375991821,-0.9309976100921631,-0.7982392907142639,0.3203864097595215,0.9413971304893494,-0.022554976865649223,1.4292176961898804,3.882680892944336,0.7942289113998413,-0.2787822186946869,-0.6842448115348816,-0.0380917564034462,-1.0328930616378784,0.8965655565261841,-0.21763935685157776,0.28139612078666687,1.7610664367675781,0.09891539812088013,-0.848509669303894,-0.4806443750858307,-0.6718109250068665,1.2222360372543335,-0.9829064011573792,0.711713969707489,0.9294978976249695,-0.5385569334030151,1.0983757972717285,-2.082064151763916,0.3545493483543396,-0.2886713445186615,0.5467320680618286,0.4318191111087799,0.2110634446144104,-0.8607101440429688,-0.48555251955986023,1.1242986917495728,-1.075052261352539,-0.9722355604171753,0.40288233757019043,1.0761312246322632,0.1807645857334137,-0.9130908250808716,-0.7416440844535828,-1.0212575197219849,0.6507309079170227,1.1535903215408325,0.307718962430954,-0.38818714022636414,0.468140572309494,0.5985174179077148,0.1883307546377182,-1.6677193641662598,-0.2171088308095932,1.4202430248260498,-1.0373129844665527,0.6821939945220947,-0.01525637973099947,0.8888711333274841,-0.037965841591358185,0.0532720573246479,0.08004866540431976,1.778336763381958,-0.46470364928245544,-1.2651478052139282,-0.9646355509757996,0.22222286462783813,0.1811564713716507,0.05260982736945152,0.30904388427734375,0.7439405918121338,-0.926518976688385,1.6171842813491821,1.0489044189453125,-0.3836098909378052,0.8328995704650879,-0.4583384394645691,-0.42921188473701477,-0.04700367525219917,0.2944793403148651,0.7998986840248108,0.4936313033103943,-0.3596818447113037,-0.07200947403907776,-0.16390787065029144,0.9958425164222717,-1.7800339460372925,0.17914199829101562,0.8990337252616882,0.9938284158706665,-2.2967135906219482,-1.0791417360305786,-0.18219658732414246,0.0742759108543396,0.7202249765396118,0.09820419549942017,0.642925500869751,0.35739952325820923,-0.12297970801591873,-0.26181793212890625,-0.4726690948009491,-1.170362949371338,1.6543809175491333,0.04856325685977936,1.0398496389389038,1.3252097368240356,-1.0983914136886597,0.14307564496994019,-1.2367734909057617,-0.1962411105632782,0.3596751391887665,-1.264195203781128,0.008072196505963802,-1.7608550786972046,-0.6124003529548645,-1.062363862991333,1.615821123123169,-0.6379558444023132,1.3665435314178467,-0.627032995223999,0.9501947164535522,-0.2284812182188034,0.06436160951852798,-0.3451039791107178,0.9466707706451416,0.5381413698196411,0.931649923324585,-1.282352328300476,1.0238617658615112,0.6490364670753479,1.8526231050491333,0.1732950657606125,-0.9366369247436523,1.1393860578536987,-1.536348581314087,0.06616732478141785,0.05929265543818474,-1.2240862846374512,-0.07885567098855972,-1.0608060359954834,-1.0443131923675537,-1.8216955661773682,-1.187025547027588,-0.5269537568092346,-0.35041341185569763,0.3622327744960785,-0.7807929515838623,0.23324215412139893,1.4865745306015015,-1.2492446899414062,-1.3628467321395874,-0.1961548924446106,-0.15434256196022034,0.6830208897590637,0.11959578096866608,0.3122439384460449,-1.6419326066970825,-0.6413189172744751,1.355411171913147,0.1421831101179123,2.046809673309326,0.9141238331794739,-0.6939488649368286,1.5635251998901367,0.3922508656978607,-0.3643016815185547,-0.7848789095878601,0.5886128544807434,0.12077368795871735,-0.8835170269012451,-0.16361483931541443,1.256405234336853,-0.8061297535896301,-0.6160891652107239,1.1792750358581543,-0.9348424673080444,-0.30516722798347473,-1.4117088317871094,-0.07174894958734512,-1.0849107503890991,0.08625558018684387,-0.3550924062728882,1.3759374618530273,0.8585575222969055,0.4465128779411316,-0.7720522880554199,0.5599029064178467,-0.6656004190444946,-1.2372268438339233,0.284304678440094,0.007920276373624802,-0.40579742193222046,-0.3461601734161377,0.32127267122268677,0.32235682010650635,0.45276889204978943,0.5716080665588379,-0.9698692560195923,2.178576946258545,0.17600400745868683,0.6441388130187988,0.48327136039733887,-0.6511073708534241,-0.3036269247531891,1.6653770208358765,-0.7736770510673523,1.1157746315002441,-0.8145624995231628,-0.20025092363357544,1.6816251277923584,-0.31087779998779297,1.6338800191879272,1.9715323448181152,-0.5471107363700867,-0.13528543710708618,-0.7278547286987305,-0.4679160416126251,0.5999529957771301,0.11841043829917908,-0.586557149887085,-0.3525386452674866,-0.8184823989868164,1.0411909818649292,0.1359761655330658,-1.2294275760650635,0.11082640290260315,0.17360076308250427,0.7349951267242432,0.5960248708724976,1.004051685333252,-0.5811594724655151
重点,-0.3452059030532837,-1.096732497215271,0.15937718749046326,0.3354906439781189,0.18043793737888336,1.879082202911377,-2.404695510864258,0.6868994832038879,0.20145447552204132,-0.6489997506141663,-0.8307567238807678,-0.8028397560119629,-0.23281802237033844,-1.011734962463379,-1.0237289667129517,-1.092353105545044,1.5069963932037354,1.6803832054138184,0.5532416701316833,-2.4096992015838623,0.06162179633975029,-2.680849313735962,0.756955087184906,-1.8759784698486328,-1.5489509105682373,-1.1683204174041748,0.7762694954872131,-1.425670862197876,0.5596497654914856,1.7724401950836182,0.8754448294639587,0.5004169344902039,0.36212241649627686,-0.483905553817749,0.2011796236038208,-0.08218663185834885,-2.4171335697174072,0.04198738932609558,-1.8339041471481323,-0.41021955013275146,-1.7722177505493164,-0.009110218845307827,-1.0423473119735718,-0.2653830051422119,1.7246184349060059,-0.8582544326782227,-0.10627362132072449,-1.7478529214859009,-1.8741155862808228,-1.0469752550125122,-1.4231370687484741,0.18776912987232208,1.6970595121383667,-0.7517974972724915,-1.043879747390747,-0.17653709650039673,-0.8755248785018921,0.627782940864563,0.43135982751846313,0.12922900915145874,-1.205073595046997,0.6107314825057983,0.5965310335159302,1.9843231439590454,-0.4416663348674774,0.04651202633976936,0.4964972734451294,1.6695696115493774,-2.847135543823242,-0.6420107483863831,0.11218813806772232,0.40204542875289917,0.8097084760665894,0.8616416454315186,1.3403702974319458,-1.2096213102340698,-0.4280172288417816,0.8887349367141724,-0.5964386463165283,-1.311680555343628,0.914015531539917,1.746333360671997,-0.7057523727416992,0.21158839762210846,0.35399532318115234,1.9400763511657715,-0.023142622783780098,-1.0065313577651978,0.7954159379005432,-0.6487941145896912,-0.6652877926826477,1.4357515573501587,-0.18891641497612,1.3205375671386719,-0.4347802698612213,0.9781908392906189,-0.24091319739818573,1.642820119857788,-1.5054419040679932,0.8860528469085693,0.5723990201950073,-1.2345056533813477,-1.325488567352295,1.6587094068527222,-0.906396210193634,1.0109286308288574,0.353175550699234,1.8220449686050415,1.4386522769927979,-0.5049693584442139,-1.0689362287521362,1.6216049194335938,-0.5400683879852295,0.5588251948356628,-1.2237881422042847,-0.040372710675001144,1.0481594800949097,-0.2316356897354126,-0.8739214539527893,0.1560460329055786,1.669366478919983,-1.2787995338439941,0.14524853229522705,1.1931755542755127,-2.228832960128784,1.310489296913147,0.525280773639679,1.7839381694793701,0.632134199142456,-0.8814312815666199,1.9672799110412598,-1.0597474575042725,1.3471384048461914,0.6806014776229858,-1.1188217401504517,-1.213282823562622,-0.48623427748680115,-1.2583142518997192,0.5645310878753662,-2.4020307064056396,-1.0320183038711548,1.10728120803833,0.4065572917461395,0.10137336701154709,1.4028441905975342,-0.30998626351356506,-0.17703300714492798,-0.3024436831474304,-1.3001633882522583,-0.3073629140853882,0.48343425989151,0.0006709601730108261,0.11072391271591187,-0.3172075152397156,0.047540049999952316,-0.5290663838386536,-1.4523415565490723,1.005582332611084,0.7463593482971191,0.9509786367416382,-0.24434956908226013,-0.31086429953575134,0.3858436346054077,-1.831815481185913,0.5399417877197266,0.6863933801651001,0.3319786787033081,-1.0627553462982178,-0.8088406920433044,0.354007750749588,-0.2842133343219757,0.053470365703105927,0.3426889181137085,-0.022771410644054413,1.5353562831878662,0.9256939888000488,0.370900422334671,-0.8970816135406494,-0.33904173970222473,-1.7502309083938599,-0.46739888191223145,-0.9910948276519775,-3.0759925842285156,-1.3883365392684937,-1.0707387924194336,2.0974597930908203,-1.6627591848373413,1.2716861963272095,-0.8395571708679199,-2.1836066246032715,-1.2633872032165527,0.3674391806125641,0.7533044815063477,1.8376991748809814,-1.8943766355514526,-0.517180323600769,1.2332121133804321,0.3037054240703583,-0.9199826717376709,1.4874253273010254,-0.48889410495758057,-1.0326454639434814,0.7931889891624451,-0.5231963396072388,1.0936863422393799,0.8980181217193604,0.37605664134025574,-1.5422154664993286,2.0295567512512207,-0.2266223132610321,-0.021516822278499603,-1.4353946447372437,-0.37852707505226135,-0.5192252993583679,-1.1893352270126343,-2.742100715637207,1.0505362749099731,-0.4195406436920166,0.015198303386569023,0.24268683791160583,1.0837886333465576,0.0035941191017627716,-0.5025904178619385,0.8047698140144348,0.23793649673461914,-0.9974604249000549,0.3468799889087677,-0.1899709701538086,-1.400633692741394,-0.4751145541667938,-3.835017442703247,-1.1944202184677124,3.097397804260254,0.39962223172187805,-0.5881786346435547,-1.5572549104690552,2.667238235473633,-1.0045199394226074,-0.44990506768226624,-0.3311048150062561,1.4555994272232056,1.360783338546753,0.48960262537002563,1.322952389717102,-1.588843584060669,-0.7244910001754761,2.2039780616760254,1.6995848417282104,-0.4122542142868042,0.6390894651412964,-1.0050867795944214,-0.2544209361076355,-0.6260949969291687,-1.9704747200012207,-0.058512233197689056,0.2736099660396576,-1.2083216905593872,-1.0323221683502197,1.0415682792663574,-0.691439151763916,-0.2555795907974243,-0.8808650970458984,-1.9685362577438354,0.5656833648681641,-0.7428069710731506,1.9691082239151,0.869132399559021,-0.6692765951156616,-1.3808667659759521,-1.9925174713134766,0.714146077632904,1.5563573837280273,1.0172330141067505,1.0427151918411255,0.4201475977897644,2.5515737533569336,0.7979902625083923,-0.13456331193447113,-1.3201583623886108,0.888828694820404,-0.3281879723072052,-1.3349708318710327,-1.6413841247558594,-0.44229549169540405,1.4199104309082031,-0.7729398012161255,-0.5582760572433472,-1.2468317747116089,1.2189220190048218,-1.1740041971206665,-1.9283909797668457,0.11904264986515045,2.121490955352783,-2.535775899887085,-0.04778284206986427,0.18593750894069672,0.5162631869316101,1.4827756881713867,-0.06851008534431458,-0.014628774486482143
不断,1.4027459621429443,-0.19027458131313324,-0.8032699823379517,-1.3295928239822388,-0.891061007976532,0.8725177049636841,0.1271401196718216,0.8171780109405518,-1.9428653717041016,0.5841280817985535,-1.053125023841858,0.3443911075592041,-1.7298003435134888,-0.9042453169822693,0.15149256587028503,1.1278200149536133,1.0649093389511108,-0.539189338684082,0.4371953308582306,-1.7145355939865112,-0.92659592628479,-1.7620899677276611,-1.3264631032943726,-1.8177886009216309,0.2769748568534851,-1.5789281129837036,0.23341743648052216,-3.130615234375,-0.15475398302078247,1.546990990638733,0.32269012928009033,-2.6048097610473633,-0.3681923449039459,0.5681707859039307,-2.065281629562378,-0.6723604798316956,0.49416908621788025,0.09810556471347809,-0.9709506034851074,-1.6362104415893555,-1.331981897354126,-0.5181254148483276,-1.8190418481826782,-0.42055705189704895,0.07558288425207138,0.04036879539489746,-0.6719294786453247,0.6427441835403442,-1.2469459772109985,-0.40991824865341187,1.383785605430603,1.887847900390625,0.8484135866165161,-1.2531877756118774,1.5081173181533813,1.2428498268127441,-1.9177162647247314,1.2605644464492798,1.2713783979415894,-0.20488868653774261,0.5429559946060181,0.18894805014133453,0.9830407500267029,1.1156920194625854,-1.3816460371017456,0.6633331179618835,0.5691118240356445,1.3751583099365234,-1.2979665994644165,-2.1550724506378174,-0.292451947927475,-1.8235344886779785,-1.5881015062332153,-1.870070219039917,1.0911418199539185,0.9555792212486267,-0.20914117991924286,-0.2387816160917282,-0.607465922832489,-2.0852203369140625,2.7629151344299316,-0.01285035815089941,-1.2033380270004272,0.27291595935821533,-1.6748929023742676,1.5283433198928833,2.041790246963501,-0.8712426424026489,0.10327935218811035,-0.3961676061153412,1.4393810033798218,0.9036059975624084,0.13155993819236755,0.1650383621454239,-1.7962387800216675,-1.1545860767364502,1.140203833580017,1.2563034296035767,0.13548551499843597,-1.0163438320159912,3.2339866161346436,0.016760997474193573,-1.3949904441833496,-0.31989455223083496,0.12978871166706085,2.084181547164917,-0.3802604079246521,0.34502241015434265,0.3239758014678955,0.1458059847354889,-1.9666249752044678,0.5013010501861572,-1.4170308113098145,-1.8620585203170776,0.043685320764780045,-1.4847162961959839,1.5480074882507324,-1.2550336122512817,0.6649378538131714,0.6077263355255127,1.1060870885849,-2.1040499210357666,-0.33425474166870117,-0.113029345870018,0.47035717964172363,-1.7596259117126465,2.1307647228240967,0.5220385789871216,0.9896454215049744,-0.08015496283769608,2.824995994567871,-0.00795301515609026,-2.561645269393921,0.3934337794780731,-0.5757007598876953,-0.4771868586540222,-0.8765634894371033,1.2842867374420166,-0.0875333920121193,-0.970759391784668,-0.19720175862312317,2.335880994796753,-0.5611261129379272,0.5936506390571594,-0.24829545617103577,2.4468958377838135,-0.7325713038444519,-0.3886120319366455,-2.113274097442627,0.3281042277812958,-1.1904536485671997,0.9839682579040527,0.8735312223434448,2.3894903659820557,0.22087450325489044,-0.9561346769332886,1.7022041082382202,-0.6558964252471924,-1.7559354305267334,1.0857477188110352,-1.1524301767349243,0.8980339765548706,0.27461665868759155,0.8978957533836365,2.3087868690490723,-0.302860289812088,0.2849561274051666,0.34370407462120056,-1.24526846408844,-0.8558659553527832,0.42065131664276123,0.36253854632377625,-0.7356334328651428,-0.6131298542022705,2.3879222869873047,2.6909945011138916,-0.29626744985580444,0.9980753660202026,0.5741956233978271,-0.08454018086194992,0.27196764945983887,-1.0492650270462036,-0.5536803603172302,0.3619101345539093,0.12306898087263107,3.1762917041778564,1.1082206964492798,0.395004004240036,-1.222805380821228,0.49016210436820984,0.4721294939517975,0.5548176765441895,1.7619551420211792,2.4927260875701904,-0.8716065883636475,2.238199472427368,-1.3204268217086792,-0.612962007522583,0.3253993093967438,-0.7841558456420898,-0.7726437449455261,-0.5807258486747742,1.0189484357833862,-0.6918329000473022,-0.24172991514205933,-1.4573296308517456,0.28863173723220825,-0.1812085509300232,-0.5586158037185669,-1.6477879285812378,0.7777202725410461,2.4734914302825928,-1.9022741317749023,0.1194748803973198,-1.0446614027023315,-1.407126545906067,0.9622019529342651,1.106513261795044,-0.771697998046875,-0.06383240967988968,-1.1578713655471802,2.9799485206604004,1.0532253980636597,0.20619791746139526,-0.43190833926200867,1.0162190198898315,-1.598533272743225,2.7542784214019775,-0.9295567870140076,-0.03508521616458893,1.4378095865249634,-2.38250470161438,0.4060247242450714,-0.9505422711372375,-0.27893829345703125,0.9071735143661499,1.6197956800460815,-0.0064990222454071045,-0.21551935374736786,-1.2184299230575562,1.9597049951553345,1.4300216436386108,-1.2204508781433105,-2.0654165744781494,-2.3753035068511963,1.172864556312561,0.1987127661705017,-1.4529517889022827,1.9364798069000244,1.7503372430801392,-0.6327046751976013,-0.3732464909553528,1.0662868022918701,-0.3467504382133484,0.38241806626319885,-1.6359972953796387,-1.6889880895614624,-0.7899068593978882,1.5475692749023438,-1.536385178565979,1.0860133171081543,0.007389603648334742,-0.4699711799621582,1.402599811553955,-0.384385883808136,-0.15398433804512024,-2.3070406913757324,-1.2496426105499268,-3.0999419689178467,-0.9520766139030457,-0.5816100239753723,0.3133791983127594,-0.047037191689014435,2.394883632659912,-0.23999308049678802,-0.3390004634857178,1.5326145887374878,-0.21296952664852142,-0.558341920375824,0.5401548743247986,0.9159504771232605,0.5680807828903198,0.40273934602737427,1.6137771606445312,0.21255895495414734,2.0004799365997314,0.5901835560798645,0.5929477214813232,-0.13263674080371857,-2.126619577407837,1.244092583656311,-0.6279172897338867,-0.1856755018234253,-2.0524041652679443,2.3894309997558594,-0.6062902212142944,-1.2993590831756592,-1.1309378147125244,-0.2210274636745453,-2.0523428916931152
社会,1.2831685543060303,-0.48189204931259155,0.6019983887672424,0.25193071365356445,-2.07991623878479,2.3671743869781494,0.6813336610794067,-0.01964799501001835,0.007961679250001907,1.4140005111694336,-0.2707982063293457,-0.48526397347450256,-0.3869396448135376,0.3454838991165161,-2.171020030975342,0.7059140205383301,-0.3065159022808075,-0.6784960031509399,-2.1855673789978027,-3.398174285888672,0.8690151572227478,-0.7885527610778809,-0.899894654750824,-1.1242377758026123,-1.3221460580825806,-2.188462972640991,1.7224127054214478,0.005397501401603222,-1.0879144668579102,0.8164560794830322,-2.029219150543213,-0.9554087519645691,-1.6777596473693848,-0.23386524617671967,-1.9658738374710083,-0.4361707270145416,-0.6008875370025635,-1.9354431629180908,-0.14314331114292145,1.1353309154510498,-1.0176187753677368,1.0695031881332397,-2.206956148147583,-0.7873145341873169,-0.068181611597538,-0.7847565412521362,-1.110677719116211,0.24526803195476532,0.06356415152549744,-0.4700613021850586,-0.45538094639778137,-1.4740186929702759,0.5293440222740173,-0.591417133808136,-0.3428574502468109,0.8434472680091858,0.6398987174034119,0.9078276753425598,1.8719611167907715,0.17210008203983307,1.2345552444458008,0.496664434671402,2.0097100734710693,0.0801573097705841,-1.059491515159607,1.6113661527633667,2.9990015029907227,2.5366899967193604,-0.23004773259162903,-1.107964277267456,2.1791064739227295,-1.2238775491714478,1.0678311586380005,-0.9835458993911743,0.42352813482284546,0.5419042110443115,0.649021327495575,-0.5964478850364685,1.1025829315185547,-0.782777726650238,0.32994043827056885,0.27342692017555237,-0.7310768961906433,-1.0719836950302124,-2.6207804679870605,0.7487124800682068,-0.2733270525932312,0.008532227948307991,1.620804786682129,0.7092554569244385,1.6220756769180298,0.7444187998771667,2.1671142578125,-1.1928082704544067,-1.28342866897583,-0.7358630299568176,1.33152174949646,-0.05738489702343941,-1.135427713394165,-0.9847908020019531,0.40062904357910156,-0.3452901244163513,-0.7274125218391418,-0.3159046173095703,-0.6849952340126038,-1.1761866807937622,-0.3867018222808838,1.9910333156585693,-1.672261357307434,-1.656593680381775,2.6825246810913086,-0.5363184213638306,0.28291431069374084,-0.1617564857006073,0.27227339148521423,-1.6600607633590698,-0.4498613774776459,0.8557387590408325,-0.7858468890190125,-0.49751609563827515,2.3833158016204834,-0.7868123650550842,1.0028480291366577,-0.4689536988735199,0.941919207572937,-1.797314167022705,0.17847906053066254,-1.2405457496643066,0.44598087668418884,-1.77876877784729,1.7986103296279907,0.29818907380104065,1.4524561166763306,3.0102813243865967,-1.656090497970581,0.41819697618484497,0.06461583822965622,-0.4923882484436035,-0.6768128871917725,-2.0571398735046387,-1.1823447942733765,0.3607451319694519,1.2833194732666016,0.5137985348701477,-0.8682762384414673,0.7553460001945496,-2.9766712188720703,0.4175640940666199,1.1066160202026367,-1.1353038549423218,2.6973795890808105,-1.2453174591064453,-1.7586588859558105,1.1723860502243042,-0.8895072340965271,-1.160946011543274,-1.766722321510315,2.274603843688965,-0.3574851155281067,-0.48606157302856445,0.24201518297195435,0.966060221195221,-0.7061029672622681,0.04248817637562752,2.0109684467315674,-1.0171141624450684,2.273642063140869,0.1415567696094513,0.9868855476379395,0.6661528944969177,-0.9484846591949463,-0.5178484320640564,0.5741785168647766,-0.37032240629196167,1.2700780630111694,2.481066942214966,-0.6800109148025513,-1.2656264305114746,0.5020450949668884,1.1958167552947998,-0.09781153500080109,-0.7813794612884521,-2.1329314708709717,0.5706411600112915,2.093531847000122,1.301670789718628,-2.4084632396698,-0.5077659487724304,-1.6297446489334106,1.6223970651626587,-1.2849068641662598,0.5938971042633057,-1.1812843084335327,-0.3717261850833893,2.2793495655059814,0.8491581082344055,-0.1853390336036682,1.166629672050476,-1.2818589210510254,-2.6687164306640625,-0.548102617263794,-0.032634079456329346,-0.31070947647094727,-0.20635943114757538,-0.3277747631072998,0.6609926223754883,1.1666672229766846,-1.135315179824829,0.44779881834983826,-0.7648168802261353,-0.6419393420219421,-2.4854660034179688,-3.2050037384033203,-0.7537135481834412,-1.439969539642334,-1.705436110496521,0.7217048406600952,2.302309274673462,0.36572664976119995,2.9963231086730957,1.1641699075698853,1.1009328365325928,1.9362095594406128,-0.9496502876281738,0.1124674528837204,0.03984152898192406,1.6907292604446411,0.19661693274974823,-1.461118459701538,2.814542293548584,0.37331217527389526,-1.1433998346328735,0.01886570267379284,0.21775178611278534,0.9018151164054871,-1.1245733499526978,-0.45502710342407227,1.6774163246154785,-0.7238624691963196,1.3854005336761475,2.327913284301758,1.8131046295166016,-0.4706624448299408,-0.34452855587005615,-3.0597758293151855,-0.7335748672485352,0.05731259658932686,0.3226579427719116,-1.331354022026062,0.6967483162879944,-0.9196361899375916,0.602445662021637,-0.7572407126426697,1.394178867340088,-0.044822148978710175,-2.3750298023223877,-0.8361328840255737,-0.1858544498682022,3.6489665508270264,-3.46696138381958,-0.4060713052749634,-0.9767509698867798,-0.6658722162246704,0.8640028834342957,-0.2696208655834198,-0.12761087715625763,0.8880703449249268,-0.18399019539356232,-1.5539329051971436,-0.639862060546875,0.4336039423942566,0.8864699006080627,-1.0149552822113037,0.6763641238212585,-0.689129650592804,1.8303165435791016,-0.5954445600509644,2.2257285118103027,-1.3175876140594482,0.8858091831207275,-0.7589985132217407,2.126572847366333,0.2253129482269287,2.1286442279815674,-0.2110442966222763,-0.26767221093177795,1.1632314920425415,2.37540864944458,0.18094632029533386,-2.1647746562957764,-0.5669211149215698,-0.8611147403717041,1.1027932167053223,-1.091908574104309,1.0989018678665161,-0.3496948480606079,-1.092247724533081,-0.3504232168197632,-0.3739945590496063,-1.4899863004684448
提高,0.5606556534767151,-3.8423032760620117,2.646167039871216,0.5571926236152649,-2.93207049369812,1.8675655126571655,-2.468663215637207,0.7133327126502991,-2.4225215911865234,0.17215031385421753,-2.326094150543213,-1.7603542804718018,0.13229034841060638,-1.9087367057800293,-2.8063840866088867,-2.6333160400390625,-0.493896484375,-2.0834367275238037,-3.4860610961914062,-0.3491751551628113,-1.8337202072143555,-2.000544548034668,0.658098042011261,-1.776750087738037,-0.2613579332828522,-0.7237526774406433,0.9133966565132141,-0.650476336479187,-1.6854684352874756,0.3403210937976837,1.23580002784729,-0.398922860622406,-1.489201307296753,0.9266443252563477,-3.1920528411865234,-0.6724451780319214,-1.7120482921600342,-1.806052327156067,-3.575352668762207,-1.2657564878463745,-1.550844669342041,-1.0172743797302246,-0.8865270614624023,0.05092872679233551,0.9215686917304993,0.024820687249302864,-0.6176455020904541,1.120654821395874,-0.9853105545043945,0.535047709941864,-0.1742202341556549,1.4653288125991821,1.9855891466140747,-0.8725595474243164,-0.9553295373916626,-0.8985418677330017,0.9132726192474365,3.0358102321624756,0.5134258270263672,-1.896718144416809,-0.8669496178627014,-0.6715514659881592,-1.0257108211517334,-0.2432149350643158,-1.8936275243759155,0.3569481670856476,0.43458667397499084,2.555804967880249,-0.029155632480978966,-2.4744973182678223,-0.4765731990337372,-0.665471613407135,-2.23565673828125,1.4705311059951782,0.43023914098739624,-3.0801138877868652,1.6143293380737305,1.839492917060852,0.5523695945739746,-1.607509732246399,-0.2572251558303833,2.0583395957946777,-1.167301893234253,-0.7804476022720337,-0.3263819217681885,1.613863468170166,1.3634337186813354,1.6944162845611572,0.8442609310150146,-0.47110429406166077,-1.6480830907821655,0.670939028263092,-0.34485557675361633,0.12329095602035522,0.17171725630760193,-0.5123591423034668,1.6210722923278809,3.1543452739715576,1.6620211601257324,-0.2701992988586426,2.656383991241455,-0.98921138048172,1.9436239004135132,0.3842603862285614,1.0701301097869873,2.8199799060821533,-0.3268417418003082,1.74504554271698,-2.4250035285949707,-0.7657578587532043,-1.6985708475112915,0.05871438607573509,-0.7779207229614258,-2.6447482109069824,-0.18838165700435638,-0.8674865365028381,0.6750345230102539,-0.10629133880138397,-2.2119510173797607,0.08581123501062393,-0.021234620362520218,-3.2639362812042236,-0.1821189671754837,1.7297002077102661,1.0597141981124878,0.13364112377166748,0.03411339223384857,0.9468415379524231,1.714611291885376,0.7487707734107971,1.941394567489624,1.0794942378997803,-0.4679584801197052,0.7717195153236389,0.842863142490387,-1.5323446989059448,-0.42457401752471924,2.0529580116271973,0.5887556672096252,-0.7778292298316956,-1.2793852090835571,0.1590348333120346,-1.2559146881103516,-1.2174460887908936,1.0023702383041382,-1.3335423469543457,-3.6097030639648438,0.6782743334770203,0.6995067596435547,1.4069691896438599,1.1806937456130981,0.8991587162017822,0.7133851647377014,1.8337738513946533,0.06706937402486801,-1.2391858100891113,0.07600733637809753,1.708310604095459,0.4980587661266327,-1.0014833211898804,-1.853518009185791,-0.06305715441703796,1.6974833011627197,-0.9675912261009216,2.3446457386016846,1.7485285997390747,1.385730504989624,-1.0755594968795776,0.09928259998559952,1.3423314094543457,-0.7293445467948914,-0.039705146104097366,0.6732938885688782,0.4874765872955322,1.8732781410217285,0.7169540524482727,-0.318717896938324,-0.28564751148223877,0.7084599733352661,0.5296096205711365,-0.8556824326515198,0.9803396463394165,-0.33256858587265015,-0.661716639995575,0.09558995068073273,2.0784072875976562,-2.528015375137329,0.8554151654243469,1.5266422033309937,-2.2321181297302246,-3.0321576595306396,-1.9717552661895752,-0.7141837477684021,0.26094862818717957,1.2615069150924683,-0.3671703338623047,-0.9535911679267883,0.28522735834121704,1.1283397674560547,0.3052200376987457,-0.3271511197090149,-2.132906913757324,2.650571346282959,0.12671568989753723,1.2683464288711548,-0.17856474220752716,0.2107793241739273,0.18800503015518188,0.6099237203598022,-1.5259029865264893,-0.7864339351654053,-0.6386075019836426,-2.439749240875244,-0.6619229316711426,-0.600509524345398,0.9822744727134705,0.2565871775150299,2.150404214859009,-1.1477800607681274,0.25080475211143494,-0.4307665526866913,0.36036691069602966,2.6147348880767822,1.6892811059951782,-1.3457205295562744,-2.3895275592803955,3.2035040855407715,-1.1382988691329956,-2.2017760276794434,-0.012637513689696789,2.218618631362915,0.13037090003490448,1.645514726638794,0.11511816084384918,-1.7224876880645752,-0.19215236604213715,0.11089018732309341,0.14611203968524933,0.34519514441490173,-0.18738193809986115,-0.8783003091812134,-0.4734368920326233,-1.7257139682769775,-1.4360071420669556,-2.214264154434204,-2.122243642807007,-0.5300177335739136,-0.818202018737793,-0.20248255133628845,-1.5253331661224365,-4.377539157867432,-0.5168567895889282,1.3652607202529907,-0.4543938636779785,-0.007869256660342216,1.141274333000183,-1.5297139883041382,-0.8435379266738892,-0.8788678050041199,-1.0518643856048584,0.6097812056541443,-2.6963388919830322,-0.5682778358459473,-0.17113156616687775,1.0258153676986694,2.917158603668213,-1.9312864542007446,-1.004889965057373,-1.607143759727478,0.15141595900058746,-0.12288995087146759,-1.5432008504867554,-1.7074025869369507,0.9425843954086304,-0.7953763604164124,0.6108826398849487,-0.5572659373283386,2.0888586044311523,1.6839882135391235,1.2109514474868774,-0.3794712424278259,1.841335654258728,-0.3871568441390991,1.302799105644226,-0.546737790107727,0.38661670684814453,-2.0502986907958984,0.469356894493103,-1.5958398580551147,-1.1266672611236572,-0.5992687344551086,-1.8618872165679932,0.07868561893701553,2.205375909805298,-1.1818008422851562,-0.537799596786499,0.002890166360884905,0.12279266119003296,-0.20967048406600952,-2.1227869987487793
