word,0,1,2,3,4,5,6,7,8,9,10,11,12,13,14,15,16,17,18,19,20,21,22,23,24,25,26,27,28,29,30,31,32,33,34,35,36,37,38,39,40,41,42,43,44,45,46,47,48,49,50,51,52,53,54,55,56,57,58,59,60,61,62,63,64,65,66,67,68,69,70,71,72,73,74,75,76,77,78,79,80,81,82,83,84,85,86,87,88,89,90,91,92,93,94,95,96,97,98,99,100,101,102,103,104,105,106,107,108,109,110,111,112,113,114,115,116,117,118,119,120,121,122,123,124,125,126,127,128,129,130,131,132,133,134,135,136,137,138,139,140,141,142,143,144,145,146,147,148,149,150,151,152,153,154,155,156,157,158,159,160,161,162,163,164,165,166,167,168,169,170,171,172,173,174,175,176,177,178,179,180,181,182,183,184,185,186,187,188,189,190,191,192,193,194,195,196,197,198,199,200,201,202,203,204,205,206,207,208,209,210,211,212,213,214,215,216,217,218,219,220,221,222,223,224,225,226,227,228,229,230,231,232,233,234,235,236,237,238,239,240,241,242,243,244,245,246,247,248,249,250,251,252,253,254,255,256,257,258,259,260,261,262,263,264,265,266,267,268,269,270,271,272,273,274,275,276,277,278,279,280,281,282,283,284,285,286,287,288,289,290,291,292,293,294,295,296,297,298,299
小学,-1.6216340065002441,1.1357026100158691,-0.04681162163615227,2.8688762187957764,1.2553642988204956,0.6939217448234558,-2.417482614517212,-0.28666776418685913,1.0223898887634277,0.7708308696746826,-0.3879251480102539,-0.9643115997314453,-2.380167245864868,-0.13681833446025848,-0.09251314401626587,0.8424403667449951,1.5324572324752808,-2.3263659477233887,-1.1366279125213623,-2.659470796585083,-1.3148753643035889,-1.7865444421768188,-1.4503825902938843,1.377656102180481,-1.327974796295166,0.16010335087776184,1.9102147817611694,1.0760340690612793,0.2189980149269104,-1.1661617755889893,1.5768736600875854,0.12534992396831512,0.8282188773155212,-0.3144223093986511,2.114445924758911,-1.5774675607681274,0.12412268668413162,-0.9996811151504517,-0.5777499079704285,1.83510160446167,3.0457699298858643,-0.25759822130203247,-1.6575905084609985,0.6617844104766846,0.1849772185087204,0.3303895592689514,0.8170790672302246,-0.0822136253118515,-0.2785817086696625,1.209273338317871,-0.3111008107662201,-0.38441795110702515,-0.6309140920639038,-1.1225857734680176,0.8046176433563232,-0.017372366040945053,-1.3544998168945312,0.29828158020973206,1.5134425163269043,1.4794567823410034,0.2795448303222656,0.024490779265761375,3.248558282852173,-1.5311046838760376,0.04946017637848854,1.9148396253585815,0.11752539128065109,-0.4526384472846985,0.5340813398361206,-0.6073797345161438,0.21998029947280884,1.638465404510498,-0.21908394992351532,-1.2145038843154907,0.6363247632980347,1.4720332622528076,-0.16872374713420868,-1.0839154720306396,-2.0340800285339355,1.4898332357406616,-2.2436094284057617,-1.2973426580429077,1.8683663606643677,1.3878750801086426,0.7893360257148743,-0.9020224809646606,0.6323698163032532,-0.9597191214561462,1.0790314674377441,0.15855321288108826,1.4845527410507202,0.08614303916692734,1.6138983964920044,1.1953173875808716,1.1459263563156128,-0.705970048904419,0.7056026458740234,1.2749578952789307,-1.1777287721633911,1.0843220949172974,2.1987526416778564,-0.6979203820228577,0.4766201674938202,1.119295358657837,0.42374861240386963,0.4662126898765564,0.475527286529541,-0.8749179840087891,0.7610214352607727,0.660737931728363,-0.8249874114990234,-0.7753494381904602,3.0468318462371826,-1.9026814699172974,1.255098581314087,1.6971938610076904,1.3639169931411743,-0.5982299447059631,1.7756670713424683,0.4577108919620514,0.3294254541397095,-0.3556719124317169,-0.11975356936454773,0.7255721688270569,-0.6094000339508057,2.67698335647583,1.272377848625183,-0.38234639167785645,0.9285531044006348,-0.6615758538246155,-0.24969293177127838,1.3372784852981567,0.8157811164855957,-0.7369764447212219,0.7849587202072144,-0.09824664145708084,0.04381299763917923,-0.2675771117210388,-1.4849402904510498,1.3843072652816772,0.31650063395500183,-0.753783106803894,0.7341223359107971,0.9192666411399841,-0.4784870743751526,-1.4947086572647095,-0.13397400081157684,-0.39170774817466736,-1.6191109418869019,0.06904713809490204,-0.2781752347946167,-0.2187948226928711,0.2199772298336029,3.119455099105835,1.693495273590088,-0.2486954778432846,2.150082588195801,-0.14201508462429047,-2.1375503540039062,0.031020427122712135,-1.7430075407028198,1.214918613433838,-0.8551561236381531,-0.5377565622329712,0.8244405388832092,-2.0496251583099365,0.3598114848136902,0.5867802500724792,0.5143492221832275,-0.0679054707288742,0.33282336592674255,-0.9310827255249023,1.7148100137710571,-0.7936213612556458,0.6688328385353088,1.9605004787445068,-1.9385801553726196,-2.164860725402832,2.1524205207824707,0.049972593784332275,1.368304967880249,0.9973586797714233,-0.4827171564102173,-2.553523063659668,-0.46478134393692017,-1.350441336631775,-1.3197654485702515,-1.8706663846969604,-1.1206759214401245,-0.06274355202913284,1.2779992818832397,0.08140125125646591,1.5261304378509521,-1.9490835666656494,-3.6883511543273926,-1.3696080446243286,1.3611160516738892,-0.837051272392273,-1.9367038011550903,0.6664106249809265,-0.41979414224624634,2.454688787460327,0.565639853477478,-1.0216096639633179,1.369736909866333,1.575979232788086,0.038056958466768265,3.7224507331848145,-2.349987745285034,0.03290275111794472,1.5061604976654053,1.2337350845336914,0.6520226001739502,-0.21291959285736084,0.9812041521072388,-0.24853651225566864,-1.5367498397827148,0.15573826432228088,-1.8050670623779297,1.4133429527282715,-0.16324825584888458,1.2088314294815063,1.2574139833450317,-1.248779296875,0.4167070984840393,0.9124965071678162,1.410232424736023,-0.29996442794799805,3.0426950454711914,1.1413582563400269,0.4613613784313202,-0.9589375257492065,0.2975350618362427,-3.2279136180877686,2.422248601913452,-0.2215680330991745,1.2207008600234985,-0.8670366406440735,2.048548460006714,-0.6075751781463623,-3.3610641956329346,-0.41273072361946106,2.924490451812744,1.0267307758331299,1.6141414642333984,-1.8703899383544922,0.992874026298523,0.08825647085905075,-0.4736205041408539,3.4255118370056152,-1.9763988256454468,0.2743445634841919,-1.2571855783462524,1.3377493619918823,-0.1270361840724945,1.5519437789916992,-1.26780366897583,0.4622149169445038,2.6206912994384766,0.31334489583969116,-0.13731372356414795,0.46903032064437866,0.8157709240913391,-4.210059642791748,-2.235557794570923,-2.0058541297912598,0.002138392301276326,0.7146074175834656,-0.2376265674829483,1.8945833444595337,-0.2006099671125412,-0.04763912409543991,0.9568342566490173,0.40382248163223267,2.1438052654266357,0.7987940907478333,4.491050720214844,2.9684746265411377,-1.0504964590072632,1.9549355506896973,-0.9422651529312134,0.4360027611255646,1.384230613708496,-1.2230710983276367,-0.926332950592041,-3.0073137283325195,-1.4922393560409546,-2.802224636077881,1.0011215209960938,-0.9039714336395264,-2.902865171432495,-1.2329537868499756,-0.3752037584781647,-2.4600019454956055,2.2203426361083984,-1.1675045490264893,2.24383544921875,0.37303125858306885,2.266130208969116,-1.2718377113342285
注意,0.9406070113182068,-2.683396577835083,1.5088351964950562,-2.2680282592773438,0.034897055476903915,0.9385528564453125,-1.3194438219070435,-1.1698122024536133,3.1933860778808594,0.32776889204978943,-1.3463634252548218,-0.6640253067016602,1.8783186674118042,-0.5517314076423645,-1.5693167448043823,-1.3044500350952148,1.9210776090621948,2.5892651081085205,0.5894213914871216,-0.4182300269603729,-1.582119107246399,-2.0774989128112793,-2.5579328536987305,-2.2590126991271973,-0.6696552038192749,-0.25846052169799805,1.7525792121887207,-1.042181372642517,-0.4176661968231201,-0.41668176651000977,-1.641900897026062,-0.5036018490791321,-1.6534202098846436,-1.0830928087234497,-1.4275566339492798,-0.12124490737915039,-3.1628715991973877,0.8545886278152466,-0.1937367022037506,-0.9330432415008545,-1.3723745346069336,-0.5870819091796875,1.2846131324768066,-0.6780238747596741,1.0314964056015015,0.5537227392196655,0.7913496494293213,0.40588435530662537,-1.7571680545806885,-0.12212354689836502,-0.478325754404068,-0.2544320821762085,-0.9561774730682373,1.7824369668960571,0.6216617226600647,0.5274190306663513,0.00651549594476819,1.5355943441390991,0.1857508420944214,-1.1885892152786255,-1.5371360778808594,1.3761634826660156,-3.137205123901367,-1.6009743213653564,-3.2181200981140137,0.7090830206871033,0.22552727162837982,2.175471305847168,-0.8238893151283264,0.14329253137111664,0.2843145430088043,-0.9046791195869446,-0.925622284412384,0.8092116117477417,0.2129266858100891,1.0717724561691284,0.5134785175323486,1.4033968448638916,1.1159425973892212,0.061902862042188644,-0.04148414358496666,0.32492297887802124,-2.860459804534912,0.36404189467430115,1.8089972734451294,-0.6312046647071838,2.8940865993499756,3.2511794567108154,-0.7749431729316711,0.02407947927713394,0.41918522119522095,0.31292882561683655,2.190577268600464,0.14313997328281403,0.5987919569015503,0.896125853061676,0.8251674771308899,0.5942596197128296,1.3047817945480347,-1.259827971458435,1.8347665071487427,-0.6693206429481506,0.5069780349731445,0.6979137063026428,-0.5786624550819397,-0.9085863828659058,0.38149234652519226,0.0571989081799984,-0.8470911979675293,0.5909801721572876,-0.43875735998153687,1.1403021812438965,0.7108412981033325,-1.724413514137268,1.6492705345153809,-0.538074791431427,-0.934493899345398,-0.35316604375839233,-0.2753487825393677,0.7246137261390686,2.436728000640869,-0.806342601776123,0.9528200626373291,0.6586989760398865,-3.4607040882110596,-0.3962618112564087,-0.10546199977397919,-0.36406105756759644,0.6302160620689392,0.5857920050621033,1.7643980979919434,0.06437325477600098,-1.4015424251556396,-0.29289671778678894,1.3861016035079956,0.4494633376598358,0.18218491971492767,0.6978296041488647,-0.5905441045761108,-1.7654296159744263,0.5367091298103333,-0.17578339576721191,-0.10905572026968002,-0.29755064845085144,-1.4447153806686401,0.6604722738265991,-1.370782732963562,-0.708275556564331,-1.7128934860229492,-0.07103386521339417,-0.4979071021080017,-0.7461321949958801,-2.1473476886749268,0.1214226633310318,0.306393563747406,-1.7759814262390137,-0.4823506474494934,0.47830790281295776,-0.1725533902645111,1.1578724384307861,-1.9024454355239868,0.853073239326477,0.01323738880455494,0.3970978260040283,0.8275778293609619,-1.2621787786483765,-0.7339044809341431,-0.8757995963096619,-0.502144455909729,0.5066549777984619,-1.5200668573379517,1.500596284866333,0.7094979286193848,-1.5875167846679688,-1.3347282409667969,2.392097234725952,0.3561939299106598,0.4870094954967499,2.1916611194610596,-1.6187365055084229,-0.34443721175193787,-1.3437203168869019,0.17865483462810516,0.008659444749355316,-0.2478564977645874,-0.8556476831436157,-1.133764386177063,3.2884252071380615,0.04134456813335419,0.6579464673995972,-2.6003246307373047,-1.0972769260406494,0.27151891589164734,0.9216080904006958,0.955268919467926,-1.1228587627410889,-0.9825917482376099,-1.5276098251342773,2.0430376529693604,0.48659440875053406,-1.4620660543441772,-1.17793607711792,0.7516024708747864,1.5168683528900146,-1.1819443702697754,2.648082733154297,-0.5241906642913818,1.6203051805496216,1.6765457391738892,0.6079782843589783,1.8497384786605835,-0.04234325885772705,-1.4542181491851807,-0.6805204153060913,1.6563992500305176,-2.6752870082855225,1.1301848888397217,2.350071907043457,-1.272783875465393,0.8768383264541626,0.6449695229530334,0.5750372409820557,-1.6311789751052856,1.283405065536499,-0.05854078754782677,-0.78200763463974,1.5004186630249023,-1.069821834564209,-0.8278652429580688,0.7202818989753723,0.5122092366218567,0.8456657528877258,0.9179309606552124,-0.4300803244113922,-1.8130656480789185,-0.6858513355255127,-0.3263411819934845,-1.2432700395584106,3.3414533138275146,-0.6052142381668091,0.5408681035041809,-0.11780719459056854,0.9254052639007568,-0.7747122645378113,-0.8540450930595398,0.22477133572101593,0.09184885025024414,0.13607250154018402,0.15303941071033478,2.142817497253418,-0.6899918913841248,2.1497275829315186,-1.2481281757354736,1.0469108819961548,-0.4703199863433838,1.5878181457519531,-1.7077913284301758,-1.1249393224716187,0.6376180648803711,-1.0732985734939575,-1.73564612865448,-3.1781749725341797,0.5012640953063965,0.8170154690742493,1.1868523359298706,-2.2419259548187256,-0.6328180432319641,-0.40839749574661255,1.0086439847946167,-2.333801746368408,-1.48240327835083,0.19910171627998352,-0.5478281378746033,1.450234055519104,-0.7371199131011963,0.8268359899520874,-0.3583858013153076,-0.5238882899284363,-0.0685424655675888,-1.305243730545044,2.223907470703125,-0.6684662103652954,-0.9745940566062927,-0.6251568794250488,-1.0755397081375122,0.38493016362190247,-0.6914186477661133,0.5265809297561646,0.9872262477874756,-0.81181800365448,1.2344605922698975,0.4213944375514984,-0.9241881966590881,1.8099852800369263,-0.23067881166934967,2.251688241958618,-0.6806507706642151,0.7751002311706543,-3.0025649070739746,0.6570913791656494
奠定,2.0797674655914307,-0.335025817155838,0.9156280755996704,-1.2141050100326538,-2.080193519592285,1.660258173942566,0.03797953575849533,-1.2137789726257324,-0.9235835075378418,0.5355951189994812,-0.10215196013450623,0.13935133814811707,-2.3894214630126953,0.46808677911758423,-0.6057077646255493,-1.3709347248077393,-0.7308764457702637,0.7481043934822083,-1.61983323097229,1.0559474229812622,1.3819366693496704,-1.2497836351394653,0.25837448239326477,-0.4287797212600708,1.0192341804504395,-2.0189385414123535,1.2199971675872803,0.012939022853970528,-0.30002835392951965,1.5873922109603882,0.9484221339225769,1.0128105878829956,-0.5935941934585571,1.4215525388717651,0.14213599264621735,-0.5399206876754761,1.7856733798980713,-0.6473675966262817,-2.2203009128570557,-0.8962130546569824,0.2705691456794739,-1.9651793241500854,0.8768966197967529,-0.9235402345657349,0.4999602437019348,-0.16692256927490234,-0.7313334941864014,0.7953920960426331,0.03522861376404762,-2.2046053409576416,-0.552346408367157,1.4646233320236206,0.7503393888473511,0.49041610956192017,-0.3194460868835449,-2.109412908554077,-0.5321203470230103,0.39774152636528015,0.9011370539665222,0.07970370352268219,-0.19994959235191345,-1.3621318340301514,0.4236055612564087,0.21047483384609222,-0.4729088246822357,-1.8266146183013916,1.832839846611023,1.0430140495300293,-2.005293130874634,-0.977960467338562,-0.6028783321380615,0.892035722732544,-0.4330916702747345,2.4174869060516357,3.005418062210083,-1.173165202140808,2.120159149169922,1.6532514095306396,0.9106727838516235,1.2796591520309448,2.1510162353515625,1.0160415172576904,0.5559783577919006,1.1819149255752563,-0.7251561880111694,1.3860952854156494,0.047085441648960114,1.0411961078643799,4.645447254180908,-1.1670801639556885,0.5508772730827332,-3.1499288082122803,1.3938921689987183,1.1185977458953857,-0.9623278975486755,-1.2244164943695068,1.2015535831451416,-1.7584384679794312,-1.1980143785476685,-1.526507019996643,0.804112434387207,0.510525107383728,-0.7193536758422852,-2.52557110786438,0.7218912839889526,1.330578088760376,-0.3966112732887268,0.944572389125824,-0.35109394788742065,0.6051993370056152,-0.5719758868217468,-0.9841747283935547,0.28114932775497437,-0.05155680328607559,-1.3524523973464966,-0.8020984530448914,-1.0259044170379639,0.06729909032583237,0.8831437826156616,-0.3292064070701599,-0.5607281923294067,-0.5090300440788269,-1.4739124774932861,-1.888965368270874,1.7108200788497925,0.21329675614833832,-0.20544864237308502,-1.5752794742584229,-0.6481831669807434,-1.923845887184143,0.9571771621704102,-0.4149232804775238,0.16492542624473572,2.809807777404785,-1.2450826168060303,1.00226628780365,-0.11359216272830963,-0.5456729531288147,-0.2307797372341156,1.2436461448669434,-0.36836928129196167,-1.236930012702942,3.3430609703063965,-1.1420015096664429,-1.5894641876220703,-0.5540181994438171,-0.4547857642173767,-0.7965590357780457,1.9717798233032227,0.10986881703138351,0.9500866532325745,-0.9358147978782654,1.3635766506195068,2.2277345657348633,-0.1532619446516037,-0.3757922649383545,-0.7459888458251953,0.1674698144197464,-0.26998335123062134,0.8299586176872253,-0.27118512988090515,0.17895552515983582,2.3888659477233887,-1.838217854499817,1.8363046646118164,-0.420356422662735,0.5434092283248901,0.6273000240325928,0.07389675080776215,1.8743423223495483,-2.2597813606262207,-2.1636416912078857,-0.8235359787940979,-1.0144996643066406,1.7556324005126953,0.5896771550178528,-2.110595464706421,0.20374096930027008,0.2546241879463196,-0.7795921564102173,0.23818853497505188,1.8532708883285522,0.35349100828170776,-1.9836734533309937,-2.1082820892333984,-0.9240311980247498,-0.9549761414527893,-3.190584659576416,-0.7742007374763489,-1.298385500907898,-2.9356842041015625,0.30666589736938477,-1.1756891012191772,1.1262367963790894,-2.110443592071533,-2.0383119583129883,-1.0503441095352173,2.0666685104370117,1.9328811168670654,0.33610740303993225,-0.4602005183696747,-2.9333183765411377,-0.28659194707870483,0.7298094630241394,-0.8656191825866699,1.606428623199463,1.355864405632019,-0.4785141944885254,-0.30444592237472534,0.4490194022655487,0.1261633187532425,0.5076962113380432,0.7920922040939331,0.10289975255727768,1.1752530336380005,0.4343642294406891,0.13932843506336212,1.9280362129211426,2.643841028213501,1.033955693244934,3.825084686279297,-1.1074811220169067,0.3431950807571411,0.5867606401443481,-1.122395634651184,-0.4434727430343628,0.7258943915367126,-1.1160075664520264,-0.11395992338657379,-0.4823013246059418,0.6946306228637695,0.5598775744438171,1.7161036729812622,0.10008461773395538,1.3651278018951416,-1.5771970748901367,2.1974453926086426,0.4825808107852936,-1.5029021501541138,0.23915338516235352,-1.3455939292907715,1.283186674118042,-1.8401179313659668,0.37352707982063293,-1.2478389739990234,0.8371191620826721,0.8521437644958496,-2.6833407878875732,0.044090189039707184,-0.14720100164413452,-2.624283790588379,1.4299147129058838,1.560431718826294,-2.1228227615356445,-0.6517846584320068,-0.2603195011615753,-2.0795388221740723,-0.1749666929244995,-1.545287013053894,0.5435042977333069,0.1849304735660553,-2.2231688499450684,-0.9157966375350952,-0.21583999693393707,-0.838685929775238,0.21078622341156006,0.2406841367483139,-1.6809433698654175,0.5030847191810608,-1.2867788076400757,0.7962498068809509,-0.13102705776691437,1.7734363079071045,-0.7560744285583496,-1.2422393560409546,0.3837456703186035,-1.4983744621276855,1.2799875736236572,-0.995691180229187,-0.22055141627788544,-2.035759449005127,3.2196004390716553,-0.5705468058586121,-0.18039081990718842,-0.595547080039978,-0.9999406933784485,-1.7777533531188965,-0.30651214718818665,-2.0863616466522217,0.011734344996511936,1.183091640472412,-1.6931380033493042,0.7196015119552612,-1.2253996133804321,-0.09894144535064697,0.1829865276813507,1.0558598041534424,0.6720228791236877,0.09550628066062927,0.6605601906776428
效率,0.01760520040988922,1.2654454708099365,-0.12291564047336578,-1.7866989374160767,0.7294635772705078,0.12496097385883331,1.1781107187271118,0.6519434452056885,-0.45369359850883484,-1.4584484100341797,-1.4618523120880127,-0.019813241437077522,-0.616045355796814,0.18518070876598358,-2.385225296020508,-2.120347499847412,0.8287595510482788,-0.5993742346763611,-2.907390594482422,-0.5928217768669128,-0.9332152009010315,-0.7390553951263428,0.13740494847297668,-1.5559370517730713,-0.12139275670051575,-1.1281658411026,-0.3587969243526459,-2.366605758666992,0.20720155537128448,2.096127986907959,-0.3913010060787201,-0.7593857049942017,-1.3205232620239258,0.3616640567779541,-1.4174662828445435,-0.14843010902404785,-0.9586917757987976,-2.7901875972747803,-2.1925604343414307,-0.024448009207844734,0.5062844157218933,-0.7677361369132996,0.35446104407310486,-0.9304838180541992,0.9570691585540771,2.022372245788574,1.484233021736145,2.561906099319458,-2.683549404144287,0.38400423526763916,-0.9815458059310913,0.671303927898407,1.6667050123214722,-0.10849999636411667,0.7258254289627075,0.8891393542289734,0.08381950855255127,2.3350069522857666,1.7979332208633423,-0.4267731308937073,-0.5818643569946289,-0.22628523409366608,1.0120383501052856,1.4327737092971802,-2.750437021255493,1.789668321609497,0.4720013439655304,0.8194772005081177,1.7324880361557007,-1.969879388809204,-3.2995715141296387,-1.1031972169876099,-0.985779881477356,0.9143506288528442,1.3042610883712769,-1.199377179145813,2.0427186489105225,-0.0872064158320427,0.5908141136169434,0.06755895167589188,0.9447634816169739,0.1724645495414734,-1.056957483291626,0.3471156060695648,-0.6417298316955566,-0.358481228351593,0.3155551254749298,0.5601357817649841,-0.7791374325752258,-0.8848787546157837,-0.6562483310699463,0.11081022769212723,0.5860006213188171,0.941757321357727,-1.4192167520523071,-0.04339452087879181,0.781400740146637,0.9743033647537231,0.7721152305603027,-0.4422134757041931,0.5585498809814453,-0.5992019772529602,-1.200103759765625,-0.8972957730293274,1.9511655569076538,2.271979808807373,-0.6302670836448669,0.22599484026432037,0.4972439706325531,-2.621424674987793,1.2372089624404907,-1.0900135040283203,-1.9098752737045288,-0.6148476600646973,0.2381312996149063,0.456773579120636,1.8039709329605103,-0.7566958665847778,-1.5528734922409058,0.6310257911682129,-0.7776498198509216,-1.2053366899490356,0.1824243813753128,0.4728802740573883,0.25818270444869995,-0.606848418712616,1.1436508893966675,1.892695665359497,-0.29470446705818176,-2.541275978088379,-0.268032968044281,0.026412250474095345,1.5642441511154175,2.349104881286621,0.18134936690330505,-2.1399335861206055,-0.34594759345054626,0.21331670880317688,-1.6403722763061523,-0.047886330634355545,-0.8393825888633728,0.03450831398367882,-3.1179380416870117,1.793206810951233,2.8629281520843506,1.1350696086883545,-1.4123378992080688,0.092710942029953,1.7683051824569702,-0.3772299289703369,-1.1475061178207397,0.18715043365955353,-2.7798824310302734,2.5734899044036865,-0.32269448041915894,-1.9599497318267822,0.4441929757595062,0.10789204388856888,-1.8252475261688232,-0.008519366383552551,-1.5245981216430664,0.2934478521347046,1.3656715154647827,-3.1540894508361816,1.9155770540237427,-0.28670376539230347,1.877311110496521,-0.2650468945503235,2.1589176654815674,1.0718342065811157,0.7133240103721619,-0.40192288160324097,-1.12913978099823,0.36071687936782837,1.4655258655548096,1.1857410669326782,0.012879191897809505,-1.231094479560852,-0.9544367790222168,1.2217433452606201,-0.5792409181594849,-2.826016902923584,-1.7626105546951294,-0.5397824645042419,1.7897039651870728,0.8691670298576355,-1.3588316440582275,1.4583766460418701,-1.0932117700576782,-0.7217388153076172,0.023604819551110268,-0.32486385107040405,0.32418292760849,0.22513189911842346,0.8720016479492188,-0.5117189884185791,-0.7340162992477417,-0.4125744700431824,0.9583596587181091,1.8705756664276123,-1.7663750648498535,0.6719387769699097,3.0558691024780273,0.8902780413627625,-0.5681807994842529,-0.4175463914871216,0.2713160514831543,-0.4136289954185486,2.2903482913970947,-0.42527836561203003,0.002446178114041686,0.9832022786140442,-1.550829529762268,-0.05638011544942856,1.0795718431472778,-0.5729603171348572,0.9048677086830139,-1.1773040294647217,-0.1263151615858078,-1.1278918981552124,0.9454323053359985,1.6493932008743286,-1.4300991296768188,1.8883002996444702,-0.48382633924484253,0.6338972449302673,1.6696358919143677,0.2425723373889923,-0.289843887090683,0.6436441540718079,0.1030428558588028,-0.949366569519043,0.8883889317512512,1.5874667167663574,-1.2499384880065918,-0.650188148021698,0.7556004524230957,-0.558701753616333,-2.171013832092285,-0.7497342824935913,1.5004231929779053,-0.4172842502593994,0.24531617760658264,-1.302270531654358,-1.7512168884277344,-0.7733128070831299,-0.27196887135505676,-0.9085531830787659,-2.118100881576538,-0.7283241152763367,-1.5334967374801636,0.24668756127357483,0.7456135749816895,-0.6912474632263184,0.019367722794413567,0.6038236618041992,-3.2508628368377686,-0.8601176738739014,1.290418267250061,-2.093879222869873,-0.930456280708313,0.9412881135940552,0.9366400837898254,1.647850513458252,1.0486022233963013,-0.20875371992588043,-0.7324487566947937,-0.9378325343132019,-0.9348711967468262,0.04417642205953598,-0.1652543842792511,-0.6354278326034546,-0.7653812766075134,-1.3317350149154663,-2.3274166584014893,0.09263822436332703,3.082542657852173,-0.23619240522384644,-0.2528020143508911,0.17592541873455048,2.9942867755889893,1.3849048614501953,-0.6151266694068909,2.3873090744018555,-0.35432010889053345,0.872462809085846,0.5510185360908508,1.902079701423645,-0.49416887760162354,-0.004319698084145784,-1.6885005235671997,-1.071297526359558,-0.9216358065605164,-0.42103156447410583,-1.0117467641830444,1.5868194103240967,0.3024085462093353,-1.9876375198364258,-0.41183745861053467,-2.841761827468872
基础,-0.33209028840065,1.5509446859359741,1.234106183052063,1.5376458168029785,-0.58658367395401,1.3935390710830688,-0.8713892698287964,1.7716174125671387,-0.6063055992126465,-0.48127856850624084,0.32137832045555115,0.06108350306749344,-0.9746106863021851,0.4084978401660919,-2.0911624431610107,0.40682992339134216,0.2682923674583435,1.4671697616577148,-2.039461135864258,-1.5188416242599487,0.7960435152053833,-1.1833140850067139,-1.576737880706787,-1.3537126779556274,-1.2752450704574585,-0.1375855803489685,0.6664891839027405,-0.1540622115135193,-1.2173733711242676,2.543527603149414,-0.7678458094596863,1.359752893447876,-0.6122352480888367,-0.559757649898529,0.6493515372276306,2.155970811843872,-0.1983991414308548,-2.1904985904693604,0.17294681072235107,0.3194772005081177,-0.23547828197479248,-1.9392259120941162,-1.7017977237701416,-2.1961307525634766,0.5853583216667175,1.8423211574554443,2.750765562057495,0.611692488193512,-2.031066417694092,-2.645378828048706,-2.100534677505493,1.1365926265716553,2.8296780586242676,-1.8730577230453491,0.37140893936157227,-0.6159383654594421,-0.16075006127357483,0.7334187626838684,0.8592149019241333,1.0101617574691772,-2.778639554977417,-0.036489203572273254,-1.0255488157272339,0.6993955373764038,-3.4809844493865967,0.6477553844451904,0.7017912268638611,3.2063729763031006,-1.1848019361495972,-1.0393807888031006,-0.12475208938121796,-0.6511725187301636,-0.046461910009384155,-1.0416055917739868,1.6847320795059204,-0.3166428804397583,0.13868434727191925,0.4439898133277893,-1.0349013805389404,0.4486599564552307,0.7468836307525635,0.30950769782066345,-1.1291323900222778,-1.169796109199524,-2.2833971977233887,2.4442763328552246,-0.4707554280757904,0.07682891190052032,2.5087811946868896,0.018052522093057632,-1.254420518875122,0.17243964970111847,0.7636905908584595,1.3286784887313843,-2.7767159938812256,-0.26895827054977417,-0.045144617557525635,0.8824078440666199,0.10867351293563843,-0.4217891991138458,0.2283797413110733,-1.9340746402740479,-1.138205647468567,-1.8188745975494385,-0.34114596247673035,1.149696946144104,0.5711618065834045,1.8038792610168457,-1.4196714162826538,-0.02764260023832321,0.9901769757270813,-0.5847682356834412,-0.33568400144577026,1.3393915891647339,-2.3631083965301514,0.051132090389728546,0.2375643253326416,-0.37836793065071106,-1.4240437746047974,0.6861912608146667,0.01621379889547825,-2.203061580657959,-0.42177483439445496,-0.4491405487060547,-0.661616325378418,-0.1662774235010147,-0.04334977641701698,1.4717313051223755,0.46986857056617737,-2.0269174575805664,-0.7101239562034607,-1.79136061668396,-0.7628446221351624,1.4789330959320068,-2.110992193222046,-2.2763099670410156,0.4577850103378296,0.06807024776935577,1.5873950719833374,-1.5114665031433105,0.45776692032814026,0.5834589004516602,1.0010018348693848,-0.11264611035585403,-0.3948824405670166,-0.48609837889671326,-1.0672376155853271,1.4609951972961426,-0.29463088512420654,0.12913496792316437,-0.17079181969165802,-0.022610124200582504,0.4939478635787964,2.57893443107605,0.21982097625732422,-3.430485486984253,0.6454939246177673,1.3448972702026367,0.8650330305099487,0.8772357106208801,-0.4008015990257263,-1.3720932006835938,-0.10982363671064377,-1.8686007261276245,0.6420905590057373,-0.2366393506526947,3.109438896179199,-1.354425311088562,0.32091087102890015,0.8857443928718567,0.005996680818498135,-1.060937762260437,1.9199219942092896,1.9364895820617676,1.857975959777832,0.34934693574905396,-1.3322999477386475,0.4320242404937744,0.5146238207817078,0.3422187566757202,-0.35343942046165466,0.9398805499076843,0.21219389140605927,-0.17416386306285858,-1.8911290168762207,0.031926706433296204,-2.186638116836548,-1.1378167867660522,-0.24750317633152008,-2.1672563552856445,-0.83302241563797,-0.9221656322479248,0.32665494084358215,2.430344581604004,0.8867200016975403,-0.5935247540473938,1.2157411575317383,0.6432473659515381,-1.7778141498565674,0.4153771996498108,-0.5780587792396545,0.28337448835372925,-0.5734785199165344,0.99343341588974,-0.8024285435676575,-0.6662328839302063,-0.4302600920200348,1.7127221822738647,1.190792441368103,-0.9704864025115967,-0.21422028541564941,0.5434889793395996,-0.7842830419540405,0.2947866916656494,-0.6624013781547546,-1.31743323802948,0.15629133582115173,0.7559077143669128,0.760056734085083,0.2819282114505768,1.825446367263794,-0.8994033932685852,0.7046366333961487,-1.2899175882339478,-0.2223760336637497,-0.08127918094396591,-0.4660571813583374,-0.983673632144928,1.0409834384918213,-0.5537840127944946,-0.5307377576828003,-0.9790535569190979,0.9736589193344116,0.13037851452827454,0.24552655220031738,-1.1192402839660645,2.002032518386841,0.47727325558662415,0.06479689478874207,-0.5563697814941406,1.8539183139801025,-0.975111186504364,-1.3565771579742432,-0.750958263874054,-2.843238353729248,0.15822568535804749,0.9449226260185242,0.5917065143585205,-0.6428938508033752,-0.055296409875154495,-2.178412675857544,-0.054848965257406235,0.6884557604789734,-0.8771620988845825,0.4596880376338959,1.142132043838501,-3.3223214149475098,-0.6906741261482239,-0.5484620928764343,-1.2766226530075073,-0.25028565526008606,-2.780832290649414,-0.0582628957927227,-0.30220162868499756,0.8746623396873474,0.8043202757835388,1.1136829853057861,-0.9995790719985962,-0.9867002964019775,-1.4480931758880615,0.5051171779632568,0.04957769438624382,3.041961908340454,1.4883567094802856,-2.6056535243988037,1.672721266746521,0.8501360416412354,2.8343169689178467,-0.5839099884033203,1.009680151939392,0.38338586688041687,-0.9656908512115479,-0.5941547155380249,1.1445943117141724,1.7614901065826416,0.08497046679258347,-0.6387660503387451,-0.3723459243774414,-0.6543108224868774,-1.3343513011932373,-1.4178591966629028,-1.3265445232391357,0.08982978016138077,-1.6117199659347534,0.37140482664108276,0.6840621829032898,0.02823135256767273,0.7902807593345642,0.5805062651634216,-1.04483962059021
教学方法,0.4609404504299164,-0.5924981236457825,0.5971502065658569,-0.01085340604186058,-0.3325802981853485,0.23052829504013062,-0.8419498801231384,0.40965184569358826,0.45259785652160645,-0.5302566885948181,-0.5160762071609497,-0.34292376041412354,-0.08235672861337662,0.6758225560188293,-0.38436365127563477,0.06044997274875641,0.40164169669151306,0.14944761991500854,-0.5298219919204712,-0.4944491684436798,-0.05702891945838928,-0.1272726058959961,0.050447382032871246,0.11797618865966797,0.0657748356461525,-0.6816945672035217,-0.24195727705955505,-0.32163006067276,0.009955444373190403,0.184915229678154,0.7073452472686768,0.28617069125175476,-0.7860742807388306,-0.38338109850883484,0.4112653434276581,-0.2451220452785492,-0.1936841756105423,-0.43774113059043884,-0.3714614510536194,0.14556936919689178,-0.10243595391511917,-0.237467959523201,-0.1719822883605957,0.12542296946048737,-0.016664311289787292,-0.07236219197511673,0.6197866201400757,0.03945237770676613,-0.4272928535938263,-0.30746766924858093,-0.46021637320518494,0.42070260643959045,0.31420356035232544,0.2146490514278412,0.20045843720436096,-0.2827168107032776,-0.6022741198539734,0.005210380535572767,0.6133303046226501,0.13409963250160217,0.06249552592635155,-0.03695724159479141,0.028827236965298653,-0.024866962805390358,-1.0382033586502075,0.4065997898578644,0.3689292371273041,0.5306349992752075,-0.15970969200134277,-0.4477463662624359,-0.5545249581336975,-0.136372372508049,0.20342758297920227,0.1615937054157257,0.24505168199539185,0.5054656863212585,0.07309214025735855,-0.042067088186740875,-0.028710173442959785,-0.11946587264537811,0.010509784333407879,-0.4319433867931366,-0.46247977018356323,-0.0065144882537424564,-0.34921008348464966,0.17385073006153107,-0.31437060236930847,-0.12614236772060394,0.41518765687942505,-0.3443194627761841,0.042066559195518494,-0.11984726041555405,0.27532926201820374,-0.2635175287723541,-0.5099365711212158,0.5074435472488403,0.5314135551452637,0.5464267730712891,-0.4777095317840576,-0.19582195580005646,0.19217555224895477,0.1908138394355774,-0.14600670337677002,0.3727574944496155,0.026210134848952293,0.1805850863456726,-0.18529656529426575,0.017796408385038376,-0.13061004877090454,0.18161705136299133,0.4330618381500244,-0.5376782417297363,0.3360319435596466,0.2075735479593277,-0.10974662005901337,-0.16213607788085938,0.535722553730011,-0.3414114713668823,-0.051270149648189545,-0.42139145731925964,0.0968143492937088,-0.2533610761165619,0.17447146773338318,0.38749152421951294,0.6403263807296753,0.03015786223113537,0.03338932618498802,0.6776222586631775,1.0491750240325928,-0.26973047852516174,0.3019287884235382,0.07824776321649551,0.4484262764453888,0.4459599256515503,-1.3527997732162476,-0.2377249151468277,-0.5398632287979126,-0.2080947458744049,0.5176207423210144,-0.4673752188682556,0.027809059247374535,0.04244759678840637,0.13887247443199158,-0.04022523760795593,0.2765998840332031,0.015497131273150444,-0.47563743591308594,0.40981554985046387,-0.4147035479545593,0.07812674343585968,0.10761558264493942,-0.02165847457945347,-0.41264134645462036,0.49685147404670715,0.7655722498893738,-0.42488205432891846,0.42649489641189575,0.12116111069917679,-0.7740553617477417,-0.38805681467056274,0.01696801744401455,-0.33155858516693115,0.02636066824197769,-0.3430878520011902,-0.06964506208896637,0.029218273237347603,0.6233752369880676,0.05346532166004181,0.21880340576171875,0.248228058218956,-0.6613367199897766,0.2489122599363327,-0.4171009361743927,0.4366406500339508,0.34284573793411255,0.36308208107948303,-0.4202793836593628,-0.5078828930854797,0.4612431824207306,-0.5738548636436462,-0.2354333996772766,-0.11870164424180984,-0.02093225158751011,-0.5686938166618347,0.2796975076198578,0.42457544803619385,-0.4766605496406555,0.07434404641389847,-0.5025327801704407,-0.051628876477479935,-0.6773834824562073,-0.18482521176338196,-0.23382891714572906,0.20554955303668976,-0.12664885818958282,-0.26858922839164734,0.2651836574077606,0.3422788083553314,-0.38074037432670593,0.3207699954509735,0.2457031011581421,0.3381217122077942,-0.021963143721222878,-0.6904307007789612,0.11935251951217651,0.3351539969444275,0.16731515526771545,0.4311341643333435,0.4586559236049652,0.1738290786743164,0.1364142745733261,0.11282642930746078,-0.341105580329895,0.32418787479400635,0.2949844002723694,-0.11395935714244843,0.1339312642812729,0.5749693512916565,0.2471858114004135,0.1932147592306137,0.2945127487182617,0.3322242796421051,0.0960831567645073,-0.009776562452316284,0.20356248319149017,0.18977192044258118,-0.03162327781319618,0.12597212195396423,0.07523582875728607,-0.1581123024225235,-0.46536844968795776,-0.928250789642334,0.49040067195892334,-0.3046863377094269,0.29167109727859497,-0.34393107891082764,0.6848074793815613,0.2569572925567627,0.09247609972953796,-0.11816460639238358,-0.11604411900043488,0.34525537490844727,-0.7421661615371704,0.5736075639724731,-0.6050423979759216,-0.8170074224472046,0.2781519591808319,-0.012655138969421387,-0.35116493701934814,-0.11816821247339249,-1.044337272644043,-0.024297550320625305,0.42606765031814575,-0.11473271250724792,0.2806839048862457,-0.2998301386833191,-0.781741201877594,0.6113796830177307,0.36377280950546265,-0.5110665559768677,0.06998883932828903,-0.5224820375442505,-0.02020091377198696,0.0570111908018589,-0.3905535340309143,-0.44320377707481384,-0.12830457091331482,-0.7218374609947205,0.13472381234169006,0.1693516969680786,0.07206893712282181,0.12660464644432068,0.750678300857544,0.43305888772010803,-0.4392413794994354,0.09938815981149673,0.10012856870889664,0.21440932154655457,-0.17816978693008423,-0.015512515790760517,0.5329309701919556,0.304479718208313,-0.13029436767101288,0.4203985631465912,-0.34059014916419983,-0.1815163642168045,0.5606021285057068,0.6884936094284058,-0.33449530601501465,-0.5172547698020935,-0.23619404435157776,-0.3979036509990692,0.03495527058839798,-0.25669941306114197,0.07242996245622635,0.0907609760761261,0.20827166736125946,-0.44648125767707825,-0.13936254382133484,-0.5212995409965515
学生,2.4274003505706787,0.6676017642021179,-0.3195067048072815,-1.5146596431732178,0.1727207750082016,1.452633261680603,-0.35073041915893555,1.008644461631775,0.4949832856655121,-0.45167276263237,-2.1444039344787598,-0.3783314526081085,-1.0853773355484009,2.07775616645813,0.0663750022649765,0.747175395488739,1.621368408203125,-2.252326488494873,-1.6297706365585327,-1.0349071025848389,-1.1834450960159302,-1.431551218032837,0.8203704953193665,-0.759503960609436,0.02453678846359253,0.3526619076728821,0.5756027698516846,0.6613054871559143,-0.07520250976085663,-0.32644376158714294,0.2907957434654236,-0.30388325452804565,0.27436545491218567,-0.359199583530426,-1.6898772716522217,0.6419627070426941,-2.4325668811798096,0.2887516915798187,2.1714417934417725,0.37906402349472046,-0.06127474829554558,0.21229419112205505,-3.430680751800537,0.33024197816848755,-0.14084962010383606,-0.8149098753929138,-0.8671942353248596,-0.8729926347732544,-0.03621916100382805,0.48681217432022095,0.09763206541538239,1.2205392122268677,-1.3339409828186035,0.7441984415054321,1.9624731540679932,-0.03607267886400223,-2.8759710788726807,1.9408135414123535,0.7206252217292786,-0.08380004018545151,0.40922555327415466,-0.15805502235889435,1.662166714668274,-0.3993189334869385,-2.2350826263427734,1.5327835083007812,-0.7549910545349121,0.9190800786018372,0.5022585391998291,-0.784062385559082,1.8431390523910522,1.435198187828064,0.9197763800621033,-0.42131611704826355,0.5060980916023254,1.5308856964111328,-0.534180760383606,-0.5038022994995117,-0.6170633435249329,0.14356011152267456,-2.041274070739746,-2.362490653991699,-1.5808595418930054,0.40731558203697205,-0.48636549711227417,-2.901843547821045,1.0781446695327759,-3.164966344833374,0.15329208970069885,-0.8078912496566772,0.38397035002708435,1.126283049583435,-0.01586245745420456,1.209523320198059,-0.37848588824272156,0.34678420424461365,1.6899408102035522,1.578308343887329,-1.876854658126831,0.055889204144477844,-0.8843470215797424,-0.668521523475647,0.7638744115829468,0.26817798614501953,-0.597614049911499,0.576040506362915,1.2288093566894531,2.9573206901550293,-0.6444916725158691,0.23549355566501617,1.538079857826233,-0.43627241253852844,0.6693174839019775,-2.284198522567749,0.13448697328567505,0.042224910110235214,1.3706817626953125,-1.169102668762207,-1.757171630859375,-0.07263399660587311,0.7780779600143433,0.5140701532363892,1.2674745321273804,0.4085436463356018,0.6037304997444153,-0.7883595824241638,2.3954904079437256,-0.23707064986228943,1.6373783349990845,1.0001896619796753,0.562788188457489,-0.9742347002029419,-0.4481993317604065,-0.056182801723480225,-2.136502742767334,-1.689730167388916,-2.1730844974517822,1.7363947629928589,0.44511017203330994,-1.7508620023727417,-2.797074794769287,-0.41656434535980225,0.39672765135765076,-2.286910057067871,1.9879189729690552,0.7612072229385376,0.13437700271606445,0.7754893898963928,0.9057824015617371,0.15532590448856354,0.5692418217658997,-1.5033637285232544,-0.5601193904876709,1.043440818786621,-0.20962855219841003,-1.0436861515045166,0.8785082697868347,2.7797374725341797,-1.032585859298706,2.1887001991271973,0.053801167756319046,0.2131766825914383,1.0246094465255737,0.20933963358402252,1.0006133317947388,-1.6735584735870361,-0.5782981514930725,1.5535640716552734,0.4844690263271332,0.018608365207910538,-1.0935451984405518,-0.11559233069419861,0.5918384194374084,0.003208573441952467,1.8467546701431274,2.1782267093658447,1.046303629875183,-6.0106377601623535,1.7313392162322998,-1.45237398147583,1.4665285348892212,1.3203774690628052,-0.2340497523546219,-1.4136765003204346,-0.548393189907074,-0.14942961931228638,-0.1644551306962967,1.0239700078964233,-1.2754729986190796,2.4089441299438477,-0.7169970870018005,2.4723644256591797,1.0431336164474487,0.24461878836154938,0.5014877915382385,-1.0546668767929077,-0.04700472205877304,-1.1307295560836792,1.4590728282928467,-1.9943195581436157,-0.029042458161711693,0.5150038003921509,0.6397930383682251,-1.71165931224823,0.8678264617919922,1.2070603370666504,0.54615318775177,2.854515552520752,0.13450992107391357,1.2517393827438354,0.48469531536102295,-1.6997957229614258,-2.0805094242095947,2.1596953868865967,-0.7763893008232117,0.36947229504585266,-1.145639181137085,2.305556058883667,-0.8955638408660889,1.0909830331802368,-1.2235560417175293,-0.5925915837287903,2.172325611114502,-1.4448062181472778,0.09258417785167694,0.36956629157066345,2.0883936882019043,0.05072967708110809,-0.5531234741210938,1.7853845357894897,-0.6914584636688232,-0.9332666397094727,0.7428682446479797,-0.1969345510005951,-0.19437727332115173,-0.978522539138794,1.9119282960891724,0.1945313662290573,1.8002924919128418,0.5811038017272949,-0.24054478108882904,1.4589593410491943,1.428706169128418,1.3905218839645386,-0.6275588274002075,-3.0655319690704346,-1.1372313499450684,0.22898542881011963,-0.9583989977836609,-0.08162616193294525,-1.8892325162887573,-0.5206745266914368,0.7584895491600037,2.5110411643981934,-1.2498198747634888,0.3903631865978241,-0.8482473492622375,1.1543269157409668,2.2539784908294678,-0.36745941638946533,0.8714079260826111,-0.3045040965080261,0.47036129236221313,-1.4577643871307373,-1.7240896224975586,0.10622632503509521,-0.9472326636314392,-1.2032448053359985,-0.026650166139006615,0.7330891489982605,0.48073920607566833,-1.0590051412582397,0.15348748862743378,2.988537311553955,0.7248193025588989,-0.26987937092781067,1.5153173208236694,0.04614045470952988,-0.08234784752130508,0.4004153609275818,0.453748494386673,0.05732385069131851,-0.44591447710990906,0.9957892298698425,0.22552943229675293,0.6784207820892334,1.3375217914581299,0.3143123686313629,-0.250425785779953,-0.6646475195884705,-1.6895644664764404,0.5086709260940552,-0.5711305141448975,-1.5816891193389893,2.4419519901275635,-1.3175716400146484,1.0456279516220093,-0.2966093122959137,0.38108667731285095,-0.7530199289321899
运用,0.5332802534103394,-0.5997076034545898,1.5425344705581665,0.7895228266716003,-0.9598766565322876,-0.8888329267501831,0.11814014613628387,0.3596034049987793,-0.13242852687835693,-0.37597760558128357,-0.13340608775615692,0.36427706480026245,-0.09435540437698364,1.227183222770691,-3.600203514099121,-0.6904705762863159,0.017390169203281403,0.03461572155356407,0.11044537276029587,0.3897130787372589,-0.7157940864562988,0.8448482155799866,-0.9728217720985413,-2.3605759143829346,0.2613585591316223,-0.9764444231987,0.1851453334093094,-0.4129202663898468,-1.098448634147644,1.235654354095459,-0.48909997940063477,1.4391931295394897,-1.8814432621002197,-0.31030938029289246,-2.722548484802246,1.5266821384429932,0.9213468432426453,-2.070911407470703,-1.0459140539169312,-1.3393322229385376,-0.6880155801773071,-0.8572297096252441,-0.2820311188697815,-2.313570499420166,-1.2915750741958618,0.9361228346824646,0.6183226704597473,0.17579285800457,-1.074689507484436,-1.136193871498108,-0.36480581760406494,1.1174349784851074,-1.7162996530532837,-0.49213922023773193,-0.3271888196468353,0.7925083041191101,-0.1940544694662094,-0.6294282078742981,-0.1333794891834259,0.579647421836853,0.7807163000106812,1.8726704120635986,-1.014259934425354,-0.4335147738456726,-2.704702615737915,-0.3775808811187744,0.694408655166626,1.6777979135513306,-0.6205195784568787,1.1024010181427002,-1.8348091840744019,0.34790584444999695,0.26167726516723633,-0.2296692579984665,-0.24431942403316498,0.602800190448761,1.786073088645935,1.38039231300354,1.5428378582000732,0.6987186074256897,-0.7207254767417908,-1.0401611328125,-1.549051284790039,-0.8403376936912537,-1.1613167524337769,0.8421889543533325,0.11140850186347961,1.0543874502182007,0.1404525637626648,-0.21992997825145721,-2.3069193363189697,0.2760460674762726,-0.46490561962127686,-0.47822919487953186,-0.07388487458229065,-0.7666235566139221,-0.22227981686592102,-0.7731714844703674,0.8935807347297668,-1.4128434658050537,1.591834306716919,-0.17854036390781403,1.1487451791763306,-0.5377680063247681,-0.6929490566253662,0.9326408505439758,0.5413931608200073,-0.19728630781173706,-1.1766681671142578,0.5001844167709351,1.5684393644332886,-0.6951285600662231,-1.0164533853530884,-0.567241370677948,0.48891162872314453,-0.2639753520488739,-0.7223771214485168,0.10898538678884506,-0.8052204847335815,0.14443998038768768,1.8185988664627075,-3.569201946258545,0.1444084793329239,0.26659491658210754,-1.6085128784179688,0.9732086658477783,0.45943203568458557,0.5397263765335083,0.47349077463150024,-0.45542606711387634,1.4338146448135376,-0.0803150087594986,-1.375354528427124,2.0998988151550293,-1.4619275331497192,0.37709346413612366,-0.18902082741260529,-0.6216332316398621,1.2811472415924072,-1.4425379037857056,0.4701268970966339,1.5895308256149292,-2.9482178688049316,0.21321024000644684,1.841916561126709,0.21134737133979797,-0.8869455456733704,-0.29894769191741943,2.2768445014953613,-0.4810883402824402,-1.5855376720428467,0.25991135835647583,-1.8167847394943237,0.8052974343299866,1.359523892402649,-2.01369047164917,0.32612136006355286,0.4839162230491638,0.2557642161846161,-1.1071618795394897,-0.6482483744621277,1.1876453161239624,0.7090035080909729,-1.5306183099746704,1.7042142152786255,-1.3327808380126953,0.5235078930854797,0.5651817917823792,1.4102615118026733,1.3829668760299683,0.6163889169692993,1.2484943866729736,-0.1991300731897354,-0.4182485342025757,0.5408251285552979,0.6660290360450745,0.06650788336992264,0.7709124684333801,0.8618684411048889,0.533110499382019,-2.338283061981201,-1.5333926677703857,-0.8437360525131226,-2.689162492752075,0.1346098780632019,1.473985195159912,-1.4040307998657227,0.4124516546726227,-0.6760961413383484,-1.8222126960754395,-2.2302472591400146,0.036875590682029724,-0.49903732538223267,0.6473753452301025,-0.8283299803733826,-0.7654122114181519,1.7197849750518799,0.7902281284332275,-1.609649896621704,0.43274590373039246,0.8680558204650879,-1.5308940410614014,0.46504923701286316,-1.2426161766052246,-0.7180564403533936,0.9095308184623718,-0.2619990408420563,0.8733892440795898,1.1521707773208618,-0.9608732461929321,0.718388557434082,-0.2825346887111664,-0.964143693447113,-2.088230848312378,-0.16760015487670898,-0.3418347239494324,1.3379586935043335,1.4416404962539673,-1.0063426494598389,-0.8173926472663879,0.20600645244121552,1.0266555547714233,-0.3738097548484802,0.5738948583602905,0.22226689755916595,0.0940479263663292,0.028345292434096336,-0.11437734216451645,-0.2791946828365326,-1.832082748413086,0.4000979959964752,-0.3524864614009857,-0.24197030067443848,-0.3677375316619873,-0.5263203382492065,0.5266779661178589,1.6839333772659302,-1.3153877258300781,0.0049041640013456345,1.1610485315322876,0.44152840971946716,1.4074945449829102,0.2320251762866974,0.3048325479030609,0.15150496363639832,-0.2433157116174698,-1.5364569425582886,-0.8212611675262451,-0.5103360414505005,0.9584366679191589,-1.2581865787506104,0.4180806875228882,0.7893086075782776,0.6914379596710205,-0.180956169962883,0.3493805229663849,-1.3933358192443848,-0.2623348832130432,1.9379264116287231,-1.2198724746704102,-0.10356340557336807,-1.5038584470748901,-0.20742693543434143,-0.020799623802304268,0.8971382975578308,0.8896682262420654,-0.7086925506591797,-1.808057427406311,-0.4364685118198395,-1.6928738355636597,1.0126402378082275,-2.6878907680511475,3.0184080600738525,0.33464646339416504,1.6574249267578125,0.8013453483581543,0.6630656719207764,1.8654340505599976,0.1282036155462265,0.7321069836616516,3.3547863960266113,2.217203140258789,-1.0036253929138184,2.397611379623413,-0.6862108707427979,1.2206356525421143,1.3479167222976685,-0.2603938579559326,-3.365933656692505,-0.8237918019294739,-0.31792062520980835,-1.717868685722351,1.3692207336425781,-1.6189117431640625,-1.356309413909912,0.36725589632987976,-0.26990658044815063,0.34816673398017883,-0.36015957593917847,-0.3480493724346161
训练方法,0.1640336811542511,-0.28171899914741516,0.35874423384666443,0.04138723388314247,-0.0954434871673584,-0.007740715052932501,-0.15389542281627655,0.08386614173650742,-0.06430643051862717,-0.25199922919273376,-0.12539753317832947,0.14906011521816254,0.12644389271736145,0.2767461836338043,-0.1534639298915863,0.08941720426082611,0.20710445940494537,0.21782882511615753,-0.05570055544376373,-0.09042008221149445,-0.07014044374227524,-0.03442128747701645,0.0006727089057676494,-0.21406914293766022,0.03157823160290718,-0.35989072918891907,-0.11871259659528732,-0.14385272562503815,-0.11842098087072372,-0.05397867411375046,0.1688304841518402,-0.007971284911036491,-0.01688135415315628,0.03212110325694084,-0.04433881491422653,-0.021979907527565956,0.19049102067947388,-0.21093760430812836,0.02493327297270298,0.11333158612251282,-0.07608097791671753,-0.1746072918176651,-0.126657173037529,0.024587707594037056,0.16113492846488953,0.007680333219468594,0.05542222037911415,0.0016884697834029794,-0.12265422195196152,-0.21978093683719635,-0.14866386353969574,0.2537994980812073,-0.06384232640266418,0.21085844933986664,0.10888968408107758,-0.046833306550979614,-0.15074847638607025,-0.1959877908229828,0.3008286654949188,0.15180028975009918,0.1228019967675209,-0.047074444591999054,-0.10272188484668732,-0.021455558016896248,-0.19385932385921478,0.32971784472465515,-0.039173007011413574,0.1160058081150055,-0.06462032347917557,-0.4159215986728668,-0.19970424473285675,0.09516902267932892,-0.06899420917034149,-0.04446372762322426,-0.07550797611474991,0.3306073248386383,0.055727750062942505,0.022466693073511124,-0.2676847279071808,0.0033804159611463547,0.07732927799224854,-0.1459749937057495,-0.4133375585079193,-0.2651479244232178,-0.006739999167621136,0.15980657935142517,-0.16705243289470673,-0.0773826465010643,0.10763460397720337,-0.12611615657806396,0.1257600486278534,0.12385757267475128,0.01557094231247902,-0.1521190106868744,-0.15556831657886505,0.03527623042464256,0.22900132834911346,-0.054632823914289474,0.06831052899360657,-0.004176602698862553,0.17773549258708954,-0.06904179602861404,0.017198096960783005,0.00877260323613882,-0.07471735775470734,0.20296795666217804,-0.050954725593328476,0.036899250000715256,0.07442867010831833,0.20435595512390137,0.034097302705049515,-0.036301348358392715,-0.10827181488275528,0.07488394528627396,0.07972035557031631,0.09213151782751083,0.1192191019654274,-0.013328682631254196,-0.09719478338956833,0.13044866919517517,-0.05776974558830261,-0.018823469057679176,0.029754770919680595,0.15372240543365479,0.33015206456184387,-0.13435624539852142,0.04972534626722336,0.18198400735855103,0.4108205735683441,-0.15387502312660217,0.0556778721511364,0.03898444026708603,0.17493917047977448,0.2910386621952057,-0.3755589723587036,-0.25700294971466064,0.08025619387626648,-0.08194316923618317,0.10989440232515335,0.07056961208581924,-0.011702384799718857,0.00021164132340345532,-0.022983137518167496,0.23111440241336823,0.05000165477395058,0.12709230184555054,-0.07274230569601059,0.15798047184944153,0.042793888598680496,-0.015433299355208874,0.046681810170412064,-0.32700681686401367,-0.09191310405731201,0.17878907918930054,0.20899486541748047,-0.21302805840969086,-0.019544348120689392,0.09213768690824509,0.1668223738670349,-0.08124974370002747,0.07703772187232971,-0.11691275238990784,-0.09536565095186234,-0.07833307981491089,0.0709904208779335,-0.17630359530448914,0.2982761859893799,-0.11564503610134125,-0.0026377830654382706,-0.0570039227604866,-0.09275981783866882,0.011427911929786205,-0.06078086420893669,0.108136385679245,0.2470492273569107,-0.07447626441717148,-0.2185785472393036,-0.2034532129764557,0.3250574767589569,-0.02694723941385746,-0.21988002955913544,-0.04601336643099785,-0.026336153969168663,-0.212784543633461,-0.044955141842365265,0.2739369869232178,-0.18200109899044037,0.1757298707962036,-0.04480034112930298,-0.06628326326608658,0.030883338302373886,0.036825358867645264,0.1021198108792305,0.1199011281132698,0.05023202672600746,-0.11412875354290009,0.03289322927594185,0.12326674908399582,-0.16545136272907257,0.30368489027023315,-0.1940121054649353,-0.05861733853816986,0.08114597946405411,-0.3379565179347992,0.08362884819507599,-0.13915178179740906,0.03957764804363251,0.09379272162914276,0.06407975405454636,0.16005168855190277,0.02753237448632717,-0.15504765510559082,-0.09642858058214188,-0.12355682253837585,0.22634738683700562,-0.11583366990089417,0.06469396501779556,0.21360549330711365,0.23312823474407196,0.11015981435775757,-0.06290793418884277,-0.14013177156448364,-0.19871431589126587,-0.04227081313729286,-0.057669974863529205,0.07512084394693375,0.13812153041362762,0.05773382633924484,0.013535423204302788,-0.2983323037624359,0.06714038550853729,-0.14861269295215607,0.02692226693034172,-0.2046264261007309,-0.042747680097818375,0.0025384153705090284,0.20622144639492035,0.18249621987342834,-0.13227885961532593,0.14282123744487762,0.25837671756744385,-0.05306221544742584,-0.30268752574920654,0.145380899310112,-0.3316231667995453,-0.1096578985452652,0.030193934217095375,0.09506732225418091,0.019497063010931015,0.06473054736852646,-0.14752712845802307,0.012114212848246098,-0.11775344610214233,-0.0775352418422699,0.1861245036125183,-0.09103027731180191,-0.21176232397556305,0.1628917157649994,0.06177001819014549,-0.13910694420337677,0.20298592746257782,0.030559279024600983,-0.231852188706398,0.08679205924272537,-0.08178591728210449,-0.17526130378246307,-0.20339277386665344,-0.18205833435058594,0.25315505266189575,-0.006937467958778143,0.07018063217401505,0.0026921413373202085,0.08189664781093597,0.17619304358959198,0.020452622324228287,-0.005983288399875164,0.1934087872505188,0.29462915658950806,-0.0333041250705719,0.015886196866631508,0.17222197353839874,0.06916255503892899,-0.17895843088626862,-0.03266848623752594,-0.004393830429762602,-0.10217094421386719,-0.02883867733180523,0.21442358195781708,-0.019056418910622597,-0.20261898636817932,-0.10246141254901886,-0.10942597687244415,-0.053347449749708176,-0.046784430742263794,0.2843829095363617,-0.04016676917672157,0.02860329858958721,-0.1617956906557083,-0.1339901238679886,-0.1778499186038971
后续,0.4500746428966522,0.3122710883617401,1.491795301437378,-1.32918119430542,0.031426623463630676,1.1046404838562012,-0.11619623750448227,3.1481568813323975,-0.8064451813697815,0.4671469032764435,-0.35531216859817505,0.043022286146879196,0.411065012216568,-0.34127211570739746,-1.0413106679916382,1.7242389917373657,-0.8941807746887207,0.29063680768013,-1.0005648136138916,-0.2928508222103119,-1.4349819421768188,-1.1854441165924072,-1.454575777053833,-1.0211879014968872,0.32293811440467834,0.825783908367157,0.8062102794647217,-0.768964946269989,-0.6342941522598267,2.050166606903076,0.3372889459133148,1.2157080173492432,1.0093528032302856,0.09344926476478577,-0.8497745990753174,-0.5256466269493103,-1.2259528636932373,-0.42041945457458496,-0.2327057421207428,-0.23904740810394287,0.17921295762062073,0.8986546397209167,-0.0400424562394619,0.9331610202789307,0.686954140663147,1.0793509483337402,-0.7601742148399353,-0.5319948792457581,-0.7338033318519592,-0.9015240669250488,1.469007134437561,1.0154657363891602,2.6243398189544678,-1.409609317779541,-0.05674697831273079,2.399315595626831,1.8570678234100342,0.47949454188346863,-0.12256240099668503,0.5942809581756592,1.123435378074646,0.1636153906583786,0.22206328809261322,1.4388160705566406,1.6422828435897827,0.6437095999717712,0.9545290470123291,0.6749492287635803,-1.2397409677505493,-1.4135844707489014,-1.095043659210205,0.5851070284843445,0.16168583929538727,-2.461013078689575,-0.977250337600708,0.29498758912086487,-0.8113983273506165,0.7564976215362549,1.7734403610229492,-0.9660342335700989,1.387200117111206,0.24459369480609894,-1.414229154586792,0.08817261457443237,-0.6540347337722778,0.2590406537055969,-0.440438449382782,-0.5361335873603821,1.326348066329956,-1.160156011581421,0.7086172103881836,0.19878776371479034,1.7670855522155762,-0.8246655464172363,-1.0850293636322021,-0.4959509074687958,-0.033487629145383835,-0.4744536280632019,-1.5880323648452759,0.27916571497917175,1.1013786792755127,-1.871919870376587,-0.010725030675530434,0.33290278911590576,1.0821447372436523,0.6650373935699463,2.8163795471191406,-0.1342853158712387,0.41927891969680786,-1.184472680091858,-0.8114434480667114,-0.7904421091079712,-0.2684020698070526,0.12774986028671265,-1.3647537231445312,-0.6742345690727234,1.145131230354309,-2.8624343872070312,-0.15087006986141205,0.7804967761039734,0.10088664293289185,-0.3389948606491089,-0.06045372784137726,1.9975550174713135,-0.9019527435302734,-1.553745985031128,1.1608461141586304,-0.9032173752784729,-0.8777578473091125,0.29458996653556824,-1.1597394943237305,-1.7294131517410278,0.425555557012558,1.5281531810760498,-1.5604259967803955,1.031519889831543,-0.7153550386428833,1.2327936887741089,1.019003987312317,-1.4878860712051392,-0.30482566356658936,0.7591469883918762,-1.296873688697815,0.239015594124794,1.6713168621063232,1.3019330501556396,-1.5524628162384033,-0.34142088890075684,0.3463244140148163,-0.36911922693252563,-0.2449669986963272,0.4424189627170563,-0.40520602464675903,2.3996994495391846,0.015122611075639725,0.17063118517398834,1.5626466274261475,0.7533488869667053,-1.421431541442871,0.6745725870132446,-0.6040852665901184,-1.9391956329345703,1.9195865392684937,-0.06722106784582138,1.4590060710906982,-0.08853837102651596,-1.2964266538619995,0.24546363949775696,1.1864638328552246,0.9686803817749023,0.4194418787956238,-0.6009155511856079,1.5000076293945312,-0.0846233144402504,0.8798537254333496,1.4894120693206787,0.1111382246017456,0.45227617025375366,-1.4820646047592163,0.20682311058044434,-0.05206606909632683,0.5406973958015442,-0.8674251437187195,0.4568864107131958,0.5341571569442749,-0.19158817827701569,-0.015198780223727226,0.8529244065284729,1.308658242225647,0.0401771254837513,-0.6917585134506226,-0.03348772972822189,0.06748731434345245,1.2489612102508545,0.011983754113316536,-0.06726768612861633,0.43952876329421997,-0.2619989514350891,-1.2250638008117676,-0.09935376793146133,1.6074597835540771,-2.0959017276763916,-0.9495200514793396,0.6796176433563232,-0.1641377955675125,0.35577404499053955,-0.8262055516242981,0.9476165771484375,1.009769082069397,-0.14576703310012817,0.021490653976798058,-0.4036923348903656,-1.4478275775909424,-1.3187525272369385,-1.8988876342773438,-1.727061152458191,0.2132229059934616,0.8451480269432068,-0.30532827973365784,0.24559356272220612,1.5286109447479248,0.9172000885009766,-1.0695326328277588,0.9121363759040833,0.9608933329582214,-0.3883781433105469,0.4460155665874481,1.1236698627471924,-0.9033917188644409,0.6793338060379028,-0.5955061316490173,-0.2885534167289734,1.3421428203582764,0.9773393869400024,-1.431640386581421,-1.1371269226074219,0.2099894881248474,-0.43678608536720276,0.7954735159873962,1.0814859867095947,-0.0028313202783465385,0.5449153184890747,0.13744886219501495,-0.8825382590293884,-0.7756598591804504,0.6837308406829834,-0.34206095337867737,0.8558324575424194,0.6003691554069519,0.5131876468658447,-0.2577289640903473,-1.0964690446853638,-0.05929222330451012,-1.9450362920761108,0.8785600662231445,-1.0269044637680054,-3.060324192047119,1.383664608001709,0.62444007396698,0.3779594302177429,0.6970688700675964,0.054114747792482376,0.33651795983314514,-0.3138028383255005,-0.2772060036659241,0.3894510269165039,-0.014704189263284206,-1.4879816770553589,-1.9782906770706177,-1.6611192226409912,-0.42197802662849426,1.8464173078536987,0.7630452513694763,0.6779783368110657,-0.5294667482376099,0.2834632098674774,1.4992082118988037,-1.3174848556518555,1.5698577165603638,-1.2003692388534546,-0.8221089839935303,0.3342393934726715,-0.5210437178611755,1.1105772256851196,2.063859462738037,0.36869704723358154,0.2134103775024414,-0.8817644119262695,-0.13734358549118042,-2.418051242828369,0.8604756593704224,0.542228639125824,1.1527851819992065,-1.0038002729415894,-0.15048295259475708,1.8266853094100952,-0.3872677981853485,-0.541205883026123,-1.2650794982910156,-0.7976822853088379
书写,0.14474144577980042,-1.2407320737838745,0.3917672038078308,-0.4975692331790924,-1.3715850114822388,0.9010509848594666,-1.6166465282440186,-2.463665723800659,-0.024576382711529732,-1.175640344619751,-0.6464776396751404,-1.2510038614273071,0.4770873188972473,0.8053879737854004,-0.43993255496025085,-0.8998479843139648,0.42189908027648926,-1.0822043418884277,-2.014885663986206,0.8302711248397827,0.3179965019226074,1.4826115369796753,-1.3704471588134766,-1.5707600116729736,0.06383048743009567,-0.15156584978103638,-0.9714234471321106,-0.1420922875404358,-0.5084050297737122,-0.8911091089248657,-0.655582070350647,1.197837471961975,-1.9721777439117432,-1.1095174551010132,1.4075307846069336,-1.1404685974121094,-0.05991542339324951,-1.3765497207641602,-0.24028882384300232,0.24859841167926788,-1.6200134754180908,-0.9926721453666687,0.3239741027355194,-0.3668423593044281,-0.4944705665111542,-0.04221486300230026,1.8931868076324463,-0.5395264029502869,-0.550904393196106,-0.6218045949935913,0.6919565200805664,1.5441440343856812,0.4091271162033081,-0.06999337673187256,1.0588165521621704,-0.18734948337078094,-0.32313328981399536,-1.3502861261367798,-0.6612435579299927,0.8293046355247498,2.2130162715911865,0.6941523551940918,-0.21864505112171173,-0.34006956219673157,-0.7894076108932495,0.12237974256277084,-0.2942267656326294,-0.42458006739616394,-0.6116372346878052,2.0750298500061035,0.1336335390806198,1.3763439655303955,1.0632669925689697,-0.8102628588676453,1.0144366025924683,1.8127400875091553,0.4764181673526764,-1.3753328323364258,-1.0847564935684204,1.303743839263916,0.26584580540657043,0.09498466551303864,0.524929940700531,-2.1546618938446045,0.24210333824157715,3.2621712684631348,1.6643602848052979,0.07493072003126144,0.7950166463851929,-0.5373762845993042,1.5820348262786865,-0.014811759814620018,1.7388509511947632,-0.4821206331253052,-1.2947415113449097,0.049846865236759186,1.5725468397140503,1.1385958194732666,-0.21832722425460815,-0.9530692100524902,0.6771706342697144,-1.267749309539795,0.5795716643333435,1.0348106622695923,-0.4783959984779358,-0.5307498574256897,-1.10039222240448,3.050693988800049,-0.625522792339325,-0.4439619481563568,0.6100345253944397,-0.02241484262049198,1.6134742498397827,1.8220086097717285,1.7442046403884888,-0.031201763078570366,-0.5852286219596863,1.1968659162521362,-1.5266931056976318,0.6772456765174866,0.4825902581214905,-0.9980396032333374,-0.2780573070049286,-2.246882915496826,1.1501530408859253,0.826289176940918,0.9091359376907349,-0.361397922039032,3.167102336883545,3.6310982704162598,0.5585277080535889,-0.8212925791740417,-1.5729734897613525,0.9259253144264221,-1.1533459424972534,-0.07658049464225769,-0.7856096029281616,-1.3318042755126953,0.1545824259519577,-1.2396422624588013,-0.3990066647529602,2.5833654403686523,0.0020870498847216368,0.49037742614746094,-1.848227858543396,-0.7097479701042175,-1.4301177263259888,0.6605058312416077,-2.132197856903076,-1.6505600214004517,1.398536205291748,-1.1248235702514648,-2.2107863426208496,-2.0751185417175293,2.0114312171936035,0.7261942625045776,-0.5057716965675354,-1.4183318614959717,-1.0097547769546509,-1.336073875427246,-1.6165260076522827,0.8145610690116882,-0.03584623709321022,-1.7361583709716797,-0.27590447664260864,0.7788737416267395,1.7919189929962158,2.011751174926758,-0.9232382774353027,1.7415646314620972,1.1983668804168701,0.912731409072876,-0.42536646127700806,-0.04445982724428177,-0.8163583874702454,0.46549639105796814,0.6390552520751953,1.438984751701355,-1.3807752132415771,0.3069089353084564,-0.7788426876068115,-0.897689700126648,2.1249117851257324,-2.227875232696533,-0.3374629020690918,1.7853842973709106,-1.7557700872421265,-1.1127960681915283,-1.2360562086105347,-0.4918258786201477,-0.7865925431251526,0.0425298735499382,-1.1901848316192627,1.0094506740570068,-0.8669531345367432,1.1277871131896973,1.399217128753662,-0.25888967514038086,-0.6450433731079102,-0.23542822897434235,0.49049997329711914,-1.9129992723464966,-0.8855590224266052,-0.32930052280426025,-0.20826806128025055,-0.004432643763720989,0.019483748823404312,4.41718053817749,-1.2061448097229004,0.1752520501613617,1.2587283849716187,1.6754307746887207,-1.1055384874343872,-0.20577265322208405,-0.06753486394882202,-1.007271647453308,0.2339673936367035,-0.9006028175354004,-1.8082995414733887,-0.17945151031017303,-0.22973936796188354,-1.0603291988372803,1.162751317024231,1.0317004919052124,-1.0844637155532837,0.9380906820297241,-0.02636038325726986,-1.8789458274841309,0.2603461742401123,-0.4754863679409027,1.1095987558364868,0.8159745335578918,-1.0666648149490356,-1.254003643989563,0.33683809638023376,-0.9002902507781982,1.8983606100082397,-1.5334572792053223,0.5340903997421265,-0.8563579320907593,-0.5234917998313904,1.2213282585144043,0.6264978647232056,-0.6745488047599792,0.20398403704166412,0.16948333382606506,-0.9330834746360779,0.5665324330329895,-1.0133545398712158,1.5364971160888672,-0.1734200268983841,0.2645213305950165,3.101564645767212,0.4997904300689697,-1.308351755142212,-2.809976816177368,-2.17075514793396,1.810529112815857,0.9302210211753845,-1.990893006324768,-0.538154661655426,-1.7657380104064941,0.41790980100631714,0.5508251190185547,2.1310126781463623,-1.6848725080490112,-1.4965156316757202,-0.8950986862182617,0.07289007306098938,-0.383828729391098,-1.6992238759994507,-0.11902720481157303,1.9902360439300537,2.5073158740997314,0.061061762273311615,0.13870294392108917,0.4746364951133728,1.5682861804962158,0.30931034684181213,1.2140976190567017,-1.1043968200683594,1.0344336032867432,0.07525864243507385,2.5391335487365723,1.3559002876281738,0.10413073748350143,1.5465412139892578,0.8913865685462952,0.07184701412916183,-1.8469878435134888,-0.503823459148407,-1.2073496580123901,-0.4912782311439514,0.027278877794742584,0.4940960109233856,1.974269151687622,0.08263164013624191,-0.27439847588539124,-2.44620680809021,-1.5824508666992188
不断,1.4027459621429443,-0.19027458131313324,-0.8032699823379517,-1.3295928239822388,-0.891061007976532,0.8725177049636841,0.1271401196718216,0.8171780109405518,-1.9428653717041016,0.5841280817985535,-1.053125023841858,0.3443911075592041,-1.7298003435134888,-0.9042453169822693,0.15149256587028503,1.1278200149536133,1.0649093389511108,-0.539189338684082,0.4371953308582306,-1.7145355939865112,-0.92659592628479,-1.7620899677276611,-1.3264631032943726,-1.8177886009216309,0.2769748568534851,-1.5789281129837036,0.23341743648052216,-3.130615234375,-0.15475398302078247,1.546990990638733,0.32269012928009033,-2.6048097610473633,-0.3681923449039459,0.5681707859039307,-2.065281629562378,-0.6723604798316956,0.49416908621788025,0.09810556471347809,-0.9709506034851074,-1.6362104415893555,-1.331981897354126,-0.5181254148483276,-1.8190418481826782,-0.42055705189704895,0.07558288425207138,0.04036879539489746,-0.6719294786453247,0.6427441835403442,-1.2469459772109985,-0.40991824865341187,1.383785605430603,1.887847900390625,0.8484135866165161,-1.2531877756118774,1.5081173181533813,1.2428498268127441,-1.9177162647247314,1.2605644464492798,1.2713783979415894,-0.20488868653774261,0.5429559946060181,0.18894805014133453,0.9830407500267029,1.1156920194625854,-1.3816460371017456,0.6633331179618835,0.5691118240356445,1.3751583099365234,-1.2979665994644165,-2.1550724506378174,-0.292451947927475,-1.8235344886779785,-1.5881015062332153,-1.870070219039917,1.0911418199539185,0.9555792212486267,-0.20914117991924286,-0.2387816160917282,-0.607465922832489,-2.0852203369140625,2.7629151344299316,-0.01285035815089941,-1.2033380270004272,0.27291595935821533,-1.6748929023742676,1.5283433198928833,2.041790246963501,-0.8712426424026489,0.10327935218811035,-0.3961676061153412,1.4393810033798218,0.9036059975624084,0.13155993819236755,0.1650383621454239,-1.7962387800216675,-1.1545860767364502,1.140203833580017,1.2563034296035767,0.13548551499843597,-1.0163438320159912,3.2339866161346436,0.016760997474193573,-1.3949904441833496,-0.31989455223083496,0.12978871166706085,2.084181547164917,-0.3802604079246521,0.34502241015434265,0.3239758014678955,0.1458059847354889,-1.9666249752044678,0.5013010501861572,-1.4170308113098145,-1.8620585203170776,0.043685320764780045,-1.4847162961959839,1.5480074882507324,-1.2550336122512817,0.6649378538131714,0.6077263355255127,1.1060870885849,-2.1040499210357666,-0.33425474166870117,-0.113029345870018,0.47035717964172363,-1.7596259117126465,2.1307647228240967,0.5220385789871216,0.9896454215049744,-0.08015496283769608,2.824995994567871,-0.00795301515609026,-2.561645269393921,0.3934337794780731,-0.5757007598876953,-0.4771868586540222,-0.8765634894371033,1.2842867374420166,-0.0875333920121193,-0.970759391784668,-0.19720175862312317,2.335880994796753,-0.5611261129379272,0.5936506390571594,-0.24829545617103577,2.4468958377838135,-0.7325713038444519,-0.3886120319366455,-2.113274097442627,0.3281042277812958,-1.1904536485671997,0.9839682579040527,0.8735312223434448,2.3894903659820557,0.22087450325489044,-0.9561346769332886,1.7022041082382202,-0.6558964252471924,-1.7559354305267334,1.0857477188110352,-1.1524301767349243,0.8980339765548706,0.27461665868759155,0.8978957533836365,2.3087868690490723,-0.302860289812088,0.2849561274051666,0.34370407462120056,-1.24526846408844,-0.8558659553527832,0.42065131664276123,0.36253854632377625,-0.7356334328651428,-0.6131298542022705,2.3879222869873047,2.6909945011138916,-0.29626744985580444,0.9980753660202026,0.5741956233978271,-0.08454018086194992,0.27196764945983887,-1.0492650270462036,-0.5536803603172302,0.3619101345539093,0.12306898087263107,3.1762917041778564,1.1082206964492798,0.395004004240036,-1.222805380821228,0.49016210436820984,0.4721294939517975,0.5548176765441895,1.7619551420211792,2.4927260875701904,-0.8716065883636475,2.238199472427368,-1.3204268217086792,-0.612962007522583,0.3253993093967438,-0.7841558456420898,-0.7726437449455261,-0.5807258486747742,1.0189484357833862,-0.6918329000473022,-0.24172991514205933,-1.4573296308517456,0.28863173723220825,-0.1812085509300232,-0.5586158037185669,-1.6477879285812378,0.7777202725410461,2.4734914302825928,-1.9022741317749023,0.1194748803973198,-1.0446614027023315,-1.407126545906067,0.9622019529342651,1.106513261795044,-0.771697998046875,-0.06383240967988968,-1.1578713655471802,2.9799485206604004,1.0532253980636597,0.20619791746139526,-0.43190833926200867,1.0162190198898315,-1.598533272743225,2.7542784214019775,-0.9295567870140076,-0.03508521616458893,1.4378095865249634,-2.38250470161438,0.4060247242450714,-0.9505422711372375,-0.27893829345703125,0.9071735143661499,1.6197956800460815,-0.0064990222454071045,-0.21551935374736786,-1.2184299230575562,1.9597049951553345,1.4300216436386108,-1.2204508781433105,-2.0654165744781494,-2.3753035068511963,1.172864556312561,0.1987127661705017,-1.4529517889022827,1.9364798069000244,1.7503372430801392,-0.6327046751976013,-0.3732464909553528,1.0662868022918701,-0.3467504382133484,0.38241806626319885,-1.6359972953796387,-1.6889880895614624,-0.7899068593978882,1.5475692749023438,-1.536385178565979,1.0860133171081543,0.007389603648334742,-0.4699711799621582,1.402599811553955,-0.384385883808136,-0.15398433804512024,-2.3070406913757324,-1.2496426105499268,-3.0999419689178467,-0.9520766139030457,-0.5816100239753723,0.3133791983127594,-0.047037191689014435,2.394883632659912,-0.23999308049678802,-0.3390004634857178,1.5326145887374878,-0.21296952664852142,-0.558341920375824,0.5401548743247986,0.9159504771232605,0.5680807828903198,0.40273934602737427,1.6137771606445312,0.21255895495414734,2.0004799365997314,0.5901835560798645,0.5929477214813232,-0.13263674080371857,-2.126619577407837,1.244092583656311,-0.6279172897338867,-0.1856755018234253,-2.0524041652679443,2.3894309997558594,-0.6062902212142944,-1.2993590831756592,-1.1309378147125244,-0.2210274636745453,-2.0523428916931152
内容,-0.5491161942481995,-0.09919115900993347,2.630500555038452,1.0744850635528564,1.0158010721206665,0.6901936531066895,-2.4442453384399414,1.9817782640457153,-1.784225344657898,-1.0284068584442139,-0.3865547776222229,-0.7640345096588135,0.838716447353363,0.0950421392917633,-1.676837682723999,0.4797780513763428,2.768672227859497,0.08846026659011841,-0.9311440587043762,-0.9433454871177673,-0.7426550388336182,-1.505221962928772,-2.1243410110473633,-0.04898590222001076,0.9802189469337463,-1.5254555940628052,-0.027448240667581558,-2.200005054473877,-2.4732065200805664,1.6382484436035156,0.1687079817056656,1.0375462770462036,-0.660111129283905,-0.8538318276405334,0.7343457341194153,-1.5533623695373535,-1.6533204317092896,-0.9918529391288757,0.6313572525978088,1.0407212972640991,-1.4691898822784424,0.6704586148262024,-1.9944055080413818,-0.05184246599674225,0.8789350986480713,-0.5806528329849243,1.6749151945114136,-0.42620849609375,0.13483157753944397,0.004229738377034664,0.056882768869400024,0.6876601576805115,0.3202289044857025,-0.39540642499923706,0.7348541617393494,2.586522340774536,0.9293219447135925,-1.6432065963745117,1.1628929376602173,-0.547201931476593,-0.13564111292362213,1.5849072933197021,-0.325617253780365,0.3571128845214844,-0.10627304762601852,1.4676603078842163,1.2059980630874634,1.2793776988983154,-1.2937343120574951,-0.8177646398544312,-0.8021507263183594,-0.15972699224948883,-0.4608108401298523,-0.645581066608429,-0.31264162063598633,1.384761095046997,-0.11763738095760345,-0.0021496866829693317,-0.060204751789569855,-0.1699041724205017,0.20837882161140442,-0.16486267745494843,-1.2801015377044678,2.251023054122925,-1.3801873922348022,0.7036154270172119,0.13421747088432312,1.0929208993911743,-0.4743833541870117,-0.393830269575119,-0.2708797752857208,1.3266983032226562,1.3293406963348389,-0.0966208279132843,-2.437657117843628,0.24336300790309906,2.3880505561828613,3.927879571914673,0.32605209946632385,-0.44496408104896545,1.3735357522964478,-2.5032927989959717,0.53872150182724,1.096129059791565,-1.7443830966949463,-1.0708177089691162,-0.08326323330402374,-0.12157592922449112,-2.4453835487365723,0.47789931297302246,2.7454206943511963,0.8049328327178955,-2.1473701000213623,0.9176700115203857,1.0838555097579956,-0.9241957664489746,0.4634229838848114,-0.05427089333534241,1.1059340238571167,0.2865445911884308,0.9232513904571533,0.1604226976633072,0.16660965979099274,1.1226119995117188,-1.4770081043243408,-2.3067586421966553,1.6195518970489502,0.6961472630500793,3.288905382156372,-0.5621375441551208,-0.6379361748695374,-1.766466736793518,1.4919334650039673,1.5880749225616455,-0.5436432361602783,0.5885288715362549,1.7126621007919312,0.95964515209198,0.5035021901130676,-2.8752291202545166,-0.1674320548772812,1.7555994987487793,-0.16780908405780792,-0.7702996730804443,0.6039929986000061,-0.31600600481033325,-0.48665961623191833,1.4488224983215332,-0.9668089151382446,-1.328701376914978,0.30892544984817505,0.14433184266090393,-2.2609314918518066,-0.6875697374343872,0.2870323061943054,-1.8456552028656006,-1.6025264263153076,0.22104504704475403,-0.33347761631011963,-0.9567473530769348,-0.9699820876121521,-0.35884028673171997,1.8616371154785156,-0.7816144227981567,0.6255933046340942,-1.7155112028121948,-0.059499289840459824,0.9140929579734802,-1.572321891784668,2.1613879203796387,-0.713537871837616,-0.36298641562461853,0.5949546098709106,1.2316974401474,0.8014684319496155,1.0199617147445679,-0.6674948930740356,2.5849952697753906,-0.93300461769104,-0.06843240559101105,-1.6723873615264893,-0.5461203455924988,-0.09895475208759308,-0.6195261478424072,-0.7076753377914429,0.6443610787391663,0.36487069725990295,-0.116104356944561,-0.4381096363067627,0.20595112442970276,-1.7526832818984985,-0.09993935376405716,0.8424708247184753,0.678912341594696,-0.43245476484298706,-1.2947388887405396,1.558733344078064,0.35772383213043213,-2.5181612968444824,-0.37679794430732727,1.9762544631958008,0.5879042148590088,0.5805193185806274,-1.0093660354614258,-0.7523341774940491,1.0679725408554077,0.4219202399253845,1.4706792831420898,0.20774586498737335,0.9272675514221191,-1.7322049140930176,-0.13965488970279694,-0.742068350315094,-1.290125846862793,-0.1490221470594406,-3.3298492431640625,-0.2015182077884674,0.06956634670495987,-1.6613476276397705,1.2827911376953125,-0.3056124150753021,-1.9179664850234985,-1.6033445596694946,0.617900550365448,1.7375417947769165,-1.3666033744812012,0.7478477358818054,-1.1632943153381348,-0.6254417896270752,1.3948450088500977,-1.1986653804779053,-0.17369702458381653,2.2274765968322754,0.03482948988676071,-0.5913059115409851,-0.05792338773608208,0.8102045059204102,0.13052934408187866,1.480185627937317,-0.3334473669528961,1.6316988468170166,1.3478739261627197,0.8779373168945312,1.7878791093826294,-1.2564468383789062,-0.5390886664390564,-0.13446268439292908,0.20289911329746246,-0.026721179485321045,-0.13548414409160614,-0.896896243095398,-1.6534775495529175,0.5063432455062866,0.6751080751419067,-0.1837044656276703,-2.320070743560791,-2.750744104385376,0.7793132662773132,2.271862506866455,-0.5520874857902527,-0.7674265503883362,-0.8306812644004822,-0.797161877155304,1.153506875038147,0.2751682996749878,0.49916329979896545,-0.4302199184894562,-1.2109085321426392,0.24446582794189453,0.06240340694785118,0.4577975869178772,-0.48380908370018005,-0.22531239688396454,1.3349167108535767,0.15575431287288666,-0.13146968185901642,-0.11127139627933502,-1.2378153800964355,-0.2744032144546509,-0.3691290318965912,0.6635055541992188,-1.325028419494629,-2.093871831893921,0.989725649356842,2.4315505027770996,-0.24879473447799683,1.7568378448486328,0.17260277271270752,0.5882506370544434,-1.7684434652328491,0.5397059321403503,-1.032293677330017,0.3004331886768341,-1.8880300521850586,-0.4827299118041992,-0.4573593735694885,-0.8171741366386414,-1.7306153774261475,-1.2625759840011597,-1.547824740409851
拼音,-0.5640569925308228,0.6598339676856995,1.4350084066390991,-0.9086321592330933,-1.7211054563522339,0.19753572344779968,-1.1670830249786377,-1.10071861743927,1.049076795578003,-0.7361246943473816,-0.2328100949525833,-1.6688834428787231,1.9829392433166504,1.932874321937561,1.1891043186187744,0.9870468378067017,1.239935040473938,-0.9579733610153198,-1.399619221687317,-0.5828014016151428,-0.9605481028556824,-0.7381873726844788,2.375291585922241,1.4422197341918945,0.7052518129348755,1.0809175968170166,-3.3382723331451416,0.7727304100990295,0.8430583477020264,-2.6056807041168213,-0.6657402515411377,-0.8745599389076233,-0.028431599959731102,-0.0660071074962616,0.6053109169006348,-1.5821642875671387,1.315915822982788,-3.1775968074798584,-0.4581764340400696,1.9579718112945557,0.3029010593891144,-0.40211185812950134,-1.4046779870986938,-0.2278490662574768,0.2172551304101944,-1.3069020509719849,1.727034568786621,-1.3946226835250854,1.0323238372802734,0.6002913117408752,-1.241011381149292,1.759821891784668,-1.6929450035095215,0.637837827205658,0.5121853351593018,-1.7373031377792358,0.06001785025000572,0.5620743036270142,-1.3877664804458618,1.165697455406189,3.766481399536133,-0.6976384520530701,-1.7134184837341309,0.21281927824020386,-1.6865081787109375,0.5796989798545837,2.117074489593506,1.4907084703445435,-0.002900823252275586,-0.097640261054039,-1.36844801902771,3.5178439617156982,2.868022918701172,0.9621096849441528,0.8031309247016907,1.173473834991455,-2.3939623832702637,-1.2174568176269531,-1.9561413526535034,0.4777943193912506,-1.5225141048431396,0.009753106161952019,-1.0309737920761108,-0.8302125930786133,-1.7037657499313354,0.46072056889533997,-0.02340880036354065,1.5462104082107544,1.39605712890625,-0.44815492630004883,1.6441417932510376,0.12262638658285141,0.9598491191864014,-0.6359387040138245,0.7959977388381958,0.15875360369682312,-1.1783173084259033,1.5864053964614868,-0.5669412016868591,-0.5804780721664429,-0.6510649919509888,-0.01775556057691574,-0.16910886764526367,-0.7388216853141785,1.031524419784546,0.7440325021743774,-1.1696759462356567,-0.9327729344367981,-1.509660243988037,-0.1359827220439911,1.563320279121399,-2.1817500591278076,0.39767950773239136,1.4657597541809082,1.2564644813537598,1.2520748376846313,0.41981229186058044,-0.7885577082633972,-1.259758472442627,-1.581713080406189,-0.4196550250053406,0.5844116806983948,-0.2292139083147049,-0.8213428854942322,-2.7378592491149902,0.9368975758552551,-2.2693023681640625,0.3863365352153778,2.690885305404663,0.5847077369689941,-0.7452020645141602,-0.9738276600837708,-0.04968109726905823,2.016221761703491,1.6756255626678467,1.3665268421173096,-0.8754031658172607,1.1372480392456055,-1.8486613035202026,0.09929453581571579,-0.8188396692276001,0.5405465364456177,-0.18759213387966156,0.49768102169036865,0.6915380358695984,0.9856202602386475,0.3147594928741455,1.6941747665405273,-2.22230863571167,-1.7010549306869507,-0.45113474130630493,-2.6420981884002686,-2.734194278717041,-3.054471969604492,1.5047187805175781,0.1661507934331894,0.7737773060798645,-1.8583359718322754,1.1094529628753662,0.18575868010520935,-3.184877872467041,0.21026436984539032,-1.4604177474975586,-2.8937556743621826,-1.7060785293579102,0.9044999480247498,1.3044390678405762,0.635509729385376,-1.2249995470046997,1.4190716743469238,3.044499158859253,2.172311305999756,2.547382354736328,-1.7133500576019287,-0.7285820245742798,-0.184945747256279,0.26621341705322266,1.490438461303711,-0.4806007742881775,-0.6881089806556702,-0.52253258228302,-2.4372124671936035,-0.6956340670585632,-1.9043811559677124,0.4592899680137634,-0.861798882484436,-0.16711468994617462,-0.8278489112854004,1.2947086095809937,0.1273125857114792,-0.17226624488830566,-3.78960919380188,-2.2827956676483154,-0.025881683453917503,-0.8325949311256409,4.404970169067383,-1.2183586359024048,-1.0823618173599243,0.9079607725143433,0.894702672958374,0.4671565890312195,0.6951544880867004,-1.1227093935012817,1.8098068237304688,-1.9264500141143799,-1.2619963884353638,0.6212603449821472,1.946448802947998,-0.7534657716751099,-1.2496486902236938,3.076899528503418,1.085280418395996,-0.11256036907434464,-2.51212215423584,-0.3427342176437378,-2.3241004943847656,0.5175645351409912,-0.9975486993789673,0.6378962993621826,-2.033130645751953,-0.12731339037418365,-0.9722129702568054,1.3242733478546143,-0.5676339268684387,0.19875875115394592,-0.5261205434799194,2.36157488822937,-1.5456092357635498,2.2728521823883057,-0.9637562036514282,-0.8072705864906311,0.04852703586220741,-1.4943616390228271,1.945218801498413,-2.5812904834747314,0.5539788007736206,3.1894500255584717,-1.3335225582122803,-0.7566032409667969,0.5944960713386536,-0.8686540126800537,0.28610292077064514,-0.8254936337471008,-2.2909164428710938,1.2133915424346924,-1.021156907081604,-0.4858018159866333,2.2379939556121826,-4.1577582359313965,-0.8373929858207703,-1.3022586107254028,0.8694037199020386,0.8073204755783081,-0.5220671892166138,0.3172644376754761,0.8657352924346924,-2.407585859298706,-0.5203132629394531,-1.7241960763931274,-2.0304315090179443,-0.5339369177818298,-1.1139321327209473,-0.7452678680419922,-0.4149487316608429,0.007565739098936319,-1.7098100185394287,-0.5950647592544556,-0.499141126871109,0.028465555980801582,1.087408423423767,0.559622049331665,0.8179471492767334,1.8433117866516113,0.8926758766174316,-0.5209593772888184,1.5302404165267944,-1.454398274421692,0.9551829695701599,-1.5567117929458618,-0.49882692098617554,-0.6010788083076477,1.008629322052002,0.5942338109016418,1.444094181060791,0.05601714551448822,-1.0114641189575195,2.1366214752197266,2.557023286819458,-0.7102953791618347,-0.4068407416343689,-0.2930547893047333,1.0625832080841064,0.9297523498535156,-1.2446991205215454,0.7387851476669312,3.03584885597229,2.0187182426452637,-0.35985711216926575,-0.23207949101924896,0.6532453298568726
提高,0.5606556534767151,-3.8423032760620117,2.646167039871216,0.5571926236152649,-2.93207049369812,1.8675655126571655,-2.468663215637207,0.7133327126502991,-2.4225215911865234,0.17215031385421753,-2.326094150543213,-1.7603542804718018,0.13229034841060638,-1.9087367057800293,-2.8063840866088867,-2.6333160400390625,-0.493896484375,-2.0834367275238037,-3.4860610961914062,-0.3491751551628113,-1.8337202072143555,-2.000544548034668,0.658098042011261,-1.776750087738037,-0.2613579332828522,-0.7237526774406433,0.9133966565132141,-0.650476336479187,-1.6854684352874756,0.3403210937976837,1.23580002784729,-0.398922860622406,-1.489201307296753,0.9266443252563477,-3.1920528411865234,-0.6724451780319214,-1.7120482921600342,-1.806052327156067,-3.575352668762207,-1.2657564878463745,-1.550844669342041,-1.0172743797302246,-0.8865270614624023,0.05092872679233551,0.9215686917304993,0.024820687249302864,-0.6176455020904541,1.120654821395874,-0.9853105545043945,0.535047709941864,-0.1742202341556549,1.4653288125991821,1.9855891466140747,-0.8725595474243164,-0.9553295373916626,-0.8985418677330017,0.9132726192474365,3.0358102321624756,0.5134258270263672,-1.896718144416809,-0.8669496178627014,-0.6715514659881592,-1.0257108211517334,-0.2432149350643158,-1.8936275243759155,0.3569481670856476,0.43458667397499084,2.555804967880249,-0.029155632480978966,-2.4744973182678223,-0.4765731990337372,-0.665471613407135,-2.23565673828125,1.4705311059951782,0.43023914098739624,-3.0801138877868652,1.6143293380737305,1.839492917060852,0.5523695945739746,-1.607509732246399,-0.2572251558303833,2.0583395957946777,-1.167301893234253,-0.7804476022720337,-0.3263819217681885,1.613863468170166,1.3634337186813354,1.6944162845611572,0.8442609310150146,-0.47110429406166077,-1.6480830907821655,0.670939028263092,-0.34485557675361633,0.12329095602035522,0.17171725630760193,-0.5123591423034668,1.6210722923278809,3.1543452739715576,1.6620211601257324,-0.2701992988586426,2.656383991241455,-0.98921138048172,1.9436239004135132,0.3842603862285614,1.0701301097869873,2.8199799060821533,-0.3268417418003082,1.74504554271698,-2.4250035285949707,-0.7657578587532043,-1.6985708475112915,0.05871438607573509,-0.7779207229614258,-2.6447482109069824,-0.18838165700435638,-0.8674865365028381,0.6750345230102539,-0.10629133880138397,-2.2119510173797607,0.08581123501062393,-0.021234620362520218,-3.2639362812042236,-0.1821189671754837,1.7297002077102661,1.0597141981124878,0.13364112377166748,0.03411339223384857,0.9468415379524231,1.714611291885376,0.7487707734107971,1.941394567489624,1.0794942378997803,-0.4679584801197052,0.7717195153236389,0.842863142490387,-1.5323446989059448,-0.42457401752471924,2.0529580116271973,0.5887556672096252,-0.7778292298316956,-1.2793852090835571,0.1590348333120346,-1.2559146881103516,-1.2174460887908936,1.0023702383041382,-1.3335423469543457,-3.6097030639648438,0.6782743334770203,0.6995067596435547,1.4069691896438599,1.1806937456130981,0.8991587162017822,0.7133851647377014,1.8337738513946533,0.06706937402486801,-1.2391858100891113,0.07600733637809753,1.708310604095459,0.4980587661266327,-1.0014833211898804,-1.853518009185791,-0.06305715441703796,1.6974833011627197,-0.9675912261009216,2.3446457386016846,1.7485285997390747,1.385730504989624,-1.0755594968795776,0.09928259998559952,1.3423314094543457,-0.7293445467948914,-0.039705146104097366,0.6732938885688782,0.4874765872955322,1.8732781410217285,0.7169540524482727,-0.318717896938324,-0.28564751148223877,0.7084599733352661,0.5296096205711365,-0.8556824326515198,0.9803396463394165,-0.33256858587265015,-0.661716639995575,0.09558995068073273,2.0784072875976562,-2.528015375137329,0.8554151654243469,1.5266422033309937,-2.2321181297302246,-3.0321576595306396,-1.9717552661895752,-0.7141837477684021,0.26094862818717957,1.2615069150924683,-0.3671703338623047,-0.9535911679267883,0.28522735834121704,1.1283397674560547,0.3052200376987457,-0.3271511197090149,-2.132906913757324,2.650571346282959,0.12671568989753723,1.2683464288711548,-0.17856474220752716,0.2107793241739273,0.18800503015518188,0.6099237203598022,-1.5259029865264893,-0.7864339351654053,-0.6386075019836426,-2.439749240875244,-0.6619229316711426,-0.600509524345398,0.9822744727134705,0.2565871775150299,2.150404214859009,-1.1477800607681274,0.25080475211143494,-0.4307665526866913,0.36036691069602966,2.6147348880767822,1.6892811059951782,-1.3457205295562744,-2.3895275592803955,3.2035040855407715,-1.1382988691329956,-2.2017760276794434,-0.012637513689696789,2.218618631362915,0.13037090003490448,1.645514726638794,0.11511816084384918,-1.7224876880645752,-0.19215236604213715,0.11089018732309341,0.14611203968524933,0.34519514441490173,-0.18738193809986115,-0.8783003091812134,-0.4734368920326233,-1.7257139682769775,-1.4360071420669556,-2.214264154434204,-2.122243642807007,-0.5300177335739136,-0.818202018737793,-0.20248255133628845,-1.5253331661224365,-4.377539157867432,-0.5168567895889282,1.3652607202529907,-0.4543938636779785,-0.007869256660342216,1.141274333000183,-1.5297139883041382,-0.8435379266738892,-0.8788678050041199,-1.0518643856048584,0.6097812056541443,-2.6963388919830322,-0.5682778358459473,-0.17113156616687775,1.0258153676986694,2.917158603668213,-1.9312864542007446,-1.004889965057373,-1.607143759727478,0.15141595900058746,-0.12288995087146759,-1.5432008504867554,-1.7074025869369507,0.9425843954086304,-0.7953763604164124,0.6108826398849487,-0.5572659373283386,2.0888586044311523,1.6839882135391235,1.2109514474868774,-0.3794712424278259,1.841335654258728,-0.3871568441390991,1.302799105644226,-0.546737790107727,0.38661670684814453,-2.0502986907958984,0.469356894493103,-1.5958398580551147,-1.1266672611236572,-0.5992687344551086,-1.8618872165679932,0.07868561893701553,2.205375909805298,-1.1818008422851562,-0.537799596786499,0.002890166360884905,0.12279266119003296,-0.20967048406600952,-2.1227869987487793
课堂,0.7646090388298035,-0.43022826313972473,1.0229694843292236,0.562730073928833,0.4199729859828949,-0.3230554163455963,-1.9559882879257202,0.6308385133743286,1.5525950193405151,-0.8409245014190674,-1.6258766651153564,0.24808360636234283,-0.5493046045303345,0.30040332674980164,-0.6714184284210205,0.9296700954437256,1.545805811882019,0.0880475640296936,-0.5391760468482971,-0.4509626030921936,-0.9870710372924805,0.607423722743988,0.4708501994609833,-0.6010082960128784,0.43924370408058167,-0.3985925614833832,-0.47983160614967346,0.2993282377719879,-0.09063404053449631,-0.6483548879623413,0.8155252933502197,0.3761325478553772,-0.8481374979019165,-1.3351309299468994,-0.34774643182754517,-0.5576837062835693,-0.3179212212562561,0.1716083586215973,-0.07623045146465302,-0.14514805376529694,-0.21170096099376678,-0.579096257686615,-1.1394600868225098,0.43751710653305054,0.6109412312507629,0.23671390116214752,-0.128657728433609,-0.8326491713523865,0.027923928573727608,-0.0855710431933403,-2.4561989307403564,-0.3404896557331085,0.28400537371635437,0.06610815227031708,1.0299780368804932,-0.8384455442428589,-0.07062537223100662,-0.5217986702919006,1.5886080265045166,1.7761143445968628,0.20712797343730927,0.42809081077575684,0.008862019516527653,-0.8472180366516113,-1.9424664974212646,1.8899492025375366,0.3088456392288208,3.018588066101074,0.41606032848358154,0.4791257679462433,-0.44020530581474304,0.6881939768791199,-0.728130578994751,-0.38721734285354614,0.3533785343170166,0.6284523606300354,-0.35261139273643494,-0.7093976140022278,0.10042951256036758,-1.2899789810180664,-1.4982659816741943,-0.8634544610977173,-0.5723866820335388,0.3389512002468109,-0.34944623708724976,-0.15225113928318024,-1.2414908409118652,-0.5990941524505615,0.8745887875556946,0.5032744407653809,-0.7314692735671997,-0.5974512696266174,0.3784659504890442,-0.12334074079990387,-2.136920690536499,0.096157006919384,1.1341021060943604,1.3809796571731567,-1.4290224313735962,-0.6829849481582642,1.0462908744812012,-0.319000780582428,0.5555210113525391,0.6607826352119446,-1.150115728378296,-0.675131618976593,-0.0056437114253640175,0.9968576431274414,0.8260098099708557,0.9424638748168945,1.1289235353469849,-0.12431616336107254,0.33626657724380493,-0.1477002203464508,0.5746687650680542,-0.1453683078289032,0.9295987486839294,-0.648179292678833,-1.788408875465393,0.43515583872795105,1.2801483869552612,0.5289456844329834,1.9602916240692139,0.763525128364563,0.40768253803253174,-0.2707679271697998,0.03893719241023064,1.2456375360488892,2.3165555000305176,-0.3906118869781494,-0.6082279682159424,0.06308098137378693,0.17603860795497894,-0.550150990486145,-2.069443702697754,-0.036783814430236816,-1.1058080196380615,-1.400816559791565,0.7088748216629028,-3.0925960540771484,-1.0484856367111206,-0.3765419125556946,0.47463127970695496,-0.42065882682800293,1.1473827362060547,0.04404802247881889,-0.2773938477039337,1.2820967435836792,-0.42547163367271423,1.0010204315185547,1.2623807191848755,-0.015310815535485744,-1.1641868352890015,1.3286316394805908,-0.04639866575598717,-1.6276687383651733,1.4229109287261963,-0.4435266852378845,-0.5389140844345093,-0.29641738533973694,-1.2520393133163452,-0.10327161103487015,-0.24468417465686798,-1.056671380996704,1.2675578594207764,-0.7480854988098145,1.1806716918945312,1.0002787113189697,0.36376523971557617,0.04307623952627182,-0.7363847494125366,-0.4323730766773224,0.3129022419452667,-0.05479889735579491,0.8697769045829773,0.7511988282203674,-1.0182818174362183,-2.3214006423950195,0.6326246857643127,-0.16304907202720642,-0.04805177077651024,0.3167489171028137,-1.0985350608825684,-0.8721094727516174,-0.3758919835090637,0.30526044964790344,-1.0530295372009277,-0.6783444285392761,0.10119282454252243,0.42064228653907776,-0.6279762387275696,1.2251856327056885,0.00744586018845439,-0.3514224886894226,0.6436792612075806,-0.3329344689846039,1.4689769744873047,-0.5457637310028076,-1.3888131380081177,-0.942689836025238,-0.46761631965637207,1.1835358142852783,0.7932714819908142,-2.3956708908081055,-0.023540182039141655,1.1611669063568115,0.6251707077026367,2.1956894397735596,0.6610251069068909,1.9218229055404663,-1.3209208250045776,0.6694579124450684,-0.12864214181900024,0.9621842503547668,-0.6650753021240234,-0.9494437575340271,0.7910540103912354,1.0855664014816284,-0.7883355617523193,0.9296329617500305,-0.12729842960834503,-0.11058592796325684,0.8766931891441345,-0.8231287002563477,0.6027392745018005,-0.7910577058792114,-0.11592438071966171,1.4722479581832886,0.01814611814916134,0.4315371513366699,-0.3585282862186432,-1.8106694221496582,0.8733537197113037,-0.5921927690505981,1.171675682067871,1.1245917081832886,1.6506083011627197,0.9177178740501404,1.4336479902267456,-0.4602431058883667,0.5366837382316589,1.414507269859314,-1.147970199584961,-0.27164018154144287,0.3477088212966919,-1.840076208114624,0.24204428493976593,0.41392016410827637,-0.13213558495044708,0.041389063000679016,-0.262147456407547,-3.3875958919525146,0.30398687720298767,1.9036563634872437,-0.5566197633743286,0.7475969195365906,-0.9980165362358093,1.205557107925415,2.6498751640319824,0.6360704302787781,1.0541051626205444,-0.08489476889371872,-0.7427952289581299,-0.5748353600502014,-0.6077753305435181,-0.017947576940059662,0.4902973771095276,-1.398977279663086,-0.7767729759216309,0.21742290258407593,-0.21565474569797516,-0.3189629912376404,1.2826792001724243,2.3927721977233887,-0.25483325123786926,1.3341091871261597,1.3386753797531128,-0.000141458775033243,0.22363637387752533,1.578154444694519,1.770669937133789,1.3393579721450806,0.10339530557394028,0.6338048577308655,-0.8985977172851562,0.3901599943637848,0.6463049650192261,-0.4081614017486572,-0.6464551091194153,-0.3575209677219391,-0.4285036325454712,-0.6383799910545349,-1.5903805494308472,-1.0673869848251343,1.7740658521652222,-0.2147427797317505,-1.012037754058838,-1.030371069908142,-0.18255849182605743,-1.2156482934951782
